8.358200639486312866e-02
-3.107026219367980957e-01
-1.203393265604972839e-01
-2.689066231250762939e-01
7.947906106710433960e-02
-1.334014981985092163e-01
3.005299158394336700e-02
2.137131430208683014e-02
-1.801584810018539429e-01
-1.818716078996658325e-01
4.657944198697805405e-03
-1.036772653460502625e-01
-3.262819945812225342e-01
-8.060149103403091431e-02
-1.869316399097442627e-01
-1.379434317350387573e-01
-1.177654415369033813e-01
-2.798174917697906494e-01
-2.440744638442993164e-01
-3.015568256378173828e-01
1.394530944526195526e-02
-2.518937885761260986e-01
-4.788908362388610840e-02
-3.196372091770172119e-01
-2.086183130741119385e-01
-2.325671315193176270e-01
1.661808192729949951e-01
-3.480509817600250244e-01
-3.993861377239227295e-02
-2.912131696939468384e-02
-3.150394260883331299e-01
-5.083528161048889160e-02
-7.995975762605667114e-02
5.159810185432434082e-02
-1.420387625694274902e-01
-2.233816683292388916e-01
-2.241924032568931580e-02
-5.313399434089660645e-01
-5.147451162338256836e-02
-2.606537044048309326e-01
5.689625069499015808e-02
1.843908056616783142e-02
-2.426028400659561157e-01
8.411557972431182861e-02
-2.614031434059143066e-01
-2.806992828845977783e-01
9.826610982418060303e-02
-1.068503558635711670e-01
-1.347621381282806396e-01
-1.238618269562721252e-01
9.509119391441345215e-02
-7.756569236516952515e-02
-2.518636286258697510e-01
-9.529081732034683228e-02
-4.793556407094001770e-03
-5.355960726737976074e-01
2.552902884781360626e-02
-3.724719285964965820e-01
1.836312413215637207e-01
-3.735922574996948242e-01
-1.624558418989181519e-01
3.884617239236831665e-02
-3.675531744956970215e-01
-3.338982164859771729e-01
-6.939027458429336548e-02
-4.141253605484962463e-02
-1.839535236358642578e-01
-1.509483158588409424e-01
-2.406870722770690918e-01
-1.905470639467239380e-01
-9.208528697490692139e-02
-1.785926334559917450e-02
1.316220220178365707e-02
-2.425861507654190063e-01
-6.391271203756332397e-02
3.773935511708259583e-02
-1.237423419952392578e-01
-1.457070410251617432e-01
-1.152888312935829163e-01
-1.344753801822662354e-01
-2.265445590019226074e-01
-2.629179656505584717e-01
-9.559939056634902954e-02
-6.748798489570617676e-02
6.740625947713851929e-02
-2.312833964824676514e-01
2.976914048194885254e-01
-4.155880808830261230e-01
-6.801694631576538086e-02
-1.182526797056198120e-01
1.440985947847366333e-01
-2.678559720516204834e-01
-1.203364506363868713e-01
1.183823123574256897e-01
-1.437671929597854614e-01
-6.534367799758911133e-02
-1.694613099098205566e-01
7.243683934211730957e-02
3.429692685604095459e-01
-1.643944531679153442e-01
-3.028108552098274231e-02
-3.122151494026184082e-01
1.333404630422592163e-01
-2.067277133464813232e-01
-2.036947309970855713e-01
9.880787879228591919e-02
-3.292581439018249512e-01
1.140197366476058960e-01
-2.795622050762176514e-01
-1.602475196123123169e-01
2.519277036190032959e-01
-3.916069567203521729e-01
-6.836974062025547028e-03
2.715544775128364563e-02
2.087890356779098511e-01
-1.435551643371582031e-01
-2.601689398288726807e-01
-3.034628927707672119e-01
1.898939907550811768e-02
-2.617370188236236572e-01
7.031219452619552612e-02
-3.864611983299255371e-01
-4.927815403789281845e-03
-1.519940793514251709e-01
6.257423013448715210e-02
-1.630349084734916687e-03
-4.509352445602416992e-01
-1.506426185369491577e-01
2.666398510336875916e-02
-6.445693434216082096e-04
3.379749879240989685e-02
2.175289243459701538e-01
1.876408010721206665e-01
-2.369879279285669327e-03
-1.205678656697273254e-01
-3.686056286096572876e-02
1.474704593420028687e-02
-4.858993738889694214e-02
-1.177060604095458984e-02
-7.809530198574066162e-02
-3.555027022957801819e-02
1.008407548069953918e-01
1.122401729226112366e-01
7.265847921371459961e-02
-6.178409326821565628e-03
7.558237761259078979e-03
1.945915818214416504e-02
3.161514922976493835e-02
3.802426531910896301e-02
1.681992900557816029e-03
8.783418685197830200e-02
-4.010270535945892334e-02
1.362885534763336182e-01
2.504681795835494995e-02
-6.784874945878982544e-02
-1.216776203364133835e-02
4.823414608836174011e-02
7.716314494609832764e-02
1.266825497150421143e-01
3.650922328233718872e-02
1.651058644056320190e-01
1.028142683207988739e-02
-1.479825824499130249e-01
5.052172392606735229e-02
8.614014089107513428e-02
-5.439437925815582275e-02
-1.473213434219360352e-01
-2.834048867225646973e-02
9.150005877017974854e-02
4.529010131955146790e-02
-1.727398782968521118e-01
3.699494060128927231e-03
2.028330415487289429e-01
1.479139328002929688e-01
-1.047078222036361694e-01
-5.115770548582077026e-02
-1.192810609936714172e-01
1.191083937883377075e-01
1.116013526916503906e-01
-1.148334965109825134e-01
-3.030086681246757507e-02
-4.515838250517845154e-02
-7.722248136997222900e-02
-4.864619299769401550e-02
-1.381585448980331421e-01
-5.812153592705726624e-02
-3.817334771156311035e-02
1.022725626826286316e-01
-1.971657425165176392e-01
1.507086902856826782e-01
9.645917266607284546e-02
6.575890630483627319e-02
5.236199125647544861e-02
-1.867105513811111450e-01
-6.661956012248992920e-02
-1.127195730805397034e-01
-9.203241765499114990e-02
-1.620050519704818726e-01
9.064859151840209961e-02
-8.142774552106857300e-02
-5.224710702896118164e-02
-2.410819679498672485e-01
-1.217636987566947937e-01
-1.461927592754364014e-01
-4.156818985939025879e-01
-1.750223636627197266e-01
-1.066552177071571350e-01
-9.011214226484298706e-02
-3.092257305979728699e-02
-3.468532487750053406e-02
-2.133789807558059692e-01
-2.321647554636001587e-01
-3.257305175065994263e-02
-3.146190345287322998e-01
1.716307550668716431e-01
-2.486696988344192505e-01
-1.184939220547676086e-01
-1.778700649738311768e-01
2.068292796611785889e-01
-1.921502500772476196e-01
-5.363041535019874573e-02
-1.303351670503616333e-01
-1.577392518520355225e-01
-6.609226763248443604e-02
-1.890010386705398560e-01
1.862658560276031494e-01
3.585081920027732849e-02
-3.552560210227966309e-01
-1.081293821334838867e-02
-5.159273743629455566e-01
-1.478014439344406128e-01
-3.969922065734863281e-01
6.700471043586730957e-02
3.745622560381889343e-02
-2.938774824142456055e-01
5.914136767387390137e-02
-3.866444528102874756e-01
-9.585728496313095093e-02
2.209400832653045654e-01
-1.632988303899765015e-01
-4.734898917376995087e-03
-8.659805357456207275e-02
8.491052687168121338e-02
-2.147913128137588501e-01
-3.378248512744903564e-01
-3.367389142513275146e-01
-2.834310829639434814e-01
-4.309993982315063477e-01
8.315920084714889526e-02
-2.847355008125305176e-01
2.308748662471771240e-01
-2.916851937770843506e-01
-8.315462619066238403e-02
4.801100865006446838e-02
-3.813345730304718018e-01
-2.396208494901657104e-01
