-6.611683964729309082e-02
1.476700007915496826e-01
3.713414445519447327e-02
-5.965278297662734985e-02
-2.397757489234209061e-04
7.680236361920833588e-03
-1.411228813230991364e-02
8.290486782789230347e-02
-1.376666873693466187e-01
-8.935876935720443726e-02
1.992410793900489807e-02
9.205403923988342285e-02
-1.057650446891784668e-01
-7.114909589290618896e-02
-4.217081516981124878e-02
-9.053236246109008789e-02
-1.993475258350372314e-01
1.125613823533058167e-01
-3.046518191695213318e-02
1.808844804763793945e-01
-1.179923536255955696e-03
-1.719368696212768555e-01
8.636505156755447388e-02
3.420134633779525757e-02
-7.180634140968322754e-02
-5.117131024599075317e-02
-2.345191240310668945e-01
-2.329868078231811523e-02
-5.511024594306945801e-02
-1.117010861635208130e-01
7.336038351058959961e-02
-2.110151574015617371e-02
-8.957759290933609009e-02
-2.114770412445068359e-01
2.421430349349975586e-01
8.210659772157669067e-02
9.336320310831069946e-02
1.180777028203010559e-01
4.882383719086647034e-02
6.556373834609985352e-02
-1.797004938125610352e-01
6.236618757247924805e-02
1.003402620553970337e-01
-3.838108107447624207e-02
-9.368593990802764893e-02
1.707310788333415985e-02
-6.710105389356613159e-02
-1.185311470180749893e-02
-1.865887343883514404e-01
-4.344502091407775879e-02
-3.413679823279380798e-02
1.777409911155700684e-01
-1.197939924895763397e-02
-6.968584377318620682e-03
-1.380204968154430389e-02
9.753103554248809814e-02
-1.830809265375137329e-01
-7.838894426822662354e-02
-9.843906760215759277e-02
-2.036070972681045532e-01
2.590596303343772888e-02
-5.677265115082263947e-03
1.970610469579696655e-01
-9.022302925586700439e-02
-7.806478440761566162e-02
1.436631679534912109e-01
-7.461364567279815674e-02
-1.201033443212509155e-01
-1.064037159085273743e-02
9.506236761808395386e-02
-9.326439350843429565e-03
1.851700060069561005e-02
-2.280633002519607544e-01
-1.038397774100303650e-01
-3.888927027583122253e-02
3.302064165472984314e-02
-3.133699297904968262e-02
-1.449999213218688965e-01
-2.109036296606063843e-01
1.895793899893760681e-02
-1.301829367876052856e-01
1.416283100843429565e-02
-1.098860893398523331e-02
1.965789794921875000e-01
4.582257196307182312e-02
-5.765626206994056702e-02
-7.804343104362487793e-02
-1.163008436560630798e-01
-3.418829664587974548e-02
-7.790995389223098755e-02
-5.860641971230506897e-02
1.008680388331413269e-01
1.222735792398452759e-01
1.952062547206878662e-02
2.319421805441379547e-02
3.581777587532997131e-02
-3.742972388863563538e-02
-1.660481840372085571e-01
2.331719994544982910e-01
8.810554444789886475e-02
3.263972327113151550e-02
1.001905798912048340e-01
-6.452023237943649292e-02
-1.106566265225410461e-01
-1.775890886783599854e-01
9.963349252939224243e-02
1.490384936332702637e-01
-3.660349920392036438e-02
3.630197420716285706e-02
1.540874131023883820e-02
5.757154524326324463e-02
5.043737217783927917e-02
-1.710938513278961182e-01
-1.173445880413055420e-01
-1.904691159725189209e-01
6.597904115915298462e-02
-6.828192621469497681e-02
1.476198732852935791e-01
-2.956252545118331909e-02
-1.111649814993143082e-02
-1.954256594181060791e-01
5.434355884790420532e-02
-3.790127858519554138e-02
-1.382946968078613281e-01
-6.271641701459884644e-02
-1.542739719152450562e-01
1.226603388786315918e-01
3.021726198494434357e-02
1.130187883973121643e-01
7.057520002126693726e-02
5.145002156496047974e-02
-4.578135907649993896e-02
-8.063379675149917603e-02
1.081548035144805908e-01
1.779430545866489410e-02
6.885401904582977295e-02
2.237412333488464355e-02
5.175134167075157166e-02
8.029816299676895142e-02
1.639916561543941498e-03
-6.777168065309524536e-02
-8.566507697105407715e-02
-2.795685140881687403e-04
8.210089057683944702e-02
-7.966228574514389038e-02
-8.401642739772796631e-02
8.445178717374801636e-02
5.974435806274414062e-02
-2.258195728063583374e-02
2.479802072048187256e-02
-1.998215354979038239e-02
-7.259824126958847046e-02
-1.069784760475158691e-01
2.096030488610267639e-02
-4.241552576422691345e-02
9.465763717889785767e-02
-1.921239309012889862e-04
5.112086981534957886e-02
1.290130019187927246e-01
-2.921300381422042847e-02
-1.143475528806447983e-03
-1.005589887499809265e-01
2.121517211198806763e-01
-1.136724501848220825e-01
-9.350588917732238770e-02
9.246906638145446777e-02
1.611282676458358765e-01
-1.360310465097427368e-01
4.994565993547439575e-02
-1.770362555980682373e-01
1.485860645771026611e-01
2.657683752477169037e-02
3.491144627332687378e-02
-9.062455594539642334e-02
3.412126749753952026e-02
2.865203842520713806e-02
1.486385986208915710e-02
-5.418707430362701416e-02
1.545496284961700439e-02
1.790675222873687744e-01
5.463111400604248047e-02
5.940437689423561096e-02
-1.267980039119720459e-01
2.166837155818939209e-01
-1.085388958454132080e-01
5.557911843061447144e-02
1.260406225919723511e-01
1.387747675180435181e-01
1.239806413650512695e-01
-6.650976091623306274e-02
-2.986627444624900818e-02
-1.039205864071846008e-01
-1.836685836315155029e-01
-5.478070303797721863e-02
-7.416430115699768066e-02
-3.376519089215435088e-05
1.054815351963043213e-01
-9.498205035924911499e-02
-4.698700830340385437e-02
-3.688793003675527871e-05
-5.712164565920829773e-02
-2.120475620031356812e-01
-1.007798016071319580e-01
1.729572266340255737e-01
-1.019267439842224121e-01
-9.179317951202392578e-02
-1.064353212714195251e-01
8.732492104172706604e-03
-4.069595411419868469e-02
1.803014427423477173e-02
-1.529444009065628052e-01
2.258003875613212585e-02
-1.258787810802459717e-01
-1.752003841102123260e-02
3.431968856602907181e-03
-2.074309624731540680e-02
-4.673531802836805582e-04
-2.377092540264129639e-01
-1.326161921024322510e-01
-7.136922329664230347e-02
-6.179184466600418091e-02
6.415202282369136810e-03
-2.309861406683921814e-02
-1.243755519390106201e-01
-2.757470607757568359e-01
-9.854909777641296387e-02
2.003707922995090485e-02
-2.370757758617401123e-01
-4.893200471997261047e-02
6.525578349828720093e-02
-2.574981190264225006e-02
-1.588654071092605591e-01
-1.803900152444839478e-01
3.771749511361122131e-02
-5.558123812079429626e-02
4.498412087559700012e-02
-6.150423735380172729e-02
-1.039924621582031250e-01
-1.957752555608749390e-01
-2.373843789100646973e-01
-1.730352193117141724e-01
-1.231170967221260071e-01
-5.347461625933647156e-02
6.733064353466033936e-02
-1.655759662389755249e-02
-1.032685209065675735e-02
-2.654067799448966980e-02
1.336324363946914673e-01
-2.035454660654067993e-01
-5.705215409398078918e-02
-3.198635950684547424e-02
-2.514213919639587402e-01
3.660400211811065674e-02
-1.139835268259048462e-01
-1.166970208287239075e-01
3.026344999670982361e-02
