-2.887725234031677246e-01
3.057558648288249969e-02
2.965933680534362793e-01
-3.199809193611145020e-01
5.451231598854064941e-01
-5.693532526493072510e-02
1.183754205703735352e-01
-7.887633889913558960e-02
-3.028500378131866455e-01
-1.139882653951644897e-01
-6.751421093940734863e-02
3.647057712078094482e-01
-1.017608866095542908e-01
-3.017211556434631348e-01
1.670547947287559509e-02
-1.187308654189109802e-01
-1.147787868976593018e-01
4.338758811354637146e-02
-2.015060186386108398e-01
-1.398120671510696411e-01
-3.305583596229553223e-01
-1.969369947910308838e-01
-3.038395345211029053e-01
-7.440253347158432007e-02
-2.640486657619476318e-01
2.555364072322845459e-01
-4.911281466484069824e-01
-2.578543126583099365e-02
3.208296000957489014e-01
-7.464946806430816650e-02
-1.705610305070877075e-01
1.609678268432617188e-01
-9.344010800123214722e-02
-2.375282496213912964e-01
-2.703008949756622314e-01
3.987013697624206543e-01
2.173549234867095947e-01
-2.120042890310287476e-01
-2.266226112842559814e-01
-5.756414681673049927e-02
1.159706935286521912e-01
-8.345941454172134399e-02
-6.193367242813110352e-01
2.217200119048357010e-03
1.837418973445892334e-01
-1.519061774015426636e-01
-1.644582003355026245e-01
2.297657281160354614e-01
6.004975736141204834e-02
-1.792434304952621460e-01
-1.245718523859977722e-01
1.175871938467025757e-01
2.249683290719985962e-01
-3.106349408626556396e-01
-5.342966690659523010e-02
2.472030520439147949e-01
2.391571700572967529e-01
-2.613886892795562744e-01
-4.185287952423095703e-01
-2.031596302986145020e-01
-1.781711280345916748e-01
-1.132875680923461914e-02
-5.066376551985740662e-02
-1.204890459775924683e-01
-8.225369453430175781e-02
-1.186263486742973328e-01
2.778833806514739990e-01
-1.324543505907058716e-01
-2.678350079804658890e-03
8.951777964830398560e-02
-4.903459455817937851e-03
2.776389196515083313e-02
-4.045063555240631104e-01
1.092751100659370422e-01
2.514678612351417542e-02
-3.660192713141441345e-03
-1.647067517042160034e-01
-2.881298772990703583e-02
-5.194483324885368347e-02
2.653169678524136543e-03
-7.515500485897064209e-02
1.083268597722053528e-01
1.318477988243103027e-01
-9.312999993562698364e-02
-8.245874941349029541e-02
1.011247113347053528e-01
-1.964891105890274048e-01
-3.442721664905548096e-01
1.624966971576213837e-02
5.561653152108192444e-02
-3.444296419620513916e-01
-1.137218624353408813e-01
8.172428607940673828e-02
-5.331866070628166199e-02
-2.298502810299396515e-02
2.398612163960933685e-02
-1.327348053455352783e-01
-2.322983443737030029e-01
-1.276362091302871704e-01
-1.185136195272207260e-02
2.155081480741500854e-01
1.453166734427213669e-02
-1.437099874019622803e-01
2.406108379364013672e-01
4.041099920868873596e-02
-1.722159683704376221e-01
-6.271839886903762817e-02
2.290174961090087891e-01
-1.580313220620155334e-02
5.265172198414802551e-02
-8.594768494367599487e-02
2.791629172861576080e-02
-2.144341729581356049e-02
6.716024875640869141e-02
-2.466583251953125000e-01
4.169212654232978821e-02
2.863197624683380127e-01
-6.316425651311874390e-02
-1.253757625818252563e-01
-3.855951130390167236e-02
3.086692392826080322e-01
-4.240008890628814697e-01
-3.403780758380889893e-01
-2.063405215740203857e-01
-2.717228233814239502e-01
-1.785579882562160492e-02
-4.533446580171585083e-02
3.923144657164812088e-03
-9.823157638311386108e-02
9.746880084276199341e-02
-8.071965537965297699e-03
-4.614277929067611694e-02
5.675077065825462341e-02
-8.890692889690399170e-02
1.940504647791385651e-02
-1.818973720073699951e-01
-5.785314738750457764e-02
-2.369659841060638428e-01
4.606554657220840454e-02
1.349640488624572754e-01
9.490465372800827026e-02
-2.575678192079067230e-02
3.084020018577575684e-01
1.471064090728759766e-01
1.373320724815130234e-02
6.621716916561126709e-02
-2.329543698579072952e-03
3.091070055961608887e-01
-1.619112789630889893e-01
-8.032677695155143738e-03
9.424909204244613647e-02
-8.260487578809261322e-03
-1.513415277004241943e-01
-2.614980936050415039e-01
1.357372850179672241e-02
2.682789787650108337e-02
2.104333490133285522e-01
-1.237799413502216339e-03
-3.985421732068061829e-02
1.788409799337387085e-01
2.453420311212539673e-02
-1.374705284833908081e-01
1.757818460464477539e-01
-2.989405393600463867e-02
-3.200412541627883911e-02
-8.179860562086105347e-02
1.601769626140594482e-01
-1.514152139425277710e-01
-1.566580124199390411e-02
-8.773432672023773193e-02
-1.029935032129287720e-01
-6.770321726799011230e-02
5.524960532784461975e-02
-3.234737366437911987e-02
-7.873935997486114502e-02
-3.079621307551860809e-02
-1.214483156800270081e-01
-6.538850069046020508e-02
6.673164665699005127e-02
2.038947120308876038e-02
2.411983758211135864e-01
-9.968543797731399536e-02
1.904381960630416870e-01
1.199981048703193665e-01
7.256750017404556274e-03
1.337875276803970337e-01
-6.188264116644859314e-02
1.940394379198551178e-02
6.020611897110939026e-02
-3.345502912998199463e-02
1.277329772710800171e-01
1.270814836025238037e-01
-7.666890323162078857e-02
4.963561147451400757e-02
2.397928684949874878e-01
-3.082121312618255615e-01
4.761656224727630615e-01
-3.839471936225891113e-02
1.218502447009086609e-01
1.584428548812866211e-01
-2.599102556705474854e-01
1.800840497016906738e-01
-1.677059829235076904e-01
2.106774449348449707e-01
-6.734698265790939331e-02
-1.620882004499435425e-01
1.961793191730976105e-02
-1.570236384868621826e-01
-8.446032553911209106e-02
1.411245316267013550e-01
1.926748603582382202e-01
8.341615647077560425e-02
-1.858401149511337280e-01
-1.399714052677154541e-01
-2.598290741443634033e-01
-2.679865658283233643e-01
-2.585438787937164307e-01
1.624590903520584106e-01
-5.804663896560668945e-01
-9.104454517364501953e-02
2.496922463178634644e-01
9.922230243682861328e-02
4.675685986876487732e-02
4.662097617983818054e-02
-4.686266556382179260e-02
-1.924714148044586182e-01
-3.447095155715942383e-01
5.663125514984130859e-01
5.528866052627563477e-01
-5.895236134529113770e-02
-2.201632261276245117e-01
-1.816492378711700439e-01
2.086468487977981567e-01
1.528978198766708374e-01
-1.219413354992866516e-01
1.661592423915863037e-01
3.018042445182800293e-01
-1.817439496517181396e-01
-7.279063109308481216e-03
3.652722388505935669e-02
1.300356835126876831e-01
-6.910337507724761963e-02
-2.798738181591033936e-01
7.848033308982849121e-02
1.287486106157302856e-01
-3.234749734401702881e-01
-6.706997007131576538e-02
1.344301402568817139e-01
1.361076831817626953e-01
-1.580356210470199585e-01
-2.527953088283538818e-01
-2.092023640871047974e-01
-7.042917609214782715e-02
5.181561782956123352e-02
2.653916478157043457e-01
4.419666528701782227e-02
