-4.755585789680480957e-01
-3.032797873020172119e-01
-5.543106794357299805e-02
-2.164289355278015137e-02
-5.212632417678833008e-01
-8.630926012992858887e-01
-5.421149134635925293e-01
-4.419916570186614990e-01
-6.811978667974472046e-02
-2.639152407646179199e-01
-2.117731124162673950e-01
-8.360655307769775391e-01
-4.989064037799835205e-01
-2.350897789001464844e-01
-5.644060373306274414e-01
-8.742451667785644531e-02
-5.341416001319885254e-01
1.399612985551357269e-02
3.115918934345245361e-01
-4.572503864765167236e-01
-1.698124036192893982e-02
-5.984996259212493896e-02
-9.541558474302291870e-02
-2.805298268795013428e-01
-4.114490449428558350e-01
-3.225824534893035889e-01
-1.877536438405513763e-02
-4.197927657514810562e-03
-1.579534113407135010e-01
-4.202231764793395996e-01
-1.293358057737350464e-01
-2.264947444200515747e-01
-9.102443605661392212e-02
-2.288027256727218628e-01
-1.314831078052520752e-01
-3.393445909023284912e-01
-2.652885615825653076e-01
-2.761608064174652100e-01
-2.475243955850601196e-01
-8.408844470977783203e-01
-2.608249187469482422e-01
-2.819881439208984375e-01
-1.129766777157783508e-01
-9.284626841545104980e-01
-3.606607913970947266e-01
-5.148482322692871094e-01
-2.084841579198837280e-01
4.385004937648773193e-02
-6.996273994445800781e-01
-5.162540674209594727e-01
-1.231084764003753662e-01
-5.322834253311157227e-01
-1.545452922582626343e-01
-8.799517750740051270e-01
2.214603722095489502e-01
-2.041433304548263550e-01
-1.578630954027175903e-01
-1.788310855627059937e-01
3.268186375498771667e-02
-4.681292176246643066e-01
-2.560483217239379883e-01
-5.624508261680603027e-01
-6.130113601684570312e-01
-1.082568913698196411e-01
-3.050197064876556396e-01
-3.016179203987121582e-01
-2.210293151438236237e-02
-1.675453484058380127e-01
-3.162663578987121582e-01
-4.151526689529418945e-01
-3.552591204643249512e-01
-4.714296162128448486e-01
5.338333547115325928e-02
-5.472421273589134216e-02
-1.790827214717864990e-01
-5.382422804832458496e-01
-3.675520718097686768e-01
-1.845553368330001831e-01
-3.852762281894683838e-01
2.035689800977706909e-01
-4.202184677124023438e-01
-7.943159341812133789e-02
4.897865951061248779e-01
-2.229049801826477051e-01
-8.426179736852645874e-02
-8.117495477199554443e-02
2.341229468584060669e-02
-2.553149759769439697e-01
-1.272236555814743042e-01
-3.665861189365386963e-01
-4.793596267700195312e-02
-6.721321493387222290e-02
-8.560971915721893311e-02
-3.622585833072662354e-01
-1.805769652128219604e-01
-4.668627679347991943e-02
-9.805765002965927124e-02
-7.435724884271621704e-02
-2.716317474842071533e-01
-2.528388500213623047e-01
-3.033339679241180420e-01
-1.493706554174423218e-01
-2.602354586124420166e-01
-3.619792163372039795e-01
-3.033168613910675049e-01
-1.614288985729217529e-01
8.856005221605300903e-02
-4.649998247623443604e-01
-2.682196795940399170e-01
-3.222592175006866455e-01
-3.203660845756530762e-01
1.310795694589614868e-01
-4.863856732845306396e-01
-3.623365759849548340e-01
-1.521662157028913498e-02
-4.061771929264068604e-01
3.029267862439155579e-02
-5.306039452552795410e-01
3.353583812713623047e-01
-1.613812893629074097e-01
-1.182002574205398560e-02
-1.086782962083816528e-01
1.584333032369613647e-01
-4.127538204193115234e-01
-1.792302876710891724e-01
-3.752644658088684082e-01
-4.759171903133392334e-01
1.184548065066337585e-01
-3.989192470908164978e-02
-4.693059995770454407e-02
-1.573503166437149048e-01
1.332365721464157104e-01
-3.871543332934379578e-02
-3.056442365050315857e-02
2.686080336570739746e-02
7.643044739961624146e-02
6.086032465100288391e-02
-4.072049260139465332e-02
-7.377211004495620728e-02
-2.683123946189880371e-02
3.125234739854931831e-03
-5.676395073533058167e-02
-2.384705282747745514e-02
1.312631368637084961e-01
-2.938851527869701385e-02
-4.688565433025360107e-02
-4.879577830433845520e-02
-4.046362265944480896e-02
-3.499808534979820251e-02
-3.042709268629550934e-02
-1.118951514363288879e-01
2.728467807173728943e-02
3.940707445144653320e-02
5.454267561435699463e-02
4.550499469041824341e-02
5.806665867567062378e-02
1.322285365313291550e-02
4.919043928384780884e-02
-4.480633884668350220e-02
-1.265245676040649414e-01
-1.151055172085762024e-01
6.061760336160659790e-02
-1.751301577314734459e-03
-1.047648489475250244e-01
6.042483448982238770e-02
4.998284392058849335e-03
2.429250627756118774e-03
2.357259951531887054e-02
-1.238144095987081528e-02
1.903581782244145870e-03
1.013565286993980408e-01
-4.926461842842400074e-04
3.332798182964324951e-02
1.684747636318206787e-02
-1.272192299365997314e-01
3.013595342636108398e-01
-4.613830894231796265e-02
7.665068656206130981e-02
-8.796124905347824097e-02
2.494565956294536591e-02
1.875537633895874023e-01
-1.925958693027496338e-02
5.220787134021520615e-04
7.417092472314834595e-02
1.220098882913589478e-01
-1.115894839167594910e-01
-8.948203921318054199e-02
-3.628879413008689880e-02
1.114583108574151993e-02
7.472340948879718781e-03
3.602012293413281441e-04
4.690686985850334167e-02
-3.246622681617736816e-01
-6.442496776580810547e-01
1.765755936503410339e-02
-2.455012314021587372e-02
-7.129996418952941895e-01
-5.000001788139343262e-01
-3.904311060905456543e-01
-3.976857960224151611e-01
-6.358617544174194336e-02
-1.896868050098419189e-01
-3.276984021067619324e-02
-6.072254776954650879e-01
-6.562954187393188477e-01
-2.399531453847885132e-01
-3.551730811595916748e-01
3.137536719441413879e-02
-4.424464404582977295e-01
5.969284474849700928e-02
-8.282963931560516357e-02
-2.840854823589324951e-01
-1.709185838699340820e-01
5.653683841228485107e-02
-2.296205908060073853e-01
-2.464332580566406250e-01
-2.786227762699127197e-01
-4.277935326099395752e-01
-2.471082061529159546e-01
1.655296795070171356e-02
-2.204297333955764771e-01
-2.480481415987014771e-01
-2.549857795238494873e-01
-1.556219607591629028e-01
3.511941432952880859e-02
-9.141830354928970337e-02
-2.663945555686950684e-01
-2.115883827209472656e-01
-3.493658900260925293e-01
-2.950278520584106445e-01
-4.373464882373809814e-01
-6.713182926177978516e-01
-1.881171613931655884e-01
-2.134263962507247925e-01
-4.287000745534896851e-02
-3.847582042217254639e-01
-3.925978243350982666e-01
-5.008521080017089844e-01
-2.453201413154602051e-01
-2.076614648103713989e-01
-3.287582695484161377e-01
-4.621920883655548096e-01
-1.920991092920303345e-01
-4.009824991226196289e-01
-2.769300043582916260e-01
-3.697454333305358887e-01
-3.318032249808311462e-02
-3.394000232219696045e-01
1.045666113495826721e-01
-1.964805088937282562e-02
-1.419823467731475830e-01
-5.610277056694030762e-01
-3.181796073913574219e-01
-2.726561129093170166e-01
-6.174031496047973633e-01
-4.114175215363502502e-02
