-2.256526058772578835e-04
1.021570637822151184e-01
-1.035077944397926331e-01
-9.106169641017913818e-02
7.012403011322021484e-02
8.933027833700180054e-02
-3.319132328033447266e-02
-1.011509448289871216e-01
-2.133813202381134033e-01
-1.108712628483772278e-01
8.475136756896972656e-02
1.289623379707336426e-01
-1.146685332059860229e-01
-1.144956722855567932e-01
-2.034512758255004883e-01
3.120928816497325897e-02
-2.487304955720901489e-01
-6.676320731639862061e-02
-9.531117975711822510e-02
2.541399002075195312e-01
-2.449478767812252045e-02
-2.739050984382629395e-01
-1.056380271911621094e-01
-1.059478148818016052e-01
-1.737731844186782837e-01
-1.693192273378372192e-01
-1.309060603380203247e-01
1.117948219180107117e-01
-6.201831623911857605e-02
-1.492334306240081787e-01
1.610760241746902466e-01
-1.627450995147228241e-02
-4.546520113945007324e-02
-2.009166181087493896e-01
2.537031769752502441e-01
9.097869694232940674e-02
7.518291473388671875e-02
2.141110226511955261e-02
-1.016195490956306458e-01
-9.868925064802169800e-02
-5.256744846701622009e-02
1.976294070482254028e-02
6.058118492364883423e-02
-2.572875842452049255e-02
-1.058003604412078857e-01
1.260133087635040283e-01
6.515675783157348633e-02
1.517338603734970093e-01
-9.471531212329864502e-02
-8.729199320077896118e-02
-3.404810279607772827e-02
2.800881676375865936e-02
-5.720093473792076111e-02
2.018033564090728760e-01
8.405315130949020386e-02
1.339505240321159363e-02
-7.617917843163013458e-03
7.520055025815963745e-02
-1.377831213176250458e-02
-8.238207548856735229e-03
-1.038721650838851929e-01
-2.580516505986452103e-03
1.215628534555435181e-01
-8.293642662465572357e-03
-9.996584057807922363e-02
1.821057349443435669e-01
-6.355025619268417358e-02
6.458699237555265427e-03
-1.702268794178962708e-02
3.809674084186553955e-02
-1.399041116237640381e-01
7.162128109484910965e-03
-5.208390578627586365e-02
-2.170279808342456818e-02
-3.474063007161021233e-03
1.669623702764511108e-01
-1.238812878727912903e-01
-7.542420178651809692e-02
-2.844208851456642151e-02
7.227148860692977905e-02
-2.236763983964920044e-01
5.440589413046836853e-02
4.786972701549530029e-02
2.727531492710113525e-01
-7.822331041097640991e-02
-1.378913968801498413e-01
-8.804369717836380005e-02
-1.319858282804489136e-01
1.105628442019224167e-02
-8.280438929796218872e-02
-6.788020581007003784e-02
-9.471340104937553406e-03
1.314000785350799561e-01
6.176596134901046753e-02
1.697370409965515137e-01
-2.818832173943519592e-02
-2.933423407375812531e-02
-2.426458448171615601e-01
1.343614012002944946e-01
-1.198173686861991882e-02
-8.562198281288146973e-02
1.961071044206619263e-02
3.760957717895507812e-02
-1.408094763755798340e-01
-1.279731243848800659e-01
9.320572763681411743e-02
-5.400244519114494324e-02
7.250279188156127930e-02
4.324343986809253693e-03
4.053236916661262512e-02
-1.000880375504493713e-01
-2.097928710281848907e-02
-7.004566490650177002e-02
-8.637411892414093018e-02
-6.096326932311058044e-02
3.107905760407447815e-02
2.151132002472877502e-02
1.682186499238014221e-02
-5.996286123991012573e-02
-1.009268034249544144e-02
-3.400062397122383118e-02
5.016393214464187622e-02
-7.233158499002456665e-02
-8.563571423292160034e-02
-1.042668148875236511e-01
-6.989438831806182861e-02
1.345715820789337158e-01
-7.878205180168151855e-02
-1.616666279733181000e-02
1.011232733726501465e-01
8.173262327909469604e-02
8.048767223954200745e-03
3.826106712222099304e-02
1.082621216773986816e-01
4.100127518177032471e-02
1.120048668235540390e-02
4.314950201660394669e-03
6.213533505797386169e-02
1.821362525224685669e-01
-3.060013428330421448e-02
-3.972839191555976868e-02
1.062871702015399933e-02
-5.744986608624458313e-02
5.008534342050552368e-02
-5.897149816155433655e-02
-1.486985087394714355e-01
9.616903960704803467e-02
4.900710657238960266e-02
-1.847248524427413940e-01
5.487317591905593872e-02
-3.664643689990043640e-02
6.479806452989578247e-02
-1.199627593159675598e-01
7.299134880304336548e-02
1.583660840988159180e-01
5.583571270108222961e-02
5.728289019316434860e-03
-9.876036085188388824e-03
7.740915566682815552e-02
-1.117242649197578430e-01
-7.489208132028579712e-02
1.303895562887191772e-02
2.551918327808380127e-01
-1.065942347049713135e-01
-1.710696332156658173e-02
1.219340786337852478e-01
1.635596305131912231e-01
-9.396724402904510498e-02
7.715460960753262043e-04
-9.803398698568344116e-02
2.801404707133769989e-02
-9.868276119232177734e-02
2.505810745060443878e-02
-1.278316974639892578e-01
-6.538231670856475830e-02
1.652179211378097534e-01
-4.966798797249794006e-02
-7.660813862457871437e-04
1.446126997470855713e-01
-3.417132794857025146e-02
-6.386357545852661133e-02
1.840917617082595825e-01
9.911552816629409790e-02
8.609893731772899628e-03
4.844884853810071945e-03
-1.592475920915603638e-02
-5.103466659784317017e-02
5.765533074736595154e-02
-1.725726574659347534e-02
6.288586556911468506e-02
-1.364377886056900024e-01
-7.014888525009155273e-02
-1.536011993885040283e-01
-5.369936302304267883e-02
-9.264600276947021484e-02
-9.616640955209732056e-02
7.168512046337127686e-02
-5.513646081089973450e-02
-1.228826940059661865e-01
9.258019924163818359e-02
-6.278978288173675537e-02
-1.552202701568603516e-01
-9.602031670510768890e-03
-7.495852187275886536e-03
-1.143098622560501099e-01
-1.074446737766265869e-02
-3.628629026934504509e-03
1.659953035414218903e-02
-5.719978362321853638e-02
-4.794935509562492371e-02
2.038061805069446564e-02
-4.546599462628364563e-02
-2.321475446224212646e-01
-7.223518192768096924e-02
-2.663260512053966522e-02
5.928605794906616211e-02
-9.177236817777156830e-03
-1.252689659595489502e-01
-8.653201162815093994e-02
-2.289888262748718262e-01
-1.166875287890434265e-01
-5.985135957598686218e-02
-4.909085109829902649e-02
2.538673393428325653e-02
-2.178264111280441284e-01
-1.185734495520591736e-01
1.754908561706542969e-01
-2.244805097579956055e-01
-1.103876978158950806e-01
5.196020007133483887e-02
2.298886328935623169e-02
-1.928374022245407104e-01
-5.851160734891891479e-02
2.928050979971885681e-02
3.938823938369750977e-02
-7.226524502038955688e-02
-1.446904242038726807e-02
-4.463616386055946350e-02
-1.249104291200637817e-01
-4.967964440584182739e-02
-1.293722987174987793e-01
-1.496181041002273560e-01
-9.227786958217620850e-02
7.586822658777236938e-02
6.648059189319610596e-02
-5.566620454192161560e-02
-1.651389873586595058e-03
1.304782181978225708e-01
-1.136022880673408508e-01
6.789070367813110352e-02
3.228105977177619934e-02
-2.921479344367980957e-01
7.127835415303707123e-03
-1.921938955783843994e-01
-3.246212005615234375e-02
9.044199436902999878e-02
