-6.070834025740623474e-02
-2.398284673690795898e-01
-8.460406213998794556e-02
-1.034807637333869934e-01
1.284702271223068237e-01
-2.571605145931243896e-01
-6.366389393806457520e-01
-2.478191554546356201e-01
-6.808528900146484375e-01
2.549897730350494385e-01
-5.749948620796203613e-01
-8.020257353782653809e-01
-5.709436535835266113e-01
-5.625413656234741211e-01
8.754585683345794678e-02
-1.848671934567391872e-03
-7.374779321253299713e-03
-4.382014274597167969e-01
-3.937393128871917725e-01
-2.604358792304992676e-01
-5.186119079589843750e-01
-4.488693475723266602e-01
-5.591415166854858398e-01
-1.251923292875289917e-01
-2.889609634876251221e-01
3.391043841838836670e-02
-8.130183219909667969e-01
-1.139090284705162048e-01
-2.404126524925231934e-02
-6.623753309249877930e-01
-4.959513247013092041e-01
-6.964629292488098145e-01
-2.846398055553436279e-01
-1.561657339334487915e-01
-7.701120376586914062e-01
1.661885082721710205e-01
3.552871197462081909e-02
-4.923636317253112793e-01
-3.064538836479187012e-01
-3.611012697219848633e-01
8.856556564569473267e-02
-4.487503170967102051e-01
-2.565696537494659424e-01
-8.497064709663391113e-01
2.745897695422172546e-02
-5.430420637130737305e-01
-3.271234035491943359e-01
-5.350773334503173828e-01
-5.414125919342041016e-01
4.479002207517623901e-02
-3.171302676200866699e-01
-3.596233427524566650e-01
-1.567176580429077148e-01
5.455154180526733398e-02
-3.963934779167175293e-01
-4.281500875949859619e-01
-4.878444597125053406e-02
-5.273019671440124512e-01
9.113547205924987793e-02
-3.954560458660125732e-01
-2.122383937239646912e-02
-9.510935097932815552e-02
-4.443064033985137939e-01
-5.775588750839233398e-01
-1.174807846546173096e-01
-1.179665178060531616e-01
-2.318930029869079590e-01
-3.058132529258728027e-01
9.024278819561004639e-02
-8.108917623758316040e-03
-2.650322914123535156e-01
-2.695537209510803223e-01
-2.114794701337814331e-01
2.083314061164855957e-01
-3.534927964210510254e-01
-2.774692177772521973e-01
-3.617295622825622559e-01
-1.892025619745254517e-01
2.127143787220120430e-03
-1.315530240535736084e-01
-4.019594565033912659e-02
-2.075522840023040771e-01
-2.388051152229309082e-01
-3.199178278446197510e-01
-2.357779592275619507e-01
-2.741885781288146973e-01
-4.218942821025848389e-01
-1.727386713027954102e-01
-2.646230757236480713e-01
-4.122271784581243992e-04
-2.904687523841857910e-01
-2.809854745864868164e-01
7.367750164121389389e-03
-2.757986485958099365e-01
-2.747663855552673340e-01
-2.235343009233474731e-01
-2.233483493328094482e-01
3.434260487556457520e-01
-2.887791991233825684e-01
-3.142648562788963318e-02
-1.135597825050354004e-01
-3.590825945138931274e-02
-3.073783516883850098e-01
-2.632432281970977783e-01
2.169632911682128906e-01
-3.538932204246520996e-01
-1.824487000703811646e-01
-3.961595594882965088e-01
1.115364488214254379e-02
-2.906204760074615479e-01
-3.697596490383148193e-01
-3.198761343955993652e-01
-3.445523679256439209e-01
1.058638021349906921e-01
-1.410356909036636353e-01
-3.098852038383483887e-01
-1.783047318458557129e-01
1.400325298309326172e-01
-2.553368806838989258e-01
-2.047091573476791382e-01
5.263752341270446777e-01
-1.933161318302154541e-01
5.278289690613746643e-02
-1.760947704315185547e-01
1.421175450086593628e-01
-8.082792907953262329e-02
-2.076511085033416748e-01
-2.506597340106964111e-01
1.833318471908569336e-01
4.386480525135993958e-02
7.932081073522567749e-02
2.435597181320190430e-01
-3.207759261131286621e-01
2.628360502421855927e-02
-4.814521409571170807e-03
-7.602047175168991089e-02
-6.475985050201416016e-02
3.224253356456756592e-01
6.138648465275764465e-02
-1.031253635883331299e-01
-8.731970563530921936e-03
4.617547988891601562e-02
-1.284157782793045044e-01
-1.406871974468231201e-01
-2.278393208980560303e-01
-1.661646878346800804e-03
-6.617365777492523193e-02
4.193297773599624634e-02
-8.441626280546188354e-02
6.028513889759778976e-03
-2.086292393505573273e-02
3.234910592436790466e-02
7.255306094884872437e-02
-1.631267964839935303e-01
-3.430842235684394836e-02
9.361743927001953125e-02
-2.164315134286880493e-01
-4.127569496631622314e-02
1.347156465053558350e-01
3.313323482871055603e-03
4.740207456052303314e-03
-1.430342532694339752e-02
1.073410734534263611e-02
2.631384134292602539e-01
-2.379520833492279053e-01
-2.736333059147000313e-03
-9.235595352947711945e-03
-1.342885047197341919e-01
1.730324476957321167e-01
-9.218715131282806396e-03
-9.711737930774688721e-02
1.196964308619499207e-01
2.804303355515003204e-02
1.647586119361221790e-03
-3.800458833575248718e-02
-7.343310862779617310e-02
-2.230342710390686989e-03
1.786543279886245728e-01
-2.979742363095283508e-02
4.704039543867111206e-02
-6.508959829807281494e-02
-1.966056227684020996e-01
9.293888509273529053e-02
-4.417215287685394287e-02
1.345756351947784424e-01
-2.234482904896140099e-03
3.450207412242889404e-01
-9.698178619146347046e-02
-1.744017601013183594e-01
1.437917500734329224e-01
-5.227773636579513550e-02
1.013790816068649292e-02
-1.288927495479583740e-01
-1.588911414146423340e-01
-9.054820984601974487e-02
-2.503383159637451172e-01
-9.734541177749633789e-02
-1.378185451030731201e-01
-1.965868622064590454e-01
-2.508620917797088623e-01
-2.586923837661743164e-01
1.419707983732223511e-01
-4.217567145824432373e-01
-1.515211537480354309e-02
-1.459306925535202026e-01
-1.864143311977386475e-01
1.219294518232345581e-01
-1.842336356639862061e-01
-2.354607544839382172e-02
-4.619573652744293213e-01
-3.629008829593658447e-01
-2.414120733737945557e-01
-1.895322501659393311e-01
-2.129457741975784302e-01
-1.796318143606185913e-01
-3.241893947124481201e-01
-1.669210642576217651e-01
-1.418948322534561157e-01
-4.107615649700164795e-01
-2.304840534925460815e-01
9.362425655126571655e-03
-2.161401659250259399e-01
-3.227322399616241455e-01
-3.907971978187561035e-01
-2.145203351974487305e-01
1.522311568260192871e-01
1.654406105444650166e-06
-1.385223716497421265e-01
-3.450865671038627625e-02
-4.560807645320892334e-01
-5.021466612815856934e-01
-2.778657376766204834e-01
6.359118223190307617e-02
-2.971397042274475098e-01
-2.041209191083908081e-01
-1.219303831458091736e-01
-1.397394662490114570e-04
-1.685046553611755371e-01
-2.765222191810607910e-01
-3.232939243316650391e-01
-2.055592387914657593e-01
-1.484634876251220703e-01
-1.417184174060821533e-01
-4.066079258918762207e-01
-1.625182330608367920e-01
-1.101115252822637558e-02
-1.563760042190551758e-01
-2.364771962165832520e-01
-4.356923513114452362e-03
-1.950969547033309937e-01
-1.215385496616363525e-01
-2.629964947700500488e-01
-6.807247549295425415e-02
-1.619684509932994843e-02
-2.005371451377868652e-01
-1.728594675660133362e-02
