1.130121797323226929e-01
-2.855333089828491211e-01
-3.473406285047531128e-02
-1.201862469315528870e-01
-1.572296395897865295e-02
-1.085689738392829895e-01
-9.647297859191894531e-02
-1.870789937674999237e-02
-6.886789202690124512e-02
-6.662989500910043716e-03
-9.189052134752273560e-02
-7.991210371255874634e-02
-1.742634624242782593e-01
-1.003511473536491394e-01
-5.049948394298553467e-02
-1.601921580731868744e-02
-1.652694791555404663e-01
-1.009613573551177979e-01
-2.013253569602966309e-01
-1.537414342164993286e-01
6.831935793161392212e-02
-3.412472307682037354e-01
-5.419469624757766724e-02
-2.198216468095779419e-01
-2.246515601873397827e-01
-1.227506250143051147e-01
2.176211476325988770e-01
-2.516700923442840576e-01
-1.441427171230316162e-01
-8.236708492040634155e-02
-2.575468719005584717e-01
-9.073448926210403442e-02
-1.918819844722747803e-01
-8.640497922897338867e-02
-1.470613032579421997e-01
-3.377550244331359863e-01
-1.183176338672637939e-01
-5.116448402404785156e-01
-1.219589337706565857e-01
-2.458299547433853149e-01
4.277576506137847900e-02
-6.108038127422332764e-02
-3.680697679519653320e-01
1.663046777248382568e-01
-1.699229925870895386e-01
-1.146294698119163513e-01
-2.219865843653678894e-02
-2.340448200702667236e-01
1.996520161628723145e-02
-2.337191104888916016e-01
2.238575071096420288e-01
-8.357242494821548462e-02
-2.687259018421173096e-01
-9.248801320791244507e-02
-6.888578087091445923e-02
-5.153143405914306641e-01
1.407388746738433838e-01
-3.250853121280670166e-01
8.767583966255187988e-02
-2.527031302452087402e-01
-1.534997671842575073e-01
-1.965623907744884491e-02
-3.077547252178192139e-01
-3.056327104568481445e-01
-6.789233069866895676e-03
5.973796360194683075e-03
-2.380083948373794556e-01
-8.168610185384750366e-02
-1.266123950481414795e-01
-2.126380801200866699e-01
6.602369993925094604e-02
5.148441717028617859e-02
-8.221817016601562500e-02
-1.115531250834465027e-01
7.761670276522636414e-03
6.488908827304840088e-02
-2.013640701770782471e-01
-1.251325607299804688e-01
3.169279173016548157e-02
-2.652351558208465576e-01
-1.739604324102401733e-01
-2.743519544601440430e-01
-4.235177114605903625e-02
-1.865252554416656494e-01
9.078663587570190430e-02
-3.923447132110595703e-01
2.904058098793029785e-01
-3.303101956844329834e-01
-1.053947806358337402e-01
-2.179115414619445801e-01
2.580344378948211670e-01
-1.702755838632583618e-01
-9.731708467006683350e-02
1.088623553514480591e-01
-6.235418841242790222e-02
-1.298334300518035889e-01
-1.386563479900360107e-01
1.384654492139816284e-01
2.760944962501525879e-01
-1.373549252748489380e-01
4.896561801433563232e-02
-3.653254210948944092e-01
1.109384819865226746e-01
-1.871065497398376465e-01
-9.158039838075637817e-02
-2.514126524329185486e-02
-4.417569339275360107e-01
2.433120459318161011e-01
-1.468405425548553467e-01
-3.835380077362060547e-02
2.645965516567230225e-01
-2.660107910633087158e-01
4.194663092494010925e-02
6.835279613733291626e-02
1.542277932167053223e-01
-2.978126704692840576e-01
-2.303868979215621948e-01
-1.882654279470443726e-01
5.655701458454132080e-02
-3.386446237564086914e-01
-5.039933696389198303e-02
-3.518371880054473877e-01
1.239692937815561891e-04
-2.568988204002380371e-01
3.581545129418373108e-02
3.722867369651794434e-02
-3.882799446582794189e-01
-1.708450019359588623e-01
-7.380562368780374527e-03
-3.236030414700508118e-02
2.005950361490249634e-02
3.048873543739318848e-01
1.556724160909652710e-01
6.722395122051239014e-02
-8.122636377811431885e-02
-1.325510889291763306e-01
4.915292188525199890e-02
3.896700590848922729e-02
1.379769593477249146e-01
2.031062915921211243e-02
-5.958336591720581055e-02
-3.117969725281000137e-03
-5.700268596410751343e-02
1.218523085117340088e-01
5.342030152678489685e-02
-1.084324866533279419e-01
-1.038793697953224182e-01
1.851852424442768097e-02
2.673676423728466034e-02
-3.664190694689750671e-02
5.486844480037689209e-02
1.255833208560943604e-01
3.992237523198127747e-02
1.681096702814102173e-01
-1.741650104522705078e-01
-6.465733796358108521e-02
3.986291959881782532e-02
2.400547415018081665e-01
1.500281989574432373e-01
-6.533804349601268768e-03
-3.799443691968917847e-02
1.756402552127838135e-01
1.319923624396324158e-02
3.830457478761672974e-02
1.970300078392028809e-01
9.731253236532211304e-02
-2.270053513348102570e-02
4.150187969207763672e-02
4.653628543019294739e-02
1.139267161488533020e-01
-1.497245281934738159e-01
1.063818559050559998e-01
7.330442965030670166e-02
1.881024390459060669e-01
9.518940001726150513e-02
-9.303364902734756470e-03
-1.170872449874877930e-01
-1.100740060210227966e-01
1.633746474981307983e-01
6.193491443991661072e-02
1.122620403766632080e-01
-4.791229963302612305e-02
-1.598353534936904907e-01
4.773809574544429779e-03
-1.368434280157089233e-01
-3.298405185341835022e-02
-1.475840657949447632e-01
4.219166561961174011e-02
-1.484566032886505127e-01
1.299566924571990967e-01
1.549446675926446915e-02
-1.214092075824737549e-01
-6.309314072132110596e-02
-2.880218923091888428e-01
-1.164617016911506653e-01
-1.415024548768997192e-01
2.394060604274272919e-02
-9.349763393402099609e-02
2.143784239888191223e-02
-1.439046114683151245e-01
-1.096954196691513062e-01
-2.844578325748443604e-01
-8.209252357482910156e-02
-3.786226361989974976e-02
-2.573874294757843018e-01
-9.557154774665832520e-02
-1.677547842264175415e-01
-2.236375510692596436e-01
1.246057800017297268e-03
-1.668753176927566528e-01
-2.800778150558471680e-01
-2.015725672245025635e-01
6.702058017253875732e-02
-3.192891180515289307e-01
1.166419610381126404e-01
-2.795417010784149170e-01
-2.638271749019622803e-01
-7.698027044534683228e-02
1.089719533920288086e-01
-2.320832610130310059e-01
-1.510263085365295410e-01
-1.655229628086090088e-01
-1.304074525833129883e-01
2.056883089244365692e-02
-3.421778380870819092e-01
1.348579823970794678e-01
-2.178714796900749207e-02
-2.385897785425186157e-01
4.674401506781578064e-02
-5.542791485786437988e-01
-1.404818147420883179e-01
-3.586918115615844727e-01
-1.286928355693817139e-01
-1.481627766042947769e-02
-3.893820345401763916e-01
1.384408026933670044e-01
-3.494228124618530273e-01
-2.528254091739654541e-01
3.057659864425659180e-01
-8.938550949096679688e-02
-8.583317697048187256e-02
-2.589138448238372803e-01
1.050023660063743591e-01
-1.977520883083343506e-01
-1.603507101535797119e-01
-3.782979547977447510e-01
-1.918742805719375610e-01
-4.287781417369842529e-01
-3.889871761202812195e-02
-3.361386060714721680e-01
2.512289881706237793e-01
-3.809103369712829590e-01
-1.177451238036155701e-01
2.429332397878170013e-02
-2.537994384765625000e-01
-1.678971648216247559e-01
