-8.442738652229309082e-02
-2.874995395541191101e-02
3.339865803718566895e-01
-3.056475818157196045e-01
4.555863142013549805e-01
2.743151970207691193e-02
4.904605820775032043e-02
-1.359883844852447510e-01
-3.437344729900360107e-01
-4.131526511628180742e-04
-1.901462823152542114e-01
2.880986332893371582e-01
-2.598314583301544189e-01
-2.357350736856460571e-01
7.004477083683013916e-02
-2.517050504684448242e-01
-7.210379838943481445e-02
4.339917749166488647e-02
-1.356416195631027222e-01
-2.326646596193313599e-01
-1.889841705560684204e-01
-9.746828675270080566e-02
-3.194617033004760742e-01
-2.609136104583740234e-01
-3.392950594425201416e-01
5.374171584844589233e-02
-5.762144327163696289e-01
6.032989174127578735e-02
2.868572175502777100e-01
-1.124377101659774780e-01
-1.970997452735900879e-01
9.675306081771850586e-02
6.234581582248210907e-03
-3.649929165840148926e-01
-3.205672204494476318e-01
4.886563718318939209e-01
2.988184690475463867e-01
-1.872238516807556152e-01
-2.791522145271301270e-01
-3.812572360038757324e-02
1.507456153631210327e-01
1.849731989204883575e-02
-4.714616537094116211e-01
1.628243476152420044e-01
4.173245280981063843e-02
-3.167413771152496338e-01
-6.615595519542694092e-02
2.274817824363708496e-01
4.551557078957557678e-02
-5.582605674862861633e-02
-2.552413642406463623e-01
1.180964056402444839e-03
2.990635037422180176e-01
-3.832873106002807617e-01
-2.151358574628829956e-01
1.162694394588470459e-01
3.078383803367614746e-01
-2.496298700571060181e-01
-4.409926533699035645e-01
-2.213195264339447021e-01
-2.190976738929748535e-01
5.070002749562263489e-03
-7.323351502418518066e-02
-1.883122026920318604e-01
-1.089023202657699585e-01
-1.850357651710510254e-01
1.155983433127403259e-01
-2.745215296745300293e-01
4.211508110165596008e-02
1.839536130428314209e-01
-5.140164867043495178e-02
4.614169150590896606e-02
-3.984211385250091553e-01
1.632463303394615650e-03
1.008968576788902283e-01
-1.057585049420595169e-02
-3.055709972977638245e-02
1.177801042795181274e-01
-1.531266570091247559e-01
-2.464412525296211243e-02
-2.266961634159088135e-01
1.638224422931671143e-01
6.879369914531707764e-02
-4.874666780233383179e-02
-1.431404650211334229e-01
2.217919379472732544e-01
-3.765466511249542236e-01
-2.810645103454589844e-01
-9.526459127664566040e-02
-1.100142747163772583e-01
-2.618322074413299561e-01
-9.833798557519912720e-02
1.600327640771865845e-01
-1.881236732006072998e-01
-1.458987295627593994e-01
6.487875431776046753e-02
-1.570517420768737793e-01
-3.427629768848419189e-01
9.709439240396022797e-03
7.303913682699203491e-02
8.519907295703887939e-02
2.265965938568115234e-02
-1.555093079805374146e-01
2.320254892110824585e-01
2.152821123600006104e-01
-2.474018633365631104e-01
-1.604156792163848877e-01
2.706322371959686279e-01
-1.447787731885910034e-01
-1.719535887241363525e-02
-1.570317149162292480e-01
7.817984372377395630e-02
6.327243894338607788e-02
1.750180497765541077e-02
-1.216628476977348328e-01
1.805926561355590820e-01
3.980474472045898438e-01
-1.008355617523193359e-02
2.220005728304386139e-03
-1.846784949302673340e-01
2.641720175743103027e-01
-3.720478117465972900e-01
-3.061008751392364502e-01
-2.200004905462265015e-01
-2.823524773120880127e-01
1.001523286104202271e-01
1.752436533570289612e-02
6.129714474081993103e-02
8.640247397124767303e-03
7.652730494737625122e-02
-8.861257135868072510e-02
1.000349298119544983e-01
4.959486052393913269e-02
6.534528732299804688e-02
-8.175260573625564575e-02
-1.659123450517654419e-01
2.494088746607303619e-02
-2.435996830463409424e-01
2.775740027427673340e-01
-1.888726837933063507e-02
7.827667891979217529e-02
-1.423274725675582886e-01
9.848780184984207153e-02
3.909635543823242188e-02
-1.414709836244583130e-01
-1.689255796372890472e-02
-3.195434063673019409e-02
2.394306063652038574e-01
-7.636191695928573608e-02
-1.288008689880371094e-01
1.023816242814064026e-01
1.455254554748535156e-01
-1.638038605451583862e-01
-1.458006501197814941e-01
9.321798384189605713e-02
9.494123607873916626e-02
2.840414047241210938e-01
-9.211654961109161377e-02
-5.829074978828430176e-02
1.627674400806427002e-01
1.077147796750068665e-01
5.548278242349624634e-02
8.110897988080978394e-02
1.553946058265864849e-03
1.040061712265014648e-01
-6.223988160490989685e-02
8.175304532051086426e-02
-1.673524826765060425e-01
-7.313603907823562622e-02
-1.106223389506340027e-01
-1.516647040843963623e-01
3.590520843863487244e-02
-2.403276227414608002e-02
5.975816026329994202e-02
1.119620800018310547e-01
-9.337769448757171631e-02
7.352916896343231201e-02
6.584434956312179565e-02
-3.726358711719512939e-02
9.303911775350570679e-02
1.459413617849349976e-01
-1.926662214100360870e-02
1.862913668155670166e-01
1.702238321304321289e-01
1.739320904016494751e-01
2.124537378549575806e-01
1.627386957406997681e-01
-3.687045723199844360e-02
6.571803241968154907e-02
-9.192108362913131714e-02
6.887955963611602783e-02
2.762780152261257172e-02
-1.875370591878890991e-01
1.064819619059562683e-01
1.073718741536140442e-01
-3.446117639541625977e-01
6.159896850585937500e-01
-1.049055755138397217e-01
1.439557969570159912e-01
1.110809296369552612e-01
-4.415820538997650146e-01
2.487466931343078613e-01
-1.765644252300262451e-01
2.499881088733673096e-01
-1.723565757274627686e-01
-1.085651144385337830e-01
5.956002697348594666e-02
-9.644488990306854248e-02
-2.463100664317607880e-02
5.983927845954895020e-02
1.179661527276039124e-01
5.133270844817161560e-02
-1.306571513414382935e-01
-1.925455033779144287e-01
-2.668243348598480225e-01
-1.429763585329055786e-01
-2.721059918403625488e-01
7.183828949928283691e-02
-5.608813166618347168e-01
5.626162886619567871e-02
2.233609408140182495e-01
-2.362878294661641121e-03
-9.631834924221038818e-03
-3.963280469179153442e-02
3.714025765657424927e-02
-1.518267393112182617e-01
-1.671398878097534180e-01
4.107406139373779297e-01
3.964689373970031738e-01
3.491909056901931763e-02
-1.605257987976074219e-01
-8.504079282283782959e-02
3.178951442241668701e-01
-3.129727905616164207e-03
-4.893335327506065369e-02
2.357911020517349243e-01
1.797321289777755737e-01
-2.383721321821212769e-01
-2.022893354296684265e-02
3.375429287552833557e-02
6.042822077870368958e-02
-6.941413134336471558e-02
-3.608552813529968262e-01
8.636567741632461548e-02
2.117377370595932007e-01
-2.342777252197265625e-01
-8.449560403823852539e-02
7.619348354637622833e-03
2.504114508628845215e-01
-3.249657750129699707e-01
-2.767678797245025635e-01
-1.434929221868515015e-01
-1.227063015103340149e-01
-5.505777429789304733e-03
2.114781588315963745e-01
4.781586304306983948e-02
