-1.040385067462921143e-01
-1.048391461372375488e-01
7.601205259561538696e-02
1.843495815992355347e-01
-2.558737993240356445e-01
-1.950348764657974243e-01
-4.270750284194946289e-01
-1.918686479330062866e-01
9.307444840669631958e-02
-2.865830808877944946e-02
2.319905161857604980e-02
-4.234757646918296814e-02
3.662681952118873596e-02
5.779111757874488831e-02
-1.356527656316757202e-01
-8.991037309169769287e-02
3.197339177131652832e-02
1.965804398059844971e-02
-7.625561207532882690e-02
-9.383249282836914062e-02
-2.781404554843902588e-01
-3.789462745189666748e-01
-1.235505938529968262e-01
-8.013645559549331665e-02
-1.471798717975616455e-01
-4.118197038769721985e-02
-5.567719228565692902e-03
-4.187227785587310791e-02
-1.030457019805908203e-01
-2.426970899105072021e-01
-1.890706270933151245e-01
-6.995064020156860352e-02
-1.790814287960529327e-02
7.430716883391141891e-03
-1.609058380126953125e-01
5.662425607442855835e-02
3.012910671532154083e-02
1.193104311823844910e-01
-4.315663129091262817e-02
-8.286811411380767822e-02
-6.177348271012306213e-02
-1.156158149242401123e-01
-8.414696156978607178e-02
9.284948557615280151e-02
-3.437948822975158691e-01
-5.206857994198799133e-02
1.350646317005157471e-01
-5.366532504558563232e-02
-9.138601273298263550e-02
-2.980903722345829010e-02
-1.306543052196502686e-01
-2.947733504697680473e-03
-1.365701109170913696e-01
-1.944809108972549438e-01
-7.348772138357162476e-02
-6.631977111101150513e-02
-1.272699236869812012e-01
-1.905544660985469818e-02
-2.265959680080413818e-01
5.105999484658241272e-02
-4.930600151419639587e-02
-1.488826721906661987e-01
-2.503682374954223633e-01
-2.579604685306549072e-01
1.637767702341079712e-01
-6.261614710092544556e-02
-4.130981862545013428e-02
1.262524873018264771e-01
-2.695603966712951660e-01
-1.049083694815635681e-01
-5.362969040870666504e-01
-5.763433873653411865e-02
3.895144537091255188e-02
-2.746652252972126007e-02
-7.331132888793945312e-02
3.455891460180282593e-02
-7.540073990821838379e-02
1.401527374982833862e-01
-6.272282451391220093e-02
-5.694010108709335327e-02
-2.352414727210998535e-01
-4.624212626367807388e-03
-1.012947112321853638e-01
-9.160102158784866333e-02
-2.230291515588760376e-01
-2.062212228775024414e-01
5.221519619226455688e-03
-1.469996720552444458e-01
-1.234133169054985046e-01
-2.300487086176872253e-02
5.353393778204917908e-02
-9.292959421873092651e-02
-1.178840324282646179e-01
-2.420624196529388428e-01
-2.159592062234878540e-01
-1.607919335365295410e-01
-1.147680357098579407e-01
2.329026609659194946e-01
-1.557011157274246216e-01
-7.001284044235944748e-03
9.783523157238960266e-03
-1.665138751268386841e-01
2.889529615640640259e-02
-1.126095056533813477e-01
-2.130353301763534546e-01
-1.342243105173110962e-01
-1.112944334745407104e-01
-1.004848442971706390e-02
-2.381110638380050659e-01
-1.371816992759704590e-01
-1.076727434992790222e-01
-1.748837158083915710e-02
-1.569916754961013794e-01
-1.816213577985763550e-01
-2.505160681903362274e-02
-2.407989501953125000e-01
-1.141896396875381470e-01
-1.988467276096343994e-01
3.291073068976402283e-02
-2.171625383198261261e-03
-3.187594711780548096e-01
8.745168149471282959e-02
-3.176083564758300781e-01
-3.651829808950424194e-02
-6.463280320167541504e-02
-3.040441572666168213e-01
-1.734126210212707520e-01
-2.346541136503219604e-01
-7.766941562294960022e-03
5.073206499218940735e-03
-6.590669602155685425e-02
-4.579976946115493774e-02
-4.934713244438171387e-02
6.706135347485542297e-03
-8.529715240001678467e-02
-2.223240956664085388e-02
-1.114360392093658447e-01
-7.614183425903320312e-02
3.222821652889251709e-02
5.190844461321830750e-02
-1.304304692894220352e-02
8.253981918096542358e-02
3.220163285732269287e-02
-5.475812032818794250e-02
-8.227723091840744019e-02
5.373582243919372559e-02
5.125659704208374023e-02
-8.865663409233093262e-02
3.320346027612686157e-02
-2.852618321776390076e-02
8.595678955316543579e-04
-7.883909344673156738e-02
4.784525930881500244e-02
6.984479725360870361e-02
-4.399229586124420166e-02
-1.225969865918159485e-01
-8.124528825283050537e-02
4.768486693501472473e-02
6.475391983985900879e-02
-1.454454101622104645e-02
9.252172708511352539e-02
-1.689894124865531921e-02
6.402103696018457413e-03
-4.346518218517303467e-02
-2.220759913325309753e-02
-9.461017698049545288e-02
-4.260516166687011719e-02
6.065431237220764160e-02
6.491531431674957275e-02
-7.596255838871002197e-02
-5.656940862536430359e-03
7.550316303968429565e-02
-2.827484346926212311e-02
5.321116652339696884e-03
-6.048035249114036560e-02
-6.844143569469451904e-02
7.029745727777481079e-02
2.155611058697104454e-03
8.888067305088043213e-02
1.612208411097526550e-02
7.162310183048248291e-02
-1.393562555313110352e-02
1.479513663798570633e-02
-6.265234202146530151e-02
-1.602597162127494812e-02
3.677721694111824036e-02
-5.649155005812644958e-02
5.573832988739013672e-02
1.598784700036048889e-02
-3.195120021700859070e-02
-4.235533252358436584e-02
-2.734769135713577271e-02
-2.478870749473571777e-01
-1.876660883426666260e-01
-7.193560898303985596e-02
1.464386880397796631e-01
-3.015562295913696289e-01
-4.338912665843963623e-02
-3.596181869506835938e-01
5.868325009942054749e-02
6.198121234774589539e-02
3.285596147179603577e-02
3.109513409435749054e-02
1.446241047233343124e-03
9.849908528849482536e-04
-4.298377782106399536e-02
-1.057552546262741089e-01
-4.489937424659729004e-02
5.977453663945198059e-02
-1.386560350656509399e-01
1.575864665210247040e-02
-5.769724026322364807e-02
-7.400497049093246460e-02
-1.633065789937973022e-01
-1.886844485998153687e-01
-4.216181859374046326e-02
-9.634249657392501831e-02
1.244513541460037231e-01
1.134768500924110413e-02
7.754755765199661255e-02
-1.245402395725250244e-01
-1.596820205450057983e-01
-2.844112738966941833e-02
-2.467194795608520508e-01
-1.761647313833236694e-01
1.260797977447509766e-01
-1.463317126035690308e-01
2.357338927686214447e-02
-1.002728715538978577e-01
1.000698208808898926e-01
6.270624231547117233e-03
-2.474302500486373901e-01
-1.968640834093093872e-01
-1.262682229280471802e-01
-4.336909577250480652e-02
-1.886118017137050629e-02
-2.303624004125595093e-01
-6.946853548288345337e-02
1.372901648283004761e-01
-6.022783368825912476e-02
-2.279343605041503906e-01
-1.635447442531585693e-01
2.609879709780216217e-02
-1.524364650249481201e-01
-1.692647673189640045e-02
-1.905797272920608521e-01
-1.395396441221237183e-01
-6.655660271644592285e-02
-3.556653857231140137e-01
-5.968458577990531921e-02
-2.404068857431411743e-01
1.675556600093841553e-02
-2.418642342090606689e-01
-2.148255109786987305e-01
-2.134399414062500000e-01
-4.078812301158905029e-01
