-4.753098189830780029e-01
-1.825230270624160767e-01
7.769633829593658447e-02
2.168321050703525543e-02
-5.090358853340148926e-01
-8.689048290252685547e-01
-5.429465770721435547e-01
-5.165610909461975098e-01
-1.578657925128936768e-01
-1.847627311944961548e-01
-2.371158078312873840e-02
-8.115972876548767090e-01
-4.041329026222229004e-01
-3.573957383632659912e-01
-6.276999711990356445e-01
-4.580066353082656860e-02
-5.952493548393249512e-01
3.447133302688598633e-02
2.220263630151748657e-01
-3.054367601871490479e-01
-1.076765656471252441e-01
-1.849059201776981354e-02
-2.040337622165679932e-01
-3.628534674644470215e-01
-3.048322796821594238e-01
-4.105345904827117920e-01
-7.970904558897018433e-02
-2.733131684362888336e-02
-1.096647232770919800e-01
-4.654758870601654053e-01
-2.757605314254760742e-01
-4.027319252490997314e-01
-9.443140029907226562e-02
-3.040712773799896240e-01
-1.397352963685989380e-01
-2.538639307022094727e-01
-3.306920826435089111e-01
-2.144713699817657471e-01
-2.089038491249084473e-01
-7.828186750411987305e-01
-3.626531958580017090e-01
-1.884850263595581055e-01
-5.897594615817070007e-02
-8.893120288848876953e-01
-3.620834350585937500e-01
-3.442244529724121094e-01
-1.583158969879150391e-01
-5.545052513480186462e-02
-7.812086939811706543e-01
-3.727166354656219482e-01
-1.430110335350036621e-01
-5.048775076866149902e-01
-2.506740093231201172e-01
-7.660892605781555176e-01
2.349069118499755859e-01
-5.813907086849212646e-02
-2.332718223333358765e-01
1.241766009479761124e-02
1.477387100458145142e-01
-4.980031549930572510e-01
-3.052434325218200684e-01
-4.626114368438720703e-01
-7.470341324806213379e-01
-7.233989238739013672e-02
-3.169014453887939453e-01
-1.346244961023330688e-01
9.985704720020294189e-02
-7.854600250720977783e-02
-3.673993647098541260e-01
-3.228775262832641602e-01
-3.799148797988891602e-01
-3.385877907276153564e-01
3.310055658221244812e-02
9.001294523477554321e-02
1.255862042307853699e-02
-5.162795186042785645e-01
-3.986256718635559082e-01
-3.215448558330535889e-01
-4.073429405689239502e-01
1.753670722246170044e-01
-3.503592014312744141e-01
-7.334666699171066284e-02
4.052695930004119873e-01
-2.311089038848876953e-01
-6.499145925045013428e-02
-3.065687417984008789e-02
2.128410898149013519e-02
-2.322126328945159912e-01
-1.605067104101181030e-01
-2.989089190959930420e-01
5.213734880089759827e-02
-3.637875244021415710e-02
-6.564949452877044678e-02
-3.084311485290527344e-01
-6.227530911564826965e-02
-7.739728689193725586e-02
-2.371963858604431152e-02
-3.117528557777404785e-02
-2.577323317527770996e-01
-3.592309653759002686e-01
-2.909111082553863525e-01
-2.898086905479431152e-01
-3.122033774852752686e-01
-4.435822665691375732e-01
-4.173955619335174561e-01
-1.724527031183242798e-01
8.956456929445266724e-02
-4.598743617534637451e-01
-2.199359983205795288e-01
-4.044663906097412109e-01
-2.277217656373977661e-01
1.262670308351516724e-01
-5.827556252479553223e-01
-4.484994709491729736e-01
-6.825023144483566284e-02
-3.869476318359375000e-01
2.896686084568500519e-02
-4.621808826923370361e-01
3.418544530868530273e-01
-2.598482072353363037e-01
2.102086134254932404e-02
-2.256319075822830200e-01
1.301882266998291016e-01
-4.080838859081268311e-01
-2.836690247058868408e-01
-3.846542239189147949e-01
-4.594613909721374512e-01
1.236519590020179749e-01
-4.811896756291389465e-02
-1.017864514142274857e-02
1.870734244585037231e-02
3.887704014778137207e-02
1.470872014760971069e-01
3.189459070563316345e-02
4.518609493970870972e-02
-7.862483710050582886e-02
8.958800882101058960e-02
-2.373908609151840210e-01
3.899676725268363953e-02
3.125214204192161560e-02
-3.144362196326255798e-02
-8.116126060485839844e-02
-7.382493466138839722e-02
5.789642781019210815e-02
1.434542238712310791e-01
-6.651104241609573364e-02
-5.566120147705078125e-02
-8.390065282583236694e-02
8.423162996768951416e-02
1.091186329722404480e-01
-1.030107513070106506e-01
-1.209505721926689148e-01
2.576966024935245514e-02
2.777358330786228180e-02
-1.009104698896408081e-01
1.350271105766296387e-01
-1.432284414768218994e-01
3.940790146589279175e-02
-1.379887461662292480e-01
-1.142593473196029663e-01
6.666025519371032715e-02
9.370972402393817902e-03
-1.104328408837318420e-01
-2.717938041314482689e-04
-4.062748979777097702e-03
-4.634186625480651855e-02
-6.620031315833330154e-03
-2.053517848253250122e-02
2.924790047109127045e-02
1.967912614345550537e-01
7.158546149730682373e-02
-1.224195118993520737e-02
5.154370330274105072e-03
-3.130754083395004272e-02
7.409188430756330490e-03
2.809164226055145264e-01
5.710604600608348846e-03
2.280266396701335907e-02
-2.711117081344127655e-02
3.545755520462989807e-02
1.014715805649757385e-01
-7.068939507007598877e-02
-6.138171884231269360e-04
-3.681560605764389038e-02
-9.688228368759155273e-02
-4.570627212524414062e-02
-3.902278840541839600e-02
3.194126486778259277e-02
-6.812731176614761353e-02
-8.894959837198257446e-02
5.426910705864429474e-03
7.516260445117950439e-02
-3.485137224197387695e-01
-7.069917321205139160e-01
2.845713496208190918e-02
-7.909306138753890991e-02
-6.749675273895263672e-01
-5.433854460716247559e-01
-3.700238168239593506e-01
-3.839825093746185303e-01
2.796157076954841614e-02
-1.469495892524719238e-01
-1.707612574100494385e-01
-5.637215971946716309e-01
-6.580694913864135742e-01
-2.415728271007537842e-01
-3.482457399368286133e-01
-1.167263556271791458e-02
-5.084007978439331055e-01
1.352386921644210815e-01
9.917782619595527649e-03
-2.616856992244720459e-01
-1.693535000085830688e-01
1.305911783128976822e-02
-3.079488873481750488e-01
-2.593035399913787842e-01
-1.792087852954864502e-01
-3.710642457008361816e-01
-6.092773005366325378e-02
-5.478258058428764343e-02
-3.565068244934082031e-01
-3.287228345870971680e-01
-1.649714559316635132e-01
-3.132505416870117188e-01
1.829100213944911957e-02
-9.738039225339889526e-02
-1.706287115812301636e-01
-1.961231976747512817e-01
-4.110710024833679199e-01
-2.503677308559417725e-01
-4.177415668964385986e-01
-5.735467076301574707e-01
-1.870535761117935181e-01
-2.705535888671875000e-01
3.207496553659439087e-02
-3.616978824138641357e-01
-3.745157122611999512e-01
-3.588370978832244873e-01
-2.955515682697296143e-01
-1.967559605836868286e-01
-3.382976353168487549e-01
-5.204058289527893066e-01
-1.811489462852478027e-01
-4.038570225238800049e-01
-3.339400887489318848e-01
-3.566746711730957031e-01
-6.079521030187606812e-02
-3.429228961467742920e-01
-4.710632190108299255e-02
-1.417186707258224487e-01
-4.654967412352561951e-02
-5.433645844459533691e-01
-3.088743090629577637e-01
-3.522066175937652588e-01
-6.190634369850158691e-01
-2.204045951366424561e-01
