-8.663439750671386719e-02
-3.104340136051177979e-01
-1.698010712862014771e-01
-1.605088412761688232e-01
1.412617713212966919e-01
-1.600083410739898682e-01
-7.026132941246032715e-01
-1.531412303447723389e-01
-6.303935647010803223e-01
8.600283414125442505e-02
-6.047719717025756836e-01
-8.163150548934936523e-01
-6.198477149009704590e-01
-5.310841798782348633e-01
2.120381891727447510e-01
-1.321205752901732922e-03
5.556758865714073181e-02
-4.423581063747406006e-01
-4.123016893863677979e-01
-3.004243373870849609e-01
-5.464844107627868652e-01
-4.380713999271392822e-01
-5.081156492233276367e-01
-1.012421101331710815e-01
-3.249439895153045654e-01
-3.434310853481292725e-02
-7.264594435691833496e-01
-1.109467893838882446e-01
7.764771580696105957e-02
-6.347520947456359863e-01
-4.494289755821228027e-01
-6.084278225898742676e-01
-2.849808633327484131e-01
-1.585221290588378906e-01
-7.288404703140258789e-01
1.813950389623641968e-01
2.961699292063713074e-02
-4.937851727008819580e-01
-3.304457664489746094e-01
-2.915813326835632324e-01
1.751034148037433624e-02
-3.923937976360321045e-01
-2.692032754421234131e-01
-8.778268098831176758e-01
3.272459283471107483e-02
-5.720430612564086914e-01
-3.272294998168945312e-01
-6.002662777900695801e-01
-5.685052871704101562e-01
4.223491623997688293e-02
-2.996630072593688965e-01
-3.582312464714050293e-01
-1.751616299152374268e-01
1.493491530418395996e-01
-3.862734436988830566e-01
-4.828864336013793945e-01
6.788405776023864746e-02
-4.691986441612243652e-01
1.728467792272567749e-01
-3.478328883647918701e-01
1.593788713216781616e-02
-1.233309134840965271e-01
-4.357508122920989990e-01
-6.517394185066223145e-01
-4.788766056299209595e-02
-1.851539760828018188e-01
-1.853200644254684448e-01
-1.572206616401672363e-01
9.128104895353317261e-02
-1.029983535408973694e-02
-2.372794002294540405e-01
-1.619302928447723389e-01
-2.309310734272003174e-01
2.539820075035095215e-01
-3.481107652187347412e-01
-2.749602198600769043e-01
-3.017758429050445557e-01
-2.244376540184020996e-01
7.527324557304382324e-02
-3.841579332947731018e-02
-4.250969795975834131e-04
-2.496867477893829346e-01
-2.449796795845031738e-01
-2.325907945632934570e-01
-2.468524128198623657e-01
-2.879462242126464844e-01
-3.327154517173767090e-01
-1.925443410873413086e-01
-2.397134453058242798e-01
-7.978747040033340454e-02
-3.013186156749725342e-01
-2.966997623443603516e-01
-1.132315024733543396e-01
-2.732067406177520752e-01
-2.784739434719085693e-01
-2.333290427923202515e-01
-2.676852047443389893e-01
3.629653155803680420e-01
-2.441661506891250610e-01
-6.368180271238088608e-03
-1.012324243783950806e-01
-3.547150269150733948e-02
-3.305600881576538086e-01
-2.555982768535614014e-01
1.777216643095016479e-01
-2.898483574390411377e-01
-1.753386557102203369e-01
-3.698625564575195312e-01
5.330331157892942429e-03
-2.680813372135162354e-01
-2.497464567422866821e-01
-2.935177683830261230e-01
-3.023830354213714600e-01
7.484117895364761353e-02
-2.304079830646514893e-01
-2.394035160541534424e-01
-9.465589374303817749e-02
1.961876600980758667e-01
-2.729910612106323242e-01
-2.161297351121902466e-01
5.045461654663085938e-01
-2.438234686851501465e-01
-2.764427475631237030e-02
-1.532032340764999390e-01
1.536882519721984863e-01
-1.296643912792205811e-01
-1.675121486186981201e-01
-2.655613720417022705e-01
1.029309555888175964e-01
-3.519968315958976746e-02
-1.415428146719932556e-02
1.663424074649810791e-01
-2.294015586376190186e-01
-6.257364153861999512e-02
3.195982053875923157e-02
4.933077841997146606e-02
-1.262183394283056259e-02
2.460629492998123169e-01
-3.328551352024078369e-02
-1.482474035583436489e-03
2.147277630865573883e-02
8.954935707151889801e-03
-3.358689248561859131e-01
-1.702913939952850342e-01
-4.993873089551925659e-02
1.640937291085720062e-02
5.772380158305168152e-02
-1.297258958220481873e-02
-4.245917126536369324e-02
-8.924873173236846924e-02
2.034676261246204376e-02
9.305740147829055786e-02
-7.259687036275863647e-02
-1.748380064964294434e-01
-5.874064564704895020e-02
2.992447093129158020e-02
-2.463794201612472534e-01
-4.779031034559011459e-03
-3.034667856991291046e-02
4.088818561285734177e-03
5.345972999930381775e-02
1.667861938476562500e-01
2.512710914015769958e-02
2.771960198879241943e-01
-7.059396803379058838e-02
-4.281739145517349243e-02
1.438644081354141235e-01
-5.411256849765777588e-02
2.263115793466567993e-01
6.738666445016860962e-02
5.703871324658393860e-02
-3.786101192235946655e-02
3.030263260006904602e-02
-1.307481992989778519e-02
-1.756512820720672607e-01
3.292598202824592590e-02
3.349593281745910645e-02
2.159696966409683228e-01
-1.959516704082489014e-01
1.587722264230251312e-02
-1.227800920605659485e-01
-2.426379024982452393e-01
-2.749423123896121979e-02
1.055823564529418945e-01
-2.187331579625606537e-02
-4.110432416200637817e-02
2.212777435779571533e-01
-4.281612113118171692e-02
-2.476747781038284302e-01
1.784431189298629761e-01
-5.302739888429641724e-02
3.185450658202171326e-02
-2.732935920357704163e-02
-1.510167568922042847e-01
-6.743953377008438110e-02
-2.402927875518798828e-01
-1.170654688030481339e-02
-1.645128577947616577e-01
-2.712200582027435303e-01
-2.600093483924865723e-01
-2.119157612323760986e-01
1.023005247116088867e-01
-3.443856239318847656e-01
-1.516563259065151215e-02
-1.045592501759529114e-01
-1.800512522459030151e-01
-4.318317398428916931e-03
-9.930521994829177856e-02
-9.026806056499481201e-02
-4.920887053012847900e-01
-3.477509021759033203e-01
-3.146472275257110596e-01
-1.895372867584228516e-01
-2.087588310241699219e-01
-1.605795025825500488e-01
-4.326300919055938721e-01
-1.669178605079650879e-01
-1.874644756317138672e-01
-4.020702242851257324e-01
-1.512891650199890137e-01
9.499232284724712372e-03
-2.223927527666091919e-01
-3.187418282032012939e-01
-4.149767160415649414e-01
-3.236202001571655273e-01
1.500026285648345947e-01
1.579983063493273221e-06
-2.814341485500335693e-01
-7.617492973804473877e-02
-4.383246600627899170e-01
-5.333058834075927734e-01
-2.211696654558181763e-01
-1.386527437716722488e-02
-3.973956406116485596e-01
-2.067119479179382324e-01
-1.219279989600181580e-01
3.849535807967185974e-02
-1.707632541656494141e-01
-2.004073560237884521e-01
-3.401755690574645996e-01
-2.699458301067352295e-01
-1.718336641788482666e-01
-1.449455618858337402e-01
-3.343784511089324951e-01
-1.684581637382507324e-01
6.379842013120651245e-02
-1.515241712331771851e-01
-2.574169337749481201e-01
8.688902854919433594e-02
-1.817812174558639526e-01
-1.666270345449447632e-01
-2.704170346260070801e-01
-3.512219339609146118e-02
-2.928161062300205231e-02
-1.680763959884643555e-01
-1.729540154337882996e-02
