-2.203791402280330658e-02,-8.607104420661926270e-02,-1.508591976016759872e-02,3.168528154492378235e-02,1.134444847702980042e-01,-9.977217763662338257e-02,-2.914159325882792473e-03,-1.569175906479358673e-02,-9.176837280392646790e-03,-7.309556938707828522e-03,-2.222348302602767944e-01,-5.066920071840286255e-02,-9.723175317049026489e-03,2.153817564249038696e-02,1.993254292756319046e-03,-8.332971483469009399e-03,1.303323730826377869e-02,-2.044063806533813477e-02,-1.352426037192344666e-02,-1.415687203407287598e-01,5.001863837242126465e-02,-6.490041268989443779e-04,-1.297554234042763710e-03,8.488269150257110596e-02,7.793533150106668472e-03,-3.888292983174324036e-02,9.617914911359548569e-04,2.482651174068450928e-02,7.648048922419548035e-03,-4.145658388733863831e-02,-2.543282881379127502e-02,6.712827086448669434e-02,-1.716746203601360321e-02,2.377232350409030914e-02,-9.547670185565948486e-02,-2.062868140637874603e-02,1.017237678170204163e-01,-1.089832484722137451e-01,-9.785057604312896729e-02,2.096466906368732452e-02,-2.742297574877738953e-02,1.207407712936401367e-01,-9.026105701923370361e-02,9.336076676845550537e-03,-1.397265773266553879e-02,1.061113998293876648e-01,-4.827068746089935303e-02,-5.462061241269111633e-02,9.915285743772983551e-03,-4.375512525439262390e-02,1.558038289658725262e-03,-3.540229797363281250e-02,2.170862630009651184e-02,-5.262121558189392090e-03,-9.020819514989852905e-02,-1.612257808446884155e-01,-1.830874010920524597e-02,2.395691582933068275e-03,3.340580686926841736e-02,2.560588344931602478e-02,3.627010434865951538e-02,-4.520172253251075745e-03,9.508171677589416504e-02,2.295774035155773163e-02
1.099544763565063477e-01,1.118959784507751465e-01,1.453607231378555298e-01,3.776714578270912170e-02,-2.169798910617828369e-01,7.196170091629028320e-02,-2.537180902436375618e-03,-2.319816499948501587e-03,3.003235440701246262e-03,-1.991636678576469421e-02,2.896561473608016968e-02,1.414042264223098755e-01,-7.428660988807678223e-03,-1.053153052926063538e-01,7.666079699993133545e-02,5.071513727307319641e-02,5.056630074977874756e-02,-2.493819920346140862e-03,-1.131956651806831360e-01,1.062229648232460022e-01,-7.777684181928634644e-02,-5.688961967825889587e-02,3.455373272299766541e-02,1.194186322391033173e-02,1.351116001605987549e-01,-8.883937448263168335e-02,1.274191290140151978e-01,-8.057716488838195801e-02,-1.026632711291313171e-01,-5.997342988848686218e-02,1.383324265480041504e-01,-1.320596635341644287e-01,-1.001053676009178162e-01,4.181598126888275146e-02,5.373798310756683350e-02,-1.286024898290634155e-01,4.895672202110290527e-02,2.161158919334411621e-01,8.803058415651321411e-02,-5.643928423523902893e-03,-1.341379014775156975e-03,-2.324242331087589264e-02,1.862652748823165894e-01,-3.226003795862197876e-02,-1.700268685817718506e-01,-5.094894394278526306e-02,-4.418338462710380554e-02,1.234731301665306091e-01,-1.438971492461860180e-03,-1.199646294116973877e-01,5.178492516279220581e-02,1.448430716991424561e-01,-3.331300243735313416e-02,9.582686424255371094e-02,2.796319685876369476e-02,2.703708112239837646e-01,-7.687345496378839016e-04,-6.067994609475135803e-02,-7.878189533948898315e-02,4.558709263801574707e-02,-5.188826471567153931e-02,3.178923949599266052e-02,-1.808888018131256104e-01,-1.253524571657180786e-01
-2.643877640366554260e-02,-6.115140393376350403e-03,3.825375065207481384e-02,5.020422395318746567e-03,3.469907864928245544e-02,-1.097593307495117188e-01,-5.507543310523033142e-02,-3.074052371084690094e-02,-2.684240974485874176e-02,-2.058650925755500793e-02,2.395117096602916718e-02,-3.094280511140823364e-02,-3.165111690759658813e-02,-1.584977284073829651e-02,-2.228756900876760483e-03,-4.138413444161415100e-02,-1.385649759322404861e-02,-1.841473951935768127e-02,6.259902566671371460e-02,2.473824098706245422e-02,-2.192835509777069092e-02,8.174224942922592163e-02,3.435836359858512878e-02,-6.614101678133010864e-02,-4.692826420068740845e-02,-2.996098995208740234e-02,1.375225652009248734e-02,2.050318755209445953e-02,3.520932048559188843e-02,1.517827156931161880e-02,-1.346955075860023499e-02,1.529076136648654938e-02,-3.993135690689086914e-02,1.681940257549285889e-02,-1.444915682077407837e-01,-2.443016879260540009e-02,-2.859055623412132263e-02,-8.841726183891296387e-02,-1.045405566692352295e-01,-5.731811281293630600e-03,8.512142114341259003e-03,-1.747340522706508636e-02,-2.261268906295299530e-02,1.089434921741485596e-01,-2.149138227105140686e-02,-9.013075381517410278e-03,-5.311741679906845093e-02,-3.259048983454704285e-02,2.314036525785923004e-02,-5.874706432223320007e-02,2.806891687214374542e-02,-8.234003931283950806e-02,2.680363878607749939e-02,-2.479838579893112183e-02,-6.949586095288395882e-04,1.169363409280776978e-02,-1.564472541213035583e-02,-6.561616808176040649e-02,-2.978692576289176941e-02,4.051327705383300781e-02,-3.244134038686752319e-02,2.086426690220832825e-02,-1.050244830548763275e-02,-2.612320892512798309e-02
-1.993788033723831177e-02,1.154913157224655151e-01,5.676970351487398148e-03,1.637009344995021820e-02,-9.964396245777606964e-03,-1.322984993457794189e-01,1.621493254788219929e-03,-2.435126341879367828e-02,-2.638986334204673767e-02,-4.100314807146787643e-03,7.137547433376312256e-02,-7.120643556118011475e-02,-3.430356830358505249e-02,-2.982800453901290894e-02,8.225820027291774750e-03,-1.236358005553483963e-02,2.164360135793685913e-02,-1.534439902752637863e-02,-1.987768523395061493e-02,3.204026492312550545e-03,-7.133833598345518112e-03,-2.856984175741672516e-02,2.484278380870819092e-02,-3.692559152841567993e-02,-4.718767106533050537e-02,-2.417227812111377716e-02,2.539703436195850372e-02,5.599780008196830750e-03,6.675403565168380737e-02,-1.276558730751276016e-02,-3.423570841550827026e-02,1.363334711641073227e-02,-2.020318061113357544e-02,1.437158137559890747e-02,3.171297907829284668e-02,-6.296224426478147507e-03,2.978061884641647339e-02,-6.588040292263031006e-02,8.705601096153259277e-03,-6.411070469766855240e-03,-1.236732210963964462e-02,3.467853181064128876e-03,4.416523501276969910e-03,9.021404385566711426e-02,-1.236914750188589096e-02,6.231169402599334717e-02,-9.039226919412612915e-03,-4.329467937350273132e-02,2.256176434457302094e-02,-1.826350204646587372e-02,1.721206866204738617e-02,-1.556693483144044876e-02,1.318716909736394882e-02,-3.874718770384788513e-02,1.651133596897125244e-02,-4.182256013154983521e-02,-2.556628733873367310e-02,-4.300871863961219788e-02,-3.647757461294531822e-03,2.059368975460529327e-02,-1.360983215272426605e-02,1.734056882560253143e-02,-6.456799805164337158e-02,-3.046756424009799957e-02
-1.006248686462640762e-02,1.353723742067813873e-02,4.621351510286331177e-02,1.110464241355657578e-02,-1.217806264758110046e-01,6.701806187629699707e-02,-1.868813857436180115e-02,-3.309345571324229240e-03,-1.796493120491504669e-02,-1.880503073334693909e-02,1.093097403645515442e-01,3.101043403148651123e-02,7.807989139109849930e-03,-2.648925408720970154e-02,1.670849695801734924e-02,-4.881523549556732178e-02,1.320175826549530029e-02,-1.118289530277252197e-01,-5.170656950213015079e-04,9.308205544948577881e-02,1.604406163096427917e-02,-2.393968962132930756e-02,1.201527938246726990e-01,-6.471095234155654907e-02,-1.367912814021110535e-02,-6.684204097837209702e-03,1.978529617190361023e-02,-1.781334355473518372e-02,6.699623912572860718e-02,-6.832908838987350464e-02,7.884769700467586517e-03,3.214319050312042236e-02,-5.079771205782890320e-02,2.879788167774677277e-02,2.113538980484008789e-02,7.775698322802782059e-03,-9.457022696733474731e-02,-1.862289756536483765e-02,6.691231392323970795e-03,-6.746146082878112793e-02,-5.090018734335899353e-03,-2.101167850196361542e-02,5.107978824526071548e-03,6.667632609605789185e-02,-3.339948505163192749e-02,7.558719255030155182e-03,-9.345442056655883789e-02,5.385197233408689499e-03,1.273187436163425446e-02,-3.873965516686439514e-02,-5.500000552274286747e-04,3.888615174219012260e-03,2.153987251222133636e-02,-3.587766364216804504e-02,1.680290251970291138e-01,6.366199254989624023e-02,-2.669944427907466888e-03,-3.723256289958953857e-02,-4.862383380532264709e-02,1.694727502763271332e-02,-3.895713388919830322e-02,8.462323807179927826e-03,6.429540924727916718e-03,-3.311411663889884949e-02
2.415624679997563362e-03,-4.010443575680255890e-03,-1.091083064675331116e-01,4.934300854802131653e-02,-3.414560807868838310e-03,2.610089490190148354e-03,-7.105533150024712086e-04,1.655986160039901733e-02,9.689194848760962486e-04,-8.415874093770980835e-03,2.823429554700851440e-02,-7.669058442115783691e-02,1.002579368650913239e-02,4.300029948353767395e-03,4.121998697519302368e-02,1.043118536472320557e-01,4.418247565627098083e-02,4.250674694776535034e-02,-7.531228661537170410e-02,-1.203809957951307297e-02,2.625836990773677826e-02,-2.844927459955215454e-02,3.609677404165267944e-02,-1.331228855997323990e-02,1.337630581110715866e-02,7.480516284704208374e-02,1.582808233797550201e-02,-2.710804902017116547e-02,-1.188214495778083801e-02,-3.171413391828536987e-02,2.294004708528518677e-02,3.740044683218002319e-02,8.430046960711479187e-03,5.590310785919427872e-03,4.844775423407554626e-03,1.108680292963981628e-02,-6.953848898410797119e-02,-1.499990560114383698e-02,1.282480061054229736e-01,9.936428628861904144e-03,1.111581642180681229e-02,-4.492833092808723450e-02,6.521843024529516697e-04,-1.163627579808235168e-01,6.398334354162216187e-02,5.372660700231790543e-03,-1.283114310353994370e-02,8.020272105932235718e-02,2.639664337038993835e-02,4.943988751620054245e-03,-1.058850158005952835e-02,4.393071308732032776e-02,-7.954876124858856201e-02,-7.441210560500621796e-03,7.922398298978805542e-02,5.605578422546386719e-02,-9.934663027524948120e-02,5.204650759696960449e-02,-2.030205214396119118e-03,-1.497648889198899269e-03,-7.005850225687026978e-02,4.006316140294075012e-02,-1.027093306183815002e-01,8.140596561133861542e-03
-5.557811819016933441e-04,-2.433705888688564301e-02,1.091703400015830994e-02,1.542647369205951691e-03,2.233830839395523071e-02,-6.835761945694684982e-03,-2.463330747559666634e-03,-5.963319912552833557e-03,1.756720962475810666e-06,3.128889147774316370e-06,5.588057101704180241e-04,-8.943501114845275879e-02,-4.897773731499910355e-03,-7.352751563303172588e-04,3.827423206530511379e-04,-1.594301871955394745e-02,-5.348687060177326202e-03,-1.934321224689483643e-02,4.401839338243007660e-03,-4.991086944937705994e-02,-1.317941001616418362e-03,4.052935168147087097e-03,1.312018837779760361e-02,-4.521591588854789734e-02,-1.650895923376083374e-02,-8.885643910616636276e-04,9.567242814227938652e-04,1.095788367092609406e-02,1.683660037815570831e-02,1.449515204876661301e-02,-1.262758579105138779e-02,5.253487615846097469e-04,-5.685567855834960938e-03,-8.684603380970656872e-05,-1.227177157998085022e-01,-1.137289870530366898e-02,-4.424331709742546082e-03,-2.147029899060726166e-02,-1.930209994316101074e-02,-1.437548315152525902e-03,3.140327520668506622e-03,2.216045558452606201e-02,-1.736570848152041435e-03,3.530451655387878418e-02,6.182833109050989151e-03,9.335477836430072784e-03,-7.010838948190212250e-03,3.795193275436758995e-03,4.795263521373271942e-03,9.346198639832437038e-04,6.405823398381471634e-03,-2.206531912088394165e-02,1.412513479590415955e-02,-8.688888698816299438e-02,-3.609769977629184723e-03,-3.858456388115882874e-02,-4.900981439277529716e-04,-3.296960145235061646e-02,3.307246835902333260e-03,2.871744567528367043e-03,-1.635019108653068542e-02,1.623732270672917366e-03,8.349887281656265259e-02,-2.165380679070949554e-02
-8.897060155868530273e-02,-5.624445527791976929e-02,-7.049757987260818481e-03,3.528608707711100578e-03,1.483129709959030151e-01,-9.269783645868301392e-02,-6.637519598007202148e-02,-1.053763404488563538e-01,-9.746998548507690430e-03,-9.373234584927558899e-03,3.611462889239192009e-03,-5.126705020666122437e-02,-1.023285929113626480e-02,1.216377248056232929e-03,5.259802564978599548e-04,-1.704702503047883511e-03,-9.977432899177074432e-03,-5.047386884689331055e-02,3.782285377383232117e-02,-6.475796550512313843e-02,-1.160718593746423721e-02,9.661778062582015991e-02,1.265687309205532074e-02,3.172925859689712524e-02,-7.186041027307510376e-02,-2.815454453229904175e-02,5.655370187014341354e-03,2.124033495783805847e-02,2.117012627422809601e-02,8.476633578538894653e-02,5.063406005501747131e-02,6.971031427383422852e-02,1.940669678151607513e-02,4.731347784399986267e-03,-7.268701214343309402e-03,-2.982143312692642212e-02,-4.445403069257736206e-02,-1.255533397197723389e-01,-5.044475197792053223e-03,-3.361053764820098877e-02,1.055829413235187531e-02,3.370711952447891235e-02,-3.112760186195373535e-02,9.633848816156387329e-02,2.574917674064636230e-02,-5.885712057352066040e-02,-2.191872894763946533e-02,-2.928418479859828949e-02,7.608713531226385385e-06,-1.864059083163738251e-02,5.504672881215810776e-03,-1.250412464141845703e-01,-3.387638600543141365e-03,6.733092479407787323e-03,-1.096168626099824905e-02,-3.586336970329284668e-02,-1.137475948780775070e-02,-2.793190814554691315e-02,4.627247899770736694e-02,3.385796025395393372e-02,9.429905563592910767e-02,1.594092138111591339e-02,-5.030626431107521057e-02,4.030073806643486023e-02
-1.109559205360710621e-03,-7.954245805740356445e-02,-4.240911919623613358e-03,4.273818433284759521e-02,5.054518952965736389e-02,-1.482348144054412842e-01,1.978943590074777603e-03,-3.440056927502155304e-03,-3.438421292230486870e-03,-1.130623556673526764e-02,-1.243368722498416901e-02,-1.920004636049270630e-01,4.681870806962251663e-03,3.024343401193618774e-03,1.701697893440723419e-02,-5.765025503933429718e-03,7.112124934792518616e-03,1.049148384481668472e-02,-2.009041234850883484e-02,-4.615578427910804749e-02,2.242606133222579956e-02,-1.537273754365742207e-03,4.269758705049753189e-03,9.779076790437102318e-04,1.764260465279221535e-03,1.848001382313668728e-03,2.660377183929085732e-03,-1.544936280697584152e-02,-1.438018493354320526e-02,-4.178420826792716980e-02,3.120043547824025154e-04,2.964905649423599243e-02,-1.826453022658824921e-02,9.425736963748931885e-03,-9.541324526071548462e-02,1.367852278053760529e-02,1.179875712841749191e-02,-9.206489473581314087e-02,-5.425706971436738968e-03,3.566020041034789756e-06,-7.536353077739477158e-03,1.184872686862945557e-01,-3.981291502714157104e-02,6.844930816441774368e-03,-2.468097396194934845e-02,1.726929396390914917e-01,-2.383634075522422791e-02,-2.961063291877508163e-03,-3.710337448865175247e-03,-2.535956352949142456e-02,-1.697738334769383073e-04,-1.252096891403198242e-01,3.055352717638015747e-03,-2.052842527627944946e-01,-3.113880753517150879e-03,-6.542956084012985229e-02,4.189748317003250122e-03,1.792936399579048157e-02,-9.489757008850574493e-03,-2.265732269734144211e-03,-1.441081520169973373e-02,6.548711098730564117e-04,2.158827781677246094e-01,2.726082457229495049e-03
-1.941185258328914642e-02,-8.678019046783447266e-02,-2.590907024568878114e-05,3.026994504034519196e-02,1.271314173936843872e-02,-7.323384750634431839e-03,-3.617659094743430614e-04,-1.171509362757205963e-02,-2.777971701561909867e-07,-5.262872946332208812e-07,-4.045294132083654404e-03,-1.283533275127410889e-01,-8.802536758594214916e-04,-1.099154911935329437e-02,1.656555011868476868e-02,-2.354407124221324921e-02,5.400314927101135254e-03,8.524827659130096436e-03,-2.851974591612815857e-02,-1.212368346750736237e-02,1.205982081592082977e-02,-8.232672698795795441e-03,1.340270973742008209e-02,-1.310959807597100735e-03,-3.382065566256642342e-03,-1.980647630989551544e-02,2.893142518587410450e-04,-3.749613882973790169e-03,-7.906656712293624878e-03,-4.247682169079780579e-02,-3.957453742623329163e-02,1.875872910022735596e-02,-1.915698498487472534e-02,9.853410301730036736e-04,-3.068066760897636414e-02,-1.840797602199018002e-03,-8.027441217564046383e-04,-1.229221311405126471e-07,-1.173731777817010880e-02,-3.478188766166567802e-03,-2.342468263805130846e-08,2.763366885483264923e-02,-6.760444492101669312e-02,2.466743439435958862e-02,-3.135245293378829956e-02,-7.654646760784089565e-04,-2.745058201253414154e-02,-8.167708874680101871e-04,4.416893352754414082e-04,-2.213714271783828735e-02,9.949049912393093109e-03,1.602605218067765236e-03,4.086151346564292908e-02,-1.344769150018692017e-01,8.179564960300922394e-03,-1.206537336111068726e-01,-3.261207835748791695e-03,-5.141821224242448807e-03,2.298705046996474266e-03,4.914222285151481628e-03,-1.755504496395587921e-02,4.252310842275619507e-03,9.069562703371047974e-02,-1.266531366854906082e-02
-2.994830720126628876e-02,6.120216101408004761e-02,7.831315696239471436e-02,3.244325891137123108e-02,-4.910583794116973877e-02,6.851343903690576553e-03,-5.823480896651744843e-03,-6.139101460576057434e-02,-1.774930208921432495e-02,-2.451114356517791748e-02,7.604359835386276245e-02,3.781889006495475769e-02,-6.414825469255447388e-02,-1.738975755870342255e-02,3.260026872158050537e-02,-2.515912614762783051e-02,4.673736169934272766e-02,-1.929163374006748199e-02,-2.302182652056217194e-02,1.383100003004074097e-01,-5.072026979178190231e-03,-2.673547156155109406e-02,3.823602199554443359e-02,-7.613846100866794586e-03,-3.364695608615875244e-02,-3.371800854802131653e-02,2.573585510253906250e-02,-1.213717367500066757e-02,8.700435049831867218e-03,-1.472517102956771851e-02,5.862582847476005554e-02,2.085620537400245667e-02,-3.849676251411437988e-02,3.026746399700641632e-02,1.200029775500297546e-01,3.277658019214868546e-03,-1.009714901447296143e-01,4.772207513451576233e-02,8.283161371946334839e-02,-2.386397309601306915e-02,3.247703425586223602e-03,-8.095624297857284546e-02,2.087253145873546600e-02,6.539778411388397217e-02,-1.847453415393829346e-02,-7.520352303981781006e-02,-9.357419610023498535e-02,2.506134472787380219e-02,2.807495370507240295e-02,-6.284534931182861328e-02,1.654699444770812988e-02,2.940642880275845528e-03,4.578321054577827454e-02,1.567040681838989258e-01,7.700515538454055786e-02,1.514341831207275391e-01,-2.663227729499340057e-02,-3.775711730122566223e-02,-2.517129480838775635e-02,3.454785794019699097e-02,-2.527856640517711639e-02,1.463404856622219086e-02,-2.202620543539524078e-02,-1.275206636637449265e-02
-2.345953689655289054e-04,6.370985507965087891e-02,1.413217559456825256e-02,4.159228876233100891e-02,-9.559863060712814331e-02,8.409547805786132812e-02,-1.870864257216453552e-02,-2.427783235907554626e-02,-6.990906316787004471e-03,-4.653446003794670105e-02,5.465197190642356873e-02,5.191553011536598206e-02,-2.740878844633698463e-03,-9.341564029455184937e-02,1.884904131293296814e-02,-4.450699687004089355e-02,1.557549275457859039e-02,-1.439039502292871475e-02,-7.770943455398082733e-03,6.760418415069580078e-02,1.347339153289794922e-02,1.078191417036578059e-04,2.131889574229717255e-02,-5.718300491571426392e-02,-1.721041649580001831e-02,-3.915180265903472900e-02,2.550401352345943451e-02,-1.396992523223161697e-02,-1.222376618534326553e-02,-6.274352222681045532e-02,4.074105620384216309e-02,3.750886768102645874e-02,-8.068038523197174072e-02,3.507220745086669922e-02,1.519241183996200562e-01,8.934660814702510834e-03,-1.308049820363521576e-02,4.015366081148386002e-03,1.247283965349197388e-01,-3.497203812003135681e-02,-1.773147098720073700e-02,-7.512619346380233765e-02,-4.808929283171892166e-03,6.710065994411706924e-03,-7.145006954669952393e-02,-5.148940719664096832e-03,-9.500224143266677856e-02,1.968643255531787872e-02,1.030614506453275681e-02,-1.092431023716926575e-01,3.290502727031707764e-02,7.850418239831924438e-02,-2.692353166639804840e-02,9.782600402832031250e-02,2.919865772128105164e-02,1.249489188194274902e-01,-1.809512148611247540e-03,6.007614359259605408e-02,-1.889333687722682953e-02,1.550720445811748505e-02,1.911233062855899334e-03,1.900364644825458527e-02,-1.730704158544540405e-01,-2.481149882078170776e-02
3.438609186559915543e-03,1.196107082068920135e-02,-7.857304997742176056e-03,1.372804492712020874e-02,7.952552288770675659e-03,-2.123744785785675049e-01,5.177823826670646667e-03,-4.537902027368545532e-02,6.194601766765117645e-03,-1.961611211299896240e-02,3.504592552781105042e-02,-7.488369010388851166e-03,1.156887132674455643e-02,2.428487787256017327e-04,1.760531403124332428e-02,-3.212796058505773544e-03,3.775994759052991867e-03,-1.353622530587017536e-03,-3.241496160626411438e-03,-4.733666311949491501e-03,3.825915604829788208e-02,-4.892568569630384445e-03,1.289283484220504761e-01,-3.550142422318458557e-02,4.915460012853145599e-03,1.937539433129131794e-03,2.053041011095046997e-02,2.687876694835722446e-04,5.264956131577491760e-02,3.818131610751152039e-02,-1.432283520698547363e-01,-2.125869505107402802e-02,3.176369518041610718e-02,2.061377093195915222e-02,-7.732804119586944580e-02,2.381524769589304924e-03,2.804806269705295563e-02,-1.781672239303588867e-01,-6.719963252544403076e-02,1.101556792855262756e-01,3.267616266384720802e-04,3.884461149573326111e-02,-3.213823540136218071e-03,1.436874363571405411e-02,5.023372173309326172e-02,1.020028367638587952e-01,-1.446819957345724106e-02,-3.618937358260154724e-02,1.963646709918975830e-02,-1.072243787348270416e-02,-6.476775277405977249e-03,-5.936457961797714233e-02,-1.328568253666162491e-02,-4.717189446091651917e-02,-1.395557262003421783e-02,-5.389492958784103394e-03,4.463828168809413910e-03,1.470790617167949677e-02,-2.120388206094503403e-03,-3.914823289960622787e-03,1.375787984579801559e-02,-1.742844469845294952e-04,7.269920408725738525e-02,2.213729545474052429e-02
2.553594997152686119e-03,4.749538749456405640e-02,1.080532930791378021e-02,3.597804158926010132e-02,1.293464843183755875e-02,-7.599355280399322510e-02,2.082160674035549164e-02,1.524461340159177780e-02,1.455253222957253456e-03,-1.577575877308845520e-02,-1.478806044906377792e-02,-3.020298108458518982e-02,5.648162681609392166e-03,5.596742779016494751e-02,1.498252246528863907e-02,3.253412619233131409e-02,-1.755962520837783813e-02,1.077375095337629318e-02,-2.757943235337734222e-02,-2.369831688702106476e-02,4.582778550684452057e-03,8.376686275005340576e-02,-7.940424233675003052e-02,7.230475544929504395e-02,2.069226466119289398e-02,-5.137772299349308014e-03,-8.831925690174102783e-03,-6.837964057922363281e-03,-5.505415145307779312e-03,-4.337317124009132385e-02,-7.780059240758419037e-03,1.569915413856506348e-01,5.469281226396560669e-02,2.445914410054683685e-02,-5.954255908727645874e-02,-5.828677676618099213e-03,2.402051351964473724e-02,-4.423933103680610657e-02,-7.440739125013351440e-02,1.302930898964405060e-02,-2.025084337219595909e-03,8.596794307231903076e-02,-1.519634574651718140e-02,-8.245095610618591309e-03,4.805751517415046692e-02,1.245554164052009583e-01,1.374033186584711075e-02,-7.696045190095901489e-02,-1.779837347567081451e-02,8.225212804973125458e-03,-1.705911196768283844e-02,-1.191509738564491272e-01,-2.808263339102268219e-02,-3.479758650064468384e-02,-4.865334928035736084e-02,-3.567325323820114136e-02,1.720441691577434540e-02,4.449402913451194763e-02,-2.150714956223964691e-02,-1.128399744629859924e-03,5.469165369868278503e-02,-5.708994809538125992e-03,2.188267745077610016e-02,1.007911264896392822e-01
-3.354462981224060059e-02,-6.385552883148193359e-02,-9.047969360835850239e-04,1.176544278860092163e-02,8.221010863780975342e-02,-1.849655807018280029e-01,-4.572106990963220596e-03,-2.725028991699218750e-02,-1.593232154846191406e-02,-7.187515497207641602e-03,1.266911812126636505e-02,-1.655247956514358521e-01,-5.151064135134220123e-03,-2.687930129468441010e-03,8.933709003031253815e-03,-1.872329227626323700e-02,1.872815191745758057e-02,-6.527809891849756241e-03,1.124072005040943623e-03,-3.877943009138107300e-02,6.149223074316978455e-02,-1.785567030310630798e-02,3.326350450515747070e-02,-3.427568823099136353e-02,-1.157892774790525436e-02,-2.168889157474040985e-03,3.410991746932268143e-03,8.521340205334126949e-04,3.915881738066673279e-02,8.705726824700832367e-03,-9.399589151144027710e-02,-1.315688434988260269e-02,-8.054870180785655975e-03,7.708917371928691864e-03,-1.612669378519058228e-01,-3.307466162368655205e-03,7.168748229742050171e-02,-1.467246096581220627e-02,-1.747710704803466797e-01,1.364965923130512238e-02,1.184472697786986828e-03,1.072798743844032288e-01,-7.758418470621109009e-02,6.473895907402038574e-02,3.735212376341223717e-03,7.675473392009735107e-02,-6.858197972178459167e-03,-4.788883402943611145e-02,7.296617608517408371e-03,-1.367620774544775486e-03,-3.142368281260132790e-03,-8.574441075325012207e-02,2.615719661116600037e-02,-7.249982655048370361e-02,-2.662867773324251175e-03,-1.210116744041442871e-01,-4.261374415364116430e-04,-8.658098429441452026e-02,-2.613046206533908844e-02,9.156603366136550903e-03,-2.664783596992492676e-02,-1.457907201256603003e-04,5.376587808132171631e-02,-2.261645533144474030e-02
9.197880513966083527e-03,1.968502253293991089e-02,3.489136230200529099e-03,-3.999806940555572510e-02,-2.024581190198659897e-03,-4.533347859978675842e-02,1.590782217681407928e-02,-7.495990954339504242e-03,1.179087813943624496e-02,2.599988877773284912e-02,1.226238440722227097e-02,-4.075624793767929077e-02,-8.201082237064838409e-03,-6.668670685030519962e-04,-1.818355731666088104e-02,1.294908300042152405e-02,-3.213822841644287109e-02,-1.569427363574504852e-02,3.119829855859279633e-02,2.613195031881332397e-02,-4.661552980542182922e-02,2.645947039127349854e-02,-7.928137481212615967e-02,9.334622323513031006e-02,-9.773214347660541534e-03,4.003438167273998260e-03,3.599290922284126282e-02,2.548404596745967865e-02,3.090145811438560486e-02,1.386421471834182739e-01,-3.718662261962890625e-02,1.108246855437755585e-02,1.167215779423713684e-01,-8.727601915597915649e-02,2.102730050683021545e-02,-1.927529834210872650e-02,-6.624731235206127167e-03,-1.848991215229034424e-02,-2.317685820162296295e-02,2.063770778477191925e-03,4.280239343643188477e-02,-1.290132664144039154e-02,-2.468710066750645638e-03,5.252697505056858063e-03,1.480654925107955933e-01,5.350505933165550232e-02,4.137779772281646729e-02,1.460819784551858902e-02,-7.108427584171295166e-03,6.010026857256889343e-02,-1.533789560198783875e-02,-6.485079973936080933e-02,-2.592618018388748169e-02,-3.786328434944152832e-02,-5.407845601439476013e-02,1.462644431740045547e-02,-6.642146967351436615e-03,1.487621385604143143e-02,7.077581435441970825e-02,2.423152560368180275e-03,1.568644046783447266e-01,9.450282232137396932e-05,-1.347080059349536896e-02,8.418206125497817993e-02
-3.449805546551942825e-03,-1.231839805841445923e-01,-1.046109013259410858e-02,2.645641565322875977e-02,9.082766249775886536e-03,-8.917476236820220947e-02,1.236603688448667526e-02,-5.686875432729721069e-03,-5.347077734768390656e-03,-1.338235451839864254e-03,-1.049103587865829468e-02,-1.054948866367340088e-01,-1.354950759559869766e-02,-5.907202605158090591e-03,1.331114675849676132e-02,-2.313830889761447906e-02,1.847269758582115173e-02,6.248560268431901932e-03,-1.128644961863756180e-02,-2.139585465192794800e-02,1.946659199893474579e-02,-1.996602304279804230e-02,-1.584902592003345490e-02,-4.280164465308189392e-02,9.496456943452358246e-03,-8.124484680593013763e-03,-4.220436385367065668e-04,-5.480273626744747162e-03,-2.291263081133365631e-02,-2.078555710613727570e-02,-1.312235090881586075e-02,1.566024869680404663e-02,-2.652794867753982544e-02,4.652747884392738342e-03,-1.635127365589141846e-01,2.257367596030235291e-03,1.186563353985548019e-02,-2.457182481884956360e-02,-1.748214475810527802e-02,1.156593579798936844e-02,-5.574161186814308167e-03,7.129921112209558487e-03,-7.193423062562942505e-02,1.670100726187229156e-02,-2.300854958593845367e-02,8.816167712211608887e-02,-1.228126697242259979e-02,-7.470170967280864716e-03,4.988044383935630322e-04,-5.703236907720565796e-03,8.200511801987886429e-04,-2.729305764660239220e-03,3.358563873916864395e-03,-1.415015608072280884e-01,-6.804725527763366699e-02,-1.413781475275754929e-02,6.633228040300309658e-04,-1.947775832377374172e-03,-1.698637194931507111e-02,-3.147676121443510056e-03,-1.367488037794828415e-02,2.468022750690579414e-03,7.757613807916641235e-02,9.494232945144176483e-03
-7.023559510707855225e-02,7.573123276233673096e-02,5.165389925241470337e-02,-2.367775142192840576e-02,-1.218732148408889771e-01,5.686884373426437378e-02,-2.304438874125480652e-02,-1.735565513372421265e-01,-4.201006889343261719e-02,5.928335338830947876e-02,2.196319699287414551e-01,2.478888817131519318e-02,-3.592827543616294861e-02,-1.465515196323394775e-01,-4.916740953922271729e-02,-2.781350538134574890e-02,1.531565468758344650e-02,-2.338801920413970947e-01,1.260815281420946121e-02,5.558045953512191772e-02,-7.530970871448516846e-02,1.295799575746059418e-02,6.834081839770078659e-03,1.119133755564689636e-01,-4.136488214135169983e-02,-7.248511165380477905e-02,1.305851060897111893e-02,2.482751607894897461e-01,1.303767263889312744e-01,8.121347427368164062e-02,6.116454303264617920e-02,4.968061111867427826e-03,4.205057024955749512e-02,-2.121005952358245850e-02,1.326815485954284668e-01,-1.337565928697586060e-01,-4.943335056304931641e-02,9.030143171548843384e-02,2.465405035763978958e-03,-1.068176850676536560e-01,1.278891693800687790e-02,-1.236853450536727905e-01,2.183298021554946899e-01,1.292719785124063492e-02,1.159198358654975891e-01,-4.705638810992240906e-02,-1.134362593293190002e-01,8.535914868116378784e-02,2.217201702296733856e-02,-5.955093726515769958e-02,6.593605875968933105e-02,-2.993136942386627197e-01,2.658392488956451416e-02,1.193083822727203369e-01,1.855822652578353882e-01,1.192686110734939575e-01,-6.435324251651763916e-02,-1.224233806133270264e-01,1.193086057901382446e-01,6.894422322511672974e-02,2.497787326574325562e-01,1.359237134456634521e-01,-5.508646834641695023e-03,5.994459614157676697e-02
-8.341311477124691010e-03,4.155788198113441467e-02,1.851278170943260193e-02,-1.488001365214586258e-02,-5.362265743315219879e-03,-5.686511099338531494e-02,-2.107536233961582184e-02,-2.440732344985008240e-02,-4.748446866869926453e-03,4.569141310639679432e-04,8.147389627993106842e-03,1.150802522897720337e-02,-2.192641049623489380e-02,-1.055007800459861755e-03,-3.443793160840868950e-03,-4.003160446882247925e-02,-4.538847861113026738e-05,-2.932685241103172302e-02,3.100604936480522156e-02,1.473619416356086731e-02,3.983160946518182755e-03,2.206887677311897278e-02,1.345083676278591156e-02,-6.424814462661743164e-02,5.074219661764800549e-04,-6.613765843212604523e-03,-4.432834219187498093e-03,3.418827429413795471e-02,3.167784586548805237e-02,1.766163669526576996e-02,-3.494311589747667313e-03,-1.505640987306833267e-02,-2.807653695344924927e-02,1.327103469520807266e-03,-1.141352951526641846e-02,-2.087069861590862274e-02,8.185032755136489868e-03,-7.175651937723159790e-02,-9.931667149066925049e-02,-3.328386927023530006e-03,-7.048268336802721024e-03,9.648852050304412842e-02,6.904022395610809326e-02,3.031904622912406921e-02,-3.185756504535675049e-02,6.716922670602798462e-02,-8.230169303715229034e-03,-5.644091963768005371e-02,2.223845338448882103e-03,-5.026367492973804474e-03,1.046223659068346024e-02,-4.287965595722198486e-02,1.775447279214859009e-02,6.855918094515800476e-03,-9.675081819295883179e-02,-1.161096766591072083e-01,-1.982932444661855698e-03,-1.032327190041542053e-01,4.353828728199005127e-02,2.198440255597233772e-03,-5.396686960011720657e-03,6.842951755970716476e-03,1.734539121389389038e-02,-3.094011545181274414e-02
-3.806136781349778175e-03,2.142645716667175293e-01,1.051632240414619446e-01,-5.441111046820878983e-03,-2.075127512216567993e-01,1.507843881845474243e-01,-7.763509638607501984e-03,-6.692381575703620911e-03,1.309325732290744781e-02,-2.901987545192241669e-02,2.844677567481994629e-01,2.612199485301971436e-01,-9.071633964776992798e-02,-1.148218140006065369e-01,5.809715017676353455e-03,-3.116583684459328651e-03,1.743465289473533630e-02,-2.960897283628582954e-03,3.320794785395264626e-03,2.404783517122268677e-01,-1.040778681635856628e-01,-1.271193847060203552e-02,7.782170176506042480e-02,-5.578339472413063049e-02,-8.630507625639438629e-03,-2.031698077917098999e-02,2.245796285569667816e-02,-8.563480526208877563e-02,-3.072252124547958374e-02,-7.504332065582275391e-02,1.233447566628456116e-01,-5.080171674489974976e-02,-7.488746941089630127e-02,5.637313798069953918e-02,1.728950738906860352e-01,-3.635118156671524048e-02,-1.614613085985183716e-01,1.856723725795745850e-01,1.470932513475418091e-01,-5.637887120246887207e-02,3.681984264403581619e-03,-1.935724914073944092e-01,1.654183268547058105e-01,-5.137529224157333374e-03,-8.444898575544357300e-02,-1.773625761270523071e-01,-5.158094689249992371e-02,1.371382921934127808e-01,7.355620618909597397e-03,-4.392680898308753967e-02,1.042332127690315247e-01,1.283466517925262451e-01,2.678531967103481293e-02,2.527182996273040771e-01,2.022066712379455566e-01,2.373429238796234131e-01,-4.443212598562240601e-02,-4.649565368890762329e-02,-9.130894392728805542e-02,2.710659429430961609e-02,-7.311186194419860840e-02,5.806788057088851929e-02,-1.023716330528259277e-01,-9.953401237726211548e-02
-3.137147752568125725e-03,5.562211386859416962e-03,-3.991296514868736267e-03,2.888489514589309692e-03,-1.152219437062740326e-02,6.242586672306060791e-02,3.392570186406373978e-03,2.956083510071039200e-03,-1.918268948793411255e-02,1.371133257634937763e-04,3.785766893997788429e-03,9.083970636129379272e-02,1.674606697633862495e-03,-1.199041027575731277e-02,5.790542345494031906e-03,6.082666572183370590e-03,1.741823926568031311e-02,8.456453680992126465e-03,-2.659191004931926727e-02,-3.057497087866067886e-03,1.051674224436283112e-02,-1.930508576333522797e-02,-3.180726617574691772e-02,-1.584419049322605133e-02,-1.571308262646198273e-02,4.577948246151208878e-03,6.465723738074302673e-03,-6.650924216955900192e-03,-2.647351939231157303e-03,7.029406726360321045e-03,-4.862129222601652145e-03,-2.442442439496517181e-02,1.038536801934242249e-02,7.955129258334636688e-03,1.025260835886001587e-01,3.576424671337008476e-03,-5.285117076709866524e-04,5.589569732546806335e-02,2.659366652369499207e-02,-2.066429704427719116e-02,2.216189459431916475e-04,-2.225474268198013306e-02,2.445999346673488617e-02,8.946423185989260674e-04,2.392785064876079559e-02,-2.608987316489219666e-02,1.495689991861581802e-02,3.694825991988182068e-02,1.233967253938317299e-03,1.645434461534023285e-02,-6.740451790392398834e-04,5.872547253966331482e-02,1.509317196905612946e-03,2.578046172857284546e-02,-3.183987690135836601e-03,2.971534617245197296e-02,-3.547471715137362480e-04,1.130530796945095062e-02,-1.411067135632038116e-02,-1.524744089692831039e-03,-9.559915401041507721e-03,-2.545634983107447624e-03,-1.850972510874271393e-02,-6.413001567125320435e-03
-8.551865816116333008e-03,-9.105683118104934692e-02,5.424102768301963806e-02,5.133572500199079514e-03,2.454722858965396881e-02,-1.453174799680709839e-01,-1.844574697315692902e-02,-6.279276311397552490e-02,-3.608681494370102882e-03,6.772034103050827980e-04,2.038663998246192932e-02,-1.005532816052436829e-01,-5.389746278524398804e-02,-7.592194713652133942e-03,-1.718386542052030563e-03,-6.026635691523551941e-02,4.651001188904047012e-03,-9.411434829235076904e-02,-5.894911009818315506e-04,-5.880263820290565491e-02,1.981217972934246063e-02,-5.108323413878679276e-03,1.722312904894351959e-02,-1.153733581304550171e-01,-7.253064960241317749e-02,-2.160338871181011200e-02,3.212613752111792564e-03,7.193561643362045288e-02,4.712442681193351746e-02,5.794151802547276020e-04,-6.261119991540908813e-02,5.641198717057704926e-03,-4.037131741642951965e-02,1.248829648829996586e-04,-1.802256852388381958e-01,-8.095479756593704224e-02,5.936065688729286194e-03,-6.974499672651290894e-02,-7.046722620725631714e-02,-2.698457613587379456e-02,4.550034063868224621e-04,7.788214087486267090e-02,-1.714470423758029938e-02,9.362854808568954468e-02,-4.803053662180900574e-02,1.653243303298950195e-01,-3.737101331353187561e-02,4.264448955655097961e-02,5.501898471266031265e-03,-1.448862347751855850e-02,6.559564173221588135e-02,-1.500037014484405518e-01,5.658928304910659790e-02,-1.465590000152587891e-01,-8.159505575895309448e-02,-4.330740123987197876e-02,-6.420118268579244614e-03,-8.061896264553070068e-02,1.531971618533134460e-02,3.984449803829193115e-02,1.717669330537319183e-02,5.058471485972404480e-02,9.231197088956832886e-02,-4.950327053666114807e-02
-6.523443013429641724e-02,-9.136518090963363647e-02,1.401678286492824554e-02,1.101853474974632263e-01,1.118273064494132996e-01,-6.147283315658569336e-02,-5.281240120530128479e-02,-8.567012846469879150e-02,-1.915774866938591003e-02,-4.508364945650100708e-03,-3.299573436379432678e-02,-1.007044762372970581e-01,-1.377983484417200089e-02,-2.569818124175071716e-02,-1.886507030576467514e-03,-6.596088409423828125e-02,-2.389488928020000458e-02,-4.622386395931243896e-02,7.931529730558395386e-02,-1.319663077592849731e-01,1.444972399622201920e-02,1.695942319929599762e-02,4.450484737753868103e-02,-1.818595454096794128e-02,-4.541375488042831421e-02,-1.750248856842517853e-02,-1.313993893563747406e-02,3.689662367105484009e-02,7.886706292629241943e-02,7.017913740128278732e-03,-5.516048520803451538e-03,-2.538191527128219604e-02,-7.294102013111114502e-02,1.191947376355528831e-04,-4.195507243275642395e-02,-1.316068507730960846e-02,-7.030519098043441772e-02,2.047461457550525665e-02,3.904921561479568481e-02,-4.474840685725212097e-02,5.206858739256858826e-02,-2.112461626529693604e-02,-1.987820118665695190e-02,2.094365507364273071e-01,-5.611665546894073486e-02,5.769196897745132446e-03,-6.196725368499755859e-02,4.042650759220123291e-02,4.504420980811119080e-02,-5.219682306051254272e-02,4.487156867980957031e-02,-6.794761121273040771e-02,5.703215673565864563e-02,8.145665749907493591e-03,6.214506179094314575e-02,4.878079146146774292e-02,-2.779665961861610413e-02,-3.631684556603431702e-02,-1.321037951856851578e-02,3.780477866530418396e-02,-3.193225339055061340e-02,2.269839309155941010e-02,1.268114298582077026e-01,-6.771283596754074097e-02
-5.433689430356025696e-02,5.566529929637908936e-02,1.412457674741744995e-01,-6.436468660831451416e-02,-1.260976940393447876e-01,1.724767312407493591e-02,-1.096995472908020020e-01,-1.409274339675903320e-01,-5.360004305839538574e-02,-6.331567186862230301e-03,1.130271777510643005e-01,6.787291914224624634e-02,-1.049092635512351990e-01,-5.271551385521888733e-02,-6.603808701038360596e-02,-1.361297667026519775e-01,-4.694586619734764099e-02,-1.643689274787902832e-01,1.087779849767684937e-01,1.056169867515563965e-01,-5.696795135736465454e-02,8.172312378883361816e-02,8.777634799480438232e-02,-9.748396277427673340e-02,-1.621023118495941162e-01,-9.159373492002487183e-02,1.583919674158096313e-02,1.328650861978530884e-01,1.425244808197021484e-01,4.112601280212402344e-02,1.278667449951171875e-01,-4.310385789722204208e-03,-6.421333551406860352e-02,6.200497038662433624e-03,-4.816892743110656738e-02,-1.202390119433403015e-01,-1.297143846750259399e-01,-3.661616891622543335e-02,1.056085228919982910e-01,-1.304012238979339600e-01,-1.379779446870088577e-02,-1.205802038311958313e-01,1.019793078303337097e-01,1.800401657819747925e-01,-8.265183120965957642e-02,3.399894339963793755e-03,-1.255705505609512329e-01,1.276276707649230957e-01,8.807153999805450439e-02,-1.021213456988334656e-01,1.308549642562866211e-01,-1.707631349563598633e-01,1.442081481218338013e-01,-5.439293105155229568e-03,6.397781521081924438e-02,1.167686507105827332e-01,-7.487837970256805420e-02,-2.207148373126983643e-01,6.985329091548919678e-02,1.087069511413574219e-01,1.041879039257764816e-02,9.557159245014190674e-02,9.770411998033523560e-02,-8.188124001026153564e-02
-1.972734183073043823e-02,5.421230942010879517e-02,8.418283425271511078e-03,1.513449568301439285e-02,1.537914271466434002e-03,-4.343017190694808960e-02,-5.952469073235988617e-03,-2.294443733990192413e-02,-2.229891717433929443e-02,-2.080246433615684509e-02,1.674282737076282501e-02,-8.661978691816329956e-02,-5.350700113922357559e-03,-1.806133985519409180e-02,9.358357638120651245e-03,-2.776726335287094116e-02,6.668989360332489014e-02,-2.852405235171318054e-02,3.635677695274353027e-02,-6.576661020517349243e-02,-1.087143085896968842e-02,1.027702819555997849e-02,1.036511063575744629e-01,4.606668278574943542e-02,-5.900289118289947510e-02,-3.713284060359001160e-02,9.794290177524089813e-03,3.008502908051013947e-02,4.394570365548133850e-02,8.174028247594833374e-03,-2.586478926241397858e-02,3.093217685818672180e-02,3.668332938104867935e-03,2.491378784179687500e-02,-4.138022288680076599e-02,-3.441005572676658630e-02,-3.180460259318351746e-02,-7.101101428270339966e-02,-9.972108900547027588e-02,-1.658643037080764771e-02,4.607109352946281433e-03,-7.144361268728971481e-03,-1.085982657968997955e-03,4.535686224699020386e-02,4.135035723447799683e-02,-3.063250146806240082e-02,-3.901255130767822266e-02,1.709214597940444946e-02,1.132765877991914749e-02,-3.231368586421012878e-02,1.067933626472949982e-03,-1.457558274269104004e-01,2.431255578994750977e-02,-1.445593237876892090e-01,-1.620621234178543091e-02,7.703941781073808670e-03,-1.406509336084127426e-02,-6.696528196334838867e-02,2.251797169446945190e-02,4.340786859393119812e-02,7.639890909194946289e-02,5.104390904307365417e-03,-1.673483406193554401e-03,5.929250270128250122e-02
-8.908846229314804077e-02,1.085989177227020264e-02,8.633775636553764343e-03,3.914365172386169434e-02,-5.322552751749753952e-03,-1.852525025606155396e-01,-2.398170297965407372e-03,-2.010856196284294128e-02,-2.429674845188856125e-03,-1.260788738727569580e-02,1.376965176314115524e-02,-1.106986477971076965e-01,2.824262715876102448e-02,1.467977650463581085e-03,-7.122892420738935471e-04,3.918453119695186615e-03,-2.240112284198403358e-03,-1.314857788383960724e-02,1.038828399032354355e-02,1.418166514486074448e-02,2.966058440506458282e-03,4.529425501823425293e-02,-4.081854596734046936e-02,9.144917130470275879e-02,-7.922857999801635742e-03,-1.597709767520427704e-02,8.189343847334384918e-03,1.773195527493953705e-02,9.311813861131668091e-02,-1.127314846962690353e-02,1.370922289788722992e-02,5.835247412323951721e-02,4.283583909273147583e-02,1.811883412301540375e-02,-1.598585993051528931e-01,-2.648024819791316986e-02,-1.000216230750083923e-02,-1.045470163226127625e-01,-1.982203498482704163e-02,-1.265510078519582748e-02,-9.925536811351776123e-03,-1.033802144229412079e-02,-4.765533655881881714e-02,9.221233427524566650e-02,3.660633042454719543e-02,1.605632752180099487e-01,-4.665574990212917328e-03,1.774715445935726166e-02,-6.595962913706898689e-04,-1.157743018120527267e-02,1.691978308372199535e-03,-1.509507745504379272e-01,-4.514627624303102493e-03,-2.718306779861450195e-01,-2.640404738485813141e-02,-7.518154382705688477e-02,-1.329783815890550613e-02,-5.738460458815097809e-03,4.403717070817947388e-02,9.929012507200241089e-03,1.097840294241905212e-01,1.578470505774021149e-02,1.532402932643890381e-01,7.578574120998382568e-02
-5.015428364276885986e-02,-1.774072647094726562e-01,-5.543368868529796600e-03,4.835253581404685974e-02,2.397153154015541077e-02,-1.207380592823028564e-01,1.043207291513681412e-02,-4.154890030622482300e-02,-1.840365934185683727e-03,-1.056937500834465027e-02,-1.214789878576993942e-02,-1.211624071002006531e-01,7.048551924526691437e-04,1.619319617748260498e-02,1.474012807011604309e-02,2.102148253470659256e-03,1.624774374067783356e-02,-2.838619239628314972e-02,-4.738467559218406677e-02,-1.783574000000953674e-02,3.511708229780197144e-02,-1.222267094999551773e-02,4.727549478411674500e-02,-1.989345252513885498e-02,-1.831741537898778915e-03,-2.082647383213043213e-02,-5.026826169341802597e-03,1.428140420466661453e-02,1.423667818307876587e-01,-2.453940361738204956e-02,9.973053820431232452e-03,8.109342306852340698e-02,-2.364824339747428894e-02,-4.150629509240388870e-03,-2.086384296417236328e-01,-2.532194554805755615e-02,8.681350387632846832e-03,-5.572551861405372620e-02,-1.131866872310638428e-01,-3.661912865936756134e-03,2.354658441618084908e-03,1.498904544860124588e-02,-3.733070800080895424e-03,1.020995005965232849e-01,-4.956918582320213318e-02,1.085617840290069580e-01,-3.773396462202072144e-02,-2.402784116566181183e-02,1.224149717018008232e-03,-1.374380756169557571e-02,3.869954962283372879e-03,-4.355393722653388977e-02,1.933940872550010681e-02,-7.121540606021881104e-02,-2.727302350103855133e-02,-7.211790978908538818e-02,-1.576662907609716058e-04,1.186721958220005035e-02,-1.109485514461994171e-03,1.247188076376914978e-02,1.446542330086231232e-02,1.127580460160970688e-02,1.085753068327903748e-01,1.256221439689397812e-02
-5.060491710901260376e-02,7.527149468660354614e-02,8.383726328611373901e-02,-8.905448019504547119e-02,-8.496339619159698486e-02,4.132418334484100342e-02,5.708056851290166378e-04,-9.869157522916793823e-02,-6.054996047168970108e-03,1.090768575668334961e-01,1.003055647015571594e-01,8.023086190223693848e-02,-9.442372620105743408e-02,-1.056637242436408997e-01,-9.467519819736480713e-02,-1.590320095419883728e-02,9.272451698780059814e-02,-1.415352672338485718e-01,1.038088346831500530e-03,1.206276938319206238e-01,-1.513641327619552612e-01,-2.069764770567417145e-02,-3.848180174827575684e-02,2.449713051319122314e-01,-8.387355506420135498e-02,-1.072420552372932434e-01,1.263939142227172852e-01,1.529866755008697510e-01,1.362676769495010376e-01,1.302662044763565063e-01,9.091322869062423706e-02,-3.640443831682205200e-02,5.224445089697837830e-02,-8.371981233358383179e-02,1.212953776121139526e-01,-1.630387604236602783e-01,-9.058213979005813599e-02,-3.621039539575576782e-02,7.147908955812454224e-02,-8.726605027914047241e-02,2.446256019175052643e-02,-9.541812539100646973e-02,1.229145079851150513e-01,1.329443696886301041e-02,1.543879806995391846e-01,-3.300201846286654472e-03,-1.519430708140134811e-02,1.101976707577705383e-01,7.212227582931518555e-02,-8.600411005318164825e-03,4.644984379410743713e-02,-2.844817042350769043e-01,2.212591841816902161e-02,1.198121532797813416e-02,-2.229380607604980469e-02,9.853155910968780518e-02,-1.144293770194053650e-01,-2.199282310903072357e-02,1.607907265424728394e-01,1.068388521671295166e-01,2.055378854274749756e-01,7.937444001436233521e-02,5.203318316489458084e-03,1.281851828098297119e-01
-3.800749406218528748e-02,2.861195802688598633e-02,-4.293242469429969788e-02,6.240378692746162415e-02,1.027343496680259705e-01,5.095431953668594360e-02,-4.248504713177680969e-02,-6.008194759488105774e-02,-3.340099006891250610e-02,2.418732084333896637e-02,-4.592964053153991699e-02,1.360074616968631744e-02,-7.946899160742759705e-03,-1.334555167704820633e-02,-2.136308699846267700e-03,-6.320747733116149902e-02,1.136894337832927704e-02,-5.091775953769683838e-02,3.892928734421730042e-02,-7.958940416574478149e-02,1.240587793290615082e-02,1.036367379128932953e-02,6.806597858667373657e-02,1.661493815481662750e-02,-5.762490630149841309e-02,-5.388220399618148804e-02,-7.333802524954080582e-03,6.011981144547462463e-02,1.192036494612693787e-01,9.608431905508041382e-02,2.966297417879104614e-02,-2.582719363272190094e-02,-1.749081350862979889e-02,-1.970965648069977760e-03,7.005842030048370361e-02,-6.094171479344367981e-02,-3.484280034899711609e-02,-3.851013630628585815e-02,-1.084891427308320999e-02,-4.071739315986633301e-02,2.170731686055660248e-02,-3.679057955741882324e-02,-1.750983484089374542e-02,6.878659129142761230e-02,-2.363969804719090462e-03,-2.979767322540283203e-02,-3.519048914313316345e-02,2.587936073541641235e-02,2.975394763052463531e-02,-3.233880922198295593e-02,2.690090239048004150e-02,-2.443635314702987671e-01,4.293354228138923645e-02,2.519837208092212677e-02,1.684084720909595490e-02,-2.119676768779754639e-02,-3.679054602980613708e-02,1.940960250794887543e-02,4.802154749631881714e-02,6.018052995204925537e-02,9.113613516092300415e-02,3.151502460241317749e-02,1.184479705989360809e-02,-8.105794899165630341e-03
5.743701383471488953e-02,1.160973799414932728e-03,-4.497512802481651306e-02,-7.114892452955245972e-02,1.022305637598037720e-01,-5.040835216641426086e-02,7.086452841758728027e-02,3.383930400013923645e-02,3.923067450523376465e-02,6.919639557600021362e-02,-2.837104164063930511e-02,-1.318621188402175903e-01,1.296057738363742828e-02,2.383144758641719818e-02,-4.772352799773216248e-02,1.179518178105354309e-01,2.186159417033195496e-02,-3.402187954634428024e-03,-4.933898523449897766e-02,-3.333721309900283813e-03,-6.490729749202728271e-02,-3.690365329384803772e-02,-1.444463729858398438e-01,6.902109086513519287e-02,6.261169165372848511e-02,7.506223767995834351e-02,-7.596805691719055176e-03,5.550725385546684265e-02,-1.643759012222290039e-02,6.386203318834304810e-02,-2.049802243709564209e-01,-2.068077586591243744e-02,1.569438129663467407e-01,-5.766806751489639282e-02,-1.574044525623321533e-01,-3.457286581397056580e-02,6.045347079634666443e-02,1.365235261619091034e-02,-6.900145858526229858e-02,6.656784564256668091e-02,2.113169990479946136e-02,2.425866425037384033e-01,-1.533767487853765488e-02,-1.795970946550369263e-01,1.652064919471740723e-01,6.307652592658996582e-02,2.042823582887649536e-01,-2.326391451060771942e-02,-3.507125750184059143e-02,1.762304902076721191e-01,-8.318706601858139038e-02,2.156703174114227295e-02,-1.443225294351577759e-01,-1.778988093137741089e-01,-1.019640639424324036e-01,-1.495504826307296753e-01,-7.965230382978916168e-03,1.147620826959609985e-01,5.008355528116226196e-02,-8.809032291173934937e-02,5.140911042690277100e-02,-2.931684628129005432e-02,6.746114790439605713e-02,1.974695622920989990e-01
2.252867631614208221e-02,6.893295049667358398e-02,5.649025365710258484e-02,8.800012990832328796e-03,-5.444931797683238983e-03,7.966008037328720093e-02,5.494991783052682877e-03,-1.484612701460719109e-03,4.987066145986318588e-03,-7.669875863939523697e-03,1.111868843436241150e-01,3.511470183730125427e-02,-1.440125145018100739e-02,-2.733525075018405914e-02,7.831705734133720398e-03,1.334290206432342529e-02,-4.252184554934501648e-02,3.429787978529930115e-02,1.284782309085130692e-02,1.460158079862594604e-01,-6.048140302300453186e-02,1.846445724368095398e-02,2.390348352491855621e-02,-2.914927527308464050e-02,-1.811730675399303436e-02,4.995618760585784912e-02,-1.486035995185375214e-02,-4.660867620259523392e-03,-2.661727927625179291e-02,-8.491947315633296967e-03,5.810348317027091980e-02,-1.147123649716377258e-01,3.481478244066238403e-02,7.719199173152446747e-03,1.212348788976669312e-01,5.332811735570430756e-03,-1.703833490610122681e-01,-1.495802402496337891e-02,8.710329234600067139e-02,-4.535413160920143127e-02,1.667500846087932587e-02,-1.122782379388809204e-01,8.829697966575622559e-02,-1.112149003893136978e-02,4.766466096043586731e-02,3.552924096584320068e-02,3.575997659936547279e-03,-1.060747634619474411e-02,-2.173788659274578094e-02,3.806266561150550842e-02,5.176582932472229004e-02,4.162457585334777832e-02,-3.188408166170120239e-02,-2.579182200133800507e-02,1.130436435341835022e-01,1.362392008304595947e-01,-3.131821006536483765e-02,3.305004164576530457e-02,-6.318325549364089966e-02,-4.103237017989158630e-02,-3.895788639783859253e-02,6.348633766174316406e-02,-3.583037853240966797e-02,-5.704785697162151337e-03
-2.396895363926887512e-02,-1.569584906101226807e-01,5.740256980061531067e-03,-7.628872990608215332e-03,1.985536329448223114e-02,2.148363552987575531e-02,-1.664761453866958618e-02,-2.903017215430736542e-02,-2.235112152993679047e-02,-1.650549005717039108e-03,-1.771962493658065796e-01,1.020672917366027832e-01,-2.245933003723621368e-02,-9.885654784739017487e-03,3.741891821846365929e-03,-3.840128332376480103e-02,-8.312124758958816528e-03,-4.040019959211349487e-02,2.427629893645644188e-03,-9.437949955463409424e-02,-2.970931120216846466e-03,6.367583293467760086e-03,-3.886481747031211853e-02,-4.105163738131523132e-02,-1.317131221294403076e-01,-2.478479593992233276e-02,9.545879438519477844e-03,2.685432694852352142e-02,7.602437585592269897e-02,1.371890585869550705e-02,-7.713478803634643555e-02,-8.079136605374515057e-04,-4.118727520108222961e-02,2.333303447812795639e-03,-8.312996476888656616e-02,-3.137597069144248962e-02,-2.836397662758827209e-02,-9.362159669399261475e-02,-4.540413618087768555e-02,-2.056356333196163177e-02,2.691410714760422707e-03,2.875348925590515137e-02,-4.883599653840065002e-02,7.136000692844390869e-02,-4.157808795571327209e-02,-4.812326654791831970e-02,-4.129523038864135742e-02,1.834261044859886169e-02,2.758963033556938171e-02,-2.690542675554752350e-02,3.335114195942878723e-02,-1.061273366212844849e-02,5.353541299700737000e-02,1.371304970234632492e-02,-7.796634733676910400e-02,-5.360331013798713684e-02,-1.166272629052400589e-02,-3.058194182813167572e-03,1.585873961448669434e-02,3.357800096273422241e-02,-1.895932666957378387e-02,2.212927304208278656e-02,-1.112933829426765442e-02,-5.561807006597518921e-02
-6.157498434185981750e-02,4.721827805042266846e-02,6.945612281560897827e-02,1.547768712043762207e-02,-8.035213500261306763e-02,5.003368854522705078e-02,-7.808157056570053101e-02,-8.640035241842269897e-02,-9.297105669975280762e-02,-2.491610869765281677e-02,7.150442898273468018e-02,8.799318969249725342e-02,-5.604618042707443237e-02,-7.238905876874923706e-02,1.437614206224679947e-02,-1.271215081214904785e-01,7.561683654785156250e-02,-7.738052308559417725e-02,-8.083159918896853924e-04,5.434917658567428589e-02,9.547612629830837250e-03,-6.441626697778701782e-02,1.548893749713897705e-01,-4.855841398239135742e-02,-1.153972446918487549e-01,-1.016680896282196045e-01,2.384196035563945770e-03,6.214674189686775208e-02,7.870052754878997803e-02,-3.114290535449981689e-02,9.987854957580566406e-02,-2.265520021319389343e-02,-1.302613168954849243e-01,3.060318157076835632e-02,6.330303102731704712e-02,-4.843760281801223755e-02,-9.114277362823486328e-02,2.855118177831172943e-02,7.391218096017837524e-02,-8.300827443599700928e-02,-2.862553484737873077e-02,-1.481377333402633667e-01,4.530527815222740173e-02,1.408592909574508667e-01,-9.938075393438339233e-02,-6.619256734848022461e-02,-1.166525632143020630e-01,7.600968331098556519e-02,9.681951999664306641e-02,-1.170231327414512634e-01,1.033164411783218384e-01,-3.350904211401939392e-02,1.324443817138671875e-01,5.792714655399322510e-02,1.052316576242446899e-01,1.167665496468544006e-01,-6.198721006512641907e-02,-1.385187804698944092e-01,-3.679546341300010681e-02,9.270910173654556274e-02,-9.654315561056137085e-02,5.824213847517967224e-02,-4.326720163226127625e-02,-1.144407093524932861e-01
-4.544254392385482788e-02,-2.360680997371673584e-01,1.284557580947875977e-02,4.226183518767356873e-02,9.797287732362747192e-02,-2.159707061946392059e-02,-9.082528762519359589e-03,-3.905588760972023010e-02,-2.752396091818809509e-02,-2.630625033361866372e-07,2.222411101683974266e-03,-7.883317768573760986e-02,-2.996108680963516235e-02,-3.784248605370521545e-02,1.729930378496646881e-02,-4.294006153941154480e-02,2.542277611792087555e-02,-9.120932780206203461e-03,-3.837115690112113953e-02,-7.520890235900878906e-02,3.712506219744682312e-02,-1.602485962212085724e-02,1.604680344462394714e-02,9.566495195031166077e-03,-2.962663024663925171e-02,-5.311831086874008179e-02,-8.829746395349502563e-03,1.231259480118751526e-02,1.504600606858730316e-02,-3.551956266164779663e-02,1.244969852268695831e-02,6.193003430962562561e-02,-2.514842711389064789e-02,9.166689589619636536e-03,-1.196753084659576416e-01,-1.518137194216251373e-02,-1.352886296808719635e-02,-7.067254185676574707e-02,2.402502670884132385e-02,-2.057339251041412354e-02,-6.471772794611752033e-04,4.354794695973396301e-02,-1.352671831846237183e-01,3.529798984527587891e-02,-2.460760250687599182e-02,7.149035483598709106e-02,-4.259175062179565430e-02,1.864580437541007996e-02,1.309363357722759247e-02,-3.762187808752059937e-02,4.173755273222923279e-02,-1.212599314749240875e-02,4.985420778393745422e-02,-1.909292489290237427e-01,9.977244772017002106e-03,-7.402156293392181396e-02,-1.292199548333883286e-02,-2.424230426549911499e-02,-1.569142751395702362e-02,3.932704031467437744e-02,-3.807933628559112549e-02,3.028604574501514435e-02,1.816606819629669189e-01,-1.623132824897766113e-02
-1.323151122778654099e-02,-3.259545937180519104e-02,6.705272942781448364e-02,-4.081851616501808167e-02,-1.231558397412300110e-01,2.276891916990280151e-01,-2.997186966240406036e-02,5.158735439181327820e-02,-1.151717267930507660e-02,4.449506849050521851e-02,9.443327039480209351e-02,1.618713289499282837e-01,-1.131470724940299988e-01,-1.780969277024269104e-02,-9.849247336387634277e-02,2.592787332832813263e-02,1.530656870454549789e-02,5.739871039986610413e-02,-5.892448127269744873e-03,5.422277003526687622e-02,-2.307257615029811859e-02,-9.379810653626918793e-03,-3.290944918990135193e-02,-2.631111769005656242e-03,-2.629428403452038765e-03,9.078703820705413818e-02,3.712503612041473389e-02,-4.294263198971748352e-03,-2.656937576830387115e-03,1.432030089199542999e-02,1.161826029419898987e-01,-1.206280067563056946e-01,2.351591736078262329e-02,1.163468509912490845e-02,5.866041034460067749e-02,-4.939771257340908051e-03,-1.422002911567687988e-01,7.984595745801925659e-02,1.509188264608383179e-01,-1.187537312507629395e-01,-6.311605870723724365e-02,-1.683378368616104126e-01,1.384740136563777924e-02,-1.988042742013931274e-01,4.423202946782112122e-02,-1.536812186241149902e-01,1.137520279735326767e-02,3.750044107437133789e-02,-3.055811673402786255e-02,1.303410343825817108e-02,5.783141031861305237e-02,1.038563251495361328e-01,3.846184816211462021e-03,1.816285848617553711e-01,-5.425994470715522766e-02,4.476794973015785217e-02,-1.403997838497161865e-01,2.228920757770538330e-01,-1.523714698851108551e-02,8.393825963139533997e-03,-8.820801042020320892e-03,3.357954323291778564e-03,-1.519958674907684326e-02,-8.004949241876602173e-02
-5.398084595799446106e-02,6.587577611207962036e-02,4.966818168759346008e-02,-4.751605540513992310e-02,-1.690645068883895874e-01,9.678967297077178955e-02,1.777191064320504665e-03,-1.437810659408569336e-01,-1.992128789424896240e-02,7.268090546131134033e-02,1.696627587080001831e-01,6.296937912702560425e-02,-5.654814094305038452e-02,-6.385839730501174927e-02,-5.476132407784461975e-02,-7.521224208176136017e-03,1.405037939548492432e-01,-8.718517422676086426e-02,-8.735769428312778473e-03,9.555877000093460083e-02,-8.920077979564666748e-02,-3.345452249050140381e-02,4.996243491768836975e-02,2.191244661808013916e-01,-6.347550451755523682e-02,-9.154655039310455322e-02,8.823433518409729004e-02,1.048418432474136353e-01,7.608522474765777588e-02,9.005080163478851318e-02,1.257869899272918701e-01,-2.638896694406867027e-03,2.628627605736255646e-02,-4.520293697714805603e-02,1.127396076917648315e-01,-1.140878126025199890e-01,-1.075639799237251282e-01,-1.056058704853057861e-02,6.315090507268905640e-02,-7.474799454212188721e-02,1.764201000332832336e-02,-1.352017223834991455e-01,1.171881556510925293e-01,4.363351687788963318e-02,1.030625998973846436e-01,-1.962488330900669098e-02,-3.524345159530639648e-02,7.143716514110565186e-02,4.479055851697921753e-02,-2.409726008772850037e-02,3.705758601427078247e-02,-1.502432376146316528e-01,3.789106756448745728e-02,1.116888597607612610e-03,1.472943723201751709e-01,8.117213845252990723e-02,-7.536050677299499512e-02,-3.367638960480690002e-02,1.445117592811584473e-01,9.286549687385559082e-02,2.177442461252212524e-01,4.723387584090232849e-02,-6.122225522994995117e-02,7.711502164602279663e-02
-6.983735598623752594e-03,1.080631911754608154e-01,2.167047187685966492e-02,5.860852543264627457e-03,-1.192370727658271790e-01,3.739428147673606873e-02,-1.378950430080294609e-03,-5.294289439916610718e-02,1.402428653091192245e-02,-1.247923169285058975e-02,1.229309588670730591e-01,1.040868535637855530e-01,1.244059950113296509e-02,-5.057920143008232117e-02,1.125708315521478653e-02,6.884767673909664154e-03,8.398188278079032898e-03,-3.186834603548049927e-02,-3.547096159309148788e-03,1.353712081909179688e-01,-8.103866875171661377e-02,-8.579199202358722687e-03,3.118512034416198730e-02,3.392008598893880844e-03,-1.503753196448087692e-02,-1.617392338812351227e-02,2.639413625001907349e-02,7.679899688810110092e-03,7.561358157545328140e-03,2.577879000455141068e-03,1.407251209020614624e-01,8.581900037825107574e-03,-1.423473749309778214e-02,1.090030185878276825e-02,9.915543347597122192e-02,-4.722550138831138611e-02,-1.096649244427680969e-01,1.012946888804435730e-01,1.126857995986938477e-01,-4.378698393702507019e-02,4.765130113810300827e-03,-1.544992923736572266e-01,5.458086729049682617e-02,2.037802524864673615e-02,2.386348322033882141e-03,-1.284146606922149658e-01,-4.033176600933074951e-02,5.573554337024688721e-02,1.399359107017517090e-02,-3.613400831818580627e-02,3.681750223040580750e-02,-7.720503211021423340e-02,2.092096023261547089e-02,2.283570729196071625e-02,1.330339461565017700e-01,1.041452139616012573e-01,-8.640211075544357300e-02,-4.094148427248001099e-02,-6.891091354191303253e-03,2.617801912128925323e-02,1.780985330697149038e-04,4.266440868377685547e-02,-5.346504971385002136e-02,1.787071675062179565e-02
-9.394599124789237976e-03,-2.012035809457302094e-02,-4.857505112886428833e-02,9.121764451265335083e-02,1.038773879408836365e-01,-5.118557065725326538e-02,1.103912387043237686e-02,-9.941431693732738495e-03,-1.449890807271003723e-02,6.547684315592050552e-03,2.521214773878455162e-03,-6.830626726150512695e-02,1.024496331810951233e-01,-1.470508240163326263e-02,3.372116386890411377e-02,3.249232098460197449e-02,3.361245989799499512e-02,1.484420057386159897e-02,-2.598968520760536194e-02,-3.433393687009811401e-02,3.253140673041343689e-02,-4.261051863431930542e-02,-1.367816934362053871e-03,4.134025424718856812e-02,-4.520891979336738586e-02,-1.020011864602565765e-02,1.684051565825939178e-02,-1.124411914497613907e-02,-3.743798285722732544e-02,2.173800393939018250e-02,-7.970603555440902710e-02,3.259694203734397888e-02,-2.524338662624359131e-02,-1.286174519918859005e-03,7.663033157587051392e-02,1.003642845898866653e-02,4.962447658181190491e-02,-2.614309079945087433e-02,-1.940190605819225311e-02,3.845506161451339722e-02,4.479353502392768860e-02,1.299964636564254761e-01,-1.695588417351245880e-02,-3.248633816838264465e-02,-6.989647448062896729e-02,-3.817528951913118362e-03,7.595421746373176575e-03,-4.984683915972709656e-02,1.356729306280612946e-02,-2.798637375235557556e-02,-8.472026139497756958e-02,4.749307408928871155e-02,-2.508401870727539062e-02,2.017059596255421638e-03,3.639674978330731392e-03,-3.492883965373039246e-02,7.994606159627437592e-03,-2.365638734772801399e-03,-3.299474774394184351e-04,1.567866653203964233e-02,-1.685621216893196106e-02,-1.409910805523395538e-02,2.251102589070796967e-02,-3.113028779625892639e-02
-5.732216686010360718e-02,1.168045327067375183e-01,1.243188455700874329e-01,5.730162840336561203e-03,1.548220589756965637e-02,3.682753443717956543e-02,-2.295786514878273010e-03,-3.570120409131050110e-02,-5.225327331572771072e-03,1.504218764603137970e-02,1.645585298538208008e-01,1.200815942138433456e-02,-4.225737228989601135e-02,2.435357868671417236e-02,7.851710543036460876e-03,-4.121687728911638260e-03,-2.602487569674849510e-03,-4.864840768277645111e-03,-6.970039568841457367e-03,9.719949960708618164e-02,2.517468482255935669e-02,5.042142793536186218e-02,-4.019547998905181885e-02,6.757280230522155762e-02,-4.470656812191009521e-02,-2.130313217639923096e-02,4.901388660073280334e-03,-8.340440690517425537e-03,1.386272371746599674e-03,-1.732953824102878571e-02,-8.357525616884231567e-02,1.235223487019538879e-01,3.892156854271888733e-02,1.643368788063526154e-02,-9.431335330009460449e-02,-6.247895304113626480e-03,-1.578835397958755493e-01,-3.551366506144404411e-03,-3.729693591594696045e-02,-9.557152166962623596e-03,1.725786132737994194e-04,-2.841287851333618164e-02,-1.126186922192573547e-01,4.517238959670066833e-02,4.604551196098327637e-02,-2.793442085385322571e-02,-9.323062375187873840e-03,-1.350062191486358643e-01,6.889272015541791916e-03,-3.180301561951637268e-02,4.219711571931838989e-02,-2.990138716995716095e-02,9.086837619543075562e-02,1.877452433109283447e-02,1.133966147899627686e-01,9.623183868825435638e-03,7.652313797734677792e-04,2.283095009624958038e-02,3.169659525156021118e-02,1.280183158814907074e-02,6.618542969226837158e-02,5.772490054368972778e-02,-5.570082366466522217e-02,8.075217902660369873e-02
1.024762075394392014e-02,1.129576489329338074e-01,8.643000572919845581e-02,7.624220568686723709e-03,-1.065727248787879944e-01,7.884308695793151855e-02,-1.818846067180857062e-04,-4.300232231616973877e-02,-1.315007451921701431e-03,-2.741545205935835838e-03,7.098555564880371094e-02,1.080494672060012817e-01,1.293349638581275940e-02,1.724334433674812317e-02,7.592037785798311234e-03,-3.841080889105796814e-02,-1.616868004202842712e-02,-8.345515280961990356e-02,1.336716394871473312e-02,3.536383062601089478e-02,4.885041853412985802e-04,9.575466392561793327e-04,1.209599524736404419e-02,-6.043142452836036682e-02,-4.512319806963205338e-03,3.018749691545963287e-02,-7.353177294135093689e-03,-1.426865067332983017e-02,-7.448991760611534119e-03,6.529742386192083359e-03,2.080396190285682678e-02,8.170054294168949127e-03,1.754795759916305542e-02,1.357685658149421215e-03,8.542752265930175781e-02,2.239855565130710602e-02,-2.646753191947937012e-02,-8.093186654150485992e-03,-1.605992205440998077e-02,2.118228003382682800e-02,9.296166710555553436e-03,-3.632070869207382202e-02,5.411766469478607178e-02,9.960457682609558105e-02,2.516411989927291870e-02,-5.421864986419677734e-02,-7.255546003580093384e-02,2.287301700562238693e-03,8.550016209483146667e-03,2.207788079977035522e-02,3.587773814797401428e-02,3.023909032344818115e-02,3.313792496919631958e-02,5.107134953141212463e-02,6.592027097940444946e-02,8.173331618309020996e-02,1.720942556858062744e-02,3.238729899749159813e-03,-6.487217545509338379e-02,-1.994315162301063538e-02,-5.092142522335052490e-02,-1.432894356548786163e-02,-9.528644382953643799e-03,-2.491832710802555084e-02
1.585867139510810375e-03,-4.717956855893135071e-02,-5.466357246041297913e-02,-1.494538132101297379e-02,1.769294589757919312e-01,-3.560291975736618042e-02,1.883317157626152039e-02,3.388144448399543762e-02,-4.502383060753345490e-03,2.708879765123128891e-03,-6.282364577054977417e-02,-1.376984417438507080e-01,2.922439388930797577e-02,1.791983959265053272e-04,-1.937813067343086004e-04,7.896302640438079834e-02,2.311507053673267365e-02,5.555478855967521667e-02,-2.366640791296958923e-02,-1.208803579211235046e-01,-1.100928056985139847e-03,-2.988468855619430542e-02,-1.224664971232414246e-02,4.017882794141769409e-02,5.676290765404701233e-02,3.404695168137550354e-02,-7.641979958862066269e-03,-2.913629636168479919e-02,-3.321671858429908752e-02,2.158820256590843201e-02,-1.168084293603897095e-01,-1.518387696705758572e-03,6.563529837876558304e-03,-4.809344318346120417e-07,-4.196935519576072693e-02,1.435382664203643799e-02,6.967585533857345581e-02,1.511368993669748306e-02,-8.827804028987884521e-02,3.008369728922843933e-02,-7.890905253589153290e-03,1.233499944210052490e-01,-5.948718264698982239e-02,-1.102156937122344971e-01,1.099351607263088226e-02,1.420303285121917725e-01,6.027279421687126160e-02,-5.924478918313980103e-02,7.464703344339795876e-07,3.893350809812545776e-02,-3.317596763372421265e-02,9.176558256149291992e-02,-5.989126488566398621e-02,-1.089017167687416077e-01,-9.362705983221530914e-03,-1.094627156853675842e-01,5.304252845235168934e-04,1.069692596793174744e-01,-1.254040654748678207e-02,-3.663468733429908752e-02,4.888861440122127533e-03,-1.433164346963167191e-02,1.719773709774017334e-01,3.435635939240455627e-02
-1.499191075563430786e-01,-9.388677775859832764e-03,8.783540129661560059e-02,6.008536741137504578e-02,-9.225653111934661865e-02,2.382344007492065430e-02,-1.373353414237499237e-03,-1.358122378587722778e-01,-5.866642668843269348e-02,-3.485083580017089844e-02,1.622417867183685303e-01,1.151527836918830872e-01,4.324748180806636810e-03,-3.820972517132759094e-02,5.192843824625015259e-02,-6.926140934228897095e-02,1.175291836261749268e-01,-3.164787963032722473e-02,-5.431732907891273499e-02,1.090455949306488037e-01,3.614648804068565369e-02,-7.305677235126495361e-02,5.057883262634277344e-02,2.976038120687007904e-02,-8.862043172121047974e-02,-8.667743206024169922e-02,2.392907813191413879e-02,4.216495144646614790e-04,1.382703613489866257e-02,-4.895743355154991150e-02,2.402123361825942993e-01,4.553231596946716309e-02,-6.620864570140838623e-02,5.347846075892448425e-02,8.581294864416122437e-02,-7.985157892107963562e-03,-1.946651190519332886e-01,9.100688248872756958e-02,1.470026373863220215e-01,-1.604964584112167358e-01,-1.739675924181938171e-02,-1.500810980796813965e-01,3.084159642457962036e-02,6.602322310209274292e-02,-2.480973862111568451e-02,-5.297995731234550476e-02,-1.502210497856140137e-01,2.796156890690326691e-02,8.022198081016540527e-02,-1.002574488520622253e-01,1.009178087115287781e-01,3.839551657438278198e-02,1.576995253562927246e-01,1.344945579767227173e-01,1.724964529275894165e-01,1.829342693090438843e-01,-5.343547463417053223e-02,-4.403699934482574463e-02,-4.494998976588249207e-02,8.179666846990585327e-02,-4.351333901286125183e-02,4.763709753751754761e-02,-1.894615218043327332e-02,-2.244423516094684601e-02
-4.329656809568405151e-02,1.970912665128707886e-01,7.871510833501815796e-02,2.216083696112036705e-03,-1.059504374861717224e-01,9.746304899454116821e-02,-3.375957161188125610e-02,-3.208677843213081360e-02,-5.775692686438560486e-02,-8.976638317108154297e-03,8.705549687147140503e-02,1.604511141777038574e-01,-3.262539207935333252e-02,-6.486821919679641724e-02,4.484659992158412933e-03,-4.397759214043617249e-02,6.333393044769763947e-03,-3.406438603997230530e-02,-2.734986832365393639e-03,1.165926977992057800e-01,-6.332414690405130386e-03,3.516016993671655655e-03,4.229341074824333191e-02,-1.588135957717895508e-02,-2.848805300891399384e-02,-5.191064998507499695e-02,2.314882911741733551e-02,2.837436832487583160e-02,3.110701404511928558e-02,2.431079372763633728e-02,1.171600669622421265e-01,-7.146213948726654053e-02,3.264375729486346245e-03,1.219833921641111374e-02,6.232309341430664062e-02,-2.584138885140419006e-02,-7.443849742412567139e-02,-1.888480968773365021e-03,1.349157094955444336e-01,-4.670814424753189087e-02,2.163797430694103241e-02,-1.399885565042495728e-01,7.381992042064666748e-02,9.558296762406826019e-03,1.836293190717697144e-02,-1.410633027553558350e-01,-3.786084055900573730e-02,1.013861224055290222e-01,3.066739439964294434e-02,-2.347035519778728485e-02,1.064130514860153198e-01,3.541369223967194557e-03,5.482466891407966614e-02,1.243094578385353088e-01,4.959282279014587402e-02,1.186529025435447693e-01,-1.791114173829555511e-02,-5.902198702096939087e-02,1.060723327100276947e-02,5.586354434490203857e-02,8.975913748145103455e-03,2.637544274330139160e-02,-8.692659437656402588e-02,-1.225906331092119217e-02
-1.647176779806613922e-02,-7.348344475030899048e-02,-3.727051988244056702e-02,-2.061023190617561340e-02,-3.602625802159309387e-02,-9.782281704246997833e-03,-6.859364453703165054e-03,-7.229534536600112915e-02,-1.485707890242338181e-02,8.554341620765626431e-04,5.039041489362716675e-02,-3.961122781038284302e-02,1.017433777451515198e-02,-4.509335756301879883e-02,-4.758593067526817322e-02,-7.423622906208038330e-02,-2.768675424158573151e-02,-1.232267841696739197e-01,3.063806705176830292e-02,-5.434584245085716248e-02,1.855190843343734741e-02,3.943227604031562805e-02,2.414941601455211639e-02,1.118967961519956589e-02,-5.231912434101104736e-02,-1.421620510518550873e-02,1.316553726792335510e-02,6.868676096200942993e-02,1.424714475870132446e-01,4.150486737489700317e-02,2.531463466584682465e-02,-1.465465873479843140e-02,1.797224581241607666e-02,1.128254644572734833e-02,6.012028083205223083e-02,-4.154407978057861328e-02,-4.963109269738197327e-02,-3.970614820718765259e-02,3.121729753911495209e-02,-9.448973089456558228e-02,8.502791821956634521e-02,-1.368056237697601318e-02,-3.541267709806561470e-03,1.229508370161056519e-01,2.598483487963676453e-02,-6.014154292643070221e-03,-8.955430239439010620e-03,2.714026533067226410e-02,1.885544508695602417e-02,-5.919485166668891907e-02,-5.454223603010177612e-02,-1.106511279940605164e-01,-4.902704618871212006e-03,-1.972172409296035767e-02,2.204111218452453613e-02,8.109354414045810699e-03,-3.984583541750907898e-02,-6.061955541372299194e-02,5.518389493227005005e-02,7.540339976549148560e-02,6.582414358854293823e-02,6.869488209486007690e-02,-4.324762895703315735e-02,2.524286694824695587e-02
-4.598432779312133789e-02,1.081352084875106812e-01,9.412740170955657959e-02,-7.271394878625869751e-02,-1.018293052911758423e-01,-9.991892613470554352e-03,-5.852490290999412537e-02,-1.136914491653442383e-01,-5.426716804504394531e-02,5.903338640928268433e-02,1.108953431248664856e-01,-1.369031611829996109e-02,-9.656847268342971802e-02,-5.064021795988082886e-02,-7.574591785669326782e-02,-1.086419299244880676e-01,2.880475111305713654e-02,-1.248278766870498657e-01,6.453072279691696167e-02,1.205959394574165344e-01,-8.264899998903274536e-02,7.646843005204573274e-05,4.599326476454734802e-02,-5.158549547195434570e-02,-1.112740337848663330e-01,-6.301239132881164551e-02,-3.825090080499649048e-02,1.646690666675567627e-01,1.113357990980148315e-01,9.494879096746444702e-02,7.570968568325042725e-02,-2.942423708736896515e-02,-3.552560135722160339e-02,9.321708232164382935e-03,3.121269680559635162e-02,-1.390046328306198120e-01,-1.066071987152099609e-01,1.861871220171451569e-02,7.921022921800613403e-02,-8.269868046045303345e-02,-3.107373975217342377e-02,-1.583456876687705517e-03,8.800556510686874390e-02,6.395584344863891602e-02,-6.398837082087993622e-03,-8.393217623233795166e-02,-4.100845754146575928e-02,1.039038151502609253e-01,4.941808432340621948e-02,-4.751787334680557251e-02,7.632511109113693237e-02,-1.566268503665924072e-01,1.023740768432617188e-01,6.059531494975090027e-02,3.112731128931045532e-02,1.544750994071364403e-03,-7.502762973308563232e-02,-1.061083972454071045e-01,1.621681898832321167e-01,7.018193602561950684e-02,1.259762942790985107e-01,6.848687678575515747e-02,2.567132003605365753e-02,-5.899275466799736023e-02
4.942345246672630310e-02,3.500917181372642517e-02,6.813467480242252350e-03,6.330663710832595825e-02,-2.653241343796253204e-02,1.651638001203536987e-01,6.585237383842468262e-02,-1.997847482562065125e-02,1.182609796524047852e-02,2.145517244935035706e-02,-2.671031653881072998e-02,1.617518961429595947e-01,3.117402317002415657e-03,-6.828308105468750000e-03,8.801811933517456055e-02,7.469221949577331543e-02,1.689592376351356506e-02,7.675302680581808090e-03,-2.852170728147029877e-02,-5.686335265636444092e-02,-6.649401038885116577e-02,-1.172823160886764526e-01,-1.177942529320716858e-01,4.093533381819725037e-03,7.150517404079437256e-02,-5.017783120274543762e-02,6.653203628957271576e-03,1.316272467374801636e-02,1.150501705706119537e-02,-3.914611414074897766e-02,1.244063302874565125e-01,-1.336554735898971558e-01,-9.319819509983062744e-03,-1.099087074398994446e-01,3.214981779456138611e-02,-7.939330488443374634e-02,-3.013879247009754181e-02,1.217542365193367004e-01,6.331839412450790405e-02,-2.284273796249181032e-04,2.919434336945414543e-03,-7.194563746452331543e-02,-6.280760467052459717e-02,-1.642555296421051025e-01,-6.479727476835250854e-02,-1.357759833335876465e-01,-4.890668671578168869e-03,9.262363612651824951e-02,-3.810274973511695862e-02,-1.195272132754325867e-01,3.031363151967525482e-02,3.302868455648422241e-02,-9.771265089511871338e-02,3.890714375302195549e-03,-3.865557257086038589e-03,3.586571663618087769e-02,5.868043284863233566e-03,1.273229271173477173e-01,-5.621795076876878738e-03,1.297569647431373596e-02,-7.155309617519378662e-02,3.923254087567329407e-02,6.776558700948953629e-03,-1.474568247795104980e-01
4.286089912056922913e-02,4.233127832412719727e-02,1.280183903872966766e-03,1.082406286150217056e-02,-2.378693781793117523e-02,-2.803177572786808014e-03,1.172921527177095413e-02,-2.491335943341255188e-02,-4.418017342686653137e-03,1.712492294609546661e-02,6.438042968511581421e-02,-2.139890007674694061e-02,-1.233228109776973724e-02,1.758453436195850372e-02,-2.636501798406243324e-03,4.076493903994560242e-02,-2.584937028586864471e-02,-1.765568926930427551e-02,-1.554576447233557701e-03,6.235546991229057312e-02,-1.850945129990577698e-02,8.586043864488601685e-02,1.035688370466232300e-01,2.033618837594985962e-02,-4.096052143722772598e-03,3.951478376984596252e-02,-2.231621416285634041e-03,-3.017545863986015320e-02,-8.004602976143360138e-03,9.019087255001068115e-02,-1.733356155455112457e-02,7.581344246864318848e-02,3.782542422413825989e-02,-2.358675748109817505e-02,-7.567951921373605728e-03,7.674759719520807266e-03,-5.225002020597457886e-02,-2.474185079336166382e-02,-2.187454607337713242e-03,-2.144842781126499176e-02,2.754775993525981903e-02,-4.016681760549545288e-02,4.319802299141883850e-02,3.752677887678146362e-02,7.935014367103576660e-02,3.238285705447196960e-02,1.892995648086071014e-02,1.240978576242923737e-02,-3.062745742499828339e-02,1.950578950345516205e-02,-9.137677028775215149e-03,-1.315234154462814331e-01,-9.567990899085998535e-02,1.952678663656115532e-03,8.130364865064620972e-02,5.803086608648300171e-02,1.128133852034807205e-02,-5.997523199766874313e-03,1.234802696853876114e-02,-1.250367052853107452e-02,6.238640472292900085e-02,-6.586512085050344467e-03,5.540390498936176300e-03,2.953867614269256592e-02
-7.684328127652406693e-03,7.504410296678543091e-02,5.763377249240875244e-02,-4.732063412666320801e-02,-1.046468168497085571e-01,2.557676751166582108e-03,-1.645421423017978668e-02,-1.795231550931930542e-02,-4.511115141212940216e-03,1.619888842105865479e-02,1.147386431694030762e-01,9.253616631031036377e-02,-2.011160925030708313e-02,-9.925954043865203857e-03,-3.881853818893432617e-02,-3.225141018629074097e-02,-1.934888213872909546e-02,-3.647521138191223145e-02,1.442952174693346024e-02,9.594979137182235718e-02,-3.996495530009269714e-02,2.546769380569458008e-02,-4.662704095244407654e-02,5.179051309823989868e-02,-3.809711709618568420e-02,-8.677621372044086456e-03,2.440492622554302216e-02,5.109824985265731812e-02,3.556627407670021057e-02,9.101364016532897949e-02,1.173665151000022888e-01,-6.012900173664093018e-02,1.197385340929031372e-01,-3.339384123682975769e-02,4.488274827599525452e-02,-4.058739915490150452e-02,-9.341432899236679077e-02,4.367021843791007996e-02,5.944092944264411926e-02,-4.040127620100975037e-02,3.350453078746795654e-02,-1.198688000440597534e-01,7.518333941698074341e-02,3.707526018843054771e-03,1.517114341259002686e-01,-1.936451904475688934e-02,5.203271750360727310e-03,3.965842351317405701e-02,6.092565017752349377e-04,2.414982207119464874e-02,4.879084229469299316e-02,-4.762252047657966614e-02,2.253011101856827736e-03,5.762646347284317017e-02,2.365975454449653625e-02,1.103826612234115601e-01,-1.659750565886497498e-02,-1.813323423266410828e-02,7.878509908914566040e-02,1.045999303460121155e-02,1.039507687091827393e-01,1.926185376942157745e-02,-1.254037767648696899e-01,7.052379101514816284e-02
3.006655024364590645e-03,-5.074078962206840515e-02,-3.201887384057044983e-02,1.852263696491718292e-02,1.025026291608810425e-01,-6.806825101375579834e-02,1.950772246345877647e-03,2.017972245812416077e-02,1.811395341064780951e-04,-1.662552193693045410e-07,-5.999238416552543640e-02,-9.489067643880844116e-02,1.157620456069707870e-02,1.893691834993660450e-03,1.296976301819086075e-02,2.376686222851276398e-02,2.685316139832139015e-03,2.630498260259628296e-02,-1.313769351691007614e-02,-1.006148084998130798e-01,1.152632478624582291e-02,-1.094573363661766052e-02,-1.620093360543251038e-02,-1.687943236902356148e-03,3.265317529439926147e-02,7.538063917309045792e-03,6.604640475416090339e-06,-1.787708327174186707e-02,-2.697489596903324127e-02,-4.785323888063430786e-02,-3.177973255515098572e-02,6.748766638338565826e-03,-1.858891337178647518e-03,-2.226879769295919687e-05,-1.108040660619735718e-01,1.389992889016866684e-02,1.269388645887374878e-01,-1.464871317148208618e-02,-9.390489012002944946e-02,2.738581039011478424e-02,-3.393907332792878151e-03,1.259043365716934204e-01,-6.245122104883193970e-02,-1.674490049481391907e-02,1.434900704771280289e-02,1.084719523787498474e-01,1.260445103980600834e-03,-2.163324691355228424e-02,-1.627125166123732924e-04,-1.785686006769537926e-03,-1.745000854134559631e-02,1.916171610355377197e-02,-1.227837894111871719e-02,-1.204670816659927368e-01,-4.226762056350708008e-02,-1.051302552223205566e-01,3.758988808840513229e-03,3.716449812054634094e-02,-3.534333407878875732e-02,-1.308598555624485016e-02,-3.912790864706039429e-02,-9.021789766848087311e-03,9.395031630992889404e-02,2.243799902498722076e-02
-1.024501398205757141e-02,4.997327923774719238e-04,6.275529507547616959e-03,1.973668485879898071e-02,-4.592811688780784607e-02,-2.520436979830265045e-02,2.227957011200487614e-04,-1.471734285587444901e-04,-2.505999431014060974e-02,-9.331195615231990814e-04,1.115445718169212341e-01,1.453457679599523544e-02,-1.493781991302967072e-02,-9.761408902704715729e-03,6.101534236222505569e-03,-2.473274432122707367e-02,7.012273184955120087e-03,-7.813368923962116241e-03,7.247322704643011093e-03,7.698072493076324463e-02,-3.076844615861773491e-03,-4.423863254487514496e-03,8.113609999418258667e-02,-4.703563638031482697e-03,-3.169676288962364197e-02,-7.624702528119087219e-03,-2.014476107433438301e-03,-2.380358986556529999e-02,6.380137801170349121e-02,2.386857056990265846e-03,9.180441498756408691e-02,6.653276737779378891e-03,-1.059705112129449844e-02,5.316280759871006012e-03,-4.885014519095420837e-02,2.401174977421760559e-02,-8.161608874797821045e-02,-4.334392026066780090e-02,5.579312145709991455e-02,-5.652714148163795471e-02,-1.835844945162534714e-03,-1.012523025274276733e-01,7.883088663220405579e-03,7.311038672924041748e-02,-1.974514499306678772e-02,5.825228244066238403e-02,-1.560454163700342178e-02,8.005261421203613281e-03,8.297784253954887390e-03,-1.760468631982803345e-02,7.816431112587451935e-03,-3.435757476836442947e-03,-7.021981757134199142e-03,-2.951505780220031738e-02,1.179240643978118896e-01,1.096601486206054688e-01,-5.772055126726627350e-03,-1.539721935987472534e-01,-2.410808205604553223e-02,6.424893159419298172e-03,-1.800986565649509430e-02,9.454563260078430176e-03,3.904016688466072083e-02,-1.023297104984521866e-02
8.886317373253405094e-04,-9.499821066856384277e-02,-1.009204611182212830e-02,6.380931474268436432e-03,2.040182799100875854e-02,-7.089765369892120361e-02,-2.211544848978519440e-02,-2.817654982209205627e-03,1.233538729138672352e-03,1.003604033030569553e-03,3.791395807638764381e-03,-1.127397716045379639e-01,3.693332662805914879e-03,-3.629552433267235756e-03,8.292735554277896881e-03,-1.397660374641418457e-02,2.078451961278915405e-02,-2.011203469010069966e-04,6.329524330794811249e-03,3.089459147304296494e-03,3.288794541731476784e-03,-2.405097894370555878e-02,2.714792452752590179e-02,-1.989659480750560760e-02,3.349819406867027283e-02,-9.684538235887885094e-04,4.074189346283674240e-03,1.502879988402128220e-02,1.023639179766178131e-02,2.301348559558391571e-02,-2.137944661080837250e-02,-3.515945747494697571e-02,-1.079257111996412277e-02,6.329860538244247437e-03,-4.074858874082565308e-02,-1.138388644903898239e-02,-1.291738444706425071e-04,-5.299853160977363586e-02,-1.517894491553306580e-02,3.429234772920608521e-02,1.065302640199661255e-02,-4.950237344019114971e-04,-9.852176159620285034e-02,2.060363441705703735e-02,-1.812635734677314758e-02,1.640463806688785553e-02,-2.281501330435276031e-02,-1.235798373818397522e-02,-1.620853436179459095e-03,-2.005593664944171906e-02,-3.483890742063522339e-02,-2.062245504930615425e-03,1.304792147129774094e-02,-1.999398507177829742e-02,1.294457260519266129e-02,2.223389921709895134e-03,1.364485360682010651e-03,-1.422478258609771729e-02,-7.108883932232856750e-03,1.359996944665908813e-02,-1.641279458999633789e-02,-1.290743984282016754e-02,1.104850098490715027e-01,-2.956645376980304718e-02
-7.926587946712970734e-03,2.988480404019355774e-02,3.006952349096536636e-03,-4.808350652456283569e-02,4.995664581656455994e-02,1.051199287176132202e-01,-1.110369805246591568e-02,-5.140829458832740784e-02,-8.948285249061882496e-04,3.140035644173622131e-02,5.677827820181846619e-02,8.342538028955459595e-02,-1.487658172845840454e-02,-2.934635989367961884e-02,-4.476038739085197449e-02,-3.548273444175720215e-02,-4.271269217133522034e-02,-5.628503859043121338e-02,9.077750891447067261e-02,-5.601817741990089417e-02,-8.327444642782211304e-02,4.309231787919998169e-02,-9.026157110929489136e-02,-1.673718355596065521e-02,-2.812306024134159088e-02,-1.276703551411628723e-02,4.702571406960487366e-02,8.498045057058334351e-02,2.295659296214580536e-02,7.721296697854995728e-02,2.147820778191089630e-02,-5.504332855343818665e-02,5.494407936930656433e-02,-3.115579113364219666e-02,9.512654691934585571e-02,-7.456164062023162842e-02,2.488943748176097870e-03,-1.359204296022653580e-02,1.023182794451713562e-01,-3.751600161194801331e-02,-3.681242233142256737e-03,2.784178033471107483e-02,1.622854918241500854e-02,8.305121213197708130e-03,3.303804621100425720e-02,-9.401132911443710327e-02,4.856410995125770569e-02,5.608511716127395630e-02,1.332052517682313919e-02,3.485365211963653564e-02,7.164799608290195465e-03,-1.286263912916183472e-01,-2.331646345555782318e-02,7.355657219886779785e-02,-5.912720412015914917e-02,5.523070320487022400e-02,-6.061369925737380981e-02,-3.924605622887611389e-02,7.643473148345947266e-02,1.169429533183574677e-02,5.447282642126083374e-02,4.523359984159469604e-02,-6.908258795738220215e-02,2.487401291728019714e-02
1.667615212500095367e-02,-6.405476480722427368e-02,-7.303602062165737152e-03,2.190372906625270844e-03,7.110449671745300293e-02,-8.990754932165145874e-02,3.946690820157527924e-03,-1.568998210132122040e-02,1.179102342575788498e-02,2.243475755676627159e-03,-8.863902091979980469e-02,-4.571360722184181213e-02,4.300444386899471283e-03,1.688970625400543213e-02,9.549310430884361267e-03,1.290145213715732098e-03,-4.133205860853195190e-02,-6.700806319713592529e-03,4.570106789469718933e-02,-7.139797508716583252e-02,-6.289555691182613373e-03,5.214243382215499878e-02,-3.833129256963729858e-02,3.092410229146480560e-02,2.414323855191469193e-03,1.528706401586532593e-02,-2.063447423279285431e-02,1.462784968316555023e-02,-1.427954901009798050e-02,4.022292792797088623e-02,6.466975901275873184e-03,9.010188281536102295e-03,4.988387227058410645e-02,1.089580357074737549e-03,-7.304459810256958008e-02,-1.772679947316646576e-02,2.444280311465263367e-02,-5.339632183313369751e-02,-6.780035793781280518e-02,3.533840179443359375e-03,-6.726746913045644760e-03,5.939874425530433655e-02,-6.527605652809143066e-02,-2.173780277371406555e-02,5.861888825893402100e-02,1.103029586374759674e-02,1.289529167115688324e-02,-7.506699301302433014e-03,-2.175314351916313171e-02,2.291475422680377960e-02,-1.804824918508529663e-02,-1.341074109077453613e-01,-1.032230816781520844e-02,-6.579321622848510742e-02,-5.830653384327888489e-02,-1.189409568905830383e-01,4.022376611828804016e-03,1.252806838601827621e-02,5.210966244339942932e-02,-8.489474654197692871e-03,1.530628055334091187e-01,-7.946213707327842712e-03,3.018177114427089691e-02,5.338432267308235168e-02
8.992400765419006348e-02,5.888437107205390930e-02,-2.708872221410274506e-02,1.366710066795349121e-01,-2.688345313072204590e-02,3.301165997982025146e-02,3.166647255420684814e-02,9.023012220859527588e-02,5.703168362379074097e-02,-3.480931743979454041e-02,7.768020033836364746e-02,1.360012143850326538e-01,5.973749607801437378e-02,-6.205264106392860413e-02,1.232684310525655746e-02,4.875229299068450928e-02,4.209251701831817627e-02,7.947619259357452393e-02,-5.574575066566467285e-02,-5.044307559728622437e-02,-4.218537732958793640e-02,-1.319481879472732544e-01,-8.078586310148239136e-02,-3.500109165906906128e-02,7.131654769182205200e-02,-2.430580556392669678e-02,-7.971672341227531433e-03,-3.955731913447380066e-02,-3.149933740496635437e-02,-6.080514565110206604e-02,1.152299717068672180e-01,1.330022700130939484e-02,7.648304104804992676e-03,-3.543636947870254517e-02,1.375274211168289185e-01,4.140989482402801514e-02,5.818627774715423584e-02,1.282475292682647705e-01,-4.987616091966629028e-03,1.162567734718322754e-02,-5.399211309850215912e-03,-9.648276120424270630e-02,3.558893501758575439e-02,-9.287182241678237915e-02,-3.230408206582069397e-02,-6.743180006742477417e-02,7.551718503236770630e-03,4.172136262059211731e-02,-1.115814521908760071e-01,1.637297496199607849e-02,8.387844078242778778e-03,1.670496314764022827e-01,-1.373253110796213150e-02,9.385754913091659546e-02,-8.967082947492599487e-02,9.659439325332641602e-02,2.841834910213947296e-02,1.144296377897262573e-01,-2.044292539358139038e-02,-1.796913146972656250e-02,-5.578906834125518799e-02,-2.454672195017337799e-02,-1.621927367523312569e-03,-8.343154191970825195e-02
2.413077279925346375e-02,4.234544394421391189e-05,2.464514039456844330e-02,3.531807661056518555e-02,-2.172201499342918396e-02,1.532148569822311401e-01,1.787495613098144531e-02,-3.841022029519081116e-02,1.244147215038537979e-02,-1.112313475459814072e-03,6.049253791570663452e-02,-9.273587726056575775e-03,2.551258727908134460e-02,-6.784014403820037842e-02,2.882105857133865356e-02,2.270748838782310486e-03,2.464613877236843109e-02,-1.458420790731906891e-02,-4.018890205770730972e-03,7.498895376920700073e-02,1.212742086499929428e-02,-7.448168098926544189e-02,3.971901908516883850e-02,2.567758969962596893e-02,-7.877278327941894531e-02,1.552507560700178146e-02,-8.151317946612834930e-03,-2.915074117481708527e-02,-3.324303030967712402e-02,-3.564440459012985229e-02,5.816218256950378418e-02,-5.194747820496559143e-02,-4.541420191526412964e-02,-2.562736347317695618e-02,1.213721632957458496e-01,2.631171047687530518e-02,-9.837151318788528442e-02,9.093265980482101440e-02,5.334458500146865845e-02,-6.904728710651397705e-02,-7.113819476217031479e-03,-1.145511344075202942e-01,2.569917403161525726e-02,-8.892032317817211151e-03,-6.500191241502761841e-02,-6.831528991460800171e-02,-4.015875607728958130e-02,3.090655244886875153e-02,-5.290568806231021881e-03,-3.836201131343841553e-02,4.280572757124900818e-02,8.837184309959411621e-02,-6.026150193065404892e-03,-1.587748341262340546e-02,1.277241557836532593e-01,9.052871167659759521e-02,-2.447851374745368958e-02,1.139559596776962280e-02,-6.243563815951347351e-02,-1.123171392828226089e-02,-6.463290750980377197e-02,4.341349378228187561e-02,-1.291372328996658325e-01,-4.732885584235191345e-02
-5.837674811482429504e-02,1.369495689868927002e-01,1.445510536432266235e-01,-3.080373257398605347e-02,-1.747288703918457031e-01,1.377775669097900391e-01,-1.501880958676338196e-02,-1.452224403619766235e-01,-1.094376817345619202e-01,3.216075524687767029e-02,1.941064745187759399e-01,1.066354066133499146e-01,-1.223817318677902222e-01,-8.846296370029449463e-02,-2.459205500781536102e-02,-9.374865144491195679e-02,8.266332745552062988e-02,-1.436963379383087158e-01,-1.169233098626136780e-01,1.732362657785415649e-01,-4.582623764872550964e-02,-5.497284978628158569e-02,2.648820541799068451e-02,4.967324808239936829e-02,-1.892572939395904541e-01,-1.167433559894561768e-01,4.329552501440048218e-02,1.410899460315704346e-01,6.958217173814773560e-02,-7.847489789128303528e-03,2.053985893726348877e-01,3.984282910823822021e-02,-3.120669350028038025e-02,4.134855419397354126e-02,1.464173346757888794e-01,-1.234922036528587341e-01,-2.016790658235549927e-01,1.265248209238052368e-01,8.692663162946701050e-02,-1.787085086107254028e-01,-8.361236006021499634e-02,-1.281847953796386719e-01,1.183154433965682983e-01,2.772540412843227386e-02,1.859537675045430660e-03,-1.309093981981277466e-01,-1.762302517890930176e-01,1.114105582237243652e-01,9.804279357194900513e-02,-1.004024073481559753e-01,1.533003896474838257e-01,1.151144597679376602e-02,2.294513881206512451e-01,1.051265373826026917e-01,1.584606170654296875e-01,7.313174754381179810e-02,-1.547363102436065674e-01,-2.668947353959083557e-02,-9.912621229887008667e-03,1.077929660677909851e-01,-2.119690366089344025e-02,1.296412944793701172e-01,-1.063155382871627808e-01,-1.142712961882352829e-02
4.208982922136783600e-03,-3.357149660587310791e-02,-7.677549961954355240e-03,1.001693867146968842e-02,3.031162172555923462e-02,-3.548777475953102112e-02,8.725699968636035919e-03,6.678821984678506851e-03,9.124059230089187622e-03,-1.884138095192611217e-03,-3.090140596032142639e-02,-6.437270343303680420e-02,3.992246463894844055e-03,4.558579064905643463e-03,6.064373999834060669e-03,2.709924988448619843e-02,-2.957338234409689903e-03,5.692102480679750443e-03,-1.007435563951730728e-02,-5.675334949046373367e-03,1.539622549898922443e-03,1.551037840545177460e-02,-3.669219464063644409e-02,5.186394602060317993e-02,1.363917719572782516e-02,4.862514324486255646e-03,3.036155365407466888e-03,3.708552394527941942e-04,-7.638461887836456299e-03,-2.147231437265872955e-02,-4.786726494785398245e-04,3.756502270698547363e-02,2.901237457990646362e-02,5.530866328626871109e-04,-1.137895584106445312e-01,-6.053699180483818054e-03,7.444103248417377472e-03,-4.743231832981109619e-02,-1.485375128686428070e-02,1.703196787275373936e-03,-5.855586496181786060e-04,1.185094285756349564e-02,-7.156337797641754150e-02,-2.631428278982639313e-02,3.535047918558120728e-02,5.108157172799110413e-02,5.013005342334508896e-03,-3.299976699054241180e-03,-7.534157019108533859e-03,1.058520399965345860e-03,-1.340806204825639725e-02,-3.888968005776405334e-02,-2.456214651465415955e-02,-6.231553852558135986e-02,-2.400847151875495911e-02,-7.093986868858337402e-02,4.570415709167718887e-03,2.771835960447788239e-02,-1.200063619762659073e-02,-5.647996906191110611e-03,4.904501512646675110e-02,-3.782695857807993889e-03,6.091455742716789246e-02,6.262565404176712036e-02
-1.395887788385152817e-02,-1.055964007973670959e-01,-1.522125490009784698e-02,-3.719192743301391602e-02,-5.698337778449058533e-02,7.868012413382530212e-03,-1.092213913798332214e-01,-5.833746120333671570e-02,-2.038788422942161560e-02,1.657059043645858765e-02,-3.605997934937477112e-02,-3.358270227909088135e-02,-5.335722863674163818e-02,-3.529183566570281982e-02,-5.237196385860443115e-02,-9.717559814453125000e-02,-8.728789538145065308e-02,-7.245159149169921875e-02,1.991958022117614746e-01,-2.742758020758628845e-02,4.136015847325325012e-02,1.122045665979385376e-01,9.298283606767654419e-02,-1.410218328237533569e-01,-6.788051128387451172e-02,-1.235995721071958542e-02,8.072154014371335506e-05,6.923712790012359619e-02,2.223266810178756714e-01,7.222478091716766357e-02,4.963199049234390259e-02,-1.660223305225372314e-02,-7.421603798866271973e-02,-1.409178320318460464e-02,-7.964575290679931641e-02,-4.582820460200309753e-02,4.204120952636003494e-03,-6.245656684041023254e-02,5.247124284505844116e-02,-6.198232620954513550e-02,1.087405532598495483e-01,4.270656779408454895e-02,5.133273079991340637e-02,1.631518453359603882e-01,2.300314605236053467e-03,-9.368498623371124268e-02,-6.589950621128082275e-02,9.364894777536392212e-02,5.702003091573715210e-02,-6.391049176454544067e-02,6.589382141828536987e-02,-6.173335760831832886e-02,5.793292820453643799e-02,2.526152320206165314e-02,1.117378175258636475e-01,7.915259897708892822e-02,-3.719539567828178406e-02,-9.401632845401763916e-02,4.537473898380994797e-03,3.348616138100624084e-02,-4.382319375872612000e-02,4.916715621948242188e-02,4.717954248189926147e-02,-1.160866990685462952e-01
-2.028485760092735291e-02,-5.323506146669387817e-02,2.849399112164974213e-02,-2.737899869680404663e-02,-4.006591066718101501e-02,-3.712568059563636780e-02,1.807682774960994720e-02,-4.493368417024612427e-02,4.299302585422992706e-03,1.786773651838302612e-02,3.973180800676345825e-02,-4.287413135170936584e-02,-2.602864615619182587e-02,-4.339323192834854126e-02,-2.509163133800029755e-02,3.252536989748477936e-03,4.239458218216896057e-02,-3.389160707592964172e-02,-4.968478530645370483e-02,3.822733461856842041e-02,-3.414129465818405151e-02,-1.971305534243583679e-02,-1.496295630931854248e-02,6.749189645051956177e-02,-2.380731515586376190e-02,-2.894017472863197327e-02,2.069036103785037994e-02,3.005305118858814240e-02,1.092137955129146576e-02,-2.522527240216732025e-02,5.895504727959632874e-02,2.607866935431957245e-02,7.986210286617279053e-03,1.901669427752494812e-03,-9.838939458131790161e-02,-3.256804868578910828e-02,-3.570084646344184875e-02,2.920752577483654022e-02,3.768129646778106689e-02,-4.502747952938079834e-02,-5.855499207973480225e-02,-3.243049234151840210e-02,-2.023312263190746307e-02,-3.260255232453346252e-02,-2.081797644495964050e-02,-2.993919327855110168e-02,-2.045245608314871788e-03,3.799893334507942200e-02,1.208185311406850815e-02,-6.148625165224075317e-03,2.580383606255054474e-02,-3.642387315630912781e-02,1.393538620322942734e-02,-7.622437179088592529e-02,1.638639718294143677e-02,3.776511177420616150e-02,-4.205936193466186523e-02,-9.920011274516582489e-03,6.172123178839683533e-02,2.705553360283374786e-02,6.517875939607620239e-02,3.852450847625732422e-02,1.011539995670318604e-02,5.524093657732009888e-02
-4.538811743259429932e-02,6.608939915895462036e-02,5.005488172173500061e-03,2.259339019656181335e-02,-5.459056235849857330e-03,-4.415305738802999258e-04,-2.679609227925539017e-03,-2.760258503258228302e-02,-1.799452304840087891e-02,-1.134890876710414886e-02,2.394556067883968353e-02,1.489842124283313751e-02,7.467611227184534073e-03,1.324435602873563766e-02,1.066549774259328842e-02,-7.711364328861236572e-02,3.621563315391540527e-02,-8.819087594747543335e-02,-2.808321267366409302e-02,3.114911355078220367e-02,6.794065237045288086e-03,-2.739116549491882324e-02,1.224283874034881592e-02,8.341722935438156128e-02,-3.648625686764717102e-02,-2.768550999462604523e-02,-3.465194022282958031e-04,2.744316868484020233e-02,4.218059778213500977e-02,-4.046058282256126404e-02,1.269491948187351227e-02,1.092019304633140564e-01,2.440040186047554016e-02,3.495442867279052734e-02,4.498937167227268219e-03,-3.514924272894859314e-02,-9.138502180576324463e-03,-1.375638842582702637e-01,4.584159236401319504e-03,1.542640011757612228e-02,-2.896867319941520691e-02,-1.078374776989221573e-02,-2.785421209409832954e-03,6.013749516569077969e-04,1.982113160192966461e-02,5.865256115794181824e-02,-1.967527344822883606e-02,1.608437485992908478e-02,1.190605852752923965e-02,-3.447088226675987244e-02,8.911373093724250793e-03,-7.243045419454574585e-02,1.354143582284450531e-02,-6.481102854013442993e-02,-1.293132267892360687e-02,1.780513557605445385e-03,-1.692471466958522797e-02,3.737175138667225838e-03,4.470984265208244324e-02,1.025447342544794083e-02,8.837610483169555664e-02,2.020076289772987366e-02,8.241389691829681396e-02,8.590275049209594727e-02
-3.072092309594154358e-02,1.357365865260362625e-02,5.221070721745491028e-02,-1.095253508538007736e-02,-4.334334656596183777e-02,-5.332190915942192078e-02,-1.708211936056613922e-02,-7.390161603689193726e-02,-5.754274502396583557e-02,1.469930261373519897e-02,5.396464094519615173e-02,2.146680280566215515e-02,-5.684406310319900513e-02,-4.902765899896621704e-02,-1.653304882347583771e-02,-6.932420283555984497e-02,7.112441956996917725e-02,-9.114742279052734375e-02,1.123818568885326385e-02,5.519633740186691284e-02,-3.594893589615821838e-02,-1.482015009969472885e-02,6.978213042020797729e-02,-2.833786979317665100e-02,-6.799347698688507080e-02,-7.197804749011993408e-02,-1.550616789609193802e-02,8.556698262691497803e-02,7.242202013731002808e-02,1.053349953144788742e-02,8.090043067932128906e-02,-4.850174859166145325e-02,-4.494770988821983337e-02,2.317417645826935768e-03,-3.597114607691764832e-02,-7.421137392520904541e-02,-5.548245087265968323e-02,2.109778486192226410e-02,5.538434162735939026e-02,-7.563417404890060425e-02,-2.441711165010929108e-02,-3.385321795940399170e-02,5.639693140983581543e-02,4.789916425943374634e-02,-4.794544354081153870e-02,-5.972502753138542175e-02,-4.488071054220199585e-02,7.404268532991409302e-02,6.779242306947708130e-02,-5.170511081814765930e-02,9.240224957466125488e-02,-6.630700081586837769e-02,8.957974612712860107e-02,-9.787806868553161621e-02,7.632049918174743652e-02,3.301450610160827637e-02,-5.208646878600120544e-02,-9.036239981651306152e-02,4.205205664038658142e-02,8.497945219278335571e-02,2.113585919141769409e-02,3.648240864276885986e-02,-1.536220312118530273e-02,-5.606199800968170166e-02
