-2.189345210790634155e-01,-1.835241913795471191e-01,-3.212563395500183105e-01,-2.637607455253601074e-01,-1.604282557964324951e-01,-2.975886464118957520e-01,-1.987652033567428589e-01,-1.553873419761657715e-01,-2.985235750675201416e-01,-3.515554964542388916e-01,-3.072933554649353027e-01,-3.788424432277679443e-01,-2.261331379413604736e-01,-1.515770852565765381e-01,-2.169497311115264893e-01,-6.132172346115112305e-01
-3.094602841883897781e-03,6.955946981906890869e-02,1.127374451607465744e-02,-7.167035341262817383e-02,8.664910495281219482e-02,-1.530548324808478355e-03,6.577514111995697021e-02,-4.185613244771957397e-02,-8.334204554557800293e-03,1.196327526122331619e-02,-1.381218880414962769e-01,2.833734732121229172e-03,6.036836653947830200e-03,-9.028616547584533691e-02,-8.572352677583694458e-02,4.135086834430694580e-01
-8.866664022207260132e-02,-2.559745311737060547e-02,3.835497051477432251e-02,1.112137828022241592e-02,1.165010128170251846e-02,1.214433237910270691e-01,-1.127876639366149902e-01,1.014181077480316162e-01,8.399400860071182251e-02,-9.016637504100799561e-02,-9.539445489645004272e-02,7.139120995998382568e-02,8.880867063999176025e-02,-9.019437432289123535e-02,-5.643079802393913269e-02,1.026536226272583008e-01
-7.609669119119644165e-02,5.086505040526390076e-02,-9.371676295995712280e-02,-3.832931071519851685e-02,-6.485808640718460083e-02,5.984398536384105682e-03,-1.111842915415763855e-01,1.177283003926277161e-01,-6.611995398998260498e-02,-3.290712833404541016e-02,1.018565669655799866e-01,-1.120382174849510193e-02,-1.477266997098922729e-01,1.403879001736640930e-02,3.218261897563934326e-02,-4.413142800331115723e-01
-8.465246111154556274e-02,1.311353221535682678e-02,-9.426822513341903687e-02,2.211455069482326508e-02,-6.638880074024200439e-02,3.941478207707405090e-02,-4.440755024552345276e-02,1.054172739386558533e-01,7.301703095436096191e-02,1.809316128492355347e-02,4.803406447172164917e-02,-7.767053693532943726e-02,1.286048591136932373e-01,1.236203908920288086e-01,1.431525796651840210e-01,1.854260563850402832e-01
1.732786297798156738e-01,-1.900684460997581482e-02,1.337603032588958740e-01,8.765783160924911499e-02,-7.009175606071949005e-03,-3.382108360528945923e-02,9.127009660005569458e-02,1.055613458156585693e-01,1.512498557567596436e-01,1.988781690597534180e-01,1.377881765365600586e-01,7.102767378091812134e-02,9.715922921895980835e-02,9.258709102869033813e-02,1.617345064878463745e-01,2.986511290073394775e-01
3.387964097782969475e-03,-1.117647290229797363e-01,-1.171101853251457214e-01,-7.329643517732620239e-02,-1.309406906366348267e-01,-1.749101467430591583e-02,-1.635000109672546387e-01,-2.656789682805538177e-02,-4.260839149355888367e-02,-2.936064498499035835e-03,3.816764801740646362e-02,-8.070888370275497437e-02,-4.917887225747108459e-02,-1.205118671059608459e-01,-4.209906607866287231e-02,3.692822456359863281e-01
2.465028688311576843e-02,-1.771177500486373901e-01,-1.112776473164558411e-01,-1.221835091710090637e-01,-7.683558017015457153e-02,-6.032314151525497437e-03,-7.204205542802810669e-02,-9.663786739110946655e-02,7.653298228979110718e-02,-8.947057276964187622e-02,-4.357882589101791382e-02,-6.818801164627075195e-02,5.584167316555976868e-02,1.388769298791885376e-01,5.615918338298797607e-02,7.142826914787292480e-01
4.571758955717086792e-02,-8.438403904438018799e-02,-1.263090316206216812e-02,-4.521727096289396286e-03,-8.851692825555801392e-02,-5.017268285155296326e-02,-1.297071427106857300e-01,-1.439707875251770020e-01,-1.402735263109207153e-01,-1.491322182118892670e-02,-1.002734899520874023e-01,7.893262803554534912e-02,7.870783656835556030e-02,-4.771643131971359253e-02,2.419835701584815979e-02,5.951718688011169434e-01
4.693050682544708252e-02,2.866395562887191772e-02,4.212240502238273621e-02,-7.674033939838409424e-02,-5.589288473129272461e-02,1.023395955562591553e-01,-2.165981382131576538e-02,-1.330758780241012573e-01,-1.056216880679130554e-01,1.644409820437431335e-02,-7.492865435779094696e-03,-4.366406798362731934e-02,-1.407798528671264648e-01,-1.405811756849288940e-01,4.467448219656944275e-02,-5.179113149642944336e-01
-9.373000264167785645e-02,5.568277090787887573e-02,7.979892939329147339e-02,-6.156202778220176697e-02,2.719920501112937927e-02,1.244353875517845154e-01,-5.053257569670677185e-03,7.232362776994705200e-02,-2.781841717660427094e-02,5.071672424674034119e-02,1.087976619601249695e-01,2.177665010094642639e-02,5.481071770191192627e-03,1.673293262720108032e-01,1.663367599248886108e-01,4.214657843112945557e-01
-3.260078653693199158e-02,-1.093359887599945068e-01,-4.930822178721427917e-02,-2.596580423414707184e-02,8.884683251380920410e-02,8.636409789323806763e-02,-5.407880246639251709e-02,1.580754071474075317e-01,1.043816432356834412e-01,1.635861955583095551e-02,1.153692156076431274e-01,1.713854521512985229e-01,1.375464648008346558e-01,1.567337960004806519e-01,1.294441968202590942e-01,3.000866770744323730e-01
8.425413817167282104e-02,1.916246488690376282e-02,5.069373548030853271e-02,4.877153784036636353e-02,-9.722740948200225830e-02,7.467864453792572021e-02,-3.201864659786224365e-02,1.134292781352996826e-01,3.261175751686096191e-02,1.249981746077537537e-01,4.287264123558998108e-02,1.163394823670387268e-01,2.027392946183681488e-02,2.345878630876541138e-02,3.716665506362915039e-02,4.645563960075378418e-01
1.102435290813446045e-01,3.907727077603340149e-02,3.025987930595874786e-02,-5.797693133354187012e-02,3.066483512520790100e-02,1.837228424847126007e-02,6.307735294103622437e-02,3.699437528848648071e-02,6.549463421106338501e-02,9.985866397619247437e-02,-9.798730909824371338e-02,9.901663288474082947e-03,-3.680911287665367126e-02,-4.551107808947563171e-02,-5.564620345830917358e-02,-1.493746489286422729e-01
4.150145500898361206e-02,9.329427033662796021e-02,1.192784607410430908e-01,-5.435821041464805603e-02,-1.315858867019414902e-02,-6.711069494485855103e-02,5.656994879245758057e-02,-7.206220924854278564e-02,1.024539321660995483e-01,7.531868666410446167e-02,2.831249870359897614e-02,-6.634361296892166138e-02,-4.902461543679237366e-02,1.324891764670610428e-02,9.132895618677139282e-02,-3.470614254474639893e-01
1.166403815150260925e-01,-6.958726793527603149e-02,-4.423609375953674316e-02,1.732167601585388184e-01,8.890800923109054565e-02,-5.581013485789299011e-02,1.348950713872909546e-01,2.744702436029911041e-02,9.378389269113540649e-02,1.284887343645095825e-01,1.140509694814682007e-01,-2.249423786997795105e-02,1.452185362577438354e-01,3.950748965144157410e-02,-4.891106486320495605e-02,4.572636783123016357e-01
1.135619357228279114e-01,2.842629142105579376e-02,9.393927454948425293e-02,-3.332088142633438110e-02,3.293642029166221619e-02,1.179130673408508301e-01,1.188521534204483032e-01,1.508874595165252686e-01,3.648391738533973694e-02,7.174800336360931396e-02,6.822748482227325439e-02,9.763611853122711182e-02,-3.638419508934020996e-02,1.599703878164291382e-01,3.661278262734413147e-02,3.395400345325469971e-01
1.136409267783164978e-01,1.635166108608245850e-01,1.008373349905014038e-01,-2.433457970619201660e-02,5.957537889480590820e-02,8.953117579221725464e-02,2.068375609815120697e-02,3.020022762939333916e-03,-9.939374029636383057e-02,-9.694989770650863647e-02,-9.251199662685394287e-02,4.104510694742202759e-02,-1.364458501338958740e-01,-1.480097025632858276e-01,6.623297184705734253e-02,-5.968586206436157227e-01
-3.631813824176788330e-02,-4.719199240207672119e-02,-4.764494299888610840e-02,1.048530861735343933e-01,-4.735404998064041138e-02,4.720355942845344543e-02,-5.232512578368186951e-02,1.284184455871582031e-01,2.644072100520133972e-02,-9.058109717443585396e-04,3.282153978943824768e-02,5.986719951033592224e-02,6.289500743150711060e-02,-8.348580449819564819e-02,1.616748608648777008e-02,-2.522450089454650879e-01
-7.615768164396286011e-02,5.310590937733650208e-02,-4.748415946960449219e-02,1.416939590126276016e-02,5.616457760334014893e-02,6.177778914570808411e-02,-4.088644310832023621e-02,3.927842155098915100e-02,-8.100838959217071533e-02,1.551064997911453247e-01,1.211441978812217712e-01,1.727048754692077637e-01,1.576162278652191162e-01,-1.037785876542329788e-02,-1.913267746567726135e-02,5.172892808914184570e-01
-1.290207654237747192e-01,1.558490749448537827e-02,-9.908965975046157837e-02,5.982379429042339325e-03,-6.770204007625579834e-02,-1.205892264842987061e-01,-1.382367163896560669e-01,5.143607035279273987e-02,-1.400554627180099487e-01,-1.602772474288940430e-01,-9.111989289522171021e-02,-1.511356383562088013e-01,2.393849566578865051e-02,-2.068393230438232422e-01,-8.451098948717117310e-02,-5.485464930534362793e-01
-4.748386144638061523e-02,1.026585549116134644e-01,8.121135085821151733e-02,1.230073869228363037e-01,-7.522244751453399658e-02,-7.589770853519439697e-02,5.231460556387901306e-02,8.442930877208709717e-02,-3.504776209592819214e-02,-1.008022055029869080e-01,-8.585988730192184448e-02,-6.785038858652114868e-02,-6.259159743785858154e-02,-1.046531498432159424e-01,-1.579345762729644775e-01,-3.139585554599761963e-01
3.655602782964706421e-02,-7.748438417911529541e-02,-7.124287635087966919e-02,2.533974498510360718e-02,-1.546226143836975098e-01,-3.569286689162254333e-02,-4.481108859181404114e-02,-9.328239830210804939e-04,-5.888491496443748474e-02,7.782320491969585419e-03,-1.849907785654067993e-01,-4.743067175149917603e-02,-1.739403754472732544e-01,-8.297332376241683960e-02,2.805323339998722076e-03,-8.537183403968811035e-01
-2.667549252510070801e-02,-9.527567774057388306e-02,3.206061199307441711e-02,1.080395132303237915e-01,-7.531119883060455322e-02,-1.650994084775447845e-02,-4.427420347929000854e-02,-5.857470631599426270e-02,-8.635409176349639893e-02,-1.378007531166076660e-01,5.828465148806571960e-02,-1.335206925868988037e-01,-4.458384960889816284e-02,1.212788000702857971e-02,-1.803979976102709770e-03,-2.711244821548461914e-01
-6.618450582027435303e-02,6.451591849327087402e-02,-1.177304238080978394e-01,-4.040240601170808077e-04,-1.049409210681915283e-01,1.436689496040344238e-02,-1.282229125499725342e-01,-6.064643338322639465e-02,8.430548012256622314e-02,-1.345679312944412231e-01,-1.682107299566268921e-01,-3.028325550258159637e-02,-1.151545569300651550e-01,-1.671919822692871094e-01,-1.588672250509262085e-01,-4.301193952560424805e-01
4.390991479158401489e-02,2.733757719397544861e-02,-1.704260893166065216e-02,1.736824959516525269e-01,-9.619698859751224518e-03,1.133523583412170410e-01,-1.082754414528608322e-02,9.160209447145462036e-02,4.475998133420944214e-02,-5.372247472405433655e-02,1.368199139833450317e-01,1.239098608493804932e-02,-5.701174214482307434e-02,-1.292493194341659546e-01,4.351597279310226440e-02,-3.101676106452941895e-01
-2.909606508910655975e-02,-4.196091741323471069e-02,8.465458452701568604e-02,-7.816193252801895142e-02,-7.602626085281372070e-02,-1.401134300976991653e-02,7.978148013353347778e-02,5.701186507940292358e-02,-1.605720221996307373e-01,6.851225346326828003e-02,4.754758253693580627e-02,3.896477445960044861e-02,6.355669349431991577e-02,-1.357747763395309448e-01,9.419583715498447418e-03,-2.625407874584197998e-01
9.217992424964904785e-02,-1.774219051003456116e-02,-2.635335363447666168e-02,2.805141359567642212e-02,1.014913842082023621e-01,2.753762528300285339e-02,-5.736206099390983582e-02,-9.594181180000305176e-02,1.067824289202690125e-01,3.767113760113716125e-02,8.500079065561294556e-02,-8.144774287939071655e-02,1.003274619579315186e-01,5.287855863571166992e-02,-7.758855074644088745e-02,-4.435877203941345215e-01
-7.008955627679824829e-02,-1.554869264364242554e-01,-8.241572976112365723e-02,-1.969270706176757812e-01,-3.228904679417610168e-02,-6.515739858150482178e-02,-1.199547797441482544e-01,-1.744958907365798950e-01,-9.578562527894973755e-02,-1.043573692440986633e-01,-8.964891731739044189e-02,-1.705198287963867188e-01,-9.620564430952072144e-02,-3.916316851973533630e-02,-1.426046341657638550e-01,-2.008906602859497070e-01
2.031154781579971313e-01,1.913840919733047485e-01,1.938595175743103027e-01,2.004319727420806885e-01,1.535621583461761475e-01,6.409346312284469604e-02,1.140643879771232605e-01,2.520807981491088867e-01,1.916245669126510620e-01,1.073932945728302002e-01,2.216030210256576538e-01,7.642231881618499756e-02,7.840092480182647705e-02,1.774976998567581177e-01,1.874409466981887817e-01,4.378302097320556641e-01
2.717379294335842133e-02,8.384680747985839844e-02,-2.097859978675842285e-02,7.191706448793411255e-02,2.152576111257076263e-02,6.342004984617233276e-02,-7.963981479406356812e-02,5.729386582970619202e-02,1.094801351428031921e-01,-5.971740558743476868e-02,-6.666694581508636475e-02,-1.106850802898406982e-01,2.576458267867565155e-02,7.246354967355728149e-02,-5.704076588153839111e-02,-5.418568253517150879e-01
4.031561315059661865e-02,-2.527331747114658356e-02,6.574009358882904053e-02,1.278537791222333908e-02,-1.247471198439598083e-01,5.739015992730855942e-03,-2.021767571568489075e-02,1.935876533389091492e-02,-6.590280681848526001e-03,-7.666399329900741577e-02,1.624597422778606415e-02,1.048109610565006733e-03,-1.552062928676605225e-01,-2.320127747952938080e-02,-5.885817483067512512e-02,-4.261982738971710205e-01
1.039388775825500488e-01,7.381030172109603882e-02,1.390796750783920288e-01,9.800527989864349365e-02,-1.006105169653892517e-02,1.055905595421791077e-01,5.399709567427635193e-02,-3.376813605427742004e-02,4.793409630656242371e-02,3.689250722527503967e-02,-1.181173473596572876e-01,3.771097166463732719e-03,-9.128776192665100098e-02,-8.337696641683578491e-02,3.898056223988533020e-02,-7.533951401710510254e-01
7.186665665358304977e-03,-6.646078079938888550e-02,-5.428778007626533508e-02,1.337386369705200195e-01,-4.979945719242095947e-02,5.728309229016304016e-02,1.167367771267890930e-01,3.298027813434600830e-02,-1.508903037756681442e-02,2.187655307352542877e-02,-8.308129757642745972e-02,2.451752685010433197e-02,8.582539856433868408e-02,9.625633805990219116e-02,5.407148599624633789e-02,4.817627742886543274e-02
8.965122699737548828e-02,1.566341668367385864e-01,-5.009555816650390625e-02,3.516935184597969055e-02,-3.868324309587478638e-02,1.170017644762992859e-01,-7.886666804552078247e-02,-1.040852516889572144e-01,-6.931857764720916748e-02,3.997256513684988022e-03,-1.309481859207153320e-01,7.581517845392227173e-02,4.344497621059417725e-02,-1.083095818758010864e-01,-5.123956874012947083e-02,-5.807576775550842285e-01
1.331440657377243042e-01,-2.516756532713770866e-03,-4.713813588023185730e-02,-8.398505300283432007e-02,-8.154574781656265259e-02,2.602581866085529327e-02,1.197923049330711365e-01,9.216485917568206787e-02,-1.573614589869976044e-02,1.393077969551086426e-01,-3.658773005008697510e-02,-9.851177781820297241e-02,-8.912934362888336182e-02,2.032623812556266785e-02,-3.406412154436111450e-02,-3.416506350040435791e-01
1.579395085573196411e-01,2.387939020991325378e-02,-1.995566114783287048e-02,-1.537140179425477982e-02,1.263977289199829102e-01,-2.572464384138584137e-02,9.185240417718887329e-02,1.641148030757904053e-01,-6.210672203451395035e-03,1.197946593165397644e-01,8.286309242248535156e-02,-1.413359586149454117e-02,8.896378427743911743e-02,2.213645912706851959e-02,1.422748416662216187e-01,4.531656205654144287e-01
-6.608569622039794922e-02,3.245650604367256165e-02,6.791727244853973389e-02,2.209782786667346954e-02,5.915508046746253967e-02,-4.210529103875160217e-02,-8.299916982650756836e-03,6.516182329505681992e-03,5.447092279791831970e-02,2.695311419665813446e-02,6.992482393980026245e-02,1.408992335200309753e-02,-1.263052523136138916e-01,3.402160853147506714e-02,-1.387155801057815552e-01,-3.396636843681335449e-01
-2.621715702116489410e-02,1.264627128839492798e-01,6.019111350178718567e-02,1.473381519317626953e-01,1.601511985063552856e-01,-2.425472624599933624e-02,1.067494973540306091e-01,3.814470022916793823e-02,2.629128098487854004e-02,-5.336265638470649719e-02,7.843988947570323944e-03,-8.202994614839553833e-02,-6.436122953891754150e-02,-4.675030335783958435e-02,6.074452772736549377e-02,-3.220199346542358398e-01
5.505301430821418762e-02,5.549122393131256104e-02,1.246909201145172119e-01,1.463113701902329922e-03,1.322262734174728394e-01,5.183593556284904480e-02,3.589931502938270569e-02,2.889175713062286377e-02,4.523915797472000122e-02,-2.869067713618278503e-02,9.698313474655151367e-02,2.522492781281471252e-02,5.123483389616012573e-02,1.590986852534115314e-03,-7.216718047857284546e-02,-9.001915454864501953e-01
-9.102018922567367554e-02,1.142836175858974457e-03,-8.158254623413085938e-02,9.435972571372985840e-02,4.763976670801639557e-03,2.711318805813789368e-02,1.662953384220600128e-02,-3.299098461866378784e-02,-4.081735759973526001e-02,-7.109406590461730957e-02,-1.204315572977066040e-02,9.229826182126998901e-02,1.738073676824569702e-02,-1.115326955914497375e-01,-4.502367600798606873e-02,-5.781794711947441101e-02
6.755379587411880493e-02,1.302803307771682739e-01,-3.422579914331436157e-02,1.227512583136558533e-01,-3.849323093891143799e-02,-1.087101697921752930e-01,-8.299866691231727600e-03,4.661093279719352722e-02,8.528010547161102295e-02,-1.027089059352874756e-01,-1.331070363521575928e-01,3.418681770563125610e-02,4.969777539372444153e-02,7.521735876798629761e-02,-5.392451211810112000e-02,1.025243699550628662e-01
-5.185757204890251160e-02,-1.167496666312217712e-02,3.445924445986747742e-02,2.003093995153903961e-02,1.609881073236465454e-01,1.363703608512878418e-01,6.728035211563110352e-02,4.544650204479694366e-03,6.877116858959197998e-02,-9.326056391000747681e-02,7.351629436016082764e-02,-8.156751841306686401e-02,1.003888319246470928e-03,1.081974208354949951e-01,9.826341271400451660e-02,-5.326163768768310547e-01
1.141636744141578674e-01,-7.342295348644256592e-02,1.627528667449951172e-02,-7.063496112823486328e-02,-2.424366213381290436e-02,-5.348531529307365417e-02,7.153666764497756958e-02,5.067293345928192139e-02,2.497952431440353394e-02,-1.759235374629497528e-02,2.694288454949855804e-02,-1.648760437965393066e-01,-1.083748787641525269e-01,-7.989248633384704590e-02,-6.383513659238815308e-02,-5.509083867073059082e-01
-7.141762226819992065e-02,2.821916528046131134e-02,-1.221910491585731506e-01,1.038308814167976379e-02,2.521658502519130707e-02,5.000363290309906006e-02,1.598184369504451752e-02,-5.143905803561210632e-02,6.199447438120841980e-02,2.028372837230563164e-03,-4.161863401532173157e-02,4.058974981307983398e-02,-8.467461913824081421e-02,-1.577748209238052368e-01,1.103525981307029724e-02,-2.614842057228088379e-01
3.028446808457374573e-02,-8.003469556570053101e-03,7.252290099859237671e-02,-1.105762347579002380e-01,7.812913507223129272e-03,-1.150017008185386658e-01,1.074451804161071777e-01,-9.123971313238143921e-02,1.928947120904922485e-02,-6.994244456291198730e-02,-8.242140710353851318e-02,3.041142225265502930e-02,4.531133174896240234e-02,-9.211566299200057983e-03,1.779611259698867798e-01,4.510588049888610840e-01
9.052705764770507812e-02,5.307112634181976318e-02,-9.490949660539627075e-02,1.122682094573974609e-01,5.363050848245620728e-02,-5.552110075950622559e-02,-6.127910315990447998e-02,-1.859044469892978668e-02,3.042717464268207550e-02,1.157741174101829529e-01,1.060556918382644653e-01,1.107895895838737488e-01,-8.590206503868103027e-02,-8.032295852899551392e-02,-9.850032627582550049e-03,-4.320155456662178040e-02
2.364204637706279755e-02,8.906301110982894897e-02,1.378883123397827148e-01,1.491771489381790161e-01,1.354869306087493896e-01,9.807101637125015259e-02,1.060222759842872620e-01,9.775531291961669922e-02,8.964987099170684814e-02,5.475249886512756348e-02,8.077384531497955322e-02,7.199216634035110474e-02,-7.771288603544235229e-02,-1.016732119023799896e-02,-5.035459250211715698e-02,-6.237592101097106934e-01
-5.698351189494132996e-02,-1.452739983797073364e-01,-1.664007008075714111e-01,-1.103243380784988403e-01,-1.742651164531707764e-01,-2.413880676031112671e-01,-1.842991858720779419e-01,-2.091653347015380859e-01,-4.051185771822929382e-02,-5.032783001661300659e-02,-2.324219346046447754e-01,-2.223526090383529663e-01,-1.416319757699966431e-01,-1.973197758197784424e-01,-1.444026529788970947e-01,-3.625525832176208496e-01
2.764286473393440247e-02,1.157704144716262817e-01,-1.637027971446514130e-02,2.214918658137321472e-02,5.337588116526603699e-02,-1.787185482680797577e-02,-9.648906998336315155e-03,7.920832373201847076e-03,-8.657939732074737549e-03,5.357497557997703552e-02,9.033134579658508301e-02,-3.596780821681022644e-02,-1.330477595329284668e-01,-8.761647343635559082e-02,7.260443642735481262e-03,-6.463732719421386719e-01
-2.783357538282871246e-02,5.343667697161436081e-03,-7.121470570564270020e-02,-9.049217402935028076e-02,-1.404273044317960739e-02,-8.268023282289505005e-02,6.507527083158493042e-02,4.914357513189315796e-02,-2.829314023256301880e-02,2.499798312783241272e-02,1.156932935118675232e-01,7.942195981740951538e-02,8.801563829183578491e-02,3.140049427747726440e-02,5.194245651364326477e-02,4.886603057384490967e-01
-2.648714184761047363e-02,3.271324187517166138e-02,-7.798298448324203491e-02,-6.911908090114593506e-02,1.866479031741619110e-02,-8.415728807449340820e-03,-3.898831456899642944e-02,6.621889024972915649e-02,-1.066384911537170410e-01,-4.777663573622703552e-02,-1.215110346674919128e-01,-1.382560878992080688e-01,-6.272316724061965942e-02,-1.365114003419876099e-01,-9.493786841630935669e-02,-4.680530428886413574e-01
6.686948239803314209e-02,1.640308499336242676e-01,1.307336241006851196e-01,1.445705890655517578e-01,-3.553993999958038330e-02,7.319145649671554565e-02,2.687122486531734467e-02,5.895115435123443604e-02,3.605834394693374634e-02,-7.297534495592117310e-02,-6.233796104788780212e-02,-1.048241034150123596e-01,1.069765836000442505e-01,-1.057120263576507568e-01,-9.350646287202835083e-02,-1.515007615089416504e-01
7.681112736463546753e-02,-1.006364300847053528e-01,-5.306313186883926392e-02,-3.031607717275619507e-02,-5.898791365325450897e-03,-7.348573207855224609e-02,6.294387578964233398e-02,5.628871172666549683e-02,1.430579572916030884e-01,5.489366874098777771e-02,9.821504354476928711e-02,1.615491658449172974e-01,4.652104899287223816e-02,1.693590581417083740e-01,1.246542204171419144e-02,4.296642243862152100e-01
8.946179598569869995e-02,1.379554271697998047e-01,-4.460999742150306702e-02,4.574767500162124634e-02,7.118055969476699829e-02,-5.028431862592697144e-02,1.389436423778533936e-01,-3.594283014535903931e-02,5.338819324970245361e-02,-1.160442754626274109e-01,8.700703084468841553e-02,-4.675055295228958130e-02,-2.935621142387390137e-02,-1.400554329156875610e-01,-7.335021346807479858e-02,-8.538214564323425293e-01
2.427346818149089813e-02,4.062756150960922241e-02,1.333488970994949341e-01,-2.291443943977355957e-02,7.293647527694702148e-02,-5.974647402763366699e-02,1.480304896831512451e-01,1.269211024045944214e-01,7.181859761476516724e-02,-5.147353187203407288e-02,-5.739957839250564575e-02,6.000777333974838257e-02,-3.367068991065025330e-02,-1.505351066589355469e-01,-1.154441833496093750e-01,-5.727376341819763184e-01
-1.119547411799430847e-01,-1.504872292280197144e-01,-1.403832882642745972e-01,1.183424051851034164e-02,-3.584422171115875244e-02,2.835760265588760376e-02,-1.435509067960083485e-03,-6.988797336816787720e-02,-3.112312965095043182e-02,4.521504417061805725e-02,-7.815469056367874146e-03,6.698229908943176270e-02,-3.667799755930900574e-02,-6.382331252098083496e-02,-5.179004371166229248e-02,5.634611248970031738e-01
5.162606388330459595e-02,4.316146485507488251e-03,-5.313435569405555725e-02,1.745314709842205048e-02,3.135405853390693665e-02,3.699763864278793335e-02,2.549645490944385529e-03,-3.414618596434593201e-02,3.624003613367676735e-03,-6.583405658602714539e-03,-8.196815103292465210e-02,-6.977664679288864136e-02,-9.932818263769149780e-02,7.795616239309310913e-02,-1.593370884656906128e-01,-7.540353536605834961e-01
6.201902404427528381e-02,2.624066919088363647e-02,-1.401815712451934814e-01,4.043900966644287109e-02,-1.291641741991043091e-01,1.784122362732887268e-02,-1.368062850087881088e-02,-6.212322786450386047e-02,5.784766003489494324e-02,2.601442113518714905e-02,-1.614222116768360138e-02,-8.494412899017333984e-02,-1.414173841476440430e-01,1.588708721101284027e-03,-1.279281675815582275e-01,4.905156046152114868e-02
-2.694527804851531982e-02,5.271619558334350586e-02,6.164049729704856873e-03,8.003975450992584229e-02,7.175008952617645264e-02,6.233916431665420532e-02,-2.456589601933956146e-03,-7.258880138397216797e-02,-1.308039575815200806e-01,-1.315232217311859131e-01,1.935858465731143951e-02,-1.161069720983505249e-01,-7.229430973529815674e-02,-1.213077106513082981e-03,-1.368364542722702026e-01,-4.908774793148040771e-01
-4.542291164398193359e-02,-7.144805043935775757e-03,-2.464998699724674225e-02,-9.904091060161590576e-02,-3.355046361684799194e-02,-1.003331840038299561e-01,-7.823450863361358643e-02,2.820072136819362640e-02,-5.906721204519271851e-02,-4.547840356826782227e-02,-2.892698720097541809e-02,-3.380714729428291321e-02,-8.223510533571243286e-02,9.153136052191257477e-03,-7.228750735521316528e-02,1.008812710642814636e-01
-3.811262547969818115e-02,-1.876023113727569580e-01,-1.184922158718109131e-01,-1.628130078315734863e-01,-2.055581212043762207e-01,-7.106809318065643311e-02,-3.614376112818717957e-02,-1.763268746435642242e-02,-1.818832010030746460e-01,-3.868412971496582031e-02,-1.280185729265213013e-01,-2.191129922866821289e-01,-7.818964868783950806e-02,-5.248689651489257812e-02,-4.026252776384353638e-02,4.700123071670532227e-01
1.313765943050384521e-01,1.042089685797691345e-01,-4.738581180572509766e-02,4.263916611671447754e-02,-5.134890973567962646e-02,1.066301316022872925e-01,3.115091286599636078e-02,1.355889141559600830e-01,1.616988033056259155e-01,4.914067313075065613e-02,9.234951436519622803e-02,-3.056114725768566132e-02,4.217195883393287659e-02,1.396633088588714600e-01,1.004132777452468872e-01,3.960669338703155518e-01
-9.989461302757263184e-02,3.404357656836509705e-02,-1.862383633852005005e-02,-3.486539050936698914e-02,3.789098560810089111e-02,3.598566725850105286e-02,-9.271863102912902832e-02,-1.418075859546661377e-01,-1.195884048938751221e-01,-7.363033294677734375e-02,-1.062851473689079285e-01,-1.688876152038574219e-01,1.448063924908638000e-02,-1.338637918233871460e-01,-1.573172062635421753e-01,9.784848242998123169e-02
-1.755164414644241333e-01,-2.284562587738037109e-01,-2.517621815204620361e-01,-1.430450081825256348e-01,-7.890108972787857056e-02,-1.974117308855056763e-01,-3.067522309720516205e-02,-2.104057967662811279e-01,-1.715947389602661133e-01,-1.794253885746002197e-01,-1.955814808607101440e-01,-2.366278469562530518e-01,-2.057713270187377930e-01,-2.498001903295516968e-01,-2.998989522457122803e-01,-1.968942731618881226e-01
-7.495909463614225388e-03,-3.660075366497039795e-02,4.597213864326477051e-02,-4.190052673220634460e-02,-4.387924820184707642e-02,1.358131021261215210e-01,-6.642717123031616211e-02,3.631640970706939697e-02,5.737227573990821838e-02,9.220699220895767212e-02,1.518419831991195679e-01,5.200391262769699097e-02,-3.808497264981269836e-02,8.291331678628921509e-02,6.640765815973281860e-02,3.078504800796508789e-01
-9.903182834386825562e-02,5.688650533556938171e-02,8.798086643218994141e-02,2.705813385546207428e-02,1.020072177052497864e-01,-8.009523153305053711e-02,-8.881873637437820435e-02,-4.323780164122581482e-02,1.393098086118698120e-01,6.800605356693267822e-02,1.324527263641357422e-01,-5.237048491835594177e-02,6.690306216478347778e-02,6.156847998499870300e-02,1.137575954198837280e-01,6.207556650042533875e-02
1.223770305514335632e-01,1.493091508746147156e-02,-1.334994751960039139e-02,7.682558149099349976e-02,2.145092701539397240e-03,-4.800450801849365234e-02,1.474355608224868774e-01,-5.502122640609741211e-02,1.033736094832420349e-01,1.796765998005867004e-02,1.115231737494468689e-01,1.221713498234748840e-01,-4.435495659708976746e-02,5.619055777788162231e-02,-6.392657756805419922e-02,-5.050391554832458496e-01
1.415429413318634033e-01,1.430452764034271240e-01,1.850463896989822388e-01,3.004845045506954193e-02,8.543804287910461426e-02,2.157921791076660156e-01,1.693405210971832275e-01,1.506477296352386475e-01,8.968300372362136841e-02,7.483997941017150879e-02,1.131883189082145691e-01,2.837757579982280731e-02,2.687616646289825439e-02,2.343140393495559692e-01,2.535006497055292130e-03,3.647960126399993896e-01
5.299185402691364288e-03,8.989337086677551270e-02,-9.009469300508499146e-02,9.427718818187713623e-02,1.203892230987548828e-01,-5.172000825405120850e-02,-7.188004255294799805e-02,4.380812495946884155e-02,-9.128365665674209595e-02,8.436108380556106567e-02,-4.997630044817924500e-02,-3.076974116265773773e-02,1.327003538608551025e-01,-6.661672890186309814e-02,8.352544158697128296e-02,5.624654293060302734e-01
1.004652902483940125e-01,-6.920229643583297729e-02,-1.064800396561622620e-01,9.614348411560058594e-02,1.090276427567005157e-02,3.362878039479255676e-02,-1.054884167388081551e-03,7.386287674307823181e-03,-2.797939348965883255e-03,-2.399052679538726807e-02,1.652318751439452171e-03,-8.081855624914169312e-02,-1.176414787769317627e-01,-3.011004813015460968e-02,6.524331122636795044e-02,1.467610597610473633e-01
-1.890882402658462524e-01,3.992110490798950195e-02,-9.755049645900726318e-02,-8.302006870508193970e-02,-7.582984864711761475e-02,-7.031909376382827759e-02,-1.547079086303710938e-01,-4.306641221046447754e-02,7.183837238699197769e-03,9.501513838768005371e-02,-1.311554200947284698e-02,-5.874984711408615112e-02,5.311470013111829758e-03,5.631715804338455200e-02,6.367138773202896118e-02,7.099608778953552246e-01
-7.151594758033752441e-02,-8.498651534318923950e-02,9.338361769914627075e-02,4.284607246518135071e-02,-9.555724263191223145e-02,-8.457845449447631836e-02,-4.514153674244880676e-02,-5.476259067654609680e-02,-2.774355188012123108e-02,6.736737489700317383e-02,3.454677015542984009e-02,9.711740911006927490e-02,2.058259397745132446e-02,1.425032466650009155e-01,1.190426051616668701e-01,4.362277090549468994e-01
6.015296652913093567e-02,3.310716943815350533e-03,7.026546169072389603e-03,9.114292263984680176e-02,1.684001088142395020e-01,6.956709083169698715e-03,9.604713320732116699e-02,6.807041913270950317e-02,2.148537337779998779e-02,1.080199629068374634e-01,4.672503098845481873e-02,1.315414756536483765e-01,-1.029295548796653748e-01,-1.511378772556781769e-02,-1.141940150409936905e-02,-3.845305442810058594e-01
1.057306677103042603e-01,-6.400082260370254517e-02,-2.155612595379352570e-02,7.926658727228641510e-03,8.670742809772491455e-02,-9.009142965078353882e-02,8.790032565593719482e-02,2.704256214201450348e-03,-8.190797269344329834e-02,-5.874397978186607361e-02,9.241341799497604370e-02,1.212329417467117310e-01,-1.685794256627559662e-02,3.380891401320695877e-03,-1.178603433072566986e-02,6.196625828742980957e-01
4.998429119586944580e-02,-2.237901277840137482e-02,8.225007355213165283e-02,1.193101853132247925e-01,1.590663380920886993e-02,1.506051570177078247e-01,2.120309509336948395e-03,-2.823353186249732971e-02,9.963884949684143066e-02,9.038021415472030640e-02,1.939674019813537598e-01,2.320861816406250000e-02,2.029972523450851440e-01,9.825604408979415894e-02,-1.933953538537025452e-02,1.788616925477981567e-01
8.652335964143276215e-03,-3.189944475889205933e-02,1.289218068122863770e-01,-4.431504756212234497e-02,5.344054847955703735e-02,-6.239348277449607849e-02,1.639676392078399658e-01,9.165067225694656372e-02,4.858862981200218201e-02,1.199900060892105103e-01,7.041259109973907471e-02,1.277173459529876709e-01,7.106839120388031006e-02,1.269856840372085571e-01,-6.109842099249362946e-03,3.720224499702453613e-01
1.669744551181793213e-01,2.123756259679794312e-01,8.344872854650020599e-03,9.938517957925796509e-02,1.030059531331062317e-01,1.776176840066909790e-01,2.035242319107055664e-02,8.049159497022628784e-02,1.847064867615699768e-02,1.882370375096797943e-02,4.993006214499473572e-02,-4.511006176471710205e-02,-3.113194555044174194e-02,-1.554544270038604736e-01,-1.605117321014404297e-02,-5.172056555747985840e-01
9.665550291538238525e-02,-5.997498705983161926e-02,9.972974658012390137e-02,1.378870010375976562e-01,2.434402704238891602e-02,8.248157799243927002e-02,8.876267075538635254e-02,-5.849364027380943298e-02,7.489094883203506470e-02,9.706349670886993408e-02,-4.779368266463279724e-02,3.411775454878807068e-02,1.040952280163764954e-01,3.783772885799407959e-02,2.759845182299613953e-02,-4.905939698219299316e-01
8.769577369093894958e-03,-1.903939694166183472e-01,-6.072263792157173157e-02,-8.016239106655120850e-02,-7.116784900426864624e-02,5.025610444135963917e-04,-1.393765509128570557e-01,-1.326712071895599365e-01,-4.751972109079360962e-02,-7.140210270881652832e-02,-1.808048188686370850e-01,-1.152750551700592041e-01,-1.223238408565521240e-01,-7.723039388656616211e-02,2.476764470338821411e-02,4.083456993103027344e-01
7.175039499998092651e-02,1.272946894168853760e-01,-3.323973715305328369e-02,1.875376254320144653e-01,-7.515395525842905045e-03,1.325878351926803589e-01,2.057405412197113037e-01,5.370569601655006409e-02,1.618955731391906738e-01,1.724465489387512207e-01,4.010153561830520630e-02,6.368937343358993530e-02,5.288030207157135010e-02,1.705451458692550659e-01,2.362696230411529541e-01,4.234633147716522217e-01
1.458783745765686035e-01,7.998165488243103027e-02,2.188578248023986816e-01,1.362629383802413940e-01,-2.630955167114734650e-02,-2.762039192020893097e-02,1.692141592502593994e-01,1.369457319378852844e-02,4.934782534837722778e-02,-9.102124720811843872e-02,3.360769152641296387e-02,-7.674887031316757202e-02,-3.401029109954833984e-02,-7.685226202011108398e-02,-1.050902307033538818e-01,-7.942955493927001953e-01
4.333531111478805542e-02,-3.676999732851982117e-02,2.869948931038379669e-02,1.088183969259262085e-01,1.228554770350456238e-01,-8.620279282331466675e-02,1.073162034153938293e-01,-3.440764173865318298e-02,3.244386613368988037e-02,-4.802493751049041748e-02,4.654953628778457642e-02,2.315197512507438660e-02,2.001521550118923187e-02,-2.120621502399444580e-02,-2.042293697595596313e-01,-3.847514092922210693e-01
-2.220780029892921448e-02,-3.480141051113605499e-03,-1.801866739988327026e-01,5.169006437063217163e-02,3.700752928853034973e-02,-4.377735033631324768e-02,-1.473819185048341751e-02,-8.976662904024124146e-02,4.042554274201393127e-02,-1.342150568962097168e-01,1.063932627439498901e-01,-1.113978773355484009e-02,7.322865724563598633e-02,-4.960789531469345093e-02,1.988990232348442078e-03,3.964838981628417969e-01
7.311655580997467041e-02,-5.300991982221603394e-02,4.908712208271026611e-02,-1.642906665802001953e-02,-2.765744924545288086e-03,-1.135235801339149475e-01,-1.580564712639898062e-04,1.134764254093170166e-01,8.416330069303512573e-02,-3.851424530148506165e-02,-9.862966835498809814e-02,1.153757981956005096e-02,-1.439875066280364990e-01,3.084408119320869446e-02,-1.065284758806228638e-01,-6.334532499313354492e-01
2.814332209527492523e-02,2.108702957630157471e-01,6.842262297868728638e-02,-9.346382692456245422e-03,1.224210932850837708e-01,6.595520675182342529e-02,1.087645590305328369e-01,8.124638348817825317e-02,-2.584044635295867920e-02,1.428119093179702759e-01,3.778304532170295715e-02,4.261516500264406204e-03,-9.085799753665924072e-02,-5.062923580408096313e-02,9.640920162200927734e-02,-6.706757545471191406e-01
-7.236129790544509888e-02,-2.311157621443271637e-02,2.847137395292520523e-03,-5.648621916770935059e-02,8.850269764661788940e-02,-9.358555078506469727e-03,6.607271730899810791e-02,-1.238602176308631897e-01,-3.961703926324844360e-02,5.816011503338813782e-02,-1.112795472145080566e-01,1.382516790181398392e-02,-1.907800436019897461e-01,7.705194409936666489e-03,-5.346604436635971069e-02,-6.524080038070678711e-01
-3.087392076849937439e-02,7.366030663251876831e-02,1.305220872163772583e-01,1.480878293514251709e-01,1.975841261446475983e-02,3.684499487280845642e-02,1.235764175653457642e-01,-3.555599227547645569e-02,-9.624689817428588867e-02,-4.160255938768386841e-02,-5.693184956908226013e-02,1.131812855601310730e-01,3.174785152077674866e-02,-1.207551136612892151e-01,7.453264296054840088e-02,-4.558506309986114502e-01
9.840326756238937378e-02,-6.947250664234161377e-02,-5.413470044732093811e-02,4.552647843956947327e-02,-8.598841726779937744e-03,-1.097719594836235046e-01,-4.250306263566017151e-02,-1.322022378444671631e-01,1.032695844769477844e-01,9.337988682091236115e-03,4.866594448685646057e-02,5.771295353770256042e-02,-1.469605714082717896e-01,-1.207411587238311768e-01,-1.412667036056518555e-01,-6.001685261726379395e-01
8.855429291725158691e-02,1.412519216537475586e-01,6.029640138149261475e-02,7.737428694963455200e-02,7.657807320356369019e-02,2.791431918740272522e-02,1.557947229593992233e-02,9.251416474580764771e-02,8.602237701416015625e-02,8.612042665481567383e-02,7.018323522061109543e-03,-3.708788659423589706e-03,1.594217494130134583e-02,5.885411426424980164e-02,-1.133049726486206055e-01,-3.685638606548309326e-01
3.197222948074340820e-02,6.788164377212524414e-02,4.318817518651485443e-03,1.321650482714176178e-02,-6.195609457790851593e-03,-1.581935435533523560e-01,2.276664786040782928e-02,3.453538939356803894e-02,-3.257157979533076286e-03,-1.879272758960723877e-01,-1.322445571422576904e-01,-6.225085631012916565e-02,-2.338055754080414772e-03,-1.140402927994728088e-01,-1.044157594442367554e-01,-4.910283088684082031e-01
1.722042709589004517e-01,-3.790475800633430481e-02,3.315504640340805054e-02,1.115576252341270447e-01,1.061307713389396667e-01,-6.242706254124641418e-02,-7.695674151182174683e-02,-9.874057024717330933e-02,-5.862710624933242798e-02,1.193756908178329468e-01,-1.170518696308135986e-01,-1.169394236057996750e-02,-2.306725829839706421e-02,5.151053890585899353e-02,3.964446112513542175e-02,-5.844069719314575195e-01
8.179965429008007050e-03,-7.099039852619171143e-02,3.368278965353965759e-02,4.674926772713661194e-02,9.720817208290100098e-02,-9.257412701845169067e-02,-2.584145404398441315e-02,5.591845139861106873e-02,-7.771133631467819214e-02,-1.704897172749042511e-02,-3.782070055603981018e-02,-1.700348779559135437e-02,3.460324183106422424e-02,4.791627824306488037e-02,-1.288726273924112320e-02,-4.627475142478942871e-02
-6.080729886889457703e-02,-5.140770971775054932e-02,2.353568933904170990e-02,1.184665188193321228e-01,5.783602222800254822e-02,3.209138661623001099e-02,-6.627665460109710693e-02,8.817011117935180664e-02,2.351781912147998810e-02,-1.124202040955424309e-03,-7.734104990959167480e-02,-2.014401927590370178e-02,-1.343098729848861694e-01,4.363450407981872559e-02,-9.094756841659545898e-02,1.299244314432144165e-01
4.779045283794403076e-02,1.454012393951416016e-01,5.248149484395980835e-02,-1.372103393077850342e-02,9.562374651432037354e-02,4.069212451577186584e-02,1.349803358316421509e-01,9.623168152756989002e-04,5.450532771646976471e-03,-3.832086175680160522e-02,-1.580607295036315918e-01,-1.073706373572349548e-01,-8.727102540433406830e-03,-5.340374264051206410e-05,-4.988261684775352478e-02,-8.808835148811340332e-01
5.096681416034698486e-02,9.620968252420425415e-02,1.561878025531768799e-01,8.066897094249725342e-02,4.211574047803878784e-02,-8.891579508781433105e-02,-7.379852980375289917e-02,6.832525134086608887e-02,5.927526205778121948e-02,8.650535345077514648e-02,4.266287386417388916e-02,-8.059055358171463013e-02,-1.023940816521644592e-01,-2.493517659604549408e-02,8.048090152442455292e-03,-3.752517402172088623e-01
1.113506313413381577e-02,4.641649499535560608e-02,1.504783630371093750e-01,-4.881783574819564819e-02,7.398297637701034546e-02,-4.064377769827842712e-02,2.246114425361156464e-02,-7.823912799358367920e-02,3.964623063802719116e-02,-3.791618719696998596e-02,-1.010165065526962280e-01,1.318750344216823578e-02,-1.186871062964200974e-02,-9.980139881372451782e-02,-2.309405058622360229e-02,-7.303826808929443359e-01
1.078439876437187195e-01,4.215964674949645996e-02,-3.500865027308464050e-02,-1.183560788631439209e-01,-4.642866551876068115e-02,4.888400435447692871e-02,2.626322768628597260e-02,2.563057467341423035e-02,7.578353583812713623e-02,-8.904221653938293457e-02,9.327626787126064301e-03,-3.781465440988540649e-02,3.385585546493530273e-02,3.661355376243591309e-02,-1.396413892507553101e-01,-1.458987444639205933e-01
3.659720346331596375e-02,-6.822310388088226318e-02,-7.527472823858261108e-02,1.267128884792327881e-01,-4.229605197906494141e-03,-4.788150638341903687e-02,1.176515817642211914e-01,-1.040527671575546265e-01,7.394859939813613892e-02,4.260371625423431396e-02,-1.604967564344406128e-02,-8.217737078666687012e-02,5.491770803928375244e-02,2.441567182540893555e-02,-1.816611140966415405e-01,-8.066821694374084473e-01
1.039702668786048889e-01,1.166368573904037476e-01,-3.052048198878765106e-02,1.177760288119316101e-01,-4.063487425446510315e-02,-3.803788870573043823e-02,-5.569591745734214783e-02,1.299729794263839722e-01,-8.387728780508041382e-02,1.274724900722503662e-01,2.407616749405860901e-02,-6.581651419401168823e-02,-7.879118621349334717e-02,-1.832283800467848778e-03,-1.232773214578628540e-01,-6.433950066566467285e-01
-4.388156533241271973e-02,-9.223890304565429688e-02,4.412190988659858704e-02,4.315918311476707458e-02,-6.315606832504272461e-02,1.351051870733499527e-02,6.311497092247009277e-02,4.402163252234458923e-02,1.550986617803573608e-01,1.045460924506187439e-01,2.040904655586928129e-04,8.312995731830596924e-02,1.217668578028678894e-01,5.964435636997222900e-02,3.460422903299331665e-02,3.789948523044586182e-01
2.027190178632736206e-01,2.799022383987903595e-02,1.487981528043746948e-01,1.722094267606735229e-01,-4.772349074482917786e-02,1.027429923415184021e-01,-7.410860806703567505e-02,3.330604732036590576e-02,-8.214566111564636230e-02,-2.470719255506992340e-02,-1.038681045174598694e-01,1.288166921585798264e-02,4.666776210069656372e-02,4.365129023790359497e-02,5.207086354494094849e-02,-5.743292570114135742e-01
6.150513142347335815e-02,1.283580064773559570e-01,1.130008697509765625e-01,1.326321959495544434e-01,1.065143197774887085e-02,1.347586214542388916e-01,-1.671811379492282867e-02,1.723842769861221313e-01,8.795399218797683716e-03,-2.470864355564117432e-02,8.784187585115432739e-02,1.639815280213952065e-03,-5.755924805998802185e-02,1.084763556718826294e-01,-2.238986268639564514e-02,-4.844972193241119385e-01
7.966212928295135498e-02,-2.300082519650459290e-02,9.064436703920364380e-02,7.717091124504804611e-03,7.269084453582763672e-02,1.182309389114379883e-01,-3.491214662790298462e-02,1.345214992761611938e-01,8.617295324802398682e-02,-1.421077363193035126e-02,-4.109947755932807922e-02,-7.394290715456008911e-02,5.851789563894271851e-02,-3.261651098728179932e-02,-5.811809748411178589e-02,-6.156110167503356934e-01
5.132956057786941528e-02,8.395633846521377563e-02,-6.741666048765182495e-02,4.897735640406608582e-02,-6.150281056761741638e-02,8.910448290407657623e-03,-1.212392561137676239e-02,1.218297798186540604e-02,-3.725975006818771362e-02,3.517080843448638916e-02,-7.270663231611251831e-02,-3.319784626364707947e-02,8.951621502637863159e-02,9.533966332674026489e-02,-4.376993328332901001e-02,-2.494938820600509644e-01
3.361562034115195274e-03,-6.498493254184722900e-02,8.705238997936248779e-02,1.286266720853745937e-03,-3.027597085747402161e-05,-3.138351719826459885e-03,1.203276962041854858e-01,1.081012040376663208e-01,-6.530898809432983398e-02,3.233622387051582336e-02,1.227838695049285889e-01,-1.121326386928558350e-01,-9.757059812545776367e-02,6.723716855049133301e-02,8.246380835771560669e-03,-6.773317456245422363e-01
6.461109220981597900e-02,-8.479814045131206512e-03,-8.258185535669326782e-02,-8.497279137372970581e-02,4.574640467762947083e-02,1.401602756232023239e-02,8.205868303775787354e-02,7.941772788763046265e-02,8.498342335224151611e-02,-1.476633697748184204e-01,3.502323478460311890e-02,-1.587129384279251099e-01,-1.624379009008407593e-01,-1.234262585639953613e-01,-1.706805229187011719e-01,-5.850445628166198730e-01
1.834526658058166504e-01,1.449050158262252808e-01,6.423621624708175659e-02,9.103988856077194214e-02,1.116542071104049683e-01,1.620299182832241058e-02,-3.749826923012733459e-02,1.105253621935844421e-01,-4.500948265194892883e-02,1.095965579152107239e-01,8.298241347074508667e-02,9.824080765247344971e-02,-9.914350695908069611e-03,-7.618632167577743530e-02,-7.850049436092376709e-02,-5.599316358566284180e-01
-2.795466221868991852e-03,-7.611723989248275757e-02,-1.352746635675430298e-01,-1.078213602304458618e-01,-3.979016467928886414e-02,-1.280107349157333374e-01,1.098064333200454712e-02,-9.519770741462707520e-02,-1.933064498007297516e-02,-3.344654338434338570e-03,8.044208399951457977e-03,-7.918466627597808838e-02,9.160063345916569233e-04,-2.123114652931690216e-02,-1.012941524386405945e-01,-1.744026541709899902e-01
-6.772681325674057007e-02,-5.009638145565986633e-02,1.543788164854049683e-01,9.757252782583236694e-02,1.049092262983322144e-01,9.346360713243484497e-02,3.902716096490621567e-03,6.907870620489120483e-02,-3.759691864252090454e-02,-2.767864242196083069e-02,-2.589379623532295227e-02,1.678733825683593750e-01,4.753612354397773743e-02,1.879752874374389648e-01,1.578100919723510742e-01,-1.324932649731636047e-02
3.779295831918716431e-02,1.245654225349426270e-01,1.080532670021057129e-01,-4.328451305627822876e-02,-4.306028131395578384e-03,1.284253150224685669e-01,-9.802196919918060303e-02,5.580887943506240845e-02,1.005890816450119019e-01,3.428229317069053650e-02,-1.573231667280197144e-01,-1.361858993768692017e-01,5.559394136071205139e-02,-1.434875428676605225e-01,-3.168698772788047791e-02,-3.824684917926788330e-01
7.131841033697128296e-02,1.923417896032333374e-01,4.384921863675117493e-02,1.455524414777755737e-01,5.005912482738494873e-02,-2.725439891219139099e-02,4.994675517082214355e-03,-2.510403282940387726e-02,-6.618164479732513428e-02,-2.749092318117618561e-02,5.314584448933601379e-02,-1.164534017443656921e-01,-2.266551926732063293e-02,2.386579103767871857e-02,-4.671177268028259277e-02,-7.850556373596191406e-01
-1.064260080456733704e-01,-8.198405802249908447e-02,-5.505419149994850159e-02,2.428238466382026672e-02,-3.953754529356956482e-02,5.626586452126502991e-02,-9.236282855272293091e-02,-1.241686865687370300e-01,-1.100591048598289490e-01,-1.510538756847381592e-01,7.385999709367752075e-02,-7.012809813022613525e-02,-6.753161549568176270e-02,5.745010077953338623e-02,-1.641305088996887207e-01,-8.930516242980957031e-02
-2.648038230836391449e-02,1.921906322240829468e-01,1.536666750907897949e-01,-6.724800448864698410e-03,-7.664624601602554321e-03,1.059912443161010742e-01,1.900572143495082855e-02,-6.989501416683197021e-02,3.594201430678367615e-02,1.394727230072021484e-01,-4.349458217620849609e-02,4.863123595714569092e-02,-3.725342452526092529e-02,-1.984276436269283295e-02,7.333541661500930786e-02,-5.810284018516540527e-01
-3.900181764038279653e-05,7.846232503652572632e-02,9.274475276470184326e-02,1.676187068223953247e-01,7.828814536333084106e-02,9.510990977287292480e-02,8.613263070583343506e-02,1.710715591907501221e-01,2.831344306468963623e-02,1.334723681211471558e-01,1.978548914194107056e-01,1.103749796748161316e-01,2.455583661794662476e-01,2.005340307950973511e-01,2.265128344297409058e-01,4.798980057239532471e-01
1.594625860452651978e-01,1.955032050609588623e-01,4.333058372139930725e-02,6.337471306324005127e-02,6.722138077020645142e-02,1.565584093332290649e-01,1.058629006147384644e-01,3.078525885939598083e-02,-9.317766875028610229e-03,1.776398718357086182e-01,-5.067718774080276489e-02,1.439454704523086548e-01,1.686130166053771973e-01,-8.838602341711521149e-03,-5.608776956796646118e-02,-4.199377894401550293e-01
-3.848637640476226807e-02,3.565316647291183472e-02,1.537910997867584229e-01,2.613307163119316101e-02,1.305695772171020508e-01,1.322667952626943588e-02,2.858934178948402405e-02,5.836255475878715515e-02,-7.323943078517913818e-02,1.267751455307006836e-01,-1.833245716989040375e-02,-4.917088523507118225e-02,8.719912916421890259e-02,3.783097118139266968e-02,9.321153908967971802e-02,-2.701005339622497559e-01
-2.918259240686893463e-02,2.102978229522705078e-01,6.093550845980644226e-02,1.187165081501007080e-01,5.904701352119445801e-02,1.352424174547195435e-01,1.249675825238227844e-02,2.338091377168893814e-03,9.843023866415023804e-02,-1.840959675610065460e-02,6.017090752720832825e-02,8.309076726436614990e-02,8.605116605758666992e-02,1.762637346982955933e-01,8.333040773868560791e-02,-4.331817924976348877e-01
5.737755075097084045e-02,1.860707104206085205e-01,8.655793219804763794e-02,1.024989113211631775e-01,3.636530414223670959e-02,1.641330718994140625e-01,6.177986785769462585e-02,1.369059681892395020e-01,-2.028205431997776031e-02,6.362398562487214804e-05,3.855785727500915527e-02,-7.257843017578125000e-02,-7.684499770402908325e-02,-3.212338685989379883e-02,-3.330448269844055176e-02,-7.441158294677734375e-01
7.005432993173599243e-02,1.586823612451553345e-01,1.299133002758026123e-01,1.441513653844594955e-02,-6.713381409645080566e-02,4.329724702984094620e-03,5.981767550110816956e-02,7.476523052901029587e-03,-1.022672429680824280e-01,-2.657065354287624359e-02,-6.169966422021389008e-03,-6.237151846289634705e-02,-1.169888824224472046e-01,-5.726570263504981995e-02,-1.449324339628219604e-01,-8.033741712570190430e-01
-1.385846268385648727e-02,6.434557586908340454e-02,-1.232863776385784149e-02,1.343986690044403076e-01,3.181576356291770935e-02,-3.348835557699203491e-02,1.237226277589797974e-01,1.135832890868186951e-01,-9.120096266269683838e-02,5.377449467778205872e-02,1.033397540450096130e-01,2.762186899781227112e-02,7.715952815487980843e-04,-3.723609074950218201e-02,3.275491669774055481e-02,3.175236582756042480e-01
1.852871030569076538e-01,5.083779338747262955e-03,1.415724605321884155e-01,2.324558235704898834e-02,-3.825621679425239563e-02,7.397188246250152588e-02,2.201591432094573975e-02,1.044004634022712708e-01,8.480397611856460571e-02,1.014532521367073059e-01,6.489311903715133667e-02,5.187946837395429611e-03,5.629254505038261414e-02,1.479686424136161804e-02,-8.343545347452163696e-02,-6.068483591079711914e-01
6.412053108215332031e-02,-3.097811155021190643e-02,1.027460675686597824e-02,-1.264184415340423584e-01,3.176694363355636597e-02,2.719695447012782097e-03,-2.166916057467460632e-02,-2.663493156433105469e-02,3.760683536529541016e-02,-1.840997189283370972e-01,-5.543849617242813110e-02,-3.922605887055397034e-02,-1.869076341390609741e-01,-3.214943036437034607e-02,-1.456033289432525635e-01,-2.904057204723358154e-01
1.054996699094772339e-01,7.415077835321426392e-02,9.165651351213455200e-02,7.386352866888046265e-02,2.556795661803334951e-04,2.836550958454608917e-02,9.685388207435607910e-02,-2.182550542056560516e-02,1.287117153406143188e-01,2.754652686417102814e-02,6.169373169541358948e-02,-7.750972872599959373e-04,-8.258941769599914551e-02,7.733485847711563110e-02,-1.108916103839874268e-01,-5.636901855468750000e-01
2.770549803972244263e-02,-6.752478331327438354e-02,7.024532184004783630e-03,1.044718697667121887e-01,1.209262460470199585e-01,-2.780568040907382965e-02,1.301736682653427124e-01,-7.921209186315536499e-02,-5.576297640800476074e-02,7.933854311704635620e-02,9.040589630603790283e-02,5.204877629876136780e-02,-7.126241177320480347e-02,2.026927284896373749e-02,-9.661135077476501465e-02,-3.020446896553039551e-01
-6.787347793579101562e-02,-1.284288316965103149e-01,-1.758911162614822388e-01,-8.694140613079071045e-02,-3.134864941239356995e-02,-1.455820798873901367e-01,-1.963934302330017090e-01,-1.346208453178405762e-01,-1.025282889604568481e-01,-1.156198084354400635e-01,-1.293739378452301025e-01,-3.350545093417167664e-02,-1.141905784606933594e-01,-7.479613274335861206e-02,-1.208199486136436462e-01,3.587231338024139404e-01
-3.484441712498664856e-02,-5.885719135403633118e-02,-6.275489181280136108e-02,1.129669398069381714e-01,-4.347264394164085388e-02,-4.870786890387535095e-02,1.584056913852691650e-01,1.843130439519882202e-01,-3.806094080209732056e-02,1.744724214076995850e-01,1.669961959123611450e-01,4.041478037834167480e-02,8.447391539812088013e-02,1.425260752439498901e-01,1.771429777145385742e-01,-6.460203975439071655e-02
9.898704290390014648e-02,4.188084974884986877e-03,4.784636572003364563e-02,5.027697607874870300e-02,-7.485879585146903992e-03,-1.203060522675514221e-01,-6.389533728361129761e-02,-8.032060414552688599e-02,8.732817322015762329e-02,6.337662786245346069e-02,1.235316134989261627e-02,-1.253986209630966187e-01,7.974169403314590454e-02,8.497456461191177368e-02,-1.109522357583045959e-01,3.199809789657592773e-01
-2.201519310474395752e-01,-1.640958786010742188e-01,-1.608396023511886597e-01,-1.736223697662353516e-01,-1.725565493106842041e-01,-1.640777885913848877e-01,-4.521182551980018616e-02,-2.458572387695312500e-02,-9.355898201465606689e-02,-7.762444764375686646e-02,1.737329736351966858e-02,-1.339288204908370972e-01,-9.030632674694061279e-02,-1.068308725953102112e-01,-8.752083033323287964e-02,5.063916444778442383e-01
1.099977716803550720e-01,1.679178029298782349e-01,1.923891305923461914e-01,8.160094171762466431e-02,8.605260401964187622e-02,-5.870875716209411621e-02,-5.077437311410903931e-02,-3.533666254952549934e-03,-4.074552655220031738e-02,-4.539292305707931519e-02,-1.270293742418289185e-01,-1.771812587976455688e-01,1.117940247058868408e-02,4.040126502513885498e-02,-2.060256451368331909e-01,-7.631475925445556641e-01
2.261413633823394775e-02,1.475368887186050415e-01,-5.000305175781250000e-02,4.659066721796989441e-02,1.379091739654541016e-01,-8.652579784393310547e-02,1.352558284997940063e-01,-3.836936131119728088e-02,5.752334371209144592e-02,-3.874814510345458984e-02,5.186254531145095825e-02,-6.419754773378372192e-02,-7.105270773172378540e-02,-1.406975388526916504e-01,-8.781853318214416504e-02,-9.063298106193542480e-01
-2.414038330316543579e-01,-2.134042680263519287e-01,-1.468543261289596558e-01,-1.292573809623718262e-01,4.554826766252517700e-02,8.484993129968643188e-02,6.357558071613311768e-02,6.908107083290815353e-03,4.425874911248683929e-03,5.279141291975975037e-02,7.633600383996963501e-02,-4.832156468182802200e-03,6.724717468023300171e-02,1.962737292051315308e-01,1.783006638288497925e-02,7.761973738670349121e-01
7.309421896934509277e-02,-4.427966848015785217e-02,2.149388007819652557e-02,-3.182897716760635376e-02,-3.595682606101036072e-02,-4.168583545833826065e-03,-1.608296483755111694e-02,1.794806867837905884e-01,2.066222485154867172e-03,1.041754037141799927e-01,8.118145167827606201e-03,-3.487725742161273956e-03,-2.546095661818981171e-02,1.409010142087936401e-01,-2.723777294158935547e-02,4.886093139648437500e-01
-1.325452607125043869e-02,1.664768606424331665e-01,-1.040924154222011566e-02,-2.893641218543052673e-02,-7.083906233310699463e-02,-8.699800074100494385e-02,8.842441439628601074e-02,-1.019305363297462463e-01,5.868793930858373642e-03,8.595149964094161987e-02,3.170290216803550720e-02,-4.180758725851774216e-03,-8.574827760457992554e-02,-3.330687806010246277e-02,3.956456203013658524e-03,-6.676825284957885742e-01
-1.366833001375198364e-01,7.668168842792510986e-02,4.914969578385353088e-02,9.161731600761413574e-02,-5.502402782440185547e-02,-1.373798102140426636e-01,5.354936793446540833e-02,-2.104169689118862152e-02,-1.224101856350898743e-01,-6.344708055257797241e-02,5.099146068096160889e-02,1.393830925226211548e-01,1.257474422454833984e-01,2.311157761141657829e-03,7.295652292668819427e-03,6.151753067970275879e-01
-1.079804971814155579e-01,-1.176896989345550537e-01,-1.051234360784292221e-02,7.342702010646462440e-04,-1.044186875224113464e-01,-1.603341847658157349e-01,6.295059621334075928e-02,3.687080927193164825e-03,5.423572286963462830e-02,4.295294173061847687e-03,-1.120074768550693989e-03,-7.185121625661849976e-02,1.497505009174346924e-01,6.552482396364212036e-02,-1.313226204365491867e-02,5.822716355323791504e-01
-1.989202350378036499e-01,-2.847812138497829437e-02,-1.523218452930450439e-01,-1.546569764614105225e-01,2.799859503284096718e-03,-2.558884769678115845e-02,5.526898801326751709e-02,-1.251496560871601105e-02,-8.556419610977172852e-02,9.402594715356826782e-02,-1.868231780827045441e-02,2.562199905514717102e-02,9.097325056791305542e-02,-1.862382516264915466e-02,1.625871658325195312e-01,3.891411721706390381e-01
-2.475364878773689270e-02,-1.503100991249084473e-01,-5.189536139369010925e-02,3.714718297123908997e-02,2.225578948855400085e-02,-1.296625584363937378e-01,-2.417369559407234192e-02,-1.340474784374237061e-01,-6.618578918278217316e-03,4.892979562282562256e-02,-1.110464856028556824e-01,1.111430004239082336e-01,8.658784627914428711e-02,1.620184034109115601e-01,1.094833612442016602e-01,8.297500014305114746e-01
1.176826581358909607e-01,2.037002518773078918e-02,8.361507207155227661e-03,2.770709339529275894e-03,-2.864106558263301849e-02,3.963963594287633896e-03,3.374589234590530396e-02,1.433731764554977417e-01,-4.894440993666648865e-02,-1.710493676364421844e-02,-9.314814954996109009e-02,5.794308707118034363e-02,-1.100757420063018799e-01,5.646688863635063171e-02,-1.511549949645996094e-01,-9.112324714660644531e-01
-2.936246618628501892e-02,-2.211890928447246552e-02,1.823112517595291138e-01,1.549479216337203979e-01,5.007911846041679382e-02,1.052393112331628799e-02,2.269623801112174988e-02,8.085399866104125977e-02,-7.258029282093048096e-02,2.200147323310375214e-02,3.715321421623229980e-02,-1.246980652213096619e-01,-1.322665512561798096e-01,-9.346491843461990356e-02,-1.715389788150787354e-01,-7.099483013153076172e-01
-4.266873933374881744e-03,-4.633414000272750854e-02,-7.212267257273197174e-03,-1.568503975868225098e-01,-1.461731046438217163e-01,7.125085592269897461e-02,-7.590733468532562256e-02,4.978663474321365356e-02,-1.112001463770866394e-01,8.517707884311676025e-02,-9.147481061518192291e-03,7.847590744495391846e-02,1.500682979822158813e-01,4.034943133592605591e-02,2.113568037748336792e-01,6.841211915016174316e-01
8.501169830560684204e-02,-3.737648949027061462e-02,1.218603923916816711e-01,1.146501302719116211e-01,-1.505019958131015301e-03,6.038383394479751587e-02,6.433380395174026489e-02,-3.709332644939422607e-02,8.077917993068695068e-02,-6.786493211984634399e-02,-9.622634947299957275e-02,5.984355509281158447e-02,-7.179100811481475830e-02,-1.840443164110183716e-01,-4.377455264329910278e-02,-8.735996484756469727e-01
-6.581147015094757080e-02,-1.204744800925254822e-01,-3.227695822715759277e-02,-1.067716479301452637e-01,-5.837592110037803650e-02,1.640155352652072906e-02,1.189553067088127136e-01,-5.209857597947120667e-02,1.307812333106994629e-01,1.002600714564323425e-01,2.370456233620643616e-02,-3.003411553800106049e-02,9.115498512983322144e-02,-6.545944511890411377e-02,8.857596665620803833e-02,7.828777432441711426e-01
-1.320743374526500702e-02,-1.051509007811546326e-01,-1.569154858589172363e-02,-1.909873932600021362e-01,3.828262537717819214e-02,-2.719719521701335907e-02,4.557906650006771088e-03,3.141365200281143188e-02,4.675321653485298157e-02,-2.741040289402008057e-02,8.554475754499435425e-02,2.034511603415012360e-02,-9.002187848091125488e-02,9.380276501178741455e-02,1.194543913006782532e-01,6.128922104835510254e-01
9.786123409867286682e-03,1.159825921058654785e-01,8.013504743576049805e-02,1.032666787505149841e-01,3.100029751658439636e-02,-5.922250822186470032e-02,3.083574958145618439e-02,-1.007431298494338989e-01,2.637114841490983963e-03,-7.066257297992706299e-02,-7.713223248720169067e-02,-1.191294472664594650e-02,-1.010927706956863403e-01,-3.058532439172267914e-02,-1.808006688952445984e-02,-7.612161040306091309e-01
6.690970063209533691e-02,1.559992432594299316e-01,5.521218478679656982e-02,6.616239249706268311e-02,1.084164604544639587e-01,-7.817141711711883545e-02,4.948751628398895264e-02,1.337877102196216583e-02,-1.359821557998657227e-01,7.740509510040283203e-02,-1.414477527141571045e-01,7.365499436855316162e-02,-1.245507821440696716e-01,2.945145405828952789e-02,-1.321520805358886719e-01,-7.476897239685058594e-01
-1.584092974662780762e-01,-1.547192782163619995e-02,-7.983986288309097290e-02,-3.868882358074188232e-02,5.725204944610595703e-02,-8.949672430753707886e-02,-7.208292372524738312e-03,-2.375433407723903656e-02,-6.256462656892836094e-04,-6.386913824826478958e-03,8.717054873704910278e-02,-1.925532147288322449e-02,1.452623307704925537e-01,1.197465285658836365e-01,1.463527083396911621e-01,5.830233693122863770e-01
1.077159419655799866e-01,1.397980749607086182e-01,-1.864122040569782257e-02,5.387403443455696106e-02,7.101699709892272949e-02,-1.067266315221786499e-01,1.430148165673017502e-02,3.448447957634925842e-02,6.198566779494285583e-02,6.131216138601303101e-02,6.773782521486282349e-02,-4.841081798076629639e-02,-8.619775623083114624e-02,-1.259489357471466064e-01,1.193456072360277176e-02,-7.008317708969116211e-01
-2.023174613714218140e-02,5.754374340176582336e-02,5.910385400056838989e-02,5.066489800810813904e-02,7.102039642632007599e-03,-7.717003673315048218e-02,7.223287969827651978e-02,1.617080345749855042e-02,-2.258771844208240509e-02,1.742873713374137878e-02,-9.781294316053390503e-02,-6.382571905851364136e-02,-1.066797226667404175e-01,-2.642115950584411621e-02,2.463962417095899582e-03,1.778896749019622803e-01
-1.753978244960308075e-02,8.699485659599304199e-02,-7.892573252320289612e-03,8.962561935186386108e-02,5.264815688133239746e-02,-7.794085144996643066e-02,-3.394526988267898560e-02,-7.515616714954376221e-02,1.267894357442855835e-01,1.563645526766777039e-02,-4.961952567100524902e-02,-7.225999236106872559e-02,1.462897211313247681e-01,8.432397991418838501e-02,-3.003902174532413483e-02,-5.264820531010627747e-02
-1.013081818819046021e-01,-9.127861261367797852e-02,-1.159947142004966736e-01,-8.341555297374725342e-02,-6.516633927822113037e-02,-4.774719104170799255e-02,1.116364300251007080e-01,1.047832220792770386e-01,8.421421051025390625e-03,-5.244063679128885269e-03,8.761379122734069824e-02,1.757414788007736206e-01,1.731303483247756958e-01,2.461534738540649414e-01,6.880421191453933716e-02,5.454964637756347656e-01
-1.625640541315078735e-01,5.124415084719657898e-02,3.591775149106979370e-02,-1.602769047021865845e-01,7.893519476056098938e-03,7.453052699565887451e-02,1.503145671449601650e-03,-2.780183590948581696e-02,5.059868842363357544e-02,-4.431162774562835693e-02,-7.584629952907562256e-02,1.026224941015243530e-01,1.304565966129302979e-01,-6.231854110956192017e-02,1.073777750134468079e-01,7.313678264617919922e-01
-1.359342038631439209e-01,1.576840877532958984e-02,2.802629210054874420e-02,5.436855554580688477e-02,-6.755375117063522339e-02,-7.197087258100509644e-02,3.489594906568527222e-02,-4.464023932814598083e-02,-6.955848634243011475e-02,-7.461729645729064941e-02,4.470812901854515076e-02,-7.450740039348602295e-02,-1.846712455153465271e-02,3.592218458652496338e-02,6.388399749994277954e-02,-4.566405434161424637e-03
1.748712658882141113e-01,8.955735713243484497e-02,8.712254464626312256e-02,9.221829473972320557e-02,6.947913672775030136e-03,7.050196826457977295e-02,-2.120048971846699715e-03,1.038257181644439697e-01,1.882604323327541351e-02,-1.409323960542678833e-01,-1.038172282278537750e-02,-1.525608301162719727e-01,-1.215693727135658264e-01,-2.225513309240341187e-01,-9.865023195743560791e-02,-9.092055559158325195e-01
-1.091856658458709717e-01,-2.308240979909896851e-01,-2.117136567831039429e-01,-1.671928614377975464e-01,-1.595848053693771362e-02,-9.643106162548065186e-02,9.100069850683212280e-02,-1.001462060958147049e-02,-2.111796289682388306e-02,4.001162573695182800e-02,1.596419960260391235e-01,2.435488402843475342e-01,7.196727395057678223e-02,9.787745028734207153e-02,1.656519174575805664e-01,7.102916836738586426e-01
1.249549351632595062e-02,-6.085077673196792603e-02,-9.218689054250717163e-02,-4.688703455030918121e-03,-1.520935297012329102e-01,7.110898941755294800e-02,1.598848588764667511e-02,3.996205329895019531e-02,-1.106114760041236877e-01,1.147011741995811462e-01,-9.361129999160766602e-02,1.568914391100406647e-02,3.995584696531295776e-02,7.817400246858596802e-02,4.859710112214088440e-02,1.016760230064392090e+00
-5.743417516350746155e-02,-4.272337257862091064e-02,-1.011617854237556458e-01,-3.287777304649353027e-02,-7.589063025079667568e-04,-7.739377766847610474e-02,-5.025195330381393433e-02,2.911489829421043396e-02,-1.321720182895660400e-01,7.762350607663393021e-03,-6.722730398178100586e-02,-2.468617260456085205e-02,-9.599720686674118042e-02,-2.364439889788627625e-02,6.554464250802993774e-02,-1.247728168964385986e-01
3.250157088041305542e-02,-2.438483946025371552e-02,6.459747254848480225e-02,-1.720236428081989288e-02,-5.119839683175086975e-03,-5.521440878510475159e-02,1.368747204542160034e-01,-4.027242213487625122e-02,6.821377575397491455e-02,1.355222165584564209e-01,-7.047185301780700684e-02,1.140887886285781860e-01,8.231779187917709351e-02,3.643113002181053162e-02,3.459432860836386681e-03,-6.398016214370727539e-01
-1.493406444787979126e-01,-8.139681071043014526e-02,2.559031732380390167e-02,-1.295995265245437622e-01,4.840667545795440674e-02,3.510117158293724060e-02,-6.404707580804824829e-02,2.283916436135768890e-02,3.359942231327295303e-03,-6.859850138425827026e-02,5.853763967752456665e-02,3.916500136256217957e-02,1.924893818795681000e-02,4.865141957998275757e-02,7.076276093721389771e-02,6.628438234329223633e-01
2.260747738182544708e-02,9.208445250988006592e-02,1.108687594532966614e-01,-1.314768642187118530e-01,-2.408610098063945770e-02,7.906603813171386719e-02,-4.156497493386268616e-02,-2.046784013509750366e-02,-5.008560046553611755e-02,-1.009649410843849182e-01,-5.595041811466217041e-02,-2.524215541779994965e-02,9.474415332078933716e-02,-1.052160412073135376e-01,3.132824972271919250e-02,9.969070553779602051e-02
1.874510943889617920e-01,-1.626777835190296173e-02,-8.723293431103229523e-03,-1.126812212169170380e-02,1.344508081674575806e-01,-1.490622875280678272e-03,1.426216512918472290e-01,2.216281183063983917e-02,2.754972502589225769e-02,-9.211961925029754639e-02,-7.895959168672561646e-02,-1.476035118103027344e-01,-6.691332906484603882e-02,4.115504026412963867e-02,-5.152682587504386902e-02,-7.452102303504943848e-01
9.278900176286697388e-02,1.446155905723571777e-01,-3.500265255570411682e-02,2.196620218455791473e-02,1.338163912296295166e-01,-3.204590827226638794e-02,-3.984061628580093384e-02,-3.191658109426498413e-02,-4.223865456879138947e-03,-7.110357284545898438e-02,-7.401795685291290283e-02,4.812763631343841553e-02,-6.488762795925140381e-02,7.291992753744125366e-02,-3.629665588960051537e-03,-7.007139325141906738e-01
-1.133427396416664124e-02,-1.426473408937454224e-01,-8.384344726800918579e-02,-1.252930164337158203e-01,-9.770541638135910034e-02,2.350510284304618835e-02,1.090177968144416809e-01,-3.128052502870559692e-02,-4.416110739111900330e-02,-9.103544801473617554e-02,2.629430033266544342e-02,1.309705972671508789e-01,6.976164877414703369e-02,5.067697912454605103e-02,1.518773436546325684e-01,7.207659482955932617e-01
1.407774090766906738e-01,1.572203934192657471e-01,1.905890181660652161e-03,4.893390834331512451e-02,-8.880856633186340332e-02,-6.196635216474533081e-02,-3.458343213424086571e-03,8.291469514369964600e-02,1.008066460490226746e-01,-8.118133246898651123e-02,-5.002691224217414856e-02,-7.760363817214965820e-02,7.091329246759414673e-02,-5.372530221939086914e-02,-1.705949604511260986e-01,-8.920198678970336914e-01
-1.721426099538803101e-01,2.804204821586608887e-02,-1.225419342517852783e-01,1.526458305306732655e-03,2.673366665840148926e-02,-2.232588082551956177e-02,3.923539444804191589e-02,-1.274054497480392456e-01,7.378389686346054077e-02,7.383803278207778931e-02,-4.872331395745277405e-02,1.030955836176872253e-01,1.261667460203170776e-01,1.444024145603179932e-01,-3.027491085231304169e-02,5.503081679344177246e-01
1.992932409048080444e-01,-3.524550423026084900e-02,3.581711649894714355e-02,4.813088104128837585e-02,5.134380236268043518e-02,-3.327980637550354004e-03,-2.218575403094291687e-02,1.999347470700740814e-02,-1.968177035450935364e-02,5.727646499872207642e-02,-6.964499503374099731e-02,-6.323097646236419678e-02,5.464054644107818604e-02,-9.928132593631744385e-02,-1.282926052808761597e-01,-9.241767525672912598e-01
-9.123152494430541992e-02,-1.463887393474578857e-01,-8.551274240016937256e-02,3.609346598386764526e-02,1.495963428169488907e-02,2.492879144847393036e-02,-1.181318908929824829e-01,-1.018000617623329163e-01,-6.942333281040191650e-02,6.545916199684143066e-02,1.552791595458984375e-01,2.238345891237258911e-02,1.592039465904235840e-01,6.122758984565734863e-02,5.726699903607368469e-02,8.468309044837951660e-01
-3.031490370631217957e-02,3.174126520752906799e-02,1.444338709115982056e-01,1.029066294431686401e-01,1.780568622052669525e-02,6.398614030331373215e-03,-5.407066270709037781e-02,-8.079507201910018921e-02,1.222892776131629944e-01,-7.063056528568267822e-02,8.572345227003097534e-02,-6.046691164374351501e-02,1.160366907715797424e-01,7.506760768592357635e-03,-1.070027053356170654e-01,-5.743225216865539551e-01
-9.997648745775222778e-02,1.361420843750238419e-02,-5.279691889882087708e-02,-2.052358817309141159e-03,-3.248141333460807800e-02,-1.077195554971694946e-01,2.959526143968105316e-02,3.490028157830238342e-02,-6.642940640449523926e-02,-5.158483237028121948e-02,1.347388178110122681e-01,1.381761282682418823e-01,1.653191000223159790e-01,-3.278904035687446594e-02,-7.016219198703765869e-02,7.213001251220703125e-01
9.569232910871505737e-02,4.739889409393072128e-03,1.227440312504768372e-01,1.306980848312377930e-01,6.260465830564498901e-02,3.702707588672637939e-02,-8.459760283585637808e-05,-2.905911579728126526e-02,8.214405924081802368e-02,-1.008025407791137695e-01,-7.673487812280654907e-02,1.745173707604408264e-02,-1.063966006040573120e-01,-1.308890581130981445e-01,-2.012711614370346069e-01,-5.452861189842224121e-01
-9.207000583410263062e-02,3.151988238096237183e-02,-7.940941303968429565e-02,-6.662817299365997314e-02,-2.537083066999912262e-02,-5.284655466675758362e-02,9.396564215421676636e-02,-7.478906959295272827e-02,-1.410687807947397232e-03,1.052784472703933716e-01,3.533251211047172546e-02,-1.024864092469215393e-01,-1.530850771814584732e-03,1.545573174953460693e-01,-1.388981286436319351e-02,7.372527718544006348e-01
-1.379300057888031006e-01,-1.473728716373443604e-01,-1.221538335084915161e-01,1.950677111744880676e-02,-7.017560303211212158e-02,7.848048210144042969e-02,3.534203162416815758e-03,-7.485949993133544922e-02,8.456295728683471680e-02,-9.892293810844421387e-02,-6.221087649464607239e-02,1.202552467584609985e-01,1.500215977430343628e-01,1.086506620049476624e-01,1.276931762695312500e-01,8.110277652740478516e-01
-5.690275505185127258e-02,9.586448967456817627e-02,1.956132473424077034e-03,4.678767547011375427e-02,6.222277414053678513e-03,-1.055742725729942322e-01,8.954791724681854248e-02,-3.678418695926666260e-02,3.296873345971107483e-02,-8.971459418535232544e-02,-3.451248258352279663e-02,1.146197225898504257e-02,3.905190154910087585e-02,-1.415772289037704468e-01,3.137236461043357849e-02,1.593160256743431091e-02
-1.451101899147033691e-01,2.104070037603378296e-02,-1.000655964016914368e-01,-1.828533038496971130e-02,-5.431111529469490051e-02,-9.157179854810237885e-03,7.128109782934188843e-02,1.197632104158401489e-01,-6.486827135086059570e-02,5.959526076912879944e-02,1.182122603058815002e-01,8.309235423803329468e-02,1.720627397298812866e-01,6.064728833734989166e-03,-1.735104992985725403e-02,7.725196480751037598e-01
-4.729377478361129761e-02,-6.079853698611259460e-02,1.500549167394638062e-01,5.332385376095771790e-02,1.012723147869110107e-01,7.013247907161712646e-02,-1.062665507197380066e-01,-6.687597930431365967e-02,1.066428329795598984e-02,-9.185544215142726898e-03,6.003876775503158569e-02,6.602725479751825333e-03,3.581603243947029114e-02,-4.380248114466667175e-02,-1.583869159221649170e-01,-9.209582805633544922e-01
-2.410252951085567474e-02,-9.046765416860580444e-02,4.244857281446456909e-02,-1.238865926861763000e-01,-3.713358193635940552e-03,9.399940259754657745e-03,-5.407974496483802795e-02,-5.154639109969139099e-02,8.717544376850128174e-02,-8.839123696088790894e-02,5.113907530903816223e-02,5.234386771917343140e-02,9.388930164277553558e-03,9.253999590873718262e-02,-5.343438684940338135e-02,8.562226891517639160e-01
1.172315180301666260e-01,1.248413696885108948e-01,2.941929548978805542e-02,1.545385122299194336e-01,6.305970996618270874e-02,1.810788661241531372e-01,8.211402222514152527e-03,1.151643842458724976e-01,1.405638456344604492e-01,1.698680222034454346e-01,-8.297474123537540436e-04,3.442173078656196594e-02,-3.247604891657829285e-02,1.941950619220733643e-02,-4.220104962587356567e-02,-4.426383972167968750e-01
4.930775985121726990e-02,5.266024265438318253e-03,7.357868552207946777e-02,3.785005956888198853e-02,-6.943337619304656982e-02,-4.743577167391777039e-02,8.704983443021774292e-02,-1.628435216844081879e-02,-3.661837428808212280e-02,6.969516724348068237e-02,5.922878906130790710e-02,-2.693731337785720825e-02,-1.600889675319194794e-02,-5.085366964340209961e-02,-1.119797676801681519e-01,-7.564540505409240723e-01
8.583485335111618042e-02,-4.561870545148849487e-02,2.519254758954048157e-02,1.556940227746963501e-01,-3.707931190729141235e-02,2.825952542480081320e-04,-9.219947457313537598e-02,-7.775987498462200165e-03,-5.993135273456573486e-02,-1.125562004745006561e-02,-2.022863738238811493e-02,2.085791341960430145e-02,-1.419020146131515503e-01,-8.468656241893768311e-02,-1.488099433481693268e-02,-4.360708892345428467e-01
1.368066966533660889e-01,-2.246686816215515137e-02,8.688355982303619385e-02,1.353246066719293594e-02,7.502613961696624756e-02,-5.409412086009979248e-03,8.121884614229202271e-02,4.815948754549026489e-02,-3.544276580214500427e-02,-6.065747886896133423e-02,-2.148299850523471832e-02,-9.040036797523498535e-02,-6.257325410842895508e-02,-1.708173900842666626e-01,-1.782757416367530823e-02,-7.600539922714233398e-01
6.783034652471542358e-02,1.611420959234237671e-01,-9.580187499523162842e-03,1.199237164109945297e-02,-2.052276395261287689e-02,7.324954122304916382e-02,-7.113415002822875977e-02,-6.740387529134750366e-02,6.310710310935974121e-02,1.018846035003662109e-01,-6.094161793589591980e-02,-5.006060004234313965e-03,-9.074716269969940186e-02,7.166600972414016724e-02,-9.531518071889877319e-02,-8.491457104682922363e-01
-9.773986041545867920e-02,-1.001173555850982666e-01,8.861799538135528564e-02,5.794716626405715942e-02,1.120040193200111389e-02,4.273105040192604065e-02,8.282347023487091064e-02,7.624638825654983521e-02,1.182143762707710266e-02,-1.327087432146072388e-01,4.992147162556648254e-02,-1.173371821641921997e-01,-1.139993146061897278e-01,-2.006872743368148804e-01,-1.843476593494415283e-01,-5.008332133293151855e-01
-1.727771908044815063e-01,-5.971492454409599304e-02,5.915592238306999207e-02,2.941587299574166536e-04,8.586587756872177124e-02,9.769145399332046509e-02,-6.681659817695617676e-02,-4.261530563235282898e-02,-6.803289521485567093e-03,-3.863234538584947586e-03,-2.797163324430584908e-03,1.063133124262094498e-03,7.842291146516799927e-02,3.471189737319946289e-02,-3.019422583747655153e-04,8.922773599624633789e-01
-1.074280962347984314e-01,-9.884245693683624268e-02,-1.584105379879474640e-02,-1.305525749921798706e-01,-2.416864223778247833e-02,-3.166578710079193115e-02,-1.261410117149353027e-01,-1.116109732538461685e-02,-7.575234025716781616e-02,5.830122530460357666e-02,4.327938705682754517e-02,4.066420719027519226e-02,2.989040128886699677e-02,1.382773369550704956e-01,1.580544263124465942e-01,8.319907188415527344e-01
9.411896020174026489e-02,1.099070459604263306e-01,-2.656893245875835419e-02,-1.143348310142755508e-02,-8.071552147157490253e-04,-4.712020978331565857e-02,1.369653362780809402e-02,4.207594692707061768e-02,-7.214223593473434448e-02,-9.354130178689956665e-02,3.298851102590560913e-02,-3.792703151702880859e-02,1.140476018190383911e-02,3.865589620545506477e-03,-3.933791816234588623e-02,-2.068022638559341431e-01
3.598254919052124023e-02,1.395549532026052475e-02,2.007792890071868896e-01,1.894933432340621948e-01,-6.500802189111709595e-02,1.555864065885543823e-01,7.386615127325057983e-02,1.952286111190915108e-04,3.453699871897697449e-02,3.639233112335205078e-02,-9.368900209665298462e-02,-1.552018523216247559e-01,-6.743679940700531006e-02,-1.562853008508682251e-01,-2.379267066717147827e-01,-8.757008910179138184e-01
2.049218304455280304e-02,3.757984610274434090e-03,-5.852882564067840576e-02,-1.434480994939804077e-01,4.508534818887710571e-02,8.935484290122985840e-02,-9.419287741184234619e-02,-1.190514490008354187e-01,-1.888790167868137360e-02,-8.711583912372589111e-02,3.302592318505048752e-03,6.130219250917434692e-02,8.696858584880828857e-02,6.930536776781082153e-02,1.514196991920471191e-01,3.726928532123565674e-01
-1.404605209827423096e-01,-1.236034408211708069e-01,-1.188838407397270203e-01,-8.880961686372756958e-03,1.799389906227588654e-02,-1.669126376509666443e-02,1.184853538870811462e-01,-5.764128267765045166e-02,-2.957057394087314606e-02,5.536832381039857864e-03,6.594312377274036407e-03,1.075456514954566956e-01,5.933437123894691467e-02,7.019726186990737915e-02,3.913852944970130920e-02,8.969962596893310547e-01
4.747361689805984497e-02,-9.429074823856353760e-02,-9.457767009735107422e-02,3.241235017776489258e-02,-1.623253077268600464e-01,-1.161396130919456482e-01,-1.532016247510910034e-01,-1.632612794637680054e-01,4.025110602378845215e-02,7.772835344076156616e-02,-4.967100173234939575e-02,-1.536138355731964111e-01,-7.345627993345260620e-02,7.547513395547866821e-02,-7.375172525644302368e-02,1.213250085711479187e-01
-4.236754402518272400e-02,-8.825910836458206177e-02,-6.320200860500335693e-02,5.650533735752105713e-02,3.735983744263648987e-02,6.375174224376678467e-02,6.272368878126144409e-02,5.075098946690559387e-02,-9.369686245918273926e-02,-1.441814154386520386e-01,3.806673921644687653e-03,-1.318746358156204224e-01,-2.795174717903137207e-02,2.710805647075176239e-02,3.686438873410224915e-02,-4.071351587772369385e-01
5.121083557605743408e-02,1.257036179304122925e-01,6.645442545413970947e-02,8.844104409217834473e-02,-9.128695726394653320e-02,1.751970266923308372e-03,-3.651173412799835205e-02,-8.245319128036499023e-02,2.351903915405273438e-02,-6.464350223541259766e-02,1.604183614253997803e-01,1.744657568633556366e-02,-5.525453016161918640e-02,2.733408287167549133e-02,1.082391217350959778e-01,3.731934726238250732e-01
1.073657646775245667e-01,-3.003415465354919434e-02,7.031043618917465210e-02,-5.247810855507850647e-02,1.264388673007488251e-02,7.485590875148773193e-02,-4.477841779589653015e-02,-8.025832474231719971e-02,2.402591891586780548e-02,-1.210123449563980103e-01,-7.264676690101623535e-02,4.594170302152633667e-02,1.029878035187721252e-01,-1.200585439801216125e-01,8.771356195211410522e-02,-1.265818327665328979e-01
1.514835804700851440e-01,2.058938741683959961e-01,2.123773396015167236e-01,5.592600908130407333e-03,3.433294221758842468e-02,1.220512762665748596e-01,1.737987399101257324e-01,1.183142066001892090e-01,-3.017486631870269775e-02,7.300170511007308960e-02,5.203856155276298523e-02,-5.778682976961135864e-02,5.243852734565734863e-02,-1.481581758707761765e-02,-6.521774083375930786e-02,-4.954940974712371826e-01
-8.296401053667068481e-02,3.191855922341346741e-02,2.146708406507968903e-02,9.828067570924758911e-02,3.088583797216415405e-02,-6.288652867078781128e-02,-8.540531992912292480e-02,-1.318035647273063660e-02,3.840287402272224426e-02,-4.112179577350616455e-02,-9.998048841953277588e-02,-4.162083193659782410e-02,1.158363670110702515e-01,1.268361359834671021e-01,1.556647717952728271e-01,4.576897919178009033e-01
-1.275452598929405212e-02,7.946109026670455933e-02,3.227572515606880188e-02,-1.664171181619167328e-02,7.675408571958541870e-02,-4.653135687112808228e-02,2.297729812562465668e-02,-8.256562054157257080e-02,8.635525405406951904e-02,-7.826007157564163208e-02,2.572458051145076752e-02,-7.365681976079940796e-02,6.767348945140838623e-02,-8.480103313922882080e-02,-8.141794800758361816e-02,2.936936728656291962e-02
7.489946484565734863e-02,-3.222009912133216858e-02,-5.231260880827903748e-02,1.241768300533294678e-01,1.112318038940429688e-01,7.078012451529502869e-03,1.286570681259036064e-03,3.020124323666095734e-02,-3.594970330595970154e-02,1.291002929210662842e-01,-5.781545862555503845e-02,2.107634209096431732e-02,3.613715246319770813e-02,-1.132119074463844299e-01,1.202501729130744934e-02,-4.606702923774719238e-01
1.538025885820388794e-01,8.446357212960720062e-03,1.109807267785072327e-01,3.428162261843681335e-02,7.563176751136779785e-02,-1.605800166726112366e-02,6.423288583755493164e-02,-1.626830175518989563e-02,1.568049937486648560e-01,1.719614565372467041e-01,1.698574870824813843e-01,-1.930159144103527069e-02,1.122153475880622864e-01,-4.263488203287124634e-02,-1.739565096795558929e-02,2.734337151050567627e-01
-9.102229028940200806e-03,-8.465986698865890503e-03,-2.405302971601486206e-02,5.157198011875152588e-02,-7.536562532186508179e-02,-1.513290405273437500e-01,-1.426906138658523560e-01,-9.540711343288421631e-02,1.500849332660436630e-02,-1.272571384906768799e-01,-6.602075695991516113e-02,-3.574313595890998840e-02,-9.145555645227432251e-02,-8.020781725645065308e-02,3.860239312052726746e-02,4.123454391956329346e-01
1.901751011610031128e-01,2.026061564683914185e-01,1.087618246674537659e-01,1.947834491729736328e-01,4.400403052568435669e-02,1.767211705446243286e-01,7.598384283483028412e-03,1.435198187828063965e-01,1.253263205289840698e-01,1.915928423404693604e-01,-1.178268995136022568e-02,5.313748866319656372e-02,1.573800444602966309e-01,1.840770691633224487e-01,1.261609345674514771e-01,3.176304996013641357e-01
-1.370550394058227539e-01,-1.449494063854217529e-01,-3.307045437395572662e-03,3.386466950178146362e-02,7.401819527149200439e-02,-6.295346468687057495e-02,6.884755194187164307e-02,4.769280552864074707e-02,-2.481472864747047424e-02,1.135464161634445190e-01,-4.221782088279724121e-02,3.326687589287757874e-02,-5.669789016246795654e-02,1.269880086183547974e-01,-3.389970585703849792e-02,7.499739527702331543e-01
-1.488895341753959656e-02,8.524437993764877319e-02,-2.243995107710361481e-02,1.351196970790624619e-02,7.390948385000228882e-02,8.177173137664794922e-02,-8.805437386035919189e-02,7.788696326315402985e-03,-1.997185871005058289e-02,-4.731351137161254883e-02,1.070944145321846008e-01,1.583544164896011353e-01,1.545926183462142944e-01,-5.999557906761765480e-04,3.564693033695220947e-02,4.543114006519317627e-01
8.550550043582916260e-02,2.172211557626724243e-02,1.355954352766275406e-02,9.796518087387084961e-02,-2.713218517601490021e-02,1.053637042641639709e-01,3.175282478332519531e-02,4.017362743616104126e-02,-3.757572546601295471e-02,-1.930799148976802826e-02,-9.842017292976379395e-02,-2.262012474238872528e-02,-9.553526341915130615e-02,-7.299390435218811035e-02,-1.213430240750312805e-02,-6.211569905281066895e-01
-7.985075004398822784e-03,9.978334605693817139e-02,1.502678841352462769e-01,-3.303155675530433655e-02,1.550691127777099609e-01,8.732360601425170898e-02,-3.404732793569564819e-02,-2.288390137255191803e-02,-5.271658301353454590e-02,1.189963743090629578e-01,-4.155072569847106934e-02,1.834325194358825684e-01,3.221168369054794312e-02,1.256862878799438477e-01,1.605661958456039429e-01,6.935709118843078613e-01
-1.158412322402000427e-01,1.332629285752773285e-02,1.013108491897583008e-01,2.059665881097316742e-02,9.627705812454223633e-02,7.979418337345123291e-02,1.563810706138610840e-01,4.014018550515174866e-02,1.845829002559185028e-02,2.980889566242694855e-02,1.784813851118087769e-01,1.533497422933578491e-01,1.941238194704055786e-01,1.423532962799072266e-01,1.327399611473083496e-01,2.252670377492904663e-01
7.841744273900985718e-02,-4.006646573543548584e-02,5.758594349026679993e-02,-1.134236603975296021e-01,-8.163315802812576294e-02,1.354522258043289185e-01,3.619548305869102478e-02,3.222135081887245178e-02,1.486506760120391846e-01,1.382786631584167480e-01,1.478003263473510742e-01,3.073418326675891876e-02,5.857237055897712708e-02,1.696986705064773560e-01,1.462223082780838013e-01,4.290701448917388916e-01
9.462641552090644836e-03,2.557551674544811249e-02,-5.330444499850273132e-02,-6.996341794729232788e-02,3.258099406957626343e-02,1.207665726542472839e-02,-3.901946544647216797e-02,2.980314381420612335e-02,-1.255828887224197388e-02,-9.380307048559188843e-02,5.064179748296737671e-02,-8.639627695083618164e-02,7.041294872760772705e-02,6.779741961508989334e-04,-3.984900936484336853e-02,-2.471976131200790405e-01
-4.825048148632049561e-02,-1.219543814659118652e-01,-2.115603722631931305e-02,-8.759532123804092407e-02,-1.208964958786964417e-01,-7.263268530368804932e-02,-6.567488610744476318e-02,-1.033239997923374176e-02,-1.282928586006164551e-01,-6.871865689754486084e-02,1.366222649812698364e-02,-8.118963986635208130e-02,3.548793494701385498e-02,-7.721231877803802490e-02,-8.480615168809890747e-02,-3.209404945373535156e-01
2.050328813493251801e-02,7.724332623183727264e-03,6.770990788936614990e-02,-2.415101230144500732e-02,5.992789287120103836e-03,-2.258463017642498016e-02,8.132310956716537476e-02,4.652860388159751892e-02,-4.722701851278543472e-03,-1.179675906896591187e-01,1.140165552496910095e-01,7.001447677612304688e-02,3.653888404369354248e-02,-1.630113273859024048e-02,1.477877795696258545e-01,4.318588972091674805e-01
-8.167073130607604980e-02,-1.927905529737472534e-02,-7.194212824106216431e-02,-5.611644312739372253e-02,1.304360479116439819e-01,2.892505936324596405e-02,-4.472900182008743286e-03,1.595465652644634247e-02,-1.190667133778333664e-02,7.417972199618816376e-03,1.593197286128997803e-01,6.677152961492538452e-02,5.822858214378356934e-02,8.161565661430358887e-02,-3.817917034029960632e-02,4.402450621128082275e-01
1.849090158939361572e-01,1.037014089524745941e-02,-1.808244921267032623e-02,1.336936373263597488e-02,-3.216084465384483337e-02,6.386175006628036499e-02,1.505006700754165649e-01,7.303614169359207153e-02,-9.012906253337860107e-02,-8.177352696657180786e-02,4.202735051512718201e-02,-1.428669840097427368e-01,-2.343944460153579712e-02,-1.105757504701614380e-01,-1.396921575069427490e-01,-8.297626972198486328e-01
6.478434801101684570e-02,3.332358226180076599e-02,4.788832366466522217e-02,-6.431583315134048462e-02,5.457003042101860046e-02,-3.924030810594558716e-02,-1.675755344331264496e-02,3.754701837897300720e-02,-1.222993060946464539e-01,-1.874746941030025482e-02,3.250054642558097839e-02,-5.769321322441101074e-02,1.038000453263521194e-02,-1.513243280351161957e-02,-7.402051985263824463e-02,-5.277799963951110840e-01
-7.375689595937728882e-02,-1.065602377057075500e-01,-7.613884657621383667e-02,4.411040619015693665e-02,8.343975991010665894e-02,-5.607148632407188416e-02,6.188806518912315369e-02,2.695886045694351196e-02,-3.203796967864036560e-02,-8.506386540830135345e-03,-7.174627482891082764e-02,2.803954109549522400e-02,-3.210942819714546204e-02,1.789202690124511719e-01,1.682965159416198730e-01,4.198260009288787842e-01
1.293350756168365479e-01,1.186109036207199097e-01,-9.883156418800354004e-02,1.177611127495765686e-01,-2.934897132217884064e-02,-1.354560106992721558e-01,-3.578751161694526672e-02,-4.638017714023590088e-02,-4.893233999609947205e-04,-3.196041798219084740e-03,7.598663680255413055e-03,-1.248106062412261963e-01,-1.212629973888397217e-01,-1.107893437147140503e-01,-8.232140541076660156e-02,-5.568674802780151367e-01
3.620397299528121948e-02,6.863787025213241577e-02,1.239351183176040649e-02,-3.044872311875224113e-03,1.066566072404384613e-02,-7.856099307537078857e-02,-1.341133862733840942e-01,-8.965294808149337769e-02,-1.670338585972785950e-02,-1.682019680738449097e-01,-1.030056476593017578e-01,3.974250331521034241e-02,-1.886467188596725464e-01,-6.388008594512939453e-02,-1.427801102399826050e-01,-5.803806781768798828e-01
-8.311568200588226318e-02,8.963365852832794189e-02,8.769378066062927246e-02,9.942586719989776611e-02,-7.669338583946228027e-02,7.151018828153610229e-02,4.559361189603805542e-02,7.152434438467025757e-02,1.215833518654108047e-02,2.804960357025265694e-03,-1.495278626680374146e-01,6.555592268705368042e-02,-5.688139423727989197e-02,-1.585767120122909546e-01,-1.938349306583404541e-01,-8.027909398078918457e-01
1.325285248458385468e-02,1.666636951267719269e-02,7.824128121137619019e-02,-8.086835592985153198e-02,-9.172333031892776489e-02,-5.378189682960510254e-02,-3.740397840738296509e-02,5.774276703596115112e-02,8.916354179382324219e-02,-6.188513338565826416e-02,5.782203376293182373e-02,5.219742283225059509e-02,7.113777566701173782e-03,-7.338640093803405762e-02,-1.500497311353683472e-01,-2.766142189502716064e-01
-9.682668000459671021e-02,-1.453082915395498276e-02,2.946903742849826813e-02,1.425543334335088730e-02,9.958629310131072998e-02,5.090908613055944443e-03,-3.132562339305877686e-02,-4.287615045905113220e-02,5.227116122841835022e-02,-4.441964626312255859e-02,-6.969394534826278687e-02,2.586361393332481384e-02,-6.314479559659957886e-02,-1.311140209436416626e-01,4.612736229319125414e-04,-5.248764157295227051e-01
-3.480452671647071838e-02,6.148576736450195312e-02,1.368602067232131958e-01,1.120191216468811035e-01,1.146571785211563110e-01,1.335157603025436401e-01,-6.635394692420959473e-02,-2.749859169125556946e-02,-5.835057049989700317e-02,1.192748770117759705e-01,-3.134668618440628052e-02,2.372703514993190765e-02,-7.036340236663818359e-02,-1.497898697853088379e-01,-2.969877049326896667e-02,-2.820578813552856445e-01
-8.421475067734718323e-03,3.220228850841522217e-02,-4.250388219952583313e-02,-4.385703802108764648e-02,-1.109169274568557739e-01,6.937029212713241577e-02,3.364813327789306641e-02,-1.577941179275512695e-01,-3.335713222622871399e-02,-9.194167703390121460e-02,6.186770647764205933e-02,-8.747914433479309082e-02,5.977345630526542664e-02,-3.117633983492851257e-02,-2.176831662654876709e-02,-5.089195966720581055e-01
-6.982062011957168579e-03,7.115169614553451538e-02,-2.662208303809165955e-02,1.291567385196685791e-01,9.166444092988967896e-02,-5.050134286284446716e-02,-1.987589150667190552e-02,1.341239362955093384e-01,5.649778246879577637e-02,5.278046242892742157e-03,-9.074449539184570312e-02,1.029664203524589539e-01,-3.293848037719726562e-02,-1.445533037185668945e-01,-8.681161701679229736e-02,-5.511016249656677246e-01
2.805106341838836670e-01,2.221481800079345703e-01,2.508463561534881592e-01,1.866868138313293457e-01,3.264306783676147461e-01,1.272396445274353027e-01,2.839690744876861572e-01,1.301938742399215698e-01,2.674556672573089600e-01,2.371426820755004883e-01,3.182921409606933594e-01,2.467496544122695923e-01,1.544355601072311401e-01,1.040004417300224304e-01,1.718333065509796143e-01,-2.375163435935974121e-01
-9.057523310184478760e-02,-9.757294319570064545e-03,-1.779872551560401917e-02,-1.137610804289579391e-02,-1.488591581583023071e-01,-1.623132973909378052e-01,-2.022112309932708740e-01,-1.988467723131179810e-01,-9.801704436540603638e-02,3.668749472126364708e-03,-1.938055753707885742e-01,-1.305957138538360596e-01,-6.668447703123092651e-02,-1.530379652976989746e-01,-1.438746154308319092e-01,3.673574328422546387e-01
2.210997045040130615e-02,1.199930980801582336e-01,9.701563417911529541e-02,-7.415582984685897827e-02,-4.762852191925048828e-02,-1.020217016339302063e-01,7.756266742944717407e-02,-6.259051617234945297e-03,-1.112046688795089722e-01,-7.877615280449390411e-03,-3.660323843359947205e-02,-9.765505790710449219e-02,-1.080670729279518127e-01,-1.350609958171844482e-01,-1.583905518054962158e-01,-7.780719995498657227e-01
-1.586912944912910461e-02,-5.987501353956758976e-04,5.512202158570289612e-02,-4.273527860641479492e-02,3.620639815926551819e-02,3.646390140056610107e-02,-1.038926765322685242e-01,-5.901253223419189453e-02,8.531319350004196167e-02,5.695161595940589905e-02,-8.771369606256484985e-02,-1.232493519783020020e-01,-1.482371687889099121e-01,-2.738140523433685303e-02,1.980795711278915405e-02,-6.296648979187011719e-01
1.480331569910049438e-01,-8.239556103944778442e-02,7.334306091070175171e-02,-6.475411355495452881e-02,-3.970636427402496338e-02,-1.280238777399063110e-01,-1.242765709757804871e-01,1.063837390393018723e-02,6.550355255603790283e-02,-2.354629337787628174e-02,6.494636088609695435e-02,-1.559519395232200623e-02,-3.361248224973678589e-02,-2.719320543110370636e-02,-4.051403328776359558e-02,-7.714487910270690918e-01
-2.325939945876598358e-02,3.921677358448505402e-03,5.257654935121536255e-02,9.061838686466217041e-02,-3.888612240552902222e-02,4.759824275970458984e-02,1.355221718549728394e-01,4.707725718617439270e-03,1.033179461956024170e-01,9.404376894235610962e-02,-1.855226792395114899e-02,-1.015767082571983337e-01,-2.582431398332118988e-02,-9.788319468498229980e-02,-5.926360562443733215e-02,-1.987680345773696899e-01
1.086799427866935730e-01,6.411721557378768921e-02,3.170283883810043335e-02,1.035344228148460388e-01,-8.767875283956527710e-02,-3.799419477581977844e-02,-1.200075447559356689e-01,-1.009432300925254822e-01,-4.097107425332069397e-02,-9.178537130355834961e-02,-4.802663996815681458e-02,-1.112495288252830505e-01,-1.216115206480026245e-01,-5.973506346344947815e-02,1.262745726853609085e-02,-8.052610158920288086e-01
-2.230428345501422882e-02,1.500382274389266968e-01,8.087538182735443115e-03,1.437006331980228424e-02,-9.215351939201354980e-02,8.970059454441070557e-02,5.038040131330490112e-02,-1.173867657780647278e-01,-5.177390202879905701e-02,-5.070356652140617371e-03,6.148774176836013794e-02,6.632362306118011475e-02,-6.659314036369323730e-02,-9.191327542066574097e-02,7.366453111171722412e-02,-5.011596083641052246e-01
-9.701244533061981201e-03,4.557462781667709351e-02,4.973698407411575317e-02,3.736385703086853027e-02,1.066244170069694519e-01,1.954531967639923096e-01,-1.392468623816967010e-02,1.279654353857040405e-01,1.620743870735168457e-01,1.045183539390563965e-01,6.780137121677398682e-02,1.455192118883132935e-01,-9.492724202573299408e-03,1.230784580111503601e-01,4.650121927261352539e-02,3.926347792148590088e-01
7.068196684122085571e-02,-4.184782132506370544e-02,4.210523143410682678e-02,5.644211918115615845e-02,-5.535624176263809204e-02,7.311626523733139038e-02,1.868144609034061432e-02,-8.318224549293518066e-02,-9.653506428003311157e-02,-9.445945173501968384e-02,-4.245031252503395081e-02,-1.969250440597534180e-01,-1.115709394216537476e-01,-5.672353506088256836e-02,-4.321520403027534485e-02,-6.448270082473754883e-01
2.168983593583106995e-02,-3.319502249360084534e-02,5.156178027391433716e-02,1.332792937755584717e-01,5.018950439989566803e-03,7.479580491781234741e-02,-1.284343898296356201e-01,-8.044196292757987976e-03,7.378017995506525040e-03,-1.503902822732925415e-01,-5.939237773418426514e-02,-1.458503454923629761e-01,-1.420753449201583862e-01,-1.539433151483535767e-01,3.224834799766540527e-02,-3.616036474704742432e-01
-2.884868718683719635e-02,-2.318280190229415894e-02,3.408979251980781555e-02,3.377861529588699341e-02,-4.720709286630153656e-03,7.242613285779953003e-02,-2.203841140726581216e-04,-2.598004974424839020e-02,-5.051051452755928040e-02,-1.333873122930526733e-01,-1.277884691953659058e-01,-1.541860699653625488e-01,-8.527787774801254272e-02,-5.088686197996139526e-02,-1.364629864692687988e-01,-7.763169407844543457e-01
-7.901583611965179443e-02,1.186596527695655823e-01,4.832806810736656189e-02,1.101878583431243896e-01,-5.858724191784858704e-02,1.102080494165420532e-01,5.304018780589103699e-02,7.511201500892639160e-02,1.793163269758224487e-02,3.384271636605262756e-02,3.414307162165641785e-02,2.350260131061077118e-02,7.523126155138015747e-02,-3.965197876095771790e-02,3.312473371624946594e-02,-3.123372793197631836e-01
-3.273787349462509155e-02,-1.199578568339347839e-01,5.921389907598495483e-02,-7.511507719755172729e-04,-1.382282227277755737e-01,-4.516478627920150757e-02,-1.120595857501029968e-01,-7.248210906982421875e-02,-1.802756339311599731e-01,-6.067245453596115112e-02,-2.175931073725223541e-02,-1.140645742416381836e-01,-6.675580888986587524e-02,-2.102276384830474854e-01,-1.803824305534362793e-01,-1.427579522132873535e-01
7.293805014342069626e-03,1.158133670687675476e-01,-2.015011012554168701e-02,-5.237362533807754517e-02,-3.307788446545600891e-02,4.645093157887458801e-02,-1.208056882023811340e-01,5.302659422159194946e-02,3.873002016916871071e-03,9.107409045100212097e-03,-1.621396690607070923e-01,-8.318676799535751343e-02,2.498984802514314651e-03,-1.800265014171600342e-01,-1.060997322201728821e-01,-7.483370900154113770e-01
2.412063442170619965e-02,8.368511684238910675e-03,-1.223616115748882294e-02,-4.658276215195655823e-02,6.453285925090312958e-03,-2.080100961029529572e-02,1.098442897200584412e-01,6.691317260265350342e-02,5.735319480299949646e-02,8.847556076943874359e-03,2.406710758805274963e-02,-8.295851945877075195e-02,-3.896197304129600525e-02,-9.670082479715347290e-02,-1.859239637851715088e-01,-4.842594265937805176e-01
-1.112691387534141541e-01,-1.097344011068344116e-01,-5.008862540125846863e-02,2.217828109860420227e-02,-1.306892782449722290e-01,-3.742594644427299500e-02,-4.095532372593879700e-02,9.783182293176651001e-03,-4.399665072560310364e-02,-5.432647839188575745e-02,-1.020037159323692322e-01,-1.455933749675750732e-01,-7.548134028911590576e-02,-1.034317314624786377e-01,-1.002612784504890442e-01,-2.747166156768798828e-01
8.960113674402236938e-02,2.997490577399730682e-02,1.169458962976932526e-02,-3.260837495326995850e-02,7.215784490108489990e-02,1.736385524272918701e-01,3.711091727018356323e-02,4.727268218994140625e-02,1.211776882410049438e-01,1.578036546707153320e-01,1.645260453224182129e-01,6.037933379411697388e-02,1.761123090982437134e-01,1.990630328655242920e-01,1.915518641471862793e-01,-5.016293749213218689e-02
5.705745425075292587e-03,-1.221501827239990234e-01,9.422542899847030640e-02,2.585059031844139099e-02,3.822936862707138062e-02,-1.183041259646415710e-01,7.592175155878067017e-02,5.657502263784408569e-02,5.661741644144058228e-02,2.479761093854904175e-02,-6.215635687112808228e-02,-2.589023858308792114e-02,-8.209887146949768066e-02,-4.723195731639862061e-02,-5.124552920460700989e-02,-4.861110448837280273e-01
4.060117900371551514e-02,1.556422933936119080e-02,-1.651985049247741699e-01,-1.384653300046920776e-01,-1.561646014451980591e-01,1.191691029816865921e-02,-2.435889281332492828e-02,-1.448733508586883545e-01,-1.845650821924209595e-01,-1.397937834262847900e-01,-1.340111494064331055e-01,-3.951430693268775940e-02,-2.638396918773651123e-01,-1.951116174459457397e-01,-1.501432061195373535e-01,-7.651970982551574707e-01
1.363043785095214844e-01,1.597132980823516846e-01,3.592171519994735718e-02,-3.060070797801017761e-02,1.886875927448272705e-01,1.746315658092498779e-01,9.909613430500030518e-02,9.997051209211349487e-03,1.691224277019500732e-01,1.682488769292831421e-01,-5.679690092802047729e-02,-5.333624407649040222e-02,1.225366294384002686e-01,1.471941024065017700e-01,8.077033795416355133e-03,-3.159013390541076660e-01
1.331024616956710815e-01,-7.361733168363571167e-02,-8.679789304733276367e-02,-1.751801185309886932e-02,-4.788835346698760986e-02,-8.876794576644897461e-02,-8.675626665353775024e-02,8.610685169696807861e-02,-1.184424906969070435e-01,-4.117923229932785034e-02,7.391964644193649292e-02,-5.982439965009689331e-02,-6.227632984519004822e-02,-1.025629490613937378e-01,-3.340540081262588501e-02,-7.649023532867431641e-01
3.631254434585571289e-01,2.710126340389251709e-01,3.535927832126617432e-01,3.377547562122344971e-01,4.172625243663787842e-01,3.994752168655395508e-01,2.971521317958831787e-01,4.175818264484405518e-01,3.058793246746063232e-01,3.804468810558319092e-01,3.106698989868164062e-01,3.632121682167053223e-01,2.613369822502136230e-01,4.374017715454101562e-01,4.015721976757049561e-01,5.423206686973571777e-01
4.969248548150062561e-03,5.620460957288742065e-02,1.062331274151802063e-01,2.320881560444831848e-02,8.670539408922195435e-02,1.035800948739051819e-01,7.346627861261367798e-02,6.099434942007064819e-02,-4.163755476474761963e-02,1.206250265240669250e-01,-9.661686420440673828e-02,2.047672308981418610e-02,-8.544759452342987061e-02,-8.625952154397964478e-02,-1.207372769713401794e-01,-3.979610800743103027e-01
5.338082835078239441e-02,8.465083688497543335e-02,-5.756725743412971497e-02,1.229637786746025085e-01,4.477882757782936096e-02,-3.480847924947738647e-02,-1.098197177052497864e-01,-1.145406998693943024e-02,-8.055809140205383301e-02,-2.804822288453578949e-02,-8.207595907151699066e-03,-8.485138416290283203e-02,-6.674524396657943726e-02,-9.522544592618942261e-02,-1.095756143331527710e-01,-1.999807506799697876e-01
