-5.324653163552284241e-02,3.309926986694335938e-01,-3.013850934803485870e-02,-2.289980091154575348e-02,2.185531705617904663e-01,1.901789456605911255e-01,-2.047742530703544617e-02,-8.958192914724349976e-02,-2.401905506849288940e-01,-5.672252774238586426e-01,3.755389750003814697e-01,2.871215641498565674e-01,4.868139326572418213e-02,2.346515469253063202e-02,1.323654502630233765e-01,1.074891909956932068e-01,-1.186011433601379395e-01,-8.409396559000015259e-02,-8.778187632560729980e-02,4.661431908607482910e-01,-1.357544772326946259e-02,-1.460373699665069580e-01,-3.143834695219993591e-02,-7.162612397223711014e-03,-9.541182965040206909e-02,-2.121616750955581665e-01,-3.916682675480842590e-03,-8.758006989955902100e-02,5.291911959648132324e-01,-4.598212242126464844e-01,3.744343528524041176e-03,4.006233215332031250e-01,-1.244076788425445557e-01,-1.105086132884025574e-01,1.141541376709938049e-01,-2.718123495578765869e-01,1.380409747362136841e-01,-1.941377371549606323e-01,1.612040847539901733e-01,3.112330287694931030e-02,1.488614231348037720e-01,1.614767611026763916e-01,7.511859294027090073e-03,-1.525964029133319855e-02,3.972176462411880493e-02,-3.155081868171691895e-01,-4.424535855650901794e-02,-7.629615068435668945e-02,-4.016933590173721313e-02,-1.783770322799682617e-01,-4.000675864517688751e-03,-7.115855813026428223e-03,1.150798127055168152e-01,2.263011187314987183e-01,-1.047780215740203857e-01,2.768811881542205811e-01,2.871452569961547852e-01,-4.798731505870819092e-01,-1.684183180332183838e-01,-3.314439058303833008e-01,-1.053963303565979004e-01,-2.223366498947143555e-01,4.469073712825775146e-01,-2.139578340575098991e-03
1.601721644401550293e-01,1.980505138635635376e-02,-1.130249258130788803e-02,3.803682513535022736e-03,-2.982973754405975342e-01,-4.025276750326156616e-03,-9.188086260110139847e-04,1.324675083160400391e-01,-1.595097361132502556e-03,1.143509801477193832e-02,2.252994664013385773e-02,-2.760190144181251526e-02,-4.686618149280548096e-01,-8.927203714847564697e-02,5.712995678186416626e-02,-3.794527351856231689e-01,9.253805619664490223e-04,6.589054316282272339e-02,-6.249328851699829102e-01,6.566862761974334717e-02,2.053226679563522339e-01,8.924910426139831543e-02,-1.496224552392959595e-01,-2.297393366461619735e-04,-5.809285677969455719e-03,2.708120085299015045e-02,-4.016230348497629166e-03,-5.309527367353439331e-02,-1.250810176134109497e-01,-1.229146122932434082e-02,2.695018351078033447e-01,2.764309570193290710e-02,-2.601556181907653809e-01,-2.539466880261898041e-02,-1.789943724870681763e-01,3.917168974876403809e-01,1.142308190464973450e-01,8.354448527097702026e-02,-3.413672745227813721e-01,-5.801452696323394775e-02,1.728222966194152832e-01,9.909435361623764038e-02,3.375384956598281860e-02,7.952912151813507080e-02,-3.416898548603057861e-01,1.882359981536865234e-01,5.457141622900962830e-02,-1.631953269243240356e-01,1.108992248773574829e-01,1.897979378700256348e-01,3.944103047251701355e-02,-1.008986458182334900e-01,-2.700956463813781738e-01,-8.851045370101928711e-02,7.438536733388900757e-02,1.103027816861867905e-02,-7.257292512804269791e-03,1.108509376645088196e-01,-2.371201664209365845e-01,9.997226297855377197e-02,-2.475347816944122314e-01,1.041533239185810089e-02,-4.567029327154159546e-02,1.144061163067817688e-01
1.914522200822830200e-01,2.396569997072219849e-01,2.132589071989059448e-01,3.253491886425763369e-04,-2.919173240661621094e-01,-2.608976792544126511e-03,-1.717949099838733673e-02,1.977150887250900269e-02,-1.461916863918304443e-01,-4.622305859811604023e-04,-5.679430440068244934e-02,-3.773101791739463806e-02,-6.246482953429222107e-02,3.626592457294464111e-02,9.996821172535419464e-04,-1.628980785608291626e-02,6.167644262313842773e-02,1.024143472313880920e-01,1.719130873680114746e-01,-4.001914560794830322e-01,-7.972417771816253662e-02,5.430146306753158569e-02,-3.652068972587585449e-01,-1.596700958907604218e-02,5.281122401356697083e-02,4.979761689901351929e-02,-3.062740713357925415e-02,-5.779209360480308533e-02,-1.406392082571983337e-02,-4.701329022645950317e-02,9.430904686450958252e-02,-6.592628359794616699e-02,-8.078929036855697632e-02,-3.802513703703880310e-02,2.693561650812625885e-02,1.611065119504928589e-01,4.027227461338043213e-01,-8.485239744186401367e-02,7.866330444812774658e-03,4.323667287826538086e-02,3.347916603088378906e-01,4.204748570919036865e-02,6.263850629329681396e-02,2.139041870832443237e-01,-3.624728620052337646e-01,-3.642968088388442993e-02,-1.136680692434310913e-02,-2.276942282915115356e-01,8.707978762686252594e-03,-1.503937989473342896e-01,1.616137176752090454e-01,6.794792134314775467e-03,1.344351749867200851e-02,1.639596074819564819e-01,-2.034422606229782104e-01,2.863501310348510742e-01,-1.211474984884262085e-01,-7.312964648008346558e-02,-3.266423940658569336e-01,2.588202711194753647e-03,-6.858786940574645996e-02,6.908053159713745117e-02,-5.200095474720001221e-02,-2.111570239067077637e-01
1.832807064056396484e-02,-9.021513164043426514e-02,-1.917277276515960693e-02,-1.892767399549484253e-01,-5.857782065868377686e-02,-7.711321860551834106e-02,3.430544957518577576e-02,2.424937905743718147e-03,2.019244283437728882e-01,5.929717421531677246e-01,-4.640796482563018799e-01,-2.160966992378234863e-01,-1.224105432629585266e-01,-1.198380216956138611e-01,-5.376614928245544434e-01,-3.097141385078430176e-01,1.684628659859299660e-03,-1.315837502479553223e-01,1.460546553134918213e-01,-2.070875018835067749e-01,2.875632047653198242e-01,-1.691341213881969452e-02,5.129784718155860901e-02,1.220173090696334839e-01,2.079304754734039307e-01,4.184986948966979980e-01,-3.854064643383026123e-01,1.809518784284591675e-01,-3.315721452236175537e-01,8.072315156459808350e-02,3.515971601009368896e-01,-9.308943152427673340e-02,3.084928728640079498e-02,5.074596032500267029e-03,-3.262393474578857422e-01,2.754125557839870453e-02,-9.849966317415237427e-02,3.771309256553649902e-01,-3.508663773536682129e-01,9.017857164144515991e-02,-2.060882598161697388e-01,-1.447447091341018677e-01,4.212392866611480713e-02,4.056779295206069946e-02,3.160992562770843506e-01,1.282146126031875610e-01,2.042780965566635132e-01,-1.046326383948326111e-01,-4.523826017975807190e-02,1.268093883991241455e-01,-1.412039101123809814e-01,-4.437952041625976562e-01,-4.083741605281829834e-01,1.761848777532577515e-01,1.555492430925369263e-01,1.552431262098252773e-03,2.881891326978802681e-03,2.119351327419281006e-01,8.322627982124686241e-04,2.813825607299804688e-01,-7.063043862581253052e-02,1.954640299081802368e-01,1.020778249949216843e-02,-6.835157424211502075e-02
1.675485521554946899e-01,5.284206196665763855e-02,-9.530286490917205811e-02,2.162993401288986206e-01,-2.604147195816040039e-01,-1.609816700220108032e-01,2.363551110029220581e-01,-2.321905083954334259e-02,-1.417462378740310669e-01,-3.438246250152587891e-01,-1.955288462340831757e-02,-1.571582555770874023e-01,-9.239284694194793701e-02,-4.663534834980964661e-02,8.489393442869186401e-02,-2.401504479348659515e-02,3.669938817620277405e-02,3.220027089118957520e-01,-2.707670629024505615e-01,3.068968467414379120e-02,4.171599745750427246e-01,-1.527363434433937073e-02,6.600968539714813232e-02,8.327382057905197144e-02,-2.035439014434814453e-01,8.593324571847915649e-02,-5.393862724304199219e-02,-2.700359188020229340e-02,-1.577013283967971802e-01,1.764933466911315918e-01,8.492217212915420532e-02,2.281177341938018799e-01,-1.056709960103034973e-01,2.221034280955791473e-02,6.063101813197135925e-03,2.778598666191101074e-01,-6.642247736454010010e-02,4.725037515163421631e-01,-3.004262447357177734e-01,-4.120619595050811768e-02,-4.401716887950897217e-01,4.815846681594848633e-02,1.999381035566329956e-01,-5.787168070673942566e-02,1.850623339414596558e-01,2.989361807703971863e-02,-1.371363401412963867e-01,2.619594633579254150e-01,-6.220472231507301331e-02,2.604213654994964600e-01,1.768939346075057983e-01,-9.983211755752563477e-02,1.083910465240478516e-02,1.877683699131011963e-01,-3.743159398436546326e-02,2.909140288829803467e-02,-1.650073826313018799e-01,-2.197008579969406128e-02,1.427795290946960449e-01,-4.791577532887458801e-02,-2.559494972229003906e-01,2.560421079397201538e-02,-4.800595939159393311e-01,-1.071640327572822571e-01
-3.144422918558120728e-02,-2.667885422706604004e-01,-1.043392643332481384e-01,-2.549075579736381769e-04,-3.755519632250070572e-03,6.117408163845539093e-03,5.517275631427764893e-02,1.402880437672138214e-02,-7.982298731803894043e-02,-1.769038587808609009e-01,-6.239560991525650024e-02,-5.904262512922286987e-02,-4.164855480194091797e-01,1.609005592763423920e-02,-5.356128513813018799e-02,-1.080587804317474365e-01,-6.139373406767845154e-03,-1.568400710821151733e-01,-4.275890439748764038e-02,-2.291120775043964386e-02,3.905961513519287109e-01,1.816356182098388672e-01,-1.365405023097991943e-01,1.211912278085947037e-02,8.073499798774719238e-02,2.979727685451507568e-01,-2.965147607028484344e-02,-8.427207171916961670e-02,-2.838000953197479248e-01,2.463558688759803772e-02,4.477645158767700195e-01,-3.475840091705322266e-01,-2.769589237868785858e-02,1.613515987992286682e-02,-6.341344118118286133e-02,-3.364424919709563255e-03,-1.301384270191192627e-01,2.536449134349822998e-01,-3.114588260650634766e-01,3.558740764856338501e-02,-2.974813804030418396e-02,1.787932366132736206e-01,3.816310763359069824e-01,3.057965449988842010e-02,-1.455133408308029175e-01,-9.585603326559066772e-02,6.947571411728858948e-03,4.133696202188730240e-03,1.611365377902984619e-02,5.066752433776855469e-02,-5.766582326032221317e-04,-3.114637136459350586e-01,-4.554416239261627197e-01,2.780200839042663574e-01,7.858442515134811401e-02,3.433214500546455383e-02,-1.772230118513107300e-01,-1.172649413347244263e-01,-2.968558669090270996e-01,4.543469473719596863e-02,-1.125053092837333679e-01,4.633220285177230835e-02,-3.674375116825103760e-01,-8.769794553518295288e-02
7.457649707794189453e-02,-4.248116910457611084e-01,-3.354827165603637695e-01,1.643445808440446854e-03,-2.321805953979492188e-01,6.389301270246505737e-02,1.363570541143417358e-01,-9.702560305595397949e-02,5.339257419109344482e-02,-2.525312900543212891e-01,1.717120758257806301e-03,-1.152785122394561768e-01,-5.338981375098228455e-02,1.810800880193710327e-01,1.606362462043762207e-01,2.722124755382537842e-01,-1.507714688777923584e-01,-1.209788843989372253e-01,-2.423624545335769653e-01,1.637571305036544800e-01,7.242172956466674805e-02,1.800818443298339844e-01,8.894290775060653687e-02,1.321102380752563477e-01,-4.755675792694091797e-02,-1.788088083267211914e-01,-2.469782717525959015e-03,-4.844205379486083984e-01,-6.017957329750061035e-01,7.849480211734771729e-02,7.375846803188323975e-02,-1.283832490444183350e-01,-1.403925269842147827e-01,1.479478180408477783e-01,-3.005181625485420227e-02,1.389116328209638596e-02,9.024403057992458344e-03,1.177658736705780029e-01,-5.851304158568382263e-03,-1.571193784475326538e-01,-1.455027461051940918e-01,-3.683126866817474365e-01,1.959974616765975952e-01,-1.906132400035858154e-01,1.589075624942779541e-01,1.981243491172790527e-01,8.208792656660079956e-02,3.868029415607452393e-01,3.726416081190109253e-02,3.919700682163238525e-01,-6.819889694452285767e-02,-1.588679552078247070e-01,3.303014859557151794e-02,1.370096802711486816e-01,7.128847390413284302e-02,-5.566318631172180176e-01,7.678097486495971680e-02,-3.559798374772071838e-02,-3.773713484406471252e-02,-6.183866411447525024e-02,-7.571735233068466187e-02,1.098450794816017151e-01,-4.348956942558288574e-01,-4.909757524728775024e-02
9.564211592078208923e-03,1.218572482466697693e-01,1.252299845218658447e-01,-6.637217849493026733e-02,-3.235225379467010498e-01,1.611051261425018311e-01,4.226416349411010742e-02,5.149781703948974609e-01,-1.979980766773223877e-01,2.669090637937188148e-03,-2.209832146763801575e-02,2.138504013419151306e-02,-4.854031279683113098e-02,1.371349096298217773e-01,-1.240650266408920288e-01,-2.015005946159362793e-01,-2.311254502274096012e-04,-3.029528558254241943e-01,-1.235330775380134583e-01,-2.528553009033203125e-01,7.824548520147800446e-03,3.958073556423187256e-01,-1.505001187324523926e-01,-1.739418357610702515e-01,9.230349957942962646e-02,1.094378083944320679e-01,-1.205656677484512329e-02,6.839610636234283447e-03,-1.290376670658588409e-02,-3.651396557688713074e-02,2.740596532821655273e-01,-4.293783605098724365e-01,-2.110140025615692139e-02,-1.354876253753900528e-02,-7.926004938781261444e-03,2.845964431762695312e-01,-4.738524183630943298e-02,-2.028189599514007568e-02,-1.575907468795776367e-01,2.304854542016983032e-01,9.144791401922702789e-03,1.579722315073013306e-01,1.858991235494613647e-01,3.986439108848571777e-01,-2.105665206909179688e-02,1.094856485724449158e-01,-9.903862141072750092e-03,-2.196422964334487915e-01,-1.078646047972142696e-03,9.992086887359619141e-02,1.093978653443627991e-06,3.328480198979377747e-02,-1.916596144437789917e-01,8.081705309450626373e-04,8.662235923111438751e-03,3.372806310653686523e-02,7.657358795404434204e-02,-9.760002791881561279e-02,-3.310750424861907959e-01,2.337240874767303467e-01,-9.214877337217330933e-02,2.074770480394363403e-01,1.326802223920822144e-01,-1.693300604820251465e-01
1.637864112854003906e-01,-1.080580949783325195e-01,6.027365475893020630e-02,-9.449506178498268127e-03,-4.865382909774780273e-01,4.240797366946935654e-03,-5.604552850127220154e-02,3.743706345558166504e-01,-1.939122974872589111e-01,-1.047896221280097961e-01,1.875518634915351868e-02,-2.902844920754432678e-03,-2.103680670261383057e-01,1.983107775449752808e-01,-7.597842067480087280e-02,-3.004681766033172607e-01,2.546602487564086914e-01,-9.184256196022033691e-02,4.660642147064208984e-02,-2.681938409805297852e-01,-1.731459610164165497e-02,2.039566189050674438e-01,-3.648025095462799072e-01,-6.495500355958938599e-02,1.682572960853576660e-01,2.598267793655395508e-01,2.201553666964173317e-03,-2.993563115596771240e-01,4.768643155694007874e-02,-5.107602104544639587e-03,-2.084352821111679077e-02,-8.946501463651657104e-02,-1.916226297616958618e-01,-6.933108717203140259e-02,-1.023427397012710571e-01,1.141650155186653137e-01,8.531977236270904541e-02,5.441512539982795715e-02,-1.083239540457725525e-01,9.073898196220397949e-02,2.350284010171890259e-01,4.707276076078414917e-02,3.848073631525039673e-02,4.778913035988807678e-02,-1.497352719306945801e-01,7.303424924612045288e-02,5.125653930008411407e-03,1.896902918815612793e-02,6.348406523466110229e-02,3.359901607036590576e-01,1.096647512167692184e-02,8.278708159923553467e-02,-5.179129242897033691e-01,1.939184665679931641e-01,-6.083757057785987854e-02,-1.521219015121459961e-01,-1.870448589324951172e-01,-7.449427503161132336e-04,-3.247354030609130859e-01,1.134115308523178101e-01,-1.361189037561416626e-01,7.103762030601501465e-02,-2.010265290737152100e-01,-9.422923624515533447e-02
8.594813942909240723e-02,1.299472898244857788e-01,-5.401683971285820007e-02,1.048046872019767761e-01,-1.903728544712066650e-01,-6.004070490598678589e-02,7.461071014404296875e-02,2.679728567600250244e-01,-1.710688918828964233e-01,-4.965934157371520996e-01,8.881583064794540405e-02,1.836141943931579590e-01,2.634590566158294678e-01,-5.438367649912834167e-02,8.284434676170349121e-02,-4.159335196018218994e-01,9.669274091720581055e-02,6.666008383035659790e-02,-1.409166119992733002e-02,-3.250204324722290039e-01,-2.051350101828575134e-02,1.006401423364877701e-02,-3.604702949523925781e-01,-2.441547065973281860e-01,-1.936013251543045044e-01,3.458649665117263794e-02,-1.005209516733884811e-03,-1.304023899137973785e-02,1.917409896850585938e-01,-2.096098065376281738e-01,9.933704137802124023e-02,-6.229295581579208374e-02,5.168936848640441895e-01,-1.911610662937164307e-01,2.181066572666168213e-02,1.131113916635513306e-01,3.924487531185150146e-01,-1.466821283102035522e-01,-1.910809054970741272e-02,-4.991684481501579285e-02,5.697423815727233887e-01,3.803263232111930847e-02,1.263874471187591553e-01,9.128467179834842682e-03,-3.684811294078826904e-01,2.706016004085540771e-01,-7.069347053766250610e-02,-2.761407792568206787e-01,3.690029084682464600e-01,-1.495960801839828491e-01,1.848751008510589600e-01,1.116406694054603577e-01,-6.878989934921264648e-02,5.647895112633705139e-02,-1.091119125485420227e-01,1.338127553462982178e-01,-6.990379840135574341e-02,-2.405097708106040955e-02,-3.589324951171875000e-01,8.188416063785552979e-02,4.314596652984619141e-01,-4.683745279908180237e-02,1.327678710222244263e-01,3.706308305263519287e-01
-1.103212684392929077e-02,-2.828268110752105713e-01,1.825585365295410156e-01,2.973308088257908821e-03,-6.970533728599548340e-02,-3.536288859322667122e-04,1.340348459780216217e-02,1.393088698387145996e-01,-2.290090546011924744e-02,-5.248464941978454590e-01,-7.289388775825500488e-02,7.262202352285385132e-02,1.355632245540618896e-01,5.520739126950502396e-03,1.102460846304893494e-01,2.053270637989044189e-01,3.839234821498394012e-03,5.170562770217657089e-03,-2.654140889644622803e-01,1.430919617414474487e-01,-1.190796047449111938e-01,-6.527692079544067383e-02,-1.461989525705575943e-02,-4.642333835363388062e-02,5.451735481619834900e-02,-2.761004865169525146e-01,-1.084429249167442322e-01,-1.225332021713256836e-01,2.496719211339950562e-01,-1.180827245116233826e-01,8.633797615766525269e-02,-9.313799440860748291e-02,-7.212685793638229370e-02,-8.176250383257865906e-03,-2.628079801797866821e-02,-7.989854365587234497e-02,-1.188364401459693909e-01,-7.015115767717361450e-02,1.371939033269882202e-01,6.747598946094512939e-02,-3.039954416453838348e-02,4.022186398506164551e-01,5.924200639128684998e-03,2.298432402312755585e-03,-1.623188406229019165e-01,-1.393877714872360229e-01,-8.682029694318771362e-02,1.785661093890666962e-02,-8.217781037092208862e-02,1.530697345733642578e-01,1.207495853304862976e-01,4.052408412098884583e-02,3.447631597518920898e-01,2.202872931957244873e-01,5.135516449809074402e-02,1.526001542806625366e-01,1.328181028366088867e-01,-1.740319728851318359e-01,2.024606056511402130e-02,-3.196428716182708740e-02,-2.400129102170467377e-02,-5.802557244896888733e-02,2.307030558586120605e-02,6.703371554613113403e-02
5.105617642402648926e-01,6.905310600996017456e-02,4.737680032849311829e-02,1.349443942308425903e-01,-5.152826756238937378e-02,-2.353190481662750244e-01,-2.601159214973449707e-01,-2.911282144486904144e-02,-2.036846615374088287e-02,-2.490592449903488159e-01,2.157340049743652344e-01,3.837469220161437988e-02,-1.843125671148300171e-01,-1.184787824749946594e-01,2.814632654190063477e-01,-3.444463014602661133e-01,1.111430153250694275e-01,2.114442884922027588e-01,-2.258167564868927002e-01,3.771602362394332886e-02,-9.280526638031005859e-02,-1.899065524339675903e-01,-3.243893980979919434e-01,-4.399374127388000488e-02,6.895543541759252548e-03,-1.734644472599029541e-01,-3.113118559122085571e-02,7.213144749402999878e-02,3.637618198990821838e-02,-2.506662905216217041e-01,3.778415918350219727e-01,1.565575599670410156e-01,-1.042168214917182922e-01,-2.905838787555694580e-01,-6.462343782186508179e-02,9.467753581702709198e-03,2.449011653661727905e-01,2.044014185667037964e-01,1.602102257311344147e-02,-1.705550849437713623e-01,2.965129911899566650e-01,-2.149567566812038422e-02,1.670447140932083130e-01,-7.252261042594909668e-02,-1.907144635915756226e-01,2.192335426807403564e-01,-1.206857562065124512e-01,-1.559095382690429688e-01,1.891862303018569946e-01,2.198938280344009399e-01,1.651269197463989258e-02,9.347905218601226807e-02,-1.442509293556213379e-01,-2.192360609769821167e-01,6.075262278318405151e-02,-4.013937711715698242e-02,-1.867453753948211670e-01,1.939137428998947144e-01,-2.537709474563598633e-01,1.679496467113494873e-02,-2.331340312957763672e-01,-3.302928060293197632e-02,-1.972734183073043823e-01,-1.244737431406974792e-01
-3.680745139718055725e-02,-4.387941658496856689e-01,-2.230780012905597687e-02,2.436407655477523804e-02,-3.317365422844886780e-02,1.909087896347045898e-01,-5.654722079634666443e-02,-1.577088236808776855e-02,-5.288530588150024414e-01,-5.591114163398742676e-01,3.170418785884976387e-03,6.267856806516647339e-02,-2.711324691772460938e-01,1.950905770063400269e-01,2.233737148344516754e-02,5.184512212872505188e-02,2.121368199586868286e-01,-1.403792500495910645e-01,-8.068125694990158081e-02,9.392495453357696533e-02,1.890575140714645386e-01,5.445541441440582275e-02,-2.576816976070404053e-01,2.553429268300533295e-02,1.263041794300079346e-01,1.861519515514373779e-01,-3.648040443658828735e-02,-1.365754846483469009e-02,1.827073656022548676e-02,-5.516636744141578674e-02,-5.806453898549079895e-02,-2.461771965026855469e-01,5.605749040842056274e-02,-3.943521529436111450e-02,2.595378085970878601e-03,2.755199670791625977e-01,-1.172775477170944214e-01,-5.373644456267356873e-02,-4.439556971192359924e-02,-4.482339322566986084e-02,3.278873562812805176e-01,2.424383312463760376e-01,3.217283487319946289e-01,1.921070180833339691e-02,-6.492565274238586426e-01,1.835189014673233032e-01,-1.713802814483642578e-01,2.423407137393951416e-02,-7.278931140899658203e-02,3.864685818552970886e-02,2.081078737974166870e-01,4.826378822326660156e-02,-4.569216445088386536e-02,6.197620034217834473e-01,6.791926454752683640e-03,-1.538692042231559753e-02,-1.243851184844970703e-01,-7.689765095710754395e-02,-2.509623765945434570e-01,3.950112313032150269e-02,1.093962322920560837e-02,-7.268122280947864056e-04,7.244793325662612915e-02,1.595041006803512573e-01
1.998445205390453339e-02,-2.485115313902497292e-03,-1.864592134952545166e-01,-1.634808816015720367e-02,3.235169872641563416e-02,5.706218257546424866e-02,5.129172001034021378e-03,-1.626413017511367798e-01,-1.973218284547328949e-03,-2.069993168115615845e-01,1.712450981140136719e-01,4.988822713494300842e-02,-7.363758981227874756e-02,2.060452401638031006e-01,2.162565737962722778e-01,2.432036846876144409e-01,-1.758136972784996033e-02,7.092171162366867065e-02,-2.136938087642192841e-02,3.763749897480010986e-01,-7.838346064090728760e-02,-6.218588724732398987e-02,-3.726179525256156921e-02,4.358953982591629028e-02,-1.056235209107398987e-01,-1.202701255679130554e-01,-1.223569270223379135e-04,-8.504830300807952881e-02,-1.330302059650421143e-01,2.530706673860549927e-02,-6.998553872108459473e-02,6.012412905693054199e-01,-1.785076111555099487e-01,1.118755992501974106e-02,2.479342184960842133e-02,-8.598305284976959229e-02,9.857309609651565552e-02,-3.164604678750038147e-02,1.228439807891845703e-01,-6.040987372398376465e-02,1.561195552349090576e-01,1.044011265039443970e-01,3.641529753804206848e-02,-4.751772433519363403e-02,9.284272789955139160e-02,-1.781999766826629639e-01,-5.504524707794189453e-02,1.904666125774383545e-01,2.281345427036285400e-03,1.124834194779396057e-01,-1.284424867480993271e-02,7.133280485868453979e-02,2.650691568851470947e-01,-1.384707354009151459e-02,6.935171782970428467e-02,1.363440304994583130e-01,5.712944641709327698e-02,-3.689773380756378174e-03,-2.240571565926074982e-02,-4.537341296672821045e-01,-3.498176336288452148e-01,-1.841177493333816528e-01,-5.661891773343086243e-02,2.993852645158767700e-02
1.539238542318344116e-02,-2.350003458559513092e-02,8.251807838678359985e-02,1.841301564127206802e-03,-3.247905522584915161e-02,3.157432377338409424e-01,-3.791568428277969360e-02,2.865889966487884521e-01,4.984536673873662949e-03,4.639465808868408203e-01,-1.062448788434267044e-02,-1.241241022944450378e-02,2.731122970581054688e-01,-1.303754895925521851e-01,-1.838425733149051666e-02,-1.610274165868759155e-01,-2.113410038873553276e-03,-1.134772226214408875e-02,4.967631772160530090e-03,-3.063513636589050293e-01,-5.167658627033233643e-02,7.394243963062763214e-03,-1.183615252375602722e-01,7.690717931836843491e-03,4.134078323841094971e-02,1.670352518558502197e-01,-1.672948710620403290e-02,1.063541620969772339e-01,3.082228899002075195e-01,-7.524140924215316772e-02,-5.503459274768829346e-02,-1.016845926642417908e-01,2.004810720682144165e-01,3.471298550721257925e-04,-1.749193519353866577e-01,2.819228768348693848e-01,-2.263600239530205727e-03,1.619001291692256927e-02,1.293533481657505035e-03,2.783031016588211060e-02,9.820172190666198730e-02,2.127749025821685791e-01,-1.709864735603332520e-01,5.378239750862121582e-01,-2.943251430988311768e-01,-5.312643572688102722e-02,6.145653501152992249e-02,-4.978697299957275391e-01,8.116898685693740845e-02,-5.596693605184555054e-02,-2.774869324639439583e-03,-2.754570245742797852e-01,-1.294213254004716873e-02,-3.537415862083435059e-01,-4.299749061465263367e-02,5.500300526618957520e-01,4.418230801820755005e-02,2.337220311164855957e-02,-1.075096204876899719e-01,3.035850077867507935e-02,-1.749797165393829346e-02,2.380532398819923401e-02,-8.208796381950378418e-03,-4.945521429181098938e-02
2.172094881534576416e-01,5.079135671257972717e-02,-2.197474390268325806e-01,1.063083857297897339e-01,-1.326609700918197632e-01,-5.854599550366401672e-02,3.909473866224288940e-02,-6.068164855241775513e-02,-8.922324329614639282e-02,2.810060046613216400e-02,2.680919505655765533e-02,-1.401919871568679810e-01,-1.079607754945755005e-01,1.201205402612686157e-01,3.015992417931556702e-02,-1.128478497266769409e-01,-1.950930804014205933e-03,2.992605231702327728e-02,-2.098250240087509155e-01,1.324694883078336716e-02,3.417975902557373047e-01,1.031756252050399780e-01,-6.816208828240633011e-03,2.376192994415760040e-02,-5.537830293178558350e-02,8.638797700405120850e-02,-2.608500421047210693e-02,-5.604204908013343811e-02,-1.576984226703643799e-01,1.011261623352766037e-02,3.045211434364318848e-01,-3.405487164855003357e-02,-7.058032788336277008e-03,9.908206760883331299e-03,2.245919033885002136e-02,3.335231170058250427e-02,1.763310134410858154e-01,9.893007576465606689e-03,-6.612554192543029785e-02,-1.223364770412445068e-01,-2.171137183904647827e-02,-9.448224306106567383e-02,7.344781886786222458e-03,-1.169102787971496582e-01,-6.720544397830963135e-02,4.382701590657234192e-02,1.461788732558488846e-02,-4.916051402688026428e-02,4.743727296590805054e-02,7.851932942867279053e-02,7.541204243898391724e-02,-4.835349507629871368e-03,-1.047238856554031372e-01,-1.176343020051717758e-02,5.165750160813331604e-02,5.770894140005111694e-02,-5.799316987395286560e-02,-1.694234460592269897e-02,-1.889586746692657471e-01,-5.762876942753791809e-03,-1.419968437403440475e-03,-2.821047091856598854e-03,-1.684999167919158936e-01,-1.277078986167907715e-01
2.639742568135261536e-02,-6.614245474338531494e-02,-1.326447818428277969e-02,1.250133645953610539e-04,-3.049811422824859619e-01,5.214245058596134186e-03,1.186997070908546448e-01,7.440476417541503906e-01,-1.917077787220478058e-02,-1.422882974147796631e-01,-3.006286546587944031e-02,4.215615615248680115e-02,-3.330999612808227539e-01,1.629294641315937042e-02,-2.882265150547027588e-01,-2.576192319393157959e-01,3.299301490187644958e-03,-8.633700013160705566e-02,-1.809024065732955933e-02,-2.878491533920168877e-03,1.995411366224288940e-01,1.361431628465652466e-01,-3.104956150054931641e-01,-8.831376582384109497e-02,1.814800500869750977e-02,2.339187562465667725e-01,-1.741845742799341679e-03,7.274983078241348267e-02,2.810084819793701172e-01,-1.033644750714302063e-01,-3.993029519915580750e-02,-3.382394909858703613e-01,9.567810595035552979e-02,6.183585152029991150e-03,-4.564896523952484131e-01,1.259739995002746582e-01,-2.342734634876251221e-01,4.146202281117439270e-02,-2.368200719356536865e-01,1.414342671632766724e-01,2.325513809919357300e-01,3.470109701156616211e-01,-8.575185388326644897e-02,2.658140659332275391e-01,-6.152243018150329590e-01,-3.768699988722801208e-02,9.537900798022747040e-03,-2.763154208660125732e-01,2.031484432518482208e-02,1.282338500022888184e-01,3.596029803156852722e-02,-2.796139419078826904e-01,-2.270049601793289185e-02,2.263780236244201660e-01,5.069603398442268372e-02,3.208900094032287598e-01,-1.263920515775680542e-01,-2.435391694307327271e-01,-4.825925230979919434e-01,1.609148383140563965e-01,-1.929183900356292725e-01,5.172148719429969788e-02,1.165640577673912048e-01,-8.189301192760467529e-02
3.249069154262542725e-01,-1.025539636611938477e-01,1.803183257579803467e-01,-1.090039685368537903e-02,-1.025123521685600281e-01,-1.661448478698730469e-01,8.973538130521774292e-02,1.406549755483865738e-02,5.887790769338607788e-02,2.385877631604671478e-02,-3.924154490232467651e-02,-6.680823117494583130e-02,-2.377354353666305542e-01,-1.348525732755661011e-01,1.009246408939361572e-01,-1.126698330044746399e-01,9.318593220086768270e-05,7.201773673295974731e-02,-5.043340325355529785e-01,-2.544858455657958984e-01,2.827309072017669678e-01,-8.431247621774673462e-02,4.751651734113693237e-02,1.542993728071451187e-02,5.797468870878219604e-02,1.710775941610336304e-01,3.531720861792564392e-02,2.690206766128540039e-01,-5.203967690467834473e-01,1.436293125152587891e-01,1.589219570159912109e-01,-4.373337724246084690e-04,-2.753292918205261230e-01,2.604194451123476028e-03,-4.631615057587623596e-02,1.761924177408218384e-01,-1.506383568048477173e-01,-4.584223777055740356e-02,-1.324778199195861816e-01,-5.272842198610305786e-02,-2.485277503728866577e-02,-1.747450232505798340e-02,4.407193511724472046e-02,-4.015558660030364990e-01,-3.898544907569885254e-01,-2.740729600191116333e-02,-2.493945881724357605e-02,2.297548651695251465e-01,-3.124133497476577759e-02,3.479410111904144287e-01,1.614810898900032043e-02,-6.566127389669418335e-02,-1.144173555076122284e-02,4.080950617790222168e-01,4.285583272576332092e-02,-2.332440635655075312e-04,-6.628248840570449829e-02,-9.334497898817062378e-02,-4.069041013717651367e-01,2.456672117114067078e-02,-8.221309632062911987e-02,-6.512345746159553528e-03,1.584756225347518921e-01,-1.604491472244262695e-01
-9.274143725633621216e-02,-6.438063085079193115e-02,3.350758552551269531e-01,1.325003989040851593e-02,-1.430548280477523804e-01,2.047770917415618896e-01,-4.298835247755050659e-02,1.400215476751327515e-01,-9.975787252187728882e-02,1.028463840484619141e-01,-3.300217166543006897e-02,1.133422628045082092e-01,-1.816214621067047119e-02,4.401833284646272659e-03,-3.299218788743019104e-02,-2.766589224338531494e-01,9.439992159605026245e-02,-1.189534813165664673e-01,3.796942159533500671e-02,-6.757336854934692383e-02,3.565092012286186218e-02,7.248788326978683472e-02,-4.280329048633575439e-01,-6.597823649644851685e-02,1.038572117686271667e-01,9.866038709878921509e-02,-9.627365507185459137e-03,3.803314268589019775e-02,-4.179615899920463562e-02,-7.972886785864830017e-03,3.642397373914718628e-02,-1.721314042806625366e-01,-6.075584143400192261e-02,1.815600087866187096e-03,-3.384258225560188293e-02,-3.892034664750099182e-02,8.554260432720184326e-02,3.348383679986000061e-02,-3.655882552266120911e-02,3.686381131410598755e-02,2.301898300647735596e-01,1.549476683139801025e-01,2.112690657377243042e-01,3.266333043575286865e-01,-1.341028809547424316e-01,1.574309319257736206e-01,-3.780499845743179321e-02,-1.399052515625953674e-02,-2.756561618298292160e-03,3.665821859613060951e-03,-1.502872165292501450e-02,2.127627655863761902e-02,-2.644861638545989990e-01,3.088754042983055115e-02,2.112639322876930237e-02,2.561965957283973694e-02,-5.706231459043920040e-04,-2.237004227936267853e-02,-3.638004362583160400e-01,2.594145946204662323e-03,-2.007208168506622314e-01,4.194808378815650940e-02,1.763268709182739258e-01,-3.103440627455711365e-02
1.503052562475204468e-01,-5.532636120915412903e-02,-2.307838350534439087e-01,9.109406918287277222e-02,-3.341328501701354980e-01,-8.515129797160625458e-03,-3.509609773755073547e-02,7.797436416149139404e-02,-2.388433367013931274e-01,-6.878132820129394531e-01,-1.980417408049106598e-02,-5.055255256593227386e-03,-1.126954555511474609e-01,-5.301175173372030258e-03,1.711312085390090942e-01,-8.571863872930407524e-04,1.191017404198646545e-02,-1.745466701686382294e-02,-3.084475398063659668e-01,9.206371754407882690e-02,5.292281508445739746e-02,5.434787273406982422e-02,-5.916048586368560791e-02,-1.302756741642951965e-02,-2.096797153353691101e-02,1.524333357810974121e-01,-1.882361539173871279e-04,-1.762799918651580811e-01,-3.279268974438309669e-03,-2.784352749586105347e-02,-1.893139816820621490e-02,-4.737030714750289917e-03,-1.014358848333358765e-01,3.668755234684795141e-04,-1.770856976509094238e-02,6.961892545223236084e-02,1.090844571590423584e-01,2.550807781517505646e-03,-2.013351023197174072e-02,-1.244109943509101868e-01,1.484972052276134491e-02,1.503002643585205078e-01,4.381386041641235352e-01,-2.657466568052768707e-03,-3.423898667097091675e-02,-2.638761326670646667e-02,-7.570566236972808838e-02,1.830082982778549194e-01,-2.142899669706821442e-02,2.462092936038970947e-01,1.924975663423538208e-01,1.015890464186668396e-01,1.365359593182802200e-02,3.077634871006011963e-01,-1.109713688492774963e-01,-2.828324027359485626e-02,-1.574108600616455078e-01,-2.523995935916900635e-03,-3.754303455352783203e-01,-8.240269869565963745e-02,-1.480387598276138306e-01,-1.310666948556900024e-01,-1.033514663577079773e-01,3.996699582785367966e-03
2.136954218149185181e-01,6.507359147071838379e-01,3.225665688514709473e-01,-2.162838121876120567e-03,-4.860715270042419434e-01,-1.665647029876708984e-01,4.511846303939819336e-01,3.257637619972229004e-01,4.824485629796981812e-02,-2.154217958450317383e-01,-8.382564038038253784e-02,-3.142212927341461182e-01,8.365394920110702515e-02,-7.610248401761054993e-03,-2.568297684192657471e-01,-2.411333173513412476e-01,4.487130790948867798e-02,2.587933838367462158e-01,1.755967438220977783e-01,-9.768635779619216919e-02,2.250298298895359039e-02,1.008950322866439819e-01,-9.258221089839935303e-02,8.535502851009368896e-02,1.486056447029113770e-01,3.392662405967712402e-01,-1.946794241666793823e-02,-1.085706949234008789e-01,5.067132115364074707e-01,6.633605062961578369e-02,2.724853754043579102e-01,1.871172189712524414e-01,-2.373691461980342865e-02,1.588576287031173706e-02,-1.816944330930709839e-01,2.334540486335754395e-01,2.191293798387050629e-02,-5.263005942106246948e-02,-8.077444881200790405e-02,-6.273041665554046631e-02,-8.258339017629623413e-02,2.643543668091297150e-02,-2.769267857074737549e-01,2.310068532824516296e-02,-3.837362527847290039e-01,2.340622944757342339e-03,1.108298823237419128e-02,-2.101308703422546387e-01,1.192082278430461884e-02,-1.384634058922529221e-02,1.640851981937885284e-02,-6.652157008647918701e-02,4.858325794339179993e-02,-7.894250005483627319e-02,-1.029988098889589310e-02,6.554593890905380249e-02,4.577817767858505249e-02,1.103679016232490540e-01,-1.600128561258316040e-01,-1.732389181852340698e-01,-1.976599544286727905e-01,2.352236658334732056e-01,2.198118120431900024e-01,-4.413475990295410156e-01
7.404948770999908447e-02,-4.142689108848571777e-01,-5.059278383851051331e-02,1.166628971695899963e-01,-1.491660773754119873e-01,-6.238199770450592041e-03,-2.847438491880893707e-02,-7.107920199632644653e-02,-1.140604168176651001e-01,-1.018137261271476746e-01,-3.356083296239376068e-03,-7.898031175136566162e-02,-2.126710116863250732e-01,1.569749712944030762e-01,7.668159157037734985e-02,2.397957071661949158e-02,8.198428899049758911e-02,-1.663772016763687134e-01,-1.467992514371871948e-01,-2.141450792551040649e-01,4.072950184345245361e-01,2.592781484127044678e-01,-2.078583389520645142e-01,1.153850369155406952e-02,1.155070215463638306e-01,3.871440887451171875e-02,-1.300352066755294800e-01,-6.968998908996582031e-02,-3.097959756851196289e-01,1.441926043480634689e-02,5.859811305999755859e-01,-1.589006632566452026e-01,-1.836887001991271973e-01,1.185698993504047394e-02,-2.221008390188217163e-02,-5.187178030610084534e-02,-1.441443688236176968e-03,1.503225266933441162e-01,-8.686539530754089355e-02,-4.146727919578552246e-02,6.615066528320312500e-02,5.717152357101440430e-02,5.126799345016479492e-01,-2.103881165385246277e-02,7.236223667860031128e-02,1.748586744070053101e-01,-2.726290607824921608e-03,-2.796400338411331177e-02,8.291994780302047729e-02,4.406761825084686279e-01,1.130711883306503296e-01,-1.613723114132881165e-02,-1.353226304054260254e-01,3.884973004460334778e-02,9.403344988822937012e-02,-1.644998416304588318e-02,1.645754091441631317e-02,-7.092790305614471436e-02,-3.222447335720062256e-01,2.232115343213081360e-02,-2.072000131011009216e-02,6.700037419795989990e-02,-1.418240219354629517e-01,-8.011870086193084717e-02
2.259596288204193115e-01,-1.726501733064651489e-01,7.264453768730163574e-01,6.667554378509521484e-03,-1.402709782123565674e-01,2.004805579781532288e-02,1.117400079965591431e-01,4.854312837123870850e-01,8.499343879520893097e-03,3.286002203822135925e-02,-2.327905297279357910e-01,-1.526560783386230469e-01,5.883595719933509827e-02,3.156724870204925537e-01,-3.068266212940216064e-01,-3.154245913028717041e-01,8.033018559217453003e-03,-2.725752294063568115e-01,-2.894507944583892822e-01,-2.864049971103668213e-01,1.347769498825073242e-01,4.864408075809478760e-01,-2.832815349102020264e-01,1.776725053787231445e-01,1.281452625989913940e-01,4.878298565745353699e-02,-1.903915852308273315e-01,-1.282056272029876709e-01,-1.056029275059700012e-01,-8.012230694293975830e-02,5.980033054947853088e-02,-4.529884830117225647e-02,4.249164834618568420e-02,9.902272373437881470e-03,1.221164688467979431e-01,2.517870366573333740e-01,1.342562139034271240e-01,-2.047653310000896454e-02,-1.248697414994239807e-01,4.088946282863616943e-01,2.287073433399200439e-01,7.133305072784423828e-02,2.186802774667739868e-02,1.192015856504440308e-01,-1.473310738801956177e-01,6.952122598886489868e-02,5.644648894667625427e-02,-1.718261837959289551e-01,2.954481542110443115e-01,1.558049172163009644e-01,1.990656554698944092e-01,-1.348590198904275894e-02,-8.886983990669250488e-01,-1.653768420219421387e-01,1.358925998210906982e-01,-6.418108940124511719e-02,1.879038959741592407e-01,1.502578109502792358e-01,-4.990632534027099609e-01,1.164167672395706177e-01,-2.056920900940895081e-02,2.749485671520233154e-01,-1.730020642280578613e-01,-2.407579571008682251e-01
-2.892599627375602722e-02,-1.452517807483673096e-01,-1.049594655632972717e-01,-7.574024144560098648e-03,-3.184026479721069336e-02,1.148824580013751984e-02,5.545148625969886780e-02,1.652623414993286133e-01,3.245866298675537109e-02,-2.674263715744018555e-01,-1.505006253719329834e-01,-2.793318778276443481e-02,-2.007386088371276855e-02,-2.156628817319869995e-01,-2.225389331579208374e-02,4.749390855431556702e-02,-2.682687714695930481e-02,3.242348553612828255e-03,-1.599323153495788574e-01,-1.988431215286254883e-01,1.574895083904266357e-01,4.619646351784467697e-03,3.098609449807554483e-04,6.534732878208160400e-03,5.487789213657379150e-02,-1.135577168315649033e-02,-2.379319444298744202e-02,-3.121540881693363190e-02,-1.358150988817214966e-01,1.364980824291706085e-02,4.589612185955047607e-01,-3.499995470046997070e-01,-9.028118103742599487e-02,2.698708884418010712e-02,-2.883931100368499756e-01,4.449816420674324036e-03,-4.357133209705352783e-01,7.712252903729677200e-03,-1.300310492515563965e-01,9.392231702804565430e-02,-3.921305015683174133e-02,1.597461849451065063e-02,1.293231546878814697e-01,8.457250893115997314e-03,-8.915191143751144409e-02,-6.581597775220870972e-02,-3.505550790578126907e-03,1.318498281762003899e-03,-7.869582623243331909e-02,3.496217131614685059e-01,-1.814628951251506805e-02,-4.943751394748687744e-01,-4.194771125912666321e-02,1.396964788436889648e-01,6.087175011634826660e-02,6.130444630980491638e-02,4.859788808971643448e-03,-1.240948364138603210e-01,-1.163847297430038452e-01,5.476110056042671204e-02,-5.632599443197250366e-02,1.780571043491363525e-02,-4.216895401477813721e-01,-1.306292861700057983e-01
-4.805198311805725098e-02,5.871241539716720581e-02,1.228942945599555969e-01,1.705069917079526931e-05,1.668369397521018982e-02,-2.070965012535452843e-03,1.819856651127338409e-02,2.267556041479110718e-01,2.386523410677909851e-03,-2.956091761589050293e-01,2.140265144407749176e-02,2.986587882041931152e-01,-1.217049062252044678e-01,-9.312382340431213379e-02,5.876110866665840149e-02,3.657812997698783875e-02,-5.329631676431745291e-05,-1.434725522994995117e-01,8.592193573713302612e-02,1.947835832834243774e-01,-8.703462779521942139e-02,1.155595481395721436e-02,-2.787660434842109680e-02,1.003000233322381973e-02,1.387085467576980591e-01,-2.363994866609573364e-01,-3.210961073637008667e-02,-4.027019441127777100e-02,3.404211997985839844e-02,3.105467371642589569e-02,1.589577295817434788e-03,-1.146528050303459167e-01,-1.457783877849578857e-01,1.213739905506372452e-02,3.061064518988132477e-02,-1.017783284187316895e-01,-4.637237638235092163e-02,7.393253594636917114e-02,-3.138672932982444763e-02,2.755044102668762207e-01,-5.071439594030380249e-02,-1.333967000246047974e-01,-5.637577921152114868e-02,2.374012619256973267e-01,1.211281679570674896e-02,5.146429315209388733e-02,1.334557216614484787e-02,-5.474601686000823975e-02,-1.013442948460578918e-01,7.891411334276199341e-02,-1.553856860846281052e-02,-4.021263215690851212e-03,-1.589798033237457275e-01,-4.619627818465232849e-02,6.153328716754913330e-02,1.918837279081344604e-01,-2.215339615941047668e-02,1.370919644832611084e-01,1.514125913381576538e-01,-2.870649285614490509e-02,-1.841042190790176392e-01,2.249858714640140533e-02,-6.612487882375717163e-02,-1.169073432683944702e-01
6.152741611003875732e-02,-2.550957957282662392e-03,4.102899692952632904e-03,3.018457815051078796e-02,-4.208938777446746826e-01,-5.054873228073120117e-02,-8.247328922152519226e-03,5.851836130023002625e-02,7.955043576657772064e-03,-7.017745375633239746e-01,-4.856715351343154907e-02,-6.808077543973922729e-02,-3.170050680637359619e-01,-2.371542006731033325e-01,3.059955872595310211e-02,-2.899215184152126312e-02,7.423060387372970581e-02,2.419668287038803101e-01,-5.200403183698654175e-02,-2.149658054113388062e-01,-1.612946204841136932e-02,-1.239123418927192688e-01,-3.438463211059570312e-01,-1.107226237654685974e-01,7.423035055398941040e-02,6.513862311840057373e-02,2.663671597838401794e-02,7.290793291758745909e-05,-7.256149780005216599e-03,-9.852021187543869019e-02,4.140903707593679428e-03,-2.642246186733245850e-01,-2.058936655521392822e-01,-2.693976089358329773e-02,3.967433422803878784e-02,2.031742781400680542e-01,3.092108294367790222e-03,-6.805003434419631958e-02,1.662072492763400078e-03,-6.851948052644729614e-02,2.096710950136184692e-01,1.182771474123001099e-01,1.610741019248962402e-01,-4.007818177342414856e-02,-4.949614703655242920e-01,1.100488379597663879e-02,-9.735620021820068359e-02,-2.160647138953208923e-02,-1.441849321126937866e-01,6.747621297836303711e-01,1.506278961896896362e-01,6.607677042484283447e-02,7.081760466098785400e-02,2.283140718936920166e-01,-9.115011245012283325e-02,1.968199759721755981e-01,-2.264954149723052979e-01,2.738897316157817841e-02,-5.313587933778762817e-02,-2.511729598045349121e-01,-4.702887237071990967e-01,-7.140659540891647339e-02,-3.975374624133110046e-02,-1.883950084447860718e-01
-9.529969096183776855e-02,-2.053438872098922729e-02,2.655403502285480499e-02,-2.046035677194595337e-01,-3.644310534000396729e-01,-2.201405726373195648e-02,2.994916141033172607e-01,3.695752620697021484e-01,2.127491123974323273e-02,-6.376456022262573242e-01,1.305018216371536255e-01,-9.800325334072113037e-02,-1.501904875040054321e-01,-1.576610952615737915e-01,1.718840003013610840e-01,5.187212955206632614e-03,-2.169088721275329590e-01,-8.164609223604202271e-02,-1.299015898257493973e-02,-5.014587938785552979e-02,-3.954227268695831299e-01,-3.259948641061782837e-02,1.309895142912864685e-02,1.855605393648147583e-01,4.745677113533020020e-02,-1.894483268260955811e-01,3.263497352600097656e-02,-1.089645735919475555e-02,-4.604353755712509155e-02,3.579794988036155701e-02,-1.507427729666233063e-02,4.993186593055725098e-01,-7.147782295942306519e-02,1.382400747388601303e-02,6.077126413583755493e-02,-6.075076386332511902e-02,-3.770985603332519531e-01,-1.935779005289077759e-01,1.462303698062896729e-01,-2.486727088689804077e-01,1.260227244347333908e-02,1.922138594090938568e-02,-1.059492304921150208e-01,3.348706066608428955e-01,-6.896842271089553833e-02,1.036784872412681580e-01,8.858774602413177490e-02,-3.187755048274993896e-01,-3.664820790290832520e-01,4.632295668125152588e-01,-1.644822359085083008e-01,-1.096998453140258789e-01,1.583430916070938110e-01,-4.382928907871246338e-01,-4.097680374979972839e-02,1.511767059564590454e-01,6.366835832595825195e-01,2.968110442161560059e-01,1.630613766610622406e-02,-8.098305203020572662e-03,-3.163277506828308105e-01,3.333778306841850281e-02,-1.793636381626129150e-01,-2.222508424893021584e-03
-3.165533393621444702e-02,1.027626395225524902e-01,1.478373557329177856e-01,1.517464988864958286e-03,-5.048553347587585449e-01,2.075915783643722534e-01,2.679548561573028564e-01,2.117061167955398560e-01,6.921454332768917084e-03,1.776437759399414062e-01,-7.334554567933082581e-03,-3.529057430569082499e-04,-5.165784806013107300e-02,7.057034969329833984e-02,1.582210883498191833e-02,-1.519518047571182251e-01,-1.163451815955340862e-03,-5.846992135047912598e-02,-3.952224850654602051e-01,-1.111184805631637573e-01,-1.064226031303405762e-01,5.980622023344039917e-02,-1.219633668661117554e-01,4.877734754700213671e-04,3.515208140015602112e-02,2.745971828699111938e-02,-1.374380546621978283e-03,6.868022680282592773e-02,2.138808071613311768e-01,7.507213205099105835e-02,5.916512385010719299e-02,-8.043809980154037476e-02,-6.244941148906946182e-03,1.529284752905368805e-02,-2.692598663270473480e-02,2.751591801643371582e-01,-2.384660206735134125e-02,-1.069435570389032364e-02,4.708014428615570068e-03,-2.417703904211521149e-02,8.537679165601730347e-02,1.924073547124862671e-01,-5.394789949059486389e-02,5.343556404113769531e-01,-4.168108403682708740e-01,5.595611408352851868e-02,3.409754857420921326e-02,-2.687492370605468750e-01,-5.635470896959304810e-02,9.723911061882972717e-03,-1.957314461469650269e-02,-1.835844218730926514e-01,-2.068415582180023193e-01,-8.366122841835021973e-02,2.391359955072402954e-02,2.034375965595245361e-01,7.152946293354034424e-02,-2.540930174291133881e-03,-2.240959107875823975e-01,-2.569096349179744720e-02,-8.887274563312530518e-02,1.564065925776958466e-02,4.625598341226577759e-02,-5.218559503555297852e-02
6.306866556406021118e-02,1.903442293405532837e-02,-8.714427798986434937e-02,-8.955985307693481445e-03,1.169268935918807983e-01,6.537223234772682190e-03,-2.206409275531768799e-01,1.211521402001380920e-01,3.020557761192321777e-02,-2.292667776346206665e-01,6.026306748390197754e-02,-2.331592142581939697e-02,5.783452466130256653e-02,-1.490163058042526245e-01,7.597743719816207886e-02,-2.804720401763916016e-02,-2.133441343903541565e-02,-1.230460405349731445e-01,1.103264838457107544e-01,4.459692239761352539e-01,-2.154129743576049805e-01,-1.283783018589019775e-01,3.052144777029752731e-03,4.310395102947950363e-03,5.987052340060472488e-03,-1.956347376108169556e-01,2.234881930053234100e-02,-5.396116897463798523e-02,-1.767842322587966919e-01,-1.854051798582077026e-01,-1.359808146953582764e-01,-1.080000177025794983e-01,-2.098173648118972778e-01,-1.047075390815734863e-01,1.006888523697853088e-01,-9.893048554658889771e-02,9.008162468671798706e-02,-1.097589880228042603e-01,1.687548607587814331e-01,1.343648787587881088e-02,1.260228306055068970e-01,-2.715487480163574219e-01,2.381579577922821045e-01,-1.852386165410280228e-03,-1.706578582525253296e-02,-8.605196140706539154e-03,1.488883700221776962e-02,-1.442808508872985840e-01,-6.106660002842545509e-04,8.642119914293289185e-02,-8.079566061496734619e-03,1.145724952220916748e-01,1.899354755878448486e-01,-2.086176276206970215e-01,-1.859114319086074829e-01,2.933376841247081757e-02,1.964217275381088257e-01,1.435250937938690186e-01,1.273591630160808563e-02,7.897021621465682983e-02,5.877726711332798004e-03,-1.803155243396759033e-01,-6.891598552465438843e-02,-1.062330678105354309e-01
-2.869482338428497314e-02,-2.521700263023376465e-01,6.634896248579025269e-02,8.123744279146194458e-02,1.261687278747558594e-02,1.083855107426643372e-01,-3.664352744817733765e-02,1.942989975214004517e-01,-6.656343117356300354e-03,-2.952404320240020752e-01,8.382858335971832275e-02,3.130059838294982910e-01,8.335491269826889038e-02,4.244104027748107910e-01,-1.018394976854324341e-01,-3.531855996698141098e-03,3.297792077064514160e-01,-2.474534064531326294e-01,1.526990383863449097e-01,-2.732549011707305908e-01,9.582634083926677704e-03,3.889999687671661377e-01,-5.315585136413574219e-01,-1.673970818519592285e-01,2.072159200906753540e-01,-8.608085662126541138e-02,1.904151029884815216e-02,1.878454908728599548e-02,-4.520774260163307190e-02,-7.078903168439865112e-02,-2.532751262187957764e-01,4.274667426943778992e-02,1.134758070111274719e-01,-8.133591711521148682e-02,2.838513068854808807e-02,1.817436516284942627e-01,5.406237244606018066e-01,-3.611572459340095520e-02,1.211499273777008057e-01,2.226182818412780762e-01,6.870052218437194824e-01,1.369473934173583984e-01,-3.440022841095924377e-02,2.049233764410018921e-01,-4.493388235569000244e-01,-1.865912824869155884e-01,-7.016511261463165283e-02,-1.417653709650039673e-01,2.345038205385208130e-01,1.368255075067281723e-02,1.301689594984054565e-01,2.942518889904022217e-01,1.503272354602813721e-01,-1.083530262112617493e-01,4.266695305705070496e-02,1.315565705299377441e-01,-1.168048381805419922e-01,-5.754662677645683289e-03,-3.213892579078674316e-01,-3.783063590526580811e-02,-4.156054183840751648e-02,1.435075551271438599e-01,2.707538940012454987e-02,5.809558182954788208e-02
-4.049910604953765869e-02,-2.759534120559692383e-01,-1.552341729402542114e-01,1.002773270010948181e-02,-4.370661824941635132e-02,4.023602902889251709e-01,3.230518698692321777e-01,-3.554641604423522949e-01,2.157882601022720337e-01,-1.894484274089336395e-03,-1.888641119003295898e-01,-1.161245703697204590e-01,9.455532766878604889e-03,-1.396573930978775024e-01,-2.528015673160552979e-01,8.513605594635009766e-02,-1.565135456621646881e-02,-1.225112974643707275e-01,-4.755356311798095703e-01,-5.609683394432067871e-01,-1.579838693141937256e-01,1.862452924251556396e-01,-2.413127012550830841e-02,-4.054822420584969223e-05,1.900856643915176392e-01,-9.773366153240203857e-02,-8.917888626456260681e-03,1.487727612257003784e-01,-2.477521300315856934e-01,-2.130108140408992767e-02,-4.118239134550094604e-02,-1.049800813198089600e-01,-1.131610423326492310e-01,-4.407608357723802328e-04,-7.075560092926025391e-02,1.105965450406074524e-01,3.087594546377658844e-02,3.133799182251095772e-03,-6.203517783433198929e-03,9.277314692735671997e-02,4.907070100307464600e-02,-5.382933095097541809e-02,1.191178634762763977e-01,1.591229140758514404e-01,-4.463626444339752197e-02,1.483779996633529663e-01,5.336966738104820251e-02,-2.051963955163955688e-01,-6.829047575592994690e-03,9.672567993402481079e-02,1.093264436349272728e-03,-4.895579218864440918e-01,1.385184377431869507e-01,-2.131807357072830200e-01,9.474434889853000641e-03,1.033071726560592651e-01,3.203859627246856689e-01,2.269462943077087402e-01,-2.635482549667358398e-01,7.153383642435073853e-02,-1.285941922105848789e-03,2.808016836643218994e-01,-9.857764840126037598e-02,9.371854364871978760e-03
-2.187355130445212126e-04,-2.773742079734802246e-01,1.520911306142807007e-01,-3.113449783995747566e-03,-1.586908698081970215e-01,7.859734445810317993e-02,-3.988816961646080017e-02,1.755360066890716553e-01,7.766293734312057495e-02,-1.598515659570693970e-01,-4.133537411689758301e-01,-1.729650497436523438e-01,8.663847111165523529e-03,1.891355365514755249e-01,-1.774079352617263794e-02,2.299109287559986115e-02,-2.003807574510574341e-02,-1.082027703523635864e-01,-8.110531419515609741e-02,-1.957229524850845337e-01,3.269585072994232178e-01,7.210101187229156494e-02,-2.735073491930961609e-02,1.294708112254738808e-03,2.973083257675170898e-01,3.757551684975624084e-02,-4.996433854103088379e-02,2.859006449580192566e-02,8.779819309711456299e-02,-6.987624615430831909e-02,-1.192225068807601929e-01,-3.762297332286834717e-03,-1.400614827871322632e-01,1.913139224052429199e-02,-3.387647122144699097e-02,-4.929146263748407364e-03,-1.043405905365943909e-01,2.247693389654159546e-01,-3.900796175003051758e-01,1.169945225119590759e-01,1.887218095362186432e-02,3.695614263415336609e-02,-1.203632205724716187e-01,-1.210269331932067871e-02,-4.881067872047424316e-01,1.109221111983060837e-02,1.572046428918838501e-02,7.374669890850782394e-03,-4.072151705622673035e-02,2.987092435359954834e-01,-9.038461372256278992e-03,-1.289008259773254395e-01,-5.282475352287292480e-01,3.828802332282066345e-02,2.374917566776275635e-01,8.184659481048583984e-02,9.167074412107467651e-02,-1.615227907896041870e-01,-6.225061416625976562e-01,1.119392588734626770e-01,-1.074055284261703491e-01,-9.712255559861660004e-03,1.562413722276687622e-01,1.188176684081554413e-02
-2.623944170773029327e-02,-3.012683615088462830e-02,4.873438924551010132e-02,1.416262984275817871e-02,-6.686283648014068604e-02,1.673683822154998779e-01,2.624538959935307503e-03,-2.042914181947708130e-01,-1.166614517569541931e-02,1.707032024860382080e-01,1.035661064088344574e-02,-1.432144343852996826e-01,-1.024444103240966797e-01,8.627414703369140625e-02,-6.704451050609350204e-03,5.577658861875534058e-02,1.081897690892219543e-02,9.399250149726867676e-02,-3.437468409538269043e-02,-3.190620616078376770e-02,1.014253590255975723e-02,-7.638307660818099976e-02,3.220949321985244751e-02,-1.958921179175376892e-02,-9.839286096394062042e-03,3.256596624851226807e-02,4.169681924395263195e-04,1.082120314240455627e-01,-3.399020731449127197e-01,1.364705967716872692e-03,-4.197815060615539551e-02,9.891944006085395813e-03,-1.427490115165710449e-01,-8.349784649908542633e-03,6.315036676824092865e-03,-9.307405911386013031e-03,1.367549449205398560e-01,-2.496098540723323822e-02,1.751201343722641468e-03,3.619031747803092003e-03,1.202035471796989441e-01,-3.235881030559539795e-02,-1.728082820773124695e-02,5.529664829373359680e-02,8.949285000562667847e-02,7.191159576177597046e-02,-7.513622287660837173e-03,1.107035577297210693e-01,3.898818045854568481e-03,2.591549884527921677e-03,1.934506173029149068e-07,1.363177504390478134e-02,-6.101947510614991188e-04,1.764619052410125732e-01,-1.518896967172622681e-01,3.574693948030471802e-02,-4.769096896052360535e-02,-3.234644234180450439e-02,4.800100345164537430e-03,4.588513448834419250e-02,-4.234890267252922058e-02,-5.696483422070741653e-03,4.346522316336631775e-02,-7.091189268976449966e-03
4.613688886165618896e-01,-4.244200289249420166e-01,-2.141502648591995239e-01,3.867798745632171631e-01,6.039664149284362793e-01,-7.389428019523620605e-01,-4.349229633808135986e-01,-2.684752941131591797e-01,-2.110409587621688843e-01,4.781484901905059814e-01,2.341556400060653687e-01,1.312081068754196167e-01,2.221103757619857788e-02,-2.360564619302749634e-01,2.057349234819412231e-01,1.381531637161970139e-02,3.279393315315246582e-01,2.307042628526687622e-01,2.485041320323944092e-01,1.628843508660793304e-02,-4.743066802620887756e-02,-1.690432429313659668e-01,2.659505605697631836e-02,-3.869333863258361816e-01,2.584306523203849792e-02,-2.027088589966297150e-02,-2.024707198143005371e-02,-1.839976012706756592e-01,-9.542096257209777832e-01,-2.237666994333267212e-01,-8.331217616796493530e-02,6.150928325951099396e-03,-3.149673044681549072e-01,-2.131246626377105713e-01,1.493151783943176270e-01,-6.513770222663879395e-01,2.433223426342010498e-01,3.054129704833030701e-02,4.775578156113624573e-02,-3.341349773108959198e-03,2.647388577461242676e-01,-8.802217990159988403e-02,3.730959445238113403e-02,-5.186973214149475098e-01,2.274059504270553589e-01,3.266323804855346680e-01,-2.527178823947906494e-01,3.949424028396606445e-01,6.303802728652954102e-01,1.403353065252304077e-01,2.476626485586166382e-01,5.269804000854492188e-01,-3.790513053536415100e-02,1.455414593219757080e-01,-4.127985835075378418e-01,-1.476766467094421387e-01,-2.425988763570785522e-01,-1.586816161870956421e-01,3.808072507381439209e-01,1.457509584724903107e-02,5.989557132124900818e-02,-2.570815086364746094e-01,-1.474757939577102661e-01,1.012017726898193359e-01
9.300681762397289276e-03,-2.319672890007495880e-02,2.103881239891052246e-01,-1.006361022591590881e-01,3.601205348968505859e-01,5.564957857131958008e-01,2.611019611358642578e-01,-5.213394761085510254e-02,1.556369215250015259e-01,4.401166364550590515e-02,6.577188521623611450e-02,1.366688758134841919e-01,-5.722856521606445312e-02,2.605643868446350098e-01,-5.490767583250999451e-02,-3.876794502139091492e-02,-1.673289686441421509e-01,-3.106920421123504639e-01,-1.888550221920013428e-01,-1.133787562139332294e-03,-1.857218444347381592e-01,1.121862828731536865e-01,1.897981762886047363e-02,1.825648918747901917e-02,1.500168591737747192e-01,-5.147051438689231873e-02,1.272938847541809082e-01,2.018450796604156494e-01,6.859781593084335327e-02,9.946856647729873657e-02,-1.557219326496124268e-01,-5.645402148365974426e-02,-2.078636437654495239e-01,5.731933284550905228e-03,2.819524109363555908e-01,4.709557071328163147e-02,1.075040176510810852e-01,-2.108963429927825928e-01,1.036463975906372070e-01,-3.423281013965606689e-02,7.449828553944826126e-03,-7.760564237833023071e-02,-1.188194602727890015e-01,2.575261332094669342e-02,-2.879897877573966980e-02,-2.540194392204284668e-01,-9.718128712847828865e-04,-3.835104107856750488e-01,1.092511601746082306e-02,-8.889083564281463623e-02,-1.623945385217666626e-01,-3.939033448696136475e-01,1.398297101259231567e-01,-4.150542318820953369e-01,-5.012027025222778320e-01,8.651400357484817505e-02,3.651258945465087891e-01,1.752231717109680176e-01,-2.530991435050964355e-01,1.103932932019233704e-01,1.562270242720842361e-02,1.123566254973411560e-01,-3.259861096739768982e-02,1.791049242019653320e-01
1.644867956638336182e-01,-9.762541204690933228e-02,2.162937819957733154e-01,-1.295583788305521011e-02,2.036146521568298340e-01,-2.977544863824732602e-05,-1.794556714594364166e-02,-1.899956353008747101e-02,-3.107533603906631470e-02,-1.018254682421684265e-01,-1.136358454823493958e-02,1.394332852214574814e-02,-2.676304429769515991e-02,6.085347849875688553e-03,1.921737939119338989e-02,-1.385437846183776855e-01,2.567427158355712891e-01,2.411261945962905884e-01,-9.548226371407508850e-03,-2.311674505472183228e-01,1.840809732675552368e-02,1.401721406728029251e-02,-3.506020605564117432e-01,-4.184636473655700684e-02,1.288315206766128540e-01,6.206228211522102356e-02,-1.355504803359508514e-02,1.825700551271438599e-01,1.661808229982852936e-02,7.914080470800399780e-02,-2.822146750986576080e-02,-2.215395122766494751e-01,4.811352863907814026e-02,5.355493165552616119e-03,5.691036581993103027e-02,1.128908321261405945e-01,1.466689910739660263e-02,-1.267414391040802002e-01,1.552848052233457565e-02,-1.292591691017150879e-01,2.762821912765502930e-01,3.429455682635307312e-02,-4.315949231386184692e-02,-9.434376843273639679e-03,-4.309977889060974121e-01,-2.539264857769012451e-01,-8.248581737279891968e-02,-3.020270355045795441e-02,2.804913222789764404e-01,1.327936500310897827e-01,1.211324855685234070e-01,1.869128197431564331e-01,2.285641804337501526e-02,2.381007969379425049e-01,-4.056549072265625000e-02,8.815228939056396484e-03,-4.173180162906646729e-01,-2.048082835972309113e-02,-4.303232580423355103e-02,4.821036010980606079e-02,-3.754661977291107178e-02,-3.945716470479965210e-02,2.129463106393814087e-01,1.508505344390869141e-01
-4.471487179398536682e-02,-9.085565060377120972e-02,8.532708883285522461e-02,8.773915469646453857e-04,-2.771789953112602234e-02,5.302129313349723816e-02,-2.932944595813751221e-01,1.229423582553863525e-01,-4.286207854747772217e-01,-1.570917665958404541e-01,4.865719377994537354e-02,6.264700293540954590e-01,1.048986911773681641e-01,1.582446508109569550e-02,-1.573688164353370667e-02,1.665454730391502380e-02,4.544086158275604248e-01,-1.753322929143905640e-01,-3.341266885399818420e-02,-3.942365348339080811e-01,-7.927624136209487915e-02,1.996539533138275146e-01,-8.127316236495971680e-01,-3.245319426059722900e-01,8.029404282569885254e-02,-8.390879631042480469e-02,2.718929015100002289e-02,7.259077578783035278e-02,2.308977693319320679e-01,-4.553790390491485596e-01,-1.213645096868276596e-02,-8.056085556745529175e-02,-1.319699883460998535e-01,-2.154843658208847046e-01,2.544465241953730583e-03,-1.113685518503189087e-01,2.050496190786361694e-01,-2.666423618793487549e-01,6.379553116858005524e-03,1.317577809095382690e-01,5.926045179367065430e-01,2.752871811389923096e-01,-6.367829442024230957e-02,3.234319388866424561e-01,-4.353331923484802246e-01,-8.430315554141998291e-02,-2.830071747303009033e-01,-4.365779757499694824e-01,-2.171311993151903152e-03,5.240056663751602173e-02,2.310120165348052979e-01,2.752456068992614746e-01,7.819331437349319458e-02,1.284961402416229248e-01,-1.942207217216491699e-01,2.959512174129486084e-01,-1.715832203626632690e-01,-6.720674037933349609e-02,-1.104529052972793579e-01,5.055569857358932495e-02,5.330284684896469116e-02,2.274764515459537506e-02,3.057824671268463135e-01,1.090337634086608887e-01
-3.783834188197943149e-07,-1.915697112053749152e-06,1.143151447176933289e-01,4.659523256123065948e-06,2.913470845669507980e-03,2.789291329463594593e-06,9.296240932599175721e-06,2.603980712592601776e-02,-1.429028998245485127e-06,-5.570457688008900732e-06,1.922120281960815191e-05,2.540455199778079987e-03,5.431299214251339436e-04,5.839889636263251305e-04,-7.886026196501916274e-07,-2.486491393938194960e-05,-1.236563889506214764e-06,-1.094363710762991104e-06,-7.879015058279037476e-02,-9.059046395123004913e-03,1.612262508388084825e-06,3.860931883536977693e-06,-6.836608517915010452e-04,-3.735198106369352899e-06,4.453882202506065369e-02,-1.743810134939849377e-03,-1.906324655465141404e-06,2.307366766035556793e-02,9.802862070500850677e-03,-3.001138111358159222e-06,2.638995461165904999e-02,-7.064006477594375610e-02,-1.300493478775024414e-01,5.515030920832941774e-07,-1.314100623130798340e-02,1.074858009815216064e-03,6.344461580738425255e-04,-2.483787247911095619e-03,-1.188879195979097858e-06,7.082116603851318359e-02,1.378815472126007080e-01,3.591640270315110683e-04,6.472849845886230469e-02,2.286644130945205688e-01,-1.036030501127243042e-01,-2.346046967431902885e-03,-1.449317437618447002e-06,-2.413667738437652588e-01,5.311728455126285553e-04,4.449322586879134178e-04,8.098123362287878990e-04,2.500483560652355663e-06,-8.477240055799484253e-02,-7.998801767826080322e-03,7.859381847083568573e-03,6.770179606974124908e-03,-1.350066624581813812e-02,-1.904641612782143056e-05,-6.026498228311538696e-02,9.207573020830750465e-05,-6.744557060301303864e-03,1.279891096055507660e-02,-4.516689479351043701e-02,-3.045197081519290805e-05
-3.609862029552459717e-01,-1.903845928609371185e-02,6.960048805922269821e-03,4.014341626316308975e-03,-1.069273874163627625e-01,6.573044061660766602e-01,1.280485093593597412e-01,-4.334625601768493652e-02,-6.675817817449569702e-02,-2.406728714704513550e-01,-1.407506316900253296e-01,-2.018295973539352417e-02,2.871365286409854889e-02,4.742968082427978516e-01,-2.579301036894321442e-02,3.380243107676506042e-02,-1.468730904161930084e-02,-6.189423054456710815e-02,-1.806280016899108887e-01,-5.780391022562980652e-02,5.538747832179069519e-02,1.125288233160972595e-01,-4.945013206452131271e-03,2.590790390968322754e-02,1.426603347063064575e-01,9.187808632850646973e-02,-1.625047065317630768e-02,-1.911520510911941528e-01,1.124754846096038818e-01,2.245680429041385651e-03,7.570623885840177536e-03,-1.499633938074111938e-01,5.100669339299201965e-03,3.388559818267822266e-02,1.479770429432392120e-02,-1.532583683729171753e-01,-1.337181031703948975e-01,2.639384008944034576e-02,-5.157386511564254761e-02,-4.241093993186950684e-03,-7.712534070014953613e-02,9.898509830236434937e-02,-3.886234015226364136e-02,3.214356005191802979e-01,1.973477602005004883e-01,1.039014905691146851e-01,1.088462956249713898e-02,9.171701222658157349e-02,-1.241596862673759460e-01,1.970479637384414673e-01,5.799343809485435486e-03,-2.420930564403533936e-01,1.138390824198722839e-01,6.468034535646438599e-02,-2.493430860340595245e-02,2.144520431756973267e-01,2.393522411584854126e-01,-1.280708760023117065e-01,-3.238490223884582520e-02,-3.630610927939414978e-02,6.392656825482845306e-03,8.078025281429290771e-02,5.831686034798622131e-02,7.613072171807289124e-03
1.149035617709159851e-01,-1.441867351531982422e-01,8.610931038856506348e-02,2.212640270590782166e-02,-1.153073180466890335e-02,-2.728126710280776024e-03,-3.307544440031051636e-02,1.180472150444984436e-01,-5.263074487447738647e-02,-3.250862956047058105e-01,-3.558367118239402771e-02,5.449668690562248230e-02,1.116078421473503113e-01,-2.481435686349868774e-01,-4.201252385973930359e-02,-5.041078105568885803e-02,8.190105855464935303e-02,-9.558002650737762451e-02,-4.702097475528717041e-01,1.659537702798843384e-01,-8.951311465352773666e-04,8.586912602186203003e-02,-6.851804256439208984e-02,-1.824860810302197933e-03,-2.026259712874889374e-02,-2.696556225419044495e-02,-9.950189851224422455e-03,3.190585179254412651e-03,5.474973917007446289e-01,-1.081666797399520874e-01,9.721658378839492798e-02,-1.142159923911094666e-01,-1.867711246013641357e-01,-2.634057030081748962e-02,3.005909919738769531e-02,1.875535398721694946e-02,3.956308960914611816e-01,-9.135702252388000488e-02,2.255268208682537079e-02,1.893125101923942566e-02,2.404621690511703491e-01,4.657447338104248047e-02,1.962772309780120850e-01,3.310048952698707581e-02,-1.344803124666213989e-01,-8.548590354621410370e-03,-4.844273254275321960e-02,-9.275968372821807861e-02,1.651260070502758026e-02,3.884149491786956787e-01,1.866963319480419159e-02,-4.007793322671204805e-04,4.266688227653503418e-01,-1.720074750483036041e-02,-2.687068842351436615e-02,2.912305295467376709e-01,1.995918005704879761e-01,-1.392910629510879517e-02,-3.454329818487167358e-02,2.660978771746158600e-02,1.924074254930019379e-02,-2.180861309170722961e-02,1.596883535385131836e-01,7.512792944908142090e-02
-4.822112619876861572e-02,-3.970154747366905212e-02,4.251431524753570557e-01,-1.273289136588573456e-02,-4.917400330305099487e-02,3.420564234256744385e-01,1.789681464433670044e-01,3.599938750267028809e-02,-7.903243415057659149e-03,1.623239070177078247e-01,-1.260450631380081177e-01,3.299205601215362549e-01,2.613762021064758301e-01,2.563729584217071533e-01,-3.655763566493988037e-01,-2.566485106945037842e-01,6.418902426958084106e-02,-7.149340212345123291e-02,2.807967830449342728e-03,-7.295722514390945435e-02,-1.351356878876686096e-02,7.280077040195465088e-02,-6.103062033653259277e-01,-2.164644896984100342e-01,1.200388818979263306e-01,1.208956018090248108e-01,-1.525269895792007446e-01,1.388653069734573364e-01,1.179419904947280884e-01,-1.325948834419250488e-01,-3.093152344226837158e-01,8.543024212121963501e-02,1.661050021648406982e-01,-1.496961712837219238e-01,-5.151963233947753906e-02,6.536940485239028931e-02,4.806365072727203369e-01,1.934589818120002747e-02,8.064821362495422363e-02,6.967828143388032913e-03,3.678411543369293213e-01,1.088536232709884644e-01,-2.369220256805419922e-01,1.329581439495086670e-01,-7.497546672821044922e-01,-1.533638536930084229e-01,-8.189693093299865723e-02,-3.791885972023010254e-01,2.621253728866577148e-01,-7.433474808931350708e-02,7.283451408147811890e-02,-1.062300801277160645e-01,8.545460551977157593e-02,-6.460639834403991699e-02,-7.567296177148818970e-02,8.450074493885040283e-02,-1.758400052785873413e-01,7.178964558988809586e-03,1.354540325701236725e-02,6.213492527604103088e-02,-8.790047466754913330e-02,6.633773446083068848e-02,2.837544083595275879e-01,1.507043242454528809e-01
-8.736710250377655029e-02,-1.490104347467422485e-01,-1.350870281457901001e-01,1.947312266565859318e-04,-1.690655201673507690e-02,7.704827189445495605e-02,1.534405499696731567e-01,4.296482205390930176e-01,-1.024945173412561417e-02,-2.281743735074996948e-01,-1.523748487234115601e-01,6.090986728668212891e-01,8.134527504444122314e-02,2.912631444633007050e-02,1.354399472475051880e-01,-2.656194008886814117e-02,1.078717969357967377e-02,-3.542603179812431335e-02,-1.171437799930572510e-01,1.787886582314968109e-02,7.746329903602600098e-02,-6.520259194076061249e-03,5.392454937100410461e-02,4.361155256628990173e-02,-9.651400148868560791e-03,-2.378030568361282349e-01,-2.667452394962310791e-01,-8.695125579833984375e-02,-2.077101022005081177e-01,3.513248264789581299e-02,6.866958141326904297e-01,-8.811117708683013916e-02,-1.104442216455936432e-02,-7.940270006656646729e-02,3.867364674806594849e-02,-9.721486270427703857e-02,-3.157603368163108826e-02,9.562263637781143188e-02,-3.196581006050109863e-01,4.562573134899139404e-02,-7.319925725460052490e-02,4.914325661957263947e-03,8.706557564437389374e-03,1.254820674657821655e-01,1.157190427184104919e-01,-3.134994953870773315e-02,-1.403276063501834869e-02,3.661897405982017517e-02,-2.551909163594245911e-02,2.687909007072448730e-01,-6.858821958303451538e-03,-4.698776304721832275e-01,3.709145188331604004e-01,-7.607677578926086426e-02,1.966245621442794800e-01,-1.339372396469116211e-01,5.186747312545776367e-01,-8.535473793745040894e-02,-2.829628884792327881e-01,2.018105387687683105e-01,-8.258911781013011932e-03,1.140257343649864197e-01,-7.935659587383270264e-02,-2.387657463550567627e-01
-1.964674331247806549e-02,1.615095324814319611e-02,-1.054365336894989014e-01,-2.747972612269222736e-04,1.438698768615722656e-01,1.124270111322402954e-01,2.835240960121154785e-01,2.038701027631759644e-01,2.152180112898349762e-02,1.691970676183700562e-01,4.195950925350189209e-02,4.937026649713516235e-02,-6.336317211389541626e-02,2.636935189366340637e-02,-1.203358396887779236e-01,-2.489335387945175171e-01,-5.470598116517066956e-02,-1.322417855262756348e-01,-4.560151323676109314e-02,-1.579119265079498291e-02,1.247054897248744965e-02,1.302768737077713013e-01,2.494067698717117310e-02,2.922800183296203613e-02,2.043558284640312195e-02,-1.395052764564752579e-03,-5.958971753716468811e-02,-9.074495732784271240e-02,-1.761670410633087158e-01,6.384044140577316284e-02,7.307875156402587891e-01,-1.473766863346099854e-01,-7.626437395811080933e-02,2.217775583267211914e-02,-3.499299287796020508e-01,-6.831677258014678955e-02,-2.174517363309860229e-01,3.000819496810436249e-02,-7.452046964317560196e-03,1.152655035257339478e-01,-2.634167969226837158e-01,-1.809761971235275269e-01,-1.938354969024658203e-02,5.373528972268104553e-02,3.208051025867462158e-01,-7.790517061948776245e-02,-8.692952804267406464e-03,-1.387340575456619263e-01,-6.767021864652633667e-02,1.750316768884658813e-01,-8.352767676115036011e-03,-3.776640594005584717e-01,9.043402969837188721e-03,-7.521949708461761475e-02,1.622644066810607910e-01,1.293733716011047363e-01,2.838223055005073547e-02,-1.697845384478569031e-02,1.445831954479217529e-01,-4.212993383407592773e-02,-3.605483844876289368e-02,1.498823165893554688e-01,-2.219789326190948486e-01,-1.821002662181854248e-01
1.818412244319915771e-01,-2.162079066038131714e-01,2.350993454456329346e-01,2.393824397586286068e-04,-5.140076205134391785e-02,-2.916046977043151855e-02,-4.428758844733238220e-02,3.504695296287536621e-01,-9.654040634632110596e-02,6.196410581469535828e-02,-5.621922761201858521e-02,2.141783684492111206e-01,-1.904982775449752808e-01,-5.851895362138748169e-02,6.641232222318649292e-02,-2.748598158359527588e-01,2.534457743167877197e-01,-1.784623786807060242e-02,-7.220281660556793213e-02,1.659205853939056396e-01,-1.890683472156524658e-01,2.821458876132965088e-02,-3.580437302589416504e-01,-1.985644698143005371e-01,2.644833624362945557e-01,1.785677522420883179e-01,-9.028720110654830933e-02,-5.045273527503013611e-02,-2.143553048372268677e-01,-6.775976717472076416e-02,-5.393444374203681946e-02,-6.056492403149604797e-02,-1.338184177875518799e-01,-2.563310861587524414e-01,4.778212308883666992e-02,1.680836230516433716e-01,2.420921325683593750e-01,-2.308336496353149414e-01,4.446357116103172302e-02,-1.146391704678535461e-01,2.899458706378936768e-01,2.088655978441238403e-01,2.151089865947142243e-04,1.924253106117248535e-01,-4.311852753162384033e-01,-3.665598342195153236e-03,-2.041294053196907043e-02,-2.624717950820922852e-01,2.784068882465362549e-01,1.428296864032745361e-01,1.896208822727203369e-01,2.627763152122497559e-01,-4.817980825901031494e-01,-2.100524008274078369e-01,-4.712364375591278076e-01,-1.214031726121902466e-01,-2.106999456882476807e-01,8.180652558803558350e-02,-4.338935762643814087e-02,2.584629692137241364e-03,-2.904942929744720459e-01,4.118208587169647217e-02,4.602355360984802246e-01,7.107203360646963120e-03
5.559857003390789032e-03,-4.397371318191289902e-03,4.475992321968078613e-01,2.107527339830994606e-03,-1.877550594508647919e-02,2.728526592254638672e-01,9.132068371400237083e-04,2.125400751829147339e-01,-1.121481880545616150e-01,1.682539284229278564e-02,2.680321969091892242e-02,6.889703869819641113e-02,-3.317498788237571716e-02,6.332543492317199707e-02,-9.651903808116912842e-02,-7.473638653755187988e-02,1.977706560865044594e-04,-1.661872714757919312e-01,-1.601385027170181274e-01,-1.800947189331054688e-01,-1.895461603999137878e-02,3.091746568679809570e-01,-2.457416206598281860e-01,-2.188200876116752625e-02,2.162513285875320435e-01,3.618200123310089111e-02,3.405606141313910484e-03,1.364583075046539307e-01,-5.309539660811424255e-02,1.800935366190969944e-03,5.427144467830657959e-02,-4.159826785326004028e-02,-2.509432435035705566e-01,-3.941560164093971252e-03,6.265043281018733978e-03,-1.196287944912910461e-02,1.460731327533721924e-01,-1.100733652710914612e-01,2.890095114707946777e-02,4.299082756042480469e-01,4.079044461250305176e-01,1.607688069343566895e-01,2.360051684081554413e-02,1.056185811758041382e-01,-4.318127632141113281e-01,1.677694357931613922e-02,1.815419085323810577e-02,-2.327056080102920532e-01,-1.147528178989887238e-03,-1.043685376644134521e-01,1.581094227731227875e-02,3.703032433986663818e-02,3.006689622998237610e-02,-4.507454484701156616e-02,-1.539360079914331436e-02,3.120879270136356354e-02,-2.068035677075386047e-02,-5.599745362997055054e-02,-3.980205059051513672e-01,1.218769932165741920e-03,-9.936111420392990112e-02,1.094238981604576111e-01,3.486438393592834473e-01,-1.425223797559738159e-01
-2.256607549497857690e-04,-2.967201871797442436e-03,4.637736454606056213e-02,-8.161020465195178986e-03,-6.912305951118469238e-02,-9.117457084357738495e-03,-6.351616233587265015e-02,1.887484490871429443e-01,-8.867179602384567261e-02,-2.462235987186431885e-01,-4.629438277333974838e-03,1.725953072309494019e-01,-2.798598706722259521e-01,-4.729627072811126709e-02,1.288571394979953766e-03,-2.030139975249767303e-02,8.723820745944976807e-02,-8.163508027791976929e-02,1.208996772766113281e-01,8.771843276917934418e-03,3.207569196820259094e-02,4.782077670097351074e-02,-1.667415052652359009e-01,5.453758873045444489e-03,1.018582955002784729e-01,3.112993948161602020e-02,-5.091188009828329086e-03,4.288917034864425659e-02,-1.345977336168289185e-01,2.527582924813032150e-03,2.873940952122211456e-02,-2.134400010108947754e-01,-1.162468865513801575e-01,1.226362586021423340e-02,1.459626480937004089e-02,5.637010559439659119e-02,3.266308307647705078e-01,7.870597392320632935e-02,-1.446246448904275894e-02,2.315812744200229645e-02,2.383525520563125610e-01,-1.557780057191848755e-01,3.512243926525115967e-02,3.012594878673553467e-01,-2.864272296428680420e-01,1.232767105102539062e-01,-6.006507948040962219e-02,6.420350819826126099e-02,-3.563360497355461121e-02,2.177173644304275513e-01,-1.777975447475910187e-02,1.283088922500610352e-01,-1.711706370115280151e-01,2.031810730695724487e-01,1.454344242811203003e-01,3.344899415969848633e-01,-1.141996234655380249e-01,-4.574215039610862732e-02,-5.366324186325073242e-01,-4.566827788949012756e-02,-3.188177645206451416e-01,1.152394339442253113e-02,1.415013819932937622e-01,9.717659093439579010e-03
1.436326801776885986e-01,1.107365339994430542e-01,1.031687408685684204e-01,-1.886643022298812866e-01,6.649220734834671021e-02,2.021429538726806641e-01,2.462959289550781250e-01,4.223336279392242432e-01,1.717093586921691895e-02,-3.006211668252944946e-02,-6.952743232250213623e-02,4.579069316387176514e-01,3.874385729432106018e-02,8.267728984355926514e-02,-9.795794636011123657e-02,-5.362656712532043457e-02,-1.149283722043037415e-03,-1.272200495004653931e-01,1.140577271580696106e-01,-6.548785418272018433e-02,-2.981009185314178467e-01,1.296592950820922852e-01,-3.137378990650177002e-01,-1.758525222539901733e-01,2.597040832042694092e-01,-1.329165101051330566e-01,-5.045317113399505615e-02,-1.666439175605773926e-01,-1.023290753364562988e-01,-4.930979013442993164e-02,1.835695505142211914e-01,-4.255590736865997314e-01,-3.014865331351757050e-02,-1.582431606948375702e-02,1.222802698612213135e-02,6.280281394720077515e-02,3.460040688514709473e-01,-5.702249705791473389e-02,-2.918910980224609375e-02,2.954087257385253906e-01,2.505814731121063232e-01,-7.216351479291915894e-02,-1.292175501585006714e-01,3.065275251865386963e-01,-4.629632458090782166e-02,1.917389594018459320e-02,3.728187084197998047e-02,-4.229547381401062012e-01,2.869532704353332520e-01,-3.854070964735001326e-04,-3.015930764377117157e-03,8.870005607604980469e-02,-1.464491784572601318e-01,-2.706242203712463379e-01,-1.787824779748916626e-01,-2.215557964518666267e-03,1.479993015527725220e-01,1.755128353834152222e-01,-8.226908743381500244e-02,2.285571545362472534e-01,9.125857613980770111e-03,3.117711544036865234e-01,2.418508976697921753e-01,-1.112363487482070923e-01
2.864190563559532166e-02,6.203182414174079895e-02,2.883685231208801270e-01,4.419533070176839828e-03,-5.194699168205261230e-01,6.032906100153923035e-02,2.471285015344619751e-01,5.913893505930900574e-02,-3.442317247390747070e-02,9.157501044683158398e-04,2.576895803213119507e-02,-2.018538862466812134e-01,-1.057814508676528931e-01,-9.376550465822219849e-02,2.312207221984863281e-01,1.288279742002487183e-01,-9.380608797073364258e-02,-1.809681653976440430e-01,-3.582227528095245361e-01,8.052843809127807617e-02,1.065543852746486664e-02,4.974390845745801926e-03,-1.974822953343391418e-05,1.546108275651931763e-01,-6.419591605663299561e-03,2.300907373428344727e-01,3.701662644743919373e-02,1.328553259372711182e-01,5.510883033275604248e-02,2.483185827732086182e-01,6.881667766720056534e-03,4.285492300987243652e-01,-1.824457347393035889e-01,6.324434280395507812e-02,-1.367642730474472046e-02,5.743666887283325195e-01,-2.763938307762145996e-01,-9.260731190443038940e-02,2.355734258890151978e-02,-1.312154531478881836e-01,-1.382360905408859253e-01,1.168318651616573334e-02,-1.071860194206237793e-01,2.414813190698623657e-01,-4.045730829238891602e-01,6.785900145769119263e-02,5.704098567366600037e-02,-2.013484686613082886e-01,-2.205708622932434082e-01,2.974994480609893799e-01,1.080384664237499237e-02,-4.016736894845962524e-02,-1.316271722316741943e-01,-1.030058860778808594e-01,-3.556078765541315079e-03,1.937972158193588257e-01,2.851620316505432129e-01,8.822599053382873535e-02,5.135017912834882736e-03,-8.446981012821197510e-02,-2.297621071338653564e-01,5.671342462301254272e-02,8.562419563531875610e-02,6.749796867370605469e-02
-1.394803076982498169e-01,-2.556338608264923096e-01,7.723702490329742432e-02,-5.212371237576007843e-03,5.788346007466316223e-02,2.808067500591278076e-01,1.829809695482254028e-02,-4.195791855454444885e-02,-6.506326049566268921e-02,1.006687805056571960e-01,4.264182224869728088e-02,7.947825640439987183e-02,-1.703731715679168701e-01,-3.592262510210275650e-04,2.266425490379333496e-01,1.124730333685874939e-01,-6.933438777923583984e-02,-2.085642218589782715e-01,-5.552127361297607422e-01,3.338428214192390442e-02,3.626777827739715576e-01,2.747062742710113525e-01,3.880161792039871216e-03,3.733186051249504089e-02,1.510461699217557907e-02,9.104026108980178833e-02,-2.646098285913467407e-02,6.522832810878753662e-02,-6.035618782043457031e-01,-1.968869939446449280e-02,8.465314283967018127e-03,3.307576179504394531e-01,-5.234898924827575684e-01,1.213202718645334244e-03,3.150373697280883789e-02,-1.104985643178224564e-02,-4.078028202056884766e-01,-3.280707448720932007e-02,-6.478349119424819946e-02,3.137112781405448914e-02,-1.264781504869461060e-02,3.831855058670043945e-01,8.946993947029113770e-02,1.091074384748935699e-02,2.436877787113189697e-02,8.504771441221237183e-02,9.825243800878524780e-02,-1.817678287625312805e-02,-9.214638918638229370e-02,6.236920505762100220e-02,1.485756505280733109e-02,-3.524543642997741699e-01,1.313676033169031143e-02,1.427482962608337402e-01,-8.017197251319885254e-02,1.971827149391174316e-01,8.320661634206771851e-02,-2.351860553026199341e-01,-2.972961068153381348e-01,1.358762034215033054e-03,-3.167455270886421204e-02,4.080204665660858154e-02,3.215803951025009155e-02,1.188828889280557632e-02
2.644637823104858398e-01,9.217566251754760742e-02,-1.028815470635890961e-02,8.078648149967193604e-02,-7.407398521900177002e-02,-3.734005615115165710e-02,7.191014476120471954e-03,3.280397057533264160e-01,-1.927143931388854980e-01,-1.819008588790893555e-01,2.631101012229919434e-02,8.318869024515151978e-02,6.080530211329460144e-02,-5.593590065836906433e-02,-2.283873967826366425e-02,-4.650783240795135498e-01,9.035972505807876587e-02,4.372386634349822998e-02,2.835870161652565002e-02,-2.304499410092830658e-02,1.230720132589340210e-01,1.049170419573783875e-01,-9.936552494764328003e-02,-1.746798753738403320e-01,-1.295509980991482735e-03,1.569613218307495117e-01,-2.038945257663726807e-02,-1.712031662464141846e-01,1.279255934059619904e-02,-1.795535832643508911e-01,-9.143224917352199554e-03,-1.984418034553527832e-01,3.716126084327697754e-02,-1.090882569551467896e-01,-2.709419699385762215e-03,-4.597170650959014893e-02,5.497100353240966797e-01,-5.639380216598510742e-02,-2.810078300535678864e-02,9.781218320131301880e-02,2.844491004943847656e-01,7.963207550346851349e-03,2.538169734179973602e-02,1.143289878964424133e-01,-1.296017616987228394e-01,1.797443926334381104e-01,-7.888306677341461182e-02,-1.028210818767547607e-01,3.585853576660156250e-01,-1.566727310419082642e-01,2.036506086587905884e-01,4.786501452326774597e-02,-1.211997941136360168e-01,3.129899799823760986e-01,-1.596147269010543823e-01,-1.552524715662002563e-01,-2.857637703418731689e-01,-8.240598440170288086e-02,-7.396081089973449707e-02,1.608511805534362793e-01,2.307907789945602417e-01,-2.448737248778343201e-02,2.876493632793426514e-01,-3.468201309442520142e-02
2.553039491176605225e-01,8.640550076961517334e-02,1.372273862361907959e-01,2.855087444186210632e-02,1.282012611627578735e-01,-2.045646682381629944e-02,4.468671046197414398e-03,-3.539193570613861084e-01,-2.249670028686523438e-01,-2.663505077362060547e-01,1.323620975017547607e-01,1.904956102371215820e-01,-1.505717169493436813e-02,-7.218751311302185059e-02,2.664981186389923096e-01,-9.635242819786071777e-02,-5.291152745485305786e-02,2.114533036947250366e-01,-2.343265116214752197e-01,1.531901806592941284e-01,-1.673083007335662842e-01,-5.382273718714714050e-02,-3.027742914855480194e-02,-2.252427302300930023e-02,-7.169747352600097656e-02,-3.928483277559280396e-02,-3.046336770057678223e-02,4.775776267051696777e-01,3.043608069419860840e-01,-9.842165559530258179e-02,3.250822722911834717e-01,6.793335080146789551e-02,-1.293739527463912964e-01,-6.759986281394958496e-02,-1.219129040837287903e-01,-1.109404638409614563e-01,1.092620659619569778e-02,-2.194354087114334106e-01,2.685606777667999268e-01,-2.935102768242359161e-02,-6.518378108739852905e-02,3.761217743158340454e-02,-1.744668781757354736e-01,-7.773206382989883423e-02,-1.744819134473800659e-01,-3.062163479626178741e-03,-2.540855295956134796e-02,-3.664010390639305115e-02,-1.185657680034637451e-01,1.551979035139083862e-02,7.649599760770797729e-02,8.261490613222122192e-03,-1.305997744202613831e-02,5.715610086917877197e-02,2.684489451348781586e-02,2.121332436800003052e-01,1.870895028114318848e-01,-3.392485529184341431e-02,1.584563106298446655e-01,8.970683440566062927e-03,3.957970440387725830e-02,-1.038974300026893616e-01,3.398873805999755859e-01,-5.513244122266769409e-02
7.244653999805450439e-02,-2.525652348995208740e-01,-5.528228729963302612e-02,6.472101807594299316e-02,-7.556228898465633392e-03,-6.016379967331886292e-02,1.063766777515411377e-01,6.672868877649307251e-02,-3.519742190837860107e-01,-3.689300119876861572e-01,6.104390136897563934e-03,-2.164996415376663208e-01,4.203203693032264709e-02,5.654765118379145861e-06,1.043972373008728027e-01,9.802754223346710205e-02,-7.366522401571273804e-02,-7.894341647624969482e-02,-2.060922235250473022e-01,-2.296796999871730804e-02,3.090130984783172607e-01,5.188331007957458496e-02,-1.424458026885986328e-01,1.777715384960174561e-01,-1.018781680613756180e-02,1.984389126300811768e-01,-8.744399249553680420e-02,-1.818939000368118286e-01,-3.516126051545143127e-02,-7.294783741235733032e-02,8.664417080581188202e-03,3.702077269554138184e-01,1.598548889160156250e-02,-7.886678911745548248e-03,1.285617332905530930e-02,-3.099963255226612091e-02,2.581750154495239258e-01,-4.225285723805427551e-02,-5.166560783982276917e-02,1.420094911009073257e-02,7.341180462390184402e-03,7.028505206108093262e-02,2.890029251575469971e-01,-2.483729086816310883e-02,-3.427312970161437988e-01,9.072139114141464233e-02,-1.991073228418827057e-02,1.165547296404838562e-01,1.921066641807556152e-02,-1.036584004759788513e-01,8.738386631011962891e-02,-2.691375613212585449e-01,-1.245744526386260986e-01,2.548755109310150146e-01,-1.647911369800567627e-01,-6.917839497327804565e-02,-8.159544318914413452e-03,-8.337412029504776001e-02,-4.399827718734741211e-01,-8.735646493732929230e-03,8.775491267442703247e-02,6.826020032167434692e-02,-1.662186682224273682e-01,2.165487110614776611e-01
5.269865393638610840e-01,1.198614984750747681e-01,-1.215261593461036682e-01,4.436406865715980530e-02,-3.582973778247833252e-01,-3.799048364162445068e-01,-2.219680324196815491e-02,8.037895709276199341e-02,6.919957697391510010e-02,-9.015377610921859741e-02,6.373300403356552124e-02,-1.244267895817756653e-01,-2.529651820659637451e-01,-3.538294732570648193e-01,-3.488091006875038147e-02,-1.958730220794677734e-01,2.679730765521526337e-02,1.609664857387542725e-01,-2.423828095197677612e-01,-1.928497552871704102e-01,9.539598971605300903e-02,-2.178394347429275513e-01,-1.181404571980237961e-03,-9.560773521661758423e-02,-4.709770902991294861e-03,1.801657378673553467e-01,-1.431305147707462311e-02,3.627805411815643311e-01,2.118755280971527100e-01,1.407926809042692184e-02,1.037403643131256104e-01,6.011826545000076294e-02,4.472498595714569092e-02,1.814802526496350765e-03,-2.319086529314517975e-02,1.537093967199325562e-01,1.842238567769527435e-02,8.843134343624114990e-02,-7.084453105926513672e-02,-1.276831724680960178e-03,-7.040724623948335648e-03,1.690795719623565674e-01,1.653008610010147095e-01,-1.150401458144187927e-01,-4.389443993568420410e-01,-2.074317634105682373e-02,-8.279241621494293213e-02,-1.905160695314407349e-01,-4.115784168243408203e-02,2.206439822912216187e-01,5.415772274136543274e-02,-1.624276861548423767e-02,1.050375625491142273e-01,-1.614694297313690186e-01,-1.005468741059303284e-01,5.756124854087829590e-01,6.643667002208530903e-04,1.649340614676475525e-03,-2.184349745512008667e-01,-1.710087656974792480e-01,-4.612422734498977661e-02,-1.669654846191406250e-01,-4.137037992477416992e-01,-4.678701981902122498e-03
-1.987925916910171509e-02,-4.132293164730072021e-02,2.448694556951522827e-01,1.025256514549255371e-01,-6.045990809798240662e-02,2.119839936494827271e-02,2.422256162390112877e-03,2.489901036024093628e-01,4.359500948339700699e-03,-2.849179506301879883e-01,-3.589468076825141907e-02,-1.382075995206832886e-02,4.510926455259323120e-02,6.902873981744050980e-03,3.821768099442124367e-03,-4.613388329744338989e-02,5.360024794936180115e-02,-5.711524747312068939e-03,-2.022811770439147949e-01,-6.992074102163314819e-02,3.050402551889419556e-02,4.370485898107290268e-03,-4.080727398395538330e-01,-1.796894073486328125e-01,2.296783961355686188e-02,2.197974473237991333e-01,-3.885037358486442827e-07,3.844863548874855042e-02,2.003254294395446777e-01,-1.427882611751556396e-01,-1.046519279479980469e-01,6.638502329587936401e-02,1.186652854084968567e-01,-5.978139117360115051e-02,1.307198591530323029e-02,2.167767137289047241e-01,4.237987697124481201e-01,-1.203309092670679092e-02,-5.254840478301048279e-03,-1.742587611079216003e-02,2.405759990215301514e-01,1.509958654642105103e-01,1.519269347190856934e-01,6.594660133123397827e-02,-8.550977706909179688e-01,8.417005091905593872e-02,-5.462664738297462463e-02,1.201945450156927109e-02,1.670530252158641815e-02,-1.127709150314331055e-01,1.351916193962097168e-01,1.906155026517808437e-03,-5.469240713864564896e-03,8.179827034473419189e-02,3.415078623220324516e-03,-1.902162679471075535e-03,-1.749277561902999878e-01,2.033115550875663757e-02,-3.801307082176208496e-01,-7.466964423656463623e-03,-1.144723221659660339e-02,9.311542846262454987e-03,-5.915904790163040161e-02,1.087423339486122131e-01
-6.727838516235351562e-02,1.191723793745040894e-01,6.579288840293884277e-01,-2.582360431551933289e-02,-1.692214310169219971e-01,1.142412647604942322e-01,9.588190354406833649e-03,3.175746500492095947e-01,-9.937977790832519531e-02,-7.259114086627960205e-02,7.454898208379745483e-02,-1.629834249615669250e-02,-7.715510576963424683e-02,1.332859992980957031e-01,1.719369739294052124e-01,1.807326823472976685e-02,-4.479192197322845459e-02,-1.395150572061538696e-01,-2.907170653343200684e-01,-2.874477952718734741e-02,-6.300090253353118896e-02,2.491412311792373657e-01,-9.197512269020080566e-02,1.204390916973352432e-02,1.350320875644683838e-01,-1.063057109713554382e-01,4.348124191164970398e-02,2.510055601596832275e-01,1.985556930303573608e-01,2.929698303341865540e-02,-1.228145696222782135e-02,1.906471699476242065e-01,-2.073155045509338379e-01,-3.839946002699434757e-04,2.044124156236648560e-02,8.256398141384124756e-02,1.544500738382339478e-01,-2.625119686126708984e-02,6.563789397478103638e-02,-2.942039258778095245e-02,6.301523000001907349e-02,1.552398651838302612e-01,1.068191751837730408e-01,2.528650462627410889e-01,-4.285024106502532959e-01,2.773233503103256226e-02,-5.512799136340618134e-03,-9.100277721881866455e-02,-4.701607301831245422e-02,1.927511021494865417e-02,-1.109514967538416386e-03,5.551468580961227417e-02,-1.524134874343872070e-01,6.557048857212066650e-02,-1.183323115110397339e-01,1.607309430837631226e-01,1.735082417726516724e-01,2.611824311316013336e-02,-4.587031900882720947e-01,-3.948362171649932861e-02,-1.047130897641181946e-01,1.425065658986568451e-02,4.768426418304443359e-01,-4.840889945626258850e-02
2.607700787484645844e-02,-2.791228294372558594e-01,1.230829879641532898e-01,5.671500042080879211e-02,-8.138009905815124512e-02,7.654840499162673950e-02,4.604864120483398438e-02,-7.743044197559356689e-02,-2.874849438667297363e-01,6.155502423644065857e-02,-2.368963137269020081e-02,1.067825108766555786e-01,-1.438847035169601440e-01,2.898249030113220215e-01,7.484431378543376923e-03,5.530687794089317322e-02,1.282517611980438232e-01,-4.268101975321769714e-02,-4.940235018730163574e-01,-2.124997526407241821e-01,3.578604757785797119e-01,3.613658845424652100e-01,-4.340468943119049072e-01,-2.240446023643016815e-02,2.137225270271301270e-01,3.295358121395111084e-01,-1.023257391352672130e-05,1.798864454030990601e-01,-7.435093820095062256e-02,-7.343544811010360718e-02,-4.253428801894187927e-02,-5.578484013676643372e-02,-1.746246665716171265e-01,-2.233245468232780695e-04,-5.666572600603103638e-02,2.012195736169815063e-01,-2.916314639151096344e-02,1.041227206587791443e-02,-5.068256705999374390e-02,4.018960520625114441e-02,1.902356445789337158e-01,2.567822039127349854e-01,2.959496527910232544e-02,-5.838939547538757324e-02,-3.664802908897399902e-01,1.466586291790008545e-01,-5.234076082706451416e-02,-3.580184653401374817e-02,-3.364619566127657890e-03,7.450966536998748779e-02,1.699959486722946167e-01,1.178467925637960434e-02,-3.099275231361389160e-01,5.517063140869140625e-01,-7.814750075340270996e-02,2.854283154010772705e-02,-3.505619764328002930e-01,-1.388088911771774292e-01,-4.676633477210998535e-01,1.854417100548744202e-02,-9.946612268686294556e-02,1.150580346584320068e-01,-5.413996800780296326e-02,-3.516397191560827196e-05
-1.289647519588470459e-01,1.163806617259979248e-01,-1.388328522443771362e-01,2.115220017731189728e-02,-4.383682906627655029e-01,-1.612251400947570801e-01,9.239173680543899536e-02,-4.246711432933807373e-01,-2.438406497240066528e-01,-7.478689309209585190e-03,2.514767944812774658e-01,-6.069181859493255615e-02,-9.832604229450225830e-02,2.993572875857353210e-02,9.748716838657855988e-03,2.558438479900360107e-01,-9.966597706079483032e-02,3.101035654544830322e-01,2.577728964388370514e-02,3.569643795490264893e-01,6.214500963687896729e-02,-1.906500160694122314e-01,2.016823142766952515e-01,5.714757833629846573e-03,-1.216178238391876221e-01,-1.556088477373123169e-01,7.565920241177082062e-03,-1.335622183978557587e-02,5.133262276649475098e-01,1.485168337821960449e-01,2.756869792938232422e-01,2.147134393453598022e-01,-1.234794631600379944e-01,3.423570841550827026e-02,-4.243781045079231262e-02,-1.535291224718093872e-01,-4.457671940326690674e-01,5.785701796412467957e-02,9.662484377622604370e-02,9.375984780490398407e-03,-3.304179608821868896e-01,-8.808244019746780396e-02,-6.104025989770889282e-03,-8.589230477809906006e-02,5.632365345954895020e-01,-4.817012697458267212e-02,-5.241306498646736145e-02,9.399391710758209229e-02,-1.909649372100830078e-01,1.893623918294906616e-01,-1.586065143346786499e-01,7.774849236011505127e-02,1.611740291118621826e-01,6.231344491243362427e-02,2.133547812700271606e-01,2.272019833326339722e-01,2.049696147441864014e-01,-2.918486297130584717e-01,1.322190649807453156e-02,-1.706090867519378662e-01,-2.477496862411499023e-01,-2.872966602444648743e-02,-1.976394504308700562e-01,-3.396875560283660889e-01
-6.370533257722854614e-02,-2.320904880762100220e-01,2.437738031148910522e-01,-3.131099976599216461e-03,-2.413980811834335327e-01,5.700764805078506470e-02,-1.855062842369079590e-01,-8.496964350342750549e-03,-3.624382913112640381e-01,-6.060479283332824707e-01,1.730334572494029999e-02,7.073977030813694000e-04,-1.218368709087371826e-01,2.382460683584213257e-01,8.312278427183628082e-03,1.295079588890075684e-01,1.179111748933792114e-02,-1.174774318933486938e-01,-6.039090454578399658e-02,-1.265451014041900635e-01,3.848948478698730469e-01,2.078275531530380249e-01,-6.184629797935485840e-01,-1.250378638505935669e-01,4.153160005807876587e-02,1.340598464012145996e-01,-1.431316137313842773e-03,-2.296027243137359619e-01,4.448363557457923889e-02,-2.046116739511489868e-01,-1.811490580439567566e-02,-3.778419196605682373e-01,5.407616961747407913e-03,-4.072858765721321106e-02,8.970822207629680634e-03,8.148849010467529297e-02,-2.359846681356430054e-01,-7.539286464452743530e-02,6.546448171138763428e-02,-2.498726546764373779e-02,3.237049877643585205e-01,1.987498700618743896e-01,4.717252552509307861e-01,2.304646223783493042e-01,-2.287255376577377319e-01,2.129848487675189972e-02,-6.690722703933715820e-02,6.272082030773162842e-02,7.913495600223541260e-02,1.225122809410095215e-01,5.809313431382179260e-02,-1.816255971789360046e-02,-3.850575387477874756e-01,4.285718798637390137e-01,7.815478369593620300e-03,-1.785867847502231598e-02,-4.987133666872978210e-02,-1.488985717296600342e-01,-3.611352741718292236e-01,8.462556451559066772e-02,7.901843637228012085e-02,6.781156174838542938e-03,3.455031663179397583e-02,-1.675855517387390137e-01
-1.003611236810684204e-01,9.490699321031570435e-02,1.855991035699844360e-01,-1.487122923135757446e-01,-2.380117774009704590e-01,1.523758471012115479e-01,3.343668878078460693e-01,3.153617382049560547e-01,-1.614795252680778503e-02,-3.079644441604614258e-01,8.810609579086303711e-02,-1.639704704284667969e-01,-1.147510558366775513e-01,-3.882715851068496704e-02,-2.917585894465446472e-02,4.973236098885536194e-02,-1.455003619194030762e-01,-5.353995040059089661e-02,1.109250336885452271e-01,1.782374829053878784e-01,-7.002000510692596436e-02,-1.699872016906738281e-01,4.254815634340047836e-03,2.817031741142272949e-02,1.358330547809600830e-01,-7.694867439568042755e-03,-7.145111262798309326e-02,-3.949923217296600342e-01,-6.871055811643600464e-02,1.824762821197509766e-01,6.620669737458229065e-03,1.685287505388259888e-01,4.352195560932159424e-02,1.205082982778549194e-01,5.692148581147193909e-03,3.359551727771759033e-02,-2.283713966608047485e-01,6.288506090641021729e-02,4.012634977698326111e-02,-7.181409280747175217e-03,-4.918467104434967041e-01,-1.383717544376850128e-02,1.003312598913908005e-02,8.692600578069686890e-02,1.975074708461761475e-01,-5.734676867723464966e-02,-7.313425093889236450e-02,-1.855068467557430267e-02,-3.884934484958648682e-01,1.477023363113403320e-01,-1.880280226469039917e-01,-3.192395269870758057e-01,-1.630988530814647675e-02,-1.591734886169433594e-01,-3.906719759106636047e-02,1.300661265850067139e-01,3.369833827018737793e-01,1.216144114732742310e-01,8.226515352725982666e-02,-1.938910335302352905e-01,-2.422014474868774414e-01,3.626468777656555176e-02,-5.562212690711021423e-02,-2.698453962802886963e-01
-5.409753695130348206e-02,7.383296033367514610e-04,3.712995350360870361e-01,-2.625170908868312836e-02,-1.399489939212799072e-01,3.407624661922454834e-01,1.754942000843584538e-03,1.088977511972188950e-02,-3.609238564968109131e-02,-5.594661831855773926e-01,-3.994593024253845215e-02,-5.680945888161659241e-02,9.840085357427597046e-02,1.150476485490798950e-01,1.398997660726308823e-02,-1.077910698950290680e-02,-8.795726113021373749e-03,-1.237417012453079224e-01,7.935440540313720703e-02,-1.360166817903518677e-01,-2.748166397213935852e-02,5.215355381369590759e-02,-3.631138429045677185e-02,-9.972464293241500854e-03,3.738339617848396301e-02,-7.320184260606765747e-03,-7.871204987168312073e-03,1.179362996481359005e-03,3.897350728511810303e-01,-6.695467233657836914e-02,-1.021887734532356262e-01,-1.554550528526306152e-01,1.199174523353576660e-01,-3.871441259980201721e-02,1.573811471462249756e-02,1.989104747772216797e-01,-6.300017982721328735e-02,-2.584818191826343536e-02,4.729263857007026672e-02,5.383944138884544373e-03,3.376457095146179199e-02,1.617659926414489746e-01,2.885388135910034180e-01,2.371955215930938721e-01,-3.519257009029388428e-01,-3.755190875381231308e-03,3.943715244531631470e-03,1.464028656482696533e-01,-1.470764726400375366e-01,-6.945911794900894165e-02,2.375174500048160553e-02,-1.051169186830520630e-01,8.900748565793037415e-03,2.285059392452239990e-01,-4.859148524701595306e-03,2.039650529623031616e-01,1.361305564641952515e-01,-1.182398479431867599e-02,-2.201419696211814880e-02,3.275631368160247803e-02,1.083008199930191040e-01,1.316735986620187759e-02,3.038382530212402344e-01,2.272534370422363281e-02
-7.515698671340942383e-02,-9.119652956724166870e-02,-2.424686402082443237e-02,2.424092963337898254e-02,-1.716721057891845703e-01,1.127986386418342590e-01,3.564800620079040527e-01,3.117743432521820068e-01,-3.273775801062583923e-04,-7.022437453269958496e-02,-2.057112753391265869e-01,1.056349277496337891e-01,-2.499476671218872070e-01,-1.428368240594863892e-01,-3.001576960086822510e-01,-4.020940065383911133e-01,8.136461488902568817e-03,-1.351730078458786011e-01,-3.419753313064575195e-01,-2.116946876049041748e-01,8.334878087043762207e-02,1.837821602821350098e-01,6.164288520812988281e-02,5.310403928160667419e-02,1.083848327398300171e-01,2.193111479282379150e-01,-2.785557210445404053e-01,-1.321673952043056488e-02,2.130360305309295654e-01,1.868645250797271729e-01,5.130586624145507812e-01,-1.083536744117736816e-01,-5.875620618462562561e-02,8.418044447898864746e-02,-2.478456199169158936e-01,1.926340907812118530e-01,-3.254569470882415771e-01,3.376335203647613525e-01,-3.220827877521514893e-01,3.418772816658020020e-01,-1.251509636640548706e-01,-2.131199538707733154e-01,1.881567090749740601e-01,3.712649345397949219e-01,-2.858744561672210693e-02,-4.584901034832000732e-03,-3.305360302329063416e-02,-3.300579190254211426e-01,-1.767761856317520142e-01,8.326954394578933716e-02,-2.454704493284225464e-01,-4.013346135616302490e-01,6.881795823574066162e-02,-4.199063479900360107e-01,2.999540045857429504e-02,2.959088981151580811e-01,3.736917674541473389e-01,-2.612138725817203522e-02,7.142286002635955811e-02,2.734231054782867432e-01,-2.001373022794723511e-01,2.333636283874511719e-01,9.495773166418075562e-02,-1.641081422567367554e-01
