-8.279187977313995361e-02,-1.105860397219657898e-01,1.933836042881011963e-01,1.104304268956184387e-01,2.587262354791164398e-02,-2.930562477558851242e-03,1.024727150797843933e-02,8.815778046846389771e-02,1.308076381683349609e-01,-1.583523899316787720e-01,-3.450577333569526672e-02,-8.012134581804275513e-02,4.874089360237121582e-02,-5.390091985464096069e-02,2.630192320793867111e-03,8.514106273651123047e-02,-2.041642367839813232e-01,-2.487955428659915924e-02,-1.779001764953136444e-02,2.211926132440567017e-01,7.383751124143600464e-02,5.719628557562828064e-02,7.415047287940979004e-02,-2.433076202869415283e-01,-4.278791695833206177e-02,6.516654789447784424e-02,8.204739540815353394e-02,-1.434926241636276245e-01,2.530117034912109375e-01,9.753622114658355713e-02,-2.969915047287940979e-02,-5.414045602083206177e-02,-5.434341728687286377e-02,-1.113226916640996933e-02,-1.064580008387565613e-01,-3.081637807190418243e-02,-1.093444153666496277e-01,-5.115798488259315491e-02,-4.215116053819656372e-02,-1.754086762666702271e-01,1.652133166790008545e-01,-1.533262878656387329e-01,-2.223636656999588013e-01,1.128475591540336609e-01,-8.797513693571090698e-02,1.507567986845970154e-02,1.033241450786590576e-01,-1.307904422283172607e-01,-8.593674749135971069e-02,3.551469370722770691e-02,8.429042249917984009e-02,-7.070085406303405762e-02,6.870935857295989990e-02,-4.764923453330993652e-02,-9.581389278173446655e-02,-1.237164367921650410e-03,1.754259169101715088e-01,-8.124969899654388428e-02,1.305225193500518799e-01,-1.169749200344085693e-01,5.855762213468551636e-02,-3.731821849942207336e-02,1.426316052675247192e-01,-3.903945535421371460e-02
1.664741784334182739e-01,-3.251412510871887207e-01,1.448863535188138485e-03,2.870071828365325928e-01,9.628023207187652588e-02,-2.279883474111557007e-01,-1.501106917858123779e-01,-6.344125140458345413e-04,-1.141835525631904602e-01,4.726245999336242676e-02,-1.685831993818283081e-01,-8.967011421918869019e-02,1.012465432286262512e-01,-1.353613883256912231e-01,1.855265349149703979e-01,1.045710756443440914e-03,-1.495756059885025024e-01,-1.684036478400230408e-02,1.224133223295211792e-01,-2.688837945461273193e-01,-7.429882884025573730e-02,1.398128420114517212e-01,-7.531527429819107056e-02,-4.559256881475448608e-02,1.344837695360183716e-01,2.421887591481208801e-02,1.375247985124588013e-01,2.429866939783096313e-01,-3.873229771852493286e-02,1.265354156494140625e-01,-4.636291414499282837e-02,-6.063186749815940857e-02,-1.250054538249969482e-01,-4.037412628531455994e-02,-1.702610701322555542e-01,-2.515927888453006744e-02,1.127191036939620972e-01,-1.559754759073257446e-01,1.175168752670288086e-01,1.394932158291339874e-02,1.830693185329437256e-01,8.020861446857452393e-02,-4.010656103491783142e-02,1.068096309900283813e-01,5.116360634565353394e-02,1.278190910816192627e-01,8.026476204395294189e-02,2.018941640853881836e-01,-2.185063958168029785e-01,-1.806092709302902222e-01,-7.561975717544555664e-02,7.455057650804519653e-02,-2.730842679738998413e-02,2.192734368145465851e-02,7.149283587932586670e-02,9.783004969358444214e-02,4.623012989759445190e-02,-4.125028848648071289e-02,3.763037919998168945e-01,1.499065458774566650e-01,2.303692325949668884e-02,4.380768164992332458e-02,3.875427320599555969e-02,7.962311804294586182e-02
-2.276689708232879639e-01,-8.035748451948165894e-02,-3.257507458329200745e-02,8.120460808277130127e-02,-1.114955469965934753e-01,-1.069790422916412354e-01,8.949292451143264771e-02,2.001969367265701294e-01,1.871694624423980713e-01,-7.607338018715381622e-03,-7.422687113285064697e-02,-1.105480119585990906e-01,-3.728692978620529175e-02,3.911139816045761108e-02,2.526954375207424164e-02,1.670557707548141479e-01,6.561309844255447388e-02,7.016417384147644043e-02,-5.544569343328475952e-02,-8.914280682802200317e-02,-3.666918724775314331e-02,-7.223840802907943726e-02,-5.620581284165382385e-02,3.987183421850204468e-02,-3.838256816379725933e-04,1.096080765128135681e-01,5.789258517324924469e-03,-3.676953911781311035e-02,-4.158235341310501099e-02,-2.112208157777786255e-01,-5.951664969325065613e-02,-8.228129893541336060e-02,2.006943076848983765e-01,6.094332784414291382e-02,1.006546150892972946e-02,9.394403547048568726e-02,1.194353625178337097e-01,-2.958394773304462433e-02,9.073673933744430542e-02,1.504386812448501587e-01,-6.604802911169826984e-04,1.388811320066452026e-01,4.966552183032035828e-02,-2.043593525886535645e-01,-6.494693458080291748e-02,-7.726769149303436279e-02,-6.531032919883728027e-02,-2.553589642047882080e-01,8.464127033948898315e-02,1.710019707679748535e-01,-2.213609665632247925e-01,1.197477430105209351e-01,1.623442769050598145e-02,-2.033365517854690552e-02,-5.441772192716598511e-02,-1.212888583540916443e-02,-5.501906573772430420e-02,7.617381960153579712e-02,-8.570624142885208130e-02,1.708281189203262329e-01,1.700475066900253296e-01,-8.769521862268447876e-02,-1.256546974182128906e-01,-1.039415039122104645e-02
1.941635459661483765e-01,-1.679792702198028564e-01,-1.958180963993072510e-02,7.635425776243209839e-02,2.221268713474273682e-01,-3.446368575096130371e-01,-5.808245763182640076e-02,2.010717839002609253e-01,-3.324015811085700989e-02,4.807391017675399780e-02,-2.069662362337112427e-01,-2.498606443405151367e-01,6.040582433342933655e-02,7.173911482095718384e-02,-7.139793038368225098e-02,6.790654361248016357e-02,-5.765347927808761597e-02,-7.951508159749209881e-04,-1.250458066351711750e-03,-3.512502014636993408e-01,-3.806259632110595703e-01,2.983257472515106201e-01,2.357462421059608459e-02,8.075395971536636353e-02,3.339055776596069336e-01,-1.056073531508445740e-01,-1.154664009809494019e-01,-1.266205310821533203e-01,6.291734427213668823e-02,-8.438658900558948517e-03,4.426166415214538574e-02,-1.299760490655899048e-02,-7.786858081817626953e-02,-1.104621514678001404e-01,-8.841731399297714233e-02,6.428164243698120117e-02,4.016153812408447266e-01,4.769491031765937805e-02,-9.577225893735885620e-02,-6.487998180091381073e-03,3.604744374752044678e-02,1.979358792304992676e-01,-3.193617239594459534e-02,1.263102144002914429e-01,1.623068600893020630e-01,2.175799161195755005e-01,2.652325108647346497e-02,9.282658994197845459e-02,-9.523890912532806396e-02,-8.529978990554809570e-02,-1.145597621798515320e-01,-1.897202283143997192e-01,-6.138344854116439819e-02,-6.747944653034210205e-02,7.591655105352401733e-02,-1.438553631305694580e-01,2.731649875640869141e-01,1.793761365115642548e-02,2.119219452142715454e-01,7.389380037784576416e-02,1.575119909830391407e-03,5.901408940553665161e-02,5.052528530359268188e-02,-7.523919641971588135e-02
-1.017155274748802185e-01,-3.539925441145896912e-02,-1.256862655282020569e-02,1.989778727293014526e-01,-4.856889322400093079e-02,-5.642493814229965210e-02,1.780709028244018555e-01,1.061759516596794128e-01,1.698023527860641479e-01,8.378499746322631836e-02,-1.486095041036605835e-01,-9.354688227176666260e-02,-2.403270825743675232e-02,8.252290636301040649e-02,1.647772453725337982e-02,1.468330174684524536e-01,-1.619756966829299927e-01,-1.018934473395347595e-01,-1.487090718001127243e-03,1.501627117395401001e-01,1.269733160734176636e-02,-2.941736206412315369e-02,-2.686029858887195587e-02,9.330271184444427490e-02,-7.947193458676338196e-03,-1.846959739923477173e-01,3.865246474742889404e-02,3.831763565540313721e-02,2.844632789492607117e-02,-3.018249273300170898e-01,-6.306754797697067261e-02,-1.280470490455627441e-01,7.830810733139514923e-03,-2.222140729427337646e-01,-1.075606569647789001e-01,-1.486115008592605591e-01,1.564693301916122437e-01,2.832391485571861267e-02,7.566087692975997925e-02,-1.218041852116584778e-01,1.175548601895570755e-02,-8.813871443271636963e-02,1.199407875537872314e-01,-2.633768878877162933e-02,-3.861516015604138374e-03,7.360975444316864014e-02,-1.752047240734100342e-02,1.088935583829879761e-01,-1.812448799610137939e-01,-5.062022805213928223e-02,-5.133968964219093323e-02,2.495866268873214722e-03,-8.463237434625625610e-02,-4.156153276562690735e-02,1.305220276117324829e-01,5.075586587190628052e-02,-1.006126552820205688e-01,4.882090166211128235e-02,9.721752256155014038e-02,1.818659901618957520e-01,1.106713414192199707e-01,-4.045336693525314331e-02,-4.093362390995025635e-02,-4.197922721505165100e-02
6.119015812873840332e-02,-1.244248449802398682e-01,-1.845645457506179810e-01,4.271081462502479553e-02,-4.377852752804756165e-02,-1.056589186191558838e-01,-2.816070429980754852e-02,2.349756658077239990e-01,1.650875061750411987e-01,9.441891312599182129e-02,-2.185608260333538055e-02,-2.321893535554409027e-02,3.042315319180488586e-02,-4.059041291475296021e-02,4.025765694677829742e-03,1.123649403452873230e-01,-1.766650229692459106e-01,-2.960190922021865845e-02,1.915776543319225311e-02,-6.470569968223571777e-02,-6.280914694070816040e-02,-3.811406344175338745e-02,7.178755104541778564e-02,-9.533279389142990112e-02,2.892104210332036018e-03,-1.891390681266784668e-01,7.365911453962326050e-02,-9.933389723300933838e-02,-2.283332496881484985e-02,-3.716106340289115906e-02,-1.118391007184982300e-01,-1.108082234859466553e-01,-1.486885696649551392e-01,-4.252118617296218872e-02,-1.573191732168197632e-01,-1.168092265725135803e-01,1.333344541490077972e-02,-1.105036288499832153e-01,2.941457740962505341e-02,6.569949537515640259e-02,-4.728757590055465698e-02,-4.270059242844581604e-02,1.439068466424942017e-01,1.814295649528503418e-01,-5.562592297792434692e-02,2.684331312775611877e-02,1.563234031200408936e-01,-2.126639895141124725e-02,-9.087181836366653442e-02,-7.850014604628086090e-03,-9.150257334113121033e-03,-1.946754520758986473e-03,-1.141094788908958435e-02,-1.535776257514953613e-01,-7.485567033290863037e-02,-2.016012556850910187e-02,-5.371554568409919739e-02,-1.307037621736526489e-01,9.133099764585494995e-02,1.933318749070167542e-02,-1.557052284479141235e-01,-1.348264068365097046e-01,8.528203517198562622e-02,2.687311917543411255e-02
-3.568323254585266113e-01,3.732961369678378105e-03,-1.240981370210647583e-01,2.528243362903594971e-01,2.951170876622200012e-02,1.510318964719772339e-01,1.147450059652328491e-01,1.318445056676864624e-01,1.376021951436996460e-01,2.187657803297042847e-01,-3.326843306422233582e-02,2.095747590065002441e-01,-7.215341180562973022e-02,1.999107748270034790e-01,-2.646668441593647003e-02,1.204079668968915939e-02,-1.814918220043182373e-01,-2.717494368553161621e-01,5.595467984676361084e-02,-1.464946717023849487e-01,1.953810751438140869e-01,6.054684636183083057e-04,2.186036109924316406e-02,7.880781590938568115e-02,-1.438428461551666260e-01,-1.240042001008987427e-01,-7.862200587987899780e-02,1.542045623064041138e-01,-4.636656865477561951e-02,-1.158123537898063660e-01,1.855328828096389771e-01,-6.276622414588928223e-02,-6.344148516654968262e-02,2.066423185169696808e-02,4.874841123819351196e-02,-2.149765640497207642e-01,-1.660868972539901733e-01,-8.628512173891067505e-02,3.412050008773803711e-01,-7.707095891237258911e-02,-4.896406456828117371e-02,-2.374368309974670410e-01,1.247998252511024475e-01,1.156536191701889038e-01,-7.524346560239791870e-02,-1.291192471981048584e-01,5.343880038708448410e-03,1.830690950155258179e-01,1.571520268917083740e-01,-1.350209712982177734e-01,3.406634181737899780e-02,-1.032809168100357056e-02,-2.369627654552459717e-01,2.753167450428009033e-01,3.109729886054992676e-01,8.844389766454696655e-02,1.462032943964004517e-01,-1.508985012769699097e-01,1.552754044532775879e-01,1.001723110675811768e-01,4.024117439985275269e-02,-8.834861963987350464e-02,-1.368460357189178467e-01,-2.413420528173446655e-01
-1.092819347977638245e-01,-7.286501675844192505e-02,-6.057609617710113525e-02,1.883407086133956909e-01,8.018659800291061401e-02,1.219128295779228210e-01,1.333956867456436157e-01,-1.116777420975267887e-03,1.575390547513961792e-01,2.775110676884651184e-02,8.987855911254882812e-02,1.186348050832748413e-01,2.934187464416027069e-02,-6.024771556258201599e-02,1.439556032419204712e-01,7.437582314014434814e-02,-1.304472833871841431e-01,-1.334108859300613403e-01,9.621547907590866089e-02,-1.014737784862518311e-01,7.588255219161510468e-03,1.556960307061672211e-02,-1.765502849593758583e-03,1.983665861189365387e-02,2.936486713588237762e-02,1.307716220617294312e-02,1.475149672478437424e-02,2.661572396755218506e-01,-1.266299840062856674e-02,-1.540752798318862915e-01,2.181006371974945068e-01,-1.695588082075119019e-01,5.241431295871734619e-02,-8.543354459106922150e-03,1.024930551648139954e-01,-2.395302653312683105e-01,1.190306395292282104e-01,-6.233284249901771545e-02,5.372014641761779785e-02,-1.579811871051788330e-01,-2.516759932041168213e-02,-9.113634377717971802e-02,2.063643932342529297e-01,2.009698562324047089e-02,-1.374293267726898193e-01,-1.653590500354766846e-01,-4.690989851951599121e-02,1.751846075057983398e-01,-7.609293609857559204e-02,-8.458223938941955566e-02,5.843522492796182632e-03,9.516233205795288086e-02,-3.589397370815277100e-01,2.803848981857299805e-01,1.214756965637207031e-01,4.298284649848937988e-02,4.423900693655014038e-02,-3.540707379579544067e-02,-6.406319141387939453e-02,2.845703065395355225e-01,6.042697653174400330e-02,-2.150040566921234131e-01,-2.544867396354675293e-01,2.080932110548019409e-01
3.781995922327041626e-02,-9.213579446077346802e-02,-2.011287212371826172e-01,1.366542726755142212e-01,1.142307892441749573e-01,1.688102446496486664e-02,2.869101166725158691e-01,1.181251034140586853e-01,1.812184751033782959e-01,1.540334671735763550e-01,-1.306583918631076813e-02,7.763354480266571045e-02,8.010065555572509766e-02,-2.360769361257553101e-02,1.392906010150909424e-01,1.473153829574584961e-01,-3.149001300334930420e-01,-2.579638967290520668e-04,1.490030288696289062e-01,-1.098148375749588013e-01,-2.273235283792018890e-02,-1.119460240006446838e-01,-1.112056821584701538e-01,9.701006859540939331e-02,-4.473505541682243347e-02,-2.630730271339416504e-01,3.139468282461166382e-02,2.331935465335845947e-01,-1.059465929865837097e-01,-3.331829905509948730e-01,1.293614655733108521e-01,-5.403935909271240234e-02,1.268756985664367676e-01,4.436366632580757141e-02,-5.841200053691864014e-02,-1.856527626514434814e-01,1.526750475168228149e-01,3.312289714813232422e-02,1.985949426889419556e-01,-7.155404984951019287e-02,-1.397476531565189362e-02,-1.278505176305770874e-01,1.699764430522918701e-01,-8.584604412317276001e-02,-1.183710470795631409e-01,-1.866025105118751526e-02,-4.741242155432701111e-02,7.780651748180389404e-02,-4.685150459408760071e-02,-4.053633287549018860e-02,-2.131736278533935547e-01,-2.455296367406845093e-02,-2.275867015123367310e-01,1.059773610904812813e-03,5.201864615082740784e-02,1.806439599022269249e-03,-1.069165691733360291e-01,-5.587550252676010132e-02,-9.311909973621368408e-02,9.385062754154205322e-02,1.223246380686759949e-02,-3.566804230213165283e-01,-8.027062565088272095e-02,-1.366264373064041138e-02
-6.277757138013839722e-02,-2.491910457611083984e-01,-8.397951722145080566e-02,1.952013187110424042e-02,7.377121597528457642e-02,-3.588891401886940002e-02,-2.725435660977382213e-05,3.659127950668334961e-01,8.294100314378738403e-02,-4.675128683447837830e-02,-1.764206886291503906e-01,-9.329335391521453857e-02,1.738044172525405884e-01,7.640363276004791260e-02,-3.199806809425354004e-02,1.468337178230285645e-01,-1.709583401679992676e-01,-2.961926348507404327e-02,-1.009270921349525452e-01,-3.560890853404998779e-01,1.361413300037384033e-01,-6.591269373893737793e-02,-6.875148415565490723e-02,-6.654358934611082077e-03,-1.117403209209442139e-01,-1.111816242337226868e-01,1.086855605244636536e-01,-1.728052156977355480e-03,3.635925427079200745e-02,-1.329274475574493408e-01,-7.964600622653961182e-02,-5.927694588899612427e-02,8.670414984226226807e-02,-2.916082926094532013e-02,-9.428481012582778931e-02,8.762124925851821899e-03,2.969403564929962158e-01,-7.026003301143646240e-02,7.344073057174682617e-02,-5.801414325833320618e-02,5.630198400467634201e-03,-1.737753115594387054e-02,1.341447886079549789e-02,-1.638728193938732147e-02,1.594190113246440887e-02,-6.374021619558334351e-02,-8.345861732959747314e-02,3.673920407891273499e-02,-1.174875795841217041e-01,-6.227991357445716858e-02,-2.167187631130218506e-01,-2.085790410637855530e-02,1.691360399127006531e-02,-1.705462858080863953e-02,-2.103687636554241180e-02,-9.710274636745452881e-03,9.367386996746063232e-02,1.199216321110725403e-01,-2.439535409212112427e-02,1.114924773573875427e-01,3.276112303137779236e-02,-2.091675698757171631e-01,-1.126745063811540604e-02,-2.932773344218730927e-02
-9.839760139584541321e-03,-3.575092181563377380e-02,-4.951683059334754944e-02,7.344185560941696167e-02,6.954324990510940552e-02,-7.101837545633316040e-02,-5.677976459264755249e-02,3.980108499526977539e-01,1.981598436832427979e-01,-6.713080406188964844e-02,-1.127131953835487366e-01,-1.344508528709411621e-01,1.219978407025337219e-01,-7.120126485824584961e-02,6.623554229736328125e-02,6.188466213643550873e-03,-1.933782845735549927e-01,-1.212354600429534912e-01,2.951638959348201752e-02,-2.739856541156768799e-01,1.544205285608768463e-02,-7.899668067693710327e-02,3.567631915211677551e-02,-2.100646495819091797e-02,1.724469959735870361e-01,-1.883145272731781006e-01,5.626747384667396545e-02,-8.978679776191711426e-02,1.085270494222640991e-01,9.689671546220779419e-02,7.616257667541503906e-02,1.093521192669868469e-01,-1.702480949461460114e-02,7.662220299243927002e-02,-1.469238847494125366e-01,-2.708471380174160004e-02,1.323934197425842285e-01,2.604936249554157257e-02,5.359680950641632080e-02,1.352117210626602173e-01,4.593115299940109253e-03,-9.058649837970733643e-02,2.999940142035484314e-02,4.306650161743164062e-02,1.605981886386871338e-01,1.783674806356430054e-01,8.325716480612754822e-03,-2.066854573786258698e-02,6.225652992725372314e-02,2.330289222300052643e-02,-8.858235180377960205e-02,-1.002652384340763092e-02,-2.230550907552242279e-02,-2.173720672726631165e-02,1.139511005021631718e-03,7.927180081605911255e-02,1.132491528987884521e-01,-1.390898823738098145e-01,1.154775992035865784e-01,1.305751204490661621e-01,4.537940490990877151e-03,5.538207665085792542e-02,-4.627082962542772293e-03,-7.348316907882690430e-02
-2.277912199497222900e-02,-2.439018189907073975e-01,-7.356436550617218018e-02,2.612004242837429047e-02,1.844444274902343750e-01,-3.386361524462699890e-02,3.197565078735351562e-01,1.250756233930587769e-01,1.510634925216436386e-02,2.976134046912193298e-02,-1.631944626569747925e-01,-9.001059830188751221e-02,8.032388985157012939e-02,-1.305747628211975098e-01,1.919620335102081299e-01,1.955940127372741699e-01,-2.579846382141113281e-01,3.618852794170379639e-02,4.991112649440765381e-02,-2.002579718828201294e-02,1.146155670285224915e-01,-7.472904026508331299e-02,-2.789831161499023438e-02,2.850995399057865143e-02,-8.053418248891830444e-03,-1.309719234704971313e-01,4.217366129159927368e-02,1.036226376891136169e-01,-2.205591648817062378e-01,-2.335405200719833374e-01,-2.347880154848098755e-01,3.261337056756019592e-02,1.243386790156364441e-01,1.662747114896774292e-01,-1.119660511612892151e-01,4.412982985377311707e-02,2.914041280746459961e-01,9.523187763988971710e-03,1.212277710437774658e-01,2.266533225774765015e-01,6.796748191118240356e-02,-5.701718851923942566e-03,2.489640749990940094e-02,-1.972109824419021606e-02,-1.445428840816020966e-02,1.406222283840179443e-01,9.986244142055511475e-02,-9.321082383394241333e-02,-1.914921589195728302e-02,5.424785986542701721e-02,-3.101162314414978027e-01,-8.698976598680019379e-03,-1.307947784662246704e-01,-6.263396888971328735e-02,3.379466384649276733e-02,-4.175665974617004395e-02,9.484744817018508911e-02,9.004756063222885132e-02,1.469547152519226074e-01,1.162263900041580200e-01,6.454624235630035400e-02,3.159428015351295471e-02,-4.546463117003440857e-02,-9.965319186449050903e-02
1.591536402702331543e-01,-5.340120568871498108e-02,-1.813973188400268555e-01,1.733968853950500488e-01,2.130348682403564453e-01,3.730312164407223463e-04,4.472465068101882935e-02,2.272517085075378418e-01,2.849328704178333282e-02,5.780592188239097595e-02,-5.308101698756217957e-02,-1.865599155426025391e-01,-3.590925782918930054e-02,-1.262819916009902954e-01,-1.504392083734273911e-02,9.497567079961299896e-03,-1.941924542188644409e-01,-5.520920827984809875e-02,2.552775293588638306e-02,-1.934799402952194214e-01,-2.010907791554927826e-02,-5.303625017404556274e-02,-3.419565036892890930e-02,8.427241817116737366e-03,-1.109446492046117783e-02,-9.322461485862731934e-02,3.671069070696830750e-02,1.299540102481842041e-01,-1.717142015695571899e-01,4.484565928578376770e-03,-5.136178806424140930e-02,1.361909881234169006e-02,-1.195054501295089722e-02,3.948818519711494446e-02,1.271950304508209229e-01,-1.113291755318641663e-01,1.550550758838653564e-01,-3.384001925587654114e-02,1.238694339990615845e-01,-8.175048045814037323e-03,-4.426507279276847839e-03,6.979975849390029907e-02,-1.148202717304229736e-01,1.695376336574554443e-01,-1.071219053119421005e-02,9.083178639411926270e-02,-2.838773466646671295e-02,-5.995682254433631897e-02,-6.544483453035354614e-02,-4.796648770570755005e-02,-1.337484717369079590e-01,-2.772900648415088654e-02,-9.963265061378479004e-02,-2.238386720418930054e-01,-9.827483445405960083e-02,-3.615042194724082947e-02,2.390931397676467896e-01,5.488059297204017639e-02,1.201955899596214294e-01,1.068108752369880676e-01,-1.042954176664352417e-01,-7.986278831958770752e-02,1.128261610865592957e-01,-4.022154025733470917e-03
4.341678693890571594e-02,-9.290463477373123169e-02,4.145804047584533691e-01,2.298021223396062851e-03,3.237531334161758423e-02,-1.395846717059612274e-02,-1.787571012973785400e-01,-2.492282241582870483e-01,-9.292615950107574463e-02,-4.449626058340072632e-02,7.834133505821228027e-02,7.237263023853302002e-02,-1.698133647441864014e-01,5.041966214776039124e-02,8.051788806915283203e-02,-3.358223140239715576e-01,1.410446912050247192e-01,2.856143936514854431e-02,1.369004547595977783e-01,1.662944853305816650e-01,7.217548042535781860e-02,-9.556141495704650879e-02,8.967099338769912720e-02,-1.399527043104171753e-01,-1.810943037271499634e-01,8.570016175508499146e-02,-5.098169296979904175e-02,-2.565417066216468811e-02,2.560324072837829590e-01,2.674560546875000000e-01,-1.398151218891143799e-01,7.766421139240264893e-02,-2.082064896821975708e-01,3.298559784889221191e-02,1.582750231027603149e-01,1.981610506772994995e-01,-2.793681621551513672e-01,-4.774712026119232178e-02,1.345410197973251343e-01,-1.068954020738601685e-01,-1.300545781850814819e-02,-1.634587794542312622e-01,-1.208325028419494629e-01,1.000727564096450806e-01,-3.178844461217522621e-03,-2.540585212409496307e-02,-5.793289840221405029e-02,-6.278175115585327148e-02,8.384151384234428406e-03,-1.432621926069259644e-01,-8.370421081781387329e-02,-1.010663732886314392e-01,1.204110234975814819e-01,-5.099745839834213257e-02,1.067180484533309937e-01,7.798614352941513062e-02,1.061855256557464600e-01,-2.646279931068420410e-01,3.157748375087976456e-03,9.464282542467117310e-02,-1.514745056629180908e-01,8.750564604997634888e-02,1.950713992118835449e-02,-1.603481471538543701e-01
-4.461416229605674744e-02,-1.712193042039871216e-01,2.494475990533828735e-02,2.094167470932006836e-01,1.380700618028640747e-01,-2.690327167510986328e-01,4.716420918703079224e-02,1.190131232142448425e-01,2.176543138921260834e-02,-1.532031744718551636e-01,-6.686300784349441528e-02,-1.938908696174621582e-01,1.792635917663574219e-01,9.303984791040420532e-02,4.463727027177810669e-02,1.148623079061508179e-01,-3.333871066570281982e-02,-3.425121307373046875e-02,2.256891317665576935e-02,-1.493182480335235596e-01,8.792119473218917847e-02,5.242961272597312927e-02,1.240017414093017578e-01,-1.170690879225730896e-01,-4.795217141509056091e-02,1.733180950395762920e-03,-1.276782155036926270e-01,-1.510091423988342285e-01,2.114779651165008545e-01,-1.179557964205741882e-01,-4.241321608424186707e-02,-3.247903659939765930e-02,-6.546194106340408325e-02,-1.096167508512735367e-02,1.703645884990692139e-01,1.019627302885055542e-01,4.386997967958450317e-02,-4.891294613480567932e-02,1.333092749118804932e-01,-7.069593667984008789e-02,9.362789988517761230e-02,-1.544394344091415405e-01,1.039678417146205902e-02,1.503044962882995605e-01,-1.193777620792388916e-01,3.438653945922851562e-01,1.218493133783340454e-01,1.785185933113098145e-01,7.632356137037277222e-02,-1.642560809850692749e-01,-1.213909238576889038e-01,-3.208676585927605629e-03,-9.468526393175125122e-02,-3.162556886672973633e-01,1.529440749436616898e-02,1.564760319888591766e-02,1.854146867990493774e-01,-9.902609884738922119e-02,-9.275405108928680420e-02,5.041550099849700928e-02,-7.150023244321346283e-03,-5.989640951156616211e-02,2.289421260356903076e-01,-8.772550523281097412e-02
7.412305474281311035e-02,1.341088563203811646e-01,2.471157535910606384e-02,1.182245239615440369e-01,-1.083905324339866638e-01,1.093744263052940369e-01,5.577820912003517151e-02,1.873897165060043335e-01,-5.903983116149902344e-02,1.780887842178344727e-01,-3.314730897545814514e-02,-1.524205878376960754e-02,2.627220936119556427e-02,-6.449569761753082275e-02,2.175399512052536011e-01,6.741847377270460129e-03,-4.180846735835075378e-02,-1.716010421514511108e-01,5.370511673390865326e-03,-1.181626096367835999e-01,2.157164178788661957e-02,1.023501157760620117e-01,4.107089340686798096e-02,9.926740825176239014e-02,1.081334333866834641e-02,-2.098621726036071777e-01,7.455779705196619034e-04,1.114899665117263794e-01,2.255340479314327240e-02,-1.798603385686874390e-01,1.602205932140350342e-01,-6.908918917179107666e-02,-7.311186939477920532e-02,-8.179380558431148529e-03,6.889341771602630615e-02,6.291240570135414600e-04,9.196426719427108765e-03,1.430336479097604752e-02,1.176019608974456787e-01,-5.416985228657722473e-02,-1.141351368278264999e-02,-2.342162467539310455e-02,-3.238216042518615723e-02,2.704050838947296143e-01,-2.625624649226665497e-02,8.143196254968643188e-02,1.746440678834915161e-02,2.081670016050338745e-01,-1.146182119846343994e-01,-2.216119505465030670e-02,5.924948677420616150e-02,-3.922370448708534241e-02,-2.743857800960540771e-01,1.269893795251846313e-01,4.043946042656898499e-02,3.433628007769584656e-02,-3.484228253364562988e-02,-1.581202000379562378e-01,5.016069486737251282e-02,2.834360599517822266e-01,1.397631876170635223e-02,-9.287749230861663818e-02,-8.384586870670318604e-02,-1.442101895809173584e-01
4.106096550822257996e-02,-1.453270316123962402e-01,-1.343194246292114258e-01,1.670807003974914551e-01,1.912608742713928223e-01,-3.777013719081878662e-02,2.731908857822418213e-01,7.803148031234741211e-02,2.341768294572830200e-01,1.264023929834365845e-01,-9.969048947095870972e-02,-1.014902144670486450e-01,8.452406525611877441e-02,8.255159109830856323e-02,1.453917920589447021e-01,8.888481557369232178e-02,-9.999822359532117844e-04,-3.455222025513648987e-02,-6.214775517582893372e-02,-2.030378282070159912e-01,1.618757992982864380e-01,-2.093067206442356110e-02,-1.287190802395343781e-02,-5.237312288954854012e-04,-4.714512825012207031e-02,-7.768558710813522339e-02,5.699612572789192200e-02,4.291900619864463806e-02,7.428411394357681274e-02,-1.989719122648239136e-01,-1.743739396333694458e-01,-7.838571071624755859e-02,8.582732081413269043e-02,-1.269362866878509521e-01,5.309112370014190674e-02,8.623946923762559891e-04,2.496831268072128296e-01,-5.826947465538978577e-02,2.464036457240581512e-02,3.000032855197787285e-03,1.730329939164221287e-03,5.601403489708900452e-02,-1.435990631580352783e-01,1.361518353223800659e-01,-8.513294160366058350e-02,2.285820990800857544e-01,-3.719298169016838074e-02,-7.887148857116699219e-02,-4.043371230363845825e-02,-8.295781165361404419e-02,-1.802118867635726929e-01,1.738082803785800934e-02,-1.890798211097717285e-01,-9.535997360944747925e-02,1.846403442323207855e-02,4.561382159590721130e-02,8.362798392772674561e-02,3.192858025431632996e-02,-9.575183503329753876e-03,1.399506181478500366e-01,6.092497706413269043e-02,-2.066494822502136230e-01,2.819838002324104309e-02,-3.799846023321151733e-02
1.211125776171684265e-01,-6.513119488954544067e-02,3.549844026565551758e-02,-9.217811375856399536e-02,4.470140114426612854e-02,-2.232200093567371368e-02,4.288981854915618896e-02,6.552043557167053223e-02,1.828602701425552368e-02,1.463490128517150879e-01,-1.890313923358917236e-01,-2.030984610319137573e-01,2.635985612869262695e-02,1.524790823459625244e-01,6.231638789176940918e-02,1.340606063604354858e-01,-6.229809299111366272e-02,-5.740533769130706787e-02,-3.207807615399360657e-02,-4.745502024888992310e-02,8.299943059682846069e-02,-6.265402585268020630e-02,-8.048851788043975830e-02,-3.880738466978073120e-02,1.279395967721939087e-01,-2.044342644512653351e-02,-1.950713843107223511e-01,-1.513958573341369629e-01,-5.336525291204452515e-02,4.365792870521545410e-02,2.745551988482475281e-03,8.761700242757797241e-02,-2.089785970747470856e-02,-1.811452209949493408e-01,2.139883488416671753e-02,9.281574934720993042e-02,2.099125273525714874e-02,7.638724893331527710e-02,-5.220496281981468201e-02,-1.246660500764846802e-01,2.802216261625289917e-02,6.256120651960372925e-02,4.999775812029838562e-02,-8.197321742773056030e-02,4.949998483061790466e-02,-1.243617758154869080e-01,1.441721618175506592e-01,9.960964322090148926e-02,-1.078521460294723511e-01,9.122679382562637329e-02,-1.800535917282104492e-01,7.345332205295562744e-02,-8.196219801902770996e-02,-1.431788057088851929e-01,7.159847021102905273e-02,3.049502335488796234e-02,3.329436853528022766e-02,3.575427457690238953e-02,1.055534407496452332e-01,3.059266693890094757e-02,1.037773713469505310e-01,-8.756830357015132904e-03,7.363229244947433472e-02,3.830782370641827583e-03
-6.820316612720489502e-02,7.601406425237655640e-03,1.456484943628311157e-01,-1.303532421588897705e-01,-1.263757646083831787e-01,-9.076102077960968018e-02,-1.467950493097305298e-01,2.103409543633460999e-02,4.118677973747253418e-02,-9.560418128967285156e-02,-9.742170572280883789e-02,2.332006953656673431e-02,1.535965055227279663e-01,1.654332429170608521e-01,1.449500210583209991e-02,2.015781551599502563e-01,-7.750335335731506348e-02,2.702134288847446442e-02,-1.391559541225433350e-01,2.435834705829620361e-02,6.299012154340744019e-02,-9.622234106063842773e-02,6.146823242306709290e-02,-4.990494251251220703e-02,-2.720612846314907074e-02,4.248262941837310791e-02,-4.709571003913879395e-01,-1.967356055974960327e-01,4.741964861750602722e-02,8.474082499742507935e-02,-1.806217618286609650e-02,-1.172711923718452454e-01,7.815121114253997803e-02,-9.104468673467636108e-02,-4.074018448591232300e-02,4.625668004155158997e-02,3.623444959521293640e-02,6.578167527914047241e-02,2.400462143123149872e-02,-8.466901630163192749e-02,1.013571172952651978e-01,2.961762845516204834e-01,-1.177691742777824402e-01,-1.142834872007369995e-01,-1.572792530059814453e-01,2.794239483773708344e-02,3.327439427375793457e-01,-2.282956093549728394e-01,6.589046120643615723e-02,-4.170965030789375305e-02,9.049520641565322876e-02,5.233065783977508545e-02,5.499139055609703064e-02,-1.678357720375061035e-01,-1.171622872352600098e-01,2.642988413572311401e-02,2.186095416545867920e-01,1.604498624801635742e-01,-6.110707297921180725e-02,-9.309364855289459229e-02,-2.648303471505641937e-02,-1.798941940069198608e-01,9.087653458118438721e-02,1.163258031010627747e-02
1.209196541458368301e-02,-3.711988776922225952e-02,-8.831951022148132324e-02,2.328449040651321411e-01,-1.042117923498153687e-01,1.670843064785003662e-01,6.053080782294273376e-02,1.059123948216438293e-01,1.254150122404098511e-01,1.033660918474197388e-01,-1.938941925764083862e-01,2.071397751569747925e-02,3.387447446584701538e-02,-6.450426578521728516e-02,-7.483525201678276062e-03,4.121516644954681396e-02,4.696667566895484924e-02,-5.629162862896919250e-02,-1.247664839029312134e-01,-1.654341444373130798e-02,-9.794347733259201050e-02,-6.402591709047555923e-03,-1.948394440114498138e-02,5.725208669900894165e-02,2.103788554668426514e-01,-1.397356092929840088e-01,1.009653359651565552e-01,2.281139343976974487e-01,-1.055325642228126526e-01,1.116420626640319824e-01,1.011862140148878098e-02,-7.234133314341306686e-03,2.965821512043476105e-02,-5.273914337158203125e-02,3.528677299618721008e-02,-5.345264077186584473e-02,-6.540718674659729004e-02,-1.656714677810668945e-01,-8.077639155089855194e-03,-5.007301270961761475e-02,-1.678526401519775391e-02,-9.987086057662963867e-02,1.197557449340820312e-01,-6.253276020288467407e-02,1.356381624937057495e-01,5.654006823897361755e-02,-8.483326435089111328e-02,1.195239648222923279e-01,-1.209657490253448486e-01,-4.808273911476135254e-02,3.301732614636421204e-02,2.101345174014568329e-02,-1.531068384647369385e-01,4.520524293184280396e-02,1.737881004810333252e-01,6.807259470224380493e-02,-1.086441427469253540e-01,-3.709433600306510925e-02,1.060242056846618652e-01,2.888330519199371338e-01,8.133687824010848999e-02,-9.570869803428649902e-02,-1.542730480432510376e-01,1.870992034673690796e-01
-1.354194134473800659e-01,1.141258329153060913e-01,2.672244608402252197e-01,4.179829731583595276e-02,-8.050102740526199341e-02,1.685043983161449432e-02,9.858735650777816772e-02,-2.234036773443222046e-01,-1.265037357807159424e-01,-1.500860899686813354e-01,2.796896994113922119e-01,2.116887457668781281e-02,-5.949380248785018921e-02,1.115440875291824341e-01,1.992631889879703522e-02,-1.954809278249740601e-01,1.018840521574020386e-01,2.146505191922187805e-02,3.092934377491474152e-02,2.971520423889160156e-01,2.313331216573715210e-01,-4.509895667433738708e-02,1.339198350906372070e-01,1.568295178003609180e-03,-3.466965854167938232e-01,2.006446868181228638e-01,-1.195265948772430420e-01,-1.129530891776084900e-01,1.954810321331024170e-01,6.404199451208114624e-02,9.474128484725952148e-02,8.389095962047576904e-02,-1.391213834285736084e-01,1.447283029556274414e-01,6.336980499327182770e-03,1.978859305381774902e-01,-2.211193144321441650e-01,2.378690754994750023e-03,2.689474523067474365e-01,-1.863387227058410645e-01,7.042700052261352539e-02,-2.908136546611785889e-01,-9.342958033084869385e-02,1.819200366735458374e-01,-7.938327640295028687e-02,-2.630663216114044189e-01,3.409027755260467529e-01,5.143887246958911419e-04,9.015545994043350220e-02,7.807066291570663452e-02,1.925010792911052704e-02,2.172413319349288940e-01,-7.635644171386957169e-03,4.061831235885620117e-01,5.663212388753890991e-02,-6.562328338623046875e-02,-8.874141611158847809e-03,-5.449251085519790649e-02,-2.905748784542083740e-01,1.309308558702468872e-01,-2.066285312175750732e-01,1.646008491516113281e-01,4.810265824198722839e-02,-2.732628881931304932e-01
-3.845824003219604492e-01,-2.474283985793590546e-02,3.013747632503509521e-01,-1.345168799161911011e-01,-1.723405122756958008e-01,1.356315165758132935e-01,5.043004080653190613e-02,-3.008585870265960693e-01,-3.137607276439666748e-01,-5.454020202159881592e-02,1.114807128906250000e-01,1.055314838886260986e-01,-5.148156732320785522e-02,1.610134914517402649e-02,-3.056849539279937744e-02,-1.095068305730819702e-01,1.615182869136333466e-02,-1.116995438933372498e-01,7.627616822719573975e-02,2.672902643680572510e-01,1.886035203933715820e-01,-1.090853591449558735e-03,3.442570567131042480e-01,-3.272149264812469482e-01,-4.548950791358947754e-01,3.621238097548484802e-02,6.084716413170099258e-03,-9.694730490446090698e-02,1.750513762235641479e-01,-1.063573453575372696e-02,1.086039375513792038e-02,6.641494482755661011e-02,-2.610499858856201172e-01,2.024156898260116577e-01,7.121381908655166626e-02,8.675333112478256226e-02,-2.314005941152572632e-01,1.443749293684959412e-02,3.064507842063903809e-01,-1.222532019019126892e-01,-1.865586936473846436e-01,-2.764001786708831787e-01,-1.567902415990829468e-01,6.046917289495468140e-02,-8.566901087760925293e-02,-1.437954157590866089e-01,2.322399243712425232e-02,1.776807755231857300e-01,2.041334807872772217e-01,-3.790436685085296631e-02,2.870638072490692139e-01,7.304738461971282959e-02,2.451783716678619385e-01,3.480219468474388123e-02,1.611703932285308838e-01,6.374758481979370117e-02,9.232012555003166199e-03,-3.566544130444526672e-02,-2.070327699184417725e-01,5.029850639402866364e-03,-2.670929431915283203e-01,9.616543352603912354e-02,1.028273925185203552e-01,-1.345536857843399048e-01
4.782964289188385010e-02,-7.053289562463760376e-02,5.246395990252494812e-02,1.404013037681579590e-01,1.096084993332624435e-02,1.046434119343757629e-01,-1.805249229073524475e-02,4.269099980592727661e-02,-8.927815407514572144e-02,6.195411831140518188e-02,1.596862673759460449e-01,-1.683860644698143005e-02,-5.762462317943572998e-02,-3.782598674297332764e-02,2.262744374093017541e-06,-1.706100441515445709e-02,5.299957841634750366e-02,-4.267462715506553650e-02,1.564061045646667480e-01,2.400241196155548096e-01,8.093660324811935425e-02,-2.637097425758838654e-02,8.725611865520477295e-02,6.247357279062271118e-02,-8.303426951169967651e-02,1.752460151910781860e-01,7.456377893686294556e-02,-1.169798225164413452e-01,-7.538586109876632690e-02,-5.935715511441230774e-02,6.898587569594383240e-03,-7.611913979053497314e-02,-9.299965202808380127e-02,3.157762344926595688e-03,-1.592270657420158386e-02,-1.982030458748340607e-02,-5.840468406677246094e-02,6.259481608867645264e-02,1.603639125823974609e-02,-1.640349477529525757e-01,-8.701808750629425049e-03,-6.226957589387893677e-02,4.988808929920196533e-02,1.165228858590126038e-01,-1.461379826068878174e-01,-1.490657478570938110e-01,-5.650753155350685120e-02,8.984544314444065094e-03,1.108056399971246719e-03,2.974719554185867310e-02,4.334014654159545898e-02,-3.447093814611434937e-02,-1.186607219278812408e-02,1.029863730072975159e-01,9.697335772216320038e-03,1.238581389188766479e-01,1.802554167807102203e-02,-4.472544044256210327e-02,4.592530429363250732e-03,-1.072155088186264038e-01,3.941849991679191589e-02,8.111938834190368652e-02,-9.902257472276687622e-02,-7.400856167078018188e-02
-2.805040776729583740e-01,-2.040555626153945923e-01,-1.193954795598983765e-01,-1.449638139456510544e-02,2.063356190919876099e-01,-9.893240779638290405e-02,2.352342568337917328e-02,1.189549863338470459e-01,2.359479218721389771e-01,-1.677079126238822937e-02,-1.551140546798706055e-01,-2.913280576467514038e-02,8.717566728591918945e-02,2.546017058193683624e-02,1.224557384848594666e-01,8.818400651216506958e-02,-1.417862921953201294e-01,-7.544659078121185303e-02,1.004264280200004578e-01,-2.419506311416625977e-01,1.200744658708572388e-01,-3.119328320026397705e-01,-1.256891041994094849e-01,-9.030797332525253296e-02,5.872974725207313895e-05,-1.642512343823909760e-02,1.107062920928001404e-01,6.268270313739776611e-02,4.736889526247978210e-02,-3.125227615237236023e-02,-5.316867679357528687e-02,1.528814733028411865e-01,-1.768105104565620422e-02,4.439338669180870056e-02,-1.484783738851547241e-01,2.517300471663475037e-02,1.829340457916259766e-01,6.545542180538177490e-02,4.321943223476409912e-02,1.312816441059112549e-01,8.838623017072677612e-02,2.541780471801757812e-01,-7.106034457683563232e-02,-1.281828433275222778e-01,-1.292656213045120239e-01,-4.793921113014221191e-02,9.542426094412803650e-03,-1.553287804126739502e-01,6.793544441461563110e-02,5.341760441660881042e-02,-1.858145147562026978e-01,-2.422277629375457764e-02,-9.699438512325286865e-02,-1.882715076208114624e-01,3.200779110193252563e-02,3.111060895025730133e-02,5.424268171191215515e-02,-1.256819255650043488e-02,7.794398814439773560e-03,4.714469239115715027e-02,-8.248773962259292603e-02,-1.990348100662231445e-01,5.923944711685180664e-02,-4.000512883067131042e-02
-4.451660811901092529e-02,1.933430731296539307e-01,-2.570318803191184998e-02,8.495400100946426392e-02,-2.364486455917358398e-02,8.512329310178756714e-02,-4.182829707860946655e-02,-1.516072731465101242e-02,-1.144587155431509018e-02,4.103524610400199890e-03,1.076651215553283691e-01,1.709616035223007202e-01,-2.448249608278274536e-02,1.691254824399948120e-01,-4.371150396764278412e-03,-1.139440685510635376e-01,1.163180768489837646e-01,3.021704591810703278e-02,-1.831095069646835327e-01,1.577512472867965698e-01,-1.821573637425899506e-02,-3.864993900060653687e-02,1.760542839765548706e-01,-2.206310331821441650e-01,8.677682280540466309e-02,6.384808570146560669e-02,-1.446226835250854492e-01,-5.415900796651840210e-02,6.613752804696559906e-03,3.129736334085464478e-02,-1.358957886695861816e-01,-2.796050161123275757e-02,-2.490902505815029144e-02,-6.042484194040298462e-02,2.414413355290889740e-02,-2.686361409723758698e-02,-1.119379475712776184e-01,4.203871265053749084e-02,-3.705615643411874771e-03,-9.210433065891265869e-02,-4.226863011717796326e-02,-5.558064579963684082e-02,1.045682206749916077e-01,-1.171362400054931641e-01,-4.893227480351924896e-03,-2.779329717159271240e-01,5.195882171392440796e-02,2.259062975645065308e-02,-1.367189437150955200e-01,-1.627031527459621429e-02,-8.228178322315216064e-02,3.063917346298694611e-02,3.443093597888946533e-02,9.797169268131256104e-02,-6.693504005670547485e-02,-6.571153062395751476e-04,5.961070209741592407e-02,2.920812368392944336e-02,-2.025467902421951294e-01,1.653459668159484863e-01,5.778935924172401428e-02,-1.309454143047332764e-01,-1.134069338440895081e-01,1.098443567752838135e-01
4.534013196825981140e-02,-9.821686148643493652e-02,7.936097681522369385e-02,-1.196234002709388733e-01,6.763281673192977905e-02,-1.202148646116256714e-01,2.575457990169525146e-01,2.036706209182739258e-01,1.551524400711059570e-01,9.209678322076797485e-02,-2.006628513336181641e-01,-3.471725061535835266e-02,1.462523788213729858e-01,2.408211976289749146e-01,-5.233547091484069824e-02,2.341434955596923828e-01,-7.156872004270553589e-02,-2.400277648121118546e-03,8.122487366199493408e-02,-1.873812228441238403e-01,-1.626505702733993530e-01,-3.958592191338539124e-02,-3.478471934795379639e-02,-5.114560201764106750e-02,7.730495929718017578e-02,-1.860579103231430054e-02,2.510281465947628021e-02,-1.253578215837478638e-01,-1.002992913126945496e-01,-1.055475138127803802e-02,-2.228044420480728149e-01,-6.376360356807708740e-02,-1.096351519227027893e-01,6.397257000207901001e-02,-9.934406727552413940e-03,5.561436340212821960e-02,1.700099408626556396e-01,-5.933446437120437622e-02,2.167629450559616089e-02,-5.718483403325080872e-02,-4.553055763244628906e-02,-8.949583768844604492e-02,1.559950038790702820e-02,-1.033368334174156189e-01,-2.212640941143035889e-01,3.329985216259956360e-02,-1.199242472648620605e-02,-9.395417571067810059e-02,-1.048330292105674744e-01,4.082491993904113770e-02,-2.583952546119689941e-01,-1.807425022125244141e-01,-5.777217075228691101e-02,-1.299400329589843750e-01,3.630981966853141785e-02,-6.732263416051864624e-02,7.911086827516555786e-02,-1.313259005546569824e-01,2.305046841502189636e-02,1.691206172108650208e-02,-1.052051559090614319e-01,-3.059974312782287598e-01,-1.070497110486030579e-01,-5.957635492086410522e-02
1.373181790113449097e-01,-4.278398305177688599e-02,2.893154919147491455e-01,-1.744877099990844727e-01,1.887970231473445892e-02,1.070368364453315735e-01,5.509275943040847778e-02,4.520038142800331116e-02,6.531318277120590210e-02,-1.347776502370834351e-01,9.309139847755432129e-02,-4.951433837413787842e-02,3.235686197876930237e-02,1.283291727304458618e-01,-2.310894280672073364e-01,5.610331520438194275e-02,-6.235743314027786255e-02,2.444470301270484924e-02,-2.799567021429538727e-02,5.375170707702636719e-02,8.083653450012207031e-02,-1.634239032864570618e-02,4.635597765445709229e-02,-3.764818906784057617e-01,-2.950754016637802124e-02,4.446997120976448059e-02,-8.742399513721466064e-02,-2.188334614038467407e-01,4.328127950429916382e-02,5.418898910284042358e-02,-9.700085967779159546e-02,-1.924785524606704712e-01,-1.863909959793090820e-01,1.174647659063339233e-01,6.865140795707702637e-02,1.155824214220046997e-01,-1.527802273631095886e-02,-3.100528568029403687e-02,7.808101922273635864e-02,-6.846492737531661987e-02,-1.533430628478527069e-02,-1.868248879909515381e-01,1.309824269264936447e-02,-5.381187796592712402e-02,3.606346994638442993e-02,-1.251887530088424683e-01,1.211265549063682556e-01,1.063896939158439636e-01,-1.449382156133651733e-01,-1.578276902437210083e-01,-2.610603868961334229e-01,-8.423502743244171143e-02,3.832897054962813854e-04,-1.701320111751556396e-01,-5.135060101747512817e-02,8.915789425373077393e-02,1.545212790369987488e-02,-1.152815371751785278e-01,4.314031451940536499e-02,-6.437037140130996704e-02,-4.392933100461959839e-02,-2.722596228122711182e-01,4.045461118221282959e-02,-5.672957282513380051e-03
4.817043989896774292e-02,-2.763643860816955566e-01,-1.879662275314331055e-01,-2.204191535711288452e-01,7.920786738395690918e-02,-1.260741651058197021e-01,1.065208688378334045e-01,2.709206342697143555e-01,9.795218706130981445e-02,-9.336400777101516724e-02,-8.656406402587890625e-02,-2.302757054567337036e-01,1.892131417989730835e-01,5.980909243226051331e-02,4.008639976382255554e-02,1.284252703189849854e-01,-2.073645740747451782e-01,1.380586028099060059e-01,-7.066061347723007202e-02,-3.603536188602447510e-01,-3.543225675821304321e-02,-7.232794910669326782e-02,-8.570565283298492432e-02,1.072649881243705750e-01,9.116408973932266235e-02,7.217522710561752319e-02,-1.086088269948959351e-01,1.754018827341496944e-03,-1.358121037483215332e-01,-8.988721668720245361e-02,-1.591463387012481689e-01,1.282583083957433701e-02,4.183056205511093140e-02,-1.904609240591526031e-02,-1.370135545730590820e-01,3.156952792778611183e-03,1.444178074598312378e-01,2.325262315571308136e-02,-1.997953653335571289e-01,-7.859599590301513672e-02,-1.187497153878211975e-01,3.528292179107666016e-01,3.679576562717556953e-03,-1.621082052588462830e-02,-4.213076084852218628e-02,-1.821190491318702698e-02,2.150082737207412720e-01,-4.283327236771583557e-02,-8.584071882069110870e-03,-8.886670321226119995e-02,-2.717196047306060791e-01,-7.683059573173522949e-02,-1.691419482231140137e-01,-8.444980531930923462e-02,-6.654793024063110352e-02,-1.731825172901153564e-01,2.006787508726119995e-01,1.187319681048393250e-01,-1.772143244743347168e-01,-1.007303446531295776e-01,-6.662146002054214478e-02,-1.384505033493041992e-01,5.602540448307991028e-02,-9.635448455810546875e-02
-7.644374668598175049e-02,-7.405204698443412781e-03,5.163317173719406128e-02,-3.500394523143768311e-02,-5.278477445244789124e-02,1.337244510650634766e-01,2.906794287264347076e-02,-2.035754360258579254e-02,-3.370819613337516785e-02,3.539028763771057129e-02,-3.983891010284423828e-02,5.500968545675277710e-02,-1.669096387922763824e-02,1.711754873394966125e-02,-1.061474997550249100e-02,-1.169496551156044006e-01,9.325955063104629517e-02,4.785034060478210449e-02,2.480611205101013184e-02,6.120488978922367096e-03,2.880751853808760643e-04,-8.462397009134292603e-02,8.873838186264038086e-02,-3.826782107353210449e-02,1.692689061164855957e-01,-9.263493120670318604e-03,-1.701368242502212524e-01,8.547089993953704834e-02,-1.291412264108657837e-01,3.337748721241950989e-02,-4.940542206168174744e-02,-5.115423351526260376e-02,-3.309178724884986877e-02,4.154854640364646912e-02,3.370792418718338013e-02,4.769119247794151306e-02,-1.164298225194215775e-02,-2.035680562257766724e-01,-1.131036784499883652e-02,-4.594069905579090118e-03,-9.144874662160873413e-02,-1.735210971673950553e-04,1.419070810079574585e-01,1.099260076880455017e-01,-7.713365834206342697e-03,-1.451846659183502197e-01,6.756345927715301514e-02,1.053103059530258179e-02,-5.202852562069892883e-02,6.739173084497451782e-02,2.817353606224060059e-01,-4.960894212126731873e-02,-7.342132180929183960e-02,1.651937961578369141e-01,-1.379912137053906918e-03,7.968673855066299438e-02,-1.203697547316551208e-01,-2.993861446157097816e-03,3.819779679179191589e-02,1.872205734252929688e-01,6.446901708841323853e-02,2.620910704135894775e-01,5.704687535762786865e-02,2.572845816612243652e-01
-4.361146688461303711e-02,-2.114087492227554321e-01,-2.840310037136077881e-01,2.619865834712982178e-01,5.979501828551292419e-02,-1.622123084962368011e-02,1.554304659366607666e-01,2.612195312976837158e-01,2.021734565496444702e-01,3.640994802117347717e-02,-8.538860082626342773e-02,-1.426401436328887939e-01,2.339495718479156494e-01,3.825642913579940796e-02,1.796574443578720093e-01,2.596206665039062500e-01,-2.382339835166931152e-01,-1.470979452133178711e-01,-1.645955815911293030e-02,-1.166165620088577271e-01,1.592417955398559570e-01,-1.512953490018844604e-01,3.205718845129013062e-02,1.155747994780540466e-01,9.816430509090423584e-02,-2.259156703948974609e-01,1.779242008924484253e-01,1.404076814651489258e-01,-2.354649305343627930e-01,-1.133945956826210022e-01,2.870559096336364746e-01,1.355177536606788635e-02,-1.748424172401428223e-01,-5.361642688512802124e-02,-8.230822533369064331e-02,-9.053042531013488770e-02,7.545288652181625366e-02,-2.419272065162658691e-01,7.336563616991043091e-02,1.806077198125422001e-03,2.355799078941345215e-02,-1.189496219158172607e-01,5.773712322115898132e-02,1.450534164905548096e-01,-3.157202899456024170e-02,-9.247861802577972412e-02,-7.875181734561920166e-02,8.419054001569747925e-02,8.855449408292770386e-02,-1.521157473325729370e-01,-3.623338416218757629e-03,1.467642839998006821e-02,-3.799317777156829834e-01,2.463356778025627136e-02,1.913568377494812012e-01,7.085690647363662720e-02,9.714461863040924072e-03,-1.328396052122116089e-01,8.324419707059860229e-02,1.419210135936737061e-01,1.777455769479274750e-02,-2.945006489753723145e-01,-1.584188081324100494e-02,-7.292946428060531616e-02
-5.263573676347732544e-02,-1.932484209537506104e-01,2.677041338756680489e-03,1.179049760103225708e-01,2.250139713287353516e-01,-1.911270171403884888e-01,6.775361299514770508e-02,2.135845571756362915e-01,1.523738652467727661e-01,-7.198983430862426758e-02,-2.539405971765518188e-02,-2.286942154169082642e-01,-9.251842647790908813e-02,2.391085959970951080e-02,-1.849859766662120819e-02,4.262133687734603882e-02,-1.202942505478858948e-01,1.102244108915328979e-01,-1.105672642588615417e-01,-1.663205325603485107e-01,2.392261922359466553e-01,1.426560711115598679e-02,1.732327044010162354e-01,8.849489688873291016e-02,-6.281921267509460449e-02,1.528086047619581223e-02,1.256973296403884888e-01,-4.659967962652444839e-03,1.167643591761589050e-01,-2.057356089353561401e-01,-1.104579791426658630e-01,1.201931573450565338e-02,2.242815867066383362e-02,-1.309525668621063232e-01,-2.954184710979461670e-01,8.250252902507781982e-02,2.025662213563919067e-01,1.493922472000122070e-01,1.066917628049850464e-01,4.557556658983230591e-02,7.239817641675472260e-03,-1.971595548093318939e-02,-9.714540094137191772e-03,-1.165665090084075928e-01,-6.278772652149200439e-02,1.321001201868057251e-01,1.190024167299270630e-01,-1.180398929864168167e-02,-1.294228285551071167e-01,2.667496539652347565e-02,-2.020030170679092407e-01,1.772252023220062256e-01,9.106151014566421509e-02,-1.209378242492675781e-01,-1.113338917493820190e-01,-1.443722546100616455e-01,1.078108027577400208e-01,1.137779094278812408e-03,-8.581574261188507080e-02,-8.002048730850219727e-02,1.186584979295730591e-01,-8.176904171705245972e-03,1.224891990423202515e-01,4.912075772881507874e-02
-1.339793950319290161e-02,-5.586791038513183594e-02,3.709885478019714355e-02,7.308381795883178711e-02,-7.920350134372711182e-02,8.222158066928386688e-03,1.923125535249710083e-01,-1.214683130383491516e-01,1.294150855392217636e-02,1.035275757312774658e-01,9.896472841501235962e-02,-5.487655103206634521e-02,-4.620349034667015076e-02,1.496859937906265259e-01,-7.453574240207672119e-02,-1.507773101329803467e-01,-8.416158705949783325e-02,-1.330661773681640625e-01,1.608505845069885254e-01,1.393251866102218628e-01,8.908352255821228027e-02,-1.156427804380655289e-02,1.871310472488403320e-01,-2.639301866292953491e-02,-1.970132291316986084e-01,9.495770931243896484e-02,1.070134788751602173e-01,7.691823691129684448e-02,2.807957828044891357e-01,-2.124786935746669769e-02,8.947513252496719360e-02,1.353681981563568115e-01,-1.024789437651634216e-01,-1.014128625392913818e-01,-5.574157694354653358e-04,7.342150062322616577e-02,-3.033176064491271973e-01,4.375918209552764893e-02,8.452289551496505737e-02,-5.444359779357910156e-02,-4.521035123616456985e-03,-2.081152796745300293e-01,4.285592585802078247e-02,9.196640923619270325e-03,7.980895228683948517e-03,-6.508701294660568237e-02,7.886453717947006226e-02,4.740850999951362610e-02,1.710873991250991821e-01,-1.316088587045669556e-01,1.186813637614250183e-01,1.082301139831542969e-01,1.107136830687522888e-01,2.525503188371658325e-02,2.382738329470157623e-02,2.139114290475845337e-01,5.740418285131454468e-02,-7.516632229089736938e-02,5.187582597136497498e-02,4.851038753986358643e-02,-9.517482668161392212e-02,5.903225857764482498e-03,4.498712718486785889e-02,-1.835740804672241211e-01
-3.259969130158424377e-02,-1.829835586249828339e-02,-4.594876244664192200e-02,5.640392750501632690e-02,2.026513516902923584e-01,-1.690858006477355957e-01,-3.170439228415489197e-02,-9.817623533308506012e-03,4.128877073526382446e-02,7.278494536876678467e-02,-6.559976190328598022e-02,-2.119343727827072144e-01,3.364786133170127869e-02,8.812697231769561768e-02,-2.934375219047069550e-02,-1.161711663007736206e-01,9.272938221693038940e-02,-2.621148340404033661e-02,5.818501114845275879e-02,3.729978948831558228e-02,5.464496556669473648e-03,-6.902382243424654007e-03,-4.283667355775833130e-02,-8.621966093778610229e-02,1.265285611152648926e-01,-7.140929996967315674e-02,-4.730626568198204041e-02,-1.532710622996091843e-02,5.592200532555580139e-02,-4.426565021276473999e-03,9.731307625770568848e-02,4.684972018003463745e-02,4.403857514262199402e-03,1.872329786419868469e-02,1.545985192060470581e-01,-7.439581304788589478e-02,5.183767154812812805e-02,2.393160201609134674e-02,-2.764441817998886108e-02,-1.957181468605995178e-02,2.139247395098209381e-02,6.711099296808242798e-02,-3.166127204895019531e-02,8.648145198822021484e-02,1.601971387863159180e-01,-5.559374392032623291e-02,1.807991564273834229e-01,1.542764157056808472e-01,-1.037357896566390991e-01,-2.487578801810741425e-02,3.327973559498786926e-02,3.694980591535568237e-02,-1.308170408010482788e-01,-8.591759949922561646e-02,7.827892899513244629e-03,7.549723982810974121e-02,2.698641456663608551e-02,-3.646478429436683655e-02,3.106021136045455933e-02,1.325416862964630127e-01,5.679326504468917847e-02,-5.035178735852241516e-02,2.158761322498321533e-01,1.832914203405380249e-01
5.120491608977317810e-03,-5.641567707061767578e-02,-1.675399690866470337e-01,3.725008666515350342e-02,-2.013656869530677795e-02,-4.624978452920913696e-02,1.397785544395446777e-01,3.013378381729125977e-01,9.397429227828979492e-02,-8.885630406439304352e-03,-1.577973514795303345e-01,-2.508356273174285889e-01,1.764607131481170654e-01,1.317002326250076294e-01,-2.400223352015018463e-02,2.228324115276336670e-01,-2.282370626926422119e-01,8.694104105234146118e-02,-7.432249933481216431e-02,-1.829814314842224121e-01,2.154785394668579102e-01,-1.658222079277038574e-01,-1.780546307563781738e-01,8.612221479415893555e-02,-6.015329062938690186e-02,-2.271441072225570679e-01,-1.659686863422393799e-01,-4.061304032802581787e-02,3.291389346122741699e-02,-1.506568342447280884e-01,-1.119208708405494690e-01,6.871564686298370361e-02,1.200468540191650391e-01,-1.101488843560218811e-01,-1.827842593193054199e-01,-1.863973401486873627e-02,1.549085080623626709e-01,-3.200798528268933296e-03,8.282654732465744019e-02,9.361408650875091553e-02,-7.446526736021041870e-02,-5.348313599824905396e-03,-1.256751478649675846e-03,-3.780016675591468811e-02,-1.419523656368255615e-01,-7.581792026758193970e-02,-1.325892563909292221e-02,-2.894813120365142822e-01,6.615827977657318115e-02,8.033607155084609985e-02,-9.877534955739974976e-02,1.058065965771675110e-01,-6.310744211077690125e-03,-8.878476172685623169e-02,-9.774036705493927002e-02,-1.655103415250778198e-01,7.726775109767913818e-02,-7.208663504570722580e-03,2.783753350377082825e-02,1.886560767889022827e-02,2.548180148005485535e-02,-3.451712131500244141e-01,4.013868793845176697e-02,-1.677596569061279297e-01
-6.962662190198898315e-02,-2.529364526271820068e-01,8.141864091157913208e-02,-2.608825080096721649e-02,2.090705484151840210e-01,-2.400352060794830322e-01,-2.380758076906204224e-01,5.215516686439514160e-02,-2.213696688413619995e-01,-1.165819168090820312e-01,-1.824534498155117035e-02,-9.542158246040344238e-02,-5.272933468222618103e-02,-1.175008267164230347e-01,-1.567376405000686646e-02,-5.060527846217155457e-02,-1.220630854368209839e-01,-1.148547697812318802e-02,1.316546113230288029e-03,2.275808528065681458e-02,-5.519640073180198669e-02,-7.456637918949127197e-02,1.281389892101287842e-01,-1.146355420351028442e-01,-2.483803331851959229e-01,-4.654051363468170166e-02,1.361453831195831299e-01,-3.257193416357040405e-02,1.525993943214416504e-01,1.077687591314315796e-01,-8.546164631843566895e-02,4.597675055265426636e-02,-1.062136143445968628e-01,2.017344385385513306e-01,-3.565419698134064674e-03,1.345420479774475098e-01,-2.665458433330059052e-02,3.243411192670464516e-03,-2.027028203010559082e-01,-1.713425153866410255e-03,2.182074189186096191e-01,5.188170075416564941e-02,-2.056015580892562866e-01,-3.119383752346038818e-02,-1.812356524169445038e-02,-2.667370811104774475e-02,1.482320129871368408e-01,-5.000969860702753067e-03,4.547268152236938477e-02,-1.069802790880203247e-01,-3.440930694341659546e-02,-1.951148919761180878e-02,1.866271048784255981e-01,-1.956567615270614624e-01,-5.199488718062639236e-03,4.902605712413787842e-02,3.660969436168670654e-01,-1.611025631427764893e-01,-8.125495910644531250e-02,-1.560681778937578201e-02,-1.315116435289382935e-01,6.013680249452590942e-02,2.188232392072677612e-01,-2.703216075897216797e-01
4.253489524126052856e-02,-1.049276068806648254e-01,-1.155224293470382690e-01,-1.582627445459365845e-01,1.436667889356613159e-01,-8.257855474948883057e-02,-8.838192373514175415e-02,3.034138083457946777e-01,1.288208067417144775e-01,7.286147773265838623e-02,-2.342084348201751709e-01,-2.903957664966583252e-01,9.405662119388580322e-02,5.553883686661720276e-02,2.827623672783374786e-02,1.251412779092788696e-01,-1.800193786621093750e-01,3.384633362293243408e-02,-1.299429684877395630e-01,-1.809931695461273193e-01,1.085796579718589783e-02,8.452561451122164726e-04,2.669377997517585754e-02,-9.066192060708999634e-02,1.645851135253906250e-01,1.818716153502464294e-02,-5.473055317997932434e-02,2.481197938323020935e-02,1.221912354230880737e-02,-1.483661830425262451e-01,-1.089182123541831970e-01,9.858065098524093628e-02,-5.973196774721145630e-02,-1.155035495758056641e-01,-4.007043316960334778e-02,1.274770051240921021e-01,3.199508190155029297e-01,2.065056469291448593e-03,-8.399599045515060425e-02,-2.279470674693584442e-02,1.133549362421035767e-01,3.121370375156402588e-01,-8.445078134536743164e-02,-1.262165307998657227e-01,5.430552735924720764e-02,-1.729734614491462708e-02,8.942049741744995117e-02,-4.669204354286193848e-02,5.218640714883804321e-02,-1.034292876720428467e-01,-2.736624777317047119e-01,-6.243096664547920227e-02,2.326909452676773071e-02,-1.992550045251846313e-01,-5.006413534283638000e-02,-1.729395389556884766e-01,1.952621191740036011e-01,3.869552165269851685e-02,-2.666690051555633545e-01,-5.398716405034065247e-02,1.346596330404281616e-01,-3.357209861278533936e-01,-4.213072732090950012e-02,1.422466486692428589e-01
-1.394232362508773804e-01,-6.291267275810241699e-02,-5.710413679480552673e-02,1.566496863961219788e-02,1.634102463722229004e-01,-4.923844337463378906e-02,8.254242688417434692e-02,2.911504209041595459e-01,7.155448943376541138e-02,-5.398290231823921204e-02,-1.665821820497512817e-01,-9.496815502643585205e-02,8.249795064330101013e-03,-7.931584119796752930e-02,-5.424108356237411499e-02,1.538542658090591431e-01,-1.901064068078994751e-01,3.311423584818840027e-02,9.387014061212539673e-02,-1.164650619029998779e-01,7.867790758609771729e-03,4.953597206622362137e-03,1.142432019114494324e-01,8.013823628425598145e-02,4.775347560644149780e-02,-3.867650777101516724e-02,4.920731857419013977e-02,-6.485605239868164062e-02,-9.467234462499618530e-02,-2.444646805524826050e-01,-3.112407401204109192e-02,-7.800370454788208008e-02,-8.108492009341716766e-03,-8.701143413782119751e-02,-8.022982627153396606e-02,-1.007062662392854691e-02,1.828258186578750610e-01,-8.234180510044097900e-02,-8.417493849992752075e-02,2.595396712422370911e-02,2.904767915606498718e-02,6.243740394711494446e-02,1.629239618778228760e-01,-1.705999076366424561e-01,8.036162704229354858e-02,1.089586019515991211e-01,-1.471846848726272583e-01,-1.857272535562515259e-02,2.524236030876636505e-02,8.694949746131896973e-02,-1.865833699703216553e-01,-4.608817398548126221e-02,-6.906313449144363403e-02,-2.192762121558189392e-02,9.052778780460357666e-02,-9.056761860847473145e-02,2.225893549621105194e-03,-6.776464730501174927e-02,-1.086412295699119568e-01,2.843117527663707733e-02,8.428151160478591919e-02,-1.174331922084093094e-02,8.013268932700157166e-03,3.734165430068969727e-02
-1.301300972700119019e-01,9.590343385934829712e-02,5.705217644572257996e-02,8.159189601428806782e-04,5.746214464306831360e-02,9.905681014060974121e-03,-1.890597194433212280e-01,-2.954576909542083740e-02,1.558647397905588150e-02,-3.383345901966094971e-02,-1.428794562816619873e-01,-7.645174860954284668e-02,1.935357749462127686e-01,-4.759887524414807558e-04,-3.960666805505752563e-02,-5.662613362073898315e-02,-7.249920070171356201e-02,-3.418488055467605591e-02,-3.118745796382427216e-02,-2.372091114521026611e-01,-5.703601613640785217e-02,-1.041768938302993774e-01,1.109042614698410034e-01,6.572411954402923584e-02,-1.183743476867675781e-01,6.071124225854873657e-02,-5.621588975191116333e-02,-1.730985939502716064e-01,2.104929462075233459e-02,5.642037093639373779e-02,6.766633689403533936e-02,2.101995050907135010e-02,1.470929533243179321e-01,-5.129691585898399353e-02,1.060839835554361343e-02,2.338217943906784058e-02,1.931839138269424438e-01,1.318879425525665283e-01,9.392975270748138428e-02,6.224551796913146973e-02,6.786649674177169800e-02,-6.635556370019912720e-02,-1.289644986391067505e-01,-1.568185389041900635e-01,1.587473973631858826e-02,-3.697290271520614624e-02,-2.577968314290046692e-02,-3.517982363700866699e-02,3.392959758639335632e-02,1.272889673709869385e-01,-9.597565978765487671e-02,7.800932042300701141e-03,1.324083060026168823e-01,-1.848594695329666138e-01,2.580108866095542908e-02,-1.648256182670593262e-02,5.398218985646963120e-03,5.272249132394790649e-02,4.620119929313659668e-02,9.767205920070409775e-04,-2.925047418102622032e-03,-9.141226857900619507e-02,9.270654059946537018e-03,-8.048130571842193604e-02
-2.247495204210281372e-02,-1.347018778324127197e-01,-1.700733453035354614e-01,3.922883886843919754e-03,-5.167444422841072083e-02,-4.445758089423179626e-02,1.408175826072692871e-01,1.578426510095596313e-01,-1.189614366739988327e-02,2.118569761514663696e-01,1.321149896830320358e-02,-1.946974992752075195e-01,-2.118282765150070190e-01,2.078747451305389404e-01,1.056512910872697830e-02,-1.403643283993005753e-02,-1.551992725580930710e-02,7.408003509044647217e-02,2.373041510581970215e-01,2.915564738214015961e-02,2.460530549287796021e-01,-3.666537627577781677e-02,-2.106489799916744232e-02,-1.087647955864667892e-02,-1.258943378925323486e-01,-1.087173148989677429e-01,-6.720907241106033325e-02,1.355856359004974365e-01,-7.080395519733428955e-02,2.411304228007793427e-02,-4.765245690941810608e-02,6.344690918922424316e-02,-9.409365244209766388e-03,-2.271663844585418701e-01,-3.256409242749214172e-02,-9.342121332883834839e-02,-5.071634054183959961e-02,-1.871717274188995361e-01,-2.310996130108833313e-02,3.471001610159873962e-02,-1.895534433424472809e-02,2.730737440288066864e-02,-8.919288218021392822e-02,2.964440174400806427e-02,1.229553595185279846e-01,3.444739431142807007e-02,1.214236766099929810e-02,-4.607126116752624512e-02,-7.261232007294893265e-03,-7.333669811487197876e-02,1.271652877330780029e-01,-3.365086764097213745e-02,-8.674129843711853027e-02,-2.964242920279502869e-02,7.161637395620346069e-02,2.640378288924694061e-02,-7.474188506603240967e-02,5.109159275889396667e-02,1.356387734413146973e-01,5.516718327999114990e-02,-6.628828495740890503e-02,-1.022161468863487244e-01,-3.217563405632972717e-02,-4.405046626925468445e-02
-1.820628494024276733e-01,2.016339637339115143e-02,2.069692127406597137e-02,7.796185463666915894e-02,1.090774014592170715e-01,-2.585974931716918945e-01,-7.662310451269149780e-02,2.171703130006790161e-01,-4.026610776782035828e-02,-2.218582434579730034e-03,-3.564637899398803711e-02,-2.504997327923774719e-02,5.415366217494010925e-02,-7.640963047742843628e-02,-1.552584581077098846e-02,-1.608108431100845337e-01,-5.983469635248184204e-02,-1.593127846717834473e-01,-4.463898390531539917e-02,-1.721064895391464233e-01,-2.510070800781250000e-02,-1.239688619971275330e-01,-1.893576793372631073e-02,-1.736200302839279175e-01,-1.524833887815475464e-01,-1.427672952413558960e-01,8.293802291154861450e-02,-9.245142340660095215e-03,1.215892136096954346e-01,-1.053475216031074524e-01,5.223667994141578674e-02,1.514071039855480194e-02,-1.311797201633453369e-01,3.364746645092964172e-02,1.984255202114582062e-02,-9.712275117635726929e-02,8.260107785463333130e-02,-1.149332076311111450e-01,1.003881450742483139e-02,-3.458032384514808655e-02,1.083531156182289124e-01,-1.139729991555213928e-01,3.871123120188713074e-02,-2.773046121001243591e-02,-5.860886350274085999e-02,-8.741656690835952759e-02,2.306575421243906021e-03,1.777478610165417194e-03,-6.992219015955924988e-03,-4.475704580545425415e-02,6.501770112663507462e-03,8.961122483015060425e-02,4.485673829913139343e-02,-5.370180308818817139e-02,7.598408311605453491e-02,4.367662221193313599e-02,2.358050085604190826e-02,-7.000660896301269531e-02,-8.419901877641677856e-02,7.558873854577541351e-03,-4.096648842096328735e-02,-2.935779979452490807e-03,1.646419763565063477e-01,-2.263916283845901489e-01
6.183111667633056641e-02,-2.433983050286769867e-02,1.568534672260284424e-01,2.857839502394199371e-02,1.569489389657974243e-01,4.185925424098968506e-02,-1.032591685652732849e-01,9.425574541091918945e-02,-1.133821904659271240e-01,-1.000445336103439331e-01,1.698586642742156982e-01,8.965273946523666382e-02,-6.368187069892883301e-02,-3.155920654535293579e-03,1.540102344006299973e-02,-1.004234552383422852e-01,1.658386178314685822e-02,-3.900171443819999695e-02,-1.442902088165283203e-01,-1.267676651477813721e-01,-2.634625416249036789e-04,2.782620862126350403e-02,5.553659982979297638e-03,1.020645946264266968e-01,1.392335817217826843e-02,-1.027690023183822632e-01,-1.483391970396041870e-02,-8.866935386322438717e-04,1.663771271705627441e-01,6.514066457748413086e-02,-1.604921557009220123e-02,3.610690310597419739e-02,-3.602553531527519226e-02,-1.612492837011814117e-02,6.201334763318300247e-03,-6.023956835269927979e-02,-5.671005696058273315e-02,-4.568162932991981506e-02,1.225286126136779785e-01,-1.305481940507888794e-01,-7.748724520206451416e-02,-7.901274412870407104e-02,6.809853762388229370e-02,1.013352200388908386e-01,-7.395045459270477295e-02,-5.043258517980575562e-02,8.729532361030578613e-02,2.510856986045837402e-01,-5.930826440453529358e-02,-4.273630306124687195e-02,6.838210672140121460e-02,2.660211175680160522e-02,-4.377294704318046570e-02,6.046573817729949951e-02,-9.647561237215995789e-03,1.743334978818893433e-01,1.331945061683654785e-01,-1.890300065279006958e-01,9.288882464170455933e-02,5.265135318040847778e-02,3.079161792993545532e-02,2.685932628810405731e-02,-7.910052314400672913e-03,-8.223298937082290649e-02
1.246458515524864197e-01,-3.780135884881019592e-02,5.746482312679290771e-02,-9.219279885292053223e-02,5.009602755308151245e-02,3.695999830961227417e-02,-5.839024111628532410e-02,-3.743908926844596863e-02,9.672222286462783813e-02,7.662443071603775024e-02,-4.270068928599357605e-02,-3.094059228897094727e-02,-6.879811733961105347e-02,1.651551276445388794e-01,-1.264790073037147522e-02,-9.245122969150543213e-02,-4.243937879800796509e-02,-1.664720177650451660e-01,2.422094494104385376e-01,8.596623316407203674e-03,-1.407359912991523743e-02,2.712786011397838593e-02,4.156822338700294495e-02,5.843254178762435913e-02,-1.421648561954498291e-01,-4.278487712144851685e-02,-4.276219010353088379e-02,-1.656325906515121460e-01,-7.004308514297008514e-03,4.653061926364898682e-02,1.885868906974792480e-01,-1.391280144453048706e-01,-1.902103126049041748e-01,1.122790202498435974e-01,7.233179360628128052e-02,-4.089010506868362427e-02,-8.439055085182189941e-02,-1.264095306396484375e-01,2.567655593156814575e-02,-1.079985946416854858e-01,-5.745498090982437134e-02,-1.136882826685905457e-01,-2.571521885693073273e-02,2.001459747552871704e-01,6.113817170262336731e-02,-9.612424671649932861e-02,1.100127175450325012e-01,1.087986454367637634e-01,4.794352874159812927e-02,-3.710523620247840881e-02,-3.920920565724372864e-02,-2.266982644796371460e-01,5.890291184186935425e-02,3.801132738590240479e-02,3.169372305274009705e-02,-2.282210998237133026e-02,9.912338107824325562e-02,-2.104461640119552612e-01,2.184448242187500000e-01,3.820024058222770691e-02,-1.692710369825363159e-01,-6.103314459323883057e-02,1.436079591512680054e-01,7.643519341945648193e-02
-1.142012104392051697e-01,-2.082837074995040894e-01,8.688970468938350677e-03,1.193338036537170410e-01,9.207278490066528320e-02,-1.059582978487014771e-01,1.486911028623580933e-01,-3.126537799835205078e-02,1.975778862833976746e-02,8.995188772678375244e-02,-1.101810410618782043e-01,-1.293645203113555908e-01,-5.537059158086776733e-02,2.861890196800231934e-01,-3.586328402161598206e-02,-9.011523425579071045e-02,6.257101148366928101e-02,-2.363150939345359802e-03,1.321664303541183472e-01,-9.990651160478591919e-02,1.163398250937461853e-01,8.900884538888931274e-02,1.631022840738296509e-01,9.347375482320785522e-03,-1.439969837665557861e-01,8.591228723526000977e-02,-8.648770302534103394e-02,-8.684572577476501465e-02,-9.512028843164443970e-02,-3.111921064555644989e-02,-3.627122566103935242e-02,-1.938615180552005768e-02,-3.011924400925636292e-02,-4.426795989274978638e-02,-1.561092883348464966e-01,-7.693105190992355347e-02,-2.606953727081418037e-03,-7.908615469932556152e-02,-6.085793301463127136e-02,2.911187009885907173e-03,-1.903413087129592896e-01,1.356659978628158569e-01,6.998788565397262573e-02,3.863918781280517578e-02,-3.239328786730766296e-02,-1.025885492563247681e-01,1.587842851877212524e-01,-1.051482930779457092e-01,-5.624826624989509583e-02,-1.999933645129203796e-02,5.338810384273529053e-02,-5.862429738044738770e-02,-7.005750667303800583e-03,9.571383893489837646e-02,-9.885495156049728394e-02,-1.429877430200576782e-01,6.638301908969879150e-02,1.383605692535638809e-02,1.017726287245750427e-01,-5.788663774728775024e-02,1.531089395284652710e-01,-1.569058559834957123e-02,1.390452496707439423e-02,2.675264840945601463e-03
9.280234575271606445e-02,-1.063257977366447449e-01,6.135186180472373962e-02,7.587807625532150269e-02,1.258450895547866821e-01,-1.882238313555717468e-02,-2.132681608200073242e-01,2.338350117206573486e-01,-6.874011456966400146e-02,-1.453025788068771362e-01,-1.266415566205978394e-01,-6.769418716430664062e-03,1.126259565353393555e-02,9.532790631055831909e-02,1.298801153898239136e-01,1.701478473842144012e-02,-1.056991443037986755e-01,1.047739386558532715e-01,-7.996276021003723145e-02,-1.846338510513305664e-01,-8.973804861307144165e-02,-1.381664872169494629e-01,1.074470132589340210e-01,2.649647183716297150e-02,-9.282545000314712524e-02,6.627197563648223877e-02,-1.277768760919570923e-01,-2.915123244747519493e-03,-2.631700597703456879e-02,3.430316224694252014e-02,7.033041864633560181e-02,-3.307385370135307312e-02,-4.464041441679000854e-02,3.343146666884422302e-02,1.479135155677795410e-01,6.601290404796600342e-02,6.649539619684219360e-02,1.875752210617065430e-02,2.370401658117771149e-02,7.129050791263580322e-02,1.428802870213985443e-02,8.174420893192291260e-02,-8.133859373629093170e-03,7.965207844972610474e-02,7.261792570352554321e-02,-3.057498112320899963e-02,-6.481130421161651611e-02,1.601634621620178223e-01,4.591771960258483887e-02,-3.385873511433601379e-02,-1.566332131624221802e-01,1.832063123583793640e-02,1.075400114059448242e-01,4.527284950017929077e-02,-1.292389035224914551e-01,3.758229315280914307e-02,8.292520046234130859e-02,-4.442783445119857788e-02,1.383524239063262939e-01,-7.933409512042999268e-02,-4.245095700025558472e-02,-5.095513910055160522e-02,-1.406841874122619629e-01,-3.174783894792199135e-03
-4.309069812297821045e-01,-7.658606767654418945e-02,1.780422180891036987e-01,2.164617776870727539e-01,-3.295258432626724243e-02,1.714070886373519897e-02,1.494524255394935608e-02,-9.273166954517364502e-02,-1.160740107297897339e-02,-6.515918672084808350e-02,1.094319894909858704e-01,9.458806365728378296e-02,-9.040117263793945312e-02,-2.989824395626783371e-03,2.025742270052433014e-02,5.052222684025764465e-02,8.915620297193527222e-02,-1.251261085271835327e-01,-1.929300427436828613e-01,9.631017595529556274e-02,4.562230408191680908e-02,-4.175335913896560669e-02,1.825055778026580811e-01,-1.992250606417655945e-02,-2.228644192218780518e-01,-1.114995032548904419e-02,2.053909189999103546e-02,-6.064276397228240967e-02,1.319195479154586792e-01,-7.326707243919372559e-02,8.145904541015625000e-02,1.699925810098648071e-01,-1.229569781571626663e-02,1.503360718488693237e-01,-4.258126392960548401e-02,1.780204921960830688e-01,-3.619114682078361511e-02,-3.808969398960471153e-03,5.678636487573385239e-03,5.484883114695549011e-02,1.320972442626953125e-01,-1.829811036586761475e-01,-1.512322872877120972e-01,-1.124692335724830627e-02,-7.337407022714614868e-02,-1.453578099608421326e-02,8.682939410209655762e-02,-6.025185063481330872e-02,9.399100393056869507e-02,-3.977789729833602905e-02,1.380116045475006104e-01,6.225555762648582458e-02,-6.259067356586456299e-02,-7.900819927453994751e-02,-3.265641629695892334e-02,1.581823453307151794e-03,1.264382004737854004e-01,-8.450767397880554199e-02,-3.732796311378479004e-01,2.637152373790740967e-02,-8.873091638088226318e-02,-6.031605973839759827e-02,1.498308330774307251e-01,-1.088489368557929993e-01
2.689788676798343658e-02,-5.486645549535751343e-02,2.624984644353389740e-02,1.010567322373390198e-01,1.109758317470550537e-01,-1.705560833215713501e-01,-1.342477509751915932e-03,1.045017223805189133e-02,-9.134528040885925293e-02,-1.890673190355300903e-01,-1.459498405456542969e-01,-1.818945854902267456e-01,9.204326570034027100e-02,-8.342234045267105103e-02,-1.785606332123279572e-02,-8.276100456714630127e-02,-2.330738818272948265e-03,-2.344620972871780396e-02,-1.178137958049774170e-01,-2.270518392324447632e-01,3.688637912273406982e-02,-3.199304640293121338e-02,1.920336275361478329e-03,-1.063656806945800781e-01,1.206380277872085571e-01,6.450883578509092331e-03,4.931160435080528259e-02,-2.938974276185035706e-02,4.782119393348693848e-02,3.053400292992591858e-02,-1.100475266575813293e-01,1.977117210626602173e-01,1.330833733081817627e-01,1.189887598156929016e-01,-1.336172223091125488e-01,7.438459247350692749e-02,1.657915413379669189e-01,2.030376903712749481e-02,3.239692002534866333e-02,2.474275976419448853e-01,3.908238932490348816e-02,-9.742514044046401978e-02,-4.512364976108074188e-03,2.115146629512310028e-02,-9.079086594283580780e-03,6.817903369665145874e-02,2.537442445755004883e-01,1.325205117464065552e-01,-1.031846106052398682e-01,1.780868619680404663e-01,6.236007437109947205e-02,-1.933409646153450012e-02,1.668260619044303894e-02,-1.954046934843063354e-01,-1.622511446475982666e-01,1.991758681833744049e-02,5.855729058384895325e-02,-7.356470823287963867e-02,4.831385612487792969e-02,-3.760399296879768372e-02,-7.726310938596725464e-02,-2.653804793953895569e-02,1.208283677697181702e-01,-7.857196033000946045e-02
3.109809756278991699e-02,-1.297142803668975830e-01,4.743312671780586243e-02,6.744189886376261711e-04,1.281503140926361084e-01,-1.306569129228591919e-01,-1.181139331310987473e-02,9.563048183917999268e-02,8.813586831092834473e-02,-1.936898380517959595e-01,-1.501620560884475708e-01,-2.541987895965576172e-01,1.843105256557464600e-01,1.171667650341987610e-01,-3.659171983599662781e-02,1.600489169359207153e-01,-1.581261679530143738e-02,7.277545984834432602e-03,-1.576558053493499756e-01,-2.144593149423599243e-01,-1.458167470991611481e-02,6.224882230162620544e-02,-1.208935007452964783e-01,-1.532956808805465698e-01,1.231308877468109131e-01,-5.658920854330062866e-04,-1.514527350664138794e-01,-1.464875340461730957e-01,-1.281742844730615616e-02,9.139769524335861206e-02,-1.747839450836181641e-01,-1.576502472162246704e-01,1.181098371744155884e-01,1.188289839774370193e-02,-1.438339352607727051e-01,1.679195463657379150e-01,2.847161591053009033e-01,1.604761332273483276e-01,9.552746079862117767e-03,2.845950424671173096e-03,-8.580440282821655273e-02,2.835537791252136230e-01,-2.348620444536209106e-02,-1.435194015502929688e-01,-7.266779989004135132e-02,3.996843472123146057e-02,1.280838549137115479e-01,-1.803043633699417114e-01,-8.730782568454742432e-02,1.801357045769691467e-02,-9.349960088729858398e-02,1.048969551920890808e-01,1.262231022119522095e-01,-2.933440506458282471e-01,-2.706647515296936035e-01,-3.095794003456830978e-03,1.118943002074956894e-02,2.834641560912132263e-02,-2.455001175403594971e-01,-1.812987327575683594e-01,3.251978009939193726e-02,-1.681587398052215576e-01,9.694536216557025909e-03,2.036809176206588745e-01
-7.707764208316802979e-02,-3.575900495052337646e-01,-6.746150553226470947e-02,1.876037269830703735e-01,1.959005594253540039e-01,-1.920337527990341187e-01,1.954497098922729492e-01,1.903133094310760498e-01,1.974844634532928467e-01,2.231803908944129944e-02,-2.884392738342285156e-01,-3.060853779315948486e-01,1.467118710279464722e-01,1.746866255998611450e-01,1.215639263391494751e-01,1.355602592229843140e-01,4.101769998669624329e-03,-1.197371929883956909e-01,-7.495553791522979736e-02,-1.141007915139198303e-01,-3.324383869767189026e-02,-1.468112766742706299e-01,1.715424954891204834e-01,2.511636912822723389e-02,1.116934567689895630e-01,-1.665839739143848419e-02,3.037292137742042542e-02,-1.732606589794158936e-01,1.580578535795211792e-01,-1.473249197006225586e-01,-1.923440396785736084e-01,1.241932902485132217e-02,-1.100656576454639435e-03,-2.280001193284988403e-01,-2.006447166204452515e-01,1.547533869743347168e-01,2.144438773393630981e-01,3.395045921206474304e-02,4.219527356326580048e-03,5.249038804322481155e-03,7.809152454137802124e-02,4.048492293804883957e-03,-1.124920472502708435e-01,2.420830540359020233e-02,2.623671852052211761e-02,7.507611066102981567e-02,-7.451348006725311279e-02,-2.749689519405364990e-01,1.314733624458312988e-01,1.911614835262298584e-01,-1.249407008290290833e-01,-2.241581678390502930e-02,-1.455116122961044312e-01,-1.878840029239654541e-01,-2.011227160692214966e-01,-8.182012289762496948e-02,-5.829052999615669250e-02,1.060589849948883057e-01,-1.662590205669403076e-01,1.399800777435302734e-01,1.634141653776168823e-01,-8.249748498201370239e-02,5.302869156002998352e-02,-5.519755184650421143e-02
7.795637845993041992e-02,1.149854809045791626e-01,1.751040518283843994e-01,7.622181624174118042e-02,5.679895728826522827e-02,-1.210901960730552673e-01,1.457900255918502808e-01,-1.213204711675643921e-01,-5.638846009969711304e-02,1.418862640857696533e-01,2.877251431345939636e-02,7.035310566425323486e-02,-8.087458461523056030e-02,-2.631951868534088135e-01,-3.100703284144401550e-02,-9.370049089193344116e-02,-8.870582096278667450e-03,-1.981516554951667786e-02,1.422459483146667480e-01,2.131834626197814941e-03,5.060972273349761963e-02,1.057750433683395386e-01,6.025690957903862000e-02,-4.581531509757041931e-02,-1.724656373262405396e-01,-1.383128166198730469e-01,3.272403180599212646e-01,4.785792902112007141e-03,1.850657910108566284e-01,-5.510802846401929855e-03,5.129672586917877197e-02,-4.891645535826683044e-02,-2.445095330476760864e-01,-1.827213726937770844e-02,1.217366531491279602e-01,9.144043922424316406e-02,-8.476804941892623901e-02,-5.522423610091209412e-02,5.419640615582466125e-02,-6.838986277580261230e-02,1.218706145882606506e-01,-3.253582492470741272e-02,1.059157103300094604e-01,1.229886263608932495e-01,8.263758569955825806e-02,-1.155336573719978333e-01,3.315377980470657349e-02,3.659580275416374207e-02,-8.817201107740402222e-02,-1.122550144791603088e-01,-3.349175304174423218e-02,1.235670875757932663e-02,-3.230014070868492126e-02,1.290469467639923096e-01,9.389196929987519979e-05,1.367368698120117188e-01,-1.588355600833892822e-01,-1.605174392461776733e-01,2.201982885599136353e-01,-8.660712093114852905e-02,5.205583572387695312e-02,5.072118341922760010e-02,-7.447968423366546631e-02,1.176044810563325882e-02
-1.604836434125900269e-01,8.721497654914855957e-02,7.398422062397003174e-02,6.329286843538284302e-03,2.712909877300262451e-02,-1.834536343812942505e-01,-6.313344836235046387e-02,1.380365490913391113e-01,1.258184760808944702e-01,2.531068772077560425e-02,-2.220685184001922607e-01,-1.040024459362030029e-01,2.091026008129119873e-01,1.792186796665191650e-01,4.272043704986572266e-02,2.467469684779644012e-02,-2.261509932577610016e-02,-1.258445829153060913e-01,-3.003365360200405121e-02,-1.950300186872482300e-01,-9.213327616453170776e-02,7.060679793357849121e-02,-9.537078440189361572e-03,3.485504165291786194e-02,-3.952458500862121582e-02,-1.058895736932754517e-01,-6.536176800727844238e-02,7.955357432365417480e-02,1.851124614477157593e-01,5.506376549601554871e-02,5.179776996374130249e-02,-2.896886132657527924e-02,7.376515306532382965e-03,-8.625148236751556396e-02,-1.216635331511497498e-01,7.635094225406646729e-02,3.503266349434852600e-02,-6.054566800594329834e-02,6.975924968719482422e-02,-1.022925153374671936e-01,-3.684353083372116089e-02,-7.290481589734554291e-03,5.529625341296195984e-02,9.875901043415069580e-02,8.889716863632202148e-02,1.131033338606357574e-02,1.279611140489578247e-01,1.109052151441574097e-01,-3.394258674234151840e-03,-9.545926004648208618e-02,8.893317542970180511e-03,4.864257061854004860e-04,-1.073369011282920837e-02,-1.390574574470520020e-01,-3.171855956315994263e-02,2.844898402690887451e-02,1.569249294698238373e-02,-3.176771476864814758e-02,8.545685559511184692e-02,1.606409102678298950e-01,-1.925305649638175964e-02,1.948090735822916031e-03,-4.316266998648643494e-02,3.697903826832771301e-02
-1.060850098729133606e-01,6.314868479967117310e-02,-1.107016429305076599e-01,3.552893400192260742e-01,5.661093816161155701e-02,-1.614956557750701904e-01,3.086232841014862061e-01,9.346594661474227905e-02,2.097794264554977417e-01,1.100467965006828308e-01,-5.419529601931571960e-02,-7.977705448865890503e-03,1.269824802875518799e-01,-7.207713555544614792e-03,-4.822276066988706589e-03,7.140371203422546387e-02,-1.962340027093887329e-01,-3.260222673416137695e-01,1.935274899005889893e-01,1.192233934998512268e-01,-1.159581020474433899e-01,1.889745146036148071e-01,2.399395555257797241e-01,1.472739279270172119e-01,-1.816613376140594482e-01,-1.856492608785629272e-01,2.759337425231933594e-01,2.074901163578033447e-01,8.486768603324890137e-02,-3.043041527271270752e-01,2.199882119894027710e-01,-8.983204513788223267e-02,-1.013709008693695068e-01,-1.017031893134117126e-01,9.026932716369628906e-02,-8.943057805299758911e-02,-6.338679790496826172e-02,-1.937429755926132202e-01,1.929430365562438965e-01,-1.063590571284294128e-01,4.425651207566261292e-02,-1.406867802143096924e-01,2.053116708993911743e-01,2.065053880214691162e-01,-2.225395739078521729e-01,4.669396148528903723e-04,-7.345520704984664917e-02,1.851969659328460693e-01,-1.475511193275451660e-01,-5.739685893058776855e-02,-4.334639385342597961e-02,-2.195342183113098145e-01,-2.512385547161102295e-01,6.187578663229942322e-02,3.001041114330291748e-01,2.057303041219711304e-01,-1.047655120491981506e-01,-1.855248361825942993e-01,1.131221279501914978e-01,3.280710875988006592e-01,-3.202060237526893616e-02,-1.305950731039047241e-01,-1.125793978571891785e-01,-1.310493052005767822e-01
-1.088015269488096237e-02,-9.191150218248367310e-02,6.306705623865127563e-02,4.106540977954864502e-02,-1.236428879201412201e-02,-2.249225601553916931e-02,-6.657528132200241089e-02,2.389231324195861816e-01,5.629350990056991577e-02,9.712083637714385986e-02,-9.037474542856216431e-02,-4.163728281855583191e-02,-3.519274061545729637e-03,-1.468497328460216522e-02,-3.970039263367652893e-02,-7.897648215293884277e-02,-1.536926180124282837e-01,1.102095702663064003e-03,-1.992781311273574829e-01,-2.202739119529724121e-01,-3.663222491741180420e-02,-1.718121916055679321e-01,1.039702743291854858e-01,-7.948838919401168823e-02,-8.833520114421844482e-02,-2.050672173500061035e-01,-1.840484142303466797e-02,-2.395216375589370728e-02,6.224161013960838318e-02,-4.538246244192123413e-02,-3.741387650370597839e-02,8.213573694229125977e-02,-1.010088901966810226e-02,-6.878161430358886719e-02,1.529743801802396774e-02,3.641754388809204102e-02,9.797596139833331108e-04,1.485301256179809570e-01,1.359454542398452759e-02,9.039388597011566162e-02,9.421499073505401611e-02,-7.345295697450637817e-02,-1.112000942230224609e-01,-1.143276989459991455e-01,8.571774698793888092e-03,-9.466475248336791992e-02,1.238120626658201218e-02,1.146290674805641174e-01,4.198275506496429443e-02,3.315534070134162903e-02,-8.125947415828704834e-02,9.249791502952575684e-02,1.519362032413482666e-01,-9.603121876716613770e-02,1.091858521103858948e-01,9.699580818414688110e-02,2.082569301128387451e-01,-1.927156299352645874e-01,-3.266410157084465027e-02,-1.201129779219627380e-01,-1.370027288794517517e-02,-7.984662055969238281e-02,-1.903747394680976868e-02,-4.257845692336559296e-03
1.920081116259098053e-02,-1.274875998497009277e-01,9.496237337589263916e-02,1.087079271674156189e-01,2.220435142517089844e-01,-9.924893081188201904e-02,-3.006174229085445404e-02,2.751282453536987305e-01,1.144877076148986816e-01,8.085430413484573364e-02,-3.464716300368309021e-02,-1.460320055484771729e-01,5.596131086349487305e-02,1.200098618865013123e-01,1.119891032576560974e-01,8.930275589227676392e-02,1.136958878487348557e-02,-1.243909820914268494e-01,-2.713290788233280182e-02,-2.460570335388183594e-01,4.307379946112632751e-03,5.225882306694984436e-02,-7.752709835767745972e-02,1.233492791652679443e-01,7.642352581024169922e-02,-1.762562841176986694e-01,1.890427246689796448e-02,1.682727485895156860e-01,1.408584862947463989e-01,-2.635594643652439117e-02,-7.665631175041198730e-02,1.290083825588226318e-01,-7.690548896789550781e-02,-3.423692658543586731e-02,-5.567388981580734253e-02,-1.542537007480859756e-03,6.800639629364013672e-02,5.666933581233024597e-02,9.540204890072345734e-03,-1.113266572356224060e-01,-6.071641668677330017e-02,-1.157288905233144760e-02,3.367127850651741028e-02,8.672294765710830688e-02,-5.517040938138961792e-02,-1.001244932413101196e-01,5.449645593762397766e-02,1.898324787616729736e-01,-1.127437353134155273e-01,-1.156357005238533020e-01,-2.191489562392234802e-02,-1.722859218716621399e-02,-1.330550163984298706e-01,5.287836864590644836e-02,1.153993234038352966e-01,1.227216348052024841e-01,1.834763139486312866e-01,-1.335616260766983032e-01,2.122116535902023315e-01,6.473405659198760986e-02,-1.320933848619461060e-01,-1.718729585409164429e-01,-1.360287144780158997e-02,2.543689869344234467e-02
5.244515463709831238e-02,-3.576394915580749512e-02,-2.144041657447814941e-02,1.654522716999053955e-01,6.327460706233978271e-02,-3.113576583564281464e-02,-4.409769922494888306e-02,1.215573698282241821e-01,-7.727824151515960693e-02,1.704380032606422901e-03,-1.024633795022964478e-01,-6.858503818511962891e-02,9.806007146835327148e-03,-1.548366695642471313e-01,-5.310225114226341248e-02,1.540407072752714157e-02,-1.351967453956604004e-01,-1.684990227222442627e-01,4.907580837607383728e-02,-5.827867612242698669e-02,1.883199363946914673e-01,-1.228187680244445801e-01,-3.895176574587821960e-02,1.163522973656654358e-01,4.174254834651947021e-03,-2.581134140491485596e-01,1.226325184106826782e-01,2.333837933838367462e-02,3.665030002593994141e-02,9.726800955832004547e-03,-9.819721803069114685e-03,1.097833886742591858e-01,-2.285230671986937523e-03,2.572017908096313477e-02,-1.662314236164093018e-01,-1.247816979885101318e-01,7.021839171648025513e-02,1.940103061497211456e-02,1.230453848838806152e-01,1.372789293527603149e-01,1.289975941181182861e-01,-1.113300397992134094e-01,1.147424429655075073e-02,-6.203473359346389771e-02,-2.839966118335723877e-02,2.212255001068115234e-01,-3.862548246979713440e-02,1.758527755737304688e-01,5.014371499419212341e-02,1.279604136943817139e-01,1.617221832275390625e-01,-4.903671890497207642e-02,-2.568082138895988464e-02,-1.583736538887023926e-01,1.709456741809844971e-01,-3.501319512724876404e-02,9.101922065019607544e-02,6.673808395862579346e-02,2.034614384174346924e-01,4.194083437323570251e-02,5.294273793697357178e-02,-6.436034571379423141e-03,8.372440934181213379e-02,-1.567074283957481384e-02
1.025834586471319199e-02,-2.475698292255401611e-02,-2.365291118621826172e-01,2.845499478280544281e-02,2.376163899898529053e-01,-8.514560014009475708e-02,2.269291691482067108e-02,2.908180058002471924e-01,1.091412976384162903e-01,1.397585030645132065e-02,-2.127798087894916534e-02,-2.023444324731826782e-01,1.987912952899932861e-01,6.288462877273559570e-02,5.768313538283109665e-03,8.951285481452941895e-02,-8.720196783542633057e-02,1.253900676965713501e-01,-4.010049998760223389e-02,-1.441488116979598999e-01,2.454793304204940796e-01,-2.506529353559017181e-02,-1.457430422306060791e-01,2.226052433252334595e-02,-3.598472848534584045e-02,-1.831491477787494659e-02,-1.821020841598510742e-01,5.303928628563880920e-02,7.157419342547655106e-03,-3.749301657080650330e-02,-1.226511821150779724e-01,-3.262621164321899414e-02,3.152295947074890137e-02,-7.332446426153182983e-02,-1.747201383113861084e-01,-1.074243187904357910e-01,1.221889257431030273e-01,3.028453793376684189e-03,-1.980816572904586792e-02,2.786829695105552673e-02,9.050771594047546387e-02,7.415702193975448608e-02,-4.510629177093505859e-02,-4.588201269507408142e-02,3.881541267037391663e-02,3.558526281267404556e-03,1.163842156529426575e-01,4.426878690719604492e-02,4.140920937061309814e-02,1.219033375382423401e-01,-5.039243772625923157e-02,5.873706191778182983e-02,-1.740207672119140625e-01,-1.612640619277954102e-01,-1.078550890088081360e-01,2.397887408733367920e-03,3.072222508490085602e-02,2.041616849601268768e-02,1.636118590831756592e-01,-9.309491515159606934e-02,8.342020213603973389e-02,-1.738065630197525024e-01,2.520430274307727814e-02,-1.971506699919700623e-02
-1.150504453107714653e-03,-1.343583911657333374e-01,-6.800926476716995239e-02,1.174356192350387573e-01,3.002251982688903809e-01,-2.790048420429229736e-01,-1.050288230180740356e-01,-4.586138576269149780e-02,-1.296241879463195801e-01,-1.229401677846908569e-01,-1.530811786651611328e-01,-1.608760654926300049e-01,-7.573429495096206665e-02,-1.827923208475112915e-02,1.154473945498466492e-01,6.741474568843841553e-02,-9.492212533950805664e-02,1.551954168826341629e-02,1.097961291670799255e-01,5.594467371702194214e-02,1.255629658699035645e-01,1.143979653716087341e-01,1.179298534989356995e-01,-1.039506569504737854e-01,3.515119850635528564e-02,6.532230973243713379e-02,-6.979574263095855713e-02,-2.546914219856262207e-01,1.749185621738433838e-01,-3.644852340221405029e-02,-3.120264038443565369e-03,4.548148065805435181e-02,5.140255205333232880e-03,-8.040906488895416260e-02,-1.326043624430894852e-02,1.917532682418823242e-01,4.771675541996955872e-02,-1.305098831653594971e-02,-1.177905723452568054e-01,-7.536116987466812134e-02,6.989917904138565063e-02,6.010360643267631531e-02,-1.004173681139945984e-01,4.645526036620140076e-02,-1.089509651064872742e-01,9.051432460546493530e-02,5.900296196341514587e-02,4.312786832451820374e-02,9.573585540056228638e-02,-9.841137379407882690e-02,-6.358800083398818970e-02,4.934386536478996277e-02,2.695099636912345886e-02,-5.215356871485710144e-02,-6.668403279036283493e-03,9.959594905376434326e-02,6.704342365264892578e-02,-5.616490542888641357e-02,1.280318200588226318e-01,-9.877269715070724487e-02,-1.356576830148696899e-01,-5.083164572715759277e-02,2.590020298957824707e-01,-7.349938899278640747e-02
-6.030673906207084656e-02,7.424498326145112514e-04,2.761957002803683281e-03,1.988642960786819458e-01,-1.474481970071792603e-01,-5.434979684650897980e-03,6.781285256147384644e-02,1.432456821203231812e-01,-8.671469241380691528e-02,1.236398424953222275e-02,1.348993182182312012e-01,8.609062060713768005e-03,1.096570119261741638e-02,1.925909817218780518e-01,-5.532895401120185852e-02,4.989913478493690491e-02,-1.570091396570205688e-01,-3.305406272411346436e-01,9.742794185876846313e-02,1.455175131559371948e-01,3.264442458748817444e-02,1.357499510049819946e-01,2.298547774553298950e-01,6.314353644847869873e-02,-1.774434894323348999e-01,8.547779917716979980e-02,-4.214895516633987427e-02,2.619081437587738037e-01,2.283438574522733688e-03,-1.921296864748001099e-02,2.450418472290039062e-01,-1.286433190107345581e-01,-1.205404624342918396e-01,-2.144360914826393127e-02,9.663104265928268433e-02,-2.406834959983825684e-01,-8.343897759914398193e-03,-8.102878928184509277e-02,7.843560725450515747e-02,-2.276197075843811035e-01,-1.325598731637001038e-02,-2.599452435970306396e-01,1.389788091182708740e-01,1.557790189981460571e-01,-1.666388660669326782e-01,7.724644243717193604e-02,-3.934964537620544434e-02,2.377450764179229736e-01,8.758016861975193024e-03,-1.893082708120346069e-01,-3.572474420070648193e-02,-8.384992927312850952e-02,-3.878177329897880554e-02,1.400347352027893066e-01,3.603848516941070557e-01,1.627026051282882690e-01,3.875712305307388306e-02,-1.115966662764549255e-01,4.308710992336273193e-02,2.892795801162719727e-01,-2.862614765763282776e-02,-9.619885683059692383e-02,-9.023648500442504883e-02,-7.583411037921905518e-02
1.342542320489883423e-01,-1.779034286737442017e-01,-5.564886145293712616e-03,4.055615887045860291e-02,8.701152168214321136e-03,-1.129325944930315018e-02,-4.564728215336799622e-02,2.419670484960079193e-02,6.661847978830337524e-02,-3.713383525609970093e-02,2.442445605993270874e-02,-5.147679150104522705e-02,-4.265295714139938354e-02,-9.768992662429809570e-02,-9.106094390153884888e-02,-1.103715505450963974e-02,6.586719304323196411e-03,-1.705917902290821075e-02,8.992022275924682617e-02,5.603780597448348999e-02,7.271246612071990967e-02,2.906975895166397095e-02,1.666152030229568481e-01,6.444332748651504517e-02,-1.150452420115470886e-01,-5.918455775827169418e-03,-1.939458539709448814e-03,-4.956623911857604980e-02,5.212245136499404907e-02,1.260410100221633911e-01,-5.389560759067535400e-02,-9.290961176156997681e-02,-6.961154937744140625e-02,7.090473175048828125e-02,5.295120179653167725e-02,9.375064074993133545e-02,3.842629119753837585e-02,7.232831325381994247e-03,-1.405427604913711548e-01,-1.759250015020370483e-01,1.453576683998107910e-01,-8.778411149978637695e-02,-8.094301819801330566e-02,7.466551661491394043e-02,-7.278147339820861816e-02,4.153527691960334778e-02,-4.644483327865600586e-02,9.549294412136077881e-02,9.877594560384750366e-02,-1.937431842088699341e-01,-5.743100494146347046e-02,3.941867034882307053e-03,-4.109565913677215576e-02,1.367028243839740753e-02,-1.022398471832275391e-01,8.672824501991271973e-02,3.369084000587463379e-02,-6.230254098773002625e-02,1.349310874938964844e-01,-1.359167844057083130e-01,8.708198554813861847e-03,-2.768926322460174561e-03,3.629029914736747742e-02,9.735748171806335449e-02
-1.760392636060714722e-01,-6.676076352596282959e-02,1.050218790769577026e-01,9.685267508029937744e-02,8.543094992637634277e-02,-5.287078022956848145e-02,7.856820523738861084e-02,2.095389068126678467e-01,1.342025846242904663e-01,-6.833282113075256348e-02,-6.884672492742538452e-02,3.654662519693374634e-02,1.362518966197967529e-01,1.437617391347885132e-01,-5.676537007093429565e-02,8.524237573146820068e-02,-1.157631054520606995e-01,4.817975312471389771e-02,-5.134266614913940430e-02,-1.207388378679752350e-02,-1.408420801162719727e-01,-1.245093271136283875e-01,1.035141758620738983e-02,-1.145582348108291626e-01,-2.113573020324110985e-03,-3.513377159833908081e-02,-8.683169633150100708e-02,-2.283534780144691467e-02,1.348208189010620117e-01,-1.452029030770063400e-02,2.401516027748584747e-02,-8.597745746374130249e-02,3.155728429555892944e-02,-1.377740502357482910e-01,-1.828080415725708008e-01,2.111690193414688110e-01,7.198315858840942383e-02,9.100738167762756348e-02,1.115426275646314025e-04,-3.522995859384536743e-02,-6.245475634932518005e-02,-2.238958328962326050e-02,-1.126672178506851196e-01,-2.243543602526187897e-02,-3.251397311687469482e-01,-3.521665185689926147e-02,2.081258445978164673e-01,-2.258894145488739014e-01,1.080143600702285767e-01,9.388168156147003174e-02,-3.045271933078765869e-01,1.528004854917526245e-01,1.184827610850334167e-01,-1.253347545862197876e-01,-1.484798491001129150e-01,7.723327726125717163e-02,9.143047034740447998e-02,2.135887928307056427e-02,-1.013921573758125305e-01,-2.450669184327125549e-02,1.386898159980773926e-01,-4.544439911842346191e-01,1.876722276210784912e-02,-1.195985227823257446e-01
-1.014611404389142990e-02,-1.575182527303695679e-01,-8.581025898456573486e-02,-3.265488520264625549e-02,2.070875763893127441e-01,-2.232966572046279907e-01,5.120946443639695644e-04,2.244135886430740356e-01,2.019546180963516235e-01,-2.367677167057991028e-02,-1.592504233121871948e-01,-1.652478426694869995e-01,1.632990092039108276e-01,7.539950311183929443e-02,8.924612402915954590e-02,1.015651151537895203e-01,-2.786435484886169434e-01,1.201935335993766785e-01,1.150379478931427002e-01,-2.971545755863189697e-01,-6.053701788187026978e-02,1.559874862432479858e-01,-1.321713179349899292e-01,1.307992786169052124e-01,1.262364685535430908e-01,6.941355019807815552e-02,-4.085753113031387329e-02,3.622018173336982727e-02,-7.237088680267333984e-02,-2.081704586744308472e-01,-3.125941753387451172e-02,-4.930503666400909424e-02,-7.269649766385555267e-03,-6.210022047162055969e-02,-1.698842346668243408e-01,-8.559254556894302368e-02,2.276531308889389038e-01,-9.454549849033355713e-02,-9.940274804830551147e-02,2.859386429190635681e-02,4.967207089066505432e-02,3.199662864208221436e-01,-2.923816815018653870e-02,-2.147315070033073425e-02,1.074496582150459290e-01,2.746251411736011505e-02,8.588752709329128265e-03,-1.251316070556640625e-01,-1.174462027847766876e-02,8.962218463420867920e-02,-1.317301988601684570e-01,9.369152039289474487e-02,-2.772500216960906982e-01,-5.010031908750534058e-02,-6.970589607954025269e-02,-5.051074177026748657e-02,2.129895091056823730e-01,4.329928755760192871e-02,2.345411777496337891e-01,1.219500377774238586e-01,-5.736804101616144180e-03,-3.431789204478263855e-02,5.766585841774940491e-02,-9.596098214387893677e-02
-1.171085387468338013e-01,4.446052014827728271e-03,7.952119223773479462e-03,1.011108160018920898e-01,-8.349034190177917480e-02,2.907181978225708008e-01,1.189367696642875671e-01,-7.533483952283859253e-02,-3.356734290719032288e-02,7.589765638113021851e-02,1.778162270784378052e-01,1.420301496982574463e-01,-5.074733868241310120e-02,3.369729593396186829e-02,-2.103946357965469360e-02,-6.055380776524543762e-02,2.041169106960296631e-01,-2.384327799081802368e-01,1.424875706434249878e-01,1.718707531690597534e-01,1.338077150285243988e-02,1.375340372323989868e-01,3.374830633401870728e-02,-3.129334421828389168e-03,-7.420334964990615845e-02,2.561845212767366320e-05,2.003656700253486633e-02,1.111686602234840393e-01,-2.606196701526641846e-02,-1.404204070568084717e-01,1.962696611881256104e-01,-3.233317136764526367e-01,-2.877082861959934235e-02,-6.286318600177764893e-02,1.591561734676361084e-01,-7.260700315237045288e-02,-1.699475049972534180e-01,-1.629270017147064209e-01,5.868320912122726440e-02,-4.702508822083473206e-02,-1.534829568117856979e-02,4.868390504270792007e-03,1.138581857085227966e-01,3.944419696927070618e-02,-7.079972326755523682e-02,-2.277048975229263306e-01,-3.158622607588768005e-02,1.969911903142929077e-01,-3.574946895241737366e-02,-6.515102088451385498e-02,5.407219380140304565e-02,-1.398369818925857544e-01,-1.688532531261444092e-01,3.841751813888549805e-01,1.873815953731536865e-01,1.732253432273864746e-01,-2.155523002147674561e-02,-7.326537370681762695e-02,5.980326235294342041e-02,1.461253166198730469e-01,-1.210936233401298523e-01,7.086855173110961914e-02,-8.178298920392990112e-02,6.720051169395446777e-02
