9.615870565176010132e-02
1.856020539999008179e-01
2.711848914623260498e-02
-3.338798582553863525e-01
8.126318454742431641e-02
-3.285743892192840576e-01
-3.317729337140917778e-03
-8.742639422416687012e-02
2.732188999652862549e-01
1.811353911307378439e-08
-6.305867433547973633e-02
-1.229926124215126038e-01
-6.557124176964634898e-09
-9.539198764230150118e-09
-2.324241548776626587e-01
1.280120462179183960e-01
-1.587396525337680941e-08
9.266440059718661360e-09
3.549279645085334778e-02
-2.033484727144241333e-02
-5.932807549834251404e-02
-6.944754160940647125e-03
-2.339671179652214050e-02
-1.185380592942237854e-01
-5.638545751571655273e-02
5.114923790097236633e-02
-2.875051498413085938e-01
1.577545255422592163e-01
-7.605274766683578491e-02
1.605821996927261353e-01
3.466196730732917786e-02
2.477885335683822632e-01
8.380074799060821533e-02
-2.405144721269607544e-01
-1.557044535875320435e-01
-1.409173384308815002e-02
-3.275234401226043701e-01
-2.100807279348373413e-01
-6.227535820357843477e-09
2.450753701850771904e-03
2.647945191711187363e-03
-6.996703892946243286e-02
1.318175345659255981e-01
-1.129406243562698364e-01
1.724436432123184204e-01
-9.277416765689849854e-02
5.699054598808288574e-01
2.754815854132175446e-02
-5.074432492256164551e-01
-5.017663165926933289e-02
-1.305083036422729492e-01
-1.057039499282836914e-01
-2.236339151859283447e-01
-2.332818061113357544e-01
-5.155775696039199829e-02
-2.500122785568237305e-01
-2.892768383026123047e-01
-4.327310421103902627e-08
-1.299689561128616333e-01
7.433979511260986328e-01
-8.944137394428253174e-02
3.261928856372833252e-01
1.307899951934814453e-01
-1.305387318134307861e-01
2.514012455940246582e-01
1.673855930566787720e-01
-1.831640154123306274e-01
-1.222413182258605957e-01
-2.240365445613861084e-01
-1.428032070398330688e-01
-3.728757202625274658e-01
3.046492487192153931e-02
3.460040688514709473e-01
2.503459439751054560e-09
1.088692769408226013e-01
7.323285099118947983e-03
4.029482969514219803e-09
-1.721830233947230226e-09
-9.147410094738006592e-02
9.829508513212203979e-02
5.186741258711435876e-09
1.358875589829722230e-08
-1.470819264650344849e-01
9.234554320573806763e-02
-1.431585252285003662e-01
5.376825854182243347e-02
2.232738770544528961e-03
-1.210175231099128723e-01
-1.920533925294876099e-02
2.230634987354278564e-01
1.936453976668417454e-03
-3.492408245801925659e-02
7.017742376774549484e-03
-1.158655658364295959e-01
-1.865410953760147095e-01
8.870898187160491943e-02
7.062571495771408081e-02
2.379440814256668091e-01
4.331828095018863678e-03
1.842443016357719898e-04
-4.922042191028594971e-01
1.678453409112989902e-03
1.585249123081666767e-07
8.046267181634902954e-02
-9.898667037487030029e-02
2.756755352020263672e-01
1.051805093884468079e-01
9.717346169054508209e-03
-6.444982439279556274e-02
-2.650603353977203369e-01
1.776522845029830933e-01
8.095184713602066040e-02
-1.292831152677536011e-01
-2.311680614948272705e-01
-1.880640722811222076e-02
4.900200664997100830e-02
4.146885499358177185e-02
-5.569942668080329895e-02
-1.081063002347946167e-01
-2.649528719484806061e-02
-1.709274500608444214e-01
5.898414201510604471e-09
-5.009764432907104492e-01
2.426020205020904541e-01
-1.154580712318420410e-01
2.450450807809829712e-01
2.091055065393447876e-01
1.952478289604187012e-01
-1.417367439717054367e-02
3.097030706703662872e-02
5.451702699065208435e-02
4.526650160551071167e-02
-6.479778140783309937e-02
2.508451789617538452e-02
4.978464916348457336e-02
4.469873011112213135e-02
4.979450628161430359e-02
1.390702836215496063e-02
-9.221352636814117432e-03
1.774469912052154541e-01
-5.506383627653121948e-02
-1.513025257736444473e-03
-2.330545485019683838e-01
-5.277464911341667175e-02
1.553782843984663486e-03
4.713320732116699219e-02
-3.173463046550750732e-02
4.078709706664085388e-02
6.018819753080606461e-03
5.078153684735298157e-03
-3.034429065883159637e-02
-4.944885894656181335e-02
6.128989532589912415e-02
3.531250730156898499e-02
-1.078153401613235474e-02
-1.200234368443489075e-01
2.867936342954635620e-02
-4.204883426427841187e-02
-1.139641031622886658e-01
5.374570190906524658e-02
8.665814995765686035e-02
1.302111893892288208e-01
-1.059526875615119934e-01
-2.395867183804512024e-02
-6.509298086166381836e-02
-1.467808382585644722e-03
-7.556015253067016602e-02
-5.083901062607765198e-02
-1.797947473824024200e-02
-7.778728008270263672e-02
6.998892128467559814e-02
-1.681999675929546356e-02
8.078359812498092651e-02
6.597841624170541763e-03
-4.275463055819272995e-03
-2.278934605419635773e-02
-4.011573735624551773e-03
-4.526023566722869873e-02
3.155627287924289703e-03
-1.159045919775962830e-01
-9.026353061199188232e-02
1.811434887349605560e-02
-5.219125747680664062e-02
-3.694312646985054016e-02
7.282347232103347778e-02
-3.950432001147419214e-04
-5.254472047090530396e-02
4.281692206859588623e-02
6.860239058732986450e-02
7.874907553195953369e-02
-2.193471789360046387e-02
1.976148225367069244e-02
3.378640115261077881e-01
1.324128359556198120e-01
-3.066872246563434601e-02
-5.301415920257568359e-01
-1.102808769792318344e-02
-3.702190816402435303e-01
-8.631915599107742310e-02
-1.599774062633514404e-01
4.943471848964691162e-01
8.067737589101398044e-09
-1.928489357233047485e-01
1.672515459358692169e-02
2.375310970137434197e-08
-8.204614765361384343e-09
-1.042039319872856140e-01
-5.640047788619995117e-02
-1.176730268781511768e-08
-2.501165852208941942e-08
8.864481002092361450e-03
-9.532527625560760498e-02
7.780957967042922974e-02
-1.093259230256080627e-01
-1.049586310982704163e-01
-2.994691431522369385e-01
-7.111211866140365601e-02
1.274782866239547729e-01
-3.601629734039306641e-01
-7.997749000787734985e-02
7.900993525981903076e-02
1.389391273260116577e-01
-2.914780192077159882e-02
2.028616070747375488e-01
7.109311968088150024e-02
1.716134138405323029e-02
-2.708316743373870850e-01
-6.899403035640716553e-02
-5.454638004302978516e-01
-4.103534817695617676e-01
-3.337995335459709167e-02
-8.727678656578063965e-02
1.268706843256950378e-02
-7.441182434558868408e-02
9.559897333383560181e-02
-2.766598761081695557e-01
3.409489290788769722e-03
1.291108224540948868e-02
4.167177379131317139e-01
8.298838883638381958e-02
-6.477441191673278809e-01
-2.126199007034301758e-01
-6.138847768306732178e-02
5.444617569446563721e-02
-1.999380588531494141e-01
-1.399678587913513184e-01
-1.191082745790481567e-01
-3.607724606990814209e-01
-3.545370697975158691e-01
2.785682440276104899e-08
-2.480770200490951538e-01
7.565581202507019043e-01
-1.053599566221237183e-01
3.157560229301452637e-01
1.613485366106033325e-01
2.179889008402824402e-02
