2.603231668472290039e-01
1.342825442552566528e-01
2.311572805047035217e-02
-3.872330784797668457e-01
2.009065449237823486e-01
-3.720066845417022705e-01
-5.886146426200866699e-02
-9.841945022344589233e-02
2.846387624740600586e-01
1.041105957000354465e-08
3.452444449067115784e-02
1.725899800658226013e-02
1.198340626729077485e-08
-1.060162002630704592e-08
-9.265841543674468994e-02
1.755632162094116211e-01
1.719052633575302025e-08
-1.394295434664627464e-08
-1.071376055479049683e-01
-9.865003824234008789e-02
6.211536005139350891e-02
-3.686273843050003052e-02
-1.357194483280181885e-01
-2.503186762332916260e-01
-4.580452293157577515e-02
2.606348991394042969e-01
-2.175914347171783447e-01
1.533019095659255981e-01
6.709121167659759521e-02
1.606785953044891357e-01
-4.950665310025215149e-02
1.616287529468536377e-01
1.247598528861999512e-01
-3.049481511116027832e-01
-1.517706513404846191e-01
5.555828684009611607e-04
-2.776386737823486328e-01
-2.317800670862197876e-01
-1.495921964078661404e-08
1.528705507516860962e-01
1.774579100310802460e-02
-1.016100719571113586e-01
1.655065566301345825e-01
-1.269263327121734619e-01
8.249226212501525879e-02
-2.792669273912906647e-02
4.157094061374664307e-01
1.433232147246599197e-02
-5.834951400756835938e-01
-8.992718905210494995e-02
-7.022973150014877319e-02
-9.370560874231159687e-04
-1.147238984704017639e-01
-3.782627582550048828e-01
-1.364817172288894653e-01
-2.400376498699188232e-01
-3.034732341766357422e-01
2.200915183436791267e-08
-1.086302623152732849e-01
7.033554911613464355e-01
6.889448966830968857e-03
2.077957391738891602e-01
1.656352132558822632e-01
-1.818893663585186005e-02
1.075896248221397400e-01
1.538730114698410034e-01
-1.958918869495391846e-01
-1.269898265600204468e-01
-1.084187701344490051e-01
-1.675897389650344849e-01
-3.528357744216918945e-01
-1.299444288015365601e-01
4.372145533561706543e-01
-1.263230320347474844e-08
1.263837218284606934e-01
-2.914475277066230774e-03
1.484076417312962803e-08
-4.438541978402099630e-09
-1.126268580555915833e-01
2.006857693195343018e-01
-2.301005430638269900e-08
1.754155398714374314e-08
-2.624727552756667137e-03
9.862910211086273193e-02
-1.091763898730278015e-01
1.385516859591007233e-02
-4.134854301810264587e-02
-1.080819889903068542e-01
7.356908172369003296e-02
3.126245737075805664e-01
5.279711447656154633e-03
-2.353212051093578339e-02
1.676508784294128418e-01
-1.074679270386695862e-01
-1.725003570318222046e-01
5.644394829869270325e-02
4.589132592082023621e-02
2.792156338691711426e-01
3.228699322789907455e-03
1.045506069203838706e-04
-4.996910989284515381e-01
2.154370537027716637e-03
1.237920628227584530e-07
-4.851193726062774658e-02
-7.871802896261215210e-02
1.170173734426498413e-01
2.963476814329624176e-02
1.942983083426952362e-02
2.079705707728862762e-02
-3.284215331077575684e-01
9.757463634014129639e-02
-2.561260946094989777e-02
-1.343796700239181519e-01
-2.371625602245330811e-01
-1.056912839412689209e-01
-5.603335425257682800e-02
3.575111925601959229e-02
-1.210973262786865234e-01
-7.539866864681243896e-02
-1.286061666905879974e-02
-2.613612711429595947e-01
1.661796211749333452e-08
-4.823914170265197754e-01
2.202539891004562378e-01
-8.645138144493103027e-02
3.695240318775177002e-01
9.412437677383422852e-02
1.612402796745300293e-01
3.056231699883937836e-02
-7.267625071108341217e-03
-5.198803916573524475e-02
-4.772304370999336243e-02
6.509737670421600342e-02
-7.153017073869705200e-02
-1.625240780413150787e-03
-2.832639403641223907e-02
-5.395801737904548645e-02
-1.422004215419292450e-02
5.839458201080560684e-03
1.722146719694137573e-01
5.467176809906959534e-02
1.380009693093597889e-03
-1.449809968471527100e-01
1.535191759467124939e-02
-1.285364618524909019e-03
-4.714136570692062378e-02
4.174911230802536011e-02
-3.012109920382499695e-02
-1.031916309148073196e-02
-7.666697725653648376e-03
2.673762105405330658e-02
-5.971300997771322727e-04
-7.859785854816436768e-02
-6.125300750136375427e-02
1.004230324178934097e-02
9.126602113246917725e-02
-1.882348395884037018e-02
4.524586722254753113e-02
1.150137484073638916e-01
-4.796025156974792480e-02
-8.872688561677932739e-02
-9.068425744771957397e-02
1.062270253896713257e-01
2.547845616936683655e-02
4.498590156435966492e-02
1.931373262777924538e-03
7.437311857938766479e-02
5.260986462235450745e-02
1.905340515077114105e-02
1.246714591979980469e-02
-6.868059933185577393e-02
2.496480569243431091e-02
-8.370982110500335693e-02
5.328176543116569519e-03
5.917468108236789703e-03
2.181330136954784393e-02
-6.470179557800292969e-02
5.350342765450477600e-02
2.361026359722018242e-03
1.079397350549697876e-01
1.120382174849510193e-01
7.318033836781978607e-03
-2.256283164024353027e-02
3.787595406174659729e-02
-7.394567877054214478e-02
4.701550933532416821e-04
6.472315639257431030e-02
-3.828633204102516174e-02
-6.113172322511672974e-02
-5.246247351169586182e-02
3.409450873732566833e-02
-4.190171882510185242e-02
3.820843398571014404e-01
1.848418563604354858e-01
-3.753524273633956909e-02
-6.133095026016235352e-01
-3.001467848662286997e-04
-3.311941921710968018e-01
-2.021500915288925171e-01
-1.023193895816802979e-01
4.569545388221740723e-01
1.023455808990547666e-08
-1.090886071324348450e-01
1.812940463423728943e-02
-1.472226607290849643e-08
1.245403424832147721e-08
-1.527942866086959839e-01
8.400290459394454956e-02
4.512267892664567626e-09
1.700432861184708599e-08
-1.743797957897186279e-01
-8.492867648601531982e-02
-3.901400789618492126e-02
-8.467517048120498657e-02
-5.851497128605842590e-02
-2.490162253379821777e-01
-1.209099888801574707e-01
2.198739051818847656e-01
-3.249149918556213379e-01
-1.025307402014732361e-01
5.653304047882556915e-03
1.625366955995559692e-01
-2.418052405118942261e-02
1.716726124286651611e-01
9.362681955099105835e-02
-7.718653231859207153e-02
-2.695889174938201904e-01
-1.037207320332527161e-01
-4.778783023357391357e-01
-3.885381221771240234e-01
-3.167582303285598755e-02
1.087432876229286194e-01
-5.937211215496063232e-02
-9.060552716255187988e-02
7.841882854700088501e-02
-1.452137231826782227e-01
1.092527583241462708e-01
-1.111502870917320251e-01
5.606552362442016602e-01
7.152946293354034424e-02
-6.290017366409301758e-01
-1.954103708267211914e-01
-1.595095545053482056e-01
1.630535908043384552e-02
-2.931790649890899658e-01
-2.425780296325683594e-01
-6.635805964469909668e-02
-2.886618971824645996e-01
-4.375057816505432129e-01
8.693152864225339727e-09
-3.566826879978179932e-01
7.575114369392395020e-01
-1.612822413444519043e-01
2.426943928003311157e-01
4.903104528784751892e-02
-2.496196143329143524e-02
