-2.540516257286071777e-01
-8.590194582939147949e-02
-2.454174100421369076e-04
-2.183574289083480835e-01
-9.118440747261047363e-02
-3.861010968685150146e-01
1.820858381688594818e-02
-5.153209567070007324e-01
-4.749166667461395264e-01
1.534980675899078051e-08
-8.955859541893005371e-01
1.593690365552902222e-01
1.965280027604876523e-08
-8.106312066047394183e-09
2.169816493988037109e-01
-8.272714167833328247e-02
-1.314719468355178833e-01
-8.376669136112013803e-09
-7.174013853073120117e-01
-2.709972858428955078e-01
-2.772033512592315674e-01
-7.505832910537719727e-01
-8.756840825080871582e-01
5.916398018598556519e-02
-1.110202550888061523e+00
-1.234259381890296936e-01
-1.188839003443717957e-01
1.102810800075531006e-01
-5.287951827049255371e-01
-2.373982667922973633e-01
-5.371678471565246582e-01
-4.865072071552276611e-01
-9.927907586097717285e-01
2.956768870353698730e-01
-8.337151259183883667e-02
-3.339961418546977256e-09
-2.121579498052597046e-01
-1.628459841012954712e-01
-9.497985988855361938e-02
-1.687985509634017944e-01
-8.535962700843811035e-01
-2.922163605690002441e-01
-3.863281905651092529e-01
7.849132269620895386e-02
-7.689237594604492188e-01
-5.516129136085510254e-01
-6.106987595558166504e-01
-5.319092869758605957e-01
2.691597037483006716e-04
-1.044121161103248596e-01
-6.421101689338684082e-01
-3.698123097419738770e-01
-2.070377022027969360e-01
-4.596526920795440674e-01
-1.437086313962936401e-01
-2.581324875354766846e-01
-2.004929631948471069e-01
-1.150499606694665999e-08
-3.814366180449724197e-03
-2.996971607208251953e-01
-5.057278871536254883e-01
-8.946439623832702637e-02
-7.629122734069824219e-01
-7.799366116523742676e-01
-2.617930173873901367e-01
-2.030776292085647583e-01
-6.360919028520584106e-02
-1.352265030145645142e-01
-2.220711670815944672e-02
-2.192258089780807495e-01
8.532124012708663940e-02
-1.240627318620681763e-01
-2.866791188716888428e-01
-7.479045827096797439e-09
-9.637948870658874512e-02
2.423535734415054321e-01
8.683860741598437016e-09
-2.032418144892744749e-08
2.935206294059753418e-01
-8.651821315288543701e-02
-4.575692713615353568e-08
1.960599016470609968e-09
-1.215747073292732239e-01
-2.663866579532623291e-01
-2.151925861835479736e-01
-1.165472045540809631e-01
-5.446733161807060242e-02
1.817526668310165405e-01
-8.280447870492935181e-02
-5.579830333590507507e-02
9.335858308645583747e-09
5.581272244453430176e-01
-4.071999192237854004e-01
-8.310437202453613281e-02
-2.759267576038837433e-02
-2.441900074481964111e-01
-4.477045834064483643e-01
3.139144778251647949e-01
-3.393838554620742798e-02
6.262737883844238240e-09
-9.510253369808197021e-02
-1.494235992431640625e-01
9.643642988521605730e-05
-1.653207093477249146e-01
-7.235249131917953491e-02
-3.036749958992004395e-01
-1.758120059967041016e-01
-7.126237452030181885e-02
-2.732350826263427734e-01
-1.397309005260467529e-01
-6.712206006050109863e-01
-4.099436104297637939e-01
-3.928251564502716064e-02
-2.935233525931835175e-02
-3.640434145927429199e-01
-2.105775028467178345e-01
-2.342647165060043335e-01
-3.131290376186370850e-01
-1.024492010474205017e-01
3.605053052524453960e-06
-2.242704331874847412e-01
-3.406067961009284772e-08
1.186452358961105347e-01
-1.816188544034957886e-01
-1.949801146984100342e-01
-9.780915826559066772e-02
-2.056856006383895874e-01
-1.809597760438919067e-01
1.656805723905563354e-01
1.333930194377899170e-01
1.769694127142429352e-02
-4.724317789077758789e-02
1.123660877346992493e-01
-2.265988290309906006e-02
1.397671103477478027e-01
-2.181588113307952881e-02
8.431249856948852539e-02
-4.861291125416755676e-02
-4.837350454181432724e-03
7.409732043743133545e-02
1.053833309561014175e-02
7.578023360110819340e-04
-9.025626629590988159e-02
-1.119528990238904953e-02
-4.406599700450897217e-02
2.077526005450636148e-04
-3.548736870288848877e-02
6.813150644302368164e-02
-1.321273744106292725e-01
-8.549143373966217041e-02
-5.716932564973831177e-02
-1.154812425374984741e-01
-3.739954158663749695e-02
5.361915007233619690e-02
6.354291923344135284e-03
7.316542416810989380e-02
5.982571840286254883e-02
-8.106087148189544678e-02
9.019360691308975220e-02
1.121361926198005676e-01
-5.516423285007476807e-02
-3.753490373492240906e-02
-1.506628096103668213e-01
-2.631242386996746063e-02
-9.969424456357955933e-02
7.747761905193328857e-02
-4.964815452694892883e-02
-8.607103675603866577e-02
5.222522839903831482e-02
-1.262177377939224243e-01
-1.675811596214771271e-02
1.892771273851394653e-01
1.231945212930440903e-02
8.276309072971343994e-02
1.908499933779239655e-02
-1.194595545530319214e-01
-3.140164911746978760e-02
8.928461372852325439e-02
-1.321647763252258301e-01
1.956102810800075531e-02
-1.058879867196083069e-01
-1.971617899835109711e-02
-6.712400168180465698e-02
3.372380509972572327e-02
1.648038327693939209e-01
-1.866451092064380646e-02
8.610551804304122925e-02
-1.279909759759902954e-01
2.189962007105350494e-02
-7.840321213006973267e-02
-1.296485066413879395e-01
-1.069006249308586121e-01
-2.515182495117187500e-01
-5.389672890305519104e-02
4.982420429587364197e-02
-1.619349122047424316e-01
-1.773386001586914062e-01
-1.938030868768692017e-01
-5.969833955168724060e-02
-2.767390906810760498e-01
-4.145973622798919678e-01
-7.347212616082288150e-09
-3.156739580845169257e-08
6.154056638479232788e-02
1.181894049295806326e-08
-5.539370295792878096e-09
-1.710926890373229980e-01
-2.054066956043243408e-01
-7.149056345224380493e-02
-1.356279977215990584e-08
-1.375752687454223633e-01
-1.919970065355300903e-01
-5.129320621490478516e-01
1.285908410864067264e-07
5.953585713314168970e-08
7.731925696134567261e-02
-7.357131437402131269e-08
-2.735413312911987305e-01
2.919714248150739877e-08
7.733855396509170532e-02
-4.070644378662109375e-01
5.324215817381627858e-05
1.449330877534293904e-09
-4.702675640583038330e-01
2.453233173582702875e-04
2.389109693467617035e-02
-9.299765527248382568e-02
2.676516608346446446e-08
-1.825277507305145264e-01
-6.220684945583343506e-02
2.263202622998505831e-05
-2.797095477581024170e-01
-3.231470913078737794e-08
-2.019277960062026978e-01
-2.924891710281372070e-01
4.382237046957015991e-02
-2.518905512988567352e-02
-1.270298808813095093e-01
-4.265761375427246094e-01
-3.681153059005737305e-01
1.153323985636234283e-02
7.905457168817520142e-04
-3.154958903905935585e-05
-3.571501374244689941e-01
-3.749777078628540039e-01
-4.291370511054992676e-01
-5.235895514488220215e-01
2.781772082016686909e-06
-2.310891896486282349e-01
5.538175473773776503e-10
7.026913762092590332e-02
-1.705995947122573853e-01
-3.178343772888183594e-01
-4.945852160453796387e-01
4.566174538922496140e-05
-2.779784798622131348e-01
