-7.977669686079025269e-02
2.095230156555771828e-03
-3.270105719566345215e-01
1.106032803654670715e-01
-1.431901752948760986e-01
-2.084921896457672119e-01
-2.014255429116929008e-08
-5.080654025077819824e-01
-3.690069615840911865e-01
-1.489080395549535751e-02
3.561921045184135437e-02
-2.988913841545581818e-02
7.451126293744891882e-06
3.078480809926986694e-02
-3.876940310001373291e-01
-2.094668971608371066e-08
-5.054474249482154846e-02
-7.333131972700357437e-03
-1.507569402456283569e-01
-7.154767001082973366e-09
6.929041817784309387e-03
-2.388936877250671387e-01
-1.583967730402946472e-02
4.553824290633201599e-02
-1.992922723293304443e-01
-8.789719431661069393e-04
-2.610065937042236328e-01
3.689438104629516602e-02
-1.981189548969268799e-01
-4.585646688938140869e-01
5.350492756406310946e-06
4.600747488439083099e-03
-4.613891541957855225e-01
-2.721852958202362061e-01
4.830378657061373815e-07
-9.818384051322937012e-02
-1.039655879139900208e-01
-2.848782241344451904e-01
1.386801246553659439e-03
5.594661831855773926e-02
2.525458671152591705e-02
1.377804164803819731e-05
-4.968777894973754883e-01
-3.981420099735260010e-01
2.879829844459891319e-04
-5.386785864830017090e-01
-1.819311976432800293e-01
6.739299744367599487e-03
-2.609704097267240286e-08
9.764612652361392975e-03
1.360464718658249694e-08
2.162865442301153962e-08
-2.528754062950611115e-02
4.724207893013954163e-02
2.471575953677529469e-06
3.618296002969145775e-03
-4.958100419116817648e-08
3.928609192371368408e-03
1.910783001221716404e-03
6.302199512720108032e-02
6.744734128005802631e-04
1.171647454611957073e-04
1.374601423740386963e-01
-1.189584786231989710e-08
-7.098993659019470215e-02
6.251124432310461998e-04
-2.230590432882308960e-01
9.671016037464141846e-02
-5.965907871723175049e-02
-1.784866303205490112e-01
-1.277325978321641742e-08
-2.736955881118774414e-01
-2.384083122014999390e-01
4.627909584087319672e-05
8.393300324678421021e-02
8.120895945467054844e-04
1.103285467252135277e-05
3.903900459408760071e-02
-1.584532409906387329e-01
-2.819751721006014122e-08
-6.299405544996261597e-02
-3.277606144547462463e-02
-9.938363730907440186e-02
-3.861147845896084618e-08
-9.792597964406013489e-03
-8.885797858238220215e-02
6.031490862369537354e-03
4.921253398060798645e-02
-2.461404204368591309e-01
4.651944618672132492e-04
-2.439963072538375854e-01
3.891161829233169556e-02
-1.465490367263555527e-02
-2.986532449722290039e-01
1.682627953414339572e-05
2.452152408659458160e-02
-1.850635707378387451e-01
-2.427583783864974976e-01
7.751180532977741677e-07
1.755013596266508102e-03
-1.262337118387222290e-01
-1.992718279361724854e-01
2.874230849556624889e-04
4.115335047245025635e-01
7.103026658296585083e-02
1.446410024072974920e-04
-3.163926303386688232e-01
-2.318487614393234253e-01
3.481513413134962320e-04
-1.542295962572097778e-01
-5.594984441995620728e-02
5.817219149321317673e-03
-3.807305581915443327e-09
4.196535795927047729e-02
2.112101782358877244e-08
4.236895834175413711e-10
2.094251249218359590e-04
5.817906185984611511e-02
9.508436960459221154e-06
4.965898115187883377e-04
-3.340498544446290907e-09
8.584623225033283234e-03
4.285161558073014021e-04
1.253843158483505249e-01
2.442132681608200073e-03
1.736092090141028166e-04
7.199566066265106201e-02
-7.803826918006961932e-09
9.178007394075393677e-02
-2.327664569020271301e-02
-2.622506953775882721e-02
-1.147976294159889221e-01
-4.469397291541099548e-02
-5.198035389184951782e-02
-1.701012370176613331e-03
-7.987084239721298218e-02
4.394969344139099121e-02
4.152833018451929092e-03
4.300777614116668701e-02
-3.222253546118736267e-02
-1.312541496008634567e-02
1.787348836660385132e-02
6.012875586748123169e-03
5.497469753026962280e-02
-1.154376417398452759e-01
-8.720848709344863892e-02
-5.129243060946464539e-02
-8.009363955352455378e-05
5.877349525690078735e-02
5.375904589891433716e-02
1.720040105283260345e-02
1.011354252696037292e-01
-4.298364371061325073e-02
2.100394479930400848e-02
3.728892281651496887e-02
6.190842017531394958e-02
-4.147879313677549362e-03
1.051527168601751328e-02
-1.282880734652280807e-02
6.829824298620223999e-02
-1.102238520979881287e-02
1.726135984063148499e-02
1.406960189342498779e-02
1.912003383040428162e-02
-2.602358162403106689e-02
6.453406997025012970e-03
-1.426994055509567261e-02
-1.247645840048789978e-01
6.029116734862327576e-02
-1.453612651675939560e-02
-1.136001497507095337e-01
5.603023804724216461e-03
2.781571121886372566e-03
1.018551550805568695e-02
-2.168194390833377838e-02
1.242126822471618652e-01
2.423037542030215263e-03
-4.312780871987342834e-02
-2.845946000888943672e-03
-1.771245194959192304e-08
6.634517107158899307e-03
-1.010351032018661499e-01
-1.567741110920906067e-02
2.322011440992355347e-02
-5.025045014917850494e-03
1.192235760390758514e-02
1.637733657844364643e-03
6.113089621067047119e-02
-2.003832161426544189e-02
-1.805010437965393066e-02
-1.680858433246612549e-02
2.293482204152041959e-08
-6.976100057363510132e-02
1.859195326687768102e-04
-2.376196384429931641e-01
-9.229555726051330566e-02
-1.414951980113983154e-01
-2.099697142839431763e-01
8.323511324626053920e-10
-4.364602500572800636e-04
-3.113783597946166992e-01
3.046486926905345172e-05
8.737776428461074829e-02
2.919583057519048452e-04
2.528254981370992027e-06
1.165032014250755310e-02
-4.486381262540817261e-02
1.660191450980619265e-08
-3.221567571163177490e-01
-1.375729292631149292e-01
1.071815728209912777e-03
2.246936858796289016e-08
-7.210160791873931885e-02
-2.293386813789766165e-08
-7.416647672653198242e-02
-1.793345957994461060e-01
6.597720552235841751e-03
6.702078826492652297e-05
-5.825283005833625793e-02
-2.555465102195739746e-01
5.375518981054483447e-07
2.081348188221454620e-02
4.004031950444186805e-08
2.129480987787246704e-02
-1.363312359899282455e-03
-8.148100227117538452e-03
-6.672318875189375831e-08
-2.949786372482776642e-02
-5.781267955899238586e-02
2.334219636395573616e-03
1.250355271622538567e-04
1.143758520483970642e-01
4.713182337582111359e-03
9.724912160891108215e-06
-1.793081462383270264e-01
-1.758998036384582520e-01
2.178758732043206692e-04
1.004180405288934708e-03
-2.609518766403198242e-01
-5.469414964318275452e-02
-3.764884937140777765e-08
-1.772465109825134277e-01
-3.816381877186358906e-08
7.355321240964940444e-09
1.366410055197775364e-03
-2.581256628036499023e-01
-6.151951481569994939e-08
2.203276613727211952e-03
-9.548111634671840875e-09
2.471444010734558105e-02
2.401963138254359365e-04
6.703094393014907837e-02
5.530198104679584503e-04
3.439054489717818797e-05
-8.220752328634262085e-02
4.844908474410658528e-08
