-3.181195631623268127e-02
-7.920853793621063232e-02
-1.637446880340576172e-01
-1.007745638489723206e-01
-2.703105211257934570e-01
-3.285262361168861389e-02
-6.323942542076110840e-02
2.733589708805084229e-02
-1.489418148994445801e-01
6.703674048185348511e-02
-1.353347748517990112e-01
3.089918289333581924e-03
-1.183462291955947876e-01
-1.234284341335296631e-01
6.105672568082809448e-02
-7.626113295555114746e-02
5.101577937602996826e-02
-1.143451780080795288e-01
-1.410214006900787354e-01
1.017939522862434387e-01
-1.624939143657684326e-01
-5.412970110774040222e-02
-2.495616078376770020e-01
4.992741718888282776e-02
5.305514857172966003e-02
5.369768664240837097e-02
7.022547535598278046e-03
4.358949512243270874e-02
-6.682034581899642944e-02
-1.760436296463012695e-01
-1.119794994592666626e-01
-1.063117161393165588e-01
-1.002010330557823181e-01
-4.988259077072143555e-02
-3.472908399999141693e-03
3.726334124803543091e-02
-1.552282124757766724e-01
-3.862419724464416504e-02
-1.178809925913810730e-01
5.114377290010452271e-02
7.838276028633117676e-02
-3.049379289150238037e-01
8.113215118646621704e-02
-1.066485270857810974e-01
-1.743791103363037109e-01
-2.316543646156787872e-02
-1.381866335868835449e-01
-5.797093734145164490e-02
-1.404459327459335327e-01
-1.007210114039480686e-03
-1.638193130493164062e-01
2.735035307705402374e-02
-1.048650518059730530e-01
-1.190792843699455261e-01
1.026054322719573975e-01
7.404069602489471436e-02
-1.660003960132598877e-01
-1.869231462478637695e-01
-2.596592530608177185e-03
-9.041709825396537781e-03
8.781687170267105103e-02
-2.973494231700897217e-01
-1.919112727046012878e-02
-1.319973319768905640e-01
-1.214741766452789307e-01
-7.025810331106185913e-02
-1.475132256746292114e-01
4.140907898545265198e-02
-1.856320798397064209e-01
-1.132853925228118896e-01
5.231075361371040344e-02
-1.308767944574356079e-01
-2.561355829238891602e-01
6.521327793598175049e-02
-4.142654687166213989e-02
-1.030616238713264465e-01
-2.680195868015289307e-01
-1.250814497470855713e-01
-1.549819018691778183e-02
-7.324900478124618530e-03
-2.494450099766254425e-02
-1.319392323493957520e-01
3.563198074698448181e-02
-1.036300137639045715e-02
-1.098213344812393188e-01
-1.313936412334442139e-01
-1.786890327930450439e-01
-3.394983336329460144e-02
-3.705291310325264931e-03
6.425183266401290894e-02
-7.601865381002426147e-02
1.098382752388715744e-02
-2.601961493492126465e-01
2.133059687912464142e-02
-4.990071058273315430e-03
-3.149380907416343689e-02
2.654777094721794128e-02
-1.437971144914627075e-01
7.002300769090652466e-02
-5.959680676460266113e-02
8.473441749811172485e-02
-1.712668240070343018e-01
-2.481965534389019012e-02
-5.269071087241172791e-02
3.981437534093856812e-02
-3.769071698188781738e-01
-2.318077981472015381e-01
-2.031103223562240601e-01
-9.116221219301223755e-03
-1.260781884193420410e-01
-1.678760498762130737e-01
1.273041870445013046e-02
-7.128354161977767944e-02
-1.386254727840423584e-01
-2.142957039177417755e-02
1.565892063081264496e-02
7.964679971337318420e-03
-1.982978284358978271e-01
-1.040096655488014221e-01
-1.150307282805442810e-01
-2.850583009421825409e-02
-2.206333875656127930e-01
-4.243151098489761353e-02
-1.247003860771656036e-02
2.810478024184703827e-02
-1.284645795822143555e-01
3.954841941595077515e-02
1.043389923870563507e-02
-2.062357217073440552e-02
5.540958791971206665e-02
-3.439524769783020020e-02
2.685700915753841400e-02
-3.552491962909698486e-02
6.133728474378585815e-02
-1.990555785596370697e-03
-9.301731735467910767e-02
2.238756790757179260e-02
-9.400534629821777344e-02
-5.818491429090499878e-02
-5.717289075255393982e-02
5.740949884057044983e-02
1.957645453512668610e-02
7.189124077558517456e-02
-5.517590045928955078e-02
-1.119587384164333344e-02
-4.787418991327285767e-02
1.680835522711277008e-02
3.595593199133872986e-02
1.077473745681345463e-03
-2.875352464616298676e-02
-7.771247625350952148e-02
4.668796062469482422e-02
6.155030056834220886e-02
1.933405362069606781e-02
-3.676230460405349731e-02
9.097336977720260620e-02
3.213157877326011658e-02
-4.570725560188293457e-02
3.135592490434646606e-02
-1.398234516382217407e-01
-6.048236787319183350e-02
1.314827241003513336e-02
2.883088588714599609e-02
2.935326658189296722e-02
-2.219629846513271332e-02
4.078374244272708893e-03
-5.514503642916679382e-02
-6.324642151594161987e-02
5.385152250528335571e-02
1.721876859664916992e-01
4.386627301573753357e-02
-3.803985565900802612e-02
-1.654740236699581146e-02
5.707609280943870544e-02
1.085876673460006714e-02
-4.196242988109588623e-02
-5.183745920658111572e-02
-5.122956633567810059e-02
-2.949086762964725494e-02
7.284227013587951660e-02
1.227086689323186874e-02
-7.972731441259384155e-02
-1.209831088781356812e-01
6.543316692113876343e-02
2.124932967126369476e-02
-1.528365015983581543e-01
4.868722334504127502e-02
6.106462329626083374e-02
-7.345838099718093872e-02
-1.721766893751919270e-03
-1.227636411786079407e-01
1.139841414988040924e-02
-3.735772892832756042e-02
-2.654875814914703369e-02
-2.717025764286518097e-02
-6.940717343240976334e-03
-2.634653747081756592e-01
3.386860713362693787e-02
-4.607069864869117737e-02
-1.217064075171947479e-02
-1.201452091336250305e-01
5.221907421946525574e-02
-1.073276475071907043e-01
-1.485805362462997437e-01
-2.638699710369110107e-01
5.687217041850090027e-02
7.571389526128768921e-02
-3.045443445444107056e-02
-5.124141648411750793e-02
-1.106852293014526367e-01
-6.246615201234817505e-02
-1.057837381958961487e-01
-7.777587324380874634e-02
4.677235707640647888e-02
-7.812403887510299683e-02
-1.417746543884277344e-01
-7.176284212619066238e-03
3.941315785050392151e-02
5.779527500271797180e-02
4.079756513237953186e-02
-4.589213803410530090e-02
1.881302893161773682e-02
-9.876018762588500977e-02
8.879821747541427612e-02
5.264648422598838806e-02
-4.202613979578018188e-02
-2.134289965033531189e-02
5.930307507514953613e-02
-3.215850144624710083e-02
-2.161211706697940826e-02
-2.110159248113632202e-01
6.161584332585334778e-02
-8.216322213411331177e-02
-2.264045923948287964e-01
7.498952001333236694e-02
-2.316809147596359253e-01
-1.849704682826995850e-01
1.102773193269968033e-02
-6.854122132062911987e-02
6.615218520164489746e-02
-1.497151702642440796e-01
-2.576234936714172363e-02
-1.310654729604721069e-01
-1.487295925617218018e-01
-6.626568734645843506e-02
-9.562060586176812649e-04
2.976922690868377686e-02
-9.832998365163803101e-02
-2.996266819536685944e-02
-9.389749914407730103e-02
-1.621597260236740112e-01
3.059265017509460449e-02
-5.771888047456741333e-02
-1.069048792123794556e-01
8.883612602949142456e-02
-9.886065870523452759e-02
