-9.519332088530063629e-03
4.011660814285278320e-03
8.048809319734573364e-02
-2.493596822023391724e-01
2.561190165579319000e-02
-7.605759799480438232e-02
6.601424956897972152e-06
1.682948321104049683e-01
1.508738398551940918e-01
-1.476798057556152344e-01
-1.115885600447654724e-01
-2.738019526004791260e-01
2.050776220858097076e-02
-1.636828184127807617e-01
-5.879914760589599609e-02
-8.694212883710861206e-02
1.405135989189147949e-01
6.112094223499298096e-02
-7.294880598783493042e-02
1.545254058044065459e-08
-2.127463072538375854e-01
-8.038292825222015381e-02
3.627773746848106384e-02
-1.694146096706390381e-01
1.155121251940727234e-02
-2.614569067955017090e-01
8.580193668603897095e-02
-2.131597399711608887e-01
-1.959565579891204834e-01
1.631263345479965210e-01
3.946543112397193909e-02
-5.381232872605323792e-02
-7.521437853574752808e-02
1.725455671548843384e-01
2.299752645194530487e-02
-1.644407361745834351e-01
3.008709847927093506e-02
-2.419220656156539917e-02
-2.438313886523246765e-02
-3.228770196437835693e-01
-1.550114750862121582e-01
1.466063503175973892e-02
3.962693512439727783e-01
-1.186181977391242981e-02
1.974915899336338043e-02
-2.402389980852603912e-02
3.743377923965454102e-01
-1.244734786450862885e-02
4.823831841349601746e-03
-1.711095124483108521e-01
7.869523699355340796e-09
4.576848766646435251e-08
8.578260242938995361e-02
-9.201702475547790527e-02
5.152044072747230530e-02
-1.021968317218124866e-03
1.126310136169195175e-02
-2.903316617012023926e-01
-8.628861606121063232e-02
1.566695719957351685e-01
1.462286897003650665e-02
8.736002258956432343e-03
-1.456511318683624268e-01
-4.928620178645815031e-09
6.491439044475555420e-02
2.846020087599754333e-02
2.265340983867645264e-01
-3.373906388878822327e-02
-2.372473105788230896e-02
2.829888090491294861e-02
-5.073434650171293470e-08
4.491036236286163330e-01
2.135060280561447144e-01
-5.676493048667907715e-02
3.908700868487358093e-02
9.237755089998245239e-03
4.459328576922416687e-02
6.379097700119018555e-02
8.587586134672164917e-02
7.540841400623321533e-02
7.868988066911697388e-02
1.571556925773620605e-01
2.618441544473171234e-02
1.845942243505760416e-08
-1.350639909505844116e-01
3.458200488239526749e-03
1.922634690999984741e-01
-4.988167807459831238e-02
6.267987191677093506e-02
6.180536746978759766e-02
1.629681885242462158e-01
2.468572743237018585e-02
2.576226368546485901e-03
1.481132805347442627e-01
6.590744853019714355e-02
-1.355266571044921875e-01
1.393823325634002686e-01
2.792912125587463379e-01
4.017832502722740173e-02
3.224992752075195312e-02
1.265892237424850464e-01
9.040032513439655304e-03
4.508065804839134216e-02
3.228463605046272278e-02
-1.689110882580280304e-02
2.689141966402530670e-02
4.727345108985900879e-01
1.605323851108551025e-01
5.778454989194869995e-02
-4.081823304295539856e-02
1.387657970190048218e-01
8.178480714559555054e-02
1.503708306699991226e-03
-5.503792688250541687e-02
9.806043088644855743e-09
-2.278669519739651150e-08
9.489154070615768433e-02
-6.826179102063179016e-03
8.376028388738632202e-02
5.888684466481208801e-02
4.404827021062374115e-03
4.882044717669487000e-02
1.836456954479217529e-01
2.616961896419525146e-01
6.799302250146865845e-02
3.425278514623641968e-02
1.924521327018737793e-01
-9.994442606853226607e-09
-7.347275316715240479e-02
-5.832000449299812317e-02
-2.065825015306472778e-01
1.084680408239364624e-01
7.620526105165481567e-02
-8.228381723165512085e-02
5.207160953432321548e-03
-1.526676863431930542e-01
-7.937600463628768921e-02
7.136262208223342896e-02
-3.003551252186298370e-02
-3.417964279651641846e-02
3.320321813225746155e-02
-6.677962839603424072e-02
-5.046942457556724548e-02
-1.489138137549161911e-02
5.732805281877517700e-02
7.136757671833038330e-02
2.654384821653366089e-02
-1.310358406044542789e-03
-1.122540757060050964e-01
-2.736205235123634338e-03
8.793354779481887817e-02
-2.121127210557460785e-02
-4.243348725140094757e-03
-3.840503282845020294e-03
3.782567009329795837e-02
2.250990644097328186e-02
1.246674638241529465e-02
-1.392583698034286499e-01
2.369201974943280220e-03
-2.516452781856060028e-02
-1.773878931999206543e-03
4.311980307102203369e-02
3.386896336451172829e-03
-7.744961977005004883e-02
7.572298496961593628e-02
-1.268367767333984375e-01
-3.235555486753582954e-04
5.272156745195388794e-02
8.709921501576900482e-03
1.076927059330046177e-03
3.403982892632484436e-02
1.670124940574169159e-03
-1.531504327431321144e-03
-2.847305871546268463e-02
3.415690734982490540e-02
-1.807367354631423950e-01
-7.090125698596239090e-03
1.138445660471916199e-01
1.801908947527408600e-02
8.348714560270309448e-03
-6.496616452932357788e-02
-5.330106243491172791e-02
2.519066259264945984e-02
-1.229313947260379791e-02
1.189405564218759537e-02
-5.295755341649055481e-02
2.007741481065750122e-02
2.889343164861202240e-02
1.630437187850475311e-02
9.175650193355977535e-04
-4.109080880880355835e-02
7.007826319238574797e-09
-1.202747151255607605e-01
-6.721125543117523193e-02
-5.032616481184959412e-02
-1.419681012630462646e-01
-1.996586918830871582e-01
-1.559174358844757080e-01
2.927045215983525850e-06
1.458498369902372360e-02
1.085557788610458374e-01
-1.235179230570793152e-01
-2.835240960121154785e-01
-2.349867224693298340e-01
1.391453389078378677e-02
-2.305056452751159668e-01
-1.252937316894531250e-01
-1.837718784809112549e-01
1.087071076035499573e-01
-3.771689534187316895e-02
-1.519998759031295776e-01
-2.995825099105786649e-08
-3.029158115386962891e-01
-1.695779263973236084e-01
1.211463734507560730e-01
-9.694942831993103027e-02
-7.097622007131576538e-02
-4.227038919925689697e-01
6.704069674015045166e-02
-6.953306961804628372e-03
-1.760195642709732056e-01
5.857503041625022888e-02
1.254041492938995361e-02
-1.680758297443389893e-01
-6.911386549472808838e-02
2.038519382476806641e-01
1.270806416869163513e-02
-8.716673403978347778e-02
1.374941468238830566e-01
-2.926189005374908447e-01
-9.567707777023315430e-02
-1.809779256582260132e-01
-1.973687708377838135e-01
-4.822333808988332748e-03
2.859099805355072021e-01
-1.071797236800193787e-01
-1.138274669647216797e-01
-3.065145388245582581e-02
3.216311037540435791e-01
3.666471317410469055e-02
4.470216110348701477e-03
-2.836170196533203125e-01
-1.269489136035417687e-08
-7.735152962595748249e-09
-2.935173362493515015e-02
3.656844794750213623e-02
4.588561132550239563e-02
-1.249208152294158936e-01
9.752675890922546387e-03
-2.754752337932586670e-01
-4.510174319148063660e-02
8.167846500873565674e-02
-1.375611871480941772e-02
-4.257964342832565308e-02
-2.826135605573654175e-02
-7.399264756458023840e-09
