1.022564433515071869e-02
-7.133398950099945068e-02
-1.461071819067001343e-01
-1.691480539739131927e-02
2.508161589503288269e-02
-4.271392524242401123e-02
-1.272699562832713127e-03
-4.623169079422950745e-02
5.117759853601455688e-02
-1.196623221039772034e-01
-9.183463407680392265e-04
-3.172539919614791870e-02
-5.236038193106651306e-02
8.794444613158702850e-03
-8.232067525386810303e-02
-2.464882284402847290e-02
5.948607623577117920e-02
-2.326791137456893921e-01
-8.178683370351791382e-02
-8.778781443834304810e-02
-1.234414577484130859e-01
7.211368530988693237e-02
6.586549431085586548e-02
-4.238067939877510071e-02
-4.909678176045417786e-02
-1.622210443019866943e-01
7.578105665743350983e-03
-1.118182018399238586e-01
5.726701766252517700e-02
8.706291206181049347e-03
7.765765301883220673e-03
-2.433606982231140137e-02
9.851203858852386475e-02
-1.949776262044906616e-01
-6.393967568874359131e-02
8.984141796827316284e-02
-6.200768426060676575e-02
9.300733217969536781e-04
-4.374853521585464478e-02
-9.869237244129180908e-02
5.746793746948242188e-02
-1.380003243684768677e-01
-2.676725983619689941e-01
-4.066994786262512207e-02
-7.792810350656509399e-02
9.892222285270690918e-02
-2.240600734949111938e-01
-8.056060224771499634e-02
1.786866597831249237e-02
-1.199643686413764954e-02
-5.889555066823959351e-02
-1.428056955337524414e-01
5.893663316965103149e-02
-1.547125726938247681e-01
-1.171727781184017658e-03
-1.513860374689102173e-01
-1.684939414262771606e-01
-6.662996858358383179e-02
-4.523085430264472961e-02
-7.686402648687362671e-02
-2.548534870147705078e-01
-5.729292333126068115e-02
1.318276580423116684e-02
-7.559348642826080322e-02
-7.498467713594436646e-02
-1.041228175163269043e-01
-1.436213701963424683e-01
-6.742110848426818848e-02
2.320467680692672729e-02
2.066828683018684387e-02
3.122643567621707916e-02
-4.980363324284553528e-02
4.404626041650772095e-02
-2.244224958121776581e-02
4.775528796017169952e-03
1.751768402755260468e-02
-1.203479692339897156e-01
-1.404169108718633652e-02
-2.371069043874740601e-01
-1.360559137538075447e-03
4.606436565518379211e-02
-1.445808410644531250e-01
-1.818582415580749512e-01
-1.796861886978149414e-01
-5.692242085933685303e-02
-6.938969343900680542e-02
5.980715155601501465e-02
-1.454039514064788818e-01
-1.041540224105119705e-02
-1.573602557182312012e-01
-1.016924902796745300e-01
-1.261509209871292114e-02
6.279653310775756836e-02
-7.887372374534606934e-02
6.537464261054992676e-02
4.522159695625305176e-02
-3.050302900373935699e-02
-1.086892746388912201e-02
-3.598894551396369934e-02
4.560272675007581711e-03
-2.213677950203418732e-02
-1.065225005149841309e-01
6.472420692443847656e-02
2.067874372005462646e-02
3.608487918972969055e-02
1.022300869226455688e-02
-1.730607450008392334e-01
2.513551735319197178e-04
-4.673491045832633972e-02
1.520392671227455139e-02
-1.715426594018936157e-01
-6.776586174964904785e-02
-7.684694975614547729e-02
1.875509880483150482e-02
-7.216127216815948486e-02
-7.540885359048843384e-02
5.006350949406623840e-02
-1.089120060205459595e-01
-1.103732511401176453e-01
-6.773258000612258911e-02
-1.896361410617828369e-01
-2.224687039852142334e-01
-3.222496807575225830e-02
6.450464949011802673e-03
-2.611103057861328125e-01
-1.221393123269081116e-01
-1.177039146423339844e-01
2.429592423141002655e-02
8.666954189538955688e-02
7.242751866579055786e-02
1.495498120784759521e-01
-4.778104275465011597e-02
7.076276838779449463e-02
-5.815083533525466919e-02
6.548977643251419067e-02
1.626824140548706055e-01
-7.173088937997817993e-02
7.879988104104995728e-02
-3.096140362322330475e-02
-3.455221280455589294e-02
-2.262011915445327759e-02
-6.809360533952713013e-02
-6.291853636503219604e-02
1.021350994706153870e-01
5.155341327190399170e-02
-5.917400121688842773e-03
-4.138642549514770508e-02
1.014988422393798828e-01
6.604539602994918823e-02
-1.332589685916900635e-01
-9.309143759310245514e-03
-1.044540852308273315e-01
-5.589256435632705688e-02
-1.058720238506793976e-02
-9.460292756557464600e-02
-1.456849160604178905e-03
1.066142395138740540e-01
1.656209491193294525e-02
2.590810135006904602e-02
6.293535977602005005e-02
1.304592192173004150e-02
7.289982400834560394e-03
-9.114881977438926697e-04
-2.267186529934406281e-03
-1.820708625018596649e-02
-1.040811166167259216e-01
-6.504867970943450928e-02
-1.351044923067092896e-01
8.045375347137451172e-03
-1.174250170588493347e-01
-8.328625932335853577e-03
1.914977841079235077e-02
5.398566368967294693e-03
8.537772297859191895e-02
-3.367507830262184143e-02
-1.544727827422320843e-03
1.051229983568191528e-01
1.151172965764999390e-01
-1.138072554022073746e-02
1.349133402109146118e-01
-1.758338361978530884e-01
-1.366987824440002441e-01
-4.642382636666297913e-02
-9.969985112547874451e-03
5.340305343270301819e-02
3.926153108477592468e-02
-1.209637075662612915e-01
6.033241376280784607e-02
-1.561693206895142794e-04
-4.346118494868278503e-02
4.055071994662284851e-02
6.944883614778518677e-02
-5.565281584858894348e-02
-9.046604484319686890e-02
-9.548418223857879639e-02
-1.879471237771213055e-04
1.358207687735557556e-02
1.257360074669122696e-02
3.142234403640031815e-03
-5.817047879099845886e-02
1.022903919219970703e-01
-1.244296953082084656e-01
-4.981952160596847534e-02
1.980114541947841644e-02
-1.235829368233680725e-01
1.138359531760215759e-01
-8.075909316539764404e-02
-9.004257619380950928e-02
8.852563798427581787e-02
-2.065734565258026123e-01
2.368741296231746674e-02
-4.055961221456527710e-02
-1.468616575002670288e-01
-5.441723018884658813e-02
-3.044020757079124451e-02
-9.999465197324752808e-02
2.090647630393505096e-02
3.042507705686148256e-05
-1.538269072771072388e-01
-2.198106981813907623e-02
-5.685510113835334778e-02
-1.872546821832656860e-01
-5.199735984206199646e-02
5.526632443070411682e-02
1.731299981474876404e-02
8.728144317865371704e-02
-9.143724292516708374e-02
9.205987676978111267e-03
-2.988013327121734619e-01
-1.229357942938804626e-01
-1.102068573236465454e-01
-2.296715229749679565e-01
-1.024448499083518982e-01
-1.473629195243120193e-02
-1.521134525537490845e-01
-7.963918894529342651e-02
-6.434728205204010010e-02
-1.007043495774269104e-01
-1.316263973712921143e-01
-3.609025105834007263e-02
9.565513581037521362e-03
2.182915620505809784e-02
-1.590874046087265015e-01
2.456144057214260101e-02
-8.853704668581485748e-03
-1.721760816872119904e-02
-1.452429592609405518e-01
1.117191743105649948e-02
-8.244204521179199219e-02
1.172960270196199417e-03
-1.724977791309356689e-01
-1.226590946316719055e-01
-1.787916384637355804e-02
-2.632178664207458496e-01
-2.133745998144149780e-01
-1.534461677074432373e-01
