1.009590551257133484e-02
-5.737698450684547424e-02
-3.355179727077484131e-02
-1.043725013732910156e-01
1.190860196948051453e-02
-3.936051204800605774e-02
3.252566233277320862e-02
-2.078110724687576294e-02
-4.102281760424375534e-03
-1.762654632329940796e-01
-1.008901223540306091e-01
-1.327254921197891235e-01
-1.704158377833664417e-03
3.010843414813280106e-03
-4.502404853701591492e-02
-1.548054665327072144e-01
5.422913283109664917e-02
-1.726665049791336060e-01
-2.174889743328094482e-01
-3.092105500400066376e-02
-1.348633915185928345e-01
3.537954017519950867e-02
6.982787698507308960e-02
-1.105216592550277710e-01
8.024568669497966766e-03
-4.100511968135833740e-02
-9.786710143089294434e-03
-5.173603072762489319e-02
1.863285899162292480e-02
1.080123521387577057e-02
9.082769975066184998e-03
-1.267383992671966553e-02
3.679444268345832825e-02
-9.340436756610870361e-02
-1.259344369173049927e-01
8.925202488899230957e-02
4.989134892821311951e-02
-8.764310181140899658e-02
-8.054637908935546875e-02
-4.763941466808319092e-02
1.594901084899902344e-02
5.997755378484725952e-02
-2.431708872318267822e-01
-9.340914338827133179e-02
9.369304776191711426e-02
5.646073818206787109e-02
-1.621230989694595337e-01
-1.660185158252716064e-01
9.273827075958251953e-02
-7.126613706350326538e-02
-1.844187825918197632e-02
-1.346265971660614014e-01
1.535483449697494507e-02
-6.485746055841445923e-02
5.182283744215965271e-02
-3.063807077705860138e-02
-6.454902887344360352e-02
-9.787797182798385620e-02
-1.306503415107727051e-01
8.247656375169754028e-02
-2.415771484375000000e-01
-8.790118992328643799e-02
-5.579922720789909363e-02
-6.711960583925247192e-02
1.006734278053045273e-02
-1.608912497758865356e-01
1.965000294148921967e-03
1.959696412086486816e-03
-6.528425961732864380e-02
-2.528159506618976593e-02
-4.685518890619277954e-02
3.792337700724601746e-02
9.712988883256912231e-02
4.082504659891128540e-02
-1.093070879578590393e-01
8.958831429481506348e-02
-1.846774369478225708e-01
-1.210698932409286499e-01
-6.225205585360527039e-02
-9.038739651441574097e-02
-8.566140383481979370e-02
-2.172179371118545532e-01
-8.429457247257232666e-02
-1.826632022857666016e-01
2.448580693453550339e-03
-1.999828405678272247e-02
7.097783684730529785e-02
-7.822719216346740723e-02
1.344723440706729889e-02
-1.794102191925048828e-01
-3.255211561918258667e-02
-4.484998807311058044e-02
5.445466376841068268e-03
-3.634572029113769531e-03
-6.341709941625595093e-02
-4.138357192277908325e-02
-4.605919122695922852e-02
-3.595062717795372009e-02
5.370824597775936127e-03
-8.470287173986434937e-02
1.976828835904598236e-02
-9.230999648571014404e-02
1.325263641774654388e-03
-6.343821436166763306e-02
1.494329888373613358e-02
2.586931921541690826e-02
-2.561438679695129395e-01
-1.587627381086349487e-01
-7.459856569766998291e-02
-4.684573784470558167e-02
-1.794144362211227417e-01
-1.045462414622306824e-01
2.577320300042629242e-02
7.134851533919572830e-03
-1.256518363952636719e-01
-8.831597119569778442e-02
1.356949657201766968e-02
-2.754117362201213837e-02
4.982871562242507935e-02
4.252179712057113647e-02
-4.309760406613349915e-02
-2.040981203317642212e-01
-2.272880971431732178e-01
-7.818437367677688599e-02
-1.773772537708282471e-01
-3.358482196927070618e-02
3.103229403495788574e-02
4.730058088898658752e-02
-5.516177508980035782e-03
-3.257189691066741943e-02
-8.194397389888763428e-02
-3.124670358374714851e-03
-2.041014656424522400e-02
2.400713274255394936e-03
-1.398236900568008423e-01
-1.765161752700805664e-02
-5.950878933072090149e-02
4.047749191522598267e-02
3.193532302975654602e-02
-6.128434464335441589e-02
-4.866291210055351257e-02
5.421299953013658524e-03
1.365740597248077393e-01
-6.196779385209083557e-02
9.782829880714416504e-02
-7.315044105052947998e-02
-4.952222108840942383e-02
-5.072288960218429565e-02
-7.346555590629577637e-02
1.984858140349388123e-02
5.531762912869453430e-02
-4.158579185605049133e-02
-2.828235365450382233e-02
7.658976316452026367e-02
8.526835590600967407e-02
1.295552998781204224e-01
1.143752783536911011e-01
-6.682668346911668777e-03
1.726024225354194641e-02
-4.820022732019424438e-02
7.181483507156372070e-02
3.681967034935951233e-02
1.271278113126754761e-01
-1.254958063364028931e-01
-6.645153462886810303e-02
-9.335542470216751099e-02
-7.045231014490127563e-02
-6.207602843642234802e-02
-3.517512604594230652e-02
-5.942321568727493286e-02
-1.353305429220199585e-01
2.265078201889991760e-02
-1.104042306542396545e-01
7.474421709775924683e-02
-3.891519829630851746e-02
-1.769543252885341644e-02
1.178788319230079651e-01
7.176306098699569702e-02
1.971836201846599579e-02
1.632269844412803650e-02
-1.323654800653457642e-01
5.499015375971794128e-02
-5.071350932121276855e-02
-5.935492366552352905e-02
3.374597430229187012e-02
-5.847603455185890198e-02
6.243682000786066055e-03
2.594384178519248962e-02
5.557901412248611450e-02
7.224877178668975830e-02
5.503996834158897400e-02
1.057105213403701782e-01
9.504779241979122162e-03
-1.470817178487777710e-01
-5.962038412690162659e-02
-8.005700260400772095e-02
-1.041144039481878281e-02
4.177716001868247986e-02
-9.561708569526672363e-02
5.457105115056037903e-03
2.825440838932991028e-02
3.316301107406616211e-02
-8.813214488327503204e-03
-5.754988268017768860e-02
-1.367800980806350708e-01
5.953067541122436523e-02
-6.216818466782569885e-02
-6.608540564775466919e-02
3.656559437513351440e-02
-1.580648571252822876e-01
1.970747485756874084e-02
2.677826769649982452e-02
-5.361855402588844299e-02
-9.631893038749694824e-02
-6.852546241134405136e-03
-1.140588223934173584e-01
-3.271998837590217590e-02
4.415348230395466089e-04
1.653110957704484463e-03
-1.098891124129295349e-01
4.502238705754280090e-02
-2.212269157171249390e-01
-2.484740223735570908e-03
-6.917440332472324371e-03
3.865737840533256531e-02
2.199988067150115967e-02
-2.971671149134635925e-02
7.196575403213500977e-03
-1.153743192553520203e-01
-8.971843123435974121e-02
-2.845501713454723358e-02
-1.756945252418518066e-01
-7.130142766982316971e-03
3.405352681875228882e-02
-1.544784009456634521e-01
-9.565555490553379059e-03
6.747546792030334473e-02
2.203101292252540588e-02
-1.562149077653884888e-01
-1.994739174842834473e-01
-6.900683045387268066e-02
2.782325446605682373e-02
1.496233418583869934e-02
-1.513658370822668076e-02
-1.932207494974136353e-01
-1.728712208569049835e-02
-9.149491041898727417e-02
3.140853717923164368e-03
-1.551538407802581787e-01
-1.082870885729789734e-01
-1.185287088155746460e-01
-1.013558655977249146e-01
-2.096135541796684265e-02
-2.819134891033172607e-01
-1.007000207901000977e-01
-1.659783273935317993e-01
