-9.527762234210968018e-02
-1.543181091547012329e-01
-1.570711284875869751e-01
-1.586593389511108398e-01
-9.130324423313140869e-02
-6.235940009355545044e-02
6.621375679969787598e-02
-1.804577559232711792e-02
-1.531550437211990356e-01
-8.808858692646026611e-02
-2.004525214433670044e-01
-2.984569407999515533e-02
-2.286711931228637695e-01
2.217774465680122375e-02
5.204742401838302612e-02
-3.441571444272994995e-02
7.329133152961730957e-02
-1.349551528692245483e-01
4.624628461897373199e-03
-7.346671819686889648e-02
3.135041333734989166e-03
-3.286822512745857239e-02
-9.132733941078186035e-02
5.449132248759269714e-02
-8.363800495862960815e-02
-5.414963886141777039e-02
-1.618106663227081299e-01
-1.191314011812210083e-01
-9.793303906917572021e-02
5.087587609887123108e-02
-5.206362158060073853e-02
7.749640196561813354e-02
-4.846103489398956299e-02
5.018055066466331482e-02
1.277181804180145264e-01
8.694204688072204590e-02
-1.376827508211135864e-01
-1.598398238420486450e-01
3.010378684848546982e-03
-3.311019763350486755e-02
6.072268262505531311e-02
-2.658501267433166504e-01
-4.519382491707801819e-02
-1.139201596379280090e-01
-9.200730919837951660e-02
-8.802911033853888512e-04
-2.554700374603271484e-01
7.503413595259189606e-03
-1.040469855070114136e-01
-1.402819007635116577e-01
-7.214818894863128662e-02
-3.358067944645881653e-02
-1.340712606906890869e-01
2.241336181759834290e-02
3.791985567659139633e-03
9.998250007629394531e-02
-4.809433221817016602e-02
-2.062800675630569458e-01
-8.703076280653476715e-03
3.047849424183368683e-02
2.979671955108642578e-02
-2.498986870050430298e-01
-1.666891947388648987e-02
2.955434657633304596e-02
-9.879338741302490234e-02
-1.383946537971496582e-01
-5.237596854567527771e-02
-3.940400108695030212e-02
-9.030532836914062500e-02
-6.983726471662521362e-02
-1.400336772203445435e-01
-8.059018105268478394e-02
-2.354695796966552734e-01
-7.456673309206962585e-03
-6.892311573028564453e-02
4.504664242267608643e-02
-5.912034213542938232e-02
6.018890812993049622e-02
-9.048260003328323364e-02
-1.280797123908996582e-01
-9.673048555850982666e-02
6.436637043952941895e-02
-5.016218870878219604e-02
-5.176729336380958557e-02
-9.894488006830215454e-02
-1.316465437412261963e-03
-7.571466267108917236e-02
1.287469826638698578e-02
4.671267047524452209e-02
3.928874805569648743e-02
-3.851466253399848938e-02
-1.227298867888748646e-03
-1.533712446689605713e-01
-9.928154200315475464e-02
-1.017242148518562317e-01
-5.495657399296760559e-02
-3.860468789935112000e-02
-5.296131595969200134e-02
4.126986488699913025e-02
2.186344377696514130e-02
-7.665391266345977783e-02
5.595606938004493713e-02
2.866834402084350586e-02
-8.501205593347549438e-02
6.221578642725944519e-02
-3.770207166671752930e-01
-2.517427876591682434e-02
-1.932089328765869141e-01
-6.363143771886825562e-02
7.456503063440322876e-02
-1.149570345878601074e-01
-6.498755514621734619e-02
1.800901815295219421e-02
-1.100406423211097717e-01
-1.378124952316284180e-01
4.230864718556404114e-02
-7.214399427175521851e-02
-8.246178925037384033e-02
-3.840420767664909363e-02
3.255522623658180237e-02
3.821534290909767151e-02
-2.138453572988510132e-01
1.239654514938592911e-02
-1.040120050311088562e-01
3.693357110023498535e-02
-1.401954442262649536e-01
9.347104281187057495e-02
-8.473256230354309082e-02
6.150377169251441956e-02
-9.201440960168838501e-02
-1.122804637998342514e-02
-4.381172731518745422e-02
-5.073252692818641663e-02
-5.119564756751060486e-02
5.063904821872711182e-02
1.328322440385818481e-01
-1.979415118694305420e-02
7.076638936996459961e-02
1.342934668064117432e-01
2.811693213880062103e-02
8.741432428359985352e-02
1.641338021727278829e-04
-5.345920845866203308e-02
4.738442972302436829e-02
1.806113868951797485e-02
1.715970039367675781e-02
-6.935166195034980774e-03
-1.269747018814086914e-01
1.426433399319648743e-02
5.591218546032905579e-02
1.014525964856147766e-01
-7.672371715307235718e-02
-5.734031274914741516e-02
-4.944339394569396973e-02
5.124631151556968689e-02
-6.287070363759994507e-02
-5.661161988973617554e-02
5.777228996157646179e-02
1.751936785876750946e-02
6.424234807491302490e-02
6.002038344740867615e-02
-4.614908620715141296e-02
-9.188567101955413818e-02
1.133851148188114166e-02
-2.923196181654930115e-02
-2.348229475319385529e-02
7.263237982988357544e-02
4.784220084547996521e-02
-3.497153148055076599e-02
-3.863349929451942444e-02
-2.514062635600566864e-02
1.944308914244174957e-02
-1.811137422919273376e-02
-5.356306582689285278e-02
6.209836807101964951e-03
1.008522603660821915e-02
-4.313240945339202881e-02
1.185146998614072800e-02
4.280791431665420532e-02
-4.765325039625167847e-02
9.647150523960590363e-03
5.121606215834617615e-02
1.776073127985000610e-02
-4.241697490215301514e-02
-3.359801322221755981e-02
7.607735693454742432e-02
-9.286528080701828003e-02
-5.087411776185035706e-02
9.407526254653930664e-02
-4.791885614395141602e-02
3.940496966242790222e-02
-8.664745837450027466e-03
1.423489768058061600e-03
-1.775669604539871216e-01
-2.270399359986186028e-03
-2.391451224684715271e-02
-1.075134128332138062e-01
-2.676424011588096619e-02
-1.366952154785394669e-02
-1.471190750598907471e-01
-1.383094936609268188e-01
4.552019527181982994e-04
-1.918142586946487427e-01
7.573122531175613403e-02
-7.908467948436737061e-02
-1.356322169303894043e-01
-1.195691078901290894e-01
-1.284788399934768677e-01
-1.219786331057548523e-01
7.042747735977172852e-02
-1.431502997875213623e-01
1.899779401719570160e-02
-9.692216664552688599e-02
1.975446008145809174e-02
-6.327552348375320435e-02
-1.101924851536750793e-01
8.692693710327148438e-02
2.398107759654521942e-02
-7.400386780500411987e-02
-1.247931495308876038e-01
-1.073129251599311829e-01
-1.511466503143310547e-01
2.641407586634159088e-02
4.408954083919525146e-02
4.890420660376548767e-02
-1.029971428215503693e-02
1.097247656434774399e-02
-8.886579424142837524e-02
4.435924068093299866e-02
4.262881353497505188e-02
-1.798252761363983154e-01
6.391166709363460541e-03
-1.462657302618026733e-01
-1.843096166849136353e-01
-2.800277993083000183e-02
-1.906830072402954102e-01
4.733065143227577209e-02
-1.158752366900444031e-01
-1.209734827280044556e-01
-9.449961595237255096e-03
-5.479254201054573059e-02
-1.421695500612258911e-01
-8.877843618392944336e-02
6.059162691235542297e-02
-1.741931587457656860e-02
-2.036606520414352417e-02
-3.010153025388717651e-02
-6.832309067249298096e-02
1.374207157641649246e-02
-4.632922820746898651e-03
5.572517402470111847e-03
-8.792300708591938019e-03
1.114278286695480347e-01
-2.480924427509307861e-01
-2.110048756003379822e-02
3.155968384817242622e-03
