-7.412057369947433472e-03
2.910561393946409225e-03
8.156788349151611328e-02
-1.555201262235641479e-01
2.450093068182468414e-02
-1.172218769788742065e-01
2.051831188509822823e-06
4.156263545155525208e-02
6.894822418689727783e-02
-8.081029355525970459e-02
-1.546019166707992554e-01
-2.046623677015304565e-01
1.861528865993022919e-02
-1.140441223978996277e-01
1.264079287648200989e-02
-4.348046332597732544e-02
1.422842890024185181e-01
1.658275537192821503e-02
-1.530597209930419922e-01
7.307357385855084431e-09
-2.395700067281723022e-01
-4.630088433623313904e-02
9.572169743478298187e-03
-1.993825137615203857e-01
-9.566497802734375000e-02
-2.709351778030395508e-01
7.319758087396621704e-02
-1.456346958875656128e-01
-8.312150835990905762e-02
1.427804678678512573e-01
3.815826028585433960e-02
2.033626474440097809e-02
1.066957041621208191e-01
1.856603026390075684e-01
2.172389812767505646e-02
-2.127969712018966675e-01
9.043747186660766602e-02
-8.472832292318344116e-02
-1.975633203983306885e-02
-3.876402378082275391e-01
-2.340316027402877808e-01
1.294696331024169922e-02
3.874347209930419922e-01
6.306841224431991577e-02
1.573541946709156036e-02
-2.512904070317745209e-02
3.869754374027252197e-01
-1.235538646578788757e-01
5.392663646489381790e-03
-2.366769313812255859e-01
7.216446551439048562e-09
4.600859426773240557e-08
1.212209090590476990e-02
-1.929100900888442993e-01
4.924193769693374634e-02
-1.378318760544061661e-03
1.204574294388294220e-02
-2.349260449409484863e-01
-2.916883490979671478e-02
1.911801099777221680e-01
1.329986751079559326e-02
7.130569778382778168e-03
-2.617938220500946045e-01
-1.220200740448262877e-08
7.195068150758743286e-02
2.576930075883865356e-02
2.282783985137939453e-01
2.786162681877613068e-02
-1.224374771118164062e-02
9.941443800926208496e-02
-1.189085363506592330e-08
3.326256573200225830e-01
1.772565394639968872e-01
-3.827842697501182556e-02
8.778169751167297363e-03
3.369145095348358154e-02
4.243887960910797119e-02
-2.695018984377384186e-02
1.819576621055603027e-01
7.793646305799484253e-02
1.137718036770820618e-01
2.018106728792190552e-01
3.255418688058853149e-02
2.968307821760163279e-09
-1.264499425888061523e-01
2.054109610617160797e-02
2.106395363807678223e-01
-1.003427952527999878e-01
-1.184615865349769592e-01
5.900046229362487793e-02
2.605609297752380371e-01
-4.418425669427961111e-04
1.530323410406708717e-03
7.632506638765335083e-02
6.556505709886550903e-02
-1.292216926813125610e-01
6.980056315660476685e-02
2.423114776611328125e-01
4.141756519675254822e-02
-2.507898723706603050e-03
2.497683465480804443e-01
-5.027808621525764465e-02
4.919908195734024048e-02
3.352613747119903564e-02
-3.134750528261065483e-03
2.895612269639968872e-02
5.177246928215026855e-01
1.914034932851791382e-01
5.585528165102005005e-02
-1.333406381309032440e-02
6.932981312274932861e-02
1.374550014734268188e-01
1.536030904389917850e-03
3.920343518257141113e-02
1.807720861890516062e-09
-4.203858594564735540e-08
1.199352592229843140e-01
-5.596240609884262085e-02
8.586240559816360474e-02
5.664834380149841309e-02
5.588717758655548096e-03
4.950295388698577881e-02
1.802254021167755127e-01
2.204943001270294189e-01
6.657844781875610352e-02
3.720909357070922852e-02
2.259883433580398560e-01
-1.076683364686914501e-08
-1.662047803401947021e-01
5.773438513278961182e-02
8.573903702199459076e-03
-1.626982353627681732e-02
8.532968349754810333e-03
1.144867688417434692e-01
-6.619601044803857803e-03
-8.472948521375656128e-02
9.688946418464183807e-03
2.394611202180385590e-02
-6.608601659536361694e-02
3.647862002253532410e-02
-2.768220752477645874e-02
-2.000690205022692680e-03
-7.277065515518188477e-02
-1.356795988976955414e-02
-6.052674353122711182e-02
1.211449876427650452e-01
-1.753833144903182983e-01
-3.241131780669093132e-04
-2.725405432283878326e-02
-5.639271065592765808e-02
1.642802730202674866e-02
-8.417146652936935425e-02
3.489880636334419250e-02
-8.164063910953700542e-04
3.074939548969268799e-02
-5.011564865708351135e-02
9.626547992229461670e-02
-1.397483199834823608e-01
2.116792136803269386e-03
-2.956240903586149216e-03
2.383460849523544312e-02
-1.969361677765846252e-02
-8.949010516516864300e-04
2.766234986484050751e-02
4.033114761114120483e-02
-1.736671030521392822e-01
9.487164788879454136e-04
1.136987581849098206e-01
-4.748967662453651428e-02
-5.188262439332902431e-04
3.729373216629028320e-02
-1.293693669140338898e-02
4.793116822838783264e-03
-1.224444359540939331e-01
2.556194551289081573e-02
-1.937560439109802246e-01
1.306205801665782928e-02
-8.089587092399597168e-02
-1.208468619734048843e-02
-8.335643447935581207e-03
3.855950012803077698e-02
7.455261796712875366e-02
-1.737234741449356079e-02
-5.837460514158010483e-03
6.791961379349231720e-03
5.271081626415252686e-02
-5.426721274852752686e-02
2.632307261228561401e-02
-8.727014996111392975e-03
7.969409925863146782e-04
3.855899348855018616e-02
-3.758112043783512490e-09
-9.398682415485382080e-02
-6.604715436697006226e-02
3.258031234145164490e-02
-1.915656216442584991e-02
-1.290785223245620728e-01
-1.028357148170471191e-01
2.051507408395991661e-06
1.713907867670059204e-01
-8.419797569513320923e-02
-1.747311204671859741e-01
-1.945385783910751343e-01
-1.663309335708618164e-01
2.130227722227573395e-02
-3.095168173313140869e-01
1.391454320400953293e-02
-2.490373849868774414e-01
8.300609141588211060e-02
1.732986420392990112e-02
-2.371023446321487427e-01
2.118117059524138313e-08
-3.793314397335052490e-01
-6.779938191175460815e-02
9.399088472127914429e-02
-1.318117510527372360e-02
8.432104438543319702e-02
-4.465143978595733643e-01
7.839711755514144897e-02
-6.289513409137725830e-02
-1.505256891250610352e-01
3.952239826321601868e-02
1.087980717420578003e-02
-1.136551871895790100e-01
4.047879949212074280e-02
1.716445535421371460e-01
1.291817519813776016e-02
-2.432398051023483276e-01
8.480121195316314697e-02
-1.627490520477294922e-01
-9.711866080760955811e-02
-2.042680792510509491e-02
-1.174125596880912781e-01
-8.113542571663856506e-03
1.786050200462341309e-01
-1.631517261266708374e-01
-1.209711208939552307e-01
-4.887204989790916443e-02
3.926952481269836426e-01
-2.930269576609134674e-02
4.310808610171079636e-03
-1.331714838743209839e-01
6.900970106471504550e-08
1.948188455003219133e-08
2.332289330661296844e-02
2.692665159702301025e-02
4.525356739759445190e-02
-1.179931908845901489e-01
8.398124016821384430e-03
-3.645598888397216797e-01
-6.690080463886260986e-02
1.275456845760345459e-01
-1.268778182566165924e-02
-4.149866104125976562e-02
3.505798056721687317e-02
-8.902082626605078985e-09
