-2.542481124401092529e-01
-1.621305793523788452e-01
-3.984043141826987267e-04
-2.533675432205200195e-01
-1.705416589975357056e-01
-2.779079675674438477e-01
2.387623768299818039e-03
-5.212143063545227051e-01
-5.736221075057983398e-01
2.044888347541018447e-08
-8.970027565956115723e-01
1.522319912910461426e-01
-6.981580646936436096e-09
6.273630948072650426e-09
2.426836937665939331e-01
-1.275077909231185913e-01
-8.433610945940017700e-02
6.105973504588746437e-09
-6.754853725433349609e-01
-2.374545782804489136e-01
-4.119278192520141602e-01
-7.273830175399780273e-01
-8.741942048072814941e-01
8.686844259500503540e-02
-1.101587057113647461e+00
-1.558982431888580322e-01
-1.217295005917549133e-01
1.052034646272659302e-01
-3.903530836105346680e-01
-2.361581027507781982e-01
-5.346423983573913574e-01
-5.587447285652160645e-01
-9.390925765037536621e-01
2.975028455257415771e-01
-6.842801719903945923e-02
4.419987931214564014e-08
-1.693857908248901367e-01
-1.354711651802062988e-01
-9.443800896406173706e-02
-2.306316345930099487e-01
-8.506170511245727539e-01
-2.262479513883590698e-01
-2.527466118335723877e-01
-1.433538272976875305e-02
-8.192322850227355957e-01
-5.610380768775939941e-01
-5.678137540817260742e-01
-4.274170398712158203e-01
-2.196826413273811340e-02
-7.110445201396942139e-02
-6.605393886566162109e-01
-2.465912550687789917e-01
-2.306499183177947998e-01
-4.794558882713317871e-01
-1.320705413818359375e-01
-2.565366029739379883e-01
-3.273190557956695557e-01
8.245892857416947663e-09
7.534632831811904907e-02
-1.697546094655990601e-01
-5.338772535324096680e-01
-2.076518833637237549e-01
-7.665030956268310547e-01
-7.683537602424621582e-01
-1.810049563646316528e-01
-9.779463708400726318e-02
-6.303974241018295288e-02
-1.470985561609268188e-01
-1.155612766742706299e-01
-1.533436030149459839e-01
1.098517850041389465e-01
-1.768162548542022705e-01
-3.486387729644775391e-01
-5.359935606463750446e-09
-9.772077947854995728e-02
1.573155522346496582e-01
-2.408510546558773058e-08
3.743284082702302840e-08
3.055942952632904053e-01
-4.498397558927536011e-02
-3.917629598504390742e-08
-2.174727598003300955e-08
-1.143976449966430664e-01
-2.110310643911361694e-01
-2.295617461204528809e-01
-1.083654314279556274e-01
-5.407788604497909546e-02
1.831967830657958984e-01
-8.235530555248260498e-02
-6.868628785014152527e-03
1.664123949751683540e-08
6.051542162895202637e-01
-2.858845293521881104e-01
-8.920494467020034790e-02
-2.722331881523132324e-02
-2.549068331718444824e-01
-3.909235894680023193e-01
3.128292560577392578e-01
-3.891783580183982849e-02
1.904744806324742967e-08
-1.564801335334777832e-01
-1.397845298051834106e-01
9.614268492441624403e-05
-2.783487737178802490e-01
-7.115459442138671875e-02
-3.065243065357208252e-01
-1.548852920532226562e-01
1.569215580821037292e-02
-2.848815917968750000e-01
-1.412610858678817749e-01
-5.721312761306762695e-01
-4.603004753589630127e-01
-4.169651493430137634e-02
-2.806826867163181305e-02
-3.787518441677093506e-01
-2.007763087749481201e-01
-2.044571191072463989e-01
-3.311697840690612793e-01
9.431771002709865570e-03
3.632653715612832457e-06
-2.464240640401840210e-01
4.761274041698015935e-08
7.849756628274917603e-02
-1.676150411367416382e-01
-2.072866410017013550e-01
-1.521347463130950928e-01
-2.099317163228988647e-01
-1.767721027135848999e-01
7.473683357238769531e-02
9.864836931228637695e-02
-1.705245226621627808e-01
-5.038835108280181885e-02
1.744131594896316528e-01
-1.440020501613616943e-01
9.945049136877059937e-02
-2.996576577425003052e-02
4.208321124315261841e-02
2.970224432647228241e-02
2.553564496338367462e-03
1.022589355707168579e-01
-2.808587998151779175e-02
-1.479384838603436947e-03
-1.316075623035430908e-01
-3.238324308767914772e-03
1.156270597130060196e-02
-2.072436327580362558e-04
-2.307316847145557404e-02
4.323515668511390686e-02
-2.070489339530467987e-02
1.081907190382480621e-02
4.870975390076637268e-02
7.430559489876031876e-03
2.350571006536483765e-02
-2.623164467513561249e-02
-2.274329308420419693e-03
4.509383812546730042e-02
5.263545364141464233e-02
-6.531109660863876343e-02
-3.819073364138603210e-02
8.065900765359401703e-03
-7.676000241190195084e-03
1.310800909996032715e-01
1.402300223708152771e-02
3.258574579376727343e-04
-1.358582228422164917e-01
4.814653471112251282e-02
-1.259853132069110870e-02
3.140193223953247070e-02
-8.727569878101348877e-02
-4.079280048608779907e-02
-5.147830583155155182e-03
3.460831940174102783e-02
-3.827469050884246826e-02
-4.926326870918273926e-02
-1.152037605643272400e-01
-1.941257528960704803e-02
-1.038569286465644836e-01
1.007005050778388977e-01
7.580395042896270752e-02
-4.697685688734054565e-02
-9.234502911567687988e-02
-3.248970583081245422e-02
-3.271852061152458191e-02
-4.192741587758064270e-02
3.477677330374717712e-02
2.233591489493846893e-02
1.715700477361679077e-01
-5.317607149481773376e-02
4.455071687698364258e-02
-1.514931209385395050e-04
1.113130990415811539e-02
6.732051819562911987e-02
-2.496066093444824219e-01
-1.047195717692375183e-01
4.852090030908584595e-02
-1.422906368970870972e-01
-6.273113936185836792e-02
-1.345732063055038452e-01
-1.233242750167846680e-01
-2.980150580406188965e-01
-3.300439715385437012e-01
1.903156920946003083e-08
-2.357398010133238131e-08
-4.015402868390083313e-02
1.511002523102433770e-08
3.917480029258513241e-08
-1.463235914707183838e-01
-2.003104388713836670e-01
-4.395558312535285950e-02
-9.262540068277758110e-09
-1.499993056058883667e-01
-1.572120487689971924e-01
-4.356163740158081055e-01
1.068074766408244614e-07
5.535915548193770519e-08
7.658185809850692749e-02
-5.526473856320990308e-08
-9.875770658254623413e-02
-3.391035008348808333e-08
3.332109376788139343e-02
-4.864210188388824463e-01
-1.048937253654003143e-02
-6.462999468936914127e-09
-4.420787990093231201e-01
1.761243620421737432e-04
1.838647760450839996e-03
-7.274543493986129761e-02
2.032594537126897194e-09
-1.694885790348052979e-01
-5.812552943825721741e-02
2.270286131533794105e-05
-1.620973795652389526e-01
-5.196912056248947920e-08
-1.337495297193527222e-01
-1.861400008201599121e-01
9.035297483205795288e-02
-1.727142557501792908e-02
-1.313227415084838867e-01
-4.441026151180267334e-01
-3.731485903263092041e-01
1.326204184442758560e-02
-1.670180121436715126e-03
-3.126404044451192021e-05
-3.859635591506958008e-01
-4.592216312885284424e-01
-4.308754503726959229e-01
-4.146655797958374023e-01
2.777144572974066250e-06
-2.334586977958679199e-01
8.276997753853265749e-09
-2.180878072977066040e-02
-4.950930178165435791e-02
-2.549178004264831543e-01
-5.219795107841491699e-01
4.430616172612644732e-05
-2.401296794414520264e-01
