-7.603941857814788818e-02
2.299211453646421432e-03
-3.161624670028686523e-01
1.613044738769531250e-01
-1.443579792976379395e-01
-2.181021869182586670e-01
-6.121308793183288799e-09
-4.897256195545196533e-01
-2.578533589839935303e-01
-1.268985681235790253e-02
3.203850984573364258e-02
-2.785228751599788666e-02
7.681420356675516814e-06
3.107306919991970062e-02
-4.046844542026519775e-01
-1.321861464731455271e-08
-5.484648421406745911e-02
-7.607066072523593903e-03
-1.519730836153030396e-01
-7.491974818307767237e-10
5.411437246948480606e-03
-2.377330511808395386e-01
-1.760835759341716766e-02
4.477570950984954834e-02
-2.911839187145233154e-01
-2.406035317108035088e-03
-2.800661325454711914e-01
3.515487536787986755e-02
-1.984390467405319214e-01
-4.964452385902404785e-01
5.324928679328877479e-06
6.564185023307800293e-03
-4.761298894882202148e-01
-3.468073308467864990e-01
1.808375941436679568e-06
-1.051877811551094055e-01
-8.374488353729248047e-02
-3.381501734256744385e-01
2.492370840627700090e-04
1.143443137407302856e-01
2.247588150203227997e-02
1.349622107227332890e-05
-5.177592039108276367e-01
-4.031983613967895508e-01
2.891319163609296083e-04
-5.219485759735107422e-01
-1.820945739746093750e-01
4.021275043487548828e-02
-1.901120327829630696e-08
8.739335462450981140e-03
-3.234048362443786573e-09
-1.514970193738918169e-08
-2.629253454506397247e-02
4.420674964785575867e-02
1.775372993506607600e-06
6.155984592624008656e-04
-6.256745788135731345e-09
3.529455512762069702e-03
4.077538033016026020e-04
5.960807576775550842e-02
3.308250335976481438e-03
1.099255023291334510e-04
1.382800936698913574e-01
3.811782889329151658e-09
-7.729671150445938110e-02
2.663414925336837769e-03
-2.216397225856781006e-01
1.110005453228950500e-01
-5.816053971648216248e-02
-1.749722212553024292e-01
8.192951206353882299e-09
-2.828748524188995361e-01
-2.937176823616027832e-01
4.684974919655360281e-05
8.423170447349548340e-02
8.151250658556818962e-04
9.986279110307805240e-06
4.006547480821609497e-02
-1.571424752473831177e-01
2.753799410726287533e-10
-6.346385180950164795e-02
-3.682364523410797119e-02
-1.043634042143821716e-01
-5.548910220198877141e-09
-8.119726553559303284e-03
-9.178940951824188232e-02
4.084011539816856384e-03
5.670007690787315369e-02
-1.590607613325119019e-01
1.541305449791252613e-03
-2.690039277076721191e-01
3.777584061026573181e-02
-1.382947620004415512e-02
-2.795556783676147461e-01
1.678436456131748855e-05
2.526832930743694305e-02
-1.828809082508087158e-01
-3.622027337551116943e-01
5.239357960817869753e-07
2.091206144541501999e-03
-8.372471481561660767e-02
-2.676088809967041016e-01
8.723223581910133362e-04
4.249059259891510010e-01
7.340276241302490234e-02
2.021645923377946019e-05
-2.924283444881439209e-01
-2.290556728839874268e-01
3.507629444357007742e-04
-1.628419905900955200e-01
-5.722502991557121277e-02
-2.028951793909072876e-02
-5.985879014680506316e-10
4.568746313452720642e-02
1.607010524651286687e-09
-1.088879986177460069e-09
1.062768860720098019e-03
5.725623294711112976e-02
9.422848961548879743e-06
3.259032499045133591e-03
-7.926230338739514991e-09
8.843488059937953949e-03
4.117473959922790527e-03
1.258528381586074829e-01
2.752533415332436562e-03
6.322825211100280285e-04
7.377106696367263794e-02
1.682993744367422551e-09
6.887325644493103027e-02
-1.868148334324359894e-02
4.416596144437789917e-02
-9.999581426382064819e-02
-1.001322492957115173e-01
1.385195297189056873e-03
8.061533444561064243e-04
4.033305123448371887e-02
5.515296384692192078e-02
1.291931723244488239e-03
2.981947176158428192e-02
4.621973633766174316e-02
-1.966435089707374573e-02
1.328963786363601685e-02
4.147151485085487366e-02
-6.012600287795066833e-02
-1.063790842890739441e-01
-4.667789116501808167e-02
6.281917542219161987e-02
-7.738470594631507993e-05
1.435834020376205444e-01
2.677131630480289459e-02
-1.556886639446020126e-02
1.566305756568908691e-01
2.189945802092552185e-02
1.950887031853199005e-02
-1.797549985349178314e-02
1.433844268321990967e-01
-5.346010904759168625e-03
1.524043269455432892e-02
-5.671155638992786407e-03
-3.181561455130577087e-02
-2.887814864516258240e-02
-1.455978155136108398e-01
1.062549371272325516e-02
7.833588123321533203e-02
-1.023984551429748535e-01
-6.294101011008024216e-03
-2.938236109912395477e-02
-3.753579780459403992e-02
-8.731396868824958801e-03
-8.841087110340595245e-03
4.636332765221595764e-02
7.326665334403514862e-03
-3.950040414929389954e-02
4.015083238482475281e-02
-6.375377625226974487e-02
2.216377407312393188e-01
1.491884002462029457e-03
-5.993894115090370178e-02
1.544513215776532888e-04
-4.932492636555707577e-09
1.849032565951347351e-02
-1.026543304324150085e-01
-1.650384068489074707e-02
2.378855086863040924e-02
-4.379209596663713455e-03
-7.409574091434478760e-02
3.181511908769607544e-02
-1.118746325373649597e-01
-1.856676675379276276e-02
5.373133718967437744e-02
2.039467915892601013e-02
3.934307102326783934e-08
-7.427778095006942749e-02
1.460742641938850284e-04
-2.385062575340270996e-01
-8.091142773628234863e-02
-1.422450691461563110e-01
-2.103843241930007935e-01
3.729283193365517945e-08
-2.273899968713521957e-03
-2.758487164974212646e-01
2.972247602883726358e-05
8.459165692329406738e-02
2.965484745800495148e-04
2.452271019137697294e-06
1.161444839090108871e-02
-4.948662966489791870e-02
2.569384172090849461e-08
-3.252830803394317627e-01
-1.219290345907211304e-01
9.033262031152844429e-04
-9.747112450497752434e-09
-5.550450459122657776e-02
-1.434290552992933954e-08
-7.165987044572830200e-02
-1.918608993291854858e-01
1.005819719284772873e-02
3.851098008453845978e-04
-6.496813893318176270e-02
-2.540714740753173828e-01
6.083747621232760139e-07
2.087085507810115814e-02
3.534047365860715217e-08
2.270486578345298767e-02
-8.531972998753190041e-04
-4.124602768570184708e-03
-6.133777219474723097e-08
-2.904315851628780365e-02
-1.097513288259506226e-01
2.192221436416730285e-04
1.281142613152042031e-04
1.121783703565597534e-01
2.615590579807758331e-03
9.278792276745662093e-06
-1.794596910476684570e-01
-1.739786565303802490e-01
1.283659512409940362e-04
8.586545300204306841e-05
-2.609609961509704590e-01
-1.248079612851142883e-01
-2.173825031093201687e-08
-1.783053427934646606e-01
1.883971423310981663e-09
1.082493472637224841e-08
1.440656953491270542e-03
-2.582441866397857666e-01
-5.940720271269128716e-08
4.433428402990102768e-04
2.838548240902127873e-08
2.586008794605731964e-02
4.622465348802506924e-04
6.931775063276290894e-02
1.095177358365617692e-04
3.642263254732824862e-05
-7.913694530725479126e-02
-1.390244186438849283e-08
