6.011230871081352234e-02,-9.582530037732794881e-05,-2.015795260667800903e-01,-1.058064750395715237e-03,-3.813489526510238647e-02,1.061176043003797531e-02,-6.816941677811882982e-09,2.657522261142730713e-01,8.302517980337142944e-02,-9.304773062467575073e-03,-5.034069658904627431e-07,-1.721035316586494446e-02,-3.207096881396864774e-07,-3.318265546113252640e-03,-9.612649679183959961e-03,5.095032247481867671e-05,8.092392981052398682e-02,-1.407990604639053345e-02,-1.590837538242340088e-01,-6.856231138385737722e-10,-3.137212246656417847e-02,1.387822180986404419e-01,1.170392781496047974e-01,-1.919305697083473206e-02,-2.139817029237747192e-01,2.173072658479213715e-03,1.351543962955474854e-01,-1.415028702467679977e-03,6.424863636493682861e-02,2.048503607511520386e-01,-1.315501984208822250e-02,-1.008125254884362221e-03,-3.548618406057357788e-02,-6.563349813222885132e-02,7.451028068317100406e-05,-2.975556440651416779e-02,-9.017845243215560913e-02,9.743860363960266113e-02,-1.281831064261496067e-03,3.447038233280181885e-01,-2.414659969508647919e-02,-3.073134166697855107e-06,8.177752792835235596e-02,-1.361259352415800095e-02,-4.856647501583211124e-05,2.027742378413677216e-02,2.723076939582824707e-01,9.066002815961837769e-02,1.011299701758616720e-07,9.175381809473037720e-02,-7.791795653133704036e-09,1.544229100147731515e-08,-1.867613568902015686e-02,2.419933862984180450e-02,-2.070396905764937401e-03,-3.383758695463257027e-08,-2.887165173603989388e-08,4.006865993142127991e-02,-7.583163212984800339e-03,4.411686584353446960e-02,-3.627119804150424898e-05,1.349876401945948601e-03,2.152002751827239990e-01,1.026864815401040687e-08
3.740319343137343822e-08,2.653822939180372487e-08,5.199953800882894939e-09,1.518305703385181005e-09,-1.083326921502703044e-07,-1.622022294256453279e-09,3.330868025841482449e-08,4.750634374772744195e-08,9.089228842640295625e-05,2.213523409011486365e-08,9.934439049175125547e-08,-2.801835741195191076e-08,6.830548571201688901e-09,-2.870759407969103449e-09,-6.565819177239973214e-08,1.275586525295580032e-09,-1.803019777923964284e-08,-1.224781875919234153e-08,2.810550725484972645e-08,-2.411348987152450718e-08,4.302841460912532057e-08,-7.571164815090014599e-07,7.347436792315420462e-08,-7.518248457927256823e-05,3.037522589011132368e-08,-2.788851283241911005e-08,-1.964937723641924094e-08,1.580905859555059578e-07,2.600837767374741816e-08,-1.651379279792308807e-03,-1.355693335369778652e-08,1.623104139980569016e-08,8.597460521286848234e-08,4.923109736409969628e-05,-1.180093467390008755e-09,7.500192111820069840e-08,5.781755163525303942e-08,1.199631469717132859e-07,2.786612363081530930e-08,5.247057544011113350e-08,8.819937669102273503e-09,1.363788082464623130e-09,1.677561231190338731e-04,2.090367878793131240e-08,1.090529444525145664e-08,-2.830520262619984351e-09,2.989249381357694801e-08,-4.378265145987825235e-07,-3.464985454115776520e-08,-5.703702399273424817e-08,2.524669895365150296e-08,-2.526352044229795979e-11,-2.702773826968041249e-08,2.846488200702879112e-08,1.654945513962502446e-08,5.651327850131337982e-09,-1.621945067142860353e-08,-1.412343841877827799e-08,5.377237854986560706e-08,4.998048197535354120e-08,2.621708183880855358e-09,-1.394006066135489164e-08,-1.656155923512869776e-08,-1.715728181750364456e-08
2.571380436420440674e-01,-3.148478921502828598e-03,2.763633728027343750e-01,3.552321577444672585e-03,-1.199854090809822083e-01,-1.665765419602394104e-02,-7.987598138470275444e-08,3.011460602283477783e-01,-2.438294738531112671e-01,-8.131948299705982208e-03,-4.218126833438873291e-02,1.707173883914947510e-03,-6.727353669703006744e-03,-3.839238081127405167e-03,8.321263641119003296e-02,7.130914926528930664e-02,5.677718669176101685e-02,-2.268360853195190430e-01,1.882116198539733887e-01,4.522567209619410278e-08,1.977742463350296021e-01,7.767146825790405273e-02,6.136263534426689148e-02,1.810858696699142456e-01,-1.972656995058059692e-01,1.032670065760612488e-01,-1.671549230813980103e-01,3.095491789281368256e-02,-6.860079616308212280e-02,2.335339337587356567e-01,-9.062413126230239868e-03,5.273029208183288574e-02,-1.390440165996551514e-01,-1.283251345157623291e-01,4.219530150294303894e-03,2.625477127730846405e-02,7.902339100837707520e-02,-1.657210439443588257e-01,-6.515627726912498474e-03,1.594729721546173096e-01,2.528664842247962952e-02,-6.739399395883083344e-03,-4.031468927860260010e-01,-1.254906058311462402e-01,-1.329314708709716797e-02,-2.038525491952896118e-01,1.835592277348041534e-02,7.455080747604370117e-03,-2.112559798206348205e-07,4.361873492598533630e-02,-3.512187518595055735e-08,-5.237583255990330144e-09,6.076246127486228943e-02,-1.002604328095912933e-02,-1.213803887367248535e-02,1.184462197124958038e-02,2.260445944557432085e-05,-1.461372971534729004e-01,6.052311509847640991e-02,-7.149759680032730103e-02,-7.262406405061483383e-03,8.147727698087692261e-03,1.291102021932601929e-01,2.302505208717775531e-08
-1.036562025547027588e-01,2.126328472513705492e-04,-1.397801786661148071e-01,-1.909488141536712646e-01,-3.486467152833938599e-02,-4.137066900730133057e-01,-3.184990049476255081e-09,-1.507799625396728516e-01,1.596470735967159271e-02,1.188082993030548096e-02,-4.207390011288225651e-04,4.334235563874244690e-02,1.091535305022262037e-04,-1.536660455167293549e-02,-2.192475646734237671e-01,-1.315222471021115780e-04,-1.628206670284271240e-01,4.142137765884399414e-01,2.299769595265388489e-02,2.755042238788973918e-08,-5.159765947610139847e-03,2.425924321869388223e-04,2.576569914817810059e-01,-7.785687595605850220e-02,-1.253352016210556030e-01,-7.355917990207672119e-02,2.123689651489257812e-01,5.925771594047546387e-02,-1.126777939498424530e-02,-8.415840566158294678e-02,1.286742463707923889e-02,-6.380114704370498657e-02,-1.853862404823303223e-01,2.122927457094192505e-03,-2.133373200194910169e-04,-2.110549062490463257e-02,-3.394683003425598145e-01,1.739045381546020508e-01,3.770599723793566227e-04,-3.719584643840789795e-01,-8.836417691782116890e-05,2.203855838160961866e-04,6.311056017875671387e-02,9.390142560005187988e-02,5.314578447723761201e-05,1.345876306295394897e-01,-2.049075812101364136e-01,5.325335264205932617e-01,-1.862910867203027010e-04,1.292944699525833130e-01,1.337194390771401231e-07,-2.128395948375327862e-08,1.167561709880828857e-01,-5.673444271087646484e-02,2.144598984159529209e-04,-7.366344652837142348e-05,-2.626704542763036443e-07,-7.033023238182067871e-02,4.912068106932565570e-06,3.615749478340148926e-01,2.129007771145552397e-04,-3.170931595377624035e-04,2.357848733663558960e-01,-9.551872182100851205e-09
-1.110050752758979797e-01,-1.188411028124392033e-03,-8.579472452402114868e-02,-1.769391894340515137e-01,-3.477671649307012558e-03,3.419053182005882263e-02,4.256480679032392800e-08,1.711434125900268555e-01,7.102758437395095825e-02,1.036924310028553009e-02,-2.330789342522621155e-02,-4.715512041002511978e-03,-7.445781957358121872e-03,2.396583929657936096e-02,-5.514191463589668274e-02,2.845305971277412027e-06,7.340335100889205933e-02,3.071725368499755859e-01,-3.693529218435287476e-02,-2.388256703511615342e-08,6.713657057844102383e-05,-2.979529798030853271e-01,-1.506707631051540375e-02,-2.641768567264080048e-02,1.378346793353557587e-02,7.517133653163909912e-02,-2.788702295219991356e-05,2.206736616790294647e-02,7.926819846034049988e-03,-3.084639906883239746e-01,-1.452807988971471786e-02,5.633149412460625172e-04,2.263276427984237671e-01,-5.510185845196247101e-03,4.466220270842313766e-03,1.875977404415607452e-02,-1.389956939965486526e-02,-1.216230615973472595e-01,-7.144559640437364578e-04,8.297336287796497345e-03,4.914100747555494308e-03,-7.644030265510082245e-03,1.071636006236076355e-01,-5.173370614647865295e-02,-5.417349282652139664e-03,-3.597532585263252258e-02,1.362262219190597534e-01,-5.300670862197875977e-02,2.099300075997234671e-07,4.084577411413192749e-02,2.484637562361058372e-08,-2.505185037193768949e-08,6.591507792472839355e-02,-3.710017353296279907e-02,-2.563321404159069061e-02,2.884740242734551430e-03,5.461215479840575426e-08,-9.489969670539721847e-05,-1.949702709680423141e-04,6.148022785782814026e-02,-3.005344420671463013e-03,8.223799057304859161e-03,4.486292004585266113e-01,1.804743909872286167e-08
-8.394791185855865479e-02,6.711676542181521654e-05,1.274963915348052979e-01,1.863674521446228027e-01,-3.123126737773418427e-02,-1.523990184068679810e-01,-5.673926750660029938e-08,-1.956290304660797119e-01,1.154326833784580231e-03,-9.514714591205120087e-03,-4.202847927808761597e-02,1.772092469036579132e-02,-5.606889530440639646e-08,1.810871326597407460e-04,-2.407737672328948975e-01,3.125775605440139771e-02,-3.493816405534744263e-02,3.110575377941131592e-01,7.333517819643020630e-02,-2.643174212835219805e-08,-1.219981233589351177e-03,-1.213265657424926758e-01,8.252674341201782227e-02,-4.580042511224746704e-02,-1.812296956777572632e-01,6.120404694229364395e-03,-1.280942233279347420e-04,-6.880661845207214355e-02,1.110831499099731445e-01,-3.418006002902984619e-02,1.926623190229292959e-05,-3.934923559427261353e-02,-2.837760001420974731e-02,1.652548313140869141e-01,2.581396607581609715e-08,-7.529914844781160355e-03,-1.101219058036804199e-01,8.861914277076721191e-02,2.963928091048728675e-05,1.650880463421344757e-02,-8.322640322148799896e-03,-2.137017141023989097e-08,5.228807032108306885e-02,1.918927207589149475e-02,9.570974235373341799e-09,7.600660622119903564e-02,-5.303139798343181610e-03,-3.298406302928924561e-02,-4.523291519120675730e-09,1.015567872673273087e-02,-2.107782925975243415e-08,1.011232342307266663e-08,2.698994055390357971e-02,-1.893662102520465851e-02,-6.264032492708793143e-08,-4.311992142902454361e-06,1.504487423531486456e-09,-1.430136561393737793e-01,-2.795356791466474533e-03,5.693423748016357422e-02,6.478503200924023986e-05,-5.495223012985661626e-05,1.933319494128227234e-02,-3.333176845643492925e-09
-1.907613267349006492e-08,-2.415011834955294034e-08,-9.344383755660601310e-08,-1.133314686541098126e-08,-4.520608953839655442e-08,-8.730547840229974099e-09,8.791027461541034427e-09,-1.589279818858813087e-08,-1.064177190812642948e-08,5.323190066519600805e-08,-1.645502401004250714e-08,-7.635854615273274248e-09,1.835499752189662104e-08,-1.410200489715407457e-08,-1.643002178752794862e-08,-2.737865045787657436e-08,-7.945882174453799962e-09,-3.699253170452720951e-08,3.769286216481759766e-09,4.577616508072424040e-09,1.920345660266775667e-08,-1.910708924413029308e-08,-6.205827673966268776e-08,-8.405689477797295694e-09,5.310321515850091600e-09,8.161173958853851218e-09,1.472357702425597381e-08,-7.887601682909917145e-09,1.738980848209337182e-09,1.749486600033378636e-08,2.529211950985654767e-09,8.761765535325594101e-09,-8.286997754680669459e-09,-4.954776855470299779e-08,3.566994033477044468e-09,2.076494087788205434e-09,3.904556677980508539e-08,9.337072448545313819e-09,-3.379839741413093179e-09,-2.119392128463459812e-08,1.924121129093236959e-08,-9.777409992750563106e-09,-2.380240715638137772e-08,-1.031286700481359730e-08,8.980047816464775678e-09,6.154378340283983562e-09,-1.071166710886473084e-08,2.957113842683156690e-08,-7.560139181350677973e-09,-3.892837341368249326e-08,-2.585726965875778660e-09,-2.189166004029630130e-08,-3.673736426179630143e-09,-1.638708901907648396e-08,-3.262960746042153914e-08,8.863048961416097882e-09,-2.455877101681380736e-08,6.064536428596056794e-09,-4.876394044117660087e-08,-5.600643504521940486e-08,2.489328032595494733e-08,9.624620211923229363e-09,-3.379197721642412944e-08,1.067054711256787414e-08
-1.108395606279373169e-01,1.136047318577766418e-01,-1.110141202807426453e-01,-1.853649467229843140e-01,-2.937701940536499023e-01,-2.062878757715225220e-02,-1.993235573172569275e-02,1.290517952293157578e-02,-1.375540066510438919e-02,-1.579953730106353760e-02,-3.038987703621387482e-02,6.626906245946884155e-02,8.382625132799148560e-02,1.089456230401992798e-01,-1.252657920122146606e-01,-6.792876124382019043e-02,4.968355409801006317e-03,1.858294606208801270e-01,-2.043853700160980225e-01,3.055043151789504918e-08,-1.414999067783355713e-01,1.206146255135536194e-01,3.214330375194549561e-01,-4.101013392210006714e-02,1.081803231500089169e-03,2.590772509574890137e-01,1.374502480030059814e-01,2.101047784090042114e-01,4.967446923255920410e-01,-1.188412904739379883e-01,6.285051256418228149e-02,-3.800266385078430176e-01,-1.194287687540054321e-01,-2.190913632512092590e-02,-7.534350454807281494e-02,3.332328200340270996e-01,-3.197798132896423340e-01,1.380161568522453308e-02,1.146372780203819275e-01,1.266369968652725220e-01,1.470324099063873291e-01,8.867315202951431274e-02,4.230097830295562744e-01,-1.761922538280487061e-01,1.165416389703750610e-01,4.739452153444290161e-03,-3.881666436791419983e-02,-3.425044566392898560e-02,2.146864717360585928e-04,-3.836463764309883118e-02,-1.029281775117851794e-04,-1.857972442564914672e-08,1.711314357817173004e-02,-5.015932321548461914e-01,6.233008950948715210e-02,-9.804019331932067871e-02,7.241388410329818726e-02,-2.986053824424743652e-01,1.262146327644586563e-02,3.471826314926147461e-01,1.484908312559127808e-01,-9.060579538345336914e-02,1.976317465305328369e-01,-6.789720785604913544e-09
-2.925906181335449219e-01,-6.253366591408848763e-04,4.783128798007965088e-01,-1.626083254814147949e-02,-2.964129447937011719e-01,2.467237859964370728e-01,1.513152909637938137e-07,-1.109047308564186096e-01,2.124163508415222168e-01,2.718658447265625000e-01,-2.373167425394058228e-01,8.415203774347901344e-04,4.173584282398223877e-03,-5.458337254822254181e-03,9.369300305843353271e-02,-3.296193853020668030e-02,1.932706385850906372e-01,2.824243903160095215e-01,1.756756454706192017e-01,-8.517004346231260570e-08,-7.527676969766616821e-02,-4.669445455074310303e-01,-7.925625145435333252e-02,-4.963472113013267517e-02,5.252610445022583008e-01,2.340729087591171265e-01,-1.391755603253841400e-02,2.617783844470977783e-01,-1.613004058599472046e-01,-1.049008816480636597e-01,1.105385180562734604e-02,-1.912648044526576996e-02,2.849732935428619385e-01,-3.103095889091491699e-01,1.061559451045468450e-04,1.321795284748077393e-01,-1.254993230104446411e-01,-3.377007246017456055e-01,8.778511546552181244e-04,-6.522070616483688354e-02,2.066186219453811646e-01,-1.889683480840176344e-04,-2.459980398416519165e-01,1.442856639623641968e-01,-2.592152217403054237e-03,-4.370032548904418945e-01,-1.070561483502388000e-01,-3.410269618034362793e-01,-1.657509128563106060e-03,-3.058162890374660492e-02,1.966814597835764289e-04,-1.948450290001346730e-09,6.323825567960739136e-02,-1.876839250326156616e-01,7.691821083426475525e-03,-3.120223758742213249e-03,-6.816718922664222191e-08,1.639210879802703857e-01,2.497210807632654905e-04,3.738466203212738037e-01,7.976211607456207275e-03,2.934070944320410490e-04,1.200734302401542664e-01,-7.022350700935930945e-09
-3.819711764663225040e-06,3.356031541557058517e-08,8.291606791317462921e-03,-1.311790674662915990e-05,-4.204733762890100479e-03,-7.918420247733592987e-03,1.493341095226696780e-08,-1.860393676906824112e-03,-1.415171101689338684e-02,1.438201754353940487e-03,-4.238815163262188435e-04,1.108347260014852509e-05,2.028492573913354136e-08,-9.646925036577158608e-08,-1.186195760965347290e-02,-3.965716288689691282e-08,2.106562722474336624e-03,4.406712204217910767e-02,-4.088980203960090876e-04,-1.550077044498721079e-08,1.210022415598643875e-09,1.992232631891965866e-03,8.307275362312793732e-03,6.027171039022505283e-04,-5.529813934117555618e-03,4.637034726329147816e-04,-6.877792626619338989e-02,1.679163239896297455e-02,1.997283288801554590e-05,-9.228412806987762451e-02,-1.028130185432019061e-07,1.112143159843981266e-03,1.274682283401489258e-01,3.413147479295730591e-02,-8.630874681614386645e-09,2.417377254460006952e-04,4.985908046364784241e-02,3.385541203897446394e-04,-6.131272556331168744e-08,1.543326117098331451e-02,-6.718921475112438202e-03,3.890122357574909984e-08,-2.784351631999015808e-02,1.248932559974491596e-03,-8.621892533255959279e-08,-1.467022858560085297e-02,4.123316705226898193e-02,-1.257505733519792557e-02,-7.808800717157282634e-09,1.048661535605788231e-03,-9.207952622602988413e-09,5.677944336923701485e-09,1.125275250524282455e-02,-1.507577765733003616e-02,-1.182719167047707742e-08,4.105953621547087096e-08,7.083427178145029757e-09,-4.333784338086843491e-03,1.407362049121729797e-08,-4.197204858064651489e-02,3.816701976688818831e-08,7.617109787361187045e-08,-7.693079765886068344e-03,1.268001081911052097e-08
-1.691876910626888275e-02,-5.524206514451179828e-08,-8.944377303123474121e-02,9.703400428406894207e-04,5.045123398303985596e-03,6.998055141593795270e-06,-4.640013884227300878e-08,1.874572336673736572e-01,2.868631482124328613e-02,-6.107382688469442655e-08,-1.441155467182397842e-02,-1.504849507227845606e-07,-2.937438512162771076e-05,-4.990366753190755844e-03,1.003007143735885620e-01,-1.098393909160222393e-08,1.480484567582607269e-02,6.035415083169937134e-02,2.272454090416431427e-03,1.093550316966229730e-08,-1.449415503884665668e-05,-4.274580627679824829e-03,1.536486856639385223e-02,-2.002059668302536011e-02,-3.353673219680786133e-02,-8.841403177939355373e-05,-1.050653308629989624e-02,4.386553540825843811e-02,1.026267302222549915e-03,-1.380364876240491867e-02,3.012740279473291594e-09,-1.119470325647853315e-04,2.677067415788769722e-03,-1.300501674413681030e-01,2.086555032292380929e-04,-9.579606086163039436e-08,-2.721253596246242523e-02,3.778764221351593733e-04,3.265943249175506935e-08,1.562642157077789307e-01,2.630837947492636886e-08,-1.656956953866028925e-07,-9.640657901763916016e-02,9.953942149877548218e-02,-7.518283950957993511e-08,-3.721594065427780151e-02,5.332180857658386230e-02,6.076620426028966904e-03,-1.309748931532794813e-08,1.014414988458156586e-02,9.994732863560784608e-08,-1.998665677405142560e-10,4.367165733128786087e-03,-5.977178225293755531e-04,-2.807499258778989315e-04,9.284390500852168771e-08,-4.463075242711056489e-08,4.839057865524409863e-08,-6.099891720623418223e-07,-4.539838060736656189e-02,-1.785284694051370025e-04,1.207498172561827232e-07,3.926749154925346375e-02,3.069569043390174556e-09
-6.838407367467880249e-02,-1.108974032604237436e-07,2.152482047677040100e-02,6.568640470504760742e-02,-4.034269601106643677e-03,9.572417289018630981e-02,8.144889562800017302e-08,-1.156307663768529892e-02,-1.878891512751579285e-02,4.178527888143435121e-05,-5.781760439276695251e-03,-7.491121999919414520e-03,-6.151323361791583011e-08,3.761118250622530468e-06,-6.345856934785842896e-03,2.975380630232393742e-05,4.924627766013145447e-02,6.381004303693771362e-02,2.031242474913597107e-03,-5.706715544562257492e-09,-1.527212589280679822e-05,-1.396697293967008591e-02,1.046513486653566360e-02,-7.669135928153991699e-03,6.564411887666210532e-05,1.386261545121669769e-03,-6.073613464832305908e-02,-1.346591580659151077e-02,7.716393470764160156e-02,-7.237990200519561768e-02,-7.410720718326047063e-05,4.514190834015607834e-03,-3.311039134860038757e-02,1.408800575882196426e-02,1.091874219127930701e-04,6.810288876295089722e-03,-1.590708643198013306e-02,2.734669717028737068e-03,-1.081897025301259418e-07,1.372741311788558960e-01,2.754144603386521339e-03,2.029332923925153409e-09,6.767914444208145142e-02,-4.097709804773330688e-02,-9.193107786131804460e-08,9.086430509341880679e-05,3.283703327178955078e-02,-1.468024402856826782e-01,8.946393847963918233e-08,5.066282581537961960e-03,8.114410476878219924e-09,3.406645410208852809e-09,2.082076534861698747e-04,-1.268389634788036346e-03,-8.669681119499728084e-05,1.147361885500686185e-07,-1.199238965909898980e-07,-9.446771815419197083e-03,1.131080225036384945e-07,-1.573307963553816080e-04,-6.147793385480326833e-08,4.426588162687039585e-08,-4.575370997190475464e-02,1.612910693893354619e-08
3.761865841056533100e-08,1.756433931632273016e-08,4.480574489207356237e-08,-4.627683125590920099e-08,7.216716113589427550e-08,2.560959089237258013e-08,1.178967923287643771e-09,1.166418514912948012e-04,6.053925608284771442e-05,-4.516595453196714516e-08,-6.337882751950019156e-08,2.358912354338826844e-08,-2.189118575302018144e-08,-1.325247733774403969e-08,-3.081335762544767931e-06,-1.790094650289120182e-08,-2.117795361300522927e-08,1.294883134050905937e-08,1.898650303644444648e-08,6.030291821446098766e-09,8.963109365822674590e-08,7.736420570836344268e-08,4.586046742360849748e-08,-4.077006451552733779e-06,-5.282883108748137602e-08,7.150674719014205039e-09,-5.153201598773193837e-08,-1.719599822536110878e-07,1.706132621848155395e-07,-6.497357971966266632e-03,2.892656603137311322e-08,-4.430983935321819445e-08,4.029797651128319558e-08,2.554183265601750463e-05,-6.350302328428369947e-08,-1.455536278172075981e-07,6.380174909281777218e-06,1.603463601895782631e-07,1.368911473065281825e-08,5.074325670761936635e-08,1.064653076809918275e-08,9.717412430276795021e-10,7.532496965723112226e-05,-1.327176946119834611e-08,2.504470408837278228e-09,-1.667413940253936744e-08,1.910989908537885640e-07,4.895456129361264175e-08,-3.637391898791975109e-08,-1.606887956029368070e-08,-5.060739050044560372e-10,1.787825887333838182e-08,-7.433217774632794317e-08,9.700467096251941257e-09,-2.343406713123385998e-08,-7.367473298103277557e-09,-2.855173342197758757e-08,2.021598000112589943e-08,2.696368106569480005e-08,9.632642559154191986e-07,-1.476917077525286004e-08,-5.038887085362375728e-09,1.138063339567452203e-06,8.951803742718311696e-09
-7.568398723378777504e-05,-8.020354158588816063e-08,3.367650136351585388e-02,-8.936316706240177155e-03,-4.573704674839973450e-03,6.436477880924940109e-03,3.704734652387742244e-08,-3.389254957437515259e-02,-4.173274338245391846e-02,9.468999451200943440e-06,9.315924835391342640e-04,5.441248784876506761e-09,-8.827459652138713864e-08,-3.141615539789199829e-03,5.064901779405772686e-05,-3.541815019048044633e-08,-8.732880465686321259e-03,-1.207271143794059753e-01,4.255105182528495789e-02,5.757836429864937600e-09,-5.308173058438114822e-05,-4.169499967247247696e-03,1.530536828795447946e-04,-3.053790424019098282e-03,-5.295726656913757324e-02,8.378165774047374725e-03,-2.091442421078681946e-02,8.659658953547477722e-03,1.659801155328750610e-01,-4.546890780329704285e-02,-1.200042589744043653e-07,-1.652388600632548332e-03,9.092101245187222958e-04,-5.911099538207054138e-02,1.058733261061206576e-07,-1.086283646145602688e-06,9.823453426361083984e-02,2.279515378177165985e-02,-5.247816403652905137e-08,-1.431209892034530640e-01,-3.620815230533480644e-03,-4.909728801294477307e-08,1.270129978656768799e-01,-9.961528703570365906e-03,-1.185230118494473572e-07,-6.224719254532828927e-05,3.046208433806896210e-02,-6.619513779878616333e-02,-1.079752536270461860e-07,1.414971542544662952e-03,-4.285564614292525221e-08,-8.721854349857949273e-09,1.053124479949474335e-02,-4.030311480164527893e-02,-1.009515813166217413e-07,1.583663191695450223e-07,-5.443817130412753613e-08,-2.811572281643748283e-03,-5.711087283089000266e-07,1.521405577659606934e-01,-1.124188955259342038e-07,6.268948737897517276e-08,7.156978361308574677e-03,3.333222053925055661e-08
-7.559066638350486755e-03,-5.894610808354627807e-07,4.608256518840789795e-01,1.697348356246948242e-01,6.057894229888916016e-02,-2.803566455841064453e-01,2.277483446277983603e-08,-1.321696937084197998e-01,4.164687544107437134e-02,-3.826773911714553833e-02,-6.781911104917526245e-02,-1.471256371587514877e-03,-1.714907848509028554e-04,1.171264797449111938e-02,-2.884628176689147949e-01,9.167288080789148808e-04,-8.051843196153640747e-02,2.166913896799087524e-01,2.490927577018737793e-01,1.286282191870213865e-08,1.689498778432607651e-03,-8.438296616077423096e-02,9.295254945755004883e-02,-5.074700340628623962e-02,-1.484667067416012287e-03,3.058442659676074982e-02,1.857983916997909546e-01,-2.092273980379104614e-01,-1.167769171297550201e-02,9.275938570499420166e-02,-2.338111586868762970e-02,-1.829606853425502777e-02,-2.946084737777709961e-01,8.627279102802276611e-02,9.281220263801515102e-05,-1.930053695105016232e-03,-2.723778225481510162e-02,9.413937479257583618e-02,-3.413803642615675926e-04,-6.418487429618835449e-02,-3.793372958898544312e-02,-9.896086703520268202e-05,-5.230282545089721680e-01,1.833198666572570801e-01,-3.672507882583886385e-04,-7.826504111289978027e-02,9.617856144905090332e-02,-9.458275511860847473e-03,8.564925479959129007e-08,-1.503622257814640761e-07,5.974857231194619089e-08,2.290243727998131362e-08,-2.413920359686017036e-03,-3.590034903027117252e-04,-9.978115558624267578e-03,7.685961318202316761e-04,-1.191831273672505631e-07,-1.402594242244958878e-02,1.318374561378732324e-04,-2.777992980554699898e-03,-3.870661385008133948e-05,1.579408999532461166e-04,-2.335427850484848022e-01,-6.520389561615047569e-09
-7.067298923857379123e-08,1.881394062763774855e-08,-1.746238849591463804e-04,-7.423889201163547114e-06,4.948103378410451114e-05,-1.203236519359052181e-03,1.257273840593597924e-08,1.351535174762830138e-04,1.455465535400435328e-04,1.455308620279538445e-07,-5.682782955318543827e-08,4.574361511799907021e-08,-5.464927355092186190e-08,2.522014419525930862e-08,-1.501784287393093109e-02,9.569860992542089662e-08,-4.278564702531184594e-08,6.446853280067443848e-03,-7.948778220452368259e-04,1.105587177363531737e-09,-1.368403559354192112e-07,9.256769553758203983e-04,8.272483246400952339e-04,7.041541039143339731e-08,-1.008323952555656433e-02,6.095761051483350457e-08,8.100514300167560577e-03,-4.476630128920078278e-03,-7.917149957847868791e-08,-4.287174902856349945e-03,1.493261159168923768e-08,9.912285747759597143e-08,-2.122576162219047546e-02,1.950377598404884338e-02,1.133715343826224853e-09,-1.179836981464177370e-04,-9.612781926989555359e-03,5.358219645756889804e-09,2.216249939124281809e-08,-9.096527975316348602e-08,1.905448954175881227e-08,-1.506291802400028246e-08,3.861956531181931496e-03,-9.270110749639570713e-04,-1.237560098843459855e-08,-8.053655875528420438e-08,4.871443286538124084e-02,-9.120887511926412117e-08,-3.498018941172631457e-08,7.577182827844808344e-07,-2.241592866880637303e-08,-8.478906465825275518e-09,6.600925672728408244e-08,6.528983358293771744e-04,-1.709162056329205370e-08,2.546866717523244006e-08,4.726096847207372775e-08,-1.608343300176784396e-04,-6.434756016915343935e-08,2.080888953059911728e-03,-1.335103672062132318e-08,1.162434504209386432e-08,4.983686449122615159e-05,5.586454410178021135e-09
9.510826319456100464e-02,-2.677241340279579163e-02,-4.495603591203689575e-02,-1.302990913391113281e-01,-1.061488874256610870e-02,-8.640844374895095825e-02,1.063631731085479259e-03,2.701265923678874969e-02,-1.493469029664993286e-01,1.179121658205986023e-01,3.905169963836669922e-01,-1.025418490171432495e-01,-2.350019663572311401e-02,7.710525393486022949e-02,-6.139681488275527954e-02,5.978440400213003159e-03,-1.441717594861984253e-01,2.240671217441558838e-01,1.188060343265533447e-01,4.956773835829153541e-08,1.704976707696914673e-02,6.669005006551742554e-02,2.624728381633758545e-01,5.992543697357177734e-02,-5.347787216305732727e-02,-3.768471768125891685e-03,2.436974942684173584e-01,8.102006465196609497e-02,2.947975695133209229e-02,-4.324994981288909912e-02,-2.583439648151397705e-02,1.993769593536853790e-02,-1.392526831477880478e-02,1.791061162948608398e-01,1.693083345890045166e-02,1.321604941040277481e-02,2.798961699008941650e-01,1.596746891736984253e-01,-2.655356377363204956e-02,-1.072117760777473450e-01,-1.557053904980421066e-02,-2.596313506364822388e-02,1.981147378683090210e-01,1.020104512572288513e-01,-3.684565052390098572e-02,8.457312732934951782e-02,5.224344134330749512e-02,2.462084144353866577e-01,7.605697760482144076e-08,1.486522029154002666e-03,-3.970520978668901080e-08,-6.679648389962267174e-09,2.107948623597621918e-02,9.414843283593654633e-03,-2.641764096915721893e-02,2.054224908351898193e-02,-2.301963279023766518e-03,-9.034062176942825317e-02,-2.966356987599283457e-04,2.378476113080978394e-01,-3.450467810034751892e-02,2.144252881407737732e-02,1.230864003300666809e-01,-4.472063608318421757e-08
-1.437736898660659790e-01,1.631682721381366719e-06,-4.260407388210296631e-02,-1.379451304674148560e-01,-8.616555482149124146e-02,1.133863702416419983e-01,-1.855256527960591484e-06,-6.889111548662185669e-02,3.849070072174072266e-01,3.807423263788223267e-02,1.425368934869766235e-01,-3.023250773549079895e-02,2.355393553443718702e-05,8.388267457485198975e-02,1.245316863059997559e-02,7.192033226601779461e-04,4.024721980094909668e-01,7.059798372210934758e-05,1.142445579171180725e-01,2.519468544903702423e-08,-2.027188241481781006e-02,-4.531369730830192566e-02,-4.916035234928131104e-01,-6.546268612146377563e-02,2.026151567697525024e-01,1.375157851725816727e-02,-2.669897973537445068e-01,1.258464157581329346e-01,1.168239396065473557e-03,-1.012574881315231323e-01,1.674896338954567909e-06,-3.896633908152580261e-02,2.489309161901473999e-01,-3.161605298519134521e-01,-9.783972927834838629e-06,5.796622019261121750e-03,8.383214473724365234e-02,3.720992058515548706e-02,6.255089033402327914e-07,1.142989844083786011e-01,1.397717744112014771e-01,5.268689164950046688e-07,1.324453353881835938e-01,9.842513501644134521e-02,9.770068345460458659e-07,1.081024929881095886e-01,-1.156695857644081116e-01,-9.197115898132324219e-02,1.988950883969664574e-03,-5.158523563295602798e-04,8.016799313281808281e-08,-2.846168456471787067e-08,2.160176169127225876e-03,1.395343542098999023e-01,1.834114482335280627e-05,-1.211662038258509710e-06,4.381786129670217633e-05,1.247916929423809052e-02,3.109645284712314606e-02,-2.553724050521850586e-01,2.013182267546653748e-03,-6.048096565791638568e-06,7.167915254831314087e-02,5.521837209698787774e-09
1.876232624053955078e-01,-5.194947589188814163e-03,1.972081661224365234e-01,-1.074451301246881485e-02,3.579240292310714722e-02,-9.701170027256011963e-03,7.344517882756917970e-08,2.435729652643203735e-01,-1.177460923790931702e-01,-3.081129863858222961e-02,-1.515606045722961426e-01,1.532271380710881203e-05,-2.090266160666942596e-02,-1.220542751252651215e-02,8.885142207145690918e-02,3.383670264156535268e-05,1.668421924114227295e-01,-1.044979580910876393e-05,1.675418019294738770e-02,-1.280611794385322355e-08,2.689778059720993042e-02,8.106686174869537354e-02,7.995329797267913818e-02,-6.270780431805178523e-05,-2.699533998966217041e-01,-1.715593738481402397e-03,-1.629603803157806396e-01,-3.748831804841756821e-03,-1.148119196295738220e-02,1.305104792118072510e-01,-5.015433300286531448e-03,6.466249376535415649e-02,-2.096815267577767372e-03,-2.259618788957595825e-01,1.336302887648344040e-02,-2.279623784124851227e-02,3.652870189398527145e-03,-2.505932152271270752e-01,-2.164181321859359741e-03,1.197847500443458557e-01,-3.080873517319560051e-03,-1.148360315710306168e-02,-2.982282936573028564e-01,-5.584705621004104614e-02,-2.719528274610638618e-03,-5.074419081211090088e-02,-1.899318583309650421e-02,1.002281308174133301e-01,-1.557755604153499007e-04,7.755258679389953613e-02,3.128694459064718103e-08,-2.365238849222350836e-08,3.533052280545234680e-02,1.866926625370979309e-02,-2.909616008400917053e-02,5.970380734652280807e-03,-4.788667240518407198e-08,-3.531882073730230331e-03,2.568434923887252808e-02,-1.146273221820592880e-02,-2.200925908982753754e-02,7.042265962809324265e-03,8.184345811605453491e-02,1.018194772939295945e-08
-8.494037473383286851e-09,-3.419352800904107426e-09,-1.826983897501577303e-09,1.085687362234466491e-08,3.718181318390634260e-10,-7.047121997061367438e-09,-9.558592140024302353e-09,2.204863491783726204e-08,-1.268815719157601052e-08,-9.806758960451134044e-09,6.196315904816174225e-09,-2.131215381950823939e-08,-8.778705762324534589e-09,7.537157564740937232e-09,5.621491272478351675e-09,-1.942405702948235557e-08,-7.774575649932558008e-09,-6.702848942552463996e-09,-6.878648761698968883e-09,7.303356586163545217e-09,4.122456154220799363e-09,-2.366399343145531020e-08,2.321366210367159510e-08,-1.288225170981149859e-08,-1.088974332930092714e-08,-2.776743279753191018e-09,-4.958559340906276702e-09,-6.362717019925412387e-09,1.417401129799600312e-08,-5.797383906269715226e-09,1.838128760311974474e-08,1.008071759400763767e-08,-2.886249816924646439e-08,9.302417502965454332e-09,1.714701625132875051e-08,2.137706189841992455e-08,-8.502134996035692893e-09,-1.070614707998629456e-08,-6.488465764675765968e-09,-4.242811435517523933e-09,-7.389154621506577314e-09,7.730828421870228340e-09,-4.486365945410852873e-09,-1.284614459251542939e-08,8.080366598051114124e-09,2.722733816185041178e-09,3.335630793799282401e-08,9.358021024752360972e-09,2.286150468933101365e-08,4.153589827637915732e-08,2.410847743661292952e-09,-2.099350027151558606e-08,-1.101531044156445205e-08,-2.182166802811025264e-08,6.733539947845201823e-09,1.999724164036820184e-09,1.860220599780859629e-08,-1.598816723458185152e-08,1.024350115841343722e-08,-1.838169438883596740e-08,-1.915598346613478498e-09,-1.326992071781774030e-09,-8.309267052197810699e-09,5.079991094447677824e-09
1.066945027559995651e-03,-5.940973224483059312e-08,-3.940041363239288330e-02,-3.655955567955970764e-02,-8.926116279326379299e-04,-2.506211458239704370e-04,-1.928544968166079343e-08,-1.677196845412254333e-02,-1.659961938858032227e-01,6.125547315605217591e-06,2.432693872833624482e-04,5.838397498791891849e-08,-5.523846269284149457e-08,3.778134214371675625e-06,-1.098191831260919571e-02,2.542703114727373759e-08,-2.389364817645400763e-04,-3.299348463770002127e-05,2.021501899207578390e-08,4.002318920726111173e-09,1.470820194526822888e-07,-8.471746696159243584e-04,4.413225906318984926e-05,-4.023561778012663126e-04,-1.871856302022933960e-02,6.249604211916448548e-08,-6.068818271160125732e-03,-1.358950612484477460e-05,1.291275930270785466e-05,-4.074796661734580994e-02,-3.400210601967046387e-08,2.319868326594587415e-05,4.294262826442718506e-02,-1.510354578495025635e-01,4.954058496764446318e-08,-6.244438554858788848e-05,1.036223117262125015e-02,-1.050218634190969169e-05,-1.482142231168381841e-08,6.166773289442062378e-02,3.918079983122879639e-06,1.539770444480836886e-08,7.522776722908020020e-02,-2.830898948013782501e-02,-4.921245277955677011e-08,-2.963468796224333346e-05,8.397757075726985931e-03,4.241066926624625921e-05,-4.176213863615885202e-08,-3.512350303935818374e-05,-9.917038745754780393e-09,1.118958703472117122e-09,-7.408693392108034459e-08,-6.749344720446970314e-06,-1.570414553953014547e-08,-5.025661664603831014e-09,-6.824762976975762285e-08,-3.693273527005658252e-07,6.151836373646801803e-09,1.046918798238039017e-02,-8.214130531314367545e-08,-2.142683896977359836e-08,1.995474696159362793e-01,-6.356550841246644268e-09
4.528390418272465467e-04,-6.807392928749322891e-03,-7.917803525924682617e-02,-1.817964576184749603e-02,8.928557857871055603e-03,2.536613047122955322e-01,4.600403613608250453e-08,6.796532869338989258e-02,-2.474866658449172974e-01,-5.872048437595367432e-02,1.505423337221145630e-03,2.777348272502422333e-03,-7.821063511073589325e-03,8.625107817351818085e-03,-1.397088915109634399e-02,1.203231513500213623e-02,-7.399705797433853149e-02,-9.871347993612289429e-02,-1.066417247056961060e-01,-3.385201452488217910e-08,1.000257208943367004e-02,-1.636355929076671600e-02,1.260092556476593018e-01,-8.825127035379409790e-02,-4.553733021020889282e-02,-3.490462666377425194e-03,2.583020627498626709e-01,9.868953377008438110e-02,3.579811751842498779e-01,-3.497724235057830811e-01,1.425111264552469947e-07,-1.870077401399612427e-01,4.366852715611457825e-02,9.244442731142044067e-02,7.250095717608928680e-03,-2.906193397939205170e-02,4.816688969731330872e-02,-6.461963057518005371e-02,-3.096563275903463364e-03,3.822054266929626465e-01,-9.874712675809860229e-03,-8.553594234399497509e-04,6.853140890598297119e-02,-1.978174000978469849e-01,-4.843673668801784515e-03,2.791807614266872406e-02,5.145671963691711426e-01,2.906594611704349518e-02,8.088815839357721416e-09,6.179367005825042725e-02,-4.635997896684784791e-08,6.415412645566220817e-09,1.914750412106513977e-02,-5.999773740768432617e-03,-1.144122611731290817e-02,1.809843070805072784e-02,-7.261748425662517548e-03,-8.832120336592197418e-03,7.049006671877577901e-05,1.095714606344699860e-02,-2.558742277324199677e-02,2.282106084749102592e-03,3.020438598468899727e-04,4.344643755871402391e-09
4.449828714132308960e-02,-5.341073265299201012e-04,-9.935219585895538330e-02,-7.600505650043487549e-02,-2.161116339266300201e-03,2.504226565361022949e-02,4.228174657328054309e-05,-1.139878258109092712e-01,-6.199622154235839844e-01,-1.296714227646589279e-02,-1.059525273740291595e-02,3.241962194442749023e-02,-9.693529456853866577e-03,2.685416489839553833e-02,6.642294675111770630e-02,1.086106244474649429e-02,-2.623115479946136475e-01,-2.707448005676269531e-01,-4.795779287815093994e-02,-1.147482322494397522e-07,8.543741889297962189e-03,-4.640214145183563232e-02,6.111230328679084778e-02,7.805421203374862671e-02,-6.029984951019287109e-01,6.540109217166900635e-02,7.604186981916427612e-02,3.700989484786987305e-02,1.458188444375991821e-01,-5.446455255150794983e-02,2.572967787273228168e-05,-1.466357856988906860e-01,-2.389913052320480347e-02,1.153361797332763672e-01,2.498334040865302086e-03,1.603218726813793182e-02,-1.036982401274144650e-03,8.026447147130966187e-02,-2.289586700499057770e-03,-3.674571216106414795e-01,-8.258200436830520630e-02,-5.059916991740465164e-03,2.638956606388092041e-01,-3.511671349406242371e-02,-1.020900998264551163e-02,4.969821870326995850e-02,4.053360521793365479e-01,7.049757987260818481e-02,-1.302736450270458590e-06,2.297651395201683044e-02,1.623807435180424363e-07,2.241886853937558044e-08,9.845498949289321899e-02,-8.308251202106475830e-02,-7.910982705652713776e-03,1.723268814384937286e-02,-8.673798583913594484e-05,-1.100645884871482849e-01,8.408984169363975525e-03,1.289719939231872559e-01,-9.689606726169586182e-03,3.076743334531784058e-03,1.500499248504638672e-01,1.658812642801876791e-08
-1.097467318177223206e-01,1.077014246675389586e-07,3.757033869624137878e-02,-2.926684021949768066e-01,5.767672881484031677e-02,1.827896982431411743e-01,-1.480882971804931003e-08,3.878938034176826477e-02,8.977438509464263916e-02,7.519909739494323730e-02,-4.326136782765388489e-02,-2.204117190558463335e-04,3.886479680659249425e-05,7.287391275167465210e-02,-1.082843318581581116e-01,1.626521407160907984e-05,3.219386562705039978e-02,1.935657262802124023e-01,1.615320518612861633e-02,-1.199463550705104353e-08,-3.086249902844429016e-02,-1.559647265821695328e-02,8.719733357429504395e-02,-1.767571419477462769e-01,-1.746536493301391602e-01,7.973275496624410152e-04,3.284779563546180725e-02,-2.066203951835632324e-01,4.664861857891082764e-01,-9.375977516174316406e-02,1.678876469668466598e-05,-5.559314042329788208e-02,1.350538879632949829e-01,-2.672409415245056152e-01,-3.263649705331772566e-05,-1.195584991364739835e-04,-1.208215504884719849e-01,-3.612928465008735657e-02,1.113404977104437421e-07,1.368653625249862671e-01,2.491965517401695251e-02,3.307116230644169264e-06,2.227223813533782959e-01,-1.644641458988189697e-01,-5.598420926844482892e-08,2.016201429069042206e-02,1.365429908037185669e-01,-3.918167948722839355e-02,-3.539826565202019992e-08,-9.335156530141830444e-03,-2.283969102734317858e-08,1.101675817238856325e-08,-1.758990692906081676e-03,-1.884470926597714424e-03,1.165725698228925467e-04,3.450605490229463612e-08,3.846505933324806392e-06,-6.873256061226129532e-03,4.431995563209056854e-03,1.218930073082447052e-02,1.209341098729055375e-05,-2.933822145223530242e-07,4.773630201816558838e-01,4.333213343699071629e-09
-2.042588032782077789e-02,-1.330562867224216461e-02,-3.459951654076576233e-02,-4.488513767719268799e-01,-3.035529553890228271e-01,-4.773239195346832275e-01,1.186918325402075425e-05,1.214366685599088669e-02,2.069648355245590210e-01,6.886219233274459839e-02,7.490762323141098022e-02,-7.971143350005149841e-03,-1.857651025056838989e-02,-1.397399231791496277e-02,-1.439098268747329712e-01,1.980273984372615814e-03,-8.153110742568969727e-03,1.008484587073326111e-01,-5.747705698013305664e-02,-1.119413006733793736e-08,-8.308638818562030792e-03,-4.568543517962098122e-04,2.046314775943756104e-01,-6.142593920230865479e-03,2.652209252119064331e-03,6.747905910015106201e-02,3.869062364101409912e-01,5.800253525376319885e-02,3.416062390897423029e-04,-2.141723781824111938e-01,-1.308866217732429504e-02,1.502638123929500580e-02,-1.798307746648788452e-01,-1.141150295734405518e-01,1.575819402933120728e-02,6.926873326301574707e-02,-2.795094549655914307e-01,1.217906922101974487e-02,-1.411884929984807968e-02,-2.644286155700683594e-01,-8.179008960723876953e-02,-1.204261928796768188e-02,1.171557139605283737e-02,3.550588488578796387e-01,-2.141874283552169800e-02,-6.251635402441024780e-02,-5.545265674591064453e-01,-2.052898705005645752e-01,-1.993786916136741638e-02,-2.206223160028457642e-01,6.313362632681673858e-08,-1.375769898004364222e-08,1.159970015287399292e-01,-7.623511552810668945e-02,-1.815090514719486237e-02,2.567582204937934875e-02,-7.504641078412532806e-03,-2.804234325885772705e-01,-3.501194529235363007e-03,-3.830462098121643066e-01,-1.921506039798259735e-02,1.029465626925230026e-02,8.025245070457458496e-01,3.678357529679487925e-08
1.158088166266679764e-02,6.448881606502254726e-08,-8.654786646366119385e-02,-1.657171733677387238e-02,-3.307472914457321167e-02,3.073853254318237305e-02,-8.437920229198425659e-08,-3.037446178495883942e-02,1.281194686889648438e-01,-1.829024768085218966e-06,6.003718078136444092e-02,2.329885319340974092e-04,8.221921810047660983e-09,1.253380440175533295e-02,-2.120618708431720734e-02,1.233735105188316084e-07,-1.663811206817626953e-01,-1.223144680261611938e-01,-1.996559649705886841e-02,-4.943676135127361704e-09,-7.487792056053876877e-03,-6.778299808502197266e-02,-5.077188252471387386e-04,9.300325997173786163e-03,1.803871802985668182e-02,3.821054100990295410e-02,3.785092011094093323e-02,-1.116742379963397980e-02,2.253151498734951019e-03,-1.396187543869018555e-01,5.782484731753356755e-05,-2.112660557031631470e-03,1.414253264665603638e-01,-1.155593665316700935e-03,-1.529892585949710337e-07,2.783092902973294258e-03,-5.224759504199028015e-02,9.904031176120042801e-04,6.903366767119223368e-08,-1.687962375581264496e-02,-3.191630914807319641e-02,1.413924621829210082e-07,1.100610494613647461e-01,-8.294592797756195068e-02,3.356166899948220816e-08,-7.340670563280582428e-04,3.396070376038551331e-02,-6.634163856506347656e-02,3.648311519555136329e-08,-7.505799084901809692e-02,3.254213609693579201e-08,-2.907208473956757189e-09,2.172343432903289795e-02,-2.151243947446346283e-02,5.641935558742261492e-07,-9.329197858676252508e-09,3.322654862358831451e-08,3.518463578075170517e-03,-3.065025111936847679e-06,-6.050627678632736206e-02,9.560770308780774940e-08,-7.199230367405107245e-08,3.875139057636260986e-01,-8.157866382418887952e-09
-1.333882510662078857e-01,2.542159892618656158e-02,6.912745237350463867e-01,5.773241519927978516e-01,-2.423566728830337524e-01,-1.028513088822364807e-01,-1.017542174963637081e-07,5.478219687938690186e-02,-8.432144522666931152e-01,1.614669114351272583e-01,-3.132184743881225586e-01,1.244602911174297333e-02,-3.035571353393606842e-06,-3.674408793449401855e-02,-2.014942318201065063e-01,-1.465773442760109901e-03,5.260140299797058105e-01,6.584726572036743164e-01,5.472104549407958984e-01,-3.679863525007931457e-08,-2.147039957344532013e-02,1.027800235897302628e-02,4.066742211580276489e-02,5.122016742825508118e-02,-6.167085170745849609e-01,1.547242403030395508e-01,1.108214855194091797e-01,-1.180217415094375610e-02,-6.768342852592468262e-02,7.090981304645538330e-02,2.038796804845333099e-02,-1.881367340683937073e-02,-2.751818895339965820e-01,2.578112483024597168e-01,-6.456678733229637146e-03,1.184799671173095703e-01,2.450194209814071655e-01,-2.368844896554946899e-01,2.404636889696121216e-02,-2.161622745916247368e-03,-1.716806367039680481e-02,2.832400612533092499e-03,-2.208943367004394531e-01,4.502385556697845459e-01,2.596708945930004120e-02,-6.784176081418991089e-02,-1.699624657630920410e-01,-2.515714168548583984e-01,3.583363081816060003e-07,2.042754292488098145e-01,-3.130983827759337146e-08,-1.146911809968287344e-08,3.454184830188751221e-01,-1.835797876119613647e-01,-3.867761115543544292e-04,-4.597185924649238586e-02,-1.525451267525568255e-07,-2.115370780229568481e-01,-9.900875389575958252e-03,1.851416528224945068e-01,2.852995134890079498e-02,-2.389320544898509979e-02,9.109636396169662476e-02,9.364189423877178342e-10
-5.862180888652801514e-02,-1.068714664143044502e-05,-2.033120393753051758e-01,-1.020825058221817017e-01,6.256209313869476318e-02,2.032309025526046753e-02,-1.284025685777123726e-08,2.757763564586639404e-01,-2.569773793220520020e-01,8.474966511130332947e-03,-9.846585802733898163e-03,6.722947728121653199e-05,-7.385052214203824406e-08,5.188751500099897385e-03,4.531138762831687927e-02,3.264737315475940704e-04,-1.380011588335037231e-01,-5.354593042284250259e-03,-3.104430139064788818e-01,-5.600108465841913130e-08,2.474327175150392577e-06,1.687384247779846191e-01,-1.065248344093561172e-02,5.636198446154594421e-02,-3.661044538021087646e-01,-3.298901766538619995e-02,1.144706308841705322e-01,-2.627587318420410156e-01,1.901712268590927124e-02,1.192617416381835938e-01,8.896146755432710052e-05,4.776861460413783789e-04,-1.092514675110578537e-02,5.986828356981277466e-02,1.076011901801621207e-08,-4.601790278684347868e-04,-1.034029722213745117e-01,-5.148733779788017273e-02,-3.320866426292923279e-06,-7.231289148330688477e-02,-3.143405076116323471e-03,-7.646000277361508779e-09,2.828477919101715088e-01,-4.464430510997772217e-01,-3.111455271209706552e-08,-1.969550363719463348e-02,3.526571989059448242e-01,2.013152688741683960e-01,-4.388211527839303017e-05,1.050565168261528015e-01,2.880690530560059415e-08,4.890837956850191404e-09,-1.066629122942686081e-02,3.177384287118911743e-02,-1.049979374556642142e-07,-2.336938642599761806e-09,-2.700324557736166753e-06,1.397869586944580078e-01,-2.337549580261111259e-03,4.156747460365295410e-01,-7.132075261324644089e-04,7.733716245184041327e-08,2.926036342978477478e-02,-2.270450849550798011e-08
8.067714981734752655e-03,-1.223929846361215823e-08,-6.703177932649850845e-03,-1.734910719096660614e-02,-2.544943802058696747e-02,-4.073156416416168213e-02,-6.368911442677926971e-08,-1.650474518537521362e-01,-6.693170666694641113e-01,-9.575986769050359726e-05,-9.343434794573113322e-05,8.684726344654336572e-05,4.601628825184889138e-05,1.926372572779655457e-02,-2.170044369995594025e-02,-9.310066957368690055e-07,-3.958085179328918457e-02,-1.134703904390335083e-01,-2.009797096252441406e-02,2.971889578873287974e-08,-5.516483270184835419e-07,-7.234884798526763916e-02,1.024284511804580688e-01,-8.899438381195068359e-02,-4.934627115726470947e-01,9.029443375766277313e-03,3.330283463001251221e-01,-2.667272929102182388e-03,1.102119982242584229e-01,-4.266349077224731445e-01,1.238205095432931557e-05,8.149710483849048615e-03,-8.313670009374618530e-02,9.100440889596939087e-03,-6.936384306754916906e-05,-1.494030095636844635e-02,8.307617902755737305e-02,4.216835275292396545e-02,8.525863570696401439e-09,2.333176881074905396e-02,-9.872385114431381226e-02,1.645402214478508540e-08,1.140649020671844482e-01,2.442961791530251503e-03,1.376350979853668832e-07,-8.165728300809860229e-03,2.511143125593662262e-02,2.150018699467182159e-02,-3.224687361580436118e-08,8.724384009838104248e-03,-6.990544143548049760e-09,7.582626082580645743e-09,-2.348791994154453278e-02,8.320928551256656647e-03,5.777318147011101246e-04,-1.226310164526012159e-08,-1.796303372714191937e-08,-6.564767658710479736e-02,-1.948144381458405405e-05,-6.262271851301193237e-02,-6.439598365659549017e-08,-5.327178698166790127e-08,5.679858848452568054e-02,-1.070645350154109110e-08
2.623495645821094513e-02,-2.344167791306972504e-02,-3.128524422645568848e-01,-5.124694108963012695e-01,3.687391877174377441e-01,3.655103445053100586e-01,1.816406846046447754e-02,4.810794815421104431e-02,1.906310468912124634e-01,6.999782286584377289e-03,1.202218420803546906e-02,-1.086551789194345474e-02,-2.341347746551036835e-02,-6.405026465654373169e-02,2.324564158916473389e-01,5.353479064069688320e-04,-4.111215472221374512e-02,-2.405577152967453003e-01,-2.285868525505065918e-01,1.818748707194117742e-08,-1.388755589723587036e-01,-2.557535842061042786e-02,-1.059746518731117249e-01,-1.712272614240646362e-01,1.310815811157226562e-01,-1.962055563926696777e-01,-2.087479531764984131e-01,-2.142315208911895752e-01,2.026624381542205811e-01,-3.349181264638900757e-03,-1.314905658364295959e-02,1.201862841844558716e-02,2.842753827571868896e-01,-4.087608456611633301e-01,2.920188009738922119e-02,-3.163479566574096680e-01,2.302131615579128265e-03,-1.616667211055755615e-01,-5.853512324392795563e-03,6.124587357044219971e-02,1.039625927805900574e-01,-1.852650754153728485e-02,5.275840163230895996e-01,-1.956266015768051147e-01,-7.850357796996831894e-04,-8.466306328773498535e-02,1.083559319376945496e-01,8.357337862253189087e-02,-1.922589399327989668e-05,1.003332212567329407e-01,2.267500853747606016e-09,-2.330163439978605311e-08,-2.037087827920913696e-01,5.609117150306701660e-01,-2.771281823515892029e-02,2.767679747194051743e-03,-6.325343158096075058e-03,3.396959006786346436e-01,-2.910275943577289581e-02,2.046204358339309692e-01,-3.287848085165023804e-02,1.313320640474557877e-02,3.490667641162872314e-01,-1.053594100852706106e-08
-7.584744139421673026e-07,2.207680926957777956e-09,2.890680761424846423e-08,-6.584895828609660384e-08,1.097317152698451537e-07,2.131693577211990487e-07,3.011308891132102872e-08,-2.172303356928750873e-05,1.216603923239745200e-04,5.903042676891345764e-08,4.448778767596195394e-08,-1.429376368378143525e-07,-2.506848417738183343e-08,3.405082082963417633e-08,-8.769982494413852692e-03,-3.564384698506728455e-08,1.388603436680568848e-07,1.215366553515195847e-02,-3.466630360549061152e-08,-1.749858569155549048e-08,2.635947848883546385e-10,-7.118262350559234619e-03,1.022377318804501556e-06,-2.557056024670600891e-02,3.607733489729980647e-08,2.755233197149209445e-07,-5.376231726472724404e-08,-1.408971115779422689e-06,1.905581727623939514e-02,-3.219532594084739685e-02,-9.967981995373520476e-09,2.011377198130048782e-08,-1.262207888066768646e-02,7.495357654988765717e-03,-3.100130996358529956e-08,1.669187525976667530e-07,-1.981849891308229417e-06,5.058465291085667559e-08,-1.142311578661292515e-08,5.866090759809594601e-07,1.371673441497023305e-08,8.915126414876795025e-09,7.521059596911072731e-04,-1.275205402635037899e-03,3.141950699614426412e-08,-2.296765596838667989e-04,1.974982660613022745e-05,-9.488212526775896549e-05,-5.026802085694725974e-08,-6.856319600956339855e-08,-9.582236115690534461e-10,-5.300267780228296033e-09,3.093580858148925472e-08,-6.705457167299755383e-08,-3.890447963783572050e-09,3.281252825004798979e-09,-1.221946721585709383e-08,-1.954088091338235245e-08,8.703561604761489434e-08,8.444610051810741425e-03,3.622261601776699536e-09,-1.640247226930569013e-08,1.522618731542024761e-05,-3.997747910489124479e-08
1.172101125121116638e-02,2.773175244996650690e-09,1.793734356760978699e-02,5.097638932056725025e-04,-1.855564914876595140e-05,-7.834097743034362793e-02,-7.092234710626144079e-08,-5.214007198810577393e-02,-5.302447080612182617e-01,6.311813649517716840e-06,-8.104504086077213287e-03,9.267710993299260736e-05,-3.389497038597255596e-08,9.729136962732809479e-08,-7.943254709243774414e-02,1.079864873076985532e-07,5.272667855024337769e-02,1.030790209770202637e-01,1.772830262780189514e-02,-1.370546343082423846e-08,-5.098515975987538695e-05,-1.364240160910412669e-04,1.197955831885337830e-01,-3.241825476288795471e-02,-6.888649612665176392e-02,1.756596975610591471e-05,2.475549234077334404e-03,-2.596737351268529892e-03,3.265139460563659668e-02,-1.121166497468948364e-01,2.981975285365479067e-06,-1.190666662296280265e-04,-4.418766126036643982e-02,1.403929758816957474e-02,5.513266287948681565e-08,-4.389068344607949257e-04,-3.393674269318580627e-03,2.066675201058387756e-02,-3.328531406054935360e-08,3.666545823216438293e-02,6.565182469785213470e-03,-6.714497402526831138e-08,2.330486476421356201e-01,-9.607594111002981663e-04,-1.935014637410858995e-08,-2.453002892434597015e-02,2.815746888518333435e-02,1.827515428885817528e-03,1.530656573711652868e-10,6.946949288249015808e-03,-2.038719637553754183e-09,-6.535230578919026811e-09,5.130893327986996155e-07,-2.616783058329019696e-05,-2.307083768471329677e-08,7.931797085802827496e-08,4.389246299751903280e-08,-1.182908308692276478e-03,-9.387783705960828229e-08,2.572524175047874451e-02,-8.476564516968210228e-08,7.832729664869475528e-08,4.372633621096611023e-02,-6.068979985229816521e-09
-2.349973767995834351e-01,-1.715100253932178020e-03,1.865147650241851807e-01,3.071770817041397095e-02,8.169593662023544312e-02,-7.236849516630172729e-02,-2.362039310810359893e-07,8.867638185620307922e-03,-6.562712788581848145e-01,-2.141699194908142090e-02,-1.114523187279701233e-01,2.420021034777164459e-02,-3.109859069809317589e-03,-1.106963902711868286e-01,-4.781573414802551270e-01,6.257618777453899384e-03,2.267995774745941162e-01,5.733055472373962402e-01,1.388278901576995850e-01,-9.085371033279443509e-08,-2.067006379365921021e-02,-2.614715099334716797e-01,-8.281575515866279602e-03,-8.881176263093948364e-02,-5.948879718780517578e-01,-1.377805229276418686e-02,1.906325072050094604e-01,2.986954525113105774e-02,5.171563848853111267e-02,-6.824338436126708984e-02,-9.500217624008655548e-03,-1.188874095678329468e-01,-1.240356191992759705e-01,4.071506559848785400e-01,3.089639823883771896e-03,-8.811737596988677979e-02,4.317823424935340881e-02,-4.727252572774887085e-02,-1.620085444301366806e-03,6.328582018613815308e-02,-1.148106344044208527e-02,-3.352259285748004913e-03,6.801539659500122070e-02,3.904296159744262695e-01,-3.465953632257878780e-04,2.145718783140182495e-02,3.498482406139373779e-01,-1.395970880985260010e-01,1.079748744814423844e-05,8.195657283067703247e-02,1.518609769846079871e-05,1.583812370142823056e-08,2.250969968736171722e-02,7.045194506645202637e-02,-7.439314387738704681e-03,1.744462060742080212e-03,-1.727939699776470661e-03,-1.992084784433245659e-03,-2.180138044059276581e-02,1.021644994616508484e-01,-4.533845931291580200e-03,-3.054432454518973827e-05,2.720055282115936279e-01,2.376581953456025076e-08
-2.380163222551345825e-01,5.526267737150192261e-02,5.518247485160827637e-01,6.460763812065124512e-01,7.776347547769546509e-02,4.828544333577156067e-03,4.951907612849026918e-06,-9.038105607032775879e-02,-4.159123897552490234e-01,7.202239334583282471e-02,-5.365569591522216797e-01,1.819682307541370392e-02,9.780340828001499176e-03,5.779394134879112244e-02,-1.641433387994766235e-01,1.000027288682758808e-03,-9.867096692323684692e-02,5.874296426773071289e-01,4.381002187728881836e-01,-3.452650076951613300e-08,-1.465789377689361572e-01,4.170427843928337097e-02,3.130144476890563965e-01,7.691289763897657394e-03,-4.168764650821685791e-01,5.669205263257026672e-02,2.015955150127410889e-01,-3.391597568988800049e-01,3.738630190491676331e-02,2.068810760974884033e-01,4.093692079186439514e-02,5.431234464049339294e-02,-3.961560726165771484e-01,2.790925502777099609e-01,-2.841325104236602783e-02,1.855605840682983398e-02,7.428472489118576050e-02,1.428807247430086136e-02,5.935184285044670105e-02,-4.193671047687530518e-01,-3.418884798884391785e-02,3.461599349975585938e-02,-4.353519678115844727e-01,-8.393917977809906006e-02,4.956357181072235107e-02,-1.565780937671661377e-01,2.770819067955017090e-01,-2.661822736263275146e-01,-3.276130184531211853e-03,-5.240005254745483398e-02,-8.749749369485471107e-09,-1.355133072422631813e-08,2.047304809093475342e-02,-4.599736630916595459e-02,5.736544262617826462e-03,-5.887358263134956360e-02,-2.006836293730884790e-04,-7.530206441879272461e-02,-8.818739652633666992e-02,7.228787243366241455e-02,2.819804288446903229e-02,-5.808307230472564697e-02,-3.083589114248752594e-02,-2.509215502044526147e-09
4.640484618789741944e-08,4.391324281982633693e-08,1.427370079909451306e-07,-2.342031457658322324e-08,-4.596054736794030759e-08,7.571772897563278093e-08,1.292559925758496320e-08,5.710516052204184234e-05,1.972098218061546504e-08,-2.007764621225760493e-08,4.862301850039330020e-08,-9.492886476891726488e-09,-1.107713032411083987e-08,8.654096994575866120e-09,-4.752852873934898525e-06,-2.325190173735336430e-08,3.786111335557507118e-08,-1.369319413413450093e-08,5.335528996397442825e-08,-1.925964632221166539e-08,-1.406810401505254049e-08,7.424142411949219422e-10,9.185773031106236886e-09,-3.540004911428695777e-07,1.520563053247769858e-08,-5.561923899222165346e-08,-2.032733270596054354e-08,-7.175594163300047512e-08,5.427122218293334299e-08,-2.412430010735988617e-03,1.438915031570786596e-08,-2.184929037696292653e-08,4.471245773629561882e-08,5.720297394873341545e-06,-2.150133582290436607e-08,5.573276951054140227e-08,9.587385108034141012e-08,1.459272880310891196e-07,4.208306236819225887e-08,6.333865343322031549e-08,-3.328953823711344739e-08,-2.560350864655447367e-08,3.081539762206375599e-05,4.135644715574926522e-08,2.006270882759508822e-08,1.349245071224913772e-08,1.999041785438748775e-07,1.749767974956739636e-08,2.405469823330008694e-09,-1.441352703857035067e-09,-1.557570250554363156e-08,-1.944122729469199840e-08,1.246184577752273981e-08,2.283588074192266504e-08,-5.054982210594971548e-09,-3.606301390846056165e-08,-4.554928878519604041e-09,2.751625594044071477e-10,5.749465614712789829e-08,4.887111231255403254e-07,8.490105507519274397e-09,1.504815827502170578e-08,1.441965196136152372e-06,-4.293026378832109913e-08
-4.504594951868057251e-02,-4.449245594173589780e-08,-1.076410245150327682e-02,2.019822411239147186e-02,6.926572881639003754e-03,3.968942165374755859e-02,-6.575550326459733697e-09,-1.739358603954315186e-01,2.645407617092132568e-01,4.875545869253983255e-07,-1.214128732681274414e-02,-1.508088083937764168e-03,-2.329864123851166369e-08,2.611475251615047455e-02,-1.030522808432579041e-01,3.069232479901984334e-05,-1.628202199935913086e-02,2.146957814693450928e-02,-3.513444215059280396e-03,-2.172354562901546160e-08,-3.206074703484773636e-03,-2.493171542882919312e-01,-1.108536496758460999e-02,-4.625894501805305481e-02,-5.273059755563735962e-02,2.969697862863540649e-02,1.545119732618331909e-01,-1.635694690048694611e-02,3.203196078538894653e-02,-1.894054710865020752e-01,-1.355365238850936294e-04,-2.436466887593269348e-02,1.719866245985031128e-01,4.476420953869819641e-02,4.682926491028638338e-09,-1.641619019210338593e-03,-1.514557935297489166e-02,-3.997243009507656097e-03,-4.113841498565307120e-07,-1.034268923103809357e-02,-6.293875724077224731e-02,-4.559845834251063934e-08,1.657344214618206024e-02,-1.150629892945289612e-01,-2.025926448823156534e-08,-1.034256257116794586e-02,1.047209575772285461e-01,-1.558838486671447754e-01,5.513606016194216863e-09,-1.083586923778057098e-02,-9.171036374766572408e-09,-1.221470036227856326e-08,9.216166287660598755e-02,-3.109364025294780731e-02,-6.542463015790644931e-09,6.846745748134708265e-08,4.776710693654706574e-10,-1.177679151296615601e-01,1.186462483815375890e-09,-1.223825141787528992e-01,-3.661509850871880190e-08,3.513160962143047072e-08,1.899341046810150146e-01,-1.670332139269703475e-08
2.363793365657329559e-02,3.188693150877952576e-02,-2.352780196815729141e-03,-2.063683271408081055e-01,2.215364389121532440e-02,-1.496508717536926270e-01,2.678431032521189081e-09,-9.650470316410064697e-02,-2.401361763477325439e-01,6.392241269350051880e-02,-9.585800766944885254e-02,9.265643358230590820e-02,5.818970501422882080e-03,1.078931391239166260e-01,-5.963128432631492615e-02,3.560040511274564778e-07,-2.488332688808441162e-01,1.777548789978027344e-01,1.429064720869064331e-01,2.895044204365149199e-09,4.388267919421195984e-02,5.438565611839294434e-01,8.919818401336669922e-01,-1.217578873038291931e-01,-4.195277020335197449e-02,1.639641672372817993e-01,9.353187680244445801e-02,-1.170578151941299438e-01,1.370936036109924316e-01,4.178224131464958191e-02,7.617111550644040108e-04,-1.051159799098968506e-01,-4.330936968326568604e-01,3.262577354907989502e-01,-4.644356085918843746e-04,1.657045632600784302e-01,-1.044486984610557556e-01,4.875901043415069580e-01,2.371097728610038757e-02,-1.732970476150512695e-01,-9.284388273954391479e-03,1.736325398087501526e-02,1.681551188230514526e-01,-6.918994784355163574e-01,2.774383500218391418e-02,3.027417063713073730e-01,4.137092828750610352e-02,3.767774701118469238e-01,-1.666570641100406647e-02,-1.635762155055999756e-01,-1.892749068588273076e-08,1.263069093759838779e-10,9.456728398799896240e-02,-3.503116071224212646e-01,1.668819342739880085e-03,-2.843659371137619019e-02,-2.295882239877755637e-07,-3.439001739025115967e-02,-1.802461594343185425e-02,8.876518905162811279e-02,1.810386218130588531e-02,-2.234245464205741882e-02,3.414647281169891357e-01,9.988434523933165110e-10
3.069800138473510742e-01,2.645743188622873276e-05,-1.056670174002647400e-01,-2.245504260063171387e-01,-1.348071396350860596e-01,-8.018877357244491577e-03,-1.144192651736375410e-08,4.261972308158874512e-01,-1.791261732578277588e-01,3.670277073979377747e-02,3.157469257712364197e-02,2.062414214015007019e-02,-2.696052979445084929e-05,-3.701439499855041504e-02,4.569136351346969604e-02,-6.445029157475801185e-06,1.348286028951406479e-02,-2.192160487174987793e-02,-7.956352829933166504e-02,5.094759103485557716e-08,2.960294485092163086e-02,1.294891536235809326e-01,1.576496958732604980e-01,2.109893970191478729e-02,-1.712565273046493530e-01,1.059813145548105240e-02,-1.402034163475036621e-01,1.996327936649322510e-01,-2.461727894842624664e-02,1.993622481822967529e-01,1.845187041908502579e-03,6.472857203334569931e-03,-1.250292807817459106e-01,-3.282161429524421692e-03,5.776493026132811792e-07,3.637744486331939697e-02,-3.139764964580535889e-01,4.013679027557373047e-01,1.141152315540239215e-04,3.585708327591419220e-03,-4.548416659235954285e-02,2.192185100113874796e-08,1.997431665658950806e-01,1.535168439149856567e-01,1.672094949753955007e-04,3.021356090903282166e-02,-2.540265321731567383e-01,4.364111721515655518e-01,-5.173999397811712697e-07,-2.197929471731185913e-02,6.033009469774697209e-08,-2.445573166198755644e-08,4.437974840402603149e-02,1.132897567003965378e-03,-2.923289321188349277e-05,-1.713581295916810632e-04,-7.721608970314264297e-03,-5.464240908622741699e-02,-1.377346646040678024e-02,-1.708667278289794922e-01,-8.651988900965079665e-05,-1.454670872647056967e-08,3.340881466865539551e-01,-1.279412353838438321e-09
-1.110366724788036663e-06,-1.334311217071615374e-09,4.115996787845688232e-08,-7.715831173982223845e-08,-6.529531049181969138e-08,2.178627556137513466e-10,3.647165414122355287e-08,2.658252817866468831e-08,1.596050133230164647e-04,6.485218762009026250e-08,4.317742607895524998e-08,-4.517392326874869468e-08,9.229580433256501237e-10,-8.268189333193731727e-08,-3.466886468231678009e-03,-5.563332194924441865e-08,-6.148924285298562609e-07,-3.251154723216131970e-08,3.038099549712569569e-08,-4.269354292318894295e-08,1.226824419831018531e-08,-8.567398763261735439e-04,1.016054056890425272e-06,-6.296298466622829437e-03,1.212461242516837956e-09,1.698927434290453675e-07,1.302576801975874332e-08,5.543651226957990730e-08,1.229878421327157412e-07,-1.031659916043281555e-02,-1.048667908065681331e-08,-2.159116618827283673e-08,-1.916654966771602631e-02,2.172767883166670799e-03,-1.476320510285233922e-09,7.921329370219609700e-08,-2.260026485600974411e-05,7.025076520505990629e-09,-3.005435900149677764e-08,3.655041780348255998e-07,-7.288030179353199856e-09,3.284486282950638270e-08,1.208682660944759846e-04,-3.999235559604130685e-06,-2.923031772184003785e-08,-5.190161544987859088e-08,3.762188862310722470e-05,-2.282573041156865656e-05,-4.628147109997371444e-08,5.647776024630957181e-09,2.575575486218895094e-08,2.286660460981693177e-08,1.276753547330145011e-08,-4.296932587521951064e-09,-2.857962755342668970e-08,1.342125077741229688e-08,-2.419093014793816110e-08,-4.228779104664681654e-08,-4.195444347487864434e-08,-6.764023652294781641e-08,1.133085292259750076e-09,-1.954142270221836952e-08,9.393956190706376219e-08,-3.185124608506839650e-09
5.697741359472274780e-02,-8.611177690909244120e-06,-2.933454811573028564e-01,4.556967690587043762e-02,8.248608559370040894e-03,-3.606928586959838867e-01,7.594522685394622386e-06,4.078327864408493042e-02,-2.605755925178527832e-01,-4.705897346138954163e-02,-1.101261470466852188e-03,3.253092058002948761e-03,2.112647598551120609e-05,-9.110306203365325928e-02,-1.170482188463211060e-01,-3.566097461771278176e-07,4.978187009692192078e-02,3.301482796669006348e-01,-2.354495525360107422e-01,1.406848387786041599e-10,-4.895372781902551651e-03,1.179357022047042847e-01,4.951093494892120361e-01,-8.744065463542938232e-02,-2.918017804622650146e-01,-1.733529008924961090e-02,2.508074343204498291e-01,-2.105625160038471222e-02,1.039923429489135742e-01,2.308245934545993805e-02,-3.826971442322246730e-05,-2.327367197722196579e-03,-3.539432883262634277e-01,6.202814728021621704e-02,-1.484914992033736780e-05,-4.696113988757133484e-02,-1.705994307994842529e-01,-7.517100125551223755e-02,-8.306770382660033647e-07,-1.082083359360694885e-01,-1.265347152948379517e-01,-1.042331064127210993e-06,5.318656563758850098e-01,3.815662860870361328e-02,5.856588904862292111e-05,9.926179051399230957e-02,3.404020145535469055e-02,4.961872398853302002e-01,-3.038674825802445412e-03,1.106807123869657516e-02,-1.515124381512578111e-08,-1.988537112751487257e-09,-7.136753201484680176e-02,5.341088771820068359e-02,9.417524415766820312e-05,-4.241044167429208755e-03,2.007514194701798260e-05,8.213426917791366577e-02,-8.676177822053432465e-03,7.837896794080734253e-02,-2.495421282947063446e-02,2.454007130836544093e-07,3.583562076091766357e-01,-2.156511857975829116e-09
1.105480478145182133e-03,-1.256331216836770182e-07,4.416239913552999496e-03,1.070278417319059372e-02,-3.332185442559421062e-04,-1.988656818866729736e-02,-1.813861594257559773e-08,-1.342959294561296701e-04,-2.849795222282409668e-01,5.813507363200187683e-02,7.476595346815884113e-04,-6.048293318599462509e-03,-2.677265165118569712e-08,-2.620648592710494995e-04,-1.243454068899154663e-01,1.933350262106614537e-07,5.142689123749732971e-02,-6.568451225757598877e-02,-1.854957081377506256e-03,-6.688409825983399060e-09,-1.450200386443611933e-07,7.926048338413238525e-02,2.327072992920875549e-02,-1.289791334420442581e-02,-1.361070275306701660e-01,4.233120125718414783e-05,-4.668746143579483032e-03,-6.008777767419815063e-02,-2.495365217328071594e-02,-1.858772302512079477e-04,-3.382208291213828488e-08,1.171084819361567497e-03,-6.275282800197601318e-02,9.180531650781631470e-02,1.431660784874111414e-04,-1.476405002176761627e-02,-4.560241103172302246e-02,-1.789020560681819916e-02,-1.785622174566015019e-07,2.721694856882095337e-02,9.826797031564638019e-05,-6.166501975712890271e-08,-9.964565746486186981e-03,-1.726637477986514568e-03,-3.332276037326664664e-06,-4.863236565142869949e-03,3.061424754559993744e-02,-3.460072353482246399e-02,2.495507445132716384e-08,-3.772593801841139793e-03,1.607090460709059698e-08,-8.984959443125717371e-09,4.457226532394997776e-05,-5.004615377401933074e-05,-7.066102261887863278e-05,1.245801831828430295e-04,-9.657804866947117262e-08,-4.703924525529146194e-03,-1.732883392833173275e-04,-2.373022958636283875e-02,-1.669806124482420273e-07,1.130546145589050866e-08,3.741460666060447693e-02,-1.833039497967092757e-08
-7.932817958078430820e-09,2.018804146075581230e-08,5.098106115042355668e-08,-4.644357787242370250e-08,-1.083654410649614874e-07,6.994903323231937975e-09,3.421450855967123061e-08,2.576468993709113420e-08,2.311239659320563078e-04,-7.970780302457569633e-08,5.826756321880566247e-08,-9.880073292833913001e-08,-1.269283878002624988e-08,-2.743206017896682170e-08,-3.812813019976601936e-06,2.035898338803576735e-09,-3.833845596545870649e-08,1.813616634649406478e-08,5.686326076670411567e-08,-6.215427283962071670e-09,5.082696930003294256e-09,-1.223717754328390583e-05,4.713255563615348365e-08,-5.224553751759231091e-04,1.404063976195857322e-08,-2.348747685232410731e-08,-8.955786334752247058e-09,6.032236399278190220e-08,1.949141932300335611e-07,-4.988691769540309906e-03,-6.542670405451644910e-08,6.385218132010095360e-09,5.740250941244084970e-08,2.444089157506823540e-03,1.693068796271290921e-08,8.544046181668818463e-08,2.875678362102007668e-08,1.316090560976590496e-07,2.766276807619760802e-08,6.156598431061865995e-08,2.700685186596274434e-08,1.760484558133157407e-08,1.185978981084190309e-04,-6.927739832462975755e-06,2.992352321484759159e-08,-9.398782196967658820e-08,1.055450056242079881e-07,-2.231928704077290604e-07,-2.379299424148939579e-08,-2.952320166116351174e-08,-1.164174867618328335e-09,-5.425738747177888399e-10,-6.628460003099689857e-10,-5.696819727063484606e-08,-7.139017821344850745e-09,-1.193427490164822302e-08,5.565033323051693515e-09,2.951088440283911041e-08,-2.347935890156804817e-08,3.440368345763999969e-08,1.560810702905257585e-09,-2.358195949625496723e-08,-1.153736217673895226e-08,-1.548660932826351200e-08
2.853007912635803223e-01,-3.318290924653410912e-03,2.961695492267608643e-01,-6.085360422730445862e-02,-1.810391098260879517e-01,-2.712958455085754395e-01,-8.261617523430686560e-08,-1.730284541845321655e-01,-5.235555768013000488e-01,7.778258621692657471e-02,8.731750398874282837e-02,-2.615710161626338959e-02,-2.040583603957202286e-05,-3.490821272134780884e-02,-3.943331167101860046e-02,-3.595616668462753296e-02,-7.538063526153564453e-01,-6.103759407997131348e-01,3.034651512280106544e-03,2.230927265145510319e-08,4.324139952659606934e-01,2.511715292930603027e-01,6.333252787590026855e-01,5.203680396080017090e-01,-5.556269362568855286e-02,-3.093602508306503296e-02,1.623586118221282959e-01,-1.103860363364219666e-01,-1.710923016071319580e-02,3.687304854393005371e-01,-1.373764872550964355e-02,2.860177755355834961e-01,-5.586521029472351074e-01,3.277571499347686768e-01,9.282609244110062718e-05,-1.448090188205242157e-03,-1.950226873159408569e-01,-1.999937146902084351e-01,-4.808820318430662155e-03,-5.697553977370262146e-02,-1.037448793649673462e-01,-3.600466006901115179e-04,-2.769689857959747314e-01,-4.563602805137634277e-01,-3.508038818836212158e-03,-3.408766584470868111e-03,-6.193641424179077148e-01,1.583868414163589478e-01,-7.451417260995185643e-09,-7.341476082801818848e-01,-1.518226966368274589e-08,1.477163369401068849e-08,1.629101186990737915e-01,-4.402487277984619141e-01,-8.427329157711938024e-05,2.960419980809092522e-03,4.219432867103023455e-06,-3.854829072952270508e-02,-1.776032266207039356e-03,-3.436325490474700928e-01,-1.842780875449534506e-06,6.213746033608913422e-03,1.362244635820388794e-01,1.050290965309841340e-08
1.065390557050704956e-01,1.424074639544414822e-06,2.882522046566009521e-01,1.098805479705333710e-02,-1.391277909278869629e-01,-1.180246993899345398e-01,7.627048762515187263e-05,-3.876864612102508545e-01,-2.381039708852767944e-01,4.439262673258781433e-02,4.158962890505790710e-02,-8.182521909475326538e-02,-8.966030873125419021e-05,-1.764100417494773865e-02,-1.874620318412780762e-01,-1.499824611528310925e-05,-1.496642231941223145e-01,2.056123316287994385e-01,8.157920092344284058e-02,-2.472653548579728522e-08,1.815372519195079803e-02,3.095276355743408203e-01,2.760255038738250732e-01,5.446654558181762695e-02,-2.653515040874481201e-01,-8.059680461883544922e-03,3.715316951274871826e-01,-1.665235124528408051e-02,-1.690162904560565948e-02,1.567264832556247711e-02,2.040796680375933647e-03,5.808970332145690918e-02,-7.431771159172058105e-01,7.987468242645263672e-01,4.760307274409569800e-05,-3.507215902209281921e-02,-1.449560672044754028e-01,2.171086370944976807e-01,3.745366484508849680e-05,1.959700882434844971e-02,-9.909935295581817627e-02,5.275505259305646177e-07,6.853961944580078125e-02,-3.083540499210357666e-01,1.515596886747516692e-05,1.578804552555084229e-01,4.685818403959274292e-02,1.773932427167892456e-01,-1.491763687226921320e-04,4.375999793410301208e-02,1.565537331771338359e-06,-1.164956042742915088e-08,3.606429090723395348e-03,-3.554174304008483887e-02,-5.014402995584532619e-05,5.322732977219857275e-05,-4.916737088933587074e-04,1.370219886302947998e-01,-2.367155440151691437e-02,-4.375739097595214844e-01,-1.014990048133768141e-04,-7.267323780979495496e-06,-1.013937890529632568e-01,-1.435114360681666312e-09
-1.436526190445874818e-06,-1.781638303555155289e-08,3.999044650981886662e-08,4.646378926054239855e-08,-6.461433343929456896e-08,-4.294741273724866915e-08,2.314789426804964023e-08,3.756142064048617613e-08,2.168666105717420578e-04,7.712618810273852432e-08,2.947404453834678861e-08,-1.903393664903774152e-09,2.322577685731630481e-08,-6.981041877907046000e-08,-3.591695567592978477e-04,-1.681465811032012425e-08,-3.023070291874319082e-07,1.232501090271398425e-04,-1.186452625034917219e-08,4.751761206733817744e-09,-2.614220129260047543e-08,-1.641574490349739790e-04,-1.558389683964378492e-08,-4.711683373898267746e-03,5.150060360392672010e-07,1.178013917524367571e-07,-5.729663854481259477e-08,-3.753954388230340555e-06,7.946086810761698871e-08,-6.932730320841073990e-03,3.842449469715347732e-09,-5.177992790095231612e-08,-2.410487359156832099e-04,3.023336874321103096e-03,2.306084567749167036e-08,5.818639081667242863e-08,-6.527663572342135012e-06,-8.716197044122964144e-07,4.348991211600150564e-08,2.146239665989924106e-07,5.738520414411141246e-08,5.319319290597590566e-11,9.696258348412811756e-05,-2.388690598309040070e-03,1.640896307719685865e-08,-5.720222517879847146e-08,6.528236554004251957e-05,-5.501644773175939918e-05,-1.314318964773519838e-08,5.401398084359243512e-08,-1.124145310171797973e-08,-1.751819311834879045e-08,2.752352123991386179e-08,4.385518082017370034e-08,1.971497098907093459e-08,1.430594420703812375e-09,-1.754827749778087309e-08,-4.988105040126811218e-09,5.160931948466895847e-08,5.943027190369321033e-07,4.559409294557781323e-09,-1.777380020939745009e-08,4.113251250714711205e-08,9.151958302311413718e-09
-2.088703913614153862e-03,1.085167696146527305e-05,2.446189224720001221e-01,-1.576684564352035522e-01,-1.272597312927246094e-01,-1.180996447801589966e-01,-1.828325046915324492e-08,7.944893091917037964e-02,-5.195589065551757812e-01,5.206247419118881226e-02,-6.338649988174438477e-02,4.220942780375480652e-02,7.358397851930931211e-05,-9.325597435235977173e-03,-1.548756957054138184e-01,-2.601196290925145149e-03,-9.258449077606201172e-02,5.508441478013992310e-03,1.236167736351490021e-03,-2.447507974068230396e-08,1.851586997509002686e-02,9.089554846286773682e-02,5.023159384727478027e-01,1.430432349443435669e-01,-2.819329500198364258e-01,-5.024671554565429688e-03,2.419473230838775635e-01,1.679077511653304100e-03,1.021996811032295227e-01,1.951545625925064087e-01,1.683929935097694397e-02,-2.278339117765426636e-02,-1.562509238719940186e-01,5.783988907933235168e-02,-1.656564018048811704e-05,1.503659486770629883e-01,2.302865125238895416e-02,-4.380455985665321350e-02,4.282115027308464050e-03,-2.167301476001739502e-01,-3.437783196568489075e-02,3.852408612146973610e-03,-8.477045595645904541e-02,-1.059811189770698547e-01,4.760503361467272043e-05,-2.178288437426090240e-02,6.498134881258010864e-02,3.357934057712554932e-01,-1.420639250682143029e-07,-6.755694746971130371e-02,-4.998933178512743325e-08,-3.280367311120357954e-09,1.595085263252258301e-01,-1.044318526983261108e-01,6.885517504997551441e-04,1.129381104192361818e-07,-9.378953836858272552e-05,-1.030689775943756104e-01,4.617671152118418831e-07,7.523847743868827820e-03,-8.924556738065803074e-08,-2.192238578572869301e-03,7.838150858879089355e-02,2.991468628366078519e-09
3.035037592053413391e-02,7.515525339840678498e-07,-6.651027798652648926e-01,-4.251707494258880615e-01,1.735003143548965454e-01,1.193884480744600296e-02,-6.105905470121797407e-08,2.148642204701900482e-02,-2.668521404266357422e-01,-3.404603339731693268e-03,-1.894728541374206543e-01,1.002675592899322510e-01,3.636222345448913984e-08,1.044591590762138367e-01,-6.643524859100580215e-03,-4.328390117734670639e-03,-3.026166856288909912e-01,-5.229544043540954590e-01,-4.930267035961151123e-01,-7.950406910595120280e-08,2.022823900915682316e-04,-1.120672225952148438e-01,1.542226076126098633e-01,-5.943130701780319214e-02,1.564655154943466187e-01,2.812768332660198212e-02,-4.394249245524406433e-02,-2.276201546192169189e-01,1.215661987662315369e-01,-3.551041185855865479e-01,8.113839555790036684e-08,-7.270134240388870239e-02,2.487506121397018433e-01,-3.126723170280456543e-01,-1.660016550886211917e-07,1.367563288658857346e-02,-1.219124719500541687e-01,-4.485683739185333252e-01,4.787061698152683675e-07,3.188512474298477173e-02,7.283896207809448242e-02,5.394662849766973522e-08,5.833609700202941895e-01,-4.193200767040252686e-01,-1.780753677849133965e-08,-1.337962150573730469e-01,1.341003626585006714e-01,8.942273259162902832e-02,-5.682303338971905760e-08,-3.066837191581726074e-01,9.813616586029638711e-09,-5.306447281583359654e-09,-3.648024285212159157e-04,-5.575214326381683350e-02,-1.010909134180337787e-08,-1.818107921280898154e-05,2.466841486636894842e-08,-1.419797390699386597e-01,7.347536156885325909e-04,-2.836356125771999359e-02,1.734517923068779055e-06,-5.132966975907038432e-07,1.790663450956344604e-01,-9.751257579182492918e-09
-2.943641543388366699e-01,2.870317315682768822e-03,-2.357273995876312256e-01,6.784326583147048950e-02,-9.143785387277603149e-02,2.025328017771244049e-02,-2.650860437825031113e-07,-1.181870475411415100e-01,2.267571538686752319e-01,-1.704415678977966309e-02,-3.315003216266632080e-01,1.495311409235000610e-01,1.713164783723186702e-05,-5.861612968146800995e-03,-1.665737926959991455e-01,-1.019853925754432566e-06,-2.389159053564071655e-01,5.402503162622451782e-02,-4.677966237068176270e-02,-3.551057758954812016e-08,-2.214069515466690063e-01,-6.859544198960065842e-03,3.724182248115539551e-01,-1.184185147285461426e-01,4.004911333322525024e-02,9.976553916931152344e-02,3.520326316356658936e-01,6.064127758145332336e-02,3.645913675427436829e-02,2.957558445632457733e-02,-9.021351434057578444e-05,-1.572508662939071655e-01,-2.998866327106952667e-02,-8.170273900032043457e-02,-1.050053015205776319e-05,8.387344330549240112e-02,-5.044385194778442383e-01,-3.455701768398284912e-01,5.476840215123957023e-06,8.295879513025283813e-02,-1.957413367927074432e-02,1.331972362095257267e-05,2.488448917865753174e-01,-7.443583011627197266e-02,-7.380769488918303978e-07,8.513488806784152985e-03,-1.148509830236434937e-01,-6.736985594034194946e-02,2.607284113764762878e-05,5.376923829317092896e-03,1.402437721509386392e-08,2.571888657598719874e-08,1.442445218563079834e-01,-1.390017271041870117e-01,8.434941264567896724e-06,1.250355999218299985e-04,-5.059386865013948409e-08,-3.217104375362396240e-01,7.780142594128847122e-03,5.429710820317268372e-02,8.725930005311965942e-03,-1.706690272840205580e-05,-5.902407318353652954e-02,-1.642009905822305882e-08
-4.669927733402801096e-08,-1.312753683535561322e-09,-6.587719525441571022e-08,2.549629485315563215e-08,-8.179775079497630941e-08,-1.779318026251530682e-08,2.548749655773008271e-09,-9.576168480407432071e-08,-6.086454362730364664e-08,-4.493333705113400356e-08,4.873829340112934005e-09,2.075989602445815763e-09,1.307659758253976179e-09,2.081933203612607031e-08,5.851289941460890986e-08,1.040247088468504444e-08,2.093413264958599029e-08,-1.305895267478263122e-07,-2.298875045880777179e-08,-1.111726888325392792e-08,2.589633218974540796e-08,9.406567080816330417e-09,-7.585462924453167943e-09,1.155064666136240703e-08,4.380596330122443760e-09,7.443312455279738060e-08,-2.062979120864838478e-08,2.225091932928080496e-08,4.551245780248791561e-08,-3.292478822913835756e-07,1.490795753511520161e-08,4.535115039061565767e-08,1.377558689341640275e-08,-1.672223426396612922e-08,1.166326502044512381e-08,2.901574625013836339e-08,9.039860060511273332e-08,-4.891446536703369929e-08,1.014629447126935702e-08,-2.719320590927054582e-08,2.392391884598055185e-08,-3.967015604899870596e-09,2.103896612482003547e-08,-4.700777012089929485e-08,-2.476950378138553788e-08,-5.779858724963560235e-08,-4.956065424721600721e-08,-2.045846514420190942e-08,-4.947786624853733883e-09,-7.608397467606664577e-09,-3.806042059295577928e-08,1.626384182884521579e-08,5.108665135367118637e-08,-8.239991799996460031e-09,1.206118671603917392e-08,9.049388793869184155e-09,-2.040925206614474519e-09,-1.073946709340134475e-08,-1.154489659427326842e-08,-5.123199997569827246e-08,-1.128700777286439916e-08,-2.402944065948986463e-09,-8.099964254881797387e-09,3.586069752259390953e-08
4.359522135928273201e-04,2.490845326974522322e-05,-2.712280489504337311e-02,9.001716971397399902e-02,-9.888412023428827524e-05,-4.544942453503608704e-02,-7.547103564320423175e-08,7.014362514019012451e-02,1.078679808415472507e-03,-1.078419107943773270e-02,5.368202179670333862e-02,8.215764537453651428e-03,1.642530260141938925e-04,-5.388242192566394806e-03,5.042414739727973938e-02,1.979768029514161753e-07,8.951579779386520386e-02,-9.304143488407135010e-02,-2.603098191320896149e-02,-1.925658210666369996e-08,-4.048483219776244368e-07,1.083481609821319580e-01,-4.602401331067085266e-02,-4.412309266626834869e-03,3.860072791576385498e-02,-8.891790059806226054e-08,-8.803746849298477173e-02,9.247429668903350830e-02,5.740609776694327593e-05,3.190127201378345490e-03,5.277813761495053768e-05,-4.810949321836233139e-03,5.773832276463508606e-02,-1.764871925115585327e-01,-3.306053031337796710e-08,-1.171141619238369458e-07,1.609046384692192078e-02,-4.816098138689994812e-02,4.438089672476053238e-05,9.523883461952209473e-02,-2.284391666762530804e-04,7.399696187349036336e-05,1.398731861263513565e-02,1.348884403705596924e-01,1.621558794795419089e-06,-9.102668613195419312e-03,-2.819860875606536865e-01,-2.174437977373600006e-02,-1.596826493255321111e-08,-9.063386823982000351e-05,1.075442668252435396e-07,8.533960205170387781e-09,2.026512101292610168e-02,3.778526093810796738e-03,1.541968231322243810e-04,-1.327703103015664965e-07,2.071613575127528861e-10,1.160171223091310821e-06,2.792641054838895798e-03,-5.359150841832160950e-02,1.285670732613652945e-04,-3.039099101442843676e-05,-1.174245700240135193e-01,-7.984016225925927301e-10
-1.612434097353343532e-08,9.275537671271649742e-09,5.060863372818857897e-08,6.193618506955544945e-09,4.423077903936700750e-09,-2.060463799580247723e-08,2.762779338638665649e-09,-1.149534067934609993e-08,2.527649911598928156e-08,-1.229311230588336912e-08,1.995659282272299606e-08,1.281400674457700006e-08,-4.405094067294612614e-10,1.598747978448500362e-08,1.006946259707319768e-08,-1.997475962411954242e-08,1.764539980797508179e-08,-9.486473828701491584e-09,3.815482685354254500e-08,-1.927716875016471931e-09,3.415675520201943982e-09,1.260979543005191772e-09,4.934848640836264622e-10,-2.144576427554056863e-08,2.337853999279104755e-08,3.440590390368925000e-08,-7.261646839396007636e-09,-5.035312722334595037e-10,-3.825674887991681317e-09,1.119476245037276385e-08,-1.972495944357888220e-08,2.918179475841498061e-08,4.128389363700080139e-08,-1.229812429670573692e-08,1.784942682547807635e-08,-3.817988147858386583e-09,-2.770056184431268775e-08,-1.481970723915537747e-08,-1.603035748587444687e-08,-1.003321203896234692e-09,-6.786184059137667646e-09,1.623149437079973723e-08,-1.577160091414953058e-08,-8.407812224220378994e-09,1.246859326897720166e-08,1.673106453381478786e-08,-1.179909681070512306e-08,2.232950180314219324e-08,-3.384075464296643077e-09,-1.771009650042287831e-08,1.527110171650747361e-08,7.383996525334168837e-09,1.442192232303796118e-08,-3.618547950168249372e-08,-3.041111806822982544e-09,-1.381022851631996673e-08,1.147711148341556964e-09,1.159365226044428709e-08,-2.568577794903603717e-09,-3.598332298793138762e-08,6.357617987617913968e-09,1.755089051869163086e-08,-2.429521694935488085e-09,1.248532566222593232e-08
1.355806400482606477e-08,-2.439056956404783705e-08,3.684036853357497421e-09,-6.524951690067837262e-09,1.087514789332999499e-08,-1.597684473608751432e-08,-9.705777515023328306e-09,-7.131432333551401825e-09,-1.685818951102646679e-08,5.523116186623155954e-09,1.881431543893086200e-08,2.098114393334071792e-08,6.617733916414181294e-09,-5.799156266306226826e-09,-2.095147166869537614e-09,-1.351741119037797034e-08,-1.522077752724726452e-08,5.167013039653056694e-09,-4.578014056733081816e-08,-1.057217158262346857e-08,1.363730461889645085e-08,-8.335632628586608917e-09,-2.173871749278077914e-08,7.029136828151649752e-09,-1.619606138092422043e-08,2.083568340083274961e-08,-6.876811120548609324e-09,-1.593361442786545012e-09,1.298872565058672990e-08,-6.527175466786161451e-10,3.115818358878641448e-08,-1.588055731360782374e-08,-1.093941381924423695e-08,-4.817875431939455666e-09,4.032533951203731704e-08,-8.637210946460527339e-10,-1.210329703127399625e-08,-8.631619863308515050e-09,-2.478521743398687249e-08,-4.333869085826336232e-08,3.128014958164726522e-09,-8.319166688863788295e-09,-1.398372795335944829e-08,-2.452955705223303084e-08,-1.393455129061749176e-08,1.402042038023409987e-08,1.923017123317549704e-08,-2.099022289314689260e-08,-1.849078579141405498e-08,-1.535090166093766584e-09,2.673255505847293989e-10,3.758382938201521029e-09,-5.648656209444880005e-09,-2.589280789777603786e-08,4.347075477362238871e-10,1.303206875746809601e-08,-8.033049780920009653e-09,-8.201148204989294754e-09,7.315141381525336328e-09,-1.663823923081508838e-08,-1.303077978853650620e-09,-2.015093514273758046e-08,1.173290908873525495e-09,-6.538034558190020107e-09
-5.595926940441131592e-02,-2.126520293188605137e-09,-3.267629072070121765e-03,1.745570078492164612e-02,-2.685634046792984009e-02,-7.807547599077224731e-02,4.750441817691353208e-09,1.549540902487933636e-03,2.638890966773033142e-02,2.007516923185903579e-05,3.882333658111747354e-06,6.299279675658908673e-08,4.630969215213553980e-06,-1.058572251349687576e-02,-5.900812335312366486e-03,-1.088131362791955326e-08,9.187091491185128689e-04,8.027599006891250610e-02,4.827213473618030548e-03,1.308698838187183355e-08,-1.911053857384104049e-07,4.152546636760234833e-03,1.369930207729339600e-01,-8.589211106300354004e-02,9.522052109241485596e-02,-5.937084642937406898e-05,-8.130262605845928192e-03,6.836332380771636963e-03,-6.472764071077108383e-04,-1.115295067429542542e-01,2.310193485755007714e-05,1.115397317335009575e-03,-1.157518383115530014e-02,-1.024355366826057434e-02,-6.977599298352288315e-08,-1.760386367095634341e-04,9.674743562936782837e-02,-1.256162859499454498e-02,-1.187646692102362067e-08,8.399045467376708984e-02,-5.269071334623731673e-05,-2.057572956459807756e-08,-4.664904624223709106e-02,4.877546802163124084e-02,1.392160253743668363e-08,-6.622336804866790771e-02,6.836160086095333099e-03,-7.468126714229583740e-02,-5.143762749071356666e-08,-2.809915531543083489e-05,-7.158323711564662517e-09,-1.433877183654175269e-10,1.076545845717191696e-02,9.025468443724093959e-07,2.032682641583960503e-05,-3.964162331726583943e-08,-2.163702816915247240e-08,-1.048561558127403259e-02,-2.533907661472767359e-08,-6.378299742937088013e-02,-5.415346393533582159e-09,2.817016842016073497e-08,8.000115305185317993e-02,3.717279994930322573e-08
-1.205345895141363144e-02,8.459126377147185849e-08,-6.480012834072113037e-02,2.816828899085521698e-03,2.797502651810646057e-02,1.252494901418685913e-01,-1.659860089375797543e-07,2.016201466321945190e-01,1.002318859100341797e-01,2.615273231640458107e-03,3.669744729995727539e-02,-1.593336783116683364e-04,4.755198460770770907e-06,8.737127296626567841e-03,6.482119858264923096e-02,-3.990657860413193703e-04,-6.778486073017120361e-02,-9.270310401916503906e-02,-3.016580268740653992e-02,5.676046654912170197e-08,-1.234682649374008179e-02,-5.109125375747680664e-02,3.880882263183593750e-02,-6.083203945308923721e-03,-1.346673965454101562e-01,1.891910214908421040e-04,-8.496671915054321289e-02,-3.690406307578086853e-02,6.464793812483549118e-03,-1.505403220653533936e-01,-8.067837916314601898e-05,1.436651032418012619e-02,1.991480737924575806e-01,-3.116241097450256348e-01,-7.484534307877765968e-06,7.079372880980372429e-04,2.946417331695556641e-01,-1.156555190682411194e-01,-1.427202846571162809e-06,-1.473584026098251343e-02,-2.955246903002262115e-02,2.348954666331337648e-07,5.393480509519577026e-02,2.842309698462486267e-02,4.540611087122670142e-08,1.946195587515830994e-02,1.094623133540153503e-01,-1.305755525827407837e-01,-6.697187160398243577e-08,-4.647188261151313782e-02,-1.052448936889049946e-07,1.606757926708723971e-08,7.972749322652816772e-02,-5.290708038955926895e-03,9.665191173553466797e-03,-6.178121481070775189e-08,-2.682201738934963942e-04,-1.241469606757164001e-01,-1.300522964447736740e-02,2.723013050854206085e-02,1.241944914909254294e-06,-1.111446508161861857e-07,5.296385884284973145e-01,-1.644592906302477786e-09
4.834224576200085721e-09,3.580138141501265636e-08,-6.819783266109880060e-06,-5.277502168610226363e-08,3.140259252631949494e-07,1.182325277682139131e-07,7.631061116342152673e-09,9.431351907551288605e-03,1.542288344353437424e-03,6.182234102425354649e-08,-2.334001578674360644e-07,9.601421879779081792e-09,-1.352567569057328001e-08,6.269079477760897134e-08,-6.880254659336060286e-05,1.074728395167312556e-08,-5.548721446757554077e-07,1.078517275487911320e-08,-3.908731116553099127e-09,1.381226510943633912e-08,5.042922879283651127e-08,-6.953770448347995625e-09,4.734674439532682300e-05,-5.101101938635110855e-03,-1.390764809912070632e-04,1.816190220438329561e-08,-1.253311638720333576e-04,-9.572444469085894525e-06,7.928353443276137114e-05,-1.344996690750122070e-02,6.294805388051827322e-08,-8.337990209383860929e-08,6.123377005451402511e-08,1.588604645803570747e-04,-7.929538980988581898e-08,-2.446895523462444544e-04,6.747430306859314442e-04,1.253287393865321064e-07,6.728792811827588594e-08,6.487949288924710345e-09,-3.190068653680100397e-08,-1.006050620588894162e-08,5.910361651331186295e-04,-2.678979399206582457e-06,6.887928094556627912e-08,5.357814529816096183e-07,2.985301834996789694e-04,-3.307294391561299562e-04,-5.335641617421060801e-08,7.705234850163833471e-08,-1.875083199820437585e-09,1.159200468947574336e-08,-5.597514984856388764e-08,-1.600219157182891649e-08,4.470604864081906271e-08,3.683455540581803689e-09,-2.588842029638271924e-08,2.254029532196000218e-04,7.941000745859128074e-09,1.134564401581883430e-03,6.568137678186758421e-08,-8.484849267631489056e-09,1.573276676936075091e-04,-3.313606056210005590e-09
-6.886439223308116198e-07,-8.747646162987621210e-09,-6.455759375967318192e-07,1.088211076805123412e-09,-8.406325946452852804e-08,-1.353881007304380546e-08,2.265367626819170255e-08,1.959006112883798778e-08,9.546382898406591266e-06,6.265453578180313343e-08,-5.265075486704517971e-09,5.785552037451680008e-09,-2.018684419624605653e-08,-8.995296241209871368e-08,-1.507851720816688612e-06,2.137278798386432754e-08,-2.429645462598273298e-07,-6.424290432960333419e-08,1.356443757316583287e-08,-1.814383310261291626e-08,1.297840501734981444e-08,-1.458047904634440783e-07,-6.910232031032137456e-08,-8.948555478127673268e-05,4.036656875427979685e-08,-1.944730065872590785e-08,-2.574778967812108021e-08,-2.996783710074168994e-09,5.196159946763145854e-08,-4.403629805892705917e-03,3.007939453070207492e-09,2.811066757146818418e-08,9.289463065442760126e-08,1.948847739186021499e-06,1.919042258435865733e-09,1.981564956565762259e-08,-4.617650120053440332e-07,-1.109706090574036352e-06,3.286127991941611981e-08,3.681596538740450342e-08,4.537483277999854181e-08,4.203962333804156515e-08,2.421797107672318816e-04,-8.022601036827836651e-07,1.031576246646181971e-08,2.915714958362514153e-08,3.042660500796046108e-05,-4.645865919883362949e-05,-3.587057406662097492e-08,2.006366184303942646e-09,-1.617696532285606281e-10,-3.984167218362699714e-09,1.835176810516259138e-08,4.423106858553182974e-08,3.546377413954360236e-09,-1.402579030695960682e-08,-3.534186499010161242e-09,-6.365446392209150872e-09,-2.718342884122648684e-08,1.555443122924771160e-05,-4.927701802159845101e-09,3.860666453192607150e-09,3.915071289384286501e-08,-8.398891360172910936e-09
1.748362343789722217e-08,6.782090444801269769e-09,-8.006992402442847379e-08,-4.350117599472014263e-09,2.438246582414649311e-08,2.156043166223753360e-08,7.398151868898139583e-09,-2.332626003465065878e-08,2.246378727477349457e-08,3.468787213023460936e-08,-1.306416502755425313e-10,1.987439990358552677e-09,2.077248062448688870e-08,4.794530639173899544e-08,-4.068956371838794439e-08,-1.414513306485787325e-08,4.208974146990840381e-08,7.070088958727183126e-09,-1.082737881574757921e-07,1.514891678766616678e-08,-4.401631947814621526e-09,-7.687798841971016373e-08,1.242604064088936866e-08,-4.522147989405311819e-08,3.216915089865324262e-08,5.828593430123873986e-08,-2.424154565972003184e-08,3.923756608514850086e-08,7.214031683133725892e-08,4.236039785610046238e-08,5.715364181924087461e-09,-4.774783590733022720e-08,1.133055071989019780e-08,-8.087321923255785805e-09,-1.343451461188749363e-09,-2.063017845443937404e-08,7.558603520863016456e-09,1.127130566658252064e-08,-1.629080514931047219e-08,-2.949280109021401586e-08,-5.405994762952559540e-09,3.261309089452879562e-08,4.348846687207696959e-07,-1.929916777498874580e-07,-4.205616832564373908e-08,-8.368811421632926795e-08,3.179682650511495012e-08,-1.095634516445898043e-07,-6.164984522882832607e-09,-3.827123506994212221e-08,-1.824058060151401151e-08,-1.778395386509146192e-08,-6.777465699769891216e-08,5.301963668102871452e-08,7.058230888645766754e-09,1.375286284854837504e-08,-5.727477159211957769e-09,1.483589340267599255e-08,-1.458763221329206772e-09,3.733110176540321845e-08,1.605088684186739556e-08,-1.152722695074714920e-09,-3.607849574649435453e-09,1.613508793241180683e-08
-1.918269880115985870e-02,-1.616993472453032155e-08,4.220140352845191956e-02,-4.949808865785598755e-02,-2.309232763946056366e-02,-5.518285557627677917e-02,-1.574051111674634740e-08,-9.936185553669929504e-03,7.976222038269042969e-02,-4.401465412229299545e-03,-3.997144754976034164e-03,-3.411566372960805893e-03,6.371924143877549795e-08,-7.280355785042047501e-03,-1.319439113140106201e-01,-2.430297030286965310e-08,6.093896925449371338e-02,2.015109956264495850e-01,-1.290926593355834484e-03,-7.163821180711238412e-08,-3.917226276826113462e-04,2.464325167238712311e-02,1.456511323340237141e-03,8.792963344603776932e-04,-4.163279384374618530e-02,1.983228139579296112e-03,3.713982179760932922e-02,1.283120713196694851e-03,-8.708495646715164185e-02,-3.900430351495742798e-02,-8.892585756257176399e-04,-3.451029211282730103e-02,-1.227322779595851898e-02,8.748358488082885742e-02,-4.418199139877287962e-08,-1.632334606256335974e-04,-6.462458055466413498e-03,-6.659361720085144043e-02,-3.419426164441574656e-08,-5.515721067786216736e-02,-1.153526536654680967e-04,-3.350492860931808536e-08,-2.615322470664978027e-01,-1.776367276906967163e-01,-2.909274954276952485e-08,-3.578159585595130920e-02,-5.699441954493522644e-02,1.977080479264259338e-02,5.764770321547985077e-06,-1.131382487074006349e-05,1.609458699647348112e-08,2.682530997333287814e-08,-2.708943327888846397e-03,-4.225346818566322327e-02,1.650846748191270308e-08,-9.944770908987266012e-07,6.655676543232402764e-08,-1.008077710866928101e-02,2.680446596059482545e-05,4.325359687209129333e-02,6.034943567101436201e-07,2.895191286711451539e-08,1.660087332129478455e-02,-1.817964112582615144e-09
-1.548312371596693993e-03,-1.307265495853471293e-08,-1.664032897679135203e-04,1.674645347520709038e-03,1.861599230323918164e-07,-2.933116593339946121e-05,-6.221178239229629980e-08,-1.867375103756785393e-03,1.329445367446169257e-04,6.711192668262810912e-08,3.489966184133663774e-05,-3.759796811664273264e-07,3.281613203398592304e-08,7.945364899342166609e-08,-5.380680784583091736e-03,3.516855429097631713e-08,8.091790601611137390e-03,5.294138938188552856e-02,-1.625083314138464630e-05,-1.733907595280470559e-08,-9.092938853427767754e-05,4.607077244145330042e-06,1.294621545821428299e-02,-5.686486838385462761e-04,-4.117515345569700003e-06,-3.202302201188444997e-09,3.745368681848049164e-03,3.761101652344223112e-07,2.518194960430264473e-04,-1.974342577159404755e-02,-6.878704539303726051e-08,-5.761448207408648159e-08,-1.233045849949121475e-02,2.421310357749462128e-02,-2.951827760000469425e-08,-1.052987954608397558e-05,-1.707126013934612274e-02,-2.337410260224714875e-04,-7.286929726291191400e-09,4.856980871409177780e-03,5.160063665243797004e-07,-1.411004202367394100e-08,1.804661937057971954e-02,3.202429413795471191e-02,-1.366052604367951062e-08,-1.828119275160133839e-04,1.923046511365100741e-05,-6.516338908113539219e-04,-1.466342269829112865e-09,-8.190408351538280840e-08,-2.505524954177218433e-10,7.701283166738903674e-09,-4.379096571938134730e-05,8.146735552827522042e-08,5.165745520230302645e-08,3.115620117455364380e-08,5.188427820712604444e-08,1.845152475254963065e-08,-1.253652408195193857e-05,-3.855963370824611047e-08,5.451235551845456939e-08,-2.778745589182562981e-08,-1.702325243968516588e-05,-1.513477698722454079e-08
1.208055317401885986e-01,-2.848598796845180914e-06,9.754436090588569641e-03,2.087158560752868652e-01,-3.265670267865061760e-03,-4.706237092614173889e-02,6.804691032868959155e-09,-1.116326451301574707e-01,-8.254706859588623047e-01,3.497759578749537468e-03,-8.567552268505096436e-02,3.311958536505699158e-02,-1.617749330762308091e-05,-8.410175889730453491e-02,-4.768148064613342285e-02,-1.730965741444379091e-04,3.073299303650856018e-02,9.956810623407363892e-02,-3.746395558118820190e-02,-5.876425390738404531e-08,2.274086512625217438e-02,1.565737724304199219e-01,2.708798646926879883e-01,-2.429330162703990936e-02,-1.082344278693199158e-01,-3.015414811670780182e-03,3.373688459396362305e-02,-3.508147597312927246e-02,4.143778700381517410e-03,-1.612885445356369019e-01,1.449831761419773102e-04,6.845524907112121582e-02,-1.210897564888000488e-01,8.158557862043380737e-02,4.398292003315873444e-05,7.727955002337694168e-03,2.640402913093566895e-01,-1.135170012712478638e-01,-6.464651050919201225e-06,7.008219361305236816e-01,6.231826264411211014e-04,-3.381354872544761747e-06,-6.395430117845535278e-02,-1.197915896773338318e-01,-4.901766442344523966e-05,-3.674868727102875710e-03,-1.072088442742824554e-02,-5.936419591307640076e-02,-1.342957402812317014e-04,-1.294150017201900482e-02,7.306778826432491769e-08,-1.051889597647459595e-08,2.140178084373474121e-01,-6.914968043565750122e-02,-9.260494152840692550e-06,3.856022085528820753e-04,-1.259892997040878981e-06,-2.046880871057510376e-02,1.089193392544984818e-04,-1.494277119636535645e-01,-6.012811718392185867e-05,5.066660833108471707e-06,-3.639058768749237061e-01,-2.592157066771960672e-08
-4.344629473962413613e-07,3.382355728831498709e-08,-6.018866770318709314e-05,-4.479468884710513521e-08,9.816465507128668833e-08,-1.238767133315832325e-08,6.189000423262314143e-09,1.426443486707285047e-04,9.826416498981416225e-05,-4.528865815700555686e-08,-1.250128747187773115e-07,-2.704285861909738742e-08,-1.434563667856991742e-08,4.687171184514227207e-08,-9.098823028352853726e-08,-7.472674923292288440e-09,-3.009519389252091059e-07,3.195973263814266829e-08,-1.855469417932908982e-05,-1.663191362410998408e-08,7.839992122171679512e-08,7.022472914286481682e-08,-2.828618006489591608e-09,-3.416994353756308556e-03,-7.343896157863127883e-08,1.666018256685219967e-08,4.722574331594842079e-08,8.728936684576638072e-09,5.662374391590674350e-08,-1.193963177502155304e-02,4.416268239992859890e-08,-7.158074133428726782e-09,1.175908259654079302e-08,5.202146130613982677e-04,1.318460007837529702e-08,3.186949015798745677e-08,6.433418457163497806e-05,1.013060000332188793e-07,-1.717554320990188899e-09,2.708165780518356769e-08,1.936258264834123111e-09,-1.547181760486182611e-08,5.838702432811260223e-03,1.165326608543182374e-07,7.737179785749503935e-09,-1.582122655108264553e-09,1.883055811049416661e-04,-8.444774721283465624e-06,-6.217953085752014886e-08,1.001808911382795486e-07,1.464566867781513793e-08,-6.899835813811705520e-09,-9.699454039946431294e-08,-9.955449797871551709e-09,2.035946877754213347e-08,2.460063042164506442e-09,3.415434335352074413e-08,4.524887842194402765e-08,4.320901680898714403e-08,3.105977375525981188e-04,-8.007545737598320557e-10,-5.987004669805173762e-08,4.257052933098748326e-05,3.318327168599921606e-09
