-9.131680300811240159e-09,2.856397429695789469e-07,-8.912314797271392308e-07,2.376698944317467976e-07,8.831418796262369142e-08,-2.551155603214283474e-06,-4.290079047564177017e-08,-5.539553171729494352e-07,-1.873554083431372419e-06,-7.511424087169871200e-07,-2.696306466987152817e-07,-1.986650886465213262e-06,-2.036554320739014656e-07,-2.420245664325193502e-06,-7.580665624118410051e-07,5.014051680518605281e-07,3.295082424301654100e-04,-9.539323286844592076e-08,-1.615143361277660006e-07,2.054398692052927800e-06,-2.253868132129355217e-07,1.500034159107599407e-07,3.829412526101805270e-05,-5.120530204294482246e-07,-1.055506970715214266e-08,-3.162711266213591443e-07,-1.404788747549901018e-07,-6.853197191958315670e-07,1.574286870891228318e-04,-5.224119945523852948e-07,-1.001665964395215269e-06,1.104708076127280947e-06,1.546097678328806069e-06,1.303160502175160218e-06,2.130878783646039665e-06,5.638604534397018142e-07,-2.167607959790984751e-08,-9.579545690030499827e-08,-2.231112830486381426e-06,-1.091920012186164968e-07,5.913946665714320261e-07,-2.208916557719931006e-04,-1.748697400216769893e-07,1.662752282527435455e-07,-2.549356213421560824e-05,2.608565637274296023e-06,-5.432703531482729886e-08,-5.110852612233429682e-07,1.502501800132449716e-05,8.162682206602767110e-06,6.981755404922296293e-07,2.230839072581147775e-06,-2.038431830442277715e-06,-3.272223523254069733e-07,1.014103006014011044e-07,-1.849783757279510610e-06,4.828592636840767227e-08,-3.607274550176953198e-07,8.448350854450836778e-07,6.814536277488514315e-07,-3.024686634489626158e-07,2.961076290830533253e-07,2.006536078624776565e-06,2.230799509561620653e-06
2.844633968379639555e-07,-6.722788015167679987e-08,3.655726459328434430e-07,6.888846115771229961e-08,3.914877879651612602e-07,-7.755291449029755313e-07,-4.506965467498957878e-07,5.806650165141036268e-07,5.388956196838989854e-07,1.768192419149272610e-07,-3.516122433211421594e-07,3.246894948460976593e-07,-4.553526764539128635e-07,-3.821422183136746753e-07,3.249162716656428529e-07,-3.120308633697277401e-07,2.300365449627861381e-04,-3.628496756391541567e-07,8.084089131443761289e-08,-4.487800424612942152e-07,-4.391834238504088717e-07,-6.951072606398156495e-08,1.593055912962881848e-06,-4.448739900908549316e-07,-4.514195097726769745e-07,1.511703260348440381e-07,1.236182924913009629e-07,6.730474524374585599e-07,1.256400310012395494e-06,3.889623769737227121e-07,3.008031796980503714e-07,3.811576902990054805e-07,-5.921035608480451629e-07,-7.635542260686634108e-07,3.440655120812152745e-07,-3.667736052648251643e-07,1.875622102076590636e-09,-4.504762500801007263e-07,4.453493147593690082e-07,-4.715948591638152720e-07,-1.461377507894212613e-07,-1.073121893568895757e-04,-3.988749597283458570e-07,1.056928127241008042e-07,-1.273067368856573012e-06,1.190688294627761934e-06,1.795639406054760912e-07,-3.685686422727485478e-08,-8.101767860352993011e-03,1.029961481435748283e-06,-7.236019428091822192e-07,2.223969914894041722e-07,-6.105246939114294946e-07,-5.618714453703432810e-07,1.023529065946604533e-07,-2.765548003935691668e-07,2.318605965001552249e-07,-6.372994221237604506e-08,-1.890637406631867634e-07,-1.485931164779685787e-07,3.224932498824273353e-08,1.716007318464107811e-07,-2.228003808113498962e-07,-6.827611400694877375e-07
1.774160523382306565e-06,1.094724325412244070e-06,1.833979240473126993e-06,2.124587354046525434e-06,1.724041908346407581e-06,-4.455583621165715158e-05,-1.838092202888219617e-06,1.780585989763494581e-06,-1.769781533766945358e-06,1.544792098684411030e-06,-1.280303763451229315e-06,-2.585223910500644706e-06,-2.089913095915107988e-06,-9.096640860661864281e-05,1.864105229287815746e-06,-1.042259441419446375e-06,3.224665997549891472e-04,-8.136149176607432310e-07,2.025444842956858338e-07,2.413899665043572895e-06,-1.729164978314656764e-06,4.766345540474503650e-08,2.413963375147432089e-04,-1.985377821256406605e-06,-2.016680809902027249e-06,6.489258197461822419e-08,5.110247514039656380e-08,1.337984826932370197e-06,2.240834874100983143e-04,1.999165533561608754e-06,1.380215508106630296e-06,2.299736934219254181e-06,2.104407258229912259e-06,2.279065256516332738e-06,2.783854870358482003e-05,-1.598742869646230247e-06,-1.873918904493621085e-06,-1.971476649487158284e-06,-2.076373220916138962e-06,-2.081638967865728773e-06,-1.806015688998741098e-06,-2.447042788844555616e-04,-2.114941025865846314e-06,1.715320991024782415e-06,-2.168227510992437601e-04,1.141383982030674815e-04,-5.644452016895229463e-09,-7.260731536007369868e-07,1.844207290560007095e-04,1.507166161900386214e-04,-1.875936391115828883e-06,8.127283945214003325e-05,-1.497799821663647890e-04,-7.257571610352897551e-07,-2.232979312566385488e-07,-1.256037066923454404e-04,1.890878706944931764e-06,-1.298328697885153815e-06,-1.884762241388671100e-06,-1.713950496196048334e-06,1.976303707351689809e-07,-2.070442377544168266e-07,1.823589059313235339e-06,1.926098320836899802e-06
-1.540073668593322509e-07,-3.260419703110528644e-07,3.237049099880096037e-07,-2.408521595498314127e-07,1.690493149908434134e-07,-1.678939611338137183e-06,3.126243939277628670e-07,-3.212648147510321905e-09,-1.821169462346006185e-06,5.970926508780394215e-08,1.652151482289809792e-08,-1.808526235436147545e-06,-9.630850854591699317e-07,-1.703500856820028275e-06,4.517569891504535917e-07,-1.608103303851748933e-07,1.292968931920768227e-06,4.392184038692903414e-08,7.993088502189493738e-08,1.030567659654479939e-06,2.652099055922008120e-07,-1.009937733442711760e-07,1.269114932256343309e-06,-9.291936180488846730e-07,-9.079759593078051694e-07,-2.925932562902744394e-07,-1.791654824501165422e-07,4.654833105632860679e-07,9.874742090687504970e-07,8.251184340224426705e-07,-1.545928682844532887e-07,9.779768106454866938e-07,1.196110247292381246e-06,8.305422625198843889e-07,1.804756379897298757e-06,-1.636252591197262518e-07,-4.679931180362473242e-07,-5.874803150618390646e-07,-1.718352791613142472e-06,1.238257567592881969e-07,-2.195533994608922512e-07,-8.215050684157176875e-07,1.176599724317384243e-07,-1.244385217091803497e-08,-1.323397896157985087e-06,1.469762992201140150e-06,1.843466179707320407e-07,4.093871197596854472e-08,1.304527017964574043e-06,1.428950440640619490e-06,2.837303725300444057e-07,1.468542677685036324e-06,-1.420237254023959395e-06,2.738332511853514006e-07,-8.476042978600162314e-08,-1.340327571597299539e-06,-5.661061308614989684e-08,6.973690602762872004e-08,-8.191537403945403639e-08,-4.982526888852589764e-07,-3.222306190764356870e-07,-7.851358674315633834e-08,1.666258640398154967e-06,1.420691660314332694e-06
-7.104686972070339834e-08,9.574594059813534841e-07,3.154337946398300119e-07,1.241860900336178020e-06,5.403382488111674320e-07,-1.572440029121935368e-03,-6.995749117777450010e-07,-2.134828136490796169e-08,-1.399913919158279896e-03,9.792655646378989331e-07,-8.790632364252815023e-07,-1.907738740555942059e-03,-9.630963904783129692e-05,-1.977782463654875755e-03,2.343996925446845125e-07,-7.587270260955847334e-07,4.870271775871515274e-03,-1.518722854143561563e-07,-2.896878186220419593e-07,7.477512117475271225e-04,-6.489819952548714355e-07,2.593912142856424907e-07,3.506310516968369484e-03,-1.625671138754114509e-04,-1.061603825291967951e-06,4.239609836531599285e-07,3.900867113770800643e-07,6.379796673172677401e-07,3.639686852693557739e-03,1.209423885484284256e-07,1.948108661053993274e-07,2.461770491208881140e-04,5.918571841903030872e-04,3.883367462549358606e-04,2.364475047215819359e-03,-5.613219400402158499e-07,-1.300069561693817377e-04,-4.066392648383043706e-05,-1.104197581298649311e-03,-4.111620057756226743e-07,-5.860800342816219199e-07,-4.514684900641441345e-03,-9.592096148480777629e-07,-2.971768253701156937e-08,-3.465051297098398209e-03,3.275607945397496223e-03,1.804765474844316486e-07,4.449925228300344315e-08,3.164716297760605812e-03,3.179960418492555618e-03,-8.041873797992593609e-07,2.460192190483212471e-03,-2.737956820055842400e-03,-1.595556256006602780e-07,-1.492376178191534564e-08,-2.396021038293838501e-03,-1.236886504329959280e-07,-6.085629706831241492e-07,-8.808872848931059707e-07,-1.719875228900491493e-07,-3.319744479313158081e-08,-1.740779964620742248e-07,1.754474593326449394e-03,1.261699595488607883e-03
1.400687033310532570e-03,5.280152436171192676e-06,4.705349449068307877e-03,4.370599985122680664e-03,4.986446350812911987e-03,-1.851642131805419922e-02,-3.703255439177155495e-03,3.811265109106898308e-03,-1.124693080782890320e-02,4.296740051358938217e-03,-1.001756987534463406e-03,-1.434620656073093414e-02,-8.504856377840042114e-03,-2.122914046049118042e-02,8.609751239418983459e-03,-3.982644062489271164e-03,2.651136368513107300e-02,-4.298315383493900299e-03,-1.082482413039542735e-06,1.087304670363664627e-02,-2.514408435672521591e-03,-1.822006197471637279e-06,1.925124600529670715e-02,-7.366002537310123444e-03,-4.709971603006124496e-03,3.005803534961160040e-07,1.430926044321267909e-08,6.263901945203542709e-03,1.720725744962692261e-02,4.433125257492065430e-03,1.008672919124364853e-02,1.157693844288587570e-02,8.356643840670585632e-03,8.691833354532718658e-03,1.492814347147941589e-02,-6.910836324095726013e-03,-8.847111836075782776e-03,-6.606870330870151520e-03,-1.531797647476196289e-02,-1.906891237013041973e-03,-5.680656991899013519e-03,-2.052200026810169220e-02,-2.886399393901228905e-03,4.180731411906890571e-05,-2.256518416106700897e-02,1.816007681190967560e-02,-5.704895011149346828e-04,-1.603966325092187617e-06,3.137317672371864319e-02,1.461197435855865479e-02,-5.548300221562385559e-03,1.166698615998029709e-02,-1.833597570657730103e-02,-2.996535971760749817e-03,3.808507074154476868e-07,-1.469750143587589264e-02,8.455263582618499640e-07,-9.812611097004264593e-07,-2.168844919651746750e-03,-4.503267817199230194e-03,9.191905547822898370e-08,1.705851815358983004e-07,1.269753370434045792e-02,1.288421638309955597e-02
-3.672234640816895990e-07,-3.541283035701781046e-07,2.503149062249576673e-06,2.008227284022723325e-06,1.922063347592484206e-06,-1.478807418607175350e-03,-1.916234168675146066e-06,2.668693923624232411e-06,-9.397788671776652336e-04,3.422548388698487543e-06,-1.148313728549510415e-07,-9.871921502053737640e-04,-1.056219189194962382e-04,-1.158770290203392506e-03,9.625264283386059105e-06,-2.272835899930214509e-06,1.543501857668161392e-02,-1.836783098951855209e-06,-2.897874367135955254e-07,9.944658959284424782e-04,-8.385601972804579418e-07,-3.667143175789533416e-07,1.533609349280595779e-03,-2.204126940341666341e-04,-1.600168798177037388e-05,1.061540118030279700e-07,6.569475630158194690e-08,3.269283979534520768e-06,1.532170572318136692e-03,2.751427246039384045e-06,3.426965804464998655e-06,3.197965852450579405e-04,6.789780454710125923e-04,5.109281628392636776e-04,-5.424148985184729099e-04,-3.141693696306901984e-06,-1.165195717476308346e-04,-5.949699334450997412e-05,-9.666952537372708321e-04,3.819888263478787849e-07,-3.433809069974813610e-06,-2.200260758399963379e-03,-1.687250119175587315e-06,-5.088147645437857136e-07,-1.284049940295517445e-03,-1.292636338621377945e-02,-3.458621335994394030e-07,6.321049994539862382e-08,-4.769768193364143372e-02,-1.216629985719919205e-02,-2.662309998413547873e-05,1.133120735175907612e-03,1.769458502531051636e-02,-1.818707346501469146e-06,5.829055567119212355e-07,-1.333037391304969788e-03,3.031739197467686608e-07,-2.317305956012205570e-07,-1.605095121703925543e-06,-2.349276201130123809e-06,2.279409301308987779e-07,9.547689305833273465e-10,1.002030796371400356e-03,8.763357182033360004e-04
5.696504672414448578e-07,1.890401222226500977e-07,1.358808958684676327e-06,1.424040760866773780e-06,1.990443251997930929e-06,-3.875408729072660208e-04,7.328124251216650009e-03,-2.246626652777194977e-02,-1.525118859717622399e-04,9.705400771053973585e-06,-5.080344749330834020e-07,-2.038623060798272491e-04,-5.256838630884885788e-05,-2.345020184293389320e-03,-8.537787944078445435e-02,-1.036670255416538566e-06,-5.783332139253616333e-02,-1.240070901076251175e-06,1.053712594512035139e-06,2.540904970373958349e-04,-7.832800292817410082e-07,9.968495078283012845e-07,2.965771418530493975e-04,-3.774737342610023916e-05,-7.921484112739562988e-02,4.013598129404272186e-07,-8.523585961484059226e-07,1.223296862917777617e-06,-3.557036444544792175e-02,1.226561266776116099e-06,1.655220444263250101e-06,1.193817442981526256e-04,1.137187427957542241e-04,9.186816896544769406e-05,-3.807193040847778320e-02,-1.432602743989264127e-06,-7.697337423451244831e-05,-1.403369060426484793e-05,-2.744068624451756477e-04,-7.351748081418918446e-07,-7.163903319451492280e-06,5.467422306537628174e-02,1.390003692358732224e-02,-2.749792429312947206e-07,3.530950751155614853e-03,1.619099080562591553e-02,7.442420724146359134e-07,3.673384298963355832e-07,3.609488718211650848e-03,-4.628349468111991882e-02,2.352016605436801910e-02,2.181701274821534753e-04,3.889819979667663574e-02,-9.470212489759433083e-07,1.444273038941901177e-07,-2.315656456630676985e-04,-1.118128238886129111e-06,9.777064633453846909e-07,-8.994034033094067127e-07,-1.302791019952564966e-06,3.896316513873898657e-07,1.871527075536505436e-07,-3.749692067503929138e-02,1.731516240397468209e-04
-5.222362347012676764e-07,-1.488224938839266542e-07,3.337453790663857944e-06,3.011741682712454349e-07,-7.910549584266846068e-07,-9.269703878089785576e-05,6.470442599493253510e-07,2.941877255580038764e-06,-1.265164173673838377e-04,4.046202320751035586e-06,9.871442898656823672e-07,-1.343610492767766118e-04,-4.239108420733828098e-06,-3.103050403296947479e-03,3.352564363012788817e-06,-1.119521357395569794e-06,2.153849974274635315e-02,4.439340557382820407e-07,9.086449637152327341e-08,9.647390106692910194e-05,6.914017376402625814e-07,2.042529843038209947e-07,1.506709726527333260e-03,-3.954556814278475940e-05,-4.217687546770321205e-06,3.218904254254084663e-08,-1.723062297287469846e-07,3.822101461992133409e-06,2.314209472388029099e-03,6.533683517773170024e-06,2.263330088680959307e-06,3.049988299608230591e-05,1.119930966524407268e-04,1.014375739032402635e-04,1.817246229620650411e-04,-1.615071482774510514e-06,-1.428939867764711380e-05,-2.569481330283451825e-05,-6.916565325809642673e-05,1.757968561832967680e-07,1.173332179860153701e-06,-3.067501820623874664e-03,-9.650475476519204676e-07,-6.391895226443011779e-07,-6.244399119168519974e-04,5.760085186921060085e-04,1.863533043433562852e-07,1.225226924361777492e-07,2.160307019948959351e-03,2.093347953632473946e-03,-2.637614215927897021e-06,1.599153911229223013e-04,-1.337224710732698441e-02,-6.266618868266959907e-08,2.067720430432018475e-07,-6.079410668462514877e-04,-1.697374152342945308e-08,8.203365950976149179e-07,-3.686476475195377134e-06,-3.883750196109758690e-06,-4.871769192504871171e-07,-3.475731205071497243e-07,1.329240767518058419e-04,1.098358115996234119e-04
1.637036348256515339e-06,1.841145490288909059e-06,-8.028805255889892578e-02,3.731593489646911621e-03,5.244581302576989401e-07,-1.686943869572132826e-04,-2.834316035205119988e-07,-1.428682357072830200e-01,-1.079650901374407113e-04,-6.887301802635192871e-02,-9.921193395712180063e-07,-1.298354909522458911e-04,1.787881739437580109e-02,-1.553229230921715498e-04,5.711227004212560132e-06,-2.131968415142182494e-07,-8.708626031875610352e-03,-2.348429006815422326e-07,-1.823921479626733344e-06,1.090294681489467621e-04,8.627398870885372162e-03,-1.114749466069042683e-06,1.824842765927314758e-04,-5.167153358343057334e-05,2.460354939103126526e-03,1.086843326447706204e-06,6.099654128775000572e-04,5.039805728301871568e-07,-2.488303231075406075e-03,8.421187089879822452e-07,1.164373543360852636e-06,1.817610609577968717e-04,8.601412991993129253e-05,1.305508054792881012e-02,1.468590053264051676e-04,-4.901014563074568287e-07,-4.701432771980762482e-05,7.568103820085525513e-02,-1.231123751495033503e-04,-1.884142761809926014e-06,1.826215907931327820e-02,3.402222692966461182e-02,-1.670388627417196403e-07,1.847235580498818308e-06,9.654547087848186493e-03,-8.808942139148712158e-02,-1.072036639016005211e-06,-1.687042413323069923e-06,-1.532209813594818115e-01,-5.831669084727764130e-03,-7.997155648808984552e-07,1.405965449521318078e-04,8.337008766829967499e-03,-1.625685115413944004e-07,1.277629053220152855e-06,-1.477258774684742093e-04,1.797750314835866448e-06,-1.502429540778393857e-06,7.785850670188665390e-03,-6.972622941248118877e-07,-8.593113420829467941e-08,2.144386854752156069e-07,4.848902672529220581e-02,1.140499880420975387e-04
3.514501543122605653e-07,2.009964639171357703e-08,5.466127959152800031e-07,2.566436592132959049e-07,4.332378296112437965e-07,-7.398459729301976040e-07,-2.888103551867970964e-07,1.442152438357879873e-06,-9.577618129696929827e-07,8.782773761595308315e-07,-6.261071234803239349e-07,-9.752166079124435782e-07,-9.723158882479765452e-07,-9.656283737058402039e-07,1.321819013355707284e-06,-5.153852953299065121e-07,8.181497105397284031e-04,1.406091172384549282e-07,-2.028922665431309724e-07,1.072065060725435615e-06,-1.189854827998715336e-07,7.677723345977938152e-08,3.784583441301947460e-06,-1.007231389849039260e-06,-9.516008390164643060e-07,-1.425028983703668928e-07,1.077684252948074572e-08,7.506219645847522770e-08,9.976694855140522122e-05,1.111245069296273869e-06,3.921198583611840149e-07,1.088072735910827760e-06,8.633521701995050535e-07,7.661039944650838152e-07,6.057254040570114739e-07,-5.390178330344497226e-07,-1.101796215152717195e-06,-9.948555543815018609e-07,-9.111681720241904259e-07,-3.769695524624694372e-07,-2.650509429713565623e-07,-1.141276094131171703e-03,-3.647869277756399242e-07,1.302436061223488650e-07,-5.906525257159955800e-05,6.057927635083615314e-07,-5.201534314380751312e-09,-5.012072534782419098e-08,6.017154737492091954e-05,3.015490165125811473e-06,-8.294446729451010469e-07,8.831232776174147148e-07,-3.984588090588658815e-07,-1.092945467462413944e-07,1.331358134848414920e-08,-1.448189209440897685e-06,-2.504093856714462163e-07,6.043234179742285050e-08,-2.767707130146845884e-08,-3.762928599826409481e-07,2.754554770945105702e-07,2.418501026113517582e-07,4.544714329313137569e-07,1.001858663585153408e-06
2.953215243906015530e-06,2.133784846591879614e-06,4.182473639957606792e-04,8.904624701244756579e-05,3.464033216005191207e-05,-7.881153724156320095e-04,-3.495792407193221152e-05,1.255703624337911606e-02,-8.391837589442729950e-03,5.991880898363888264e-04,-1.608977800060529262e-05,-1.048967242240905762e-02,-3.780217957682907581e-04,-1.378838624805212021e-02,1.882082724478095770e-04,-4.577327126753516495e-05,3.584489971399307251e-02,-4.992714093532413244e-05,-1.015265866044501308e-06,6.390105118043720722e-04,-2.784870230243541300e-05,-1.055154029927507509e-06,1.233389251865446568e-03,-4.201964009553194046e-03,-5.990396603010594845e-04,-1.426871989451683476e-07,-3.597434101720864419e-07,1.598906383151188493e-04,1.104063936509191990e-03,1.997024373849853873e-04,1.209141337312757969e-04,5.578295094892382622e-04,6.482418160885572433e-03,3.637918562162667513e-04,1.803779974579811096e-02,-8.654875273350626230e-05,-4.019121639430522919e-03,-1.870766747742891312e-03,-6.981875048950314522e-04,-2.947446773760020733e-06,-8.176809933502227068e-05,-4.924594890326261520e-03,-2.957414835691452026e-05,2.426472974548232742e-06,-1.112974993884563446e-02,9.459475404582917690e-04,-1.430508291377918795e-06,-2.009036506933625787e-06,3.107020258903503418e-02,6.013106089085340500e-03,-1.948069257196038961e-04,5.874812486581504345e-04,-2.599972859025001526e-02,-3.072985055041499436e-05,-1.086354700419178698e-06,-1.010109554044902325e-03,1.118034901992359664e-06,-1.586049165780423209e-06,-7.374204869847744703e-05,-4.629148752428591251e-04,-3.264634074184868950e-08,1.933308624302298995e-07,8.115982636809349060e-04,5.813523894175887108e-04
6.785070354453637265e-07,1.514021334969584132e-07,2.273994397228307207e-07,1.193286152556538582e-06,6.052534331502101850e-07,-1.572221517562866211e-03,-8.867933729561627842e-07,4.348970605860813521e-07,-2.407309220870956779e-04,6.435107593460998032e-07,-7.512428510381141677e-07,-6.630931748077273369e-04,-6.463997578975977376e-06,-9.604597580619156361e-04,3.352926796651445329e-05,-1.027595544655923732e-06,4.852404352277517319e-03,-3.576025449092412600e-07,-9.048449101101141423e-07,3.834075469058007002e-04,-7.952922373988258187e-07,-2.006647292773777735e-07,2.471755258738994598e-03,-1.951148988155182451e-06,-1.247188833986001555e-06,1.229482791131886188e-07,5.069975372862245422e-07,1.293159698434465099e-06,3.218432655557990074e-03,4.335575169989169808e-07,4.149352389504201710e-05,2.245263312943279743e-04,1.495944161433726549e-04,7.764363544993102551e-05,1.030885730870068073e-03,-9.187980367642012425e-07,-1.232075737789273262e-04,-2.453469960528309457e-06,-4.628565220627933741e-04,-8.966232485363434535e-07,-1.110220864575239830e-06,-5.359203089028596878e-03,-5.511547556125151459e-07,7.171563538577174768e-07,-2.521078567951917648e-03,1.327720354311168194e-03,2.177258124902436975e-07,-9.319284686171158683e-07,1.245226012542843819e-03,2.054484793916344643e-03,-2.482626726418857288e-08,7.585362181998789310e-04,-1.907327678054571152e-03,-4.135845870223420206e-07,5.010427344132040162e-07,-1.073412131518125534e-03,6.137248078630364034e-07,-5.302213139657396823e-07,-3.572088758119207341e-07,-4.061092795382137410e-07,-2.198300030897826218e-08,9.064137884706724435e-08,3.870019572786986828e-04,3.541003097780048847e-04
2.348557018194696866e-06,1.806931663850264158e-06,1.143484041676856577e-05,5.965716809441801161e-06,1.743217035254929215e-05,-4.290045471861958504e-04,-5.135658284416422248e-06,3.235125914216041565e-03,-1.863760844571515918e-04,1.442849043087335303e-05,-3.409270220799953677e-06,-1.877026516012847424e-04,-6.231141742318868637e-05,-6.939662154763936996e-03,3.109645331278443336e-05,-3.805869710049591959e-06,3.042901493608951569e-02,-3.304068059151177295e-06,9.132166383096773643e-07,2.253619459224864841e-04,-2.406567546131554991e-06,-3.393200032064669358e-08,5.479472456499934196e-04,-5.082069401396438479e-05,-3.200738501618616283e-05,-1.103627127463369106e-07,1.933389981445543526e-08,2.150091677322052419e-05,5.396842607297003269e-04,1.179939772555371746e-05,3.466217094683088362e-05,9.231887815985828638e-05,1.171568583231419325e-04,7.775137055432423949e-05,1.388103235512971878e-02,-1.452632204745896161e-05,-5.432992111309431493e-05,-3.148668110952712595e-05,-2.661849721334874630e-04,-2.374390760451206006e-06,-5.533140574698336422e-05,-6.685292464680969715e-04,-2.688857193788862787e-06,1.922655656017013825e-06,-4.033466684632003307e-04,5.001384997740387917e-04,1.311954633820278104e-06,9.012802060226476897e-09,2.973899804055690765e-02,1.162848807871341705e-02,-3.787970126722939312e-05,2.830273297149688005e-04,-3.008805960416793823e-02,-2.889769120884011500e-06,-4.328508680373488460e-07,-4.922825028188526630e-04,-6.769960805286245886e-07,-7.511211492783331778e-07,-2.558153028076048940e-06,-1.859177427832037210e-05,2.159242598054333939e-07,1.543192524877667893e-07,2.742946089711040258e-04,1.501007354818284512e-04
1.171104742070383509e-07,4.346887578776659211e-07,3.162581415381282568e-04,2.355530705244746059e-05,1.468867994844913483e-04,-4.899157676845788956e-03,-8.593673896939435508e-07,9.484360816713888198e-07,-8.681864710524678230e-04,5.355325411073863506e-04,-1.094486634656277602e-07,-1.680486137047410011e-03,-9.911006782203912735e-04,-4.376096650958061218e-03,9.696059860289096832e-04,-1.732621853989257943e-06,1.047892030328512192e-02,-2.638182195369154215e-06,-2.907469252022565342e-07,1.639208639971911907e-03,-6.219710257937549613e-07,-4.624899645477853483e-07,5.767796654254198074e-03,-4.391769471112638712e-04,-5.909708561375737190e-04,3.570819018250404042e-08,2.925705473444395466e-07,1.986728311749175191e-04,4.215770866721868515e-03,1.123296897276304662e-04,7.103288080543279648e-04,1.798164215870201588e-03,7.059113704599440098e-04,8.012450416572391987e-04,2.505303360521793365e-03,-3.735769423656165600e-04,-8.790490101091563702e-04,-4.384896310511976480e-04,-2.139602322131395340e-03,1.875914108495635446e-07,-1.267965068109333515e-03,-5.975848063826560974e-03,-1.356318875878059771e-06,1.627697265860206244e-08,-4.286820068955421448e-03,-4.761102609336376190e-03,-4.962172965861100238e-07,-5.812965468976472039e-07,3.512364812195301056e-03,2.607597038149833679e-03,-5.956916138529777527e-04,1.253431197255849838e-03,9.177795052528381348e-02,-2.416145889583276585e-06,4.447616390734765446e-07,-3.933507017791271210e-03,-3.504307812818296952e-07,4.329436080752202542e-07,2.782099386422487441e-07,-1.030333078233525157e-04,-1.090280008497757080e-07,-1.154964550664772105e-07,2.181646414101123810e-03,1.041966956108808517e-03
7.077013037815049756e-07,1.134042236117238645e-06,1.504246256445185281e-06,3.978962013206910342e-07,5.552523134610964917e-07,-3.040526062250137329e-04,-7.674947823943512049e-07,1.251363869414490182e-06,-8.850677772898052353e-07,1.180082108476199210e-06,-7.698193940086639486e-07,-3.965761425206437707e-05,-1.017239128486835398e-06,-1.834453287301585078e-04,1.290309000978595577e-06,-9.031500098899414297e-07,8.693139534443616867e-04,-1.557647010486107320e-06,-9.139488952314422932e-07,2.276362647535279393e-05,-7.964387691572483163e-07,-4.546851073428115342e-07,6.877523264847695827e-04,-8.769432042754488066e-07,-1.171016492662602104e-06,5.434745276033936534e-08,-9.642312903679339797e-08,1.287331770072341897e-06,5.089017795398831367e-04,1.066425511453417130e-06,1.574070552123885136e-06,9.716526392367086373e-07,7.135414534786832519e-07,8.759084266785066575e-07,3.765905858017504215e-04,-1.736091917337034829e-06,-1.145988676398701500e-06,-1.155503355221298989e-06,-1.217045864905230701e-04,-9.948519164026947692e-07,-2.285149321323842742e-06,-6.139619508758187294e-04,-3.662487699784833239e-07,1.420522721673478372e-06,-3.983246278949081898e-04,5.559535929933190346e-04,-7.316699566217721440e-07,-6.458998882408195641e-07,2.537296968512237072e-04,3.406330652069300413e-04,-1.331955559180642013e-06,4.816204454982653260e-05,-2.593912649899721146e-04,-4.381818712317908648e-07,1.626390968567648088e-07,-4.113659379072487354e-04,2.139620036700762284e-08,-7.486233926101704128e-07,-1.433048851140483748e-06,-1.229984945894102566e-06,-2.978586088886459038e-08,7.775881272209517192e-08,2.101521658914862201e-06,7.670234367651573848e-07
6.716977222822606564e-04,3.377208195161074400e-04,2.613244345411658287e-03,1.672049285843968391e-03,1.488007372245192528e-03,-4.098933655768632889e-03,-1.342879491858184338e-03,9.920944459736347198e-03,-6.413455121219158173e-03,2.676873933523893356e-03,-6.697532371617853642e-04,-9.520984254777431488e-03,-1.615877379663288593e-03,-1.783167757093906403e-02,1.583611592650413513e-03,-1.375266700051724911e-03,2.539639361202716827e-02,-1.350373844616115093e-03,-1.565507204759342130e-06,2.919997088611125946e-03,-1.055475557222962379e-03,-3.359320317031233571e-06,4.212834872305393219e-03,-7.015367038547992706e-03,-2.336517907679080963e-03,1.550557300333821331e-07,-7.023591024335473776e-07,1.278468291275203228e-03,8.717914111912250519e-03,9.719564695842564106e-04,1.546088489703834057e-03,2.885307651013135910e-03,7.115268148481845856e-03,1.208029338158667088e-03,1.544326078146696091e-02,-1.317076385021209717e-03,-6.055603735148906708e-03,-1.173472614027559757e-03,-4.041997715830802917e-03,-9.297372307628393173e-04,-1.836262526921927929e-03,-1.006518211215734482e-02,-1.138856285251677036e-03,3.144528309348970652e-04,-7.292359136044979095e-03,9.962967596948146820e-03,-6.707244901917874813e-04,-1.396091247443109751e-04,2.482089772820472717e-02,1.902354881167411804e-02,-1.824423437938094139e-03,2.198989037424325943e-03,-2.546644769608974457e-02,-1.052280538715422153e-03,-7.608792884639115073e-07,-3.816766897216439247e-03,4.210001804949570214e-07,-1.033123680826975033e-06,-5.857546348124742508e-04,-1.851552864536643028e-03,1.802667668471258366e-07,7.735882157078322052e-09,3.229703288525342941e-03,2.776033710688352585e-03
-8.116786887057969579e-08,-4.495673877613626246e-08,2.160991698474390432e-06,5.488517444973695092e-07,1.391551904816878960e-07,-2.396231138845905662e-06,-5.976300485599495005e-07,1.938779860211070627e-06,-2.270412778671015985e-06,2.088113433273974806e-06,-8.560621154174441472e-07,-2.794325382637907751e-06,-2.406163275736616924e-06,-5.711065750801935792e-05,1.043635506903228816e-06,-1.016450823954073712e-06,1.652580336667597294e-03,-2.569926493833918357e-07,5.649910761462706432e-08,2.226660399173852056e-06,-3.426390264849032974e-07,-2.110255650222825352e-07,1.089962781406939030e-03,-2.441095375615986995e-06,-2.189085535064805299e-06,-1.268354594685661141e-07,3.586083323625643970e-07,2.404312454018509015e-06,9.242393425665795803e-04,2.105757857862045057e-06,2.113977643602993339e-06,2.199975142502808012e-06,1.634717250453832094e-06,1.950584419319056906e-06,3.009662759723141789e-05,-4.557755346468184143e-07,-1.944691121025243774e-06,-1.957605718416743912e-06,-1.030025941872736439e-06,1.722606981502394774e-07,-1.642525262468552683e-07,-1.538751646876335144e-03,6.729655410708801355e-08,4.189950075783599459e-08,-6.836650427430868149e-04,5.759310442954301834e-05,5.745663145262369653e-08,-2.627049155989880092e-08,3.608287661336362362e-04,4.425314837135374546e-04,-1.993599198613082990e-06,1.141923894465435296e-05,-5.077981768408790231e-05,-1.682186052676115651e-07,-4.572205227759695845e-07,-6.293539772741496563e-04,1.524548878251152928e-07,-2.320680891898518894e-07,-2.366480430282535963e-06,-2.402276550128590316e-06,2.430914847195708717e-08,1.437607153320641373e-07,2.627816229505697265e-06,2.245141104140202515e-06
-1.010661847544724878e-07,1.215256872910686070e-07,-4.358205956123128999e-07,-2.746108052065210359e-08,-1.265877926925895736e-07,3.022171881639224011e-07,4.296178346407941717e-08,-1.831749187886089203e-07,-3.712561635893507628e-07,-5.524724677741232881e-09,-2.049753220489947125e-07,-6.967646868361043744e-07,-1.839329684116819408e-07,-6.803665542065573391e-07,-9.671124701071676100e-08,1.046286328687529021e-07,6.303579880295728799e-07,1.581012583073970745e-07,-1.242555924818589119e-07,1.234406710182156530e-07,-2.434633756820403505e-07,3.950991072088072542e-07,9.895395578496390954e-07,-2.867122006477984542e-08,7.989502393002112512e-08,2.656112485510675469e-08,3.957291312417510198e-07,-4.691543722401547711e-07,1.436154889233876020e-06,-2.109785981474487926e-07,1.756337439928756794e-07,-2.328477535229467321e-07,2.617803716020716820e-07,5.226723374107677955e-07,5.034934247305500321e-07,2.810334649439027999e-07,3.371451953171344940e-07,2.510528247512411326e-07,2.963220708807057235e-07,7.044656769039647770e-08,2.942457228982675588e-07,-1.267605853172426578e-06,8.521561767338425852e-08,-4.025127964268904179e-08,-7.185323624980810564e-07,-1.403752918349709944e-07,-2.220811090580809832e-08,2.362382645060279174e-07,9.908275160341872834e-07,7.184967785178741906e-07,1.200011610080764513e-07,9.603023727322579361e-07,-1.261990860257355962e-06,7.287371062147940393e-08,2.630824837979162112e-07,-3.755446584818855627e-07,-2.257502984548409586e-08,-1.894784560363405035e-07,2.642587162426934810e-07,-4.201814931548142340e-07,-1.631147341640826198e-07,1.839227081745775649e-07,3.462090205630374840e-07,-9.988080762468598550e-08
6.393575575202703476e-03,-7.728735909040551633e-07,9.929909138008952141e-04,1.332904445007443428e-03,4.599506501108407974e-03,-5.106283351778984070e-03,-1.654034364037215710e-03,2.550295554101467133e-03,-7.078409194946289062e-03,-1.055947598069906235e-02,-6.560290057677775621e-05,-8.915843442082405090e-03,-2.234503859654068947e-03,-1.113379932940006256e-02,2.740325871855020523e-03,-5.263261846266686916e-04,7.632558234035968781e-03,-1.145507209002971649e-03,1.061806983670976479e-06,1.877011731266975403e-03,-1.190796439232144621e-07,-1.260256567547912709e-06,3.577981842681765556e-03,-6.296835839748382568e-03,-2.663879713509231806e-04,1.268329583581362385e-06,3.331606421852484345e-07,5.397477187216281891e-03,2.358164824545383453e-02,2.718088449910283089e-03,1.131579279899597168e-02,3.508312860503792763e-03,5.864961072802543640e-03,3.745684167370200157e-03,2.779756486415863037e-02,-4.697952419519424438e-03,-8.174544200301170349e-03,-1.874556182883679867e-03,-3.781015053391456604e-03,-4.554170300252735615e-04,-4.026419017463922501e-03,-3.904945775866508484e-02,-1.192567404359579086e-03,-3.769277441278973129e-07,-1.028312742710113525e-02,5.238143261522054672e-03,-1.905239187180995941e-03,3.086011020059231669e-07,-1.149752829223871231e-02,2.416027896106243134e-02,-2.692136168479919434e-02,2.215006388723850250e-03,-1.505088061094284058e-02,-4.511538892984390259e-03,6.418348164061171701e-08,-2.466849517077207565e-03,-2.087836264763609506e-06,1.902732833514164668e-06,3.247914355597458780e-05,-6.756562506780028343e-04,1.293250306844129227e-06,2.643620859998918604e-07,2.384977787733078003e-02,3.041983582079410553e-03
3.091343216965469765e-07,2.634872657836240251e-07,2.019166004174621776e-06,1.832857634553874959e-07,4.302777938391955104e-07,-1.897416268548113294e-06,-2.938691352483147057e-07,2.002203700612881221e-06,-1.409128458362829406e-06,1.986794131880742498e-06,-1.470271371317721787e-07,-1.394112132402369753e-06,-1.616027589079749305e-06,-1.263520971406251192e-06,2.101424342981772497e-06,-4.195665326278685825e-07,6.727131549268960953e-04,-3.118166489457507851e-07,3.916133906045615731e-08,1.794052764125808608e-06,-1.771123834259924479e-07,-2.831577816664321290e-08,4.478282062336802483e-05,-1.955410880327690393e-06,-1.651713091632700525e-06,-4.833951550153869903e-08,-1.693891391596480389e-07,2.195387423853389919e-06,5.429059383459389210e-04,2.367873548791976646e-06,2.022281250901869498e-06,2.509849309717537835e-06,2.050721150226308964e-06,1.836302658375643659e-06,2.338661943213082850e-06,-1.695486702146808966e-07,-1.735611476760823280e-06,-1.888319843601493631e-06,-1.577354510118311737e-06,1.042181949628684379e-07,-1.890439023100043414e-07,-5.296457093209028244e-04,-6.653222861530139198e-09,2.189493670812225901e-07,-1.352426352241309360e-05,9.125586757363635115e-07,-5.834068517174273438e-08,1.217860301494511077e-07,1.691601755737792701e-05,1.683111986494623125e-05,-1.559567976983089466e-06,8.902665058485581540e-07,-6.191337433847365901e-06,-6.568153025909850840e-07,-7.404305790714715840e-08,-1.342638938695017714e-06,-2.793957207813946297e-07,1.464724874722378445e-08,-7.488214919249003287e-07,-2.557312427597935311e-06,-2.205727298587589758e-07,1.433053498089975619e-08,2.568760919530177489e-06,1.987496261790511198e-06
2.959434652893833118e-07,-9.826074176544352667e-08,5.739344999255990842e-08,1.984166146939969622e-07,5.975687145109986886e-08,-1.790829969650076237e-06,2.066904016828630120e-07,-2.106208354234695435e-02,-7.662011967113357969e-07,-1.921799965202808380e-02,3.711452336574438959e-07,-1.518714270787313581e-06,9.034086474457581062e-07,-2.135506974809686653e-06,-1.445060178184576216e-07,-7.519441425074546714e-08,3.181280590069945902e-06,-5.439770234261231963e-08,-2.601867663543089293e-07,6.383291406564239878e-07,-2.926619799836771563e-07,8.680905949631778640e-08,3.147639517919742502e-06,1.139767618951736949e-06,-8.305432430688597378e-08,2.247536556865270541e-08,4.744588295579887927e-07,1.903399038383213338e-07,2.675729547263472341e-06,-6.276373198943474563e-08,1.922265226994568366e-07,-9.980617505789268762e-07,-6.221721093879750697e-08,-8.354270448762690648e-07,1.761535600053321104e-06,-1.693061904006754048e-07,1.081475261344166938e-06,8.545989658159669489e-07,-2.280025768186533242e-07,-4.571267595565586817e-07,-2.291791645347984741e-07,-2.940811782536911778e-06,-3.008538840276742121e-07,3.965559471907909028e-07,-3.091824964940315112e-06,2.422369561827508733e-06,1.299119958275696263e-07,9.450642579622581252e-08,2.657744289535912685e-06,-8.267737925052642822e-02,-1.432286182989628287e-07,1.927557377712219022e-06,-2.602328322609537281e-06,-1.507374207676548394e-07,3.011529940977197839e-07,-2.130776465492090210e-06,-3.654233751149149612e-07,-5.581356958828109782e-07,-1.728303402614983497e-07,-7.234424259650040767e-08,-8.447151422785736941e-09,-2.740683271440502722e-07,1.103677277569659054e-06,9.425865954426626558e-08
1.447079625904734712e-06,1.252416836905467790e-06,6.486978963948786259e-04,2.999049320351332426e-04,3.284003469161689281e-04,-4.568855743855237961e-03,-2.485161239746958017e-04,9.626617538742721081e-04,-6.194397341459989548e-03,7.026574457995593548e-04,-2.218695499323075637e-06,-8.926889859139919281e-03,-1.188709749840199947e-03,-1.272557117044925690e-02,7.370368693955242634e-04,-3.323044220451265574e-04,2.964658476412296295e-02,-2.488190948497503996e-04,-1.927951188918086700e-06,2.684807172045111656e-03,-7.507528061978518963e-05,-3.479421764041035203e-07,1.108398754149675369e-02,-1.176537130959331989e-03,-1.072881277650594711e-03,1.070677129177965980e-07,4.947748948325170204e-07,7.454132428392767906e-04,1.510513853281736374e-02,8.593088132329285145e-04,6.541977054439485073e-04,1.112777623347938061e-03,5.207106471061706543e-03,1.860570162534713745e-03,1.007230114191770554e-02,-5.448965821415185928e-04,-8.903025882318615913e-04,-1.079308334738016129e-03,-1.609855680726468563e-03,-7.213679396045336034e-07,-4.087084671482443810e-04,-1.719059608876705170e-02,-2.456966612953692675e-04,7.292196642083581537e-07,-1.570578105747699738e-02,1.161317341029644012e-02,-2.748500378402241040e-07,-1.775757596078619827e-06,1.845805346965789795e-02,1.244807988405227661e-02,-6.194470915943384171e-04,4.986826330423355103e-03,-1.740580983459949493e-02,-2.645229105837643147e-04,1.244169652636628598e-06,-8.543297648429870605e-03,2.113033133355202153e-06,-6.757059054507408291e-07,-5.063469288870692253e-04,-6.549908430315554142e-04,-1.560621520901861459e-09,-1.786487899835265125e-07,4.037430975586175919e-03,1.948062214069068432e-03
2.543785058151115663e-07,-5.953028221483691595e-07,3.072035724471788853e-06,3.062567429878981784e-06,3.707055157065042295e-06,-8.713185088708996773e-04,-2.825275942086591385e-06,2.341850631637498736e-06,-2.116900286637246609e-04,2.133294628947624005e-06,-1.486490873503498733e-06,-3.159688785672187805e-04,-4.740157237392850220e-05,-2.647866262122988701e-03,2.363727071497123688e-05,-2.919844746429589577e-06,7.456238847225904465e-03,-2.771149866021005437e-06,-1.620531122625834541e-07,4.364194464869797230e-04,-1.719393367238808423e-06,-1.278911412327943253e-07,7.215928635559976101e-04,-3.253647446399554610e-05,-2.928515186795266345e-06,2.448682892008946510e-07,-2.677854240573651623e-07,2.912843683589017019e-06,5.040965625084936619e-04,2.612230673548765481e-06,2.345959183003287762e-05,1.251067151315510273e-04,1.357989822281524539e-04,6.664579996140673757e-05,5.127519834786653519e-04,-1.139181495091179386e-05,-7.011129491729661822e-05,-2.676209305718657561e-06,-5.729991826228797436e-04,-2.525740683267940767e-07,-4.339431325206533074e-05,-8.932068012654781342e-04,-2.181224544983706437e-06,-7.335916620831994805e-07,-6.108642555773258209e-04,7.891242858022451401e-04,-3.037457574350810319e-08,6.714867595292162150e-07,6.263226270675659180e-03,6.881657755002379417e-04,-3.730122989509254694e-05,3.149550466332584620e-04,-4.494848661124706268e-03,-2.416687493678182364e-06,-1.770125379607634386e-07,-4.164805286563932896e-04,-2.585697131962660933e-07,1.126945562646142207e-06,-1.733590693220321555e-07,-2.905273504438810050e-06,-7.331173890179343289e-08,1.038507875250616053e-07,3.545906802173703909e-04,2.443004632368683815e-04
1.668352865635824855e-06,1.661012220210977830e-06,-9.646432474255561829e-03,8.330997079610824585e-02,1.548734189782408066e-06,-3.898754657711833715e-04,-1.634129603189649060e-06,-1.132725849747657776e-01,-2.356305922148749232e-04,1.184804091280966531e-06,-1.464533397665945813e-06,-3.040922165382653475e-04,-8.548191203772148583e-07,-3.320575051475316286e-04,1.537826619824045338e-06,-1.748134991430561058e-06,4.945902619510889053e-04,-1.336581135547021404e-06,-1.624160290703002829e-06,1.276857365155592561e-04,-1.747467194945784286e-06,-1.086209977074759081e-06,2.574062091298401356e-04,-1.425344180461252108e-06,5.964238941669464111e-02,4.926163228446966968e-07,-1.928424211428136914e-07,2.106637793986010365e-06,-6.195939332246780396e-02,1.435162971574754920e-06,1.869346760940970853e-06,7.854760042391717434e-07,1.150163188867736608e-05,2.240678004454821348e-04,-3.381653875112533569e-02,-1.961555199159192853e-06,-9.907112143991980702e-07,-7.323722570617974270e-07,-2.994202950503677130e-04,-1.721707349133794196e-06,-1.417554699401080143e-06,-5.709420144557952881e-02,-1.368918219668557867e-06,1.831531790230656043e-06,-3.580634074751287699e-04,1.941100490512326360e-04,-8.730959848435304593e-07,-1.334343437520146836e-06,2.105799649143591523e-04,2.050199982477352023e-04,-1.419901650479005184e-06,2.163234725594520569e-02,-2.620769850909709930e-02,-1.671326344876433723e-06,-3.446115215410827659e-08,-1.656952081248164177e-04,1.389197450407664292e-06,-1.967294110727380030e-06,-1.912230118250590749e-06,-1.767764956639439333e-06,5.555008542046380171e-08,2.773766993868775899e-07,2.171609521610662341e-04,3.015769179910421371e-04
-8.607236168245435692e-08,7.941225987906364026e-08,2.540709687082198798e-08,2.833386361089651473e-07,4.629615375506546116e-07,1.277422256862337235e-08,-2.184563356877333717e-07,5.387056489780661650e-08,-4.607065022810274968e-07,-1.995335026094835484e-07,-1.268146299082673067e-08,-4.874094727824740403e-08,-3.719547692071500933e-08,-2.162475993827683851e-07,1.601642622972576646e-07,-1.766042458939409698e-07,-8.922935421651345678e-07,-9.087564478704734938e-08,-8.197601886195116094e-08,4.122512393678334774e-07,1.361517121267752373e-07,6.117742401556824916e-08,-7.260229750727376086e-08,-4.719991864021721995e-07,8.166527898367803573e-09,-9.714398174764937721e-08,1.077951736760951462e-07,-4.918458174074658018e-08,-6.504087708890438080e-03,2.913480159350001486e-07,-1.145337691355052812e-07,2.835249404142814456e-07,1.112879175479974947e-07,5.219212084739410784e-07,-2.050682716071605682e-02,2.235353946389295743e-08,3.357446587415324757e-08,-3.873948628552170703e-07,-1.919578096476470819e-07,-3.436991278249479365e-07,3.903479495193096227e-08,2.308000996708869934e-02,-1.560018070279056701e-08,-7.527518164351931773e-09,-1.735941026481668814e-07,2.511312686692690477e-07,1.691813089621518884e-08,4.443353418537299149e-08,-9.957205038517713547e-04,-3.137530386447906494e-02,-1.815362651313989772e-07,2.780624299703049473e-07,2.527408674359321594e-02,-2.485177788003056776e-07,1.348649050214589806e-07,-3.800268757458979962e-07,-4.580909873652672104e-08,3.526974623468959180e-08,-6.262465745976442122e-08,-1.157860083367268089e-07,-1.236275863902847050e-07,-1.133500333594383847e-07,4.595879374846845167e-07,3.333508686864661286e-07
1.230573616339825094e-07,2.555060518716345541e-08,9.495408193060939084e-08,3.901713796494732378e-08,-2.029530605796026066e-07,6.228149374010172323e-08,-5.053361817886070639e-08,2.785335198041138938e-07,7.262461281243304256e-07,3.937905290740673081e-08,-1.428955176407953331e-08,9.274247645407740492e-07,1.381435321690105411e-08,1.437369689938350348e-07,-2.009382882306454121e-07,2.984293416830041679e-07,-1.193749767480767332e-06,-4.174058076955589058e-08,3.375357664481271058e-07,-5.009891310692182742e-07,-5.741429109917817186e-09,-1.019329971541083069e-07,-1.092398136393057939e-07,1.933178026547466288e-07,7.583170003044870100e-08,-1.282665778035152471e-07,2.111554806560889119e-07,-3.734984943548624869e-08,-5.562640126299811527e-07,1.787502981187572004e-07,1.387377182027194067e-07,-4.054785449625342153e-07,-5.234927158426216920e-08,-3.362292773090302944e-07,3.893166677926274133e-08,-1.624838006364370813e-07,2.963852239190600812e-07,4.886952709171055176e-08,-8.238407644967082888e-08,2.927979494415922090e-07,2.739368198945157928e-07,5.616939233732409775e-07,8.545609375687490683e-08,-2.668660101790010231e-07,6.378596140166337136e-07,-9.558330305026174756e-08,7.108347688244975870e-08,3.740885006209282437e-07,-5.551015213131904602e-02,-8.575843821745365858e-07,4.019901496121747186e-07,-8.686042178851494100e-07,5.424366236184141599e-07,9.912378828857981716e-08,-1.167858698636337067e-08,-1.544074450521293329e-07,8.683054630864717183e-08,3.780226052185753360e-07,6.510923356017883634e-08,-2.563396037658094428e-07,1.772904045793666228e-09,1.394163717804985936e-07,-5.657187784890993498e-08,-2.839129109588611755e-08
7.596368050144519657e-07,-5.781112477620808932e-08,2.943250365206040442e-06,2.444655592626077123e-06,2.511452748876763508e-06,-1.946039701579138637e-04,-2.326194135093828663e-06,2.597525735836825334e-06,-3.910480518243275583e-05,2.753007720457389951e-06,-1.409490892001485918e-06,-6.163713260320946574e-05,-2.582958131824852899e-06,-1.544571568956598639e-04,2.284230276927701198e-06,-2.188683083659270778e-06,1.532137859612703323e-02,-2.111055891873547807e-06,1.106901891034794971e-06,3.663403913378715515e-05,-1.492556407356460113e-06,1.323366927152846984e-08,3.303566481918096542e-04,-2.700625600482453592e-06,-2.930522441602079198e-06,-5.294447547044001112e-08,1.929984705384413246e-07,2.488285417712177150e-06,-4.398066550493240356e-02,2.690459950827062130e-06,3.063670192204881459e-06,3.584419346225331537e-06,1.216464079334400594e-05,2.939354544650996104e-06,4.256752133369445801e-02,-2.732404709604452364e-06,-2.750849262156407349e-06,-3.044008963115629740e-06,-4.209560938761569560e-05,-5.214008638176892418e-07,-2.079900013995938934e-06,-4.948626155965030193e-04,-1.889705345092806965e-06,-1.959824942332488718e-07,-2.363374078413471580e-04,-4.487844929099082947e-02,4.786289764524553902e-07,1.449129854336206336e-06,1.341954059898853302e-02,3.706541901919990778e-04,-2.198503125327988528e-06,1.580991665832698345e-04,-6.073576398193836212e-03,-2.215663698734715581e-06,-5.182407107895414811e-07,-3.702413232531398535e-04,-1.557579935251851566e-06,8.163685265571984928e-07,-1.675036855885991827e-06,-2.115073584718629718e-06,9.084095609068754129e-08,-1.391139381468065039e-08,1.289074716623872519e-04,4.030206036986783147e-05
6.583901122212409973e-04,5.146406474523246288e-04,4.015573300421237946e-03,2.237023552879691124e-03,8.673792472109198570e-04,-1.841379143297672272e-02,-1.627589808776974678e-03,1.715277507901191711e-02,-2.399559691548347473e-02,5.757550708949565887e-03,-6.880207220092415810e-04,-2.746646106243133545e-02,-8.157442323863506317e-03,-3.076498955488204956e-02,6.334960926324129105e-03,-2.320019295439124107e-03,3.645146638154983521e-02,-2.012177836149930954e-03,-1.920877366501372308e-06,1.987122930586338043e-02,-1.952625229023396969e-03,-2.139680418622447178e-06,2.384719252586364746e-02,-2.047990448772907257e-02,-7.377476897090673447e-03,8.703995746373038855e-08,1.868416688921570312e-06,1.017178781330585480e-02,8.614656515419483185e-03,1.211413368582725525e-02,5.472220014780759811e-03,8.965934626758098602e-03,2.465851604938507080e-02,1.959779486060142517e-02,-2.137524448335170746e-02,-1.009448152035474777e-02,-1.818790845572948456e-02,-1.571961678564548492e-02,-1.070651970803737640e-02,-8.235429995693266392e-04,-1.279985997825860977e-03,-3.228137036785483360e-03,-2.324671251699328423e-03,2.936449309345334768e-04,-3.160623833537101746e-02,-1.756688207387924194e-02,-2.261090372712715180e-07,-3.941338218282908201e-05,2.989081665873527527e-02,-1.051560416817665100e-02,-2.781006973236799240e-03,4.103427752852439880e-02,-4.180353600531816483e-03,-5.299480166286230087e-03,1.915750317493802868e-06,-2.077535353600978851e-02,1.895343739306554198e-04,-6.685788393951952457e-04,-7.314574439078569412e-03,-4.348204936832189560e-03,2.745690608207951300e-07,1.279269810083860648e-07,1.719120074994862080e-03,1.311954762786626816e-02
2.603014195301511791e-07,2.702946630961378105e-07,4.706697041001461912e-07,-2.345653911106637679e-07,-1.162404601018351968e-06,-1.924510343087604269e-06,6.571868880200781859e-07,3.374956918378302362e-07,-1.270813072551391087e-06,4.255240924067038577e-07,1.185820224236522336e-06,-1.436484353689593263e-06,-1.297077119488676544e-06,-1.843967424974835012e-06,8.303543381771305576e-07,3.550270548657863401e-07,-1.885712990770116448e-04,4.753320297368190950e-07,6.908867788979478064e-08,1.635970193092362024e-06,1.003017587208887562e-06,-1.138940675105004630e-07,1.040054048644378781e-04,-1.227614347953931428e-06,-1.034135038935346529e-06,-1.638379742985307530e-08,4.456474300695845159e-07,5.652906338582397439e-07,5.909254105063155293e-05,6.290004535003390629e-07,7.032751909719081596e-07,1.434878981854126323e-06,1.197278606923646294e-06,1.188078954328375403e-06,1.704737201180250850e-06,-6.083919288357719779e-07,-1.109915842789632734e-06,-1.000912106974283233e-06,-1.756263031893467996e-06,6.433955945794878062e-07,-3.821715210960974218e-07,-1.017027607304044068e-04,6.917006203366327100e-07,-6.736951263519586064e-08,-3.488757283776067197e-05,2.160002168238861486e-06,-2.811550530168460682e-07,6.476496849927571020e-08,3.041236959688831121e-05,1.124012487707659602e-05,-8.234047754740458913e-07,1.684362587184295990e-06,-1.883787717815721408e-06,5.228884560892765876e-07,-1.652381342864828184e-07,-1.744218025123700500e-06,2.916395658303372329e-07,3.356915669883164810e-07,4.532008119895181153e-07,-3.479940176021045772e-07,3.642662989022937836e-07,-8.311841526165153482e-08,1.360896249025245197e-06,1.224840957547712605e-06
1.561633311553123349e-08,-1.001372051945281783e-08,2.000001586566213518e-06,6.117902984215106699e-08,-7.988408583514683414e-07,-7.076172187225893140e-05,5.287921567287412472e-07,1.329185352005879395e-06,-2.651039267220767215e-06,2.306142505403840914e-06,8.247897085311706178e-07,-2.404264523647725582e-05,-2.660096924955723807e-06,-9.429419878870248795e-05,2.346964492971892469e-06,3.549008198433512007e-08,4.839052853640168905e-04,4.466107839107280597e-07,-3.325237116769130807e-07,2.704241524043027312e-06,5.818437216476013418e-07,1.618067528852407122e-07,2.938063698820769787e-04,-2.410131173746776767e-06,-2.169425215470255353e-06,4.459928959477110766e-07,1.768072621644023457e-07,1.989866177609656006e-06,3.445313777774572372e-04,1.810210278563317843e-06,2.005308488151058555e-06,2.867997409339295700e-06,2.600421794340945780e-06,2.362614623052650131e-06,7.416701555484905839e-05,-1.132243255597131792e-06,-2.870195885407156311e-06,-2.091625219691195525e-06,-3.018024699485977180e-06,5.849574691296766105e-08,-4.309822543291375041e-07,-4.344194894656538963e-04,3.280551368334272411e-07,1.826905275947865448e-07,-2.918443933594971895e-04,-8.188806474208831787e-03,-2.278935227195688640e-07,-2.529270375362102641e-07,-3.645082563161849976e-02,1.697938714642077684e-04,-2.134730721081723459e-06,4.992461981601081789e-05,-1.615273504285141826e-04,2.252752295817117556e-07,2.599897186428279383e-07,-6.920217128936201334e-05,1.178774233778767666e-08,-1.175601767045009183e-07,2.063358977011375828e-07,-2.255228082503890619e-06,6.959313481047502137e-08,1.510111786728884908e-07,4.804974651051452383e-06,2.695737748581450433e-06
6.455938432736729737e-07,5.415961368271382526e-07,1.285557686969696078e-06,-1.119785935088657425e-07,5.095525779097442864e-08,-1.805247738957405090e-04,5.881207076896544095e-09,4.412754606164526194e-06,-2.879052772186696529e-04,1.349315084553381894e-06,-5.617320084638777189e-07,-1.070864149369299412e-03,-6.473488610936328769e-06,-2.898009959608316422e-03,1.397171331518620718e-06,-6.795864351261116099e-07,-7.249980233609676361e-03,-3.546477103100187378e-07,-5.762123009844799526e-07,2.397780772298574448e-04,-3.482294914647354744e-07,7.173748883815278532e-08,1.224118284881114960e-02,-9.209069503413047642e-06,-8.618399078841321170e-06,2.265542633494987967e-07,9.233630748894938733e-08,4.612695079231343698e-07,1.020771730691194534e-02,3.156565753670292906e-06,7.113741276043583639e-07,2.687569212866947055e-05,3.072478575631976128e-04,2.889566821977496147e-04,2.615693723782896996e-03,-1.460582438994606491e-06,-3.173563754899078049e-06,-7.138549335650168359e-06,-1.448036800866248086e-05,-6.326067705231253058e-07,-8.989155730887432583e-08,-1.143812015652656555e-02,-5.511112135536677670e-07,7.184820560723892413e-07,-6.909270770847797394e-03,2.701868303120136261e-03,-3.133097266072581988e-07,-1.746103066579962615e-07,5.686932243406772614e-03,3.654982428997755051e-03,-9.289183822147606406e-07,4.106423002667725086e-04,-9.704364929348230362e-04,-1.677770598007555236e-07,6.777333538821039838e-08,-5.455237813293933868e-03,-2.864684489622959518e-09,-4.875674903814797290e-07,-1.259907435269269627e-06,-1.462113459638203494e-06,1.449222537530658883e-07,2.397071057202992961e-07,3.465512418188154697e-04,2.308037364855408669e-04
1.405330635861901101e-06,1.657552502365433611e-06,6.820025737397372723e-05,1.788667191249260213e-06,1.365224875371495727e-06,-3.088873345404863358e-04,-1.826866991905262694e-06,2.036567602772265673e-04,-5.132302176207304001e-04,2.607981150504201651e-04,-2.260306018797564320e-06,-7.267980254255235195e-04,-1.389609678881242871e-04,-3.699866356328129768e-03,1.684398193901870400e-05,-5.505630269908579066e-06,5.244068428874015808e-02,-1.659499616835091729e-06,-5.890577625677906326e-08,4.563582770060747862e-04,-1.910377022795728408e-06,-3.218612221189687261e-08,6.154920556582510471e-04,-2.821053203660994768e-04,-4.920096253044903278e-04,7.297779802684090100e-08,-8.523226142642670311e-07,4.137144424021244049e-05,8.143389131873846054e-04,1.623589778319001198e-04,2.305453563167247921e-06,1.759855949785560369e-04,1.407072297297418118e-03,4.469215346034616232e-04,5.047101876698434353e-04,-8.978350706456694752e-06,-8.284450450446456671e-05,-2.699578180909156799e-04,-2.282421773998066783e-04,-1.484745553170796484e-06,-1.311574237661261577e-06,-7.673327927477657795e-04,-2.282873538206331432e-06,1.646859914217202459e-06,-5.225065979175269604e-04,4.414127615746110678e-04,9.448291393709951080e-07,-8.111724696391320322e-07,2.475398965179920197e-02,7.339550647884607315e-04,-3.022626879101153463e-05,5.290803383104503155e-04,-2.177568338811397552e-02,-1.926477580127539113e-06,5.064699948320594558e-08,-7.202163105830550194e-04,1.435371359548298642e-06,-2.053938715107506141e-06,-1.949697179952636361e-04,-8.680062455823644996e-05,1.148005139839369804e-07,1.882875579894971452e-07,5.989163764752447605e-04,3.997757739853113890e-04
-4.949639560436480679e-07,3.586244758935208665e-07,1.837037302721000742e-06,4.770041641677380539e-07,-1.322002958659140859e-06,-1.703715497569646686e-06,1.175548831611195055e-07,2.648220288392622024e-06,-2.275095539516769350e-05,2.230180598417064175e-06,-9.945425745172542520e-07,-1.011227141134440899e-05,-2.084351535813766532e-06,-8.582161972299218178e-04,1.235249669662152883e-06,-1.474534201406640932e-06,4.943356383591890335e-03,-1.284026609482680215e-07,9.564128049532882869e-07,2.667347189344582148e-06,-1.573040776747802738e-06,-1.702417762317054439e-07,6.402080180123448372e-04,-2.374415544181829318e-06,-2.303379915247205645e-06,-3.912037698228232330e-07,3.009324416325398488e-07,2.138898025805247016e-06,1.252587419003248215e-03,2.317524831596529111e-06,6.907939109623839613e-07,2.205103101005079225e-06,3.998222018708474934e-05,3.165886664646677673e-05,5.173038971406640485e-06,-1.070269036063109525e-06,-1.816909616536577232e-06,-2.311225443918374367e-06,-1.877094177871185821e-06,7.816145171091193333e-07,1.103842578231706284e-06,-1.347364974208176136e-03,-1.656923245718644466e-06,-5.460601926188246580e-08,-3.885842306772246957e-05,3.482699412415968254e-06,1.045456883730366826e-06,1.258545921700715553e-06,4.120037890970706940e-03,1.193340285681188107e-03,-1.080165930034127086e-06,3.843992089969106019e-05,-3.968628006987273693e-04,-9.104509786084236111e-07,1.237303481893547996e-09,-3.006886399816721678e-04,-2.528447282656998141e-07,-1.165919570667028893e-06,-9.007637345348484814e-06,-2.138959871444967575e-06,-1.077375344493702869e-07,1.624107142106367974e-07,3.776480662054382265e-05,3.601412345233256929e-06
7.859263860154896975e-05,2.178521526730037294e-06,-4.706831648945808411e-02,1.064283102750778198e-01,3.030770458281040192e-04,-9.156364016234874725e-03,-5.524097941815853119e-04,-9.133772552013397217e-02,6.580340117216110229e-02,2.430799650028347969e-03,-8.098086254904046655e-05,-1.034645922482013702e-02,2.264260686933994293e-02,-7.148256525397300720e-03,-2.226287685334682465e-02,-1.722821471048519015e-04,5.840028077363967896e-02,-2.576149709057062864e-04,-2.483252994716167450e-02,3.488919138908386230e-02,-7.488556002499535680e-05,-8.127403816615696996e-07,1.995689049363136292e-02,-1.156449317932128906e-02,7.568889856338500977e-02,8.592901394877117127e-07,-2.728356048464775085e-02,2.663571212906390429e-04,-7.488485425710678101e-02,6.841703783720731735e-03,2.112793968990445137e-03,4.162354394793510437e-03,-1.160789839923381805e-02,1.072669960558414459e-02,-3.989818319678306580e-02,-2.053783275187015533e-02,-1.108865812420845032e-02,5.877826362848281860e-02,-6.524094846099615097e-03,-1.660810376051813364e-04,3.070951253175735474e-02,4.464378580451011658e-02,4.872144665569067001e-03,1.263475041923811659e-06,3.259490057826042175e-02,-1.079486310482025146e-02,4.823961035071988590e-07,-1.100416170629614498e-06,1.702682673931121826e-02,-1.787107996642589569e-02,-3.350035694893449545e-04,1.083629429340362549e-01,2.036719024181365967e-02,-1.313443528488278389e-03,3.615169532622530824e-07,-1.398236490786075592e-02,1.602661825472750934e-07,-2.396119525656104088e-03,-1.304267323575913906e-03,-1.340499264188110828e-03,3.293003203452826710e-07,-8.112851901387330145e-07,-8.082377165555953979e-02,6.433406844735145569e-03
-5.779347702628001571e-07,-7.459863127223798074e-07,2.863525651264353655e-06,2.210917500633513555e-06,2.031321400863816962e-06,-1.241282327100634575e-03,-1.993874320760369301e-06,2.755965397227555513e-06,-4.650301416404545307e-04,3.094770136158331297e-06,9.662112887554030749e-08,-6.040720618329942226e-04,-2.601124833745416254e-05,-8.859204244799911976e-04,3.524221938278060406e-06,-2.133679117832798511e-06,1.632090657949447632e-03,-2.013450739468680695e-06,-3.378195003733708290e-07,6.631055148318409920e-04,-9.498378972239152063e-07,-5.174078978598117828e-07,1.088427612558007240e-03,-6.789852341171354055e-05,-2.805951908158021979e-06,4.340169539318594616e-07,4.632007630789303221e-07,2.905157771238009445e-06,9.417104884050786495e-04,2.749560508163995109e-06,3.309760131742223166e-06,2.668670786079019308e-04,3.059601585846394300e-04,2.360433718422427773e-04,1.152270822785794735e-03,-3.295442184025887400e-06,-7.544533582404255867e-05,-2.765644467217498459e-06,-9.103117627091705799e-04,4.943491376252495684e-07,-3.906512938556261361e-05,-1.474339514970779419e-03,-1.528701773167995270e-06,-6.618959105253452435e-07,-1.023046905174851418e-03,9.996960870921611786e-04,-5.202641091273108032e-07,-2.719069129852869082e-07,7.452056161127984524e-04,-7.487210445106029510e-03,-1.618768328626174480e-05,6.839304114691913128e-04,5.911158770322799683e-02,-1.960711415449623019e-06,8.191967992843274260e-08,-7.414440624415874481e-04,1.339505786290828837e-07,-3.376816550826333696e-07,-1.352790491182531696e-06,-2.830513494700426236e-06,3.247867397249137866e-08,1.021108033683049143e-07,5.983876180835068226e-04,4.712139489129185677e-04
2.289300255142734386e-06,3.804510697591467761e-07,5.930070765316486359e-04,6.206820253282785416e-04,5.425981944426894188e-04,-1.719962921924889088e-03,-2.048761962214484811e-04,1.536164246499538422e-02,-5.361541174352169037e-03,5.380093352869153023e-04,-1.767241315064893570e-06,-7.637674454599618912e-03,-6.137362215667963028e-04,-1.638834364712238312e-02,6.923751789145171642e-04,-5.940417031524702907e-05,4.538700729608535767e-02,-1.703253510640934110e-04,1.260690623894333839e-06,9.023788152262568474e-04,-1.554789378133136779e-06,-1.126831463693633850e-07,1.438631908968091011e-03,-2.806249540299177170e-03,-4.442960489541292191e-04,3.186337380611803383e-07,-4.634788126622879645e-07,3.229933499824255705e-04,8.698114193975925446e-03,6.112078153819311410e-06,7.529068388976156712e-04,1.038621412590146065e-03,4.372422583401203156e-03,1.541406236356124282e-04,2.726353146135807037e-02,-2.682970662135630846e-04,-4.890311975032091141e-03,-1.286499609705060720e-04,-1.577740185894072056e-03,-2.099356834150967188e-06,-1.471741707064211369e-03,-1.434699818491935730e-02,-2.256057086924556643e-06,6.912117100910109002e-07,-8.532063104212284088e-03,1.643705740571022034e-02,-7.505872872570762411e-06,8.849478376760089304e-07,4.163134470582008362e-02,2.440175227820873260e-02,-9.374172659590840340e-04,8.404951659031212330e-04,-1.337664294987916946e-02,-2.543876007621292956e-06,-8.618392257631057873e-07,-1.111636403948068619e-03,-8.240458555519580841e-07,1.534097805233614054e-06,5.474826139106880873e-07,-5.198177532292902470e-04,-1.965432261386013124e-07,2.943485277739910089e-08,9.297406650148332119e-04,8.890712633728981018e-04
-3.959662819852383109e-07,-5.730302632400707807e-07,2.154874528059735894e-05,2.950137968582566828e-06,1.856625772234110627e-06,-7.596006616950035095e-04,-2.662919087015325204e-06,-6.956944614648818970e-02,-6.297620129771530628e-04,-2.918500639498233795e-02,-1.227679490511945914e-06,-6.323039415292441845e-04,-9.884670726023614407e-05,-2.605556510388851166e-03,5.220133971306495368e-05,-2.857689651136752218e-06,-4.334781318902969360e-03,-2.944432708318345249e-06,-9.069271555972591159e-08,5.430225282907485962e-04,-2.220300302724353969e-06,-9.337517781204951461e-08,2.525846939533948898e-03,-2.573949459474533796e-04,-2.089422196149826050e-04,3.005990834026306402e-07,-9.734519323956192238e-08,5.119424531585536897e-05,2.453632187098264694e-03,5.743236033595167100e-05,2.299783955095335841e-05,6.322716944850981236e-04,4.385014472063630819e-04,3.912864485755562782e-04,4.481707513332366943e-02,-3.628499143815133721e-06,-1.019814008031971753e-04,1.470180973410606384e-02,-7.690067286603152752e-04,3.928252283458277816e-07,-3.542864988048677333e-06,-2.974484115839004517e-03,-2.464214048814028502e-06,-6.157981147225655150e-07,-1.690790406428277493e-03,-5.927130207419395447e-02,-4.904531465399486478e-07,2.267760663698936696e-07,4.961931332945823669e-02,-7.069648709148168564e-03,-1.190840703202411532e-05,8.240491151809692383e-04,6.242322176694869995e-02,-2.556304252721020021e-06,-5.151833626371171704e-09,-2.049044007435441017e-03,3.105750465692835860e-07,4.613417843302158872e-07,-2.472899723215959966e-06,-5.526973473024554551e-05,-2.682221200700496411e-08,1.409025571774691343e-07,7.761278538964688778e-04,6.701340898871421814e-04
1.273480165764340200e-06,2.083525941998232156e-06,4.779534065164625645e-04,1.444174586140434258e-06,9.576909860697924159e-07,-6.254137493669986725e-03,-2.046114786935504526e-06,4.758783616125583649e-04,-5.086520221084356308e-03,4.434583534020930529e-04,-8.051957820498500951e-07,-5.055918358266353607e-03,-1.497588818892836571e-03,-4.089906811714172363e-03,6.038261926732957363e-04,-2.158070401492295787e-06,1.515366788953542709e-02,-1.487002464273246005e-06,-8.661839956403127871e-07,4.767257720232009888e-03,-8.321393352161976509e-07,-6.393266289705934469e-07,6.817520596086978912e-03,-1.905980636365711689e-03,-8.419762016274034977e-04,6.179023870345190517e-08,4.026815076940692961e-07,5.181505111977458000e-04,8.479488082230091095e-03,5.171779193915426731e-04,4.131141758989542723e-04,1.783503685146570206e-03,4.427150357514619827e-03,3.881437471136450768e-03,4.725647624582052231e-03,-2.571688382886350155e-04,-1.440182910300791264e-03,-1.157650491222739220e-03,-3.258875804021954536e-03,-5.717980116060061846e-07,-1.765956199051288422e-06,-1.113792415708303452e-02,-6.827690981481282506e-07,1.601072199264308438e-06,-8.418837562203407288e-03,4.723538178950548172e-03,-2.322389036635286175e-07,-1.532027482653575134e-07,6.418227683752775192e-03,4.486525896936655045e-03,-4.174870846327394247e-04,5.780464969575405121e-03,-6.206190213561058044e-03,-1.288679754907207098e-06,-3.133221184725698549e-07,-6.817470770329236984e-03,9.499778457211505156e-07,-1.561718590892269276e-06,-5.698045242752414197e-06,-4.998834338039159775e-04,1.832525065026402444e-08,-2.340985538751283457e-08,5.232722964137792587e-03,3.743716282770037651e-03
-2.832578260836271511e-08,-5.823666242577019148e-07,3.450141775829251856e-06,2.968945636894204654e-06,2.987049356306670234e-06,-1.009596046060323715e-03,-2.797018396449857391e-06,3.070862021559150890e-06,-4.792221297975629568e-04,6.344623670884175226e-06,-1.775549662852426991e-06,-2.374215982854366302e-03,-2.247089869342744350e-04,-8.065941743552684784e-03,6.249854777706786990e-05,-3.167528802805463783e-06,1.215436495840549469e-02,-2.900914068959536962e-06,-2.772658191929622262e-08,5.703981150873005390e-04,-2.235788542748196051e-06,-1.364764443678723183e-07,1.940109417773783207e-03,-2.025123685598373413e-04,-2.240782487206161022e-04,9.898699460109128268e-08,-7.262911339012134704e-08,3.489839627945912071e-06,-3.422136418521404266e-03,2.496804427210008726e-06,3.502572553770733066e-06,6.252016755752265453e-04,2.805300522595643997e-03,3.594729932956397533e-04,-1.602101512253284454e-02,-3.432039648032514378e-06,-1.544704893603920937e-03,-1.104032562579959631e-04,-7.127498392947018147e-04,-1.581845232578871219e-08,-3.592525672502233647e-06,7.812214083969593048e-03,-2.841061359504237771e-06,-7.017823691057856195e-07,-6.662304047495126724e-03,1.452209195122122765e-03,1.527338611140294233e-07,6.158748533380276058e-07,9.734704159200191498e-03,-8.577549830079078674e-03,-3.177615553795476444e-06,7.628964958712458611e-04,4.286632873117923737e-03,-2.458435346852638759e-06,3.885014976390266384e-08,-1.217530574649572372e-03,-7.155825869631371461e-07,1.090325099539768416e-06,-1.695504693088878412e-06,-2.458488552292692475e-06,-5.284534765337411955e-08,-4.261254105131229153e-08,5.823305109515786171e-04,6.401342689059674740e-04
7.699327966292912606e-07,9.041728503689228091e-07,1.180908725473273080e-06,1.386063708253004734e-08,6.786464723518292885e-07,-4.558825865387916565e-03,-6.916476422702544369e-07,7.137254556255356874e-07,-3.582552541047334671e-03,2.616349547679419629e-06,-1.193335833704622928e-06,-3.939393907785415649e-03,-8.721459607841097750e-07,-4.218898713588714600e-03,5.040537507738918066e-05,-6.828154255344998091e-07,7.201767992228269577e-03,-3.615884907048894092e-07,-9.062806327619910007e-08,3.018793417140841484e-03,-8.248275094047130551e-07,1.583018587325568660e-07,5.937657784670591354e-03,-1.767500652931630611e-04,-7.448774795193457976e-06,9.130816636115923757e-08,5.858391816104813188e-08,5.930061774961359333e-07,6.326696835458278656e-03,3.553676606316003017e-06,9.658008366386638954e-07,1.075092935934662819e-03,2.337516052648425102e-03,2.186872996389865875e-03,3.825513413175940514e-03,-1.471101199967961293e-06,-6.421399302780628204e-05,-2.457078953739255667e-04,-3.384486539289355278e-03,-2.405803627425484592e-07,-1.162180183200689498e-06,-6.889293901622295380e-03,-7.437602675963717047e-07,8.314742103721073363e-07,-5.409807898104190826e-03,4.515971988439559937e-03,-2.688603473188777571e-08,-5.601776820185477845e-07,4.822038114070892334e-03,4.612278658896684647e-03,-5.848141881870105863e-07,4.010474774986505508e-03,-4.802988376468420029e-03,-5.919169439039251301e-07,1.701722140978745301e-07,-5.223566200584173203e-03,8.264257758128223941e-07,-1.151888568529102486e-06,-2.573592325916251866e-07,-3.359257334523135796e-07,-1.641435432020443841e-07,6.331875113119167509e-08,3.285340964794158936e-03,3.696223255246877670e-03
9.572206996381282806e-03,7.808557129465043545e-04,9.176823310554027557e-03,5.222049076110124588e-03,6.353007629513740540e-03,-3.734261170029640198e-02,-1.348112709820270538e-02,2.569843642413616180e-02,-3.736426681280136108e-02,1.020876038819551468e-02,-1.544486731290817261e-03,-4.305344820022583008e-02,-2.045292779803276062e-02,-5.055024102330207825e-02,2.170471288263797760e-02,-5.214389413595199585e-03,4.778138920664787292e-02,-6.420379038900136948e-03,-1.181409515993436798e-06,3.137449175119400024e-02,-1.501224702224135399e-03,-5.545041403820505366e-07,3.738050162792205811e-02,-3.492156416177749634e-02,-1.245279517024755478e-02,1.043443376147479285e-06,1.783083803275076207e-06,2.464361116290092468e-02,3.397703915834426880e-02,2.337142080068588257e-02,2.362701296806335449e-02,1.765191555023193359e-02,3.813850134611129761e-02,3.048203140497207642e-02,2.847607061266899109e-02,-2.542832307517528534e-02,-3.583944588899612427e-02,-2.585688605904579163e-02,-2.558617852628231049e-02,-1.472274400293827057e-02,-6.818353664129972458e-03,-1.300477050244808197e-02,-8.087663911283016205e-03,3.305571153759956360e-04,-4.956952854990959167e-02,3.640617802739143372e-02,-9.308318840339779854e-05,-1.711158547550439835e-04,3.264884930104017258e-03,2.006480470299720764e-02,-8.234875276684761047e-03,3.811253979802131653e-02,-3.179696947336196899e-02,-2.081787958741188049e-02,7.750326176392263733e-07,-3.179958090186119080e-02,1.743882080518233124e-06,-2.118071279255673289e-05,-1.433314010500907898e-02,-9.323108941316604614e-03,1.552491397660560324e-07,4.725627889001771109e-07,1.749282702803611755e-02,2.113701216876506805e-02
-4.976162131242745090e-07,-3.720188885836250847e-07,2.417340738247730769e-06,1.833947521845402662e-06,5.942245806522805651e-08,-2.538366534281522036e-04,-1.270541133635560982e-06,-7.853960618376731873e-03,-2.359443169552832842e-04,2.434608404655591585e-06,7.575275162707839627e-08,-3.135000588372349739e-04,-1.239629546034848318e-05,-7.087265839800238609e-04,2.634785914779058658e-06,-1.628180712032190058e-06,3.818954341113567352e-03,-1.054019321600208059e-06,-2.424860099381476175e-07,1.872461143648251891e-04,-8.808046914055012167e-07,-1.041675972146549611e-07,1.989752985537052155e-03,-3.342651325510814786e-05,-2.621230350996484049e-06,8.332874301686388208e-08,-1.713559498739414266e-07,2.409769194855471142e-06,2.289274008944630623e-03,2.411808509350521490e-06,2.305151610926259309e-06,4.625505971489474177e-05,2.029950701398774981e-04,1.317953428952023387e-04,-1.073795836418867111e-03,-2.172888116547255777e-06,-2.403238113402039744e-06,-2.615562380015035160e-06,-8.400371734751388431e-05,5.520211630027915817e-07,-1.484140511820442043e-06,2.329582162201404572e-02,-1.584249048391939141e-06,-5.448206366054364480e-07,-1.395899686031043530e-03,5.028144223615527153e-04,2.237142560090887855e-08,-4.339221106874902034e-07,-5.873141065239906311e-02,-6.383277941495180130e-03,-2.396126546955201775e-06,2.783035673201084137e-02,2.484907768666744232e-02,-1.286788460674870294e-06,-4.182774404615230424e-10,-1.406261231750249863e-03,3.541408091223274823e-07,2.467386082116718171e-07,-2.175124564018915407e-06,-2.187801328545901924e-06,3.367844385593343759e-07,-9.604467976487285341e-08,-3.957227803766727448e-03,1.409582328051328659e-04
6.659109175188859808e-08,1.205901583034574287e-07,-1.876730095773382345e-07,-1.305570851428683454e-08,1.203459163434672519e-07,-1.089010197574680205e-06,6.565856836004968500e-08,-9.023054303725075442e-08,-1.223270146510913037e-06,6.247227020139689557e-07,9.211395024522062158e-08,-1.121339778364927042e-06,-1.240857500306447037e-06,-1.583021003170870245e-06,4.199458771836361848e-07,-1.169150394275675353e-07,2.251947080367244780e-06,9.427814973150816513e-08,2.226096285085077398e-07,1.039745029629557393e-06,1.642120963651905186e-07,2.158707417265759432e-07,1.503912130829121452e-06,-2.487603580902941758e-07,-4.600309750912856543e-07,-3.534411163741424389e-08,2.121435045410180464e-07,2.179888127784579410e-07,1.508270429440017324e-06,1.146608951785310637e-06,8.654397198881724762e-09,6.445131361942912918e-07,8.743429020796611439e-07,6.786335688957478851e-07,1.405008902111148927e-06,5.421543769479342245e-10,-1.653010457403070177e-07,-7.066560669954924379e-07,-7.294988790818024427e-07,1.326036311866118922e-07,4.168155669503903482e-07,-9.153130804406828247e-07,1.680927681491084513e-07,-2.492101600637397496e-07,-1.542229483675328083e-06,1.541745746180822607e-06,-4.448391450750932563e-07,-2.535367116252018604e-07,1.420628791493072640e-06,1.340109520242549479e-06,2.964129350857547252e-07,1.087881855710293166e-06,-1.396857896907022223e-06,1.419761304077837849e-07,9.573057013767538592e-08,-1.586100552231073380e-06,-7.766097098738100613e-08,3.861650554881634889e-08,1.671141802717102109e-07,1.827829123612900730e-07,1.533621372118432191e-07,-2.020587714923749445e-07,8.481540021421096753e-07,8.542133969058340881e-07
1.540116965770721436e-03,6.332857883535325527e-04,5.928255617618560791e-03,3.682767273858189583e-03,3.507334506139159203e-03,-1.083149388432502747e-02,-2.810984617099165916e-03,3.204980166628956795e-03,-1.098752673715353012e-02,5.747276823967695236e-03,-1.115467166528105736e-03,-1.359996013343334198e-02,-4.898184910416603088e-03,-1.945545896887779236e-02,4.916354082524776459e-03,-2.750342478975653648e-03,6.747794896364212036e-02,-2.890603849664330482e-03,2.711997915127994929e-08,6.861994042992591858e-03,-2.277644583955407143e-03,-9.973097121473983862e-07,1.128934975713491440e-02,-8.344292640686035156e-03,-5.098436959087848663e-03,3.067002865009271773e-07,1.228364396865799790e-07,3.368437988683581352e-03,8.490758948028087616e-03,2.824218943715095520e-03,5.060350522398948669e-03,7.855083793401718140e-03,1.189444959163665771e-02,4.250395577400922775e-03,1.116724591702222824e-02,-3.795428667217493057e-03,-9.898787364363670349e-03,-3.988763783127069473e-03,-9.974010288715362549e-03,-1.357985776849091053e-03,-5.549184512346982956e-03,-1.074652466922998428e-02,-1.841406454332172871e-03,4.524731775745749474e-04,-1.439221762120723724e-02,2.749092876911163330e-02,-2.091632690280675888e-03,-3.455725673120468855e-04,2.277703769505023956e-02,9.493771940469741821e-03,-4.548328462988138199e-03,6.291394121944904327e-03,-3.782289847731590271e-02,-1.999858068302273750e-03,4.476652009088866180e-07,-9.431176818907260895e-03,-6.094986559901371947e-08,-1.696233425718673971e-06,-1.233416143804788589e-03,-4.474594723433256149e-03,1.815989492115477333e-07,3.658267928585701156e-07,7.868284359574317932e-03,7.716506719589233398e-03
1.365867676213383675e-03,3.725028072949498892e-04,3.791169961914420128e-03,3.858069423586130142e-03,4.114970564842224121e-03,-1.046904455870389938e-02,-2.978326752781867981e-03,-6.570685654878616333e-03,-6.184817757457494736e-03,3.611356252804398537e-03,-1.083009061403572559e-03,-6.969046313315629959e-03,-4.013033583760261536e-03,-1.922821067273616791e-02,4.019967280328273773e-03,-3.486612346023321152e-03,2.089786529541015625e-02,-3.248198889195919037e-03,-1.500074631621828303e-06,6.031936500221490860e-03,-2.275777049362659454e-03,-1.482138372921326663e-06,1.000724919140338898e-02,-3.840673947706818581e-03,-3.696877509355545044e-03,2.150099760456214426e-07,1.150995558418799192e-06,3.113372251391410828e-03,1.038863323628902435e-02,3.166384063661098480e-03,5.289268679916858673e-03,5.077841226011514664e-03,4.741649143397808075e-03,4.100006539374589920e-03,1.230835262686014175e-02,-3.347161691635847092e-03,-4.965894855558872223e-03,-3.098221728578209877e-03,-7.851411588490009308e-03,-1.280801603570580482e-03,-4.692352842539548874e-03,-9.565368294715881348e-03,-2.332000760361552238e-03,7.517288395320065320e-06,-1.092002168297767639e-02,9.321045130491256714e-03,-2.911383053287863731e-04,-8.282228236566879787e-07,6.496638525277376175e-03,7.526658941060304642e-03,-4.453922621905803680e-03,6.333648692816495895e-03,-7.467920891940593719e-03,-2.702183090150356293e-03,1.400685391672595870e-06,-8.230184204876422882e-03,1.298033339480753057e-06,-1.292592401114234235e-06,-2.086523221805691719e-03,-4.225170239806175232e-03,1.305142376395451720e-07,-1.298862883913898258e-07,6.058478262275457382e-03,6.242778617888689041e-03
-1.067104307139743469e-07,-1.660892756660814484e-08,-8.676708773691643728e-08,3.237659882415755419e-07,-7.450674388564948458e-08,-9.812732741920626722e-07,-1.293641958000080194e-07,1.474738127171804081e-07,-8.835802987050556112e-07,3.982756311415869277e-07,6.047147849130851682e-08,-1.930075086420401931e-06,4.907159123490600905e-08,-1.411234698025509715e-04,2.759736901225551264e-07,-4.544223770608368795e-07,6.852224003523588181e-03,-1.023374878172944591e-07,3.057588671140365477e-08,2.380741364049754338e-07,-1.075327844546336564e-07,-1.122735469039071177e-07,2.106574829667806625e-03,4.774546624730646727e-08,-8.157057607149909018e-08,2.863274630726664327e-07,8.321099187469371827e-08,3.736044789093284635e-07,4.094660747796297073e-03,2.664316411937761586e-07,-3.858573016657373955e-09,-1.799499500521051232e-07,1.409005392360995756e-07,5.231889872447936796e-07,2.221666218247264624e-04,-2.302709276591485832e-07,-4.963172273164673243e-08,4.213171589384501203e-09,-4.833770503864798229e-07,-1.032391239164098806e-07,-7.443836835818729014e-08,-5.155790131539106369e-03,-2.529471885281964205e-07,-5.015423187870737820e-09,-1.524293911643326283e-03,2.420483651803806424e-04,3.708432672056005686e-08,-1.037433605688420357e-07,1.615359447896480560e-03,7.483909721486270428e-04,-1.259674675679889333e-08,4.207022138871252537e-04,-9.350786567665636539e-04,1.945091199218040856e-08,2.802477467866992811e-07,-2.772933512460440397e-04,8.109800120337240514e-08,-1.825238982178234437e-08,-2.022472074258985231e-07,-5.506366562713083113e-08,1.078657074771172120e-08,-5.090063126544919214e-08,-3.952471772095123015e-08,2.130358893737138715e-07
9.897249242385441903e-08,2.412644732885382837e-07,2.308583049170920276e-07,1.695327256356904400e-07,3.624536759616603376e-07,-1.270600364478013944e-06,-7.747509300770616392e-08,1.980939998702524463e-07,-2.471007292115245946e-07,6.751644576752369176e-08,-3.469784246590279508e-07,-1.077236561286554206e-06,9.876730473479256034e-07,-1.797746904230734799e-06,-9.438842596409813268e-09,3.039004781157927937e-08,2.169742174373823218e-06,-1.274343830459656601e-08,-5.510352352189329395e-08,2.868863475669058971e-07,-2.619437111661682138e-07,-3.253498803701404540e-08,2.091963551720255055e-06,8.551803603040752932e-07,1.963596929499544785e-07,-7.393997947247044067e-08,4.048065704864711734e-08,1.702306775541728712e-07,2.423496880510356277e-06,6.088716730801024823e-08,1.929408313117164653e-07,-8.293691280414350331e-07,-1.535010909492484643e-07,-3.550881615410617087e-07,1.602814677426067647e-06,-1.011890162772033364e-07,5.063964181317714974e-07,5.185579539102036506e-07,-5.621313192705201800e-08,-3.373679646756500006e-07,1.574263279735532706e-07,-1.999075266212457791e-06,-3.286187393314321525e-07,7.880671404336681007e-08,-2.166219474020181224e-06,2.081151478705578484e-06,3.467216203034695354e-08,1.316056597033821163e-07,-1.283320486545562744e-01,1.468935465709364507e-06,-2.370917258076588041e-07,1.120922775044164155e-06,2.830074913799762726e-02,-7.604518259540782310e-08,2.029647738766016118e-08,-1.599945221641974058e-06,1.358594943212665385e-07,2.491611006405491935e-08,-2.032244026395346737e-07,-1.332317367541691056e-07,-1.060595948843001679e-07,9.100499021030827862e-09,9.751962579684914090e-07,3.528610079683858203e-07
-3.854934860214598302e-08,-6.234881281852722168e-02,-9.399333037436008453e-03,3.104827599599957466e-03,-8.320525921590160578e-07,-1.302705350099131465e-04,7.831481241282745032e-09,-9.961385512724518776e-04,-1.371771991252899170e-01,-4.841602593660354614e-02,-6.178908620313450228e-07,-5.715036604669876397e-05,4.612466692924499512e-02,-1.667532026767730713e-01,2.105851843953132629e-02,-7.020919952083204407e-07,-1.189546659588813782e-01,-2.654201978202763712e-07,-4.956570478498179000e-07,-1.021161675453186035e-01,-9.068548934010323137e-07,-1.146631461779179517e-06,1.337684807367622852e-03,2.703953767195343971e-03,1.910158619284629822e-02,7.811580076122481842e-07,5.031380057334899902e-02,2.053642965620383620e-04,-1.796753518283367157e-02,-4.203519597649574280e-02,7.547312974929809570e-02,1.929379813373088837e-02,1.623683841899037361e-03,1.287774275988340378e-02,-7.945216447114944458e-02,-7.250972837209701538e-02,6.501486524939537048e-03,8.436001837253570557e-03,-6.636497710132971406e-05,3.734655535936326487e-07,-1.469397824257612228e-02,2.700970880687236786e-02,-1.330819486611289904e-06,5.327116809894505423e-07,-8.262830227613449097e-02,7.142651826143264771e-02,4.593281630604906240e-07,-1.381783363285649102e-07,2.797497622668743134e-02,-7.946244627237319946e-02,9.355406276881694794e-03,4.916493222117424011e-02,-1.059826612472534180e-01,-3.644105674993625144e-07,1.733432327455375344e-06,-1.244031009264290333e-03,-2.358567528426647186e-02,-1.091103851795196533e-01,-1.498167548561468720e-04,-9.709855476103257388e-06,7.599104661494493484e-03,-1.190405356510382262e-07,7.098633213900029659e-04,1.267662155441939831e-03
1.518466137349605560e-02,3.011536784470081329e-03,4.231763072311878204e-03,2.071018796414136887e-03,9.655687958002090454e-03,-2.064974792301654816e-02,-8.614033460617065430e-03,7.830614224076271057e-03,-1.375951431691646576e-02,4.646801389753818512e-03,-1.275514019653201103e-03,-1.663967967033386230e-02,-1.400476787239313126e-02,-9.239315986633300781e-03,4.890964366495609283e-03,-2.015632111579179764e-03,5.379259213805198669e-02,-5.681793205440044403e-03,-3.976847801823168993e-05,1.439225394278764725e-02,-1.447366084903478622e-03,-1.213105133501812816e-05,1.859534531831741333e-02,-1.918358542025089264e-02,-6.539457011967897415e-03,2.029578581641544588e-06,1.669783387114875950e-06,1.569060049951076508e-02,-1.069445349276065826e-02,1.737037114799022675e-02,1.887739636003971100e-02,6.525083910673856735e-03,9.433557279407978058e-04,2.130284719169139862e-02,-3.718484565615653992e-02,-1.259724143892526627e-02,-1.962560787796974182e-02,-1.341724861413240433e-02,-1.341451145708560944e-02,-1.285446994006633759e-02,-4.544116556644439697e-03,4.371785372495651245e-02,4.292103927582502365e-03,7.386034121736884117e-04,-2.005903609097003937e-02,1.356978807598352432e-02,-2.780414361041039228e-04,-9.760070824995636940e-04,1.927469857037067413e-02,-2.894468978047370911e-02,-3.497930942103266716e-03,4.411582276225090027e-02,-1.954553736140951514e-04,-1.556577719748020172e-02,2.132785311914631166e-06,-1.560650486499071121e-02,3.766946610994637012e-04,-6.342897540889680386e-04,-1.388933416455984116e-02,-2.922221785411238670e-03,5.342967028809653129e-07,1.740536959005112294e-07,-3.305383399128913879e-02,1.179301273077726364e-02
-3.878984955463238293e-08,6.502279603637362015e-08,1.636566139495698735e-06,1.626365389029160724e-07,3.149508813748980174e-07,-8.937853272072970867e-05,-3.736055376180047460e-08,1.553717652313935105e-06,-5.274803334032185376e-05,1.878467742244538385e-06,5.105765765733849548e-08,-1.690947647148277611e-05,-1.785501353879226372e-06,-8.747549145482480526e-05,2.130275106537737884e-06,-1.543232315270870458e-07,9.878068231046199799e-04,-1.378502133775327820e-06,7.034157789576056530e-08,1.777550096448976547e-06,-1.939191385247340804e-08,-7.871506824130847235e-08,5.583271267823874950e-04,-2.318309043403132819e-06,-2.373320512560894713e-06,3.228718270520403166e-08,1.320199203291849699e-07,2.073539462799089961e-06,8.297125459648668766e-04,2.240135472675319761e-06,1.656856170484388713e-06,2.680119905562605709e-06,7.841354090487584472e-06,2.378293856963864528e-06,1.137534491135738790e-04,-1.621911110305518378e-06,-2.396909167146077380e-06,-2.253834281873423606e-06,-4.773833552462747321e-06,6.227599413932694006e-08,-9.170728390017757192e-07,-9.175970917567610741e-04,-6.948237096793263845e-09,-4.643293749495569500e-08,-5.421249661594629288e-04,2.588329080026596785e-04,-1.586088131944052293e-07,5.532285030085404287e-08,4.112392780371010303e-04,2.655040880199521780e-04,-1.618262558622518554e-06,2.012439363170415163e-04,-3.936665307264775038e-04,-3.282471539023390505e-07,4.792678964804508723e-07,-3.536736476235091686e-04,-1.533158666688905214e-07,-4.442586387654046121e-08,-2.052931677098968066e-06,-1.978499767574248835e-06,1.992945470874474267e-07,1.274445651233691024e-07,1.693917147349566221e-05,1.212006918649422005e-05
6.139762263046577573e-07,6.869926210129051469e-07,1.820821897126734257e-03,2.293310390086844563e-04,1.369328383589163423e-04,-5.247724242508411407e-03,-1.590313186170533299e-04,2.262163907289505005e-03,-4.180785734206438065e-03,2.025501336902379990e-03,-7.437980684699141420e-07,-5.032130051404237747e-03,-2.746885176748037338e-03,-6.452796515077352524e-03,1.373843755573034286e-03,-3.078432055190205574e-04,1.017692126333713531e-02,-1.287679187953472137e-04,-8.203361403502640314e-07,3.875292371958494186e-03,-4.324445762904360890e-05,-3.132404913230857346e-08,1.029154658317565918e-02,-2.732511376962065697e-03,-3.193062730133533478e-03,-3.285510885575604334e-08,6.546080726366199087e-07,1.842385623604059219e-03,6.903172004967927933e-03,1.900583622045814991e-03,7.768372888676822186e-04,4.015949089080095291e-03,3.005417762324213982e-03,3.465026849880814552e-03,-5.955867934972047806e-03,-9.985538199543952942e-04,-2.452438930049538612e-03,-2.984331687912344933e-03,-4.084348212927579880e-03,-5.635494630951143336e-07,-3.002176817972213030e-04,-9.545287117362022400e-03,-9.473023965256288648e-05,4.872043177783780266e-07,-8.607625029981136322e-03,6.854745559394359589e-03,-6.615583743041497655e-07,-9.207383868670149241e-07,7.886203005909919739e-03,-3.033102117478847504e-02,-9.866058826446533203e-04,5.163283552974462509e-03,1.465767063200473785e-02,-2.094853552989661694e-04,1.345711439171282109e-06,-8.036122657358646393e-03,4.670158944009017432e-07,-3.102395567111670971e-07,-8.127557230181992054e-04,-1.325718243606388569e-03,-1.834270761946754646e-07,-1.131014428779053560e-07,5.402762442827224731e-03,4.018707666546106339e-03
1.114830840378999710e-02,3.345744335092604160e-04,4.077685531228780746e-03,3.126196796074509621e-03,2.076552249491214752e-03,-1.016509532928466797e-02,4.901073989458382130e-04,-6.592265516519546509e-02,-9.086555801331996918e-03,9.956412017345428467e-02,-5.237612058408558369e-04,2.284931391477584839e-02,1.972328498959541321e-02,-1.103923376649618149e-02,-2.808588184416294098e-02,-4.005723167210817337e-03,9.659475646913051605e-03,-4.322221502661705017e-03,-6.121233571320772171e-03,1.087597757577896118e-02,-1.346157863736152649e-03,-1.023877921397797763e-04,8.854580111801624298e-03,-9.558659046888351440e-03,-2.968159131705760956e-02,-4.982368864148156717e-07,-7.162473707467142958e-07,1.785076572559773922e-03,9.076436050236225128e-03,2.689478732645511627e-02,3.214695723727345467e-03,-5.176641419529914856e-02,-2.729229396209120750e-03,4.088255111128091812e-03,7.664241362363100052e-03,3.904671175405383110e-03,-8.791934698820114136e-03,-4.735071677714586258e-03,-6.812748964875936508e-03,-2.779795788228511810e-03,-1.816592179238796234e-03,8.759763091802597046e-03,3.179264953359961510e-03,3.118374443147331476e-04,3.060184232890605927e-02,-3.258629888296127319e-02,-2.411552006378769875e-03,-2.468613092787563801e-04,8.644006401300430298e-02,8.730168454349040985e-03,1.050140112638473511e-01,4.872170090675354004e-02,1.999638788402080536e-02,-3.608583705499768257e-03,-6.760249107173876837e-07,3.530750516802072525e-03,1.281863916665315628e-02,-1.200316205540730152e-06,-3.069459926337003708e-04,-3.445428563281893730e-03,1.612899609426676761e-07,-3.901888305790635059e-07,-9.745618328452110291e-03,-4.295110702514648438e-02
2.074153968578684726e-07,1.870599106723602745e-07,-5.847128363711817656e-07,-9.451175628782948479e-07,-5.579633821639617963e-08,-1.219004298036452383e-05,2.079507055441354169e-07,-5.233908382251684088e-07,-1.318972294939158019e-06,-1.976148524818199803e-07,-1.380813614559883717e-07,-1.870949063231819309e-06,-1.198057020701526199e-06,-2.635893679325818084e-06,1.423769617758807726e-07,9.594793937139911577e-07,-2.022789558395743370e-03,5.864051217940868810e-07,-1.042869754996900156e-07,1.915154371090466157e-06,-2.607577043178821441e-09,-2.765960687156621134e-07,2.631684765219688416e-04,-7.002325901339645498e-07,-2.932649181275337469e-07,2.514072328096972342e-08,-1.432611611562606413e-07,-2.935981626706052339e-07,1.992637407965958118e-04,-9.765342667833465384e-08,-3.056826187730621314e-07,1.386162921335198916e-06,8.751387099437124562e-07,4.808828180102864280e-07,2.528297727621975355e-06,6.767777449567802250e-07,-1.080640458894777112e-06,6.361992177517095115e-08,-2.779062242552754469e-06,-1.483390832390796277e-08,9.338117479273932986e-07,-3.349257749505341053e-04,-1.602902699460173608e-07,1.687118071913573658e-07,-1.471580762881785631e-04,8.161114237736910582e-05,-1.434632679320202442e-08,1.460360898875023850e-08,3.033017674169968814e-05,7.170991011662408710e-05,1.821700550408422714e-07,1.876063379313563928e-06,-1.551423883938696235e-05,4.306160406031267485e-07,7.857609318762115436e-08,-2.084097559418296441e-06,3.276192899193119956e-07,-2.687475557650031988e-07,1.293085801989946049e-06,2.704788073515373981e-07,2.179771563248777966e-08,2.157758416387878242e-08,1.810636149457423016e-06,1.783151105883007403e-06
5.531827582672121935e-07,7.591415140950630303e-08,1.156885105046967510e-06,-3.881530474814098852e-08,6.754427062105605728e-08,-5.850052389178017620e-07,-7.587906338812899776e-07,1.552496314616291784e-06,-1.279071426552036428e-07,1.700398229331767652e-06,-1.358533495476876851e-06,1.714326600676940870e-07,-1.446467535970441531e-06,2.172959483459635521e-07,1.685032316345314030e-06,-1.911261051645851694e-07,-8.998823468573391438e-04,1.898925816590235627e-08,-6.835732619947521016e-07,5.570574330704403110e-07,2.241993435347922059e-08,1.297507026265520835e-07,3.677830306969553931e-07,-1.546663611406984273e-06,-1.082097995094954967e-03,-5.032114458458636364e-08,9.401500733474676963e-08,1.554050300001108553e-06,6.425260608011740260e-07,1.707749788693035953e-06,1.694557340670144185e-06,1.497821813245536759e-06,2.967232717310253065e-07,4.471997385735448916e-07,-3.336567059159278870e-02,-1.124673076446924824e-06,-1.461168949390412308e-06,-1.597588607182842679e-06,-9.204401862916711252e-07,3.143436515529174358e-07,-7.973502533786813729e-07,-4.643262343506648904e-07,-2.435410237922042143e-07,4.574106071686401265e-07,-2.031655270684495918e-07,-4.967089921592560131e-07,-3.663557208710699342e-07,4.052527913245285163e-07,5.480210347741376609e-07,-2.365865744650363922e-03,-1.640346908970968798e-06,4.677641385342212743e-08,5.253309756517410278e-02,-1.421784361355094006e-07,-1.474940489742948557e-07,-2.381007817575664376e-07,-1.003141107958072098e-07,-3.460979485225834651e-07,-6.179089950819616206e-07,-1.587457973073469475e-06,-7.631237508576305117e-08,-8.658557959506651969e-08,8.826332020817062585e-08,2.181201779194452683e-07
1.681909651551904972e-07,-5.831800464761727198e-08,8.967029134510084987e-05,1.218319084728136659e-06,-3.104506731688161381e-07,-3.529347595758736134e-04,-1.511848068957988289e-07,1.853279100032523274e-04,-5.676432629115879536e-04,1.818110322346910834e-04,-4.502219042024080409e-07,-5.464876303449273109e-04,-2.350139402551576495e-04,-5.847434513270854950e-04,1.224488514708355069e-04,-7.748338362034701277e-07,2.212791889905929565e-02,-1.039968196892004926e-06,2.592974510662315879e-07,4.938336205668747425e-04,1.352972667234553228e-08,6.933422582733328454e-07,7.250387570820748806e-04,-2.908657479565590620e-04,-2.073154464596882463e-04,-2.294220280418812763e-07,9.745392759441529051e-08,1.648152247071266174e-04,7.501221727579832077e-03,2.253861894132569432e-04,1.540752964501734823e-05,2.856990322470664978e-04,4.793416592292487621e-04,4.307857307139784098e-04,5.610455991700291634e-04,-6.543770609823695850e-07,-2.208608930232003331e-04,-2.249480749014765024e-04,-3.182101645506918430e-04,2.557115976742352359e-07,-1.510838671947567491e-07,-1.089125871658325195e-02,-6.201774453984398860e-07,-3.710738951667735819e-07,-3.379589412361383438e-03,4.689191409852355719e-04,8.937354323279578239e-08,3.298490298675460508e-07,8.143911138176918030e-03,2.894982695579528809e-03,-5.136917752679437399e-05,5.996664403937757015e-04,-8.786273188889026642e-03,-1.461142687730898615e-06,-4.915117415293934755e-07,-6.630228017456829548e-04,6.687079689982056152e-07,-3.736688540811883286e-07,-1.340908202109858394e-04,-1.806974178180098534e-04,-4.668383368766626518e-08,1.387600434554769890e-07,4.683799925260245800e-04,4.676610988099128008e-04
-1.678493077861276106e-07,-5.169533778826007620e-07,-1.058728571479150560e-06,-5.529250870495161507e-07,-1.872515014156306279e-07,4.529511556938814465e-07,-8.094816195125531522e-08,-4.739949588383751689e-07,2.722467229432368185e-07,-6.317459906313160900e-07,2.171111219695376349e-07,-1.085494929498054262e-07,2.547036501709953882e-07,2.305545478975545848e-07,-6.307375315373064950e-07,2.758769710453634616e-07,1.410148397553712130e-04,9.205260198541509453e-08,3.484929891328647500e-07,-5.720442572965112049e-07,4.748472974824835546e-07,6.487485393336100969e-08,9.031205991050228477e-06,5.266672360448865220e-07,1.256669577287539141e-07,-1.874916080168986809e-07,-1.254568644526443677e-07,-1.148817432294890750e-06,1.092288948711939156e-04,-4.191350342352961889e-07,-6.444686846407421399e-07,-5.741914606005593669e-07,-2.619351846533390926e-07,-1.702495637800893746e-07,-3.113916143774986267e-03,4.734346532586641842e-07,2.595313333131343825e-07,6.997973400757473428e-07,6.999065362833789550e-07,7.041075491542869713e-07,2.611377425409955322e-08,-6.701856909785419703e-05,4.605775245636323234e-07,-5.732185286433377769e-07,4.343762611824786291e-07,-1.645314507186412811e-02,1.347666938045222196e-07,3.051670560694219603e-08,-1.207237690687179565e-01,-2.155539579689502716e-03,2.531450888909603236e-07,-7.131871484489238355e-07,9.210409969091415405e-02,1.450520841217439738e-07,-2.343920186831383035e-07,-7.696107786614447832e-06,-7.239962940275290748e-08,4.303711023112555267e-07,7.821745384717360139e-07,2.465618251790147042e-07,1.346396487633683137e-07,1.325923477679680218e-07,-5.590463842963799834e-07,-3.702822937157179695e-07
-1.298538734317844501e-07,-3.797390775162057253e-07,-8.811903171590529382e-07,-4.089831122655596118e-07,-6.181031722007901408e-07,6.379969477166014258e-07,-4.966365096947811253e-09,-1.031504098136792891e-06,5.845698751727468334e-07,-9.411912742507411167e-07,3.481719659248483367e-07,5.357673558137321379e-07,1.221938873641192913e-06,5.365554898162372410e-07,1.402224114599448512e-07,1.494967563075988437e-07,-4.274295974937558640e-07,1.687503612401997088e-07,3.727346040705015184e-07,-8.486660476592078339e-07,4.403531193020171486e-07,-1.041298958170955302e-07,-7.468370313290506601e-07,9.167444545710168313e-07,9.822549600357888266e-07,-2.849870561760781129e-08,1.935172662115292042e-07,-8.559745765523985028e-07,-3.515931439324049279e-07,-7.417817755595024209e-07,-6.527708933390385937e-07,-9.613207794245681725e-07,-7.566711701656458899e-07,-6.657998596892866772e-07,-4.273744309557514498e-07,1.093201944968313910e-06,9.270657983506680466e-07,8.355871727871999610e-07,1.121073978538333904e-06,-1.173162971213059791e-07,3.269473154432489537e-07,7.334115821322484408e-07,4.411064367104700068e-07,-4.873514569680992281e-08,3.615060393258318072e-07,-5.186366820453258697e-07,6.425310838942266400e-10,-2.214487579976776033e-07,-1.733862546871023369e-07,-4.616481135144567816e-07,8.516196885466342792e-07,-2.585241531960491557e-07,7.455740842488012277e-07,-1.453865934308851138e-07,-3.451430359291407513e-07,2.211058074408356333e-07,4.654921781366283540e-08,3.026638069059117697e-07,1.108007694483603700e-07,9.591184380042250268e-07,-1.054075511319751968e-07,-4.444074477305548498e-07,-2.544714163832395570e-07,-5.038120320932648610e-07
-1.115616555580345448e-06,-9.877867341856472194e-07,-7.352365400947746821e-07,-6.955640969863452483e-07,-1.416306417922896799e-06,7.977587520144879818e-04,1.223222739099583123e-06,-4.891569460596656427e-07,-3.019685664185089990e-06,-1.256029122487234417e-06,8.093312544588115998e-07,-2.650123178682406433e-06,1.164493255600973498e-06,-1.484539893681358080e-06,-8.299335263473039959e-07,3.313930108106433181e-07,1.231907390319975093e-05,1.263410922547336668e-06,3.398377543817332480e-07,1.151831156676053070e-06,2.899469393469189527e-07,7.503259666918893345e-07,1.337882622465258464e-06,-3.401046342332847416e-07,9.500330975242832210e-07,-2.672670262882093084e-08,-3.648795541266736109e-07,-1.265663854610465933e-06,1.246315241587581113e-05,-6.586839731426152866e-07,-8.635748258711828385e-07,-5.937005767009395640e-07,2.706696250243112445e-06,2.658057610460673459e-06,1.779044850991340354e-06,8.510490374646906275e-07,1.328752546214673202e-06,-3.205034815323415387e-08,4.508183337748050690e-04,1.127162136072001886e-06,1.553261768094671424e-06,-8.541363968106452376e-06,7.722228474449366331e-07,-7.493654265999794006e-07,-1.649506089052010793e-06,-1.728296629153192043e-04,-1.623043459630935104e-07,6.673419079561426770e-07,4.308554052840918303e-04,1.991432782233459875e-06,6.103343821450835094e-07,2.130853090420714580e-06,-5.493807293532881886e-06,9.481156553192704450e-07,8.137283202813705429e-08,-2.568001491454197094e-06,1.378395779738639249e-07,7.137988404792849906e-07,5.594945378106785938e-07,1.496432105341227725e-06,1.595288381395221222e-07,-6.134139596269960748e-08,2.431980192341143265e-06,1.778077603376004845e-06
8.695661790625308640e-07,1.698120399851177353e-07,2.537350383136072196e-07,7.805203949828865007e-07,6.003291446177172475e-07,-7.757759590276691597e-07,-1.027140683618199546e-06,2.749666805357264820e-07,-1.182666323984449264e-06,4.489119476147607202e-07,-5.733093075832584873e-07,-1.043928818944550585e-06,-1.710528408693789970e-06,-8.959241881711932365e-07,8.391255619244475383e-07,-6.679640023321553599e-07,4.515516593528445810e-06,-1.046711076924111694e-06,4.624854277324175200e-09,1.194983951791073196e-06,-1.309762524215329904e-06,1.969998919548743288e-08,9.885894769467995502e-07,-1.828541144277551211e-06,-9.102770945901283994e-07,9.626862862432972179e-08,-1.087812895317341599e-10,4.034672826946916757e-07,8.108702900244679768e-07,3.394759175989747746e-07,-8.004150942042542738e-08,1.963001523108687252e-06,1.248407102139026392e-06,1.488525526838202495e-06,9.423584401702100877e-07,-4.126669921333814273e-07,-7.474736776202917099e-07,-1.523340529274719302e-06,-1.268812070520652924e-06,-7.435284601342573296e-07,-6.826267053838819265e-07,-1.414434905200323556e-06,-1.250849322786962148e-06,-1.118514632025835454e-07,-9.660114983489620499e-07,8.327028240273648407e-07,-8.454105682176304981e-08,-1.560647575615803362e-07,1.031737269840959925e-06,9.215918908012099564e-07,-6.410645028154249303e-07,9.736359061207622290e-07,-8.992693096843140665e-07,-9.551602033752715215e-07,1.753651872604677919e-07,-8.811194334157335106e-07,9.237209610546415206e-07,-5.138979872754134703e-07,-1.093432388188375626e-06,-6.606367719541594852e-07,-1.176468416019815777e-07,-2.079677585697936593e-08,9.672666010374086909e-07,9.826937912293942645e-07
1.054969516189885326e-07,-3.071895662287715822e-07,-1.452964397685718723e-07,-2.067901050395448692e-07,2.692402212289835006e-08,-4.303134062411118066e-07,-3.332798712563089794e-07,-3.679715469479560852e-02,-2.075529437206569128e-07,1.566078680070859264e-07,2.475101155141601339e-07,1.407786811569167185e-07,-2.403089922609069617e-07,4.901846182292501908e-07,2.791962003811931936e-07,1.805072287197617698e-07,6.325079993985127658e-06,-2.234053937399949064e-07,-8.320163402686375775e-08,1.611171427384761046e-07,-1.860332510261741845e-08,-9.215127505513009964e-08,3.260267021687468514e-06,-1.972767762481453246e-07,2.046100888719593058e-07,-5.474710018660289279e-09,-4.079641371390607674e-07,-7.839882698590372456e-08,4.070899649377679452e-06,6.387286788367418922e-08,6.202715674419323477e-09,-4.762701166782790096e-07,1.538578828785830410e-07,2.284488545001295279e-07,-7.222744358159616240e-08,-1.743072175486304332e-07,-5.429589222671893367e-08,1.494385060141212307e-08,-6.566431665078198421e-08,-9.362169350879412377e-08,-4.106126993974612560e-07,-4.959661055181641132e-06,-2.342037817015807377e-07,4.086141558445888222e-08,-1.466298499508411624e-06,-3.466428211140737403e-07,-1.066174348807180650e-07,-5.948490766627401172e-08,-7.288899272680282593e-02,6.588633141291211359e-07,1.976588670515866397e-08,-7.143799507502990309e-07,5.204442515969276428e-02,-7.342290331280310056e-08,-6.877965574858535547e-08,3.350560575654526474e-07,1.594479783761926228e-07,8.628597214510591584e-08,-2.540561183650424937e-07,-4.120350638459058246e-08,9.123426991664018715e-08,1.224103272079446469e-07,-7.987535610709528555e-08,-2.095351447906068643e-07
