7.797895023031742312e-07,-7.073501340215671007e-09,1.019444262340130081e-08,-4.717784002423286438e-03,6.327911705739097670e-08,1.403012817036142224e-07,1.568475660462809174e-08,-7.257940382032757043e-08,-1.573389738496189239e-07,-2.204324900390020048e-08,-1.121948457694088574e-06,-5.256666568698165065e-08,1.018765303228974517e-07,-2.309922808585440634e-10,-2.365757367783771770e-08,-3.706590945284915506e-08,-1.199385391004170742e-08,3.153730006033583777e-07,8.356739300552362693e-09,4.299582023747916537e-09,4.109158180654048920e-04,-5.908611822036391459e-09,4.308616335038095713e-04,1.338840229436755180e-05,1.443292916292193695e-07,-4.155934973937291943e-08,-1.415369439428104670e-07,4.664703737944364548e-03,2.080253480585270154e-08,8.262539097358967410e-09,2.780414654068863456e-08,-1.919083297252655029e-05,9.014343049784656614e-08,1.219396921214865870e-07,1.604180077663386328e-08,-5.006640435567533132e-08,1.086514984649511462e-07,-1.365022939125992707e-07,6.971769295205376693e-08,4.988358914852142334e-02,2.984377900361323555e-08,4.609976755887146282e-08,2.262625198312662178e-09,1.613529043709149846e-08,4.591230151618219679e-08,3.962878381003065442e-08,-4.141996669204672799e-06,9.414647138328291476e-06,2.828204515026300214e-08,-1.028011785820126534e-03,-1.342093658429632796e-09,-2.345256655544858404e-09,-1.088143051219958579e-07,-4.463689947442617267e-06,-1.759385703792304412e-08,-1.826026974072192388e-08,-5.317589923947707575e-08,-2.905008386733243242e-06,-5.606468178598333907e-08,-2.070221677422523499e-02,3.191132336155533267e-08,-8.686981090022527496e-08,-1.443663495592772961e-04,-2.571286827901531069e-08
-4.500021244524532449e-09,-3.500722911553566519e-08,-3.551726379669162270e-08,-9.171514214756371075e-09,-4.682458154547930462e-08,7.365434928630065770e-09,-1.517333281242372323e-08,2.658478592820756603e-08,-1.259792359320499600e-08,4.789574958863340726e-08,-5.952990633772969886e-08,1.765246437912537658e-08,-4.999716196607550955e-08,-7.037712634883064311e-08,2.212637628673519430e-09,6.427804510877876965e-09,-3.658501768200039805e-08,-3.844067109071147570e-08,1.856846232328734914e-09,-3.518399793733806291e-09,-2.336487092691186263e-08,1.268634264306456316e-08,-2.995084713575124624e-08,-1.427483287130826284e-08,-2.865503034854555153e-08,1.843259234135530278e-08,-1.786359860034281155e-08,3.960015426685004059e-09,-4.990324597997641831e-08,-7.964946036054243450e-09,-4.274101073065139644e-08,7.128554635471573420e-09,-1.996889054112216400e-08,5.767411437318514800e-09,5.369042987979355530e-09,4.946125287119684799e-08,-1.393049853248840009e-08,2.639038854113096022e-08,-1.070500132982488140e-08,-2.564395435911137611e-05,-5.768822930463102239e-08,4.552388244150051833e-09,4.604119752116275777e-09,8.685569596877940057e-09,-2.274974697513698629e-08,-3.055896202752705904e-09,5.156065796541042801e-08,3.579505403195071267e-08,-1.467660304399487359e-08,3.449699192970001604e-08,1.090483170429479287e-08,-1.904852275913526682e-09,-3.572173001842315898e-09,2.342026839130539884e-08,-4.649723273075778707e-09,2.979606072983642662e-08,-1.138293370672727178e-08,8.598536105353105086e-09,1.274474925594404340e-08,-2.634835460924023209e-08,-4.243270979031876777e-08,3.994284369923661870e-08,7.346458374968278804e-08,4.046864177098541404e-08
-2.446232656438951381e-07,2.667962917257682420e-08,-1.173889501160374493e-07,-2.535340376198291779e-02,1.073323048217389442e-07,-8.166328768766106805e-08,-1.331140175864220510e-08,-1.792087189755875443e-08,-4.195004787987954842e-09,-1.240644209588026570e-08,-1.917320560096413828e-07,-2.508456020677840570e-08,3.050079300237484858e-08,-1.284492867625885992e-07,-1.757597289930856732e-09,-4.629403704825563182e-08,-2.026119183540231461e-08,1.721698481560451910e-07,-1.811132577245189168e-08,-9.489623309377748228e-09,1.124806931329658255e-05,-1.202003403477647225e-07,3.151186276227235794e-03,-7.403324531196631142e-08,1.225587009656692317e-08,-7.122790890434771427e-08,4.239511497416970087e-08,2.394902548985555768e-04,1.730706600255871308e-08,-4.206996706557220023e-08,-5.758222787477507154e-09,-4.504676326178014278e-04,-1.567483565168004134e-07,-3.305521900642816036e-08,-3.516747071330428298e-08,-8.691633723856284632e-08,3.486895039372939209e-08,1.785402048426476540e-07,2.327964487847111741e-08,3.587443232536315918e-01,-2.433506907095761562e-08,-7.566156767779830261e-08,9.232967812522474560e-08,9.103188602921363781e-08,3.599177489377325401e-08,6.073425762309625497e-09,1.699979748082114384e-07,1.306575654780317564e-06,-1.593316056869298336e-08,1.994576592778685153e-07,1.045914554964610943e-08,7.844986882332705136e-09,-6.683570141774453077e-09,2.709534463463114662e-08,5.076336506704137719e-08,8.997353084794212918e-09,-2.856926695216088774e-09,-1.588171471667010337e-06,2.663887421761046426e-08,-1.193990111351013184e-01,3.975076623419226962e-08,-3.001875370500783902e-08,-2.397732809185981750e-02,-3.838959727886503970e-08
8.857218548655509949e-03,-2.687000087462365627e-04,-1.280736178159713745e-03,-9.355567395687103271e-02,2.014452475123107433e-04,-4.291374352760612965e-06,7.175903249390103156e-08,-7.408300461975159124e-08,3.057814183193841018e-06,1.513090630567148764e-08,2.077922224998474121e-02,5.531183688844976132e-08,-2.027256051917447621e-08,7.932245353003963828e-05,-1.630715473766031209e-07,-6.290878218351281248e-08,-1.244957651942968369e-02,7.389012724161148071e-03,-6.491566542536020279e-03,-1.506546887242166122e-08,-9.223143570125102997e-04,-1.031093859182874439e-07,-2.341488935053348541e-02,3.432652354240417480e-02,1.912680272653233260e-05,-1.652004430070519447e-03,-4.368254667497240007e-05,-4.763528704643249512e-03,-2.149653155356645584e-04,9.955240187764502480e-08,-2.497398021716890071e-08,7.398509420454502106e-03,-8.715966970385125023e-08,-4.638850077753886580e-05,1.715349462472204323e-08,-2.367197993180525373e-08,1.035141944885253906e-02,7.891980203567072749e-06,1.377579716965726675e-09,-5.691850557923316956e-02,3.087700903415679932e-02,-1.482912992400997609e-08,4.485609242692589760e-04,1.950306760534203931e-08,1.901015567185027066e-09,7.753268960186687764e-08,8.060677458843201748e-08,3.389199450612068176e-02,-1.048116686774847039e-07,-8.479692041873931885e-05,-5.047069429053863132e-09,9.553904334325125092e-10,-8.615852920001998427e-08,-8.189743384718894958e-03,-1.085144063495135924e-08,3.434997750446200371e-03,1.935950137976760743e-07,2.434708148939535022e-04,-4.370437807210691972e-07,-4.719150438904762268e-02,9.038856774168380070e-09,-1.870204213716419872e-09,1.069671735167503357e-01,-8.432039955152959010e-09
-8.425395492395182373e-08,7.986718486563404440e-08,-1.019305031491057889e-07,-4.804543550562812015e-06,7.307689742219736218e-08,5.085173171437418205e-09,-1.919923420246050227e-08,-2.985606073480084888e-08,-8.243780769134900765e-08,3.607537379934910859e-08,-7.655066269762755837e-08,-7.762313458670178079e-08,3.430748307664543972e-08,-8.515141303178097587e-08,5.667599722869454126e-09,3.055785313677006343e-08,-5.896138333127964870e-08,6.674500241388159338e-08,-8.750120628064905759e-09,-1.898547274947759433e-08,-6.037157618266064674e-08,-2.978427637856384536e-08,2.340649842835773597e-07,1.605305897101061419e-07,6.262921203870064346e-08,-1.047796871489481418e-07,-9.734269390548888623e-09,-1.063825436631304910e-07,-5.869147656767381704e-08,-3.550782068373337097e-08,1.273965466452864348e-08,9.455644800482332357e-08,2.920392283556338953e-08,-5.707514016961567904e-09,-1.498436752456200338e-08,-1.177394679530152644e-07,1.634439072972782014e-08,-5.356660182087580324e-08,8.549073271524321171e-08,1.385264564305543900e-03,2.816986466314119752e-08,2.880235605573489011e-08,1.475076629731120192e-07,1.015676858173719666e-07,4.414452448031624954e-08,8.335287304817029508e-08,7.300696580614385311e-08,9.955267614714102820e-07,5.797510915783732344e-09,1.145579204830937670e-07,2.385333708332382230e-08,-2.092245487972377305e-08,-1.147672108459119045e-07,-2.098590812238398939e-07,-1.791448944743478933e-08,-8.065400436407799134e-08,-2.380450059291661091e-09,4.827710853305688943e-08,2.597415615923637233e-08,-6.082802428863942623e-04,2.838847379393882875e-08,-2.134849630408552912e-08,-1.130407508753705770e-05,3.907371137756854296e-08
-1.850396458280556544e-08,-9.348052110169646767e-09,6.809877817204323946e-08,1.398300213395486935e-07,-4.319185720191853761e-08,-2.663367126842786092e-08,3.153429961599840681e-09,2.135416998783057352e-08,-4.471559567065241936e-09,-7.365201781794894487e-09,5.625161136890710623e-08,5.679983061668281152e-08,-4.506630801870414871e-08,5.348683629335937439e-08,-1.053759746127980179e-08,1.840592034341170802e-08,5.839937866625177776e-09,-3.864077413595623511e-08,-1.772759183893413137e-08,-6.810569441739744434e-09,1.645254776860838319e-08,-1.567044805028672272e-08,5.735448027621714573e-08,1.949940653389603540e-08,-3.029144224342417147e-08,6.253358009189469158e-08,1.198591448314800800e-08,1.872092880716991203e-08,-1.288944861954632870e-08,2.248032693330515031e-08,-9.873977191432459222e-09,-3.827235772746462317e-08,-1.531872939608547313e-08,1.682643535616534791e-08,-3.549374838485164219e-08,6.591386636500828899e-08,-2.941471599626765965e-08,4.478157400455984316e-09,-5.243031703239253716e-11,4.841843747271923348e-06,3.641766710416050046e-08,-4.600534619925156221e-09,-7.818205460807803320e-08,-5.892609067359444452e-08,-2.097056217564841063e-08,5.910988143398299144e-09,-4.497347561027709162e-08,1.570192686983773456e-08,9.953635249360104353e-09,-1.834328067218393699e-08,1.224559298407257302e-08,1.063056132011297450e-08,-3.158963579608098371e-08,1.490300505224695371e-08,1.042679009799485357e-08,1.325563570020449333e-08,3.262937298131873831e-08,-2.654663688872460625e-08,3.073332699443653837e-09,-9.712220361279833014e-09,4.674238773816341563e-09,3.816058580241588061e-08,2.122056130815508368e-08,-1.774276014998577011e-08
4.342830095538374735e-09,-2.564768619706114805e-09,1.312415598420102469e-08,-7.482623409771349543e-09,-3.524138758592698650e-09,-1.450893072352243962e-09,1.648447600643976330e-08,1.034444885306129436e-08,-5.103352407331840368e-09,3.845394758172915317e-08,4.151426313825368197e-09,1.324134846214519712e-08,-2.940463694756090263e-08,3.676708715261156613e-08,-1.340856670140055940e-08,-1.662268767077534903e-09,-1.265733562405557677e-08,2.292839518247546948e-08,2.095360507325949584e-08,-3.791920732965081697e-08,4.802595210406934712e-09,-5.845245620861305724e-09,7.199624230125323265e-10,6.950566344698927423e-09,-3.508714030431292485e-08,3.489821986946139987e-09,-7.675788005201411579e-09,4.903759176499988826e-09,4.551867771596107559e-09,4.419299926006203805e-10,-1.631167201310290693e-08,-2.512959174083562175e-09,-2.344556548905529780e-08,5.785994350304690670e-09,-1.988958686638397921e-08,1.171625196860759388e-08,3.789683233890173142e-08,-1.246364234042118824e-09,-8.745515422958760610e-09,-1.584160003176293685e-08,-2.056388481719295669e-08,1.149129680300120526e-08,-5.457001073239098332e-09,-8.280474972366391739e-09,1.551922146347806120e-08,5.689849924550571814e-09,-2.320758696328084625e-09,1.090261214642396226e-08,5.313220974301202659e-10,-2.062516557543858653e-08,1.757381018485659752e-09,5.931811042358958730e-09,1.686559514268992643e-08,2.943268961885792123e-10,6.399291763159453694e-09,-5.038385264555245158e-09,-1.631599716445109038e-10,-6.498437343793739274e-09,4.358127370096553932e-08,-3.363149314594693351e-09,-3.301671824829099933e-08,-1.444277808460014967e-09,3.295222938959341263e-08,-1.194510934610093500e-09
2.059550610056248843e-07,-7.135123780699359486e-08,-3.579215590576723116e-09,1.039651542669162154e-04,-2.082254013657802716e-07,1.812479411000822438e-08,-2.036905311086911752e-09,-7.118393341443152167e-08,8.471069889992577373e-08,6.649182893170291209e-08,6.920024553380699217e-09,5.145026094055538124e-08,-7.493219555954055977e-08,-3.162477923979167826e-08,-9.856083948989180499e-08,-2.836271839612436452e-08,-1.411874279710900737e-07,-1.837760095213525346e-07,-2.563066026084470650e-08,1.140659744436334222e-08,-3.022415285158785991e-06,3.090420719331632426e-08,1.633881225870936760e-07,-5.903763230890035629e-04,-1.850418982485280139e-07,1.377721901008044370e-07,-2.346413374709754862e-08,1.529646453946043039e-07,2.168736079610766865e-09,-1.946055228074783372e-08,-2.770395468587594223e-08,-9.004674339507801051e-09,-4.854897994732709776e-08,-4.876414649856997130e-08,6.056707491097768070e-08,8.017082819833376561e-08,-9.225234975929197390e-08,-1.051470288615519166e-08,-8.406887275214103283e-08,-5.489582545123994350e-04,-4.394810204644272744e-08,-7.449528283132167417e-08,2.948921462575526675e-08,-5.976124839435215108e-08,-4.254582464113809692e-08,-4.346969006974177319e-08,5.610935716049425537e-08,-4.623093991540372372e-05,2.198178528090011241e-09,-1.985515574176588416e-08,9.032580905454778986e-09,2.048377822916336299e-08,1.262591666773005272e-07,2.322702202945947647e-03,-5.303166972225881182e-08,9.730913319572209730e-08,1.123048676276994229e-08,-1.254524732985373703e-07,5.136714520403984352e-08,-7.889333346611238085e-07,-5.502974431692564394e-08,8.747493751570800669e-08,-3.124607494100928307e-03,1.153003559295484592e-08
-2.281070834442289197e-07,-3.184062791206088150e-09,4.168234113421931397e-08,5.322721699485555291e-05,2.383980124420759239e-08,-3.682379201563890092e-08,8.723119115927602252e-09,-1.305456294176110532e-07,3.283775740214878169e-08,-7.442916682975919684e-08,-7.707327220884963026e-09,3.300768725011948845e-08,-2.777322194447151560e-08,5.736407260314990708e-08,-9.155444402608736709e-09,1.483939726654170954e-08,6.818990641477284953e-06,2.160730083744510921e-08,3.515330604386690538e-08,-1.021004258916491381e-08,1.615222089412782225e-08,-3.533624948204305838e-09,-2.868386036425363272e-05,4.304931167098402511e-07,-4.671044706583415973e-08,2.187588066249190888e-08,3.974625428782019299e-08,-2.577511537538157427e-09,7.451622963117188192e-08,-3.613343846353700428e-09,-1.589262232926103025e-08,-4.935984065923548769e-08,-2.606216220613077894e-08,-4.140755294201881043e-08,2.778050500751305663e-08,-8.326423106552738318e-09,-6.202305371516558807e-07,9.271029277613251907e-09,5.099463074031973520e-09,6.875185668468475342e-02,-5.038649319999422005e-08,-2.560628153958077746e-08,-3.874333387443584797e-08,-1.025262150733396993e-07,-8.019886088561634097e-09,3.852931840242490580e-08,-2.715798608221575705e-08,-5.227629662840627134e-05,-2.465650972283128795e-08,-9.961015621229307726e-07,9.708548631692792696e-09,1.792272463774224889e-08,6.829904641847406310e-09,-2.777716417767805979e-06,-2.399062637437054946e-08,4.552744847785561433e-09,1.017597561769889580e-08,-3.761619993269960105e-08,2.957375677681284287e-08,7.698794797761365771e-05,-5.683411075096955756e-09,1.127774496012534655e-08,-1.168912422144785523e-04,4.822014343375258250e-09
-1.217440015466308978e-08,-2.749136029933652026e-08,1.088614531852272194e-08,3.096596401519491337e-08,-6.753313019913775861e-09,1.339926036791894148e-08,-2.585361968954202894e-08,1.521773818069505069e-08,-1.710829167222982505e-08,-1.352821765721046177e-08,3.400380776952260931e-08,1.050114439848925940e-09,-1.491589740609811088e-09,9.890166019488333404e-09,3.159425165932816526e-09,2.518008912488767237e-09,-1.393376347635921775e-08,-1.030213514496836069e-08,-2.623244554911252635e-08,-5.173121486734544305e-09,-1.808704475081412966e-08,-3.199056575198255814e-09,2.041890878601293480e-09,6.771767591118305063e-09,-2.739519544547874830e-08,-1.816927230890996725e-08,8.168128395880103199e-10,2.401358756287663709e-08,1.027930629504680837e-08,1.451773545824153189e-08,-3.748798249603169097e-08,-1.659955550792346912e-08,-8.308624011021947808e-09,2.636330442840062460e-08,-2.279007915717556898e-08,6.839855348772516663e-09,-2.411134847335461018e-09,1.556210493802723249e-09,-2.415071698180781823e-08,-3.135777433271869086e-06,7.730093898317136336e-08,-1.762321488740781206e-08,1.043790920363107944e-08,6.596669432923363274e-09,-1.370521207633146332e-08,-8.474160928528817749e-09,3.197325781911786180e-08,1.032292740177354062e-08,-6.750696890378549142e-09,-2.361046824717050185e-08,6.907810323752983095e-09,-3.459915021153392445e-09,-3.215658495037132525e-08,-1.665056181821000791e-08,9.422671531922333088e-09,-2.850098113071908301e-08,-8.596041212172167434e-09,-2.946399568770630140e-08,-1.174294084194116294e-08,-3.463417641569321859e-08,1.374660119068948916e-08,-2.779269592245725562e-10,3.383554414426725998e-08,8.949203156305429729e-09
7.117132554412819445e-07,-2.074144504149444401e-06,-1.038242380957399291e-08,1.033050338605789875e-07,3.074580945394700393e-08,-3.569106965528590081e-08,-6.029635901683150223e-09,2.638900209461780832e-09,8.130798789807158755e-08,-1.751554812301492348e-08,6.850705744909646455e-07,8.132782447489717015e-09,-5.171308359308568470e-08,2.095218443187718549e-09,-4.779368456553356737e-09,-5.453407680988675565e-08,-3.288814332336187363e-05,5.037034043198218569e-06,3.635661727230399265e-08,6.737721491845150013e-09,-7.495719245298460010e-08,2.706972068722279801e-08,-2.262712951051071286e-05,5.094695552543271333e-06,4.085510241225165373e-08,-3.300548501172784199e-09,-1.075075317658047425e-07,-6.878444480662437854e-08,-7.513102104894642252e-07,-3.628786160447816656e-08,-7.286179481980070705e-08,3.413637023186311126e-05,-6.186024137377899024e-08,-5.196669761176053726e-08,7.080397779191116570e-08,-4.112406060130524565e-08,-2.133358911748928222e-08,7.860144535243307473e-08,-4.063930646225344390e-06,-1.924541778862476349e-02,3.998488187789916992e-03,-5.045572137873932661e-08,6.237324612357042497e-08,2.348916616767837695e-08,5.918006085181559683e-09,1.368746005425691692e-08,8.014472641093561833e-09,1.905572833493351936e-03,3.875731025004824915e-08,-1.330120569242865258e-09,-1.888365375180001138e-08,1.747343603142326174e-08,6.388229500942088634e-09,-2.632943818525745883e-08,-5.173805561753397342e-08,2.394038347119931132e-06,1.041388664191345015e-08,7.351745523465069709e-08,1.382320125031810676e-08,2.246995863970369101e-04,-1.232694785358035006e-06,4.213008608644486230e-09,-1.539846416562795639e-04,1.896540424706216754e-10
-5.627551757925175480e-09,1.834788854182534124e-08,5.754948162461914762e-08,3.206790921694846475e-08,-5.166645333787300842e-09,5.416802650870522484e-08,-9.157865576980839251e-09,-2.260950182630949712e-08,6.186989764955797000e-08,9.095103337131149601e-09,-7.901510912233788986e-08,5.719689255556659191e-08,1.106379077242536368e-08,9.910164067150617484e-08,3.987537411376251839e-08,-1.117697667751826884e-08,1.259959780952613073e-08,2.436469159761145420e-08,4.936241282393893925e-08,-7.534072921089318697e-09,-4.265781505807808571e-09,6.001047125892000622e-08,1.140316374659278154e-08,1.859112686020125693e-08,-1.082864375945291613e-08,2.210449778772272111e-08,-1.146218551184574608e-07,-5.694387184007609903e-08,9.994763239262738352e-09,-4.836259392959618708e-08,-1.925781312195340433e-08,-5.465469854470939026e-08,5.934278490826727648e-08,2.840669921511107532e-10,-1.263712423593688072e-08,2.380013341962694540e-08,-9.645401810587372893e-09,-1.120011390298714105e-07,2.389583819706331269e-08,-2.079033691870790790e-07,2.356295780714390276e-08,3.015593463828736276e-08,-6.917013450902231853e-08,-6.373734606768266531e-08,2.878152649543608277e-08,1.230720148015507220e-08,8.205114809811675514e-09,-3.608153420486814866e-08,8.785479899131587445e-09,-5.767199162676206470e-09,-8.101544324290443910e-09,-2.293573508893587132e-08,3.192059594425700197e-08,-3.019871641640747839e-08,5.398229863118331195e-09,5.688134407932921022e-08,1.838809637888516590e-08,7.397659373964415863e-09,3.110046620236062154e-08,1.523757617860610480e-07,-4.454731339365025633e-08,1.091191492719190137e-08,7.886772124265917228e-08,1.655868442362873338e-09
1.398938476171451839e-08,-1.991745079976681154e-08,-1.506442082188641507e-08,3.380142388209605997e-08,-1.003283767175844332e-08,1.852921194256396120e-08,-1.899314483466696402e-08,2.813801103229707223e-08,1.670263927167070506e-08,5.863346075329900486e-08,4.526562236151221441e-08,-2.174454927228453016e-08,-6.010687947366477601e-09,-1.933536220022347152e-09,1.817636180456716488e-10,-5.285204718319391759e-09,-1.495959445207972749e-08,-4.034234635241773503e-08,-2.811282939774173428e-08,-1.249059167207633436e-08,2.904539009307427477e-08,5.335542674345106207e-09,-4.494973993018902547e-08,-3.173299178982347257e-09,-5.317128959347883210e-10,-4.859653568445310157e-09,-3.868279563334908744e-08,-2.987887270933242689e-08,-2.675278132358016592e-08,-1.621496714676595730e-08,-7.186198303088531247e-09,-8.304629872668556345e-09,-1.034651919695761535e-08,-1.999565624188903712e-09,1.458494547357247484e-09,8.026490583290524228e-09,8.732295775359943946e-09,-6.735983326677796867e-09,2.070358284811391059e-08,-4.132831676884052285e-08,4.061146086087319418e-08,-2.308633728631548365e-09,-1.968541596397699323e-08,3.091920497411138058e-09,-1.013019890194755135e-08,-1.247636927104167626e-08,-1.728682264001690783e-08,5.914024825415253872e-08,1.346306621741177878e-09,-1.452732334428219474e-08,1.857186227027796122e-08,1.378226088810663441e-09,-1.548136197015992366e-08,1.373255731351719078e-08,-9.528082323129183351e-09,-5.437044592326856218e-09,-2.022459710815383005e-08,-8.422682995501418191e-09,7.277849434217387170e-09,-1.653471137785800238e-08,-1.770805369005756802e-08,-2.481916006047413248e-08,3.085202848751578131e-08,-1.799774018707012146e-08
9.305819048677221872e-08,-2.377971375366882967e-09,-8.883511526391885127e-08,-7.726816693320870399e-05,-1.232022839303681394e-07,-4.034162515154093853e-08,3.869758202768025512e-08,-7.355070863468426978e-08,2.193902126634839078e-08,1.922477110838372028e-08,-7.507666488493214274e-09,-2.430071699421887388e-09,-2.198993342972244136e-08,-4.358356164857468684e-08,-1.945632988054057932e-08,-7.485733988232823322e-08,-8.796542715572286397e-06,-1.435153222928420291e-07,-1.761810430878085754e-08,-6.328675361544355837e-10,7.381265731964958832e-08,-8.233111259414727101e-08,1.630517800776942750e-07,7.830586400814354420e-05,5.109730949470758787e-08,5.224732646524898882e-08,-7.841565263788652373e-08,1.918611758355837082e-08,-6.597668544827683945e-08,2.856348046975654142e-08,8.468013845686073182e-09,-1.547474681728999713e-08,-3.019146532778904657e-08,-2.616473260275142820e-08,3.736476372750985320e-08,-5.051592921745395870e-08,-1.855801734507167566e-08,-8.871200662952105631e-09,3.629604705679412291e-08,-3.032279346371069551e-05,-3.792426284121575009e-08,-5.999529761879784928e-09,7.950318803295886028e-08,7.747591013185228803e-09,8.443640453492662346e-09,-2.184874858812690945e-08,-8.443057808449339063e-09,8.656312274979427457e-05,-1.359520496180266491e-08,7.610098862187442137e-08,-1.749004674422849348e-08,1.482068956448756580e-08,-2.338102511600936850e-08,-6.077525682712803246e-08,-3.653503277689651441e-09,7.931417189688261260e-10,2.620187178337118894e-09,-3.229647305147409497e-08,-8.471021573086545686e-08,6.726663559675216675e-05,1.454817954993359308e-08,-4.223744909381821344e-08,1.227676257258281112e-04,-4.669686148872642661e-08
-2.192487613683624659e-07,-6.337603331019181496e-09,-8.716760646620969055e-09,1.178827346848265734e-07,1.716118873673622147e-07,2.324008718801451323e-08,-4.865879699167408035e-09,-6.007593089663032515e-09,8.678768814718296198e-09,1.284493400532937812e-08,2.574578239489255793e-08,-5.801301838914696418e-08,5.207972941789762444e-10,-1.806150962124775106e-08,2.440240010059824272e-09,-2.786499564422229014e-08,1.896411134794107056e-07,2.488306733994249953e-07,-4.039376122477733588e-08,-1.492341361597482319e-08,-2.308141375806371798e-07,3.289149841378957717e-09,-1.375832994199299719e-07,-1.953376340679824352e-07,-1.159720230958782849e-08,2.687986222493776722e-10,3.034652351630029443e-08,-2.739142530572280521e-07,1.772978563963079068e-08,2.070712934454377319e-09,4.368296302459384606e-08,-2.353723438375254773e-09,1.880279754118419078e-08,-1.345891842419177920e-08,2.857264291833416792e-08,6.419669795754145980e-10,4.528383712454342458e-08,-2.623891104391873341e-09,1.690070838833435118e-08,4.081028964719735086e-05,-2.441230506633473851e-08,-1.361173573855012364e-08,4.107479867343499791e-08,-2.215054450971365441e-08,5.436643490952519642e-08,1.014289763290321389e-09,-3.469435583269842027e-08,-2.733422945766506018e-07,9.048950033729852294e-09,6.370122207499662181e-08,1.950279404638877168e-08,-7.750139197071348462e-09,1.895143242336416733e-08,1.858339970794986584e-07,4.541774512034635336e-09,-3.686565364091620722e-08,5.356374188636436884e-08,1.234285917917077313e-07,1.201676314011024260e-09,2.252237720767880091e-07,5.076753240018661018e-08,1.217975231782020273e-08,-1.314631572313373908e-05,-5.182184903418374233e-09
4.403787112750023880e-09,-1.872466404151396091e-09,8.052433386751545186e-09,3.308375795540996478e-08,-2.137152677050835337e-09,-8.484883906589857361e-09,6.090471682540510301e-09,1.384085346334273936e-10,-2.851837699324732966e-08,-1.018153117371412009e-08,-8.802336637359076121e-09,-1.038847763368266897e-08,-3.475539500641389168e-08,9.357200347892558057e-09,-3.067671672241090164e-10,-2.694306583395089660e-11,-4.198232161911619187e-08,6.619681691688583669e-09,6.034432509238740749e-09,-3.756749933359060378e-08,2.202883742086214625e-08,-4.587148882961855634e-09,1.546177053057817830e-08,2.593080949964132742e-08,-3.228047873449213512e-08,-1.435071617095218244e-08,-1.287206874422963665e-08,-3.559256445129221902e-09,-7.210139152391548123e-09,-1.175347996706932463e-08,-8.882154567402267276e-09,-1.943828031869543338e-08,9.788847066261041618e-09,-1.672874727631779024e-09,2.433690049485903728e-08,1.524657555762587435e-08,-1.784558634199129301e-08,-4.301697192898856770e-11,4.018066324107394394e-09,-3.569442696971236728e-08,1.734480470361177140e-08,1.150526784954308823e-09,1.895572587784499774e-08,1.749766198599900235e-08,2.546432176231405720e-09,-3.382997659784336975e-09,-6.880423786270739583e-09,1.727110010563137621e-08,-1.014709827273918563e-08,1.205385680158599371e-09,-2.462490122923099989e-08,7.193369455649190058e-09,-5.434200200937766567e-09,1.373602920295979857e-08,-8.835507436799616698e-09,2.319386638305331871e-08,-2.129221599034281098e-08,4.557461963372588798e-09,-4.313136514610960148e-08,2.894185513468983117e-08,-1.262526794221230375e-08,1.163391960545823167e-08,6.456576606694852671e-09,1.568835017451419844e-08
2.002209839702118188e-05,-4.191286961940932088e-08,1.861837972683133557e-07,-1.993510231841355562e-04,-2.518690416764002293e-05,-1.347193290257564513e-07,6.771445981712531648e-08,-1.793187323073652806e-07,9.698396041812884505e-08,1.020332085488462326e-08,4.331497941166162491e-03,4.655574684875318781e-06,-6.497216986645071302e-08,1.106777176573814359e-07,3.583978980259416858e-08,-5.952886539262181032e-08,-5.485659130499698222e-05,-2.967663342133164406e-03,-2.233216944702576257e-09,-1.614760591905906040e-08,1.872922730399295688e-04,8.807149676215431100e-09,4.552732687443494797e-03,8.387526759179309011e-05,-3.060932067455723882e-05,6.755538493052881677e-07,1.982816320378333330e-05,4.644005093723535538e-04,3.451525344644323923e-06,-7.072352481429788895e-09,-7.480214492261438863e-08,-1.108533865590288769e-06,-9.558204538961945218e-08,-9.269710687931365101e-08,6.368988181293389061e-08,3.993153825376793975e-07,-4.968997927790042013e-06,1.037903274436757783e-07,-4.739553105537197553e-08,-1.906421780586242676e-02,-5.639893934130668640e-04,-6.338016333984342054e-08,-1.532526994196814485e-08,-1.448727431352381245e-07,-4.619012727857807477e-08,1.315824693648437460e-08,-1.455772036251801183e-07,1.233938237419351935e-04,2.006996879799771705e-08,-6.805327643633063417e-07,3.036638673847846803e-08,-4.747253967707365518e-08,1.761670773703372106e-07,-6.477192073361948133e-05,-4.044258616886509117e-08,1.403907745611832070e-08,-1.956978934458675212e-08,-7.424291834468021989e-05,-7.822901437748441822e-08,-2.813114551827311516e-03,-3.619502919605110947e-08,4.020985144848054915e-08,2.556360792368650436e-03,-3.545163052010025240e-09
-2.930365496922604507e-07,-3.087921029987228394e-08,-2.833316466421820223e-05,1.019266550429165363e-03,3.931338881102419691e-07,6.270841623745582183e-09,2.769732709850813990e-08,-4.676204667930505821e-08,-6.653071149553824171e-11,-2.482150129878846201e-08,-1.452979995519854128e-05,-1.388107904176649754e-07,-4.319537438846055011e-08,9.571013833920005709e-06,-8.167605258790899825e-09,-2.765673201565732597e-08,1.320507863056263886e-07,3.695815280480019283e-07,-3.287184213718319370e-08,3.302255180415158975e-08,-4.712658846983686090e-05,-5.645116019081797276e-08,-3.953410778194665909e-03,2.870295429602265358e-03,8.331261051353067160e-05,-4.428596014349750476e-07,-2.534558370825834572e-05,-2.304161534993909299e-05,-1.385786599712446332e-04,-4.911437034849086558e-09,-5.584786322287982330e-08,9.689903818070888519e-04,1.486253609073173720e-08,-3.476359822229824204e-08,2.173521806980716065e-08,-1.377704847982386127e-07,-3.486112691462039948e-04,-7.772869139444082975e-06,-1.110423841765850739e-08,6.997698545455932617e-02,6.441039033234119415e-03,-5.672644931564718718e-08,1.810859430406708270e-05,-3.717532948144253169e-09,-1.445251829323979109e-08,-6.904237181970529491e-08,-1.371938968077301979e-03,-3.721866050909738988e-07,-2.899784590226772707e-08,-8.676680736243724823e-04,5.235216704591039161e-10,-9.395993316729800426e-09,1.118842352099136406e-08,-5.063522839918732643e-04,-3.496387535051326267e-08,-5.704960948094139894e-09,6.592634349544823635e-08,8.526555757271125913e-05,-4.705674783167523856e-08,5.172688886523246765e-02,1.217299416822470448e-08,6.094266069567311206e-08,-4.118416458368301392e-03,1.038365926575579579e-08
5.181373907703346049e-08,5.285132331778186199e-08,3.863998898623322020e-08,-2.620069139425140747e-08,-3.936467862786230398e-08,-2.514109365137073837e-09,1.462251386641355566e-08,1.073282174246514842e-08,-7.287475511930097127e-09,1.912156122330088692e-08,-1.387594181778695202e-07,8.002317919419965619e-09,9.194211614271807775e-09,3.548817772980328300e-08,-1.836580310055069276e-08,-9.724761440565998782e-09,-6.990744338963850169e-08,-3.704504436541355972e-08,9.762251096390173188e-08,9.729711258898987580e-09,5.832847094211501826e-08,4.452296664680943650e-08,-2.994652348320414603e-08,8.453995548052262166e-08,3.169511764156140998e-09,5.890091259175278537e-08,-2.146284039383772324e-08,3.160313966077410441e-08,-1.016714357149339776e-08,3.049257557563578303e-08,4.705431422280526021e-08,-7.636670851240978664e-09,-3.080095289931250591e-09,-2.041228341909118171e-08,2.300048818071331880e-09,-1.660348658560906188e-08,-8.301397258492215769e-08,1.206912703111129304e-08,-2.898263318229510332e-08,-5.136228537594433874e-06,4.545513831999414833e-08,-8.073267387942451023e-09,-1.655359405106082704e-08,-5.115500201213762921e-08,-2.646955366003567178e-08,5.647114331708280588e-09,1.101417623772249499e-08,5.149528803372049879e-08,-1.036849806013151465e-08,-1.091260770635926747e-08,-2.470074589311366253e-09,-9.752901597437357850e-09,5.397609115220802778e-08,-7.679654601133734104e-08,-1.236979940699711733e-08,3.678271198737093073e-08,5.260131219486652299e-10,-6.132206920028693276e-08,-2.456318037857840864e-09,1.645522189619441633e-07,-1.211370026510394382e-08,4.641943274208415460e-09,7.426832127066518296e-08,5.789711376991135694e-09
4.109220519410428096e-09,-8.376342286453564157e-09,1.301407603904181087e-08,-5.067358976873492793e-09,7.478679009409461287e-09,-1.832368035081799462e-08,-1.211030298264859084e-08,-1.885545586333137180e-08,-3.016808802769332942e-09,-8.893004554977324005e-09,-1.404336535948402798e-09,-2.088995504356816468e-10,7.177881844455669125e-09,1.481849576379090649e-08,-5.648386647294501017e-09,1.383528047682602846e-08,2.144716049201633723e-08,1.264574756021374924e-08,-1.514312408801288257e-08,-4.299425260256839465e-09,-2.160362733150122949e-08,5.183855122936620319e-09,1.025084461758751786e-09,1.669388893787981942e-08,4.154604127393213275e-08,1.283132888829641161e-08,-1.187935882995816428e-08,-1.182304032454339904e-08,7.188353023934723751e-09,9.300467063155792857e-09,-9.454179661361195031e-09,-4.093321237519376155e-10,9.011712265305504843e-09,8.444430044107775757e-09,1.954199024822855790e-09,2.019447542522812000e-08,-2.727826853288206621e-09,1.485609235629681280e-08,1.434836832681085639e-10,-1.761032919489480264e-08,-5.768256094995649619e-09,-7.103688304255229014e-09,-1.692256290652949247e-08,1.701625329530997988e-08,1.324923548651213423e-08,2.716503288979765784e-08,1.263810833762590846e-08,8.080515812025623745e-09,-8.742613744061600300e-09,4.540556730603384494e-08,-2.523125530728975718e-08,-4.270856024390923267e-08,-4.589817415023844660e-09,1.960891538033138204e-08,3.992922881224103548e-09,-4.127468589132377019e-09,9.627634689479691588e-09,-8.133698159440427844e-09,-2.007186594710219651e-08,-2.031202051000491338e-08,-2.411376875954829302e-08,-5.268459890572785298e-09,2.446820523971382499e-08,1.890338197085839056e-08
-1.759524593580863439e-06,1.183426903139661590e-07,-3.133223458462452982e-07,2.468132333888206631e-05,3.490818301088438602e-07,-9.053890970278644090e-09,-1.349600964317687612e-08,1.071822808285105566e-07,-1.179185176169994520e-07,-2.612685712222173606e-08,-3.081203658439335413e-06,-2.118702155939899967e-07,9.780302434592158534e-08,-1.690506934437507880e-07,-3.904055034809061908e-08,4.137963216521711729e-08,6.369600100697425660e-07,8.548151527065783739e-06,3.627615541290651890e-08,-1.010057992800739157e-08,-5.031741238781251013e-06,-3.440343050442606909e-07,-6.117533193901181221e-04,1.892864815999928396e-06,2.546256610003183596e-07,-3.201193692348169861e-07,-6.815768216483775177e-08,-4.884575901087373495e-06,-2.128651601651654346e-07,-4.299630518289632164e-08,3.741877918628233601e-08,2.513346260002435884e-07,2.237835516893937893e-08,6.778981287425267510e-08,-7.300820215050407569e-08,-2.641567959926760523e-07,1.367421162967730197e-07,6.998995272233798914e-10,1.101630644484430377e-07,1.413924545049667358e-01,5.822660114063182846e-06,7.999141615755434032e-08,4.503602895056246780e-07,2.937092347110592527e-07,9.954656832178443437e-08,-1.299112710739791510e-07,2.494712703082768712e-07,-1.100071949622360989e-05,-2.316093761223214642e-09,2.008216739568524645e-07,-5.097841704326810941e-09,1.097777690972634446e-08,-1.148472321688132070e-07,-6.186176960909506306e-06,1.265285050067177508e-07,-1.684249610889310134e-07,-5.699890781585281729e-09,6.908725254106684588e-07,-8.569176657147181686e-08,1.050980761647224426e-03,1.282875672359296004e-07,-8.075083002268002019e-08,-1.348242443054914474e-02,3.224447153726828219e-09
-2.436794055427071726e-08,-4.712302725806694070e-08,1.136476015517473570e-07,-2.410984416201245040e-05,-7.038878635512446635e-08,6.312499323257725337e-08,-3.955893834728385627e-09,9.580251258967109607e-09,-3.579540830411787056e-10,-2.331771575825314358e-08,5.277253478652710328e-08,9.339153450582671212e-08,2.278881439110591600e-08,-5.219383680810096848e-08,2.442958724202526355e-08,2.132781418140439200e-08,1.490283949578952161e-07,-3.294028516620528535e-08,-7.903809162712605030e-09,-2.907513163563635317e-08,-9.386910448938579066e-08,4.857708191252640972e-08,1.341908955510007218e-06,-1.385085255378726288e-07,-6.089615567361761350e-08,1.133525273644409026e-07,1.626350076833205094e-08,-7.144656422042316990e-08,1.120759520745195914e-07,-8.513545424193580402e-11,-1.275839611736273582e-08,-7.608198160369283869e-08,3.090261913030190044e-08,-1.964369822360367834e-08,1.612170485998376535e-08,1.636236368618426695e-09,6.731690405104018282e-08,-3.157739902892586770e-10,-1.053120257665796089e-08,1.043846644461154938e-02,-7.681352087729464984e-08,5.261004520917822447e-09,-1.285710169440790196e-07,-1.227444528240084765e-07,-2.319631597913485166e-08,3.531172154680461972e-08,-9.305888681865326362e-08,-1.459202820797145250e-07,-1.210171962640060883e-08,7.905154575382766780e-08,2.220188299872916105e-08,2.841621160598606366e-09,1.810781036226671858e-08,1.925247232748006354e-07,3.105787982349283993e-08,2.079390348797005572e-08,-1.937866223045148217e-08,8.749388058504337096e-08,-3.178381335899871374e-09,-7.406400050967931747e-03,-1.421157769243563962e-08,-8.905511883483541169e-09,-1.200774590870423708e-07,-1.275511074538826506e-08
2.906043641269207001e-02,-7.943365432083737687e-08,2.982168458402156830e-02,-5.372399464249610901e-02,-3.004984557628631592e-02,-2.682737587633710064e-08,-2.121886666373029584e-08,-6.626392234920785995e-08,6.350949632860647398e-08,-1.054251885790336019e-08,1.295376103371381760e-03,9.427357465028762817e-03,-1.078896900708059547e-07,6.034857506165280938e-06,3.057911968085136323e-08,-5.609958719787755399e-08,-4.007785115391016006e-03,-7.098890841007232666e-02,5.436395804281346500e-05,5.926609425443984946e-09,4.649889841675758362e-02,-3.051546168530983039e-11,6.849326938390731812e-02,3.165835805702954531e-04,-4.337773658335208893e-03,2.115014940500259399e-02,1.938140834681689739e-03,6.989092379808425903e-02,6.898027844727039337e-03,-1.282987160955428863e-09,-1.117927652671824035e-07,-5.239569023251533508e-02,1.308369974140077829e-06,-5.441718187171318277e-08,6.827440302004106343e-08,3.936296794563531876e-03,-1.328078651567921042e-04,1.588815337072446709e-07,-5.201827946166304173e-08,2.848614007234573364e-03,-3.683856129646301270e-02,-1.106104647874417424e-07,-1.913204044103622437e-02,-4.391689071781001985e-05,3.102764480900077615e-07,6.377366190690736403e-08,-6.415549478333559819e-07,1.762933284044265747e-02,3.175402696342644049e-08,-7.321280427277088165e-04,-4.788418905832259043e-08,3.515357605010649422e-08,1.925428048707544804e-03,-3.675456391647458076e-04,-9.526799971126820310e-08,4.659290198105736636e-08,-7.550621794472078818e-10,-3.227606043219566345e-02,5.360714183666459576e-08,-1.974236667156219482e-01,-7.139465196814853698e-08,-1.077106190905396943e-07,2.660735696554183960e-02,-1.879344857513842726e-08
9.032919479068368673e-06,2.640545631038548891e-07,-1.450059130547742825e-07,-2.901977393776178360e-03,-1.274461919820168987e-05,1.636479964872705750e-07,2.923669661925032415e-08,2.231364817362191388e-07,-1.344636757494299673e-07,-6.339699609725357732e-08,-4.939040169119834900e-03,-1.673617759934131755e-07,2.364410107702497044e-07,3.857278716168366373e-05,-1.689138287019886775e-07,2.214485732565663056e-07,-6.443128222599625587e-05,2.552657178966910578e-07,1.169156504943202890e-08,7.847241079161904054e-09,2.385823165695910575e-07,-1.800842426291637821e-07,1.584834717505145818e-05,1.163173510576598346e-04,2.269963061962698703e-07,3.297630826182285091e-07,-2.337448847811174346e-07,3.072429080930305645e-06,-1.540714009706789511e-07,-8.899235126591520384e-09,1.919245988801776548e-07,9.010708623691243702e-08,1.939375096071671578e-07,1.086591865373520704e-07,-2.276488260122278007e-07,-1.395949453808498220e-07,-1.167766517028212547e-03,-2.193738453115656739e-07,2.572441815118509112e-07,-2.677005156874656677e-02,-5.696210791938938200e-06,2.312488618372299243e-07,1.834605569683844806e-07,2.394951366113673430e-07,2.703058044062345289e-07,-1.576003683112503495e-07,4.244138551712239860e-08,1.647363044321537018e-02,-1.457501008772510431e-09,-4.943920066580176353e-05,-4.329676894787581887e-10,-4.091845084985834546e-09,-1.592987075582641410e-07,-1.252372603630647063e-04,2.538666024065605598e-07,-2.570251353972707875e-07,-7.941855173498879594e-09,2.588154472960013663e-07,-2.765439433005667524e-08,-1.068143101292662323e-04,2.518828807751560817e-07,-2.683912327938742237e-07,3.220808878540992737e-02,-8.597773160090582678e-09
1.998795960389543325e-05,-4.264679986931696476e-08,-3.583801477802239788e-09,-4.772461485117673874e-03,-2.561236578912939876e-05,1.401654685651010368e-07,-3.770027845462209370e-08,1.108103120373016282e-07,1.268138589693990070e-07,-1.981612030022006365e-08,-7.112592470548406709e-07,5.508028380063478835e-07,9.469101769354892895e-08,2.621507064759498462e-07,-7.799201284797163680e-08,-6.441238298293683329e-08,-1.816719668568111956e-05,-9.581253834767267108e-05,-4.817609422502755478e-08,1.853527997752735246e-08,1.038232439896091819e-04,-7.760429099334942293e-08,4.205476958304643631e-03,6.843406936241080984e-06,-1.291289919436167111e-07,1.850743501563556492e-05,1.417922419477690710e-07,1.436195889255031943e-04,6.255118023545946926e-07,6.714416400654954487e-08,-3.049905927809959394e-08,-9.781402332009747624e-05,8.211550550640822621e-08,1.048129547598364297e-07,3.188750952176633291e-08,9.964134761730747414e-08,-7.119754172890679911e-06,-1.346165678928201714e-10,1.016672825926434598e-07,-1.739860884845256805e-02,-1.109870034269988537e-03,-2.879193061744445004e-08,3.432247375201313844e-09,1.448220245947595686e-07,-3.702321649257100944e-08,3.947369009438261855e-08,1.174581143459363375e-07,1.012369393720291555e-04,-3.972142614827589568e-09,-1.912192374220467173e-06,-2.332996296150469107e-10,-3.671030057716961892e-08,6.177687339459225768e-08,-8.427700777247082442e-06,-3.825865135809181083e-08,-2.897371409460447467e-08,-3.388251901270677990e-09,-8.338624320458620787e-05,1.432361074193977402e-08,-3.506819158792495728e-02,-4.013623922105580277e-08,5.239137124135595514e-08,1.187953166663646698e-02,3.755937072469350824e-08
1.072927879874896462e-08,-1.684789552314214234e-08,5.571176231455865491e-08,-5.772866629172312969e-08,-7.405197521848094766e-08,2.719175995480327401e-08,9.832476166593551170e-09,-1.568315433075895271e-08,2.750366157044936699e-08,7.251713896039291285e-09,3.212202415170395398e-08,-3.547810489834546388e-09,3.932992154176417898e-09,-2.526308229278129147e-08,3.939929715812695576e-09,-1.150881168143769173e-08,-1.152426136741269147e-07,-7.655226852421037620e-08,-2.915441399409246515e-08,1.568302110399599769e-08,3.735166842488979455e-08,1.225236179180910767e-08,7.790938383323009475e-08,7.725109441025779233e-08,4.421174537583283382e-08,-6.087800841214630054e-08,-7.932634993323972594e-09,2.369817053704537102e-08,-2.118254904814875772e-08,-3.022740457936379244e-08,1.073662314610146495e-08,2.319257319527423533e-08,-1.021205786599921339e-08,-3.605700626962971000e-08,-5.258989332901364833e-08,-1.099367796797423580e-08,-8.927219141696696170e-08,2.618404160159570893e-08,-1.298984386721713236e-08,-3.558207239962030144e-08,-2.225939965683210175e-08,2.731386450349759798e-09,-2.212751093466636121e-09,-2.322244618824242934e-08,-2.412710209398483130e-08,4.081313775827766221e-08,-2.638435425694751757e-08,7.961698145209084032e-08,1.636765389889660582e-08,4.082876614575070562e-08,1.538022709191011472e-09,-2.761628081771050347e-08,-6.629939264257700415e-08,-4.262665953547184472e-08,3.852050767250148056e-08,1.039801222901814981e-08,-1.435360896806514575e-08,-3.669677539619442541e-08,5.271200365086770034e-08,6.394174852175638080e-05,2.220931527574521169e-08,4.333406522505356406e-09,1.460287251120462315e-07,1.351791034664984181e-08
-1.814604688732401883e-09,-5.312185891170884133e-08,-2.895953699066922127e-09,-8.786393329501152039e-03,-1.218795553370455309e-08,1.095653345828395686e-08,-1.999488929982362606e-08,3.298383077776634309e-08,5.103687783503119135e-08,-3.230248735164309437e-09,-4.973948816768825054e-04,-5.159906280027826142e-09,-3.159446393397047359e-08,5.576318073963193456e-08,9.014880220092891250e-08,5.669067348890166613e-08,-1.513738516223384067e-05,-3.128573311528271006e-08,4.240541251476770412e-09,1.960958861957351473e-08,8.970333453817147529e-08,-6.079040559825443779e-08,2.397080243099480867e-05,7.422054186463356018e-04,-4.219796778670570347e-08,5.538344893807334302e-08,5.910599654157522309e-08,5.631142130368971266e-08,1.162330249826482031e-07,3.729278930109103385e-08,-8.327136669095125399e-08,-4.495745642429938016e-08,-3.435415152353016310e-08,-3.741964249570628454e-08,5.264326929932394705e-08,-8.400712125933296193e-09,-3.528218803694471717e-05,1.157357942815906426e-08,-2.616132199761977972e-08,-2.289991639554500580e-02,-1.166325915846755379e-07,-6.517004180750518572e-08,2.349242933519235521e-08,-3.150205074575751496e-08,4.428754252217004250e-09,2.727083092679549736e-08,3.521929059502326709e-08,3.483606036752462387e-03,-2.530656573185297020e-09,-3.156261918491054530e-09,3.517878255365758378e-08,-5.716887407913873176e-09,5.432750782574657933e-08,-9.094208944588899612e-04,1.057168041995737440e-08,-8.373918802817570395e-08,-1.733632570832810416e-09,-1.165323126883777149e-07,1.859909382062596706e-08,-6.776095688110217452e-06,2.017428002432097855e-08,6.204072633408941329e-08,8.447794243693351746e-03,1.822763984193898068e-08
4.778185102622956038e-04,1.628235679618228460e-07,-8.062896483806980541e-08,-2.881045825779438019e-02,-9.377668419574547443e-08,-1.213975853175952579e-08,-4.289649524480410037e-08,1.233062647543192725e-07,-8.086460212552992743e-08,4.697649558238481404e-08,1.292151773668592796e-05,-6.203019609074544860e-08,1.250625416560069425e-07,-1.075899760394349869e-07,-1.679650125652187853e-07,-2.345470662135085149e-08,5.629449333355296403e-06,1.312888144866519724e-07,1.320269049642774917e-08,-2.838002721716748056e-09,6.379947080858983099e-06,-1.523516459656093502e-07,-9.013975068228319287e-05,8.463332051178440452e-06,8.282789565328130266e-08,-7.943616253669461003e-08,-2.706648238870457135e-08,1.322836851613828912e-05,-7.107428245944902301e-08,-2.166527934832629398e-08,4.177880441602610517e-08,-1.894718764106073650e-07,-4.762341987429863366e-08,7.231352583403349854e-08,-1.188732738910402986e-07,-1.113050629442113859e-07,6.299086408034781925e-08,1.811384109373648243e-08,1.215716878277817159e-07,1.089206151664257050e-02,1.621972114662639797e-05,6.273224073538585799e-08,1.244195715344176278e-07,1.138185226068344491e-07,1.175960875343662337e-07,-9.096422814991456107e-08,1.522243024965064251e-07,1.095844800147460774e-05,2.668886267542802671e-08,-3.448676216066814959e-05,6.651951878211548319e-09,8.385723226922436879e-09,-6.507856653570343042e-08,-1.206879824167117476e-05,1.390039301440992858e-07,-1.705175236565992236e-07,-7.991416595132250222e-08,1.037525549918427714e-07,-4.090275140811172605e-08,-1.119975671172142029e-01,1.523609114428836619e-07,-1.079191918051947141e-07,-3.966437187045812607e-03,-4.219170079977629939e-08
2.015173805602898938e-07,6.042091627023182809e-08,7.597352968957693520e-09,-4.480382926885795314e-07,-2.006014199196215486e-07,6.073856972932389908e-09,-4.605219761089074382e-09,2.252895647814057156e-09,5.614877096604686812e-08,1.169673780054836243e-08,1.858740605875652818e-09,9.456964278342638863e-08,-3.070462284426866972e-08,-2.118120789873501053e-08,-2.438622459521866404e-08,-8.590777866857024492e-09,-1.774335629534107284e-07,-1.658045931662854855e-07,3.000570458766560478e-08,-5.212335008053514684e-09,1.561078448730768287e-07,-5.778381506615914986e-08,2.695902594496146776e-07,1.336819934749655658e-07,-1.838626815242605517e-07,1.653914267762957024e-07,1.241228488879642100e-07,1.848274138183114701e-07,2.862584169704973647e-09,5.387139179191535732e-09,4.368369843632535776e-08,-9.790677069076991756e-08,-1.421584983063439722e-08,-7.586519856772611092e-09,-7.687257408406367176e-08,1.676306027320606518e-07,-8.790158290139515884e-08,-1.291877360642956774e-08,-1.822301953779970063e-08,1.426833868026733398e-02,-9.168609871323951666e-09,-1.801167925918889523e-08,-8.156164454931058572e-08,-9.516345933491265896e-09,4.893432858921187290e-08,-1.072374455901581314e-08,-1.485086542629687756e-08,3.136262023417657474e-07,1.735856791640344454e-08,-1.043845188064551621e-07,-2.787848396579306609e-09,5.644534173399051724e-09,1.446929474013813888e-07,-1.224565551183331991e-07,4.832198285953381856e-08,-4.542597054069119622e-08,-1.549880579432283412e-08,-1.674361271852831123e-07,-1.999999055257717373e-09,3.526846285240026191e-06,5.646493939082120050e-09,2.139548094248766574e-08,7.612231456732843071e-06,8.435574905263365508e-09
1.276896455237874761e-08,7.969598669888000586e-08,-7.342602259541308740e-08,-1.191184662019395546e-08,1.348445000104447900e-08,1.906420976638401044e-08,-7.492514164653130138e-09,-2.119052844307134364e-08,-4.156409616484779690e-08,1.561881823874955444e-08,2.108789765031815477e-08,-3.195198416960920440e-08,-6.951689446310638232e-09,2.278177291259453341e-08,1.352789968933620912e-08,1.757621603815096023e-08,6.065400626198425016e-09,-7.642000099394863355e-08,-2.827165168639567128e-08,1.791545756191226246e-08,6.189428347624925664e-08,-7.814598412814177664e-10,5.438811356839323707e-08,-6.366560683090938255e-07,-5.015102289007700165e-08,-6.801165408631959508e-09,2.082501566746941535e-07,4.680044440874553402e-08,5.367267075229165130e-09,-5.063860797349661880e-08,4.069916670346174215e-08,5.869467134544947839e-09,3.411921412066476478e-08,2.620980943390804896e-08,-2.836685375484648830e-08,-2.715403901731860969e-08,4.079900506326339382e-08,7.709247462628354697e-09,6.339195834925703821e-08,1.804322376847267151e-02,-1.163335596743308997e-07,1.976440877626828296e-08,3.761618572184488585e-08,2.572759782992761757e-08,2.366534346265325439e-08,4.512231654985043861e-08,1.070499777711120259e-07,2.594036097036678257e-09,4.355172222858527675e-08,9.709492765352933930e-09,-1.977625174731656443e-08,2.273378285622129624e-08,-9.922571209131092473e-09,2.472284776899869030e-08,5.090799248819166678e-08,-2.982334379453277506e-08,1.413577344067107333e-08,-1.087720988834917080e-07,-2.572429202984949370e-08,3.656777334981597960e-05,1.476431243929710035e-08,-2.867809989481884259e-08,7.090365272688359255e-08,-1.861010545667340921e-08
-2.676429566861315834e-08,-5.389365842489723946e-09,1.790155401693027670e-08,1.754261980124738329e-08,-2.073160310089861014e-08,1.400617510860513448e-09,-2.982937896689463741e-09,-4.200749526006575252e-09,-6.658173568041547696e-09,1.564778173701597552e-08,-3.348650778889350477e-08,-2.267030341229769874e-09,1.880180899860306454e-09,-4.156567534607802372e-09,-6.555374576500128114e-10,1.709067731781033217e-08,1.786194303576849052e-08,-4.728641922469023484e-09,1.485424316882699713e-08,9.561774483302087901e-09,-1.042128250361429309e-08,-1.344489075627564034e-09,-1.071762678606091868e-08,-3.316375796202919446e-08,-1.998685661419585813e-09,-1.188626885806343125e-08,-1.908959390561904002e-08,3.728715469719645625e-08,-8.215797819843828620e-09,3.073522947261153604e-08,4.734056202604364216e-11,-1.755698164629393432e-08,4.791073759946584687e-09,-7.330675177996681668e-09,3.963586436839250382e-08,-5.998485264058217581e-09,-7.129550727569267110e-09,-2.773112051102089026e-08,2.373518626086479344e-08,-9.922909782744682161e-08,6.360728388443703807e-09,1.612998978828272811e-08,-2.515067087927036482e-08,-3.477872878576704352e-09,-1.265417015616776553e-08,-1.436420227207690914e-08,4.258568608861423854e-09,-1.072970690074726008e-08,-4.273384757169651493e-09,-2.526554254700386082e-08,-1.514831926563431352e-09,-1.417809247783452520e-08,-1.059607956932495654e-09,1.500893964667682212e-09,-6.000607122302881180e-09,1.500995772119040339e-08,-8.990118871565755398e-09,1.849778286100445257e-08,8.623444736066687710e-10,1.023767097763084166e-07,1.996981247032181273e-08,-2.162617640522057627e-08,9.920071164515320561e-08,-1.251238135324683753e-08
-9.642868725734388136e-09,-2.647195174176886212e-08,5.493471277873140934e-08,-4.286639310180362372e-08,-1.926131609764070163e-08,-4.265809749881555035e-08,-2.503583118595997803e-08,9.561440528216280654e-09,-8.087165603853918583e-09,-3.760495204119251866e-08,5.743699560412096616e-08,9.412493540139621473e-08,-1.814151673329433834e-08,-4.684885013261919084e-08,-6.580905420605631662e-08,3.344474208688552608e-08,-6.457275958382524550e-08,-2.325069736741625093e-08,-9.401559708521745051e-08,-1.878469113592018402e-08,6.896996040950398310e-08,-4.493012184525468911e-08,1.397791464796682703e-07,4.060833092012217094e-08,-1.662579478534098598e-07,6.315189438055313076e-08,1.701052241287470679e-07,2.909931140493426938e-08,1.722411013815872138e-07,3.449925856102709076e-08,-5.388465496025673929e-08,-8.830741649035189766e-08,-7.057322193304571556e-08,-4.244110840545545216e-08,4.684886789618758485e-08,3.866562625631786432e-09,2.471147730886968930e-08,1.134984870532207424e-07,-2.770267748530841345e-08,8.786563575267791748e-02,-1.325986715983162867e-07,-1.846314923170666589e-08,-6.235514149466325762e-08,9.835752656783824932e-09,-2.150906475151259656e-08,-1.931528181842168124e-08,8.493449143998077489e-08,2.398169307582520560e-08,6.394731411063503401e-09,3.212150545550684910e-08,2.170222401787214039e-08,9.811583545626945124e-09,3.693499195378535660e-08,-4.417063692585543322e-08,-3.149868632590369089e-08,-3.840598239435166761e-08,1.105164959547266790e-09,-9.493577834973621066e-08,-5.497556543332393630e-08,-6.293398886919021606e-02,-4.851239410186281020e-08,4.304018919043528513e-09,-1.241970458067953587e-03,1.962872353544753423e-08
-1.703282634935021633e-07,1.649456127239545822e-09,-4.358004090931899555e-08,9.712190518484931090e-08,5.906381161935314594e-08,3.469144260748180386e-08,-9.461448513548020856e-09,-6.128292540097390884e-08,-1.015640815893448234e-08,-6.356179138577999765e-09,-1.684138908331078710e-07,-7.725293471594341099e-08,1.838075469606792467e-09,-2.024749079510002048e-07,7.996383999397949083e-09,-2.060409265425278136e-08,1.466973564845375222e-08,1.479959337302716449e-07,3.052356145616386129e-09,1.406182548180368030e-08,-1.515058585255246726e-07,2.639038099161439277e-09,3.306360838450927986e-07,-1.962006876965460833e-07,-4.265205433284791070e-08,-6.146357378611355671e-08,5.200590180720610078e-08,-1.358195618195168208e-07,8.147670316205335439e-10,-4.989747726114046600e-09,2.292354928101758560e-08,1.225705403840038343e-07,-1.002937892735644709e-07,-1.900047941205684765e-08,-8.810586704655065660e-10,-1.448099169465422165e-07,9.510579701554888743e-08,1.107018121615510609e-07,1.045843323055350993e-08,4.128461331129074097e-02,-1.358227663672550989e-08,1.968520102479942580e-08,3.639357615270455426e-08,1.468339121402095770e-07,-4.639884920720760419e-09,2.341659666171835852e-08,1.995381353481207043e-07,-9.375250442644755822e-08,1.202188926185954188e-08,1.962203981520360685e-07,-8.194221301494053478e-09,4.500425987430389796e-08,5.477035269763064207e-09,2.009048785112099722e-07,1.154427842209315713e-08,-8.507576865213195561e-10,-6.783048345226916354e-09,1.457457443621024140e-07,-6.953384001917584101e-08,-1.450719684362411499e-02,4.556928345778032963e-08,-1.425913076502638432e-08,1.920576760312542319e-04,-2.375220020667256904e-09
-3.479771476122550666e-05,2.872528703790067084e-08,-1.476342731621116400e-06,-1.978245750069618225e-02,4.312319958899024641e-07,4.381830009947407234e-08,2.616990535386776173e-08,4.170050260654534213e-08,-2.142273025640406559e-08,-6.515643491411537980e-08,-2.922369865700602531e-03,-4.363710814914156799e-08,4.596306002468963925e-09,-5.568558592017325282e-08,7.027824722172226757e-08,6.977790434348207782e-08,5.952242787543582381e-08,2.069914160074404208e-07,4.578520673703678767e-08,-2.981737168283871142e-08,-8.579714290135598276e-07,-5.205631481430827989e-08,-1.569961314089596272e-04,5.254231020808219910e-02,3.538398800628783647e-07,-2.946794381841755239e-07,-1.082209699632130651e-08,-7.538218142144614831e-06,-3.208181098557361111e-08,2.556337364012506441e-09,3.568928619301914296e-08,1.039158860294264741e-06,5.419406079454347491e-08,4.870694070291392563e-08,1.535896387849788880e-08,-8.526401416020235047e-07,-2.520454348996281624e-03,-6.177017297659403994e-08,3.405520843102749495e-08,1.551915407180786133e-01,-8.149700647663848940e-08,-8.575855581227642688e-09,1.186381950901704840e-06,3.624262490120599978e-08,3.839278406303492375e-08,-2.196246562391479529e-08,2.164074963673101593e-08,-4.683902443503029644e-05,1.346393774248610953e-09,-6.218795897439122200e-05,6.891448300905267388e-09,-1.768271395974352345e-08,-5.618813858632165648e-09,-5.982034653425216675e-02,-3.739340836972360194e-09,-3.670917436693343916e-08,6.831915477789607394e-09,6.460595045609807130e-07,1.961820572660144535e-08,4.267305880784988403e-02,4.721094271076253790e-08,-1.385173220569413388e-08,3.752415627241134644e-02,2.020402289915068650e-09
9.093410469063201162e-09,5.663151281254386049e-09,2.962125433825235632e-09,2.783995789457094361e-08,-1.391520321192274423e-08,1.734465726599410118e-08,5.360675903176570500e-09,1.144618799742147530e-08,1.230303858790193772e-08,-5.648622014575721551e-09,7.439303573164579575e-08,-1.784911773938802071e-08,3.737561726779858873e-08,1.709144648032179248e-08,2.033534585166307807e-08,1.461331833318979534e-09,-2.029781454027101972e-09,3.912135682071493648e-08,-2.175403146509324870e-08,1.928614068447132013e-08,-1.408968053340231563e-08,1.428388629598487114e-09,8.190925271378546313e-09,-9.310045179233839008e-09,1.912532177072989725e-08,-1.479358591183199678e-08,-5.298310679080486807e-09,3.621189348379516559e-09,1.191320264659623263e-09,-2.452604563885074640e-09,2.047586455944383488e-08,-1.620609424435315304e-08,-1.465189747307249490e-08,6.720661804848759857e-09,-2.953957300988463430e-09,3.036892692875881039e-08,1.742714061947481241e-08,-8.864194711577511043e-09,-2.648390839965486521e-08,-5.766544575180887477e-08,2.414098254632790486e-08,2.661220754873738770e-08,9.583923876732569624e-09,-2.720597080951847602e-09,-1.673717164862864593e-08,-1.757574197291944529e-09,4.689103327848442859e-09,-2.239340091136909905e-08,-1.433439411613335324e-08,-7.524279865833705117e-09,-4.465366387762514933e-08,-4.375004802881221622e-10,-1.618196354691292527e-09,1.711082298072597041e-08,1.220560186254715518e-08,3.914384372194490425e-09,-3.105417434312585101e-08,1.581385156157466554e-08,2.631444395717608131e-09,-2.857834191516417377e-09,-1.854274778168019111e-08,3.042801921537829912e-08,-4.613367465822193481e-08,3.752293142866847120e-09
-1.458230656226078281e-07,2.867744086643142509e-08,4.318727420127288497e-08,-1.058349062077468261e-05,1.577287633836021996e-07,6.035590871533713653e-08,-1.098674484723005662e-08,4.982318912993832782e-08,-1.862269449759423878e-08,-6.011102726688477560e-09,-1.338647876991672092e-07,-4.558251021080650389e-08,2.408943444720534899e-08,-8.494080105947432457e-08,5.808133352047661901e-08,-1.222192036465230558e-08,-5.963424865029764987e-09,1.077044089470291510e-07,-1.347294009690358507e-08,-1.382271808125778989e-08,-1.262093860532331746e-07,-3.380047175483014144e-08,6.691174121442600153e-07,2.680563504497968097e-08,7.867727447319339262e-08,-4.048806179213215728e-09,-2.885867900204175385e-08,-1.740854713716544211e-07,1.544213645843228733e-08,1.981208086476726749e-08,-4.245375162525988344e-09,1.247664442871609936e-07,7.912018418210209347e-08,2.477367999631496787e-08,1.984964548285006458e-08,-1.535577922595621203e-07,-1.108496689994353801e-07,1.180521991273053573e-08,5.672104208542805281e-08,-4.366319990367628634e-05,-3.256620928482334421e-08,-5.147463610910563148e-08,-5.118109314139474009e-08,2.826598866079166328e-08,4.084690630179466098e-08,2.114096098182471906e-08,5.742901620919838024e-08,2.392273245277465321e-06,-1.494115942080043169e-08,5.987557472053595120e-08,-2.471991678021367989e-08,-1.305682495456039760e-08,1.297547935763532223e-08,3.252817792898099469e-09,-3.039921736558426346e-08,-3.550737659452352091e-08,-2.133061643982969713e-10,1.283077750713346177e-07,1.635187274473537400e-08,-7.961155461089219898e-06,7.735033946687508433e-09,-3.028207729016685334e-08,9.512810720480047166e-06,-4.993493174509922028e-09
3.815772710368037224e-03,-8.214746485464274883e-04,2.834849688326812611e-08,-6.470877677202224731e-02,-2.334004238946363330e-04,-1.056671461441283100e-08,5.983521234043109871e-09,2.822330991136823286e-08,4.134047685511177406e-06,1.203251542847283417e-07,2.333808690309524536e-02,3.916713467333465815e-06,-1.963268441613763571e-04,1.075135514838621020e-05,1.047968822831535363e-08,3.635839718185707170e-08,-2.157470025122165680e-02,1.024621422402560711e-03,-8.408626683831244009e-08,-1.151607786908925846e-08,5.730925127863883972e-03,1.522477577964309603e-05,-2.267184667289257050e-03,2.927414327859878540e-02,-7.752840502917024423e-08,6.966841965549974702e-07,2.419917244367297826e-08,3.835718613117933273e-03,-5.927206281342023431e-09,-3.693413219707508688e-08,-2.454902592319285759e-08,2.847685944288969040e-03,-1.042951147667281475e-08,5.509114053836583480e-09,6.823912553954869509e-05,2.066468354314565659e-03,8.524000644683837891e-03,-2.703992585395553760e-09,-1.909996266476809978e-03,-1.024050265550613403e-01,2.155508100986480713e-02,-1.941768714459612966e-04,2.754688144257499971e-10,2.401452903200151923e-08,-3.623650409281253815e-04,-9.668758238490227086e-09,1.698487030807882547e-04,6.857382506132125854e-02,5.682728065892206359e-09,-1.906903162307571620e-05,2.250313491103383967e-09,1.440312047407132923e-08,5.908245293539948761e-05,-2.302464656531810760e-02,-1.708937197690829635e-04,4.724570084363222122e-03,-1.289429096829053378e-08,-1.078357308870181441e-05,2.534618251956999302e-04,6.218960881233215332e-02,-2.398674609139561653e-03,4.034226876683533192e-04,1.961015760898590088e-01,-1.529253346177483763e-08
1.450896007781921071e-07,-3.747345544979907572e-08,2.551058564392860717e-08,2.131999353878200054e-04,1.286276898326832452e-07,-8.618681590633059386e-08,4.852479307260182395e-08,-8.889776026421714050e-09,-2.831591672247668612e-08,5.175989770123123890e-08,1.598578674020245671e-04,3.838525586274954549e-08,-2.700511814168748970e-08,1.534704985317603132e-08,6.669965557648538379e-08,-6.332793400787295468e-09,1.878948907574340410e-08,-1.421317574568092823e-05,1.154640028033782073e-08,1.881095101907703793e-08,-6.492792437029493158e-08,-9.155138513960991986e-08,-2.825549163389950991e-04,-1.035073680100140336e-07,-5.396018920578171674e-08,-3.786704994013234682e-08,4.625220739740143472e-08,5.836805030412506312e-06,5.573583905515988590e-08,-2.837190038462722441e-09,-3.106035251221328508e-08,-1.282432160465418747e-09,-3.613124022194824647e-08,-8.094291459315172688e-09,3.601931197749763669e-08,-1.098261961374191742e-07,1.315858244197443128e-04,-1.245715086639620495e-08,-3.473021337185855373e-08,2.470888830430340022e-06,-5.823609683375252644e-08,-9.110526555389242276e-09,-9.234494280363492180e-10,-1.023916151865478241e-08,-5.154383231342762883e-08,-2.394702747210430971e-08,5.683699910719042236e-08,-6.127415872470010072e-06,-8.520230743158663245e-09,1.416730412984179566e-07,3.252212366078310879e-08,-1.688520967491058400e-08,4.582415158438379876e-08,1.246487081516534090e-04,-6.595561075073419488e-08,-3.436099760278921167e-08,1.058351539739987857e-08,7.144686975379954674e-08,-5.275530057247124205e-08,8.798551789368502796e-06,-6.299050170355258160e-08,1.198747501263142112e-08,-2.583241439424455166e-04,7.446211203188113359e-09
5.195768792987109919e-08,-4.095076278076703602e-08,-3.410297821915264649e-08,-1.096141222234336965e-08,-2.494851436551925872e-08,1.098733637405757690e-08,-3.881123866733560135e-09,2.542181931630693725e-08,-7.147827885134461212e-10,-8.853263011587841902e-09,-8.357334024822193896e-08,-5.200471164812370262e-08,-6.994382317770941881e-08,-2.482771677136952349e-08,5.283451898208113562e-09,-9.854694837940769503e-09,5.156568505526593071e-09,-7.475426855307887308e-08,-6.838158128630311694e-08,6.879720348962337084e-09,-1.294442775190418615e-08,2.845116320315810299e-08,1.439804542258116271e-08,-4.874118531006388366e-08,-2.076356420133151914e-09,1.168263374928812937e-09,-6.898629667517752750e-09,6.915262673601318966e-08,-6.116439976722176652e-08,9.428126723776131257e-09,2.084195216411899310e-08,3.487683741809632920e-08,-7.609938457164844294e-09,-1.368522273281769230e-08,8.595009148848475888e-08,4.017203991679707542e-08,2.080224170697420050e-08,2.110615682227034995e-09,-1.601104671067332674e-08,-9.716816748550627381e-06,-6.209730685213799006e-08,-6.438528998842230067e-08,-5.763863830665627574e-10,-2.006187926895108831e-08,-3.940200699048546085e-08,-1.143507422085576763e-08,3.728914776957026334e-08,-8.799955253380176146e-08,-1.125486104314177283e-08,7.887887676361060585e-09,1.581726394306315342e-08,4.120505536775453947e-08,4.462729208398741321e-08,4.544596521327548544e-08,-5.366039701470981527e-08,2.450023117717137211e-08,-1.152200646004075679e-08,2.833889567455116776e-08,4.352285287723134388e-08,-2.295817580488801468e-08,-3.819384986059048970e-08,5.496937660609546583e-08,9.227235864273097832e-08,-2.062095560972920794e-08
-2.090768888592720032e-03,-3.784566745162010193e-02,-7.413357252517016605e-06,-3.317983075976371765e-02,-1.307216472923755646e-02,-1.902952107002420234e-07,-1.339427679880600408e-08,-4.963229457644047216e-06,-4.016733168299424506e-09,1.453197188675403595e-02,1.140720769762992859e-02,3.116962907370179892e-04,-6.490179337561130524e-03,-3.252116031944751740e-03,-1.154445840256812517e-06,-1.003628131002187729e-03,-8.722975850105285645e-03,-7.489908486604690552e-03,-2.218269929289817810e-02,-1.807172189671746310e-08,1.453198399394750595e-02,7.213586741272592917e-06,1.208567544817924500e-01,-4.731929302215576172e-02,-4.209783300757408142e-02,2.541669271886348724e-02,7.994969375431537628e-03,5.579555034637451172e-02,1.725358561088796705e-05,-5.340027087186172139e-08,-2.460542418702971190e-07,-3.738117218017578125e-02,-1.942172639246564358e-05,1.611598394811153412e-02,9.925173571900813840e-07,2.527585811913013458e-02,4.968130588531494141e-02,7.979220710694789886e-03,-3.254653513431549072e-02,-2.020611464977264404e-01,-1.035817191004753113e-01,-1.287027145735919476e-03,-5.210666917264461517e-03,-1.344966585747897625e-04,-2.910565957427024841e-02,9.921288892655866221e-07,3.040261380374431610e-02,1.002858765423297882e-02,-4.125880437300111225e-08,-8.893373433238593861e-07,-4.606075520996455452e-08,7.061888851467301720e-09,1.624593138694763184e-02,7.081060111522674561e-02,-9.803155762710957788e-07,4.675156623125076294e-02,6.526807538875800674e-08,-1.833849586546421051e-02,3.613097965717315674e-02,-1.233645230531692505e-01,-3.312287107110023499e-02,2.224195748567581177e-02,7.855027168989181519e-02,-4.167571532320835104e-08
3.028752644240739755e-06,-7.653962086351384642e-08,-4.223728589103359354e-10,-3.541293367743492126e-02,-1.809661540619345033e-07,-5.198731045652493776e-08,-3.065158082904417824e-08,-4.479530346657156770e-08,5.918918688507801562e-08,-6.220054871164393262e-08,1.081152376514182833e-07,5.083138887584937038e-08,-1.701430818457083660e-08,-7.783117439430498052e-08,4.886802962289493735e-09,8.664346573539205565e-09,-1.971466408576816320e-04,-3.958209049415017944e-08,1.032933738542851643e-08,-1.691523898728064523e-08,8.080358384177088737e-06,7.152277703426079825e-08,3.220801474526524544e-03,5.938361282460391521e-04,-1.189411946711516066e-08,6.967152899051143322e-08,-5.670854452688445235e-09,1.588791637914255261e-04,1.700790797087847750e-08,6.936033258853058214e-08,-5.116496670787284984e-10,-4.899996408624929245e-09,-4.796240915538874106e-08,-1.048409714599074505e-08,1.350330602889471265e-08,3.329749986846763932e-08,1.512226646127601271e-07,1.330290633205777340e-08,-8.238558990569799789e-08,-1.928175799548625946e-02,-1.296435669928541756e-08,-1.846813257877499836e-09,1.207229649580199293e-09,-3.153125049948357628e-08,8.227498127233445757e-10,-4.783141105413335481e-10,3.658268354911342612e-08,8.880391716957092285e-03,3.795471670287042798e-08,4.274747666954681335e-08,1.330660559517582442e-08,6.074259761845723915e-09,6.319388745623655268e-08,6.988796030782395974e-08,-2.623876582674711244e-08,5.549910753188669332e-08,-1.762338719402123388e-08,-3.872736442644963972e-08,1.019055204665164638e-07,-3.358779847621917725e-02,-6.636386018499251804e-08,7.082817177206379711e-08,2.711407281458377838e-02,-5.827265336932896389e-09
2.109379337866812421e-09,-3.380163093869015256e-10,-6.175502331728921490e-09,3.886734489810805826e-09,9.102538278682459350e-09,-1.839763008604222705e-08,9.285394675373481732e-09,1.984957087586280977e-08,6.270782115791462275e-09,-1.273032523840811336e-08,3.379430069117006497e-08,2.919407826595943334e-09,-1.848729880293831229e-08,1.320256015624465817e-09,-2.973312152043661172e-10,-1.493282653086680511e-08,-3.168921791640855190e-09,1.492369250399860903e-08,1.079849987206671358e-09,-5.593812080206816972e-09,1.648477088167510374e-08,-1.633305757309244655e-08,1.906136226637045183e-08,1.285376516335645647e-08,7.356449227557959603e-09,1.330552468203904937e-08,9.100754039259584260e-10,-7.626068110333505956e-10,-1.607457811303447670e-08,-1.049011544296263310e-08,2.212726446515489442e-09,7.213385888604761931e-09,1.501302371309520822e-08,-4.606762971093303349e-09,-2.662189357849342741e-09,5.081939313811290049e-09,1.357955081715545020e-08,3.435948858765414116e-09,-1.200876553753005282e-08,-3.631483380672761996e-08,6.158155940738652134e-08,-1.452856945860503401e-08,9.787420873763608142e-10,-1.425277562638882500e-09,-3.754527710952970665e-08,1.511773106699365599e-08,-3.840238793628714120e-09,2.945433053014312463e-08,-1.844259323036112619e-08,-2.175544189242373250e-08,6.593424473066988867e-09,4.823674615295203694e-08,9.199989214891957090e-09,3.896152023230570194e-08,-5.103734324052311422e-09,1.090376411383431332e-08,1.680390759872807394e-08,2.007052302133160993e-08,7.289885584071953417e-09,3.963960892860995955e-08,-4.983503831823554719e-09,-2.607919569186378794e-08,3.695881645171539276e-08,-5.760191879033982332e-09
-2.841720730066299438e-02,9.890541718959866557e-08,-2.952785044908523560e-02,1.050274893641471863e-01,2.363549720030277967e-05,-2.064326842798891448e-08,6.000357188895577565e-08,1.094089085995619826e-08,-4.889267074759118259e-06,2.591013625874438731e-09,3.896451089531183243e-03,-6.889875407978252042e-07,-1.290498552464214299e-08,-8.475315407849848270e-04,-1.538417819801907171e-07,-7.269899651873856783e-05,3.698096796870231628e-02,4.320645821280777454e-04,-2.833484904840588570e-05,2.332937931726064562e-08,-2.127710729837417603e-02,-1.341701572528108954e-04,-7.271012663841247559e-02,-1.950558833777904510e-02,-1.256844407180324197e-04,-7.430934147123480216e-06,6.846706965006887913e-04,-1.030389126390218735e-02,-3.070138347993633943e-07,-5.634359201422967089e-09,-2.460354764366456948e-08,2.816974744200706482e-02,-1.198085956275463104e-04,2.357940502406563610e-05,2.945954058475308557e-08,-1.060910472006071359e-05,3.749994561076164246e-03,1.724105823086574674e-04,3.847046414762189670e-08,3.681189119815826416e-01,2.994337864220142365e-02,-3.560271943570114672e-05,3.294185921549797058e-02,3.228098285035230219e-05,-9.069626685231924057e-05,-6.884361880565847969e-08,8.076198864728212357e-04,-1.087599843740463257e-01,-2.501176155078610464e-08,4.673024523071944714e-04,1.558732165563014860e-08,9.920741561586510215e-09,-1.265084392798598856e-07,4.630282148718833923e-02,-1.321117437669272476e-08,1.915482243930455297e-05,2.254985531635611551e-08,3.554100869223475456e-03,3.132917117909528315e-05,-5.337355285882949829e-02,8.302742315891009639e-08,-6.829978360656241421e-08,-8.337107300758361816e-02,1.402549543172426638e-08
-2.929160132225661073e-07,8.464655643081187009e-09,-5.158105409464042168e-07,3.774599870666861534e-03,3.217807886812806828e-07,2.985067837357746612e-08,-7.364332255122008064e-09,5.119411561338438332e-09,6.579512756843541865e-08,4.967228761643127655e-08,2.106292917858354485e-08,7.701486559597015003e-09,5.823133264470925496e-08,9.363118635974387871e-08,-5.033694350231598946e-08,6.509275607413655962e-08,-8.342939139538430027e-08,6.934155294402444270e-08,6.108916750235948712e-08,2.933225884405032957e-09,-4.616476587671058951e-07,1.831729434798035072e-08,-5.556866526603698730e-03,5.785451503470540047e-05,-3.472280241112457588e-08,-3.880750227835960686e-07,4.791816721194663842e-08,-6.310806838882854208e-06,-5.021574711605580887e-09,1.658515458302645129e-08,6.136021113434253493e-08,7.772032404318451881e-05,4.226619054747970949e-08,-7.205839125390411937e-08,-3.638854906284905155e-08,6.342589387031694059e-08,-1.291918465540220495e-07,-4.354888005764223635e-08,1.693899953636446298e-08,7.457844447344541550e-03,1.917952467920258641e-04,4.609643866615442676e-08,-5.026209848324469931e-08,-9.310410220564335759e-09,-3.366010803418362229e-09,-1.442958819097839296e-08,-1.982439457037799002e-08,-4.498962425714125857e-06,1.338236099712730720e-08,-8.189085320964295533e-08,-1.995420717548768152e-08,1.211841560433413179e-08,4.606217984814975352e-08,-2.071341071996357641e-07,4.312486368007739657e-08,-4.259057106992258923e-08,6.138276109624030141e-09,5.721543416825625172e-08,2.404289389801306243e-08,1.320104696787893772e-03,6.133265628704975825e-08,-6.006941077885130653e-08,-1.014499738812446594e-02,8.039299892459439434e-09
3.537361337180300325e-08,-3.775253176740989147e-08,7.771512322563012276e-09,1.143461059172068417e-08,-2.295944945274186466e-08,7.948074198793619871e-09,-3.338950094189385709e-08,-1.424071172095864313e-08,8.213297403303343458e-11,-7.642340094093924563e-09,-6.514521544431772782e-08,6.707894795177082869e-10,-8.663552364396309713e-08,-5.019476034817671461e-08,1.026909490775551603e-08,-1.553341633098170860e-08,-1.997171850121048919e-08,3.767013367905747145e-08,-2.068900251117611333e-08,-1.662387449918867333e-09,6.653723794158850069e-09,-3.114321467378999841e-09,-8.235570003733982958e-10,-2.140265209504832455e-08,-3.281554805667497021e-09,-1.561734963573258028e-09,1.466066379407493514e-08,-1.621686451791504169e-09,-3.049225583140469098e-08,2.141144861411703459e-08,2.167277912690224184e-08,3.296079853498667944e-08,3.249619595635522273e-08,-4.077411741576497661e-09,2.977800939163444127e-08,2.799863096925037098e-08,3.915657842412656464e-08,4.282791010723485670e-09,-9.685805046899531590e-09,-6.028333700669463724e-06,1.135440363952966436e-08,-2.725008485526814184e-08,-1.950789751958836860e-08,6.619151893261232544e-09,-3.241671819864677673e-08,2.086453010363698013e-09,6.864360102554201148e-08,2.172013324752697372e-08,2.290916567559975192e-09,5.927444135522819124e-08,-2.536088672400182986e-09,1.682758465904043987e-08,2.546838295813813602e-09,3.164219108953147952e-08,-2.237523766268623149e-08,4.126162522766207985e-08,-1.342416844352101180e-08,6.387238471461387235e-08,2.049388037050903222e-08,3.327338404801594152e-08,-2.451488256838274538e-08,4.454773971929171239e-08,2.963197331951050728e-08,-1.347749467583980731e-08
-5.966261085177393397e-08,-3.561815375974219933e-08,1.925255954660087809e-09,-1.290358341066166759e-06,9.882983675879586372e-08,-4.287640908984258203e-09,-1.176484465403859758e-09,-3.155981431746113230e-08,4.780542184334990452e-08,-6.227022009142046954e-09,4.125587693692978064e-08,3.200581133455671079e-08,2.290802747495490621e-08,-2.675138865981807612e-08,-1.845514141507464956e-08,1.959645956617350748e-08,6.226025561772985384e-08,-1.925411297065693361e-08,3.206436893776754005e-09,4.122991725807878538e-08,-6.038398936425437569e-08,8.362644621229264885e-08,-1.198276322611491196e-07,1.366034041438979330e-07,-4.193563540866307449e-08,-2.699101742109633051e-08,1.316631870196260934e-08,-6.196528090640640585e-08,1.231014223890269932e-08,-1.388061754425962135e-08,1.559208939738709887e-08,-5.705503625108576671e-08,-1.461869381103042542e-08,4.386504315334605053e-08,6.284574993742353399e-08,-7.248323896646979847e-08,5.086511833951590233e-08,6.292926002515741857e-08,-6.415022113515078672e-08,5.822206367156468332e-05,1.962879991879162844e-08,2.349245686872336591e-09,-7.394668699589601601e-08,3.776420953727210872e-09,-5.797170032906251436e-08,7.969742199520624126e-09,3.105050438989565009e-08,-2.435608159601088119e-08,8.302901477463819901e-09,1.684973049975724280e-08,2.499584361714823899e-08,-3.066295306553001865e-08,1.051529796569639075e-08,-1.649984540108562214e-07,-7.411298952320066746e-08,5.536386638027579465e-08,1.966560470023637208e-09,4.293310951197781833e-08,6.667019647466077004e-08,-3.691067718136764597e-08,-5.186350549024609791e-08,5.715363471381351701e-08,-9.788297461454931181e-08,1.867817900347290561e-08
3.302974437247030437e-05,4.839408163093139592e-08,4.368514510133536533e-06,-2.788089774549007416e-02,-3.598170951590873301e-05,-9.272419987382818363e-08,4.539514542045708367e-09,6.846671141147453454e-08,-1.021256412769844246e-08,-8.583182165011749021e-09,6.484592449851334095e-05,-8.680490992674094741e-08,1.045255881848561330e-08,-2.495978037586610299e-07,-6.023558540846352116e-08,-1.495153014730021823e-07,5.085738408183715364e-08,-2.207947181886993349e-05,-2.042839923888095655e-07,6.054866608096176606e-10,1.196340963360853493e-05,-2.840523620761814527e-07,4.444986407179385424e-04,-1.408879033988341689e-04,-3.930268377416723524e-08,4.759985131386201829e-06,1.120856012448712136e-07,2.702552228583954275e-05,-1.211219213814729301e-08,-5.464534780230678734e-08,3.599578946023029857e-08,-2.727638639044016600e-05,-1.340814890227193246e-07,1.554766981826105621e-08,-3.529542169644628302e-08,-1.900040018654181040e-07,1.362713519483804703e-04,1.620812071223554085e-07,-1.653397774248333008e-08,4.332012310624122620e-02,-6.529542588395997882e-06,3.090581301989914209e-08,2.514992445412644884e-07,1.307935804106818978e-07,1.083162626258626915e-08,-1.401039462223252485e-08,2.126627407506020973e-07,6.747277919203042984e-03,5.687244097885013616e-08,5.656294206346501596e-07,2.999779313839212591e-09,1.137982508225832134e-08,-8.708737198048766004e-08,1.400732871843501925e-04,-3.992408181829887326e-09,-5.709378214646676497e-08,-8.555669950283117942e-09,-1.292596152779879048e-06,-1.136710139348906523e-07,4.098778590559959412e-02,4.945037446191236086e-08,-1.059971932448888765e-08,6.334066390991210938e-02,2.192309622728316754e-08
1.206764750349975657e-06,-9.435108836441941094e-07,1.125437393056927249e-06,-2.942017745226621628e-04,1.765249908203259110e-05,1.479901090561952515e-08,-1.231237405363572179e-07,4.842354073275600967e-08,3.091821554335183464e-07,-6.116825090884958627e-08,1.078899018466472626e-02,4.825960331800160930e-06,-3.385921445442363620e-07,1.323200649494538084e-06,-6.552041043050849112e-08,9.563076019958316465e-08,-1.704731221252586693e-05,9.014096576720476151e-05,-4.862444313857849920e-08,5.506535227794984166e-09,7.694683154113590717e-04,8.303181289193162229e-07,-1.103766169399023056e-02,7.583926199004054070e-04,-7.192084467533277348e-06,5.450868343359616119e-07,4.025143425678834319e-06,2.736548776738345623e-05,6.518197324112406932e-07,1.226914747576302034e-07,1.130876725596863253e-07,-1.172501833934802562e-05,4.598120639798253251e-08,-6.169673270051134750e-07,4.929807317921586218e-08,1.619971735635772347e-04,4.143139813095331192e-03,2.395692604295618366e-07,-1.050372816280287225e-06,7.118068169802427292e-04,1.118772430345416069e-03,-1.470798167702014325e-07,-6.613362984353443608e-06,4.081131876887411636e-08,-6.568398021045140922e-07,-7.739403429241065169e-08,-3.182389818334740994e-08,3.514276177156716585e-04,1.121712145391029480e-08,-8.212434295273851603e-06,-6.818269326913650730e-08,-3.314461816117386661e-09,5.996219897497212514e-06,-6.130823749117553234e-04,-2.703870336517866235e-07,9.380642040923703462e-07,1.169456425031967228e-07,-8.726256965019274503e-06,-8.527003103608876700e-08,7.942678348626941442e-05,-7.936338874969806056e-07,6.302379915723577142e-07,-1.387103833258152008e-02,-1.457401754834108942e-09
-1.795760162792703341e-08,-5.316019291434770366e-10,-1.591330800465584616e-08,-8.083670621772398590e-09,-1.696384188676347549e-08,7.767313903173089784e-09,2.548537203495016001e-08,-9.848215576369057089e-09,6.211396730293472501e-09,-1.045858599724169835e-08,9.365964670493553967e-10,-8.596427458762434526e-10,-7.943847357694266975e-09,-1.362684987071816067e-08,3.579959662047826896e-09,-3.872174048069609853e-08,-2.264953380404222116e-08,-1.839673302583832992e-08,2.830845957646488387e-08,9.304546577659777995e-10,-6.082738313040181310e-09,1.539877558798252721e-08,1.644339064910127490e-08,-3.840729956294808289e-09,1.875220867475491104e-08,-2.320454584037179302e-08,-1.696435170117638336e-08,-2.089476502931120194e-08,4.841623546525397614e-09,-3.395145053985970662e-09,-1.755849332596426393e-08,-3.660290293083789948e-09,4.969391564912939430e-09,8.537854867540772830e-09,-4.487573423972435194e-09,7.848510286123655533e-09,-1.050303843896926992e-08,-1.328357956964509867e-08,1.070864197316723221e-08,-4.098902994797981592e-09,4.503743600281495674e-09,1.395104309853678615e-10,-7.652742439745452430e-09,-1.640085178777894725e-09,-4.377021411983150756e-08,-1.453439057996774864e-08,1.213725742132965024e-08,-1.795626536349459457e-09,4.236297002080391394e-08,7.440571270223017564e-09,9.534282696677109925e-09,1.625442180852587626e-08,-2.518410902041523514e-08,5.793673096832208103e-09,-1.122771831063573700e-08,1.142969185963238488e-08,-6.193246804286900442e-09,3.861636344026919687e-09,-9.043127913166415510e-10,-4.629224115149099816e-09,1.898686896595336293e-08,-5.991020124440638028e-09,-4.547125342924118740e-09,1.872474264530410437e-08
-2.449991427511122311e-07,1.228876644887577640e-08,-1.063276258150835929e-07,-3.403208218514919281e-03,1.629703803018855979e-07,7.442864813356209197e-08,1.667744520261749130e-08,8.831881892490400787e-09,-4.272764542179174896e-08,1.771123869787061267e-08,-4.788429919244663324e-07,-1.617062110881306580e-07,3.511047808046896535e-08,-9.949165047373753623e-08,3.131670567313449283e-08,8.823059971518887323e-08,1.873993404899465531e-08,-1.277510364161571488e-06,3.128806014274232439e-08,5.386199486423492999e-09,1.547389001643750817e-05,-1.629749561971038929e-07,4.497527334024198353e-05,1.349205376754980534e-05,6.050382950206767418e-08,-1.889539760213665431e-07,-3.086079303216138214e-08,4.538910434348508716e-05,-5.513241063681562082e-08,-3.966653139286790974e-08,1.146849637478908335e-08,-1.739676349643559661e-06,-1.008402534807828488e-07,5.786899137660839187e-08,-3.202621812192774087e-08,-1.430264688906390802e-07,-6.742666300851851702e-06,9.583453675077180378e-08,8.199786627471894462e-09,2.127773826941847801e-03,-3.286560570359142730e-07,4.254294694305826852e-08,1.143700032457672933e-07,-1.581875430645141023e-08,1.317802755806951609e-08,-3.591712527395429788e-08,1.897321766364257201e-07,9.696849883766844869e-05,-9.520420896080850071e-09,1.791372596926521510e-07,-6.321790202434840467e-09,-3.657686153957229180e-09,-4.620065752192203945e-08,-2.688441054488066584e-05,6.600347290941499523e-08,-3.122852731962666439e-08,-2.240545704523810855e-08,-5.178415207751640992e-08,2.398002330039616936e-08,-1.760983467102050781e-02,1.405275229515723368e-09,-6.243822525675568613e-08,2.280236512888222933e-04,-6.044281075645585588e-09
8.458922451382022700e-09,-9.036984494059652206e-09,-8.626960812385675581e-10,4.685310361907113474e-09,-1.134982685613294962e-08,7.651470568248441850e-09,2.382714303639232867e-10,8.610621549109964690e-09,-6.933507101791747118e-10,-1.545857664098093665e-08,-8.061239675782871927e-09,4.437992018324621313e-08,3.785149527146813853e-09,-2.622172479149753599e-10,1.772959112855687636e-09,-3.537476800374861341e-08,1.189438414428423130e-08,1.481946920733889783e-08,-1.118580783554534719e-08,4.133596576139098033e-08,-5.567859506783179313e-09,1.536631799581300584e-08,2.064632376175268291e-08,-1.624946222023027076e-08,-2.076343896817434143e-08,-1.735651267154025845e-08,2.389734410357391425e-09,-1.739437749392891419e-08,-1.440079522296855430e-08,-1.786227876721113716e-08,1.545952876824685518e-08,-1.609329025598071894e-08,-4.221364946488392889e-08,-2.705841772865369421e-08,9.195681549556411483e-09,-2.093103823597175506e-08,-3.455126673657105130e-08,1.095408763696070764e-09,1.038012076293171049e-08,7.199214113740026733e-09,-1.234930646631937634e-08,4.394750952041448500e-10,-3.680921886739518811e-11,-8.554950525763160840e-09,-2.669961141066323762e-08,-2.143194777204371348e-08,-1.992523479543706344e-08,-1.039077091036233469e-08,-1.352684808608728417e-08,-1.011695793806666188e-08,-3.274456972235384455e-08,-1.558581885774401599e-08,5.370253575165406801e-09,3.660811032091260131e-08,-2.047162439566818648e-09,-3.785631008668133290e-08,4.159801947345442841e-10,1.579893016412370343e-08,1.822186135314041167e-08,7.822338332630351942e-09,1.650202752223606240e-09,-2.543384702846651635e-08,-2.012265198914064968e-08,-4.066419645454288911e-09
-1.151841200197623039e-08,4.113006468742241850e-08,8.576468424337235774e-09,-1.788677117531278782e-08,-1.159419316110188447e-08,1.298360974288925718e-08,5.538368430535456355e-09,1.230468082979996325e-08,6.495386450922069344e-09,3.990534480635687942e-08,6.067915059304596070e-09,1.976997410224612395e-08,-2.135976018280416611e-08,-2.032136769969383749e-08,2.083923966722522891e-08,2.142165111962412993e-09,9.609053108761145268e-09,-1.149092643260019031e-08,1.011998218558574081e-08,-1.751826417262236646e-08,1.963393536641433457e-08,-1.986140496512689424e-08,1.705499030890678114e-08,4.247657869882459636e-08,5.878802777914415856e-09,5.026886462644597486e-09,8.336596302171983552e-09,2.428869194659455388e-08,3.915846846780368651e-08,1.488539691507639873e-08,-1.252201187185164599e-08,-1.924019343846339325e-08,1.387678327802177591e-08,-6.785508599449485700e-09,8.042413845998908073e-09,5.989575502240995775e-09,1.440614827430408695e-08,-3.880590782046056120e-08,1.703056184965134889e-08,1.992710529918895190e-08,1.556346496123239831e-09,-3.097220480086093630e-09,2.704930324171073153e-08,-1.962401618982312357e-08,2.809541044257457543e-08,-3.236160450725833471e-09,1.966121265795095496e-09,-9.108268805846364558e-09,-1.739730137728656700e-08,-2.046382796550005878e-08,8.840903120699294959e-09,-1.231798929524074993e-08,9.076690510312346305e-09,2.012454558553145034e-08,-3.122686331735735621e-09,8.379013927140022133e-09,6.846094358081700193e-09,1.870735744091689412e-08,4.445025680865910545e-08,5.768767685765396891e-09,-2.568229007238187478e-08,-2.710159918706267490e-08,3.988617880423817041e-09,1.836764340623631142e-08
6.474478908558012336e-08,1.826973061724856962e-08,-2.533838028284662869e-08,-1.281476791348268307e-08,-6.195537594066991005e-08,1.963012330463698163e-08,5.491124915879552759e-11,-2.429312928597937571e-08,5.392756463606929174e-08,-1.221299417153431932e-08,-1.021623106112201640e-07,-2.851896496736117115e-08,3.550282068331966912e-09,2.716532421231931949e-08,3.541433102327573579e-08,3.002120863015989016e-08,-8.079148727802021313e-08,-9.215042240384718752e-08,3.481358845647264388e-08,-1.933889492988782877e-08,1.032172605164305423e-07,7.874417917719256366e-08,1.230366475368782631e-08,-9.355491670248738956e-08,-1.344696087812735641e-08,3.118934088774949487e-08,2.465948278906893165e-10,9.842155890282811015e-08,-9.833741820841623849e-09,-1.048728659469588820e-09,-5.460458751826990920e-08,-5.995240570655369083e-08,5.367132516198580561e-09,2.350103223136557062e-08,-8.554960295725777542e-09,6.056130530396330869e-08,-1.067116528474798542e-07,1.786216330401657615e-08,-6.855687217921513366e-08,-9.926964412443339825e-05,-8.659716832504216200e-10,-4.444645540502278891e-08,-1.583993736176125822e-08,-3.735774800617264191e-09,-3.003607584872725056e-09,9.699658853890014143e-09,-2.264054899114853470e-08,-2.150038902470896574e-08,-5.135254999011351629e-10,-2.265317533556299168e-08,-2.249579722501948709e-08,2.265799325940065501e-09,6.234341753952321596e-08,-4.034555090015601309e-08,7.745016850080332915e-10,1.163138385606998781e-08,2.749537486579356482e-08,-1.206567077360887197e-07,8.179408261810294789e-09,3.901823930618775194e-08,-2.431752754716853815e-08,-4.902299899356421520e-09,2.442926597723271698e-05,-1.799545934488833154e-08
5.997646439936943352e-05,4.298384581602476828e-08,-2.168154367154784268e-07,-2.376188058406114578e-03,-2.856851460819598287e-05,8.261712025614542654e-08,1.198181998063319043e-09,8.559019271103807114e-09,-8.292559527944831643e-08,2.442624058573983348e-08,2.803994902933482081e-08,-5.279737251839833334e-06,6.439118749312910950e-08,-1.006943506354218698e-07,-9.930887756581796566e-08,7.782632138741973904e-08,-1.125705661252140999e-03,2.469215814926428720e-06,-3.962909289612071007e-08,3.097797574014293787e-08,-4.626699137588730082e-06,-7.257313683339816635e-08,-1.855285954661667347e-04,5.766488902736455202e-05,1.876080432339222170e-06,-4.112816043289058143e-07,-1.352135313936742023e-05,9.202284672937821597e-06,-1.470552069804398343e-05,1.255149868484295439e-07,7.713718730428809067e-08,1.457428243156755343e-05,7.279243163793580607e-08,4.685573529172870622e-08,-7.530179146897353348e-08,-9.370796760777011514e-08,-1.464854904043022543e-05,-9.705888004418739001e-08,3.143711424513639940e-08,-3.676693141460418701e-02,1.525689614936709404e-03,5.814614567611897655e-08,2.308895403757560416e-07,1.299832916856757947e-07,3.911479495855019195e-08,-2.721959324603062669e-10,1.406917817803332582e-07,1.056861970573663712e-02,1.868847832042774826e-08,-1.851071715464058798e-06,-1.754548151211565710e-08,1.644842839709781401e-08,-7.209632002513899351e-08,-7.932932021503802389e-06,6.111130801400577184e-08,-3.164414152934114099e-08,1.436422536471582134e-08,9.967047844838816673e-06,3.074071486253160401e-08,4.028288458357565105e-06,3.896104061595906387e-08,-4.736076775202491262e-08,1.585229672491550446e-02,7.716531413848315424e-09
-1.630100499028230843e-08,-1.403063443206065131e-08,-2.049958780503402522e-08,-4.964062938483948528e-08,1.076505995456500386e-08,9.591945016040881455e-09,-8.408959750738631556e-09,2.053705294713381591e-08,2.268321708243092871e-08,1.550201744748846977e-08,1.030250817990463474e-08,3.504277978905179225e-09,1.677858207926874456e-08,1.473553901121249510e-08,-1.529429560775952268e-08,4.170457046370756871e-08,-3.181697039167374896e-08,-2.641169283279509727e-09,-1.438175467605162794e-09,-3.000291792787379563e-09,-2.677304766773858091e-10,-5.944277958747079538e-09,-1.714778363748337142e-08,6.634202520672261016e-08,-3.704160311812643158e-09,-6.573788735586560961e-10,-1.151633011176045329e-08,-2.305335256025387025e-09,-1.227118850977149123e-08,1.192469945010543597e-08,-5.525339741296875218e-09,-3.007982751768167873e-09,2.493602302422459616e-08,-2.598025972133655159e-08,-2.651579755763577850e-08,-4.926456131926215676e-09,5.313755480074178195e-08,-4.862297942054283340e-08,1.812228589415099123e-08,-2.159425172010287497e-08,1.962013307377219462e-08,3.480416399526120586e-09,-1.072536548463176587e-08,2.086979655757659202e-08,1.198518617684385390e-08,-1.630937873642324121e-08,-1.567483742803688074e-08,-1.570396079841884784e-08,-8.838802578736704163e-09,-1.387659409601837979e-08,-5.501532118756813361e-09,7.076334185285304557e-09,-1.834720997351269034e-08,-1.306205099638191314e-08,1.724419185222814122e-08,2.431949575054659363e-08,-4.151021304465984940e-09,6.732366220063568107e-09,6.362620208477665074e-09,-6.956688736181604327e-08,-2.045395675054351159e-08,1.974392205283947987e-08,2.085448036481807321e-09,-2.033655377431387024e-08
-4.607564463299240742e-08,1.182076303507528792e-08,-2.156868106339970836e-08,1.908134450445686525e-08,-1.465662080590846017e-08,9.273428691614071795e-10,2.878577731735276757e-08,1.820548511943798076e-08,2.416057132137439112e-09,-7.045934946603438220e-09,-4.731301572746815509e-08,-2.576055635472584981e-08,-1.843850938598734501e-08,-2.148425970460721146e-08,-6.980013900204085076e-09,6.243862760157981029e-09,1.761292089952348761e-08,-6.060682267161610071e-08,-1.839217134147475008e-08,-1.594817966577011248e-08,5.177776785103560542e-08,3.409249771380018501e-08,4.478356174786313204e-08,3.892920474868333258e-08,-2.965797385456880875e-08,1.438027058542346026e-10,8.125557116045456496e-09,-1.411312400279030044e-08,-5.396399416213171207e-08,1.892455259167036274e-08,-5.877891240402277617e-08,2.528056342043782934e-08,-2.394173082009842801e-09,2.749314198524643871e-08,5.314392126365419244e-08,-4.057026359305382357e-08,-5.312711337523978727e-08,4.680131127088316134e-08,-1.919626413382502506e-08,-2.284682414028793573e-04,-6.303200450474832905e-08,-4.590918578628588875e-08,-8.760054015510831960e-09,3.311745189193970873e-08,-1.802579241427793022e-08,-1.502950475185116375e-08,2.833152024095397792e-08,-1.004678722438256955e-07,3.010094573596688861e-08,4.084782290192379151e-09,4.021828647893244124e-09,2.453955438852517545e-08,3.130016423824599769e-08,3.527635428213216073e-08,-2.247028696444886009e-08,-3.966047756875923369e-08,1.517618208879412123e-08,4.512018492164315830e-08,-1.276191929910908129e-09,-3.013084537428767362e-08,1.908695423935569124e-08,3.730347586383686576e-08,-2.588675158676778665e-07,-1.254033210607019555e-09
1.988899933635934758e-09,7.140317226372872028e-09,-7.879965124857335468e-09,-2.989713010492778267e-08,-3.121096270319867472e-08,-2.710091173696582700e-08,1.002555105600322349e-08,6.386099205002437884e-09,-1.159600859779175153e-09,1.629139601000417770e-09,-1.657250869868676091e-08,1.829399920438845584e-08,8.876076762476259319e-09,1.397016902160430618e-08,-1.528047377519214933e-08,-2.100987023245792784e-10,-1.178470099283401851e-09,4.146556520367994381e-08,5.799028368613790008e-09,-1.804740246136304904e-09,1.029898744064894345e-08,1.877258526405967132e-08,-1.925089598842077976e-08,-2.881225258377639875e-09,6.794039109081495553e-09,-8.194703582375950646e-09,-7.261019341342489497e-09,-1.826232676194194937e-08,-5.367763122876567650e-09,-1.089691803457526476e-08,-8.562319742111412779e-09,-1.833988605426384311e-08,1.441283981051810770e-08,-8.917845351064102033e-10,-3.601670428565739712e-08,1.088481038635791265e-08,-8.271205054199981532e-09,2.836774548597986723e-08,2.800653042811518389e-09,2.980099278460102141e-09,-1.219415501907405996e-08,-2.311169922109002073e-09,5.175311290628314964e-10,2.804893739494218607e-08,-6.595836654632591944e-10,-8.458778566478031280e-09,2.873056637042736838e-08,-1.580594144456881622e-08,-2.772942764295294182e-08,2.260847864477000257e-08,-4.465963154842711447e-09,-7.143342362070370655e-09,1.096348456464113497e-09,3.731074116331001278e-09,5.786495282933401541e-09,-2.400817322723014513e-08,-1.386709325146284755e-08,-9.724343108530320023e-09,9.736198514076477295e-09,-2.945298582801569864e-08,-3.730758812992007734e-09,-1.898429857760675077e-09,2.771198204243319196e-08,2.217715078245419136e-08
5.189324525645133690e-09,-1.389680992502917434e-08,4.080579429910358158e-08,-5.308452841745747719e-07,5.873504793640904609e-09,-6.461803536694787908e-08,-1.209549438385693065e-08,-2.707845858651580784e-08,2.384667041610555316e-08,9.171458259515929967e-09,3.273660897917807233e-09,2.228124884595672484e-08,-1.899012325168314419e-08,-3.538111670309262990e-08,1.736548327357922972e-08,-4.968478073408277851e-09,-2.185988812186678842e-08,9.086466690177985583e-09,3.500982970194854715e-08,-1.686286310587092885e-08,1.600741583729359263e-08,6.095025040231405455e-10,-1.420981789124198258e-05,6.705786148586412310e-09,-1.063839505377472960e-08,2.957291656002780655e-08,2.110513008801717660e-08,-4.346466742077836898e-09,5.564509208966228471e-08,-1.898908763564577384e-08,1.995274168109517632e-08,1.625895684753686510e-08,-5.468757535709301010e-08,-3.428149142337133526e-08,-1.548876049639602570e-08,2.127906206794705213e-08,3.389936553688244203e-09,4.058570723941556935e-08,-7.290932302339570015e-08,-1.102372516470495611e-05,-3.009882121318696591e-08,2.128602716311434051e-08,4.177691526052740301e-09,-9.915045673380973312e-09,-5.386781154470554611e-08,2.049940883708245565e-09,1.203604504951272247e-08,1.908689881702230196e-07,2.790949971132050678e-10,-1.414152794865231044e-08,9.906390374680995592e-09,9.738811979076444914e-10,2.375061036730130581e-08,-1.581310371534527803e-08,-4.038076539814028365e-08,-1.654201575718161621e-08,6.459333068420392010e-09,-3.895312516988269635e-09,-4.848143664304416234e-09,1.380993762722937390e-05,2.827969147745079681e-08,3.894125555348182388e-08,-2.693679562071338296e-05,4.843965228928936995e-09
2.311763935836097517e-08,-4.013364929278395721e-08,1.524834480903791700e-08,1.415851258457223594e-08,-3.725654806885358994e-08,-3.763278044743856299e-08,1.339000998967776468e-08,-3.624800681834017269e-09,5.519999457526125752e-10,4.093152206063876974e-10,-4.807901987646800990e-08,-2.638812501842835445e-09,-5.198120334171107970e-08,4.617727533684501395e-09,-3.532348458179512818e-08,-9.665901856692471483e-09,-4.538846098967042053e-08,-6.242395755862162332e-08,-2.549001010265783407e-08,-1.600337107277027826e-08,2.678813615375474910e-08,2.126885867426153709e-08,-4.410451381886559830e-08,4.378797058279815246e-08,-1.839258345626149094e-08,-5.027136928958952922e-09,1.477000410865514368e-09,2.008775012996011355e-08,-5.103917999349505408e-08,5.060269980816656243e-09,-8.228155656819780006e-11,4.999721880949437036e-08,-3.177940399723411247e-08,1.610261368689691608e-09,-1.255884285455977079e-08,4.104573037011505221e-08,2.954068456517688901e-08,1.898949797407567530e-08,-4.278233589616320387e-08,5.363031974070509023e-08,-5.651487455793358095e-08,-9.503047238013095921e-09,-1.056713561098376886e-08,-5.060927676936444186e-08,3.075415477837850631e-09,-1.025039253477189050e-08,1.763309853686223505e-08,-3.384738533895870205e-08,-3.204833376457827399e-08,-4.272001419280968548e-08,-1.598428944760144077e-08,-2.146564348493029684e-08,3.743881205053867234e-09,-1.602263921540725278e-08,-5.331486008230967855e-08,3.897471145819508820e-08,1.326765097786619663e-08,1.593616438810840918e-08,1.775694435934838111e-08,-3.824527894380480575e-08,-2.947241384276821918e-08,3.593724073880366632e-08,-1.904352416204346810e-06,5.272562386693380176e-10
3.334259241819381714e-02,-5.059333852841518819e-05,4.626089334487915039e-02,-6.186309084296226501e-02,-3.688989672809839249e-04,-4.426124723977409303e-05,8.645397997497639153e-08,1.340955257944642653e-08,-1.171614911754659261e-07,1.845921460130739433e-08,2.913437085226178169e-03,-6.393763469532132149e-04,-6.180418131407350302e-05,-4.927214235067367554e-03,-2.776838812224013964e-07,-9.718831279315054417e-06,-3.467959459158009849e-06,-6.161332130432128906e-02,-1.349624071735888720e-04,3.768288792116436525e-08,7.178367674350738525e-02,-1.014802619465626776e-04,7.963608205318450928e-02,-6.651673465967178345e-04,6.233079147932585329e-06,-3.999829350505024195e-04,-2.432344103908690158e-08,3.233918175101280212e-02,-1.861996483057737350e-03,1.746101770550012589e-05,-6.046283670002594590e-05,-2.330464869737625122e-02,-1.375043881125748158e-03,-7.125075171643402427e-06,9.403543663211166859e-05,-1.123126945458352566e-03,2.856157152564264834e-05,7.481383363483473659e-05,-7.776116399327293038e-05,4.881759583950042725e-01,-1.818319968879222870e-02,-1.169904207927174866e-04,-1.079266965389251709e-01,3.751150507014244795e-04,-9.915999544318765402e-05,-5.020906246500089765e-05,-3.217417746782302856e-02,1.153029501438140869e-02,-3.916306567930405436e-08,3.663556417450308800e-03,2.995700909558252079e-10,1.859845610852062237e-08,-5.490222520165843889e-06,1.374605926685035229e-03,-4.143228215980343521e-05,3.524540807120501995e-05,1.821891615350068605e-08,-1.220922637730836868e-02,-4.316120794101152569e-07,-2.949418723583221436e-01,-6.277390639297664165e-05,9.109572420129552484e-05,-1.420982331037521362e-01,6.071596003742740777e-10
1.064022736585457096e-08,-4.845703927003341960e-08,1.615047540148850658e-10,-3.951971550009147904e-08,-4.473329795473546255e-08,-2.367637819133960875e-08,9.586897498081725644e-09,-5.794702051531430698e-09,1.101446311935205813e-08,4.297545075360176270e-08,-5.709757644467572391e-08,1.016228434735921837e-08,-3.850010443784412928e-08,-4.339820591781062831e-08,-1.253674941636973017e-09,-2.395161757817731996e-08,-3.656616698322068260e-08,-1.682082384490968252e-08,-3.749493160398742475e-09,4.059513003529247044e-10,-4.533637465442552639e-09,4.640125439436815213e-08,-2.276058985728468542e-08,-1.207699495964220660e-09,-4.902951999952165352e-08,-1.714278941022939762e-09,-4.876861137148580383e-09,6.343394431951310253e-08,-5.708231398671159695e-08,-4.257463270818107048e-09,7.223020515034761502e-10,3.512265678295989346e-08,-7.574841198731974146e-09,-1.619149703202538149e-09,8.649251093117982236e-09,3.920422741998663696e-08,-2.620479833126410085e-08,1.705917851424487708e-09,-4.741401582464277453e-08,-4.091428127139806747e-05,-3.085781941081222612e-08,-5.794874624598378432e-08,8.760536296392729128e-09,2.086752282082215970e-08,-4.056756708337161399e-08,-1.557175011157596600e-08,5.749685882960875460e-08,-5.686101900437279255e-08,7.901450160829881497e-09,1.169023011726721961e-08,3.308949558800122759e-08,-4.203506165367798530e-08,4.725084679080282513e-08,3.790374236700699839e-08,-1.215110234653593579e-08,2.512703645152214449e-08,-1.532641036305903981e-08,4.849740165013827209e-08,5.579352801987624844e-08,-2.108231811348559859e-08,-5.780420053724810714e-08,1.669313753893675312e-08,7.092241816053501680e-08,-1.224367940366732910e-09
