2.456798106431961060e-01,2.155730128288269043e-01,-8.179879188537597656e-02,3.241523529595724540e-07,-3.584690392017364502e-01,2.991140186786651611e-01,-2.123122960329055786e-01,1.307101547718048096e-02,2.619563937187194824e-01,-1.980724917416409880e-08,-7.762823998928070068e-02,-3.488036394119262695e-01,9.907354048266370228e-09,-7.728256923300591552e-10,7.719261199235916138e-02,2.170696705579757690e-01,1.318747280265597510e-07,1.444023456365073343e-09,1.573851853609085083e-01,4.026921987533569336e-01,-5.934659242630004883e-01,-1.540856212377548218e-01,-1.576823368668556213e-02,6.382495164871215820e-02,-7.495455909520387650e-03,2.398073524236679077e-01,4.397604058681281458e-08,6.563326716423034668e-01,2.420607805252075195e-01,6.354162096977233887e-02,5.885287001729011536e-02,9.310144931077957153e-02,5.417593056336045265e-04,3.048984147608280182e-02,9.366739561755821342e-08,-1.675414532655850053e-04,1.335237016064638738e-06,1.017192471772432327e-02,1.270787350904356572e-07,-6.157229188829660416e-03,-4.982763202860951424e-04,2.252200096845626831e-01,-1.500343680381774902e-01,4.357552528381347656e-02,1.680150628089904785e-01,7.155346870422363281e-02,-1.471946388483047485e-01,4.274700582027435303e-02,-3.005406353622674942e-03,2.168098464608192444e-02,9.316691756248474121e-02,-5.071775317192077637e-01,-1.392494142055511475e-02,-3.199042985215783119e-03,5.787094235420227051e-01,1.807773951441049576e-04,-1.163591351360082626e-02,-8.582622390562733017e-10,-3.550439327955245972e-02,4.173502624034881592e-01,-1.391021609306335449e-01,1.628454923629760742e-01,3.699947521090507507e-02,7.895444333553314209e-02
7.333667576313018799e-02,-2.277791500091552734e-01,-1.056850538589060307e-03,8.255937444801020320e-08,9.429422765970230103e-02,-3.435881137847900391e-01,1.937585324048995972e-02,-2.076581120491027832e-02,1.268916130065917969e-01,2.684222089044396853e-08,-1.545436866581439972e-02,-1.554592549800872803e-01,1.291541362746784216e-08,-3.448668906003149459e-08,-5.040814727544784546e-02,-1.235074773430824280e-01,-1.154564355232423623e-08,-6.207157010607033953e-09,-1.910661607980728149e-01,-8.837188780307769775e-02,1.556617617607116699e-01,2.460044771432876587e-01,-7.653797417879104614e-02,-2.311629243195056915e-03,-8.000012487173080444e-03,2.131357043981552124e-02,3.108350574620999396e-05,-3.755837678909301758e-01,-5.336371436715126038e-02,4.919833689928054810e-02,2.020971663296222687e-02,-2.394949318841099739e-03,-4.924398288130760193e-02,7.887950539588928223e-02,-9.114454968539575930e-08,-7.298550741552389809e-08,-3.189958399161696434e-03,5.884442543901968747e-06,1.901196977627250817e-09,-8.684786409139633179e-02,5.343643017113208771e-03,2.323027141392230988e-02,1.613781750202178955e-01,9.658674709498882294e-03,2.267957851290702820e-02,5.941945128142833710e-04,-1.564139723777770996e-01,3.161337971687316895e-02,3.677768347642995650e-07,1.422022469341754913e-03,5.257985740900039673e-02,1.811184138059616089e-01,1.284054070711135864e-01,1.227578986436128616e-02,-1.699094772338867188e-01,-3.019756533717554703e-08,1.571591384708881378e-02,-2.202230398040683212e-08,2.576193399727344513e-02,1.573734171688556671e-02,2.090644277632236481e-02,3.090010210871696472e-02,-8.124852320179343224e-04,3.469360172748565674e-01
8.315474726259708405e-03,1.936015614774078131e-04,8.402563622667003074e-08,-1.124520778716942004e-07,3.730351818376220763e-05,2.894154167734086514e-04,-3.732195496559143066e-02,-1.858740724856033921e-04,-2.108216052874922752e-03,1.450393138924255254e-09,-3.285967886679230787e-10,-2.371831564232707024e-03,-1.836991891934758314e-08,-1.604236965491168121e-09,-5.326051637530326843e-02,-2.508568577468395233e-03,-2.458545012018475973e-08,-7.014072656019720853e-10,2.343869127798825502e-04,-1.686751260422170162e-03,7.946763187646865845e-03,-1.629277830943465233e-03,-7.213691333163296804e-06,5.467427521944046021e-02,5.239358415565220639e-06,-1.215537849930115044e-05,1.176858077656106616e-07,-3.455253243446350098e-01,-3.037859860341995955e-04,6.538533057209860999e-07,2.773822984636353794e-07,-9.871277143247425556e-05,8.513576904078945518e-05,-2.179012596607208252e-01,-1.295100027220996708e-08,1.839649499402185029e-08,1.911606517523978255e-07,4.327734259845783527e-08,8.815185914556877833e-09,2.623050932015758008e-07,-6.934437379868541029e-08,5.223274230957031250e-02,-1.073277438990771770e-03,-2.838825707840442192e-08,-1.177157038512177678e-08,9.122538102701582829e-08,-3.573255089577287436e-04,2.022687345743179321e-03,-5.534819180752492684e-08,2.079008076805166638e-09,1.544984229440160561e-08,-1.407723966985940933e-02,3.890972584486007690e-02,-2.230480458820238709e-05,-1.604036311618983746e-03,-2.160202505763209047e-08,-7.075730223959908471e-08,-1.306045938065381051e-08,-2.605104818940162659e-02,-6.742053199559450150e-03,-9.799777700436607120e-08,1.890940766315907240e-04,-9.865463711321353912e-03,6.640399078605696559e-05
-1.448215147803466607e-08,3.819715743702545296e-08,-4.385208995927314390e-08,-4.734479919221712407e-09,6.456995826908951130e-09,5.927521229409649095e-08,-1.571537069366968353e-07,3.355087940803969104e-08,2.713917446328650840e-08,1.522953985144681610e-10,1.379699909875853336e-08,-4.643867157483327901e-08,1.122021675570294974e-08,1.329153409557193299e-08,4.002304621053554001e-08,-1.765085677618571935e-08,3.554614103062903041e-10,-1.164032314981966465e-09,1.574293833073170390e-07,4.115581120345268573e-08,8.992105904326308519e-08,1.848561836936823966e-08,2.105563945420385608e-09,1.276963979002232463e-09,4.571561973421012226e-08,8.424121489269964513e-08,9.938382561358594103e-09,-7.009745786490384489e-06,-2.486198624751523312e-08,3.205931520255944633e-08,-4.532192399153700535e-09,-9.417970403546860325e-08,-5.806154135257202142e-08,-1.439626231558577274e-07,1.540131755461970897e-08,-2.062829018711909157e-08,-1.578609065688851842e-08,-1.456765108542867893e-08,-2.830146605958816508e-08,9.042163640060607577e-08,-4.343929305150595610e-08,1.645083358425836195e-08,5.127020941131377185e-08,2.867127690819870622e-08,4.003737075208846363e-08,4.409870157928708068e-08,-3.891589628324254591e-08,-4.462105707148111833e-08,-1.082312550693131925e-08,1.651205927544197039e-08,2.685374811406404660e-09,-5.519995127656329714e-08,-1.377792671064526075e-07,-3.209872190268470149e-08,-8.771414883312900201e-08,2.491804806936670502e-08,-5.059912933091936793e-09,8.616160229735214671e-09,9.185682436907427473e-09,-1.238229714317640173e-07,-1.710827923773194925e-08,-1.687326545152245671e-08,-9.470058870419961750e-08,-1.542245797736541135e-08
2.008308097720146179e-02,-3.705545677803456783e-04,7.371599622274516150e-06,5.562855776020114718e-08,6.147122010588645935e-03,-1.417312771081924438e-01,-1.227971324624377303e-06,-1.495942569817998447e-07,3.581694513559341431e-02,2.461707282463976298e-08,2.138073250534944236e-05,5.354292690753936768e-03,-4.503311057391101713e-09,1.823467243866616627e-08,9.845179319381713867e-02,4.298785235732793808e-03,-3.409759585792926373e-08,-5.066547625887096729e-09,-1.863636821508407593e-02,-3.700695931911468506e-02,-6.470499932765960693e-02,4.126139450818300247e-03,8.796917973086237907e-05,7.842967170290648937e-04,1.647112146019935608e-02,3.010731190443038940e-02,1.502993001167851617e-07,1.638148576021194458e-01,4.701192301581613719e-05,5.636969557798465758e-09,8.037889642764639575e-08,1.127127979998476803e-04,1.122871617553755641e-04,-9.746171534061431885e-02,4.024706612426598440e-08,-7.472244334394417820e-08,-3.517891673254780471e-05,-2.230163431704568211e-08,-4.278306064975367917e-08,8.637145947432145476e-05,2.523112243579817005e-07,1.638252139091491699e-01,-3.576083690859377384e-05,1.050955802202224731e-02,3.449768470886738214e-08,2.759796586815355113e-07,-1.183374188258312643e-04,1.695371029200032353e-04,1.351916623093529779e-08,-2.505113094741773239e-08,6.735074566677212715e-05,6.127882599830627441e-01,4.980970919132232666e-02,4.489121213555335999e-02,-3.368249163031578064e-02,-8.721254118881915929e-08,-8.664465411811761442e-08,-2.226537532123984420e-08,4.121052825212245807e-06,-1.146588358096778393e-03,-2.284916490680188872e-06,-1.606573536992073059e-02,2.885688445530831814e-05,3.968955483287572861e-03
-2.744414508342742920e-01,-1.358892321586608887e-01,2.533267810940742493e-02,-5.772520594859997800e-08,3.996284212917089462e-03,-3.699255287647247314e-01,9.621791541576385498e-03,2.478021755814552307e-02,8.465257287025451660e-02,8.412850860395337804e-09,1.991882221773266792e-03,1.088513582944869995e-01,-1.491491907756881119e-08,4.187688862344884910e-09,3.830715119838714600e-01,9.565423429012298584e-02,-8.182468747008897481e-08,-2.641620788779164286e-08,-5.525771528482437134e-02,-7.211089879274368286e-02,4.397728741168975830e-01,3.946091234683990479e-01,-5.483096837997436523e-02,3.221915662288665771e-02,-1.813042350113391876e-02,-2.729468941688537598e-01,6.494987325744716600e-10,3.461676537990570068e-01,3.091422282159328461e-02,-9.259691432816907763e-05,-1.965428850780881476e-07,1.095910593867301941e-01,-3.011032007634639740e-02,-9.176436066627502441e-02,-8.746723523245236720e-08,6.796752671789363376e-08,1.593964043422602117e-05,-6.929165101610124111e-05,-2.084694017412402900e-08,-2.223664894700050354e-02,-1.471683499403297901e-03,-2.249406650662422180e-02,2.628448009490966797e-01,-7.572032511234283447e-02,-2.200656197965145111e-02,4.637832716980483383e-06,1.087815687060356140e-01,-7.340344041585922241e-02,1.061405185964758857e-07,-7.533673738180368673e-07,1.664420356974005699e-03,7.787367701530456543e-01,-1.889519989490509033e-01,-7.938509434461593628e-02,-3.514803349971771240e-01,-9.185668226052712271e-09,4.315539481325458837e-09,-9.098118702866031526e-09,-1.151160597801208496e-01,1.289774477481842041e-02,-8.533189429726917297e-06,-2.346157431602478027e-01,1.375189721584320068e-01,-3.649649769067764282e-02
-3.667261824011802673e-02,-2.370288595557212830e-02,-2.287674050194254960e-07,4.291876365414282191e-08,-4.707455047991970787e-08,5.348393460735678673e-05,-9.457189589738845825e-03,-1.484737003920599818e-05,4.731343593448400497e-03,4.834509459428204536e-10,1.115634440793655813e-04,2.633091062307357788e-04,-2.420857647678076319e-08,1.539139304895797977e-08,2.180112600326538086e-01,1.420965045690536499e-01,-2.214501826358628023e-08,-2.373202434569066099e-08,3.059735900023952127e-05,1.333947293460369110e-04,-6.422358565032482147e-03,-5.408827681094408035e-03,2.655429998412728310e-03,-2.274611906614154577e-04,-1.272260844707489014e-01,3.738687932491302490e-02,9.022787850199165405e-08,-3.930205479264259338e-02,9.812930329644586891e-06,-2.340044826269149780e-03,8.171159038283803966e-08,-4.233459010720252991e-03,4.873995203524827957e-03,-7.707276847213506699e-03,7.199020934933741955e-09,-1.030669096735437051e-07,-2.253124620210655848e-08,1.005128567044266674e-07,4.938375397500749386e-08,-1.195369259221479297e-05,7.742184607195667922e-06,1.203469000756740570e-02,-3.592618973925709724e-03,1.515284762717783451e-03,1.278407853533281013e-05,-1.004799855763849337e-06,-1.363358111120760441e-03,2.383928745985031128e-02,1.101912658896253561e-07,-1.103293030269014707e-07,-1.777676672531924851e-08,1.229094192385673523e-01,1.671546342549845576e-04,3.143934160470962524e-02,-1.670006513595581055e-01,-1.198718138084586826e-07,-4.269401188139454462e-08,-1.023071227734817512e-08,1.829762794613998267e-07,-9.611256420612335205e-03,1.619895374460611492e-05,5.673314910382032394e-03,-1.375609450042247772e-02,2.254082262516021729e-02
-1.175409778952598572e-01,2.654540166258811951e-02,1.669945959292817861e-05,-1.037543029269727413e-07,-7.909868843853473663e-03,1.161873515229672194e-04,1.412881189025938511e-03,-1.683094725012779236e-02,2.329528629779815674e-01,-3.620136368454041076e-08,4.077878656971734017e-06,8.294251561164855957e-02,-1.133213611836936252e-08,1.577340924541204004e-08,-5.086702704429626465e-01,-4.601355791091918945e-01,3.026604389333442668e-08,-4.377537887734206379e-09,1.886467907752376050e-05,-1.641822420060634613e-02,-9.127222932875156403e-03,-8.195466762117575854e-06,2.805393523885868490e-05,1.139681879431009293e-02,7.779666781425476074e-02,1.365061011165380478e-02,1.424154731921589701e-07,7.658313959836959839e-02,-7.320585846900939941e-02,-1.087256441678619012e-05,-3.892257154802791774e-05,1.073324092430993915e-04,1.399006927385926247e-03,-4.828692078590393066e-01,7.736583285122833331e-08,1.187268878766190028e-07,-7.151133729621506063e-08,8.269024220908249845e-08,5.766491995018441230e-08,-5.003236234188079834e-03,4.330953728981512540e-08,1.573044359683990479e-01,-2.571415528655052185e-02,9.377837181091308594e-02,-9.478544171770408866e-09,5.635474008158780634e-05,-2.563296556472778320e-01,4.838570021092891693e-04,-8.000034767974284478e-08,8.815241585580224637e-07,9.190357559418771416e-07,1.368716824799776077e-03,2.786363707855343819e-03,-1.316367555409669876e-02,-3.838000893592834473e-01,-9.410683787791640498e-09,-8.360438386034729774e-08,-3.114059410336267320e-08,-2.322276486665941775e-06,-1.418612599372863770e-01,-4.493018059292808175e-05,6.161548197269439697e-02,1.122877746820449829e-02,3.446564972400665283e-01
3.101064562797546387e-01,-1.933201253414154053e-01,-1.929831574670970440e-03,1.919646398164331913e-03,-4.126049578189849854e-01,-1.022483110427856445e-01,-1.185429453849792480e+00,-7.131037116050720215e-02,-8.809998631477355957e-03,5.539603442628049379e-09,-1.119689270853996277e-01,-6.732628345489501953e-01,-2.395609577376944799e-08,1.560418994017709338e-08,1.552191078662872314e-01,1.789475977420806885e-01,-1.224845182150602341e-04,-4.197260761173993160e-09,-1.306037418544292450e-02,-3.545493483543395996e-01,-2.287297882139682770e-02,-1.167738460935652256e-03,2.529767714440822601e-02,2.933646142482757568e-01,1.530035436153411865e-01,3.883630037307739258e-01,1.151307951658964157e-04,3.146683871746063232e-01,-3.483472764492034912e-02,-1.050073802471160889e-01,-9.642342920415103436e-04,1.680158660747110844e-03,1.892597228288650513e-02,-8.368431031703948975e-02,-2.809035315465280291e-08,8.966476450211757765e-09,7.824248820543289185e-02,-1.270874037118119304e-07,-7.100872778664779617e-08,-1.368872970342636108e-01,1.131996661424636841e-01,1.257567852735519409e-01,7.110550999641418457e-02,-3.233427107334136963e-01,5.089958384633064270e-02,-6.525576114654541016e-02,-2.725283503532409668e-01,1.529075652360916138e-01,2.201110571622848511e-01,-1.728817820549011230e-01,5.073010921478271484e-01,3.324926272034645081e-02,1.284600496292114258e-01,2.460920512676239014e-01,4.931367337703704834e-01,-1.005721969704609364e-06,-5.940453615039587021e-03,-1.363540302889987288e-08,-8.417919278144836426e-01,-7.815388590097427368e-02,5.453785508871078491e-02,1.755760610103607178e-01,-2.272171340882778168e-02,7.471523433923721313e-02
-1.865293342007134925e-08,4.924618046686646267e-09,-6.024334364695960176e-09,2.714228664046913764e-08,-3.519821989428351117e-09,8.554560615436912485e-09,2.695860423784779414e-08,-4.157619670763779141e-08,1.780481539981337846e-08,-3.757812727656073548e-09,6.002529140403112251e-09,2.024551015722408920e-08,-1.434052432358612350e-08,4.076699866573108011e-08,4.239722795063016747e-09,-2.210621019571590296e-08,-9.517686194726593385e-09,1.723950404652896395e-08,-1.768767632359669051e-10,1.197219212656364107e-08,2.149015720931402029e-08,2.160240875070940092e-08,-2.096999551781664195e-08,2.037337409888095863e-08,-4.533885444857332914e-08,-1.323032083888620036e-08,1.541785366043768590e-08,-3.816115867749658719e-09,9.942628942383180402e-10,1.885636891074682353e-08,1.830938067826082261e-08,2.705808910263840517e-09,5.711488171300516115e-09,1.240541180891341355e-08,1.155303186450851172e-09,-1.005115457530791900e-08,-1.695921270083999843e-08,-1.476510291809063347e-08,-3.165243178671062196e-09,9.300702430437013390e-09,-1.021567053172134365e-09,3.712512963716108061e-08,9.559663283198460704e-09,3.955832639235268289e-08,1.815594619092308903e-10,-5.645863776493342812e-09,-1.308552377565774805e-08,-1.195140963972107784e-08,1.828029816408616171e-08,-1.006422722937827530e-10,-2.660025266720822401e-08,2.570928137046735173e-09,-8.559188913181969838e-09,-1.187903553301339343e-08,-3.939058856872179604e-09,6.840623179016347422e-09,6.629609750063991669e-09,1.942367688911872392e-08,-1.804709093278233922e-08,-2.076019711694243597e-08,-1.791414305785110628e-08,9.867391348450382793e-10,-2.798831211237029493e-08,2.641613860987490625e-08
-2.041577100753784180e-01,-8.194218575954437256e-02,-7.654862129129469395e-04,2.333124626829885528e-08,5.801680311560630798e-02,-1.091983076184988022e-02,-1.328621176071465015e-03,1.175490207970142365e-02,-8.518180251121520996e-02,4.649419338420557324e-08,-5.023567005991935730e-03,-6.512514501810073853e-02,-1.967093599120062208e-09,3.186459807125174848e-08,8.060668408870697021e-02,4.181312397122383118e-02,-4.569062284076608194e-08,2.277104060866008695e-09,-1.804117113351821899e-02,-7.960187940625473857e-05,4.531589895486831665e-02,1.078410670161247253e-01,-7.949016243219375610e-02,1.568578928709030151e-02,1.517564430832862854e-02,-4.059593975543975830e-01,-2.947529509356172639e-08,-2.516904845833778381e-02,1.169821806252002716e-02,6.276149302721023560e-02,9.342099656350910664e-05,-9.804840665310621262e-04,-5.374326184391975403e-02,3.901575133204460144e-02,1.333825849769709748e-08,-9.090058483707252890e-08,-3.960756293963640928e-05,4.349161386585365108e-08,-2.819645317231334047e-08,4.683064296841621399e-02,-1.996805804083123803e-04,-3.833558782935142517e-02,1.323549449443817139e-01,-5.069456249475479126e-02,9.264185223401000258e-07,1.594733819365501404e-02,1.659817397594451904e-01,-6.070189177989959717e-02,-2.916081575676798820e-05,1.177686615847051144e-03,-7.277033728314563632e-05,1.020292341709136963e-01,-8.528549224138259888e-02,1.707064360380172729e-02,2.409620136022567749e-01,2.497585001037805341e-07,9.789506094648459111e-08,-4.005270781703984539e-08,-7.479677908122539520e-03,6.626253575086593628e-02,-1.104611728806048632e-04,-8.337720483541488647e-02,-4.770234227180480957e-03,-2.250968664884567261e-02
4.305970668792724609e-01,3.885486721992492676e-01,-9.613884240388870239e-02,-7.111265324056148529e-03,-1.196064800024032593e-01,-3.781015425920486450e-02,1.063952501863241196e-02,-4.079373925924301147e-02,-4.330271780490875244e-01,4.154331989525417157e-08,5.290405824780464172e-02,-2.351208031177520752e-02,-4.048906276921115932e-08,2.806826415735486080e-08,3.961914777755737305e-02,2.140567898750305176e-01,-7.821333802837671101e-09,-2.267694476643100643e-08,-8.281012997031211853e-03,-3.860151022672653198e-02,-2.481480687856674194e-01,-1.052534356713294983e-01,2.158937007188796997e-01,8.978303521871566772e-02,1.715511083602905273e-01,2.391198873519897461e-01,-5.342608201317489147e-04,3.314999938011169434e-01,-3.629229590296745300e-02,2.197778597474098206e-02,-2.172380452975630760e-03,-5.529532581567764282e-02,-1.602606289088726044e-02,-2.412710189819335938e-01,4.574998513362515951e-07,-3.220290818717330694e-04,1.044563204050064087e-01,1.200794428586959839e-02,-3.112232604962628102e-08,-4.973481222987174988e-02,2.725956737995147705e-01,3.512392640113830566e-01,-1.667481809854507446e-01,5.484734177589416504e-01,3.036438822746276855e-01,9.523083269596099854e-02,-7.687089443206787109e-01,5.252826809883117676e-01,-7.055645110085606575e-04,3.637510910630226135e-02,1.210629418492317200e-01,1.311190681008156389e-05,1.038438603281974792e-01,1.417306810617446899e-01,3.040351569652557373e-01,9.937545284628868103e-03,7.093708217144012451e-02,-2.342052241033343307e-08,6.267319619655609131e-02,-1.051679849624633789e+00,-4.180466011166572571e-02,1.115675270557403564e-01,-9.069162607192993164e-01,-3.578555583953857422e-01
-8.421117136947486870e-09,3.993541852764792566e-08,5.604802212622050916e-12,-7.726336237467990031e-10,9.939828515825865907e-09,-5.852095696923242940e-09,-1.299472085491970574e-08,5.933100677424363312e-09,2.406590127179697447e-08,3.767618750316614751e-08,-7.788489853055580170e-10,-1.534382221279884106e-08,-1.809343253000861296e-08,-2.503530716069235496e-09,9.330213046609969751e-09,-1.300624052902321637e-10,-1.998553500470734434e-08,1.810212957309431658e-08,2.906695106830170516e-09,-7.530708501235494623e-09,3.691977168429616540e-09,-1.600756682762494165e-08,1.123534953961780047e-08,-2.701155921158715500e-08,-9.687049384865531465e-09,-4.951787424545273097e-09,4.113307028319468373e-08,1.330085996897878431e-08,2.438781443458992726e-08,3.821037353191059083e-08,-1.742061250809001649e-08,1.403534266586348167e-08,5.059151320097043936e-09,4.290359356673434377e-08,-9.794503874616111716e-09,5.650001355661515845e-09,-1.894853340900226613e-08,1.825786277720453654e-08,-2.814959643160364067e-08,-1.648547609534034564e-08,-1.174768754497179657e-10,4.505965378598375537e-08,-2.021499234672319290e-08,-3.661627445694648486e-08,-1.419846462624718697e-08,-1.148938455486359089e-08,-7.720797334798135125e-09,1.428974982786712644e-08,1.763670098853253876e-08,2.165694290567898861e-09,3.068697740360448734e-09,-2.627289852341618825e-08,1.745367761429861275e-08,-1.522105108620053215e-08,6.199748714408315209e-09,-5.487883036892071686e-09,2.681759037059805451e-09,7.657512846037661802e-09,-5.065285524352702851e-09,-7.983882888140669820e-09,-9.116572947942547245e-12,1.285409023665806671e-08,2.685239053334953496e-08,-2.624663819617012450e-10
1.298410978733954835e-08,-7.373792687559443948e-09,-4.183055679618519207e-08,-2.206048854702657991e-08,2.197212189969377505e-09,-1.267745908251072251e-08,1.320338505195195467e-08,9.081696283885776211e-09,1.132419602534184833e-09,1.211133238143702329e-08,-8.626088288110622671e-09,-8.184481425921319442e-10,-3.747042853774473770e-08,-6.623505743874602558e-09,2.321093006685259752e-08,-6.642236538567658499e-09,-2.321356085133174929e-08,-7.356283582282685529e-09,8.548544983000283537e-09,-4.777749040840717498e-08,1.994209775091349002e-08,2.203808691092490335e-09,2.520671227301818362e-09,5.360538679610726831e-09,4.587727087113080415e-09,-1.593870280203191214e-08,2.032357571124521201e-08,3.914468749144361936e-08,4.637105810445518728e-09,3.175355089979348122e-08,-1.977488039983654744e-08,1.735530297253262688e-08,1.509336655658444215e-08,4.784246332434349824e-09,2.162628121027410089e-08,-1.348340994411501015e-09,-1.852886555298027815e-08,5.533089542097968661e-09,-1.159345508483511367e-08,8.967856679475971760e-09,2.129525356053818541e-08,4.151854693379419814e-10,1.783311454062186385e-08,-5.192826169064801434e-09,-5.146649773024591923e-09,6.982103784025639470e-09,1.562693796586245298e-08,-2.308020974339797249e-08,2.040065716357730707e-08,1.779596692230711596e-09,-2.050409442233558366e-08,-8.098005821466358611e-09,-1.004507144131139285e-08,-1.931202753269189998e-08,2.043034719179104286e-08,1.557431872356573876e-08,-3.819597793608409120e-08,1.511233627127239743e-08,1.556211870479273784e-08,-2.534379373031470095e-09,-1.942958904876945780e-09,-1.496132440159669841e-09,-3.478249244182052280e-09,-2.304508583961251134e-09
3.253749758005142212e-02,9.937031567096710205e-02,-1.072100363671779633e-02,-2.308731927769258618e-05,-1.605290174484252930e-01,-1.769070327281951904e-01,-1.643893420696258545e-01,-2.536245808005332947e-02,5.169366598129272461e-01,-4.323579716469794221e-09,-5.863359570503234863e-02,-2.549317777156829834e-01,-2.514525299091019406e-08,2.461308312717847002e-08,5.061990618705749512e-01,-9.015361219644546509e-02,-1.501474145015890826e-07,-2.907766116777565912e-08,1.391799002885818481e-01,1.329886019229888916e-01,3.050324739888310432e-03,3.295820057392120361e-01,-3.045675456523895264e-01,2.393067255616188049e-02,-1.081351637840270996e-01,-1.361511796712875366e-01,9.415627457201480865e-03,6.001765727996826172e-01,-3.687465563416481018e-02,1.253164708614349365e-01,1.327556371688842773e-01,4.303225576877593994e-01,-4.380014538764953613e-01,-1.093506962060928345e-01,-1.079834710537852516e-08,-8.725718316782149486e-07,-9.056452661752700806e-03,2.947224536910653114e-03,6.292226117921018158e-08,2.014738023281097412e-01,-8.274982869625091553e-02,-6.127618253231048584e-02,5.813284516334533691e-01,-6.313715130090713501e-02,-2.151727490127086639e-02,8.639552444219589233e-02,7.307413816452026367e-01,-2.561368644237518311e-01,4.059086740016937256e-02,-4.154687747359275818e-03,-8.230936527252197266e-02,3.804639875888824463e-01,-9.114788472652435303e-02,3.178571537137031555e-02,2.567392885684967041e-01,-4.190266598016023636e-03,8.439373970031738281e-02,3.635926226763785962e-09,2.768088364973664284e-03,1.870428472757339478e-01,-1.461147889494895935e-02,-2.793115675449371338e-01,5.016578435897827148e-01,1.118328049778938293e-01
-6.585273891687393188e-02,1.878609061241149902e-01,-7.136619184166193008e-03,-6.304561139813813497e-08,-3.148376047611236572e-01,1.533918231725692749e-01,4.470071941614151001e-02,-1.384052783250808716e-01,2.740246057510375977e-01,1.276312655562605869e-08,1.715467870235443115e-01,-5.709962248802185059e-01,-2.542582144826610602e-08,-1.865485543817158032e-08,-4.785123765468597412e-01,-2.997137606143951416e-01,-2.517440922389369007e-09,1.789156556242232909e-08,-7.741906493902206421e-02,1.365832332521677017e-02,6.845188885927200317e-02,-6.833567470312118530e-02,-6.970210000872612000e-03,-1.769843511283397675e-02,5.425024777650833130e-03,6.069443747401237488e-02,1.268374489882262424e-07,5.658610463142395020e-01,-2.256154119968414307e-01,-9.921360760927200317e-03,-8.545297197997570038e-03,-1.339360028505325317e-01,-1.007806286215782166e-01,-8.996703475713729858e-02,-1.881683253657229216e-08,-7.439472682335690479e-08,3.930616003344766796e-05,-3.369312707945937291e-06,2.401921772587911619e-09,-1.318635344505310059e-01,7.448746263980865479e-02,5.324748754501342773e-01,-1.007739156484603882e-01,1.544190943241119385e-01,4.574396088719367981e-02,4.929840564727783203e-02,-1.554746329784393311e-01,8.900175243616104126e-02,7.648499740753322840e-05,-2.036369187408126891e-05,-8.605672977864742279e-03,-1.913402974605560303e-01,-1.049317568540573120e-01,-2.360131293535232544e-01,4.789235070347785950e-02,1.144563555044442182e-07,1.080106850713491440e-02,2.348113881112112722e-08,9.519389271736145020e-02,4.033364728093147278e-02,-1.040771305561065674e-01,2.772737145423889160e-01,-6.384326517581939697e-02,3.901540935039520264e-01
-4.630671845973211020e-09,-4.131027075970905571e-09,-3.091802508459196019e-11,-8.404159146380152379e-09,-7.875176954996732093e-09,5.445700335116043789e-09,-7.645077459983440349e-09,-3.041487950383725547e-09,-3.394390990507645256e-09,1.019267159563241876e-08,2.629334083792400634e-08,1.098736990279292058e-09,1.113638070648903522e-10,-1.135290306208958100e-09,-2.369909424260185915e-08,1.945694094729333301e-08,2.711248114906084083e-08,-1.420815110009243654e-08,-1.684951023150915717e-08,1.381920267107261679e-08,-8.160562003922677832e-09,-4.578460277571139159e-09,1.169993968375138138e-08,2.489263462024382534e-09,1.284646611310336084e-09,1.967192631013858772e-09,-2.530277987133899842e-09,1.423143825007855412e-08,4.301584510812972439e-08,2.163757706341584708e-08,1.018631046179052646e-08,-6.973128741094569705e-09,3.216620925172719581e-08,-8.376563442880069488e-09,4.261602182253909632e-09,3.281104943297918908e-09,-4.225541694324874697e-09,-1.339940491895674768e-09,4.825327248880739717e-09,5.213694809214075576e-09,-1.337056509953526984e-08,-8.489264402555818378e-09,-9.705842352047966415e-09,-1.492202095221273339e-08,1.906165003617843468e-08,-2.541169230596551643e-08,1.581181940935039165e-08,2.692580025609458971e-08,6.832842291970564474e-09,2.524936260073218364e-09,-1.661559068111273518e-08,-5.728695740003786341e-09,1.140158367718413501e-08,1.865406851209172601e-08,-4.079993232153356075e-08,6.450038836369742512e-10,6.067056190772746049e-09,-1.043311548265535293e-10,-6.772273408728324284e-09,1.745261002383813320e-08,-1.547602046514384710e-08,-8.895150394039319508e-09,-2.107942087548053678e-08,-1.806089677813815797e-08
6.998059909335552220e-09,-3.783591751016501803e-08,-1.181446229736593523e-08,-1.805984251035397392e-09,-1.780853686739192199e-08,5.921286239107814708e-10,-3.293630967959870759e-08,-1.492069401365370140e-08,9.400082490174099803e-09,-2.635236384662675846e-08,1.926176773636711914e-09,-2.048365033147092618e-09,8.534831508200113603e-09,-5.495952581924257174e-09,-4.480769533188322384e-08,-7.080194208697321301e-09,-2.143520916320085234e-08,-1.443661634681348005e-08,2.106026109061076568e-08,7.130212864581153553e-09,-1.972212082534952060e-08,-4.268599251844307219e-09,1.843452857031024905e-08,-9.827448188559628761e-09,-1.297348894979677425e-08,-1.993128151411838189e-08,-2.717500358073721145e-08,-8.912638627123214974e-09,-7.432593651657271039e-09,6.022299103847217339e-09,-5.925294477293618911e-09,-4.491181115895415132e-08,-2.017492306549684145e-08,1.589184250860853354e-08,8.572146548146974965e-09,8.341480395301914541e-09,-3.766135320271146725e-11,-6.868867696852021254e-10,4.543458942407596624e-08,-1.919886116752422822e-08,2.024683531942628179e-08,1.836832375090580172e-08,-4.365596240063496225e-08,-2.844749956432135463e-11,-2.738154591952479677e-09,1.248479719606621074e-08,2.611894922566193600e-09,3.815464566514492617e-08,1.810864702633807610e-08,5.193532270908463033e-09,-3.707294382593318005e-08,4.773198725160909817e-09,-8.934076589639516897e-09,2.085136507901097502e-08,1.111947423027004334e-09,-3.956126537474347060e-09,1.921972980767350236e-08,4.092596039839691002e-09,1.779715930183556338e-08,-8.928594530388522799e-10,4.540188314194892882e-08,-3.575588891635561595e-08,2.282462752134506445e-08,1.479878264376566221e-08
-1.716786436736583710e-02,8.082722160906996578e-06,-6.515606946777552366e-05,2.306735957802175108e-08,1.492039207369089127e-02,-1.272742152214050293e-01,8.738387376070022583e-03,6.146638095378875732e-02,2.530124485492706299e-01,2.601424853310163599e-08,-3.109268436674028635e-04,2.232883125543594360e-02,7.443732741307940159e-09,-3.056544528590166010e-08,5.778517127037048340e-01,5.657512694597244263e-02,-6.916500439047013060e-08,-2.670045340380511334e-08,-1.654328852891921997e-01,-6.968627125024795532e-02,4.702531918883323669e-02,3.738039433956146240e-01,-2.416700590401887894e-03,2.371417358517646790e-02,5.894036032259464264e-03,3.210340067744255066e-02,-5.945940628748758172e-08,1.003729104995727539e-01,8.193594217300415039e-02,9.636080449126893654e-07,8.640767532597237732e-07,7.839947193861007690e-02,-1.573517918586730957e-02,9.186269342899322510e-02,2.915981944795476011e-08,-5.113738055229077872e-08,-2.736311762419063598e-05,2.012229174397361930e-07,1.076291678003826746e-08,-2.944369101896882057e-03,1.329584478071410558e-07,-4.159161075949668884e-02,1.585130244493484497e-01,1.702951826155185699e-02,-1.564014673931524158e-04,3.654244574136100709e-05,2.796814963221549988e-02,-6.311511248350143433e-02,-3.182577347615733743e-05,5.020139724365435541e-06,-9.653671213527559303e-07,4.397939145565032959e-01,2.962070144712924957e-02,1.111939251422882080e-01,-8.589309453964233398e-02,8.994275191298584105e-08,1.801348901153687621e-07,6.944138042364045305e-10,9.105050005018711090e-03,1.554509848356246948e-01,-1.271615619771182537e-04,-3.501116856932640076e-02,3.880239278078079224e-02,8.642633445560932159e-03
-5.006020888686180115e-02,-6.973467767238616943e-02,-2.617501195345539600e-05,-5.546778680809438811e-08,-8.628166466951370239e-02,-2.154149301350116730e-02,-5.164831411093473434e-03,-6.599439680576324463e-02,-5.211637355387210846e-03,3.305503781803054153e-08,-1.131929690018296242e-03,-1.612877398729324341e-01,-2.099924678589104587e-08,1.932705107066112760e-09,3.612738549709320068e-01,-1.984003745019435883e-02,5.298566030376150593e-09,-3.837903772563322491e-09,-5.199344083666801453e-02,-1.616236269474029541e-01,3.156415373086929321e-02,-1.584552414715290070e-02,4.906997084617614746e-02,5.134878680109977722e-02,2.523291483521461487e-02,2.251176983118057251e-01,4.550130597635870799e-06,2.208290100097656250e-01,-8.865410834550857544e-02,-9.702163515612483025e-04,1.784377964213490486e-04,2.037869095802307129e-01,9.605763852596282959e-02,4.717777371406555176e-01,-8.773076132229107316e-08,-3.594639608195393521e-08,-3.477186709642410278e-02,6.443964139180025086e-06,-8.554665242854753160e-08,-2.909900248050689697e-01,-1.148072537034749985e-03,-2.101614512503147125e-02,2.283127512782812119e-03,-4.606244619935750961e-03,-4.286081995815038681e-03,-7.912013825261965394e-05,-6.674034893512725830e-02,5.592462141066789627e-03,-7.070145511534065008e-05,1.026248652487993240e-02,9.342721104621887207e-02,1.019583716988563538e-01,3.321289420127868652e-01,-2.693729009479284286e-03,-4.402226954698562622e-02,-9.986034456233028322e-06,-1.249139168066903949e-04,-6.048987089002366702e-09,-6.822463590651750565e-03,-8.825636655092239380e-02,3.755924105644226074e-02,1.213664188981056213e-01,1.722386330366134644e-01,9.292110055685043335e-02
1.517067104578018188e-01,-2.134677916765213013e-01,4.249842092394828796e-02,-2.664793719020508433e-08,1.916820928454399109e-02,-3.363923132419586182e-01,1.481479266658425331e-04,1.412917077541351318e-01,2.546999752521514893e-01,3.455868835544606554e-08,1.135764084756374359e-02,6.250711157917976379e-04,1.794913728758729121e-08,-1.699734220039772481e-08,-9.693931043148040771e-02,-1.406315863132476807e-01,2.459583114955421479e-08,1.841421948256538599e-08,-1.401276886463165283e-01,-3.045279998332262039e-03,-7.532836496829986572e-02,5.321564078330993652e-01,-1.500359028577804565e-01,-2.439309470355510712e-02,3.436013162136077881e-01,-4.615278542041778564e-02,-1.326820347458124161e-04,-3.423975408077239990e-01,-3.825416043400764465e-02,1.430901885032653809e-01,1.936797238886356354e-02,6.971079856157302856e-02,-4.476441740989685059e-01,-1.298734992742538452e-01,-3.019942695914323849e-08,-6.362690214700705837e-07,6.549356039613485336e-03,-9.449096251046285033e-05,-9.358168284734347253e-08,-4.885915294289588928e-02,-6.809398531913757324e-02,-3.744366404134780169e-04,5.464944839477539062e-01,-1.690847277641296387e-01,-2.270655520260334015e-02,1.130646318197250366e-01,1.011774912476539612e-01,-1.875705718994140625e-01,-3.374918131157755852e-03,1.943445950746536255e-02,-7.756101433187723160e-03,7.989831566810607910e-01,-1.767637586453929543e-04,-1.646412312984466553e-01,-1.248907484114170074e-02,1.809500344097614288e-02,2.674222514542634599e-06,-1.807225619154806395e-10,-1.967448890209197998e-01,7.595708221197128296e-02,-3.403538092970848083e-02,-3.864411413669586182e-01,1.742251217365264893e-02,1.641658879816532135e-02
-3.868352854624390602e-03,-1.708823144435882568e-01,-1.545296423137187958e-02,3.057830655350812776e-09,1.019939705729484558e-01,-1.845654547214508057e-01,4.350254675955511630e-05,3.200134262442588806e-02,-3.878095746040344238e-01,-1.118110315445619563e-08,-1.058098152279853821e-01,6.096201762557029724e-02,9.295268554865288024e-09,-1.836970930924053391e-08,-1.365339010953903198e-01,-7.042773813009262085e-02,-4.611210080440741876e-09,-1.625004486527359404e-08,4.113788902759552002e-02,2.711125649511814117e-02,5.345306545495986938e-02,2.140683680772781372e-01,-6.043447554111480713e-02,-1.333670765161514282e-01,7.631525862962007523e-03,-1.462231427431106567e-01,-6.953802511588946800e-08,-5.034051537513732910e-01,2.113795094192028046e-02,1.408897805958986282e-04,3.764476423384621739e-05,-7.053247094154357910e-02,-2.867256291210651398e-02,4.351867437362670898e-01,3.277920512800847064e-08,-2.973927415439447941e-08,-9.044961188919842243e-06,1.614581179865126614e-08,-4.790044361158152242e-09,1.750125735998153687e-01,9.648490049585234374e-06,-5.433208774775266647e-03,4.281041324138641357e-01,-5.170526947040343657e-06,-3.197053074836730957e-02,1.276606344617903233e-04,8.282050657726358622e-06,8.929952047765254974e-03,-1.163244905910687521e-05,1.188668538816273212e-03,-8.095416426658630371e-02,5.674877762794494629e-01,7.652802858501672745e-03,1.983698755502700806e-01,-8.835281431674957275e-02,-1.779599472229165258e-07,-1.396620154991978779e-05,-1.394479021143979480e-08,1.806442043744027615e-03,-1.371456384658813477e-01,9.742063866724492982e-07,-2.450796067714691162e-01,-1.599345505237579346e-01,-6.077394820749759674e-03
-1.618156880140304565e-01,-9.911978989839553833e-02,-6.210157647728919983e-02,-1.087687273582105263e-08,1.502145081758499146e-01,-2.866981625556945801e-01,5.565578248933888972e-06,5.057830549048958346e-06,-6.067769229412078857e-02,8.220019664939570703e-10,-3.305436298251152039e-02,2.195801585912704468e-01,-8.118810512769414345e-09,1.552139750060632650e-08,-4.692333638668060303e-01,-1.067226403392851353e-03,5.165789929151287652e-08,7.207482610738225048e-09,2.038114689639769495e-05,-1.218183990567922592e-02,5.731629580259323120e-02,1.969610154628753662e-01,-1.090848003514111042e-03,-7.683684583753347397e-03,1.589084602892398834e-02,-1.361801773309707642e-01,-7.176434113631557921e-09,-3.795718252658843994e-01,1.560953538864850998e-02,5.878963202121667564e-05,8.687495137564837933e-04,-5.200361087918281555e-02,-4.293383285403251648e-02,1.327950656414031982e-01,-3.284142735537898261e-08,-1.787997945257302490e-07,-5.854945629835128784e-05,1.560615885409788461e-07,-5.190302942992275348e-08,4.816612228751182556e-02,-8.386896297452040017e-06,-8.903429261408746243e-05,1.014011502265930176e-01,-1.371195594401797280e-05,4.950897302478551865e-03,3.240395803004503250e-03,4.295382041163975373e-06,-1.444171648472547531e-02,-1.009456827887333930e-04,3.709862008690834045e-03,-2.554720733314752579e-03,1.795039325952529907e-01,-8.080384694039821625e-03,2.649691514670848846e-02,-1.101552546024322510e-01,-1.106847449250381032e-07,4.015979726545992889e-08,8.457694988805997127e-09,2.042773552238941193e-02,1.612837077118456364e-03,1.051379285854636692e-06,-9.315606206655502319e-02,-5.327030085027217865e-03,4.527970775961875916e-02
-9.387305378913879395e-02,-1.123397238552570343e-02,-1.909025944769382477e-02,-8.075251400896377163e-08,4.529490601271390915e-03,6.177970767021179199e-02,-7.983563840389251709e-02,-2.068981702905148268e-04,-2.390322536230087280e-01,-2.834264600792835154e-09,-1.656095683574676514e-02,2.261296659708023071e-02,9.480430662733851932e-09,-2.408313104496073720e-09,-2.846032194793224335e-02,7.836937159299850464e-02,2.391429632098152069e-08,1.506434621489916026e-08,6.014512479305267334e-02,6.250389851629734039e-03,-8.822684735059738159e-02,-2.445096906740218401e-04,5.561699345707893372e-02,9.006315469741821289e-02,-2.097398787736892700e-01,1.783617436885833740e-01,2.664098985860618996e-08,-1.528346259146928787e-02,7.582547608762979507e-03,-2.839774424501229078e-06,1.840354379964992404e-04,5.113459751009941101e-02,1.119634398492053151e-04,5.571245402097702026e-02,-3.103118473291033297e-08,-1.470209411991163506e-07,7.580631233849999262e-08,4.908832451633315941e-08,7.440401361691328930e-08,-7.105680651875445619e-06,-3.471888931017019786e-06,-7.580576930195093155e-03,1.112879772335872985e-06,-1.517121006600063993e-07,7.662837952375411987e-02,-2.608417719602584839e-02,-5.509575130417943001e-04,1.794073134660720825e-01,3.756881142180645838e-06,-2.604578388854861259e-03,9.397149085998535156e-02,-2.951237000524997711e-02,2.548214048147201538e-02,7.260570302605628967e-03,-4.671918693929910660e-03,-2.880386951176205912e-08,2.137194776707929122e-08,-2.326990822254515479e-09,6.461044540628790855e-04,-1.410358995199203491e-01,4.661129787564277649e-02,-3.867556527256965637e-02,-6.693849805742502213e-03,1.718533970415592194e-02
-8.226475119590759277e-02,2.411727793514728546e-02,-2.177052944898605347e-02,3.097555600106716156e-05,-4.805864021182060242e-02,1.622129976749420166e-02,-4.127371013164520264e-01,-2.513430663384497166e-04,2.741952240467071533e-02,-2.457970538216613932e-08,-1.147638037800788879e-01,-7.000276446342468262e-01,3.285737015801259986e-09,4.306781598018005752e-09,6.385315209627151489e-02,-4.503179490566253662e-01,-1.315433593163106707e-07,-3.752123889366743015e-10,1.089958027005195618e-01,1.116190999746322632e-01,4.866858944296836853e-02,9.803355485200881958e-02,-7.407255470752716064e-02,-2.307347580790519714e-02,-4.467010148800909519e-04,3.377619385719299316e-01,1.381837364533566870e-07,4.998805820941925049e-01,-9.214710444211959839e-03,1.383859105408191681e-02,2.164677530527114868e-02,7.746776193380355835e-02,-3.114086687564849854e-01,-4.057235121726989746e-01,-2.976173618662869558e-07,-3.178793122060596943e-06,8.104480803012847900e-02,1.059389802549048909e-07,-1.720526512372089201e-07,-6.752499192953109741e-02,9.201544344250578433e-06,-1.472599571570754051e-03,3.873895108699798584e-01,-4.156646504998207092e-02,6.187915056943893433e-02,-2.758743008598685265e-03,9.925919771194458008e-02,-5.732288584113121033e-03,3.834443050436675549e-04,-2.934973919764161110e-03,2.143448218703269958e-03,9.468398094177246094e-01,-1.431643366813659668e-01,8.290773630142211914e-02,6.370368599891662598e-01,-2.579304236860480160e-06,1.839043193285760935e-06,1.846266428628950962e-08,-2.084596306085586548e-01,-7.163433730602264404e-02,1.265664771199226379e-02,-8.320095948874950409e-03,5.827872082591056824e-02,4.386756569147109985e-02
-4.292612671852111816e-01,-1.921094655990600586e-01,-6.635065376758575439e-02,-4.635377263184636831e-05,3.222429454326629639e-01,-6.980057954788208008e-01,4.355814754962921143e-01,2.313500940799713135e-01,-1.899634152650833130e-01,-2.421122502482830896e-08,-3.394002094864845276e-02,8.671160936355590820e-01,-3.473992293834271550e-08,-6.696362908620301369e-11,-1.784354299306869507e-01,-1.392589807510375977e-01,-5.389406254607820301e-08,1.939250537930092833e-08,-7.987882941961288452e-02,-2.484833588823676109e-03,2.751368880271911621e-01,1.520337462425231934e-01,2.338949032127857208e-02,1.153501719236373901e-01,-1.815915703773498535e-01,-2.334915399551391602e-01,1.958223265319247730e-06,-2.179162055253982544e-01,3.491518199443817139e-01,1.243008766323328018e-02,2.841579169034957886e-02,9.565064101479947567e-04,-4.336059466004371643e-02,5.381287261843681335e-02,8.252412953879684210e-06,4.280279597423941595e-08,-1.793487221002578735e-01,1.387254201290488709e-06,-8.745975321744481334e-08,3.541522324085235596e-01,-6.358574610203504562e-03,-2.478365153074264526e-01,2.424855381250381470e-01,8.185849525034427643e-03,3.987133130431175232e-02,-9.847513400018215179e-03,6.765447556972503662e-02,-3.351378068327903748e-02,5.732884164899587631e-03,1.167378760874271393e-02,-3.693421185016632080e-02,3.297962248325347900e-01,-1.829194575548171997e-01,5.111834406852722168e-01,-3.338538110256195068e-01,3.224098691134713590e-05,7.244277279824018478e-03,7.084175468463627112e-09,2.989885807037353516e-01,1.973488628864288330e-01,3.694908693432807922e-02,-2.092741578817367554e-01,-6.230385601520538330e-02,1.840278878808021545e-02
-2.279768729351872025e-08,9.077969309601030545e-08,1.927086490383089767e-09,3.370598378182876331e-08,-4.343853632349237159e-08,8.315971911088126944e-08,-1.202630244279134786e-07,3.230398704090475803e-08,1.288150297540369138e-08,1.160526563737107608e-09,-9.289215618935031671e-09,1.314541009378444869e-07,-5.686591197928692054e-10,-7.284308267685446481e-09,-2.217914918389851664e-08,-2.626778972114607313e-08,-1.072240962685100385e-08,-1.735079102616055025e-08,8.652034466649638489e-08,1.287710773567596334e-07,-9.692523406101827277e-08,-3.424606731528001546e-08,-8.969443854311975883e-09,-3.627487998869582952e-08,5.781939815818759598e-09,-7.731426165946686524e-08,-2.170479795893243136e-08,-1.312584663537563756e-05,7.831784643030914594e-08,3.615418364688594011e-08,1.468721677611029008e-08,-8.380061089496848581e-09,2.188167158578835370e-08,-1.093217960601577943e-07,-6.576517996847996983e-09,-2.727099612798156159e-08,5.905503641656650871e-09,1.111745717707890435e-08,2.104893148668907088e-08,8.232577641820171266e-08,-4.297390532315148448e-08,6.723033862954252982e-08,-2.936351073401510803e-08,-2.063429960230678262e-08,1.428602902642239769e-09,2.744749760807962957e-09,2.188624748100664874e-08,-1.397782600776054096e-08,-2.199751669706984103e-08,4.425261224128007598e-08,-2.636509321973790065e-08,-8.197026346579150413e-08,-3.505769186062934750e-08,2.884028837968344305e-08,-7.352414144179419964e-08,1.931073079219913780e-08,1.049875031355895771e-08,-4.640458683979886700e-08,-7.182281880346863545e-09,-1.601909005444213108e-08,-7.296906545661840937e-08,-7.309414851164319771e-09,-2.959839129346164555e-08,-1.762898449442218407e-08
4.851775765419006348e-01,-1.902175247669219971e-01,1.560373784741386771e-04,1.262295554624870420e-04,3.733104765415191650e-01,-1.926479041576385498e-01,1.922265291213989258e-01,5.940246582031250000e-02,-3.362030088901519775e-01,2.494066464464594901e-08,-2.373442202806472778e-01,4.618855714797973633e-01,5.908182387770466448e-08,1.006708605366668507e-09,-6.309847831726074219e-01,2.055967785418033600e-02,-4.304161649315574323e-08,3.135306902990464550e-09,6.364782340824604034e-03,-1.964780092239379883e-01,3.430628031492233276e-02,1.578800147399306297e-03,1.895080693066120148e-02,4.183080978691577911e-03,-1.554200798273086548e-01,-2.233093231916427612e-01,2.569633761595468968e-05,-4.287082254886627197e-01,1.548626571893692017e-01,-7.269525085575878620e-04,1.186905283248052001e-04,6.660289946012198925e-04,-8.354590833187103271e-02,8.410372585058212280e-02,3.213717647554403811e-08,-1.207909576805832330e-07,-3.256445779697969556e-05,5.373626166260692116e-08,-5.242749345768515923e-09,6.245094910264015198e-02,2.132375910878181458e-02,-1.455213222652673721e-02,1.481440216302871704e-01,1.430825679562985897e-03,6.950726266950368881e-03,-1.239705905318260193e-01,-9.857493452727794647e-03,1.180926933884620667e-01,2.077608555555343628e-02,-2.754374872893095016e-03,8.508467674255371094e-02,-7.963605970144271851e-02,8.612602949142456055e-02,2.633129656314849854e-01,-4.296271800994873047e-01,-8.079534836724633351e-07,-5.095597771287430078e-06,1.053976106391019130e-08,9.098247438669204712e-02,-2.428348958492279053e-01,2.506726682186126709e-01,-5.945025011897087097e-02,-8.869122713804244995e-02,-3.606609627604484558e-02
-1.742041409015655518e-01,1.273616999387741089e-01,-1.745266653597354889e-02,-6.272558493947144598e-06,-4.008069261908531189e-02,2.186869084835052490e-02,3.695983067154884338e-02,-1.064179558306932449e-02,1.762322783470153809e-01,-1.935410764986045251e-08,7.858704030513763428e-02,2.442301362752914429e-01,-1.195313625856897488e-08,3.999468256576932390e-10,-2.200306653976440430e-01,-5.534485578536987305e-01,1.884323985734681628e-08,-9.376246445924607542e-09,-2.216142136603593826e-03,2.400474399328231812e-01,1.145398020744323730e-01,4.856504127383232117e-02,-6.842677295207977295e-02,-2.367157489061355591e-02,1.521035581827163696e-01,-9.622351080179214478e-02,1.146742150126556226e-07,1.241366714239120483e-01,1.166201103478670120e-02,5.036554299294948578e-03,-1.352180377580225468e-03,-1.235660091042518616e-01,-6.994107365608215332e-02,-5.526653528213500977e-01,-1.622680478874372056e-08,-7.891052518971264362e-06,-4.047962650656700134e-02,3.699571834658854641e-06,-1.985185349440143909e-08,2.271145582199096680e-02,4.735998227261006832e-04,3.449303507804870605e-01,-5.533841997385025024e-02,-5.796338664367794991e-04,1.632704026997089386e-02,1.619546562433242798e-01,-3.177546560764312744e-01,-1.292353421449661255e-01,3.947203675025434677e-10,2.033472061157226562e-02,-8.378875441849231720e-03,3.082451783120632172e-02,-1.231462359428405762e-01,-4.502447322010993958e-02,-4.299574196338653564e-01,1.135616798819683027e-06,8.554685860872268677e-03,1.444586761323307655e-08,4.533447325229644775e-02,-2.103775553405284882e-02,-7.573273032903671265e-02,1.921336948871612549e-01,-5.228320509195327759e-02,3.589452207088470459e-01
5.379150155931711197e-03,-1.561382412910461426e-01,9.484394922765204683e-07,-3.926729874592638225e-08,2.774302661418914795e-02,1.711943623377010226e-04,1.507381675764918327e-04,-1.434968877583742142e-02,-6.815645610913634300e-04,-9.067028905462848343e-09,-1.414762288331985474e-01,-9.521238505840301514e-02,-8.878642709930772980e-09,-1.100001068010669769e-08,1.162983127869665623e-03,-3.392061218619346619e-02,3.028960415818460206e-09,1.282151362858030552e-08,-7.519212365150451660e-02,-1.165706589818000793e-01,-2.448044717311859131e-01,8.722012490034103394e-02,1.458627521060407162e-04,-3.834774950519204140e-03,-4.393046547193080187e-04,2.891185879707336426e-02,-5.746609943457769987e-08,-1.734556704759597778e-01,-1.197113320231437683e-01,1.192302163690328598e-02,2.102110556734260172e-07,5.662230402231216431e-02,-6.480119191110134125e-05,2.966095134615898132e-02,1.745627287164097652e-08,5.917246070907822286e-08,-1.983076147735118866e-02,-1.854346542984330881e-08,3.279836624514587129e-09,-8.285842835903167725e-03,-3.520243801176548004e-03,7.697835564613342285e-02,2.105409279465675354e-02,-2.131441421806812286e-02,-8.663243988848989829e-08,6.204320470715174451e-07,-7.046131213428452611e-05,-1.268707819690462202e-05,-1.983797837112888374e-08,1.704875785435433500e-06,1.410170256122000865e-07,3.528992086648941040e-02,9.395433217287063599e-02,-6.557990331202745438e-03,1.953827217221260071e-03,-1.049756548354707775e-08,-1.582836794966624439e-08,-6.810004116175605304e-09,3.435137041378766298e-04,8.006663620471954346e-02,1.710324227133241948e-06,2.629261463880538940e-02,1.146116554737091064e-01,1.129057481884956360e-01
-7.388702215394005179e-05,-1.239439123310148716e-03,-6.642293470804361277e-08,-1.103503599608757213e-08,-8.360755998637614539e-08,-1.790006645023822784e-02,-7.683877811359707266e-06,-2.410962770227342844e-05,-1.806334694265387952e-05,2.860028303075523581e-08,-2.089622139465063810e-04,-1.978872716426849365e-02,8.070980328511723201e-09,-6.342238290102386600e-09,-6.165608763694763184e-03,-9.665990248322486877e-03,-2.367768026090288913e-08,-1.950655281746094261e-08,1.183086260425625369e-05,-6.977168709454417694e-08,5.951994239694613498e-07,2.922068233601748943e-04,5.939462880633072928e-06,-3.064902642790912068e-08,-4.361399624031037092e-05,5.321167991496622562e-04,4.176276746647999971e-08,-6.467029452323913574e-02,-5.249094465398229659e-05,-1.175195549762975133e-07,1.080092246752428764e-07,9.139000667346408591e-10,3.777087385969934985e-06,1.371171401842730120e-05,1.307976127407073363e-08,2.098682649886995932e-08,5.799645208526271745e-10,-3.320207753176873666e-08,2.303512758317083353e-08,9.362915776023328362e-09,-1.405649729946389925e-08,8.496193913742899895e-04,5.491299089044332504e-05,-2.011410202840124839e-07,-2.450182137181400321e-07,3.112338120558888477e-08,-1.112653262680396438e-05,4.971111593476962298e-06,-2.609591653879306250e-08,-1.334194266178201360e-08,4.707840872697488521e-08,5.462548529067134950e-07,1.245159748941659927e-02,-1.098005455446582346e-07,-5.747529212385416031e-04,-1.757935130797250167e-08,-1.938321680938770442e-08,-4.927698693535376151e-09,-1.897918053828107077e-07,-2.388974507994134910e-06,-8.892327763021512510e-09,4.653139912988990545e-04,-3.918900404187297681e-08,7.416951935738325119e-03
1.218869537115097046e-01,-1.353058964014053345e-01,2.596308477222919464e-04,-1.419128636825917056e-08,-1.821429468691349030e-02,1.748662628233432770e-02,-1.193009782582521439e-02,-6.990051828324794769e-03,-3.689256906509399414e-01,3.331355458158213878e-08,-1.669638603925704956e-02,-3.319290280342102051e-02,1.298593232945677300e-08,-3.162004436063625690e-09,-2.780321538448333740e-01,-1.151336915791034698e-02,5.204757869137210946e-08,-2.843600022117698245e-08,6.801892071962356567e-02,-8.806258440017700195e-02,1.901100277900695801e-01,-1.795041002333164215e-02,-4.510669410228729248e-02,-1.679561436176300049e-01,-1.207332164049148560e-01,2.426042966544628143e-02,4.516861281445017084e-06,2.298340350389480591e-01,-3.840320557355880737e-02,5.811713708681054413e-05,1.718131097732111812e-04,-1.061108559952117503e-05,5.404897406697273254e-02,3.055149614810943604e-01,-1.916078851138536265e-09,1.458809219911927357e-05,1.575352683858000091e-07,3.025579076165740844e-08,-3.827521055654869997e-08,-3.479814901947975159e-02,-2.144845711882226169e-05,9.362744167447090149e-03,-1.920294389128684998e-02,-7.013949099928140640e-03,-1.368493214249610901e-02,-2.395819872617721558e-02,8.076308404270093888e-06,8.096986263990402222e-02,3.839010442874268847e-09,-7.740742148598656058e-06,-4.584335163235664368e-02,1.221728026866912842e-01,-2.314798980951309204e-01,-7.478219922631978989e-04,-1.462713349610567093e-02,-1.668154254730325192e-05,-1.999238505959510803e-03,-3.647431467967976459e-09,-1.300771255046129227e-04,-7.764340192079544067e-02,9.468728303909301758e-02,1.904464699327945709e-02,7.311401423066854477e-03,3.381851315498352051e-02
-7.595457136631011963e-02,3.683440014719963074e-02,-1.112137585878372192e-01,-1.311776909318496109e-08,2.772039920091629028e-02,-1.293093264102935791e-01,1.830027997493743896e-01,-5.884183570742607117e-03,1.387626975774765015e-01,2.598023129962712119e-08,-7.579452544450759888e-02,8.910483121871948242e-02,-2.168708546079756161e-09,2.303830193284284178e-08,1.186276599764823914e-01,-1.649357229471206665e-01,2.511825947237866785e-08,-5.264382263447942023e-09,-2.317207306623458862e-02,-7.272478938102722168e-02,-1.000307966023683548e-02,1.671773642301559448e-01,-6.288657337427139282e-02,-1.111521199345588684e-02,1.768165528774261475e-01,7.815550267696380615e-02,-4.910953066428191960e-05,3.855869174003601074e-01,-4.306004941463470459e-02,2.167647471651434898e-03,5.815464630722999573e-02,4.515013843774795532e-02,-1.713773459196090698e-01,4.429443925619125366e-02,-7.476526953098527883e-09,-4.108724471763025576e-09,-1.874026842415332794e-02,5.199781583087315084e-08,-1.025741802607171849e-08,-5.046615004539489746e-02,-7.415665686130523682e-02,7.122385501861572266e-02,2.948718369007110596e-01,1.398097425699234009e-01,-2.981292083859443665e-02,1.827354077249765396e-03,1.205393224954605103e-01,-7.696051150560379028e-02,1.842526544351130724e-04,3.664129972457885742e-02,6.345365662127733231e-03,8.656553626060485840e-01,-1.875455677509307861e-01,-2.081397734582424164e-02,-6.932894140481948853e-02,1.927755190990865231e-03,2.180913463234901428e-03,-2.248993880016314506e-08,1.006842181086540222e-01,-7.320330291986465454e-02,5.120750050991773605e-03,-9.956258535385131836e-02,1.861439086496829987e-02,2.432650700211524963e-02
-1.191220358014106750e-01,-1.051633805036544800e-01,-6.764602381736040115e-03,7.331591334036602348e-09,8.481342345476150513e-02,5.701751261949539185e-02,9.743075072765350342e-02,8.742909133434295654e-02,-3.547723591327667236e-01,3.337661169666716887e-08,-3.518889546394348145e-01,-2.029586397111415863e-02,-8.301530129983802908e-09,3.272789594888081410e-09,-1.736260354518890381e-01,3.167701363563537598e-01,-3.525056158082406910e-08,6.369202054656852852e-09,-8.250344544649124146e-02,-1.425485461950302124e-01,1.505801826715469360e-01,2.884850502014160156e-01,-2.021245807409286499e-01,8.682831190526485443e-03,4.626056179404258728e-04,1.803807616233825684e-01,3.912047031917609274e-05,5.493504405021667480e-01,3.453919291496276855e-01,-1.256500184535980225e-01,-1.070790290832519531e-01,2.537364959716796875e-01,-8.093844354152679443e-02,8.153247833251953125e-01,5.386458390432835586e-09,-1.527123851701617241e-03,-1.553100645542144775e-01,1.355852782580768690e-05,5.470271702279205783e-08,5.589590594172477722e-02,-2.411132119596004486e-02,-3.574153184890747070e-01,3.561976850032806396e-01,-9.415406733751296997e-02,-1.686318963766098022e-01,-2.609542906284332275e-01,2.321302145719528198e-01,-9.900617599487304688e-02,3.684788942337036133e-02,-3.365610912442207336e-02,4.442954668775200844e-04,5.271941423416137695e-02,-3.177860081195831299e-01,5.260450243949890137e-01,4.096358120441436768e-01,2.741275602602399886e-05,1.790025853551924229e-03,-2.208319926921831211e-08,3.811050206422805786e-02,-3.242813050746917725e-01,3.416500687599182129e-01,-1.738798618316650391e-01,1.545156687498092651e-01,-2.374686151742935181e-01
1.656329295940395241e-08,-2.110876629046742892e-08,-5.736016106538954773e-08,-1.390348192131796168e-08,-1.794240844787964306e-08,8.986899002749737519e-10,8.989304944861942204e-08,-6.233018545742652350e-09,-3.896288802707204013e-08,-9.974578496496633306e-09,2.690490719103877382e-09,9.730715078148932662e-08,-3.862566266832345718e-09,4.358320371267154769e-10,-9.672026379803355667e-08,-1.328495891073089297e-08,-1.841414665193497058e-08,-1.931416804268337728e-08,8.272737161973964248e-09,-3.662792513736690125e-09,7.224171127973022521e-08,3.835215878211784002e-08,-1.068196819886679805e-08,-2.161862866500996461e-08,-2.403805154926885734e-08,-1.909167934854849591e-08,-5.424656723818088722e-09,9.339372830652337143e-09,-5.215137210967668580e-09,-2.547147026632501365e-08,8.178165700201134314e-09,-3.131467352091021894e-08,-2.065640458681627933e-08,6.086271753247274319e-08,-1.537155114306187897e-08,6.651100559196265749e-09,4.273561060585961968e-08,-1.911225488981926901e-08,4.033184453078320075e-09,9.607963313840173214e-09,-5.521628931859368095e-09,-1.630445822797810251e-08,5.095271315980198779e-09,-9.131048805954833369e-09,-6.395532992087282764e-10,-2.235524654281562107e-08,8.039286569783143932e-09,1.763343959737539990e-08,2.625354511565092253e-08,1.200661969846805732e-08,1.391172332887435914e-08,7.417263958586772787e-08,-5.369053823756075872e-08,-1.158011908586331629e-08,1.160344353934306127e-08,-5.064402230914311076e-09,6.636664551251669764e-09,6.775602745534570204e-09,-3.117263602803177491e-08,5.139070680115764844e-08,-9.987978444314649096e-09,-9.736369044333059719e-09,-3.640531875959140962e-09,2.563371559460847493e-08
-3.647544133400515420e-08,-1.122254200680572467e-08,1.381292746849283049e-09,-1.451438413901939839e-09,-3.677427073967010074e-08,4.189448787883520708e-08,1.164543927956174230e-08,1.852118280964987207e-08,2.029989154550548847e-08,8.928663142171444633e-09,-1.232441615428570003e-08,3.000542037057130074e-08,-1.419556028281476756e-08,1.013069539368416372e-08,-4.358178173902160779e-08,3.075975740784997470e-08,-1.381169489889089164e-08,-1.164984908541555342e-08,-8.405679352563311113e-08,1.926881099123534113e-09,5.884847276149685058e-09,1.219351730696871527e-07,-1.514614389463986299e-08,-8.662111028456820350e-09,8.373413606932444964e-08,2.171933211059240421e-08,-1.382345615752456069e-08,-3.702333728483608866e-08,1.079204565712643671e-07,4.440661527382872009e-08,-3.144108262631561956e-08,4.988104862491127278e-08,-6.406482100373978028e-08,1.362239032687284634e-08,2.901308349123610242e-08,9.119420218972607017e-10,-7.443397898043713212e-09,-4.764530991963056294e-09,8.114536598213817342e-09,6.866480273259867317e-09,-2.056585302057101217e-08,-2.786354080797082133e-08,8.604069279272152926e-08,6.577588695932945484e-09,3.031430395594725269e-08,-4.776405937434446969e-09,6.799430707360443193e-08,-1.218434277916458086e-07,7.162881399125353710e-09,2.558575928901518637e-08,-5.439511951976783166e-09,1.139512733061565086e-07,-3.250421443112827546e-08,7.368691257170212339e-08,-4.375002404799488431e-08,1.539808458517200052e-08,-2.101420015776511718e-08,7.195709361695890038e-09,-1.850932740410371480e-08,8.660023809170525055e-08,2.521609143713021695e-09,-4.867076697223637893e-08,1.046021154138543352e-07,7.552316994008378970e-09
1.670906785875558853e-03,5.968730329186655581e-05,-2.604492443936123891e-08,1.883769407129420870e-08,-3.997933163191191852e-06,4.395498763187788427e-06,-1.223751979750886676e-07,6.949647080034537794e-09,-2.341052517294883728e-03,1.867501708829877316e-08,1.285321832256158814e-05,8.893831819295883179e-02,-5.934269742269293602e-10,7.739783924876064702e-09,-1.083561331033706665e-01,1.903420707094483078e-05,-3.178274710080586374e-08,-7.261646839396007636e-09,9.364260222355369478e-06,3.887053026119247079e-07,2.806052407322567888e-06,-2.148098974430467933e-05,3.623212663228514430e-08,-2.010822208831086755e-05,-2.984063712574425153e-06,3.202629613952012733e-06,-7.515486899478673877e-09,-1.144585851579904556e-02,3.020570460421367898e-08,1.254211241530356347e-07,3.303013329514215002e-08,-1.103481008613016456e-05,7.211235060822218657e-05,-1.824158802628517151e-02,-2.665198373108523811e-08,-3.978226459366851486e-08,-2.007555233163316188e-09,2.087922190696644975e-08,-7.460069006981484563e-09,-5.664103142066778673e-08,1.601988799393438967e-07,-4.713573798653669655e-05,-6.511410902021452785e-05,4.847651325690094382e-06,8.081750735300374799e-08,-4.709731626917346148e-08,-8.422292125942476559e-07,2.341661456739529967e-06,8.976003051941461308e-09,3.991476482667621895e-09,1.375588087881851607e-08,-5.234622221905738115e-06,2.653871662914752960e-03,1.640873108499363298e-07,-3.462554741417989135e-05,-1.772641944342012721e-08,-3.303826900946660317e-08,-3.234801981832902129e-09,-9.897743069586795173e-08,-1.033412991091609001e-03,-1.177042108224668482e-07,-5.617114950950963248e-08,-2.107922455252264626e-06,-1.005628946586512029e-04
4.195204184043177520e-08,3.702935202909429790e-08,-4.601823988537034893e-08,2.463993986623336241e-08,4.308632384208976873e-08,9.824608326880479581e-08,-8.078394131416644086e-08,-3.814201221530311159e-08,3.536741033371981757e-08,6.419220266451475254e-09,-8.178690613647177088e-09,-3.024075112989521585e-06,-5.227266175467093490e-09,-2.464199511109654850e-08,2.603641769383102655e-05,-4.292448707587936951e-08,-1.071764810234299148e-08,1.584889020023183548e-08,1.814857597537411493e-07,1.203627419954500510e-07,8.098153614355396712e-08,-7.374758581590867834e-08,-9.250406662886234699e-08,-7.064004847734395298e-08,3.044773877469708623e-10,-2.666176079912929708e-08,4.069955743951636506e-12,-1.224855861181595174e-08,2.323406533832894638e-08,7.459452433522528736e-08,1.625107159952676739e-08,-7.955848246865571127e-08,4.633681527366206865e-08,3.336937126618977345e-08,2.059885773064706882e-08,-3.611998167230012768e-08,-1.126581850030561327e-08,-3.739543075198525912e-08,-1.104492275416646407e-09,7.810612601133470889e-09,3.353572353148592811e-08,6.183793033187612309e-09,-8.374561843993433286e-08,7.566991655494348379e-08,3.062352149640901189e-08,-1.509564140356189910e-10,5.749496878593163274e-09,7.222786280181026086e-08,-4.864319791408888705e-08,7.091027498518087668e-08,2.001940124785051012e-08,-3.316966612487703969e-08,9.761357944171322742e-09,5.948735903871238406e-08,-4.345289653429063037e-06,-1.310718533709120948e-09,-2.069167948093308951e-08,-9.321174943011101277e-09,-1.216541178905572451e-08,-1.196909380496435915e-07,-5.964502491906387149e-08,-5.747022413515878725e-08,-1.398929612150823232e-07,3.826444938681561325e-08
2.428669532150706800e-08,1.149757178353638665e-09,-1.590784393101785099e-08,1.728753917795700090e-09,1.148671824324765112e-08,-4.667188302498459507e-10,-2.312648383906434901e-08,6.584310430213236032e-09,2.462602788355638950e-09,2.613255389860569267e-09,-3.840269435784193774e-09,1.624796652777149575e-08,1.714609787484278058e-08,4.087328697721659410e-09,4.344430148961464511e-09,-3.473028442613212974e-08,-8.673922913260412315e-09,2.987649461161367981e-09,1.550224837387759180e-08,-1.217922918073099936e-08,-7.369699961401465771e-09,1.598604804087244702e-08,4.557800359350494546e-09,-8.586047428593701625e-10,-1.179271880147325646e-08,5.683069126405371208e-09,-1.446149511252770026e-08,1.817570627338227496e-08,1.108275071715070226e-08,-8.247067029287791229e-09,9.151838398224754201e-09,-1.649151215588062769e-08,-1.780017022667834681e-08,1.060698195942677557e-08,-1.242079772367787882e-09,-1.118123638121915064e-08,5.296823868405908797e-09,1.379678238322412653e-08,-2.746679150789077539e-08,1.912835401185475348e-08,-1.784160019724367885e-08,1.807716465407338546e-08,-2.734087400924067879e-09,-1.160930906962676090e-08,-8.682014218663880456e-09,1.719020126245141000e-08,-3.509535773105199041e-08,2.048159153389406129e-08,2.946723420826913298e-11,-2.533736775944817055e-09,-1.195749188553918430e-08,-4.413927356949898240e-08,1.866790277915697516e-09,-1.414142491995562523e-08,6.554646603262881399e-09,1.066304378127824748e-08,-7.974208848793296056e-09,-1.274859506850134494e-08,-2.849638025548273390e-10,-1.801049087646333646e-08,-5.348800513615969976e-09,-6.403028107726527196e-11,1.157313889166289300e-08,3.177723684189004416e-08
-5.040129423141479492e-01,2.950154803693294525e-02,-4.854272678494453430e-02,1.298624852097418625e-08,-1.407872186973690987e-04,1.579389721155166626e-01,1.033112406730651855e-01,-3.598603070713579655e-04,2.279825508594512939e-02,2.358641992827870126e-08,1.612251362530514598e-04,1.228368878364562988e-01,-2.232994589235204330e-08,-7.349655106736463495e-09,1.128468737006187439e-01,3.501091897487640381e-02,-3.678896831615929841e-08,4.788776042374820463e-09,-4.117372911423444748e-03,1.278280019760131836e-01,1.174482256174087524e-01,1.038131862878799438e-01,1.816395297282724641e-06,-1.298770606517791748e-01,9.308621287345886230e-02,-3.431675732135772705e-01,-6.398309324140427634e-06,6.461343914270401001e-02,-1.462607551366090775e-02,-1.253814157098531723e-02,-1.443682558601722121e-04,-1.103575900197029114e-01,1.963809772860258818e-04,-4.204447939991950989e-02,-2.872128490594150207e-08,-6.405804242604062892e-08,-2.475922927260398865e-02,-5.947863428445998579e-07,1.019657887013636355e-07,-1.329257339239120483e-02,1.119344084088425006e-08,-5.338238179683685303e-02,2.970950677990913391e-02,4.134455695748329163e-02,-1.009922489174641669e-04,-2.810952310028369538e-06,-3.811165690422058105e-01,-1.874267458915710449e-01,4.510926354672761818e-10,4.645301387995459663e-08,2.940381527878344059e-04,2.120867185294628143e-02,-3.066410422325134277e-01,-1.097684651613235474e-01,-1.282490193843841553e-01,7.461944306896839407e-08,5.394704061245647608e-08,2.355870343251353916e-08,5.788104981184005737e-02,-4.130262732505798340e-01,5.392393562942743301e-03,-6.905361264944076538e-02,-4.354963451623916626e-02,-3.351297602057456970e-02
1.880638650618493557e-03,-5.292413011193275452e-02,-1.339212616358054220e-07,2.549653288497211179e-08,1.212411717688155477e-07,-3.956246018788078800e-06,1.186832676580706902e-07,-5.602830089628696442e-03,-1.144456490874290466e-01,2.479465699423144542e-08,8.029143572230168502e-09,-3.989532962441444397e-02,-7.862870354813367157e-09,1.638983060381349333e-09,2.235275693237781525e-02,-9.010766632854938507e-03,1.549410022505526285e-08,9.535299660967666568e-09,1.051509100943803787e-02,-5.169844254851341248e-03,1.398524362593889236e-02,-1.172538190985505935e-06,2.155505995915518724e-07,2.437905095575843006e-06,-1.121973898261785507e-02,8.414465934038162231e-03,6.481092107435415528e-09,2.097933292388916016e-01,-2.161665447056293488e-02,5.531072616577148438e-03,3.397993168618995696e-06,8.736341260373592377e-03,1.465414925405639224e-06,2.064335159957408905e-02,-4.194583524963491072e-08,8.271987894659105223e-08,-8.750927804612729233e-08,4.417378818288852926e-08,7.150596115224061577e-09,-1.197586860507726669e-02,-3.232664894312620163e-04,2.380371280014514923e-02,-6.065896229756617686e-08,-8.637743070721626282e-03,-1.117339634220115840e-04,-5.412196202314589755e-08,-1.015739291906356812e-01,-9.441742804483510554e-06,-3.926176361801481107e-08,2.266945209328241617e-08,-3.113924407216472900e-08,-3.990676254034042358e-03,-4.987302236258983612e-05,-5.349492654204368591e-02,-1.037937472574412823e-03,-1.278724681696985499e-08,-4.000777664714405546e-08,-7.013764236063479984e-09,3.909251972800120711e-06,2.670494723133742809e-04,4.962875266301125521e-08,4.262449219822883606e-03,6.183346267789602280e-03,-1.172250229865312576e-02
3.007678091526031494e-01,-4.439759626984596252e-02,-1.418890617787837982e-02,-2.526775278965942562e-05,-6.370680779218673706e-02,-4.148631170392036438e-02,-1.112887728959321976e-02,-2.576035559177398682e-01,-4.143066704273223877e-02,2.160436940457088895e-09,-1.121684443205595016e-02,6.728860735893249512e-01,-3.746511723079493095e-08,2.176913582729866903e-08,-6.059765070676803589e-02,-5.447220802307128906e-01,-3.137360238270048285e-08,-9.176167381497180031e-09,9.530777484178543091e-02,3.816688433289527893e-02,1.399254053831100464e-01,7.197571685537695885e-04,4.501816420088289306e-06,-7.151197642087936401e-03,-4.703206941485404968e-02,-1.729691959917545319e-02,1.351504179183393717e-04,-2.434452064335346222e-02,-1.864842027425765991e-01,2.931670472025871277e-02,1.015720795840024948e-02,1.405560970306396484e-02,1.238112454302608967e-03,-4.939712584018707275e-01,-3.637739354189761798e-08,-3.199675191467576951e-08,-3.424033347982913256e-04,1.793114497559145093e-04,-2.116732211732141877e-08,6.465246528387069702e-02,-6.442239828174933791e-05,7.718006968498229980e-01,5.803215783089399338e-03,1.787763684988021851e-01,1.065556425601243973e-03,-1.436760067008435726e-04,-1.621509529650211334e-02,1.285720169544219971e-01,-6.753737125109182671e-08,2.745646634139120579e-04,-7.679412192374002188e-06,-1.947385966777801514e-01,-1.077183634042739868e-01,1.272556632757186890e-01,-5.437114834785461426e-01,-2.192963875131681561e-04,9.623098549127462320e-07,3.389607883264034172e-08,5.115780048072338104e-03,-1.214182972908020020e-01,1.787472137948498130e-04,6.361588239669799805e-01,-1.072360575199127197e-01,5.908943414688110352e-01
-1.330174207687377930e-01,-2.459355071187019348e-02,-3.054895205423235893e-04,-3.780807489306425850e-08,3.379509150981903076e-01,-1.898776292800903320e-01,1.325438767671585083e-01,6.190180778503417969e-02,1.944013237953186035e-01,4.225155336712305143e-08,-2.976566553115844727e-01,1.452507674694061279e-01,3.214992005950989551e-08,9.978816883915442304e-09,-1.498929113149642944e-01,-1.429438032209873199e-02,-2.657669107009041909e-08,-3.096175760219921358e-09,-3.268493711948394775e-01,-1.855375766754150391e-01,3.208775520324707031e-01,4.357528090476989746e-01,-1.145040988922119141e-01,2.096822559833526611e-01,2.202154099941253662e-01,-2.248116284608840942e-01,1.265409537154482678e-06,7.701617479324340820e-02,1.508605182170867920e-01,-4.841250926256179810e-02,5.244977772235870361e-03,8.092294447124004364e-03,-3.154087364673614502e-01,-4.957087934017181396e-01,-1.868184655904769897e-03,3.613500254573409620e-08,1.397322583943605423e-02,3.752202959731221199e-03,-1.768144670677429531e-06,1.726797819137573242e-01,-5.991444777464494109e-05,-6.599241495132446289e-02,2.569047808647155762e-01,-7.419512141495943069e-03,-1.862335503101348877e-01,-2.347277849912643433e-01,-1.381437177769839764e-03,1.593840867280960083e-02,2.732578516006469727e-01,-6.656312942504882812e-02,4.140196833759546280e-03,5.616639852523803711e-01,-3.582033216953277588e-01,1.722657382488250732e-01,-5.825328826904296875e-02,-4.823152153221599292e-07,5.515906650543911383e-06,3.463056730268476713e-09,-2.123547531664371490e-02,-3.285336792469024658e-01,1.196434274315834045e-01,-3.844931423664093018e-01,-1.815326958894729614e-01,8.945416659116744995e-02
1.341582089662551880e-01,-3.976848721504211426e-02,-1.577614224515855312e-03,2.219866424013616779e-08,1.172972493804991245e-03,-1.202803943306207657e-02,-1.698351278901100159e-02,-1.334452331066131592e-01,-1.880593039095401764e-02,2.406534527210624219e-08,-7.671800442039966583e-03,1.269390195375308394e-04,2.535070287024154823e-08,-2.095495688081427943e-08,-6.369871646165847778e-02,-1.529633104801177979e-01,-3.960784411560780427e-08,1.144496231120228913e-08,3.234176896512508392e-03,2.972843503812327981e-05,3.963534533977508545e-02,3.656131029129028320e-02,7.413907951558940113e-06,-4.057758301496505737e-02,-1.265230029821395874e-01,8.113592118024826050e-02,-1.694785467520887323e-08,5.455148965120315552e-02,-2.466118186712265015e-01,1.564397849142551422e-02,3.060334827750921249e-03,-7.840584963560104370e-03,-2.708317479118704796e-03,4.584722593426704407e-02,2.108323515770393897e-09,1.100961455335891515e-08,6.790448423998896033e-06,1.685896506842254894e-07,-7.867898688118657446e-08,1.139861904084682465e-02,-1.822860795073211193e-04,3.078091740608215332e-01,4.396834224462509155e-02,4.239553585648536682e-03,-5.411253732745535672e-05,1.672200160101056099e-04,-4.599982127547264099e-02,-3.876835107803344727e-02,-7.337436545640230179e-05,1.961824746103957295e-04,-1.119410735554993153e-04,-5.444694682955741882e-02,8.345286361873149872e-03,-3.232632949948310852e-02,1.003959402441978455e-01,-1.131741633741967235e-08,8.553262631494362722e-08,2.561277945289930358e-08,5.082833231426775455e-04,-4.250755591783672571e-04,-5.194188997847959399e-05,2.577507495880126953e-01,-1.000971999019384384e-02,2.703346870839595795e-02
-5.175533890724182129e-02,-7.383637875318527222e-02,-2.353524556383490562e-03,1.708642344055988360e-06,3.374402225017547607e-02,-3.206965266144834459e-05,-2.178368717432022095e-02,1.947397133335471153e-03,1.029705703258514404e-01,-2.719929526051600988e-08,1.804209932743106037e-05,8.098679035902023315e-02,-1.969764795717310335e-08,-2.302774859685996489e-09,-2.475971914827823639e-02,-5.772413351223804057e-05,-2.257672804262256250e-08,-2.583271196954228799e-08,5.325229465961456299e-02,-2.612691423564683646e-05,2.468971908092498779e-02,3.651564838946796954e-06,-2.145382342860102654e-03,-3.520966041833162308e-03,-2.209068648517131805e-02,-2.347076684236526489e-02,-1.203370061375608202e-07,1.988081261515617371e-02,8.053197711706161499e-02,1.152932178229093552e-03,-2.405157033535942901e-07,1.418424583971500397e-02,2.558345207944512367e-03,1.589628607034683228e-01,-3.021394689994849614e-08,-4.063155145672681101e-08,1.073829407687298954e-04,-8.539312261746090371e-07,-3.378070800863497425e-08,-4.061039537191390991e-03,7.339944119166830205e-08,-1.749034076929092407e-01,-2.038825303316116333e-03,-1.111229788511991501e-02,1.729897037148475647e-02,-1.770310154824983329e-05,-5.280419439077377319e-02,6.504754722118377686e-02,7.691257408737328660e-09,-1.650107151363044977e-05,2.792607119772583246e-05,-4.195647314190864563e-02,5.127714946866035461e-02,-1.276239939033985138e-02,-7.028216868638992310e-02,-1.805821092659698479e-08,-5.845071427756920457e-06,1.733470811338122530e-09,-5.928661721554817632e-06,1.123247891664505005e-01,6.288981065154075623e-03,-7.561797648668289185e-02,3.233198076486587524e-02,1.490359604358673096e-01
-1.482135499827563763e-03,2.511852420866489410e-03,9.561868500895798206e-05,-6.445696953960577957e-08,-6.956190190976485610e-05,3.414598479866981506e-02,-6.936478166608139873e-05,-8.343605324625968933e-03,-1.430357078788802028e-04,9.375527021404650441e-09,-2.965903377116774209e-06,-2.584208250045776367e-01,1.351067258070770549e-08,-1.279003791765376263e-09,-2.129359543323516846e-02,-7.310798391699790955e-03,1.160295060032012771e-08,-1.529426008062273468e-08,1.047612568072509021e-05,-8.046319126151502132e-04,5.565456012845970690e-05,-2.764856209978461266e-03,-2.630741402498415482e-09,-9.849943220615386963e-03,-6.856322288513183594e-03,5.869840085506439209e-02,5.109271583592089883e-08,3.436884656548500061e-02,-3.046877309679985046e-02,-2.110511942987614020e-08,-8.514543736737323343e-08,2.433202415704727173e-02,1.769987493753433228e-02,2.781131304800510406e-02,-1.056407317179264282e-08,-9.060538985750099528e-08,-2.450550518062755145e-08,-5.801229008284281008e-08,1.839012675475260039e-08,-2.965671010315418243e-03,7.024586068382632220e-08,-6.700240820646286011e-02,-1.791781745851039886e-02,-2.160849544452503324e-04,-2.078598045045509934e-04,2.660036635404594563e-08,-8.368264730052032974e-07,7.261226419359445572e-04,-1.672980332045881369e-08,-1.305169572418662938e-08,3.596134234840064892e-08,-4.021624475717544556e-02,-2.181227500841487199e-06,-4.462276399135589600e-02,2.926459014415740967e-01,-4.198765779506175022e-09,-4.637483286273891281e-08,8.327537770469461975e-09,1.724320463836193085e-03,-3.363153082318603992e-04,-2.416186717368873360e-08,1.784978434443473816e-02,-5.382365088735241443e-06,3.021850898221600801e-05
-6.879522204399108887e-01,3.118880689144134521e-01,-9.147142618894577026e-02,3.114099308731965721e-05,-5.872198566794395447e-02,-1.697914302349090576e-02,2.911879718303680420e-01,1.055505946278572083e-01,9.602293968200683594e-01,-4.392881081116684072e-08,3.357265889644622803e-01,2.764947116374969482e-01,-1.355854237772291526e-07,-5.712157413739760159e-09,-8.915402740240097046e-02,-4.370469152927398682e-01,-1.920062686622259207e-07,-1.177345421154996075e-08,-5.951266363263130188e-02,4.923545420169830322e-01,7.537999749183654785e-01,2.719311118125915527e-01,-2.060890197753906250e-01,1.438431143760681152e-01,4.623773992061614990e-01,-3.807479143142700195e-01,-1.144163343269610777e-05,9.418786764144897461e-01,1.530895829200744629e-01,-3.408966213464736938e-02,-2.247322909533977509e-02,-1.335089504718780518e-01,-4.657662212848663330e-01,-4.712946712970733643e-01,-1.037709353113314137e-05,-3.371086521042343520e-08,-7.798055559396743774e-02,-1.316437828791094944e-05,-1.135737548452198098e-07,1.189664751291275024e-01,1.034333370625972748e-02,-3.007235527038574219e-01,5.051340460777282715e-01,2.794242501258850098e-01,-7.897756993770599365e-02,1.533817499876022339e-01,-9.017128497362136841e-02,-3.217588067054748535e-01,-1.385945826768875122e-03,1.320253610610961914e-01,-1.003094762563705444e-01,1.614204198122024536e-01,-1.082206964492797852e+00,-1.094206646084785461e-01,-1.127267256379127502e-02,-2.637563193275127560e-05,1.026742681860923767e-01,-5.215576859285420142e-09,2.061228603124618530e-01,-7.242872565984725952e-02,-5.740594863891601562e-01,-1.113922446966171265e-01,-3.150937259197235107e-01,1.029560063034296036e-02
1.474259234964847565e-02,3.386894986033439636e-02,6.433932867366820574e-05,-5.927506663283566013e-08,-7.204296439886093140e-02,-1.020343136042356491e-02,-9.420546703040599823e-03,9.081114083528518677e-02,-5.019368603825569153e-03,4.259545161033884142e-09,1.021048240363597870e-02,5.250697731971740723e-01,-3.298641004789715225e-08,-8.488639124948349490e-09,-1.807457357645034790e-01,-4.271576404571533203e-01,-5.198175756504497258e-08,-6.959577358855995044e-09,1.169331022538244724e-03,6.984762102365493774e-02,6.450399756431579590e-01,1.388816017424687743e-04,-3.466651309281587601e-03,1.121993083506822586e-02,1.078619882464408875e-01,-1.327905897051095963e-02,8.453337068203836679e-05,4.379812479019165039e-01,-1.583990603685379028e-01,-5.718673020601272583e-02,-2.811427228152751923e-03,-1.435441225767135620e-01,-1.217710748314857483e-01,-2.574042677879333496e-01,-8.818153673928463832e-08,1.217309772982844152e-07,2.061809413135051727e-03,6.808163561800029129e-06,8.787509386820602231e-09,-1.884750723838806152e-01,5.650208145380020142e-02,-1.402228325605392456e-01,1.643150150775909424e-01,-3.151879087090492249e-02,4.023884981870651245e-02,2.241618494736030698e-05,-3.228794634342193604e-01,1.266620215028524399e-02,-8.542509931430686265e-06,-7.616935526755241881e-09,9.207407174471882172e-07,4.632942080497741699e-01,-4.130410254001617432e-01,-2.049414515495300293e-01,-1.517338156700134277e-01,-3.442890772475948324e-08,1.063542072188283782e-07,-7.549583180832541984e-09,-6.349544972181320190e-02,-3.041373789310455322e-01,1.334455532742140349e-06,1.087763980031013489e-01,-4.927849769592285156e-02,-2.037937641143798828e-01
-3.721380926435813308e-05,-7.757743105685221963e-07,9.066069672769572207e-09,6.703839261490429635e-09,-1.663329207701735868e-08,1.918303269121679477e-06,2.397499798689750605e-08,5.295218485912300821e-08,1.297634298680350184e-04,-6.863724255623537829e-09,-6.545793951318046311e-08,-2.576539292931556702e-03,1.120782577856971329e-08,-2.129522158611507621e-08,2.893741615116596222e-02,-5.548917761188931763e-05,-1.041524555489559134e-08,2.554047284775151638e-08,4.550328824848293152e-08,-1.247894205152988434e-02,-6.309515447355806828e-05,-4.656397504732012749e-05,-1.480675706488909782e-07,-9.997577166132032289e-08,-5.874700582353398204e-05,5.596832185983657837e-02,9.583383864253391948e-09,2.071011662483215332e-01,1.033954255547087087e-08,2.154357225947478582e-08,7.522531930703735270e-09,2.384213358163833618e-02,1.336834247922524810e-05,2.084741936414502561e-06,1.301912444517938638e-08,1.012435024705382602e-09,-3.418506366870133206e-08,-7.075669827827368863e-08,-1.471596089430704524e-08,-1.894539536806405522e-06,-1.612168887277221074e-07,2.387515252166849677e-08,-3.049491169804241508e-05,2.533124465742275788e-08,-1.577239032712896005e-07,1.896875012619148038e-08,1.700789056258145138e-07,-1.564719696034444496e-07,-1.387571124666919786e-08,1.021847495508154680e-07,-8.943918317072530044e-08,-7.209125033114105463e-05,-3.218960102913115406e-07,6.814802873122971505e-06,9.735146304592490196e-04,-4.627000294021854643e-08,4.668015307629502786e-09,-1.961884166234995064e-08,5.476551478977853549e-08,1.694247621344402432e-04,1.045952036093922288e-08,6.096907891333103180e-03,8.150896988809108734e-03,6.634548306465148926e-03
-3.643447416834533215e-05,1.234941371386355513e-09,-5.643074274530590628e-08,-3.588747787830470770e-08,-3.109841939519242260e-09,1.941041993802627985e-08,-1.047482740546001878e-07,-6.716339129297921318e-08,-1.248355232519315905e-07,-1.167839513982471544e-08,3.883958044070823235e-08,6.287257565418258309e-05,3.410091764521894220e-09,4.902766193026764086e-09,-1.264790370214541326e-07,2.570830019976710901e-07,8.089179992509798467e-09,5.901160005095107408e-09,9.124300959229003638e-08,2.560182110755704343e-08,3.102773553109727800e-05,-3.527787839630036615e-09,4.590228641632165818e-08,-5.311512296657383558e-08,-6.691308954032137990e-05,4.317552981802919021e-09,-4.269626596720144107e-10,-5.572852492332458496e-02,7.787103406542428274e-09,-2.346686223120286741e-08,1.918344594287191285e-08,-4.252293095419190649e-08,-7.297222026636518422e-08,2.457647678966168314e-05,2.353645811581372982e-08,-9.220666896680995706e-09,-8.033486409431134234e-08,-1.033282259754741972e-08,-3.536969384043686659e-09,3.063543374537402997e-08,5.321144413983347476e-08,-4.238260771671775728e-06,1.317144349144427906e-08,-2.184307312802502565e-08,-2.041640634331542969e-08,-8.403012508040319517e-09,1.385690893584978767e-06,2.781793284611921990e-08,-3.317358832077843545e-08,-6.512098593702830840e-08,-3.718187313594967236e-09,1.475569888498284854e-07,2.357498862792795080e-09,8.215635460828707437e-08,8.128507033688947558e-06,-3.438528395349749189e-08,1.620796830081872031e-08,1.405169980372988903e-09,-2.572836610426065818e-09,1.285901817027479410e-05,3.591112118783712504e-08,-2.634509144172625383e-07,2.300694967871663721e-09,-1.397060316321585560e-07
2.903735339641571045e-01,-1.582709848880767822e-01,-1.837642164900898933e-03,-1.995128862120054691e-08,6.738017313182353973e-03,-1.439111232757568359e-01,1.741127520799636841e-01,8.171975612640380859e-03,-4.504220485687255859e-01,-2.590249081890760863e-08,-1.127980908677272964e-07,2.079720497131347656e-01,-4.077585558093232976e-08,-1.020460604905792934e-08,-3.422101587057113647e-02,-1.135573387145996094e-01,9.192174132977015688e-08,7.452313433020663069e-09,-3.818120108917355537e-03,3.036023408640176058e-04,3.445011377334594727e-01,7.992248982191085815e-03,-4.930035769939422607e-02,-3.298866748809814453e-02,-8.966892957687377930e-03,-2.166772037744522095e-01,2.506893181930536230e-08,1.072816327214241028e-01,1.451557781547307968e-02,-4.236443783156573772e-05,-2.174438691326940898e-07,-1.776469796895980835e-01,-1.803761161863803864e-02,6.207862123847007751e-02,-6.273204622431194366e-09,4.709277856562721354e-09,-1.027568869176320732e-04,9.882628404511706322e-08,9.424962144066739711e-08,1.405569314956665039e-01,2.939467336204870662e-08,4.264755174517631531e-02,2.370457798242568970e-01,1.131048202514648438e-01,1.260199816897511482e-03,4.173661594109034922e-08,2.999896935307333479e-07,-1.476997858844697475e-03,4.674529208159583504e-08,4.780964900419348851e-06,-3.689804580062627792e-03,2.076843976974487305e-01,-9.762796759605407715e-02,3.884333744645118713e-02,-1.272176057100296021e-01,-9.575943238360196119e-08,4.195433689346828032e-08,1.380801961659017252e-08,1.018433522403938696e-06,-4.665812551975250244e-01,1.712513608254084829e-06,-1.876596547663211823e-02,-1.466522216796875000e-01,-1.196681751025607809e-06
1.662359386682510376e-01,-7.447763085365295410e-01,1.424699294148012996e-04,8.435304721388092730e-08,1.025801673531532288e-01,-4.284805357456207275e-01,5.077414587140083313e-02,1.774727553129196167e-01,2.960665524005889893e-02,-3.258569236663788615e-08,-1.397946029901504517e-01,4.271945655345916748e-01,-3.147292559901870845e-08,-1.311982256169130778e-08,-6.792691349983215332e-02,-1.202437561005353928e-02,-8.708317977834667545e-08,-2.425015921403428365e-08,-6.189667582511901855e-01,-4.685972630977630615e-01,6.437391042709350586e-01,6.349225044250488281e-01,-4.559105634689331055e-01,4.793516360223293304e-03,1.611858047544956207e-02,-5.074095726013183594e-01,4.885850444225070532e-07,-2.128659188747406006e-02,1.875254660844802856e-01,9.435881860554218292e-03,-4.309532523620873690e-04,8.143236860632896423e-03,-4.163231551647186279e-01,-2.712667286396026611e-01,4.205642056831493392e-09,1.187270015634567244e-07,9.325805306434631348e-02,-7.836690230078602326e-08,5.114269896466794307e-09,1.087004691362380981e-01,-1.121203415095806122e-03,1.334148347377777100e-01,5.799710750579833984e-01,-1.397090852260589600e-01,-3.688833713531494141e-01,2.166776219382882118e-03,2.546435892581939697e-01,-2.052953094244003296e-02,1.204512318508932367e-05,1.402838734065880999e-06,-2.775560133159160614e-03,7.098927497863769531e-01,-7.288514822721481323e-02,2.889794111251831055e-01,-4.792139530181884766e-01,1.887230027932673693e-04,-1.026174984986027994e-07,8.909313287119857705e-09,-2.961569130420684814e-01,4.004331305623054504e-03,1.592670679092407227e-01,-2.556744813919067383e-01,-4.733208939433097839e-02,1.548709124326705933e-01
2.554524540901184082e-01,-4.385371208190917969e-01,1.770413294434547424e-02,-6.434856913983821869e-08,3.593845665454864502e-01,-3.701134026050567627e-01,2.414100617170333862e-01,1.218762323260307312e-01,-3.444278836250305176e-01,3.547648397272951115e-09,6.806359440088272095e-02,5.355537533760070801e-01,-5.870544050878834241e-09,-1.830264295676897746e-08,-4.694142639636993408e-01,-1.664077490568161011e-02,6.086254700221616076e-08,-4.185215018992494151e-08,-2.439372390508651733e-01,-1.914084702730178833e-01,1.177925914525985718e-01,2.361800670623779297e-01,-8.698195219039916992e-02,6.317829340696334839e-02,2.053785622119903564e-01,-3.240220546722412109e-01,-9.359132673125714064e-05,-1.769326031208038330e-01,6.714542955160140991e-02,2.082305401563644409e-02,-1.270627835765480995e-04,7.239828258752822876e-02,-5.063904523849487305e-01,1.279123127460479736e-01,-5.666181834840244846e-08,-5.792099727841559798e-06,-1.753148126226733439e-06,1.493019823328722850e-07,9.060949679451368866e-08,-1.109843724407255650e-03,-1.113599864766001701e-04,-4.853466153144836426e-02,4.306533634662628174e-01,-8.233171701431274414e-02,9.909266605973243713e-03,4.435550887137651443e-03,2.119981348514556885e-01,-3.297015130519866943e-01,-6.801129188716004137e-07,1.313946093432605267e-03,1.383680151775479317e-03,5.955581665039062500e-01,-6.301260739564895630e-02,-3.037102520465850830e-03,-6.163211464881896973e-01,2.833387115970253944e-04,1.076789703802205622e-05,5.205264663743491838e-09,-2.217891626060009003e-02,1.424356363713741302e-02,-1.955288695171475410e-03,-2.407385706901550293e-01,1.612162292003631592e-01,-6.357009708881378174e-02
-4.654214382171630859e-01,1.787587404251098633e-01,1.716842758469283581e-03,-1.423136666289792629e-07,-4.124255478382110596e-02,2.487609162926673889e-04,-1.687076874077320099e-02,-6.538952887058258057e-02,2.250992953777313232e-01,2.881499305829038349e-08,7.359312439803034067e-05,-1.966290026903152466e-01,-1.944398064779306878e-08,-2.161470291639489005e-08,2.866781055927276611e-01,-1.744426190853118896e-01,-1.005325511727050980e-08,1.092661339185951874e-08,-9.962661191821098328e-03,-4.827576223760843277e-03,-7.555901538580656052e-05,1.203817501664161682e-02,-6.678926292806863785e-03,1.669021090492606163e-03,9.202340245246887207e-02,4.659432172775268555e-02,8.421883990195055958e-08,3.700677677989006042e-02,-2.380909398198127747e-02,1.163934729993343353e-02,1.130675570948369568e-07,5.501644313335418701e-02,4.494043067097663879e-03,-5.902064219117164612e-02,1.015381130287096312e-07,4.670517483873481979e-08,-1.198754944198299199e-07,7.855470016693288926e-07,4.930847907758106885e-08,-7.093708496540784836e-03,-1.426661503501236439e-03,1.042164489626884460e-01,2.334778010845184326e-02,-2.861826214939355850e-03,-5.536946628126315773e-05,1.021094038151204586e-03,-7.360028475522994995e-02,-1.953136920928955078e-01,-2.987473862958722748e-06,2.527932565499213524e-06,9.247896377928555012e-05,1.089899912476539612e-01,-3.885839506983757019e-02,-5.704737827181816101e-02,7.159728091210126877e-03,-3.868542464147139981e-08,-1.018757078696808094e-09,-1.635426238877357719e-09,-5.727981030941009521e-02,3.171828389167785645e-02,-6.764635327272117138e-05,1.230924725532531738e-01,5.995345488190650940e-02,2.397065758705139160e-01
-2.390089482069015503e-01,1.573464125394821167e-01,-2.736236900091171265e-02,5.649885628372430801e-03,-8.040674030780792236e-03,-2.227726429700851440e-01,1.965180486440658569e-01,-3.397001326084136963e-02,-4.707753956317901611e-01,2.413637112397282181e-08,-3.833762183785438538e-02,2.052481472492218018e-01,7.084047837224716204e-08,3.565361561541635638e-09,-2.406022101640701294e-01,-4.269456267356872559e-01,-9.532568157055720803e-08,2.723476200117147528e-08,3.460288345813751221e-01,4.368180334568023682e-01,7.376158833503723145e-01,5.713961273431777954e-02,6.950990110635757446e-02,7.958628237247467041e-02,1.029689013957977295e-01,-2.359597086906433105e-01,-4.134480841457843781e-03,1.359365601092576981e-02,-2.120368368923664093e-02,-9.070037305355072021e-02,-5.322224274277687073e-02,-5.598169565200805664e-01,5.854961276054382324e-02,-2.230838686227798462e-01,5.176792001293506473e-06,5.509563197847455740e-05,2.032678574323654175e-01,-4.411372356116771698e-03,3.397623515866143862e-08,8.859172463417053223e-02,1.892978325486183167e-02,1.826074421405792236e-01,-2.098662033677101135e-02,4.392503574490547180e-02,-1.118214917369186878e-03,-6.298758834600448608e-02,-1.906165629625320435e-01,1.387493461370468140e-01,7.560221478343009949e-03,-3.300651209428906441e-03,1.059945207089185715e-02,-2.418200522661209106e-01,-4.386598765850067139e-01,-1.113121807575225830e-01,-1.882460266351699829e-01,-5.171188153326511383e-03,-9.139516623690724373e-05,-3.853565910816314499e-09,6.231506168842315674e-02,-8.249401450157165527e-01,-9.963799268007278442e-02,3.284311294555664062e-02,-7.388233542442321777e-01,-4.365682229399681091e-02
1.798849211809283588e-07,-4.431367273127762019e-08,4.268600761747620709e-08,1.187272591351984374e-08,-4.256233765431716165e-08,-4.648791129824303425e-09,-5.361122390468153753e-08,-1.902881052728844224e-07,-1.299240608432228328e-07,-1.019885687014721043e-08,-1.482493594551215210e-08,1.979823537112679332e-05,-3.916332147468892799e-09,1.895710699528763143e-09,-2.587456116032171849e-08,-1.888891887347199372e-07,4.874546544186841857e-09,-1.063407584211972789e-08,5.882273157453710155e-08,-1.182308153602207312e-07,-1.360401569172609015e-07,-1.643230262970973854e-08,-2.608329552344912372e-08,4.615673532271102886e-08,-1.701724272606952582e-07,1.930087273649405688e-05,1.416456107961039379e-08,-8.073182834777981043e-05,-1.731296492835099343e-07,2.042469873231311794e-07,1.940975202785466536e-08,1.355162476102123037e-05,9.124448041575305979e-08,8.736969334677269217e-07,1.093048940248309009e-08,2.260683196197987854e-08,-9.970062109232458170e-08,-6.119539541771246149e-09,8.447129218325244437e-09,1.330545718047915216e-08,-1.228876698178282822e-07,4.474268280318938196e-07,-1.524934489793849934e-08,5.327033747448695067e-08,-4.583485591069802467e-08,4.255871033365110634e-08,8.476305879412393551e-09,1.683681460917796358e-07,-4.181163149041822180e-08,2.686810951502138778e-08,-1.214149136785636074e-08,3.024216255198552972e-08,3.826834813480672892e-07,-3.404331749834454968e-08,7.551047019660472870e-06,-1.373746094657235517e-08,1.346881051134118934e-09,1.459980847329234166e-08,2.002984444970934419e-08,1.206322212965460494e-05,7.995856421416647208e-09,2.965797136766923359e-07,6.081807441660203040e-06,1.258978983287306619e-07
1.833681039897783194e-06,-5.187700480746570975e-06,7.106248034460804774e-08,1.289661710757172841e-08,1.779618941100125085e-07,-3.986096430708130356e-08,2.189599115354212699e-07,-1.299023444367719549e-09,-1.552190259099006653e-02,6.854979694992380246e-09,8.501350734491097683e-09,1.238555796589935198e-06,3.574904594572103633e-09,-7.101419452482105044e-09,1.567626744508743286e-02,9.566088556312024593e-05,1.150313355680054883e-08,2.953483568823855876e-10,-2.194961545853857388e-08,-1.174826411443063989e-05,-4.693606214800638554e-08,2.645032459724916407e-08,-5.076957876326559926e-08,3.835880306723993272e-06,-4.650326081900857389e-05,-1.294102730753365904e-05,-9.783614807190588181e-09,-1.405979332957940642e-06,-4.104620643374801148e-09,-5.854199347510302687e-09,4.117637786293926183e-08,-1.391250936677579375e-08,3.858454874716699123e-06,7.645791047252714634e-04,-4.946701270824860330e-09,-7.286592662580915203e-09,7.649533984022127697e-08,-1.295283880153874634e-08,-2.723097303203303454e-08,5.022597804327233462e-08,2.526760845000808331e-08,-3.853362613881472498e-06,5.889987733098678291e-06,-1.327148595464677783e-07,-3.403489756692579249e-08,-2.127785059258258116e-08,3.977657314635507646e-08,4.874418664257973433e-06,-8.997283806877476309e-09,7.182639905067844666e-08,-2.126271247959721222e-08,-1.791279646568000317e-03,1.617265077413776453e-08,-4.397134389932944032e-08,-4.816147907149570528e-07,-3.607322085485975549e-08,-5.891194732043913973e-08,-1.288066187044023536e-08,4.175372936288113124e-08,-1.004882051347522065e-06,9.722293725644703954e-08,-9.192918355438450817e-07,4.463152336597886460e-08,-9.975266266337712295e-07
-1.930592041787804192e-08,2.128460074857230211e-08,-3.602919296241680058e-09,-7.002733948269224129e-09,3.750448485106971930e-08,9.190847194417983701e-09,-1.959135076390339236e-08,-4.933056629852217156e-09,4.788787144605066715e-09,-1.289083773059473970e-08,1.842000862950499140e-08,3.646932711376393854e-08,3.184370545028514243e-09,-4.275835507883130049e-08,-7.678877977923548315e-09,-6.712005617970362437e-09,1.998510334999537008e-08,9.674795187208928837e-09,3.740725418310830719e-08,-1.103814817327020137e-08,5.040825534763371252e-09,2.459913872598917806e-08,-9.836087500048051879e-09,-1.573659957898598805e-08,-1.520785808395430649e-08,1.489044088032187574e-08,-5.703442162996452680e-09,1.618433032035682118e-08,1.208916167172446876e-08,1.732189947034612487e-10,7.776788102376031020e-09,-1.830474261055314855e-08,-3.461774156221508747e-08,1.851596032054203533e-08,7.185875006143760402e-09,3.486959343490525498e-08,3.795690872721024789e-08,-9.114287102818252606e-09,-1.297181029258354101e-08,3.697749662023852579e-08,-1.153996276315183422e-08,8.862349964999793883e-09,1.119617554223850675e-08,1.864489185265938431e-08,-2.165664270137312997e-08,-4.148808940840353898e-08,-9.032183001522753329e-09,-8.711020349494447146e-09,2.530545328838229580e-09,-1.552182826713988106e-09,-3.797991254828048113e-09,-3.918933622060194466e-09,3.588651154018407397e-09,-3.318804120411300573e-09,1.908664692962247500e-08,-2.067750415335467551e-08,-4.088517968625637877e-08,1.127206061823926575e-08,-1.704722052409124444e-08,-2.349700345405381086e-08,-1.320426346040903809e-08,-1.883532085855676996e-08,-1.247898229195243403e-08,-3.942147941415896639e-08
-6.193900853395462036e-02,3.864426616928540170e-05,6.191849166725660325e-08,-5.119972001921269111e-08,-1.200783970034535741e-07,-2.988119740621186793e-05,-1.755665540695190430e-01,-1.941557030704643694e-07,-6.876777857542037964e-02,3.953676497303604265e-08,-2.485421290998601762e-08,-4.859698116779327393e-01,2.305053747875263070e-08,3.219362831874406083e-10,5.898860096931457520e-02,1.052809413522481918e-03,-3.398023551426376798e-08,-7.246631295032557318e-09,-1.086933480110019445e-05,-2.134531678166240454e-05,-1.809707900974899530e-04,-2.972041329485364258e-05,1.463618900743313134e-06,3.144881702610291541e-05,-9.110660903388634324e-05,-1.019289344549179077e-02,-3.499476708412885273e-09,2.507889003027230501e-04,-4.913207249046536162e-06,7.638169208235012775e-09,-2.588453895668862970e-08,-8.165807230398058891e-07,2.004998532356694341e-05,-6.076131947338581085e-03,3.575117446530384768e-08,-1.975567265333211253e-09,-2.151067201339174062e-05,7.652746347730499110e-08,-9.601945016868285165e-09,3.299904705045264564e-08,-1.342183431063403987e-08,-2.459840616211295128e-04,-3.980055043939501047e-05,2.161772863473743200e-04,-1.232103130632822285e-07,7.167508186967097572e-08,-5.654566734847321641e-07,2.604307956062257290e-04,-1.848644615165540017e-08,9.189717786739493022e-08,6.535574925692344550e-08,-1.534225020805024542e-06,3.429429170864750631e-06,-1.319008458011694529e-08,2.863200008869171143e-01,6.783714212588165537e-08,-4.147388210640201578e-08,4.162775013583086547e-08,3.907114150933921337e-04,7.289514542208053172e-06,-3.897432065969042014e-08,2.213438227772712708e-02,-3.231777373002842069e-05,5.079442075839324389e-07
-3.485834598541259766e-01,7.411406934261322021e-02,9.307924658060073853e-02,6.434700594581954647e-08,-7.323411107063293457e-01,-9.746642410755157471e-02,-2.095365673303604126e-01,4.988713935017585754e-02,-1.871279999613761902e-02,-2.948405297686917947e-09,1.150989904999732971e-01,-2.725435234606266022e-02,-9.305448145369155100e-08,1.718547260054492654e-08,-4.957722425460815430e-01,1.279637068510055542e-01,-3.172994667011153069e-08,-7.303968985183928453e-09,1.284224241971969604e-01,9.520201385021209717e-02,4.245180189609527588e-01,1.698218286037445068e-02,-6.268361955881118774e-02,-3.752339482307434082e-01,1.898110657930374146e-01,-3.196709156036376953e-01,-1.155099365860223770e-03,4.520629942417144775e-01,2.345018535852432251e-01,4.361303895711898804e-02,-3.203082887921482325e-04,-1.724596768617630005e-01,8.784404397010803223e-02,2.503685951232910156e-01,3.177855845137855795e-08,-3.132331727329074056e-08,6.316589117050170898e-01,-4.013237031585958903e-08,2.077933558553013427e-08,7.413672655820846558e-02,-5.226537957787513733e-02,-9.174320101737976074e-02,6.267365813255310059e-02,1.421848963946104050e-02,-2.033634781837463379e-01,4.665645211935043335e-02,3.334029391407966614e-02,-1.298962831497192383e-01,-2.992883920669555664e-01,-1.451465487480163574e-01,4.202194139361381531e-02,-3.026730716228485107e-01,1.958854030817747116e-03,-1.165569648146629333e-01,9.407895803451538086e-02,5.376962944865226746e-02,-4.941479861736297607e-01,-1.584647257857341174e-08,-7.136850357055664062e-01,-1.121693924069404602e-01,-4.165052250027656555e-02,1.052817609161138535e-02,-2.832953631877899170e-01,-2.041808664798736572e-01
-1.035830844193696976e-02,7.118271291255950928e-02,5.186249651956131856e-08,7.503044230361410882e-08,2.642039362399373204e-05,2.280656620860099792e-02,-1.136256514655542560e-06,-4.219380207359790802e-05,-2.337829954922199249e-02,3.723735320093624068e-09,-2.225677482783794403e-03,-3.343964815139770508e-01,-5.421182169840221832e-09,9.028809699884732254e-09,1.476732939481735229e-01,-2.177778398618102074e-03,-1.621464207346434705e-08,1.323720244528203693e-08,1.047104342433158308e-05,-3.862347453832626343e-03,-6.273028440773487091e-03,7.251335318869678304e-07,4.063131564180366695e-05,-3.829326713457703590e-03,2.879007952287793159e-03,1.939360797405242920e-02,4.894171468095009914e-08,2.558804154396057129e-01,-4.449874395504593849e-04,5.261114921495391172e-08,3.376398183263518149e-08,1.222846284508705139e-02,1.276654365938156843e-04,3.263877704739570618e-02,-6.620723524974891916e-08,1.434963792235066649e-08,-4.207015444990247488e-04,8.457135436401586048e-08,-4.468984826644373243e-08,3.582755780939805845e-08,-1.053881533152889460e-07,-6.371316313743591309e-02,-3.795570955844596028e-05,-3.681172151118516922e-03,-1.043030920300225262e-06,-4.784893548048785306e-08,-9.308821518061449751e-07,7.003286387771368027e-03,5.117710699664712592e-09,-6.213741521321480832e-09,2.830807898135390133e-05,-8.821344003081321716e-03,2.076236996799707413e-03,-4.639984108507633209e-03,5.514230132102966309e-01,-3.252866420666578051e-08,4.866977931783367239e-08,7.858101391811089798e-10,2.199385501444339752e-02,-5.013443063944578171e-03,-6.110893568944675280e-09,1.319083571434020996e-02,-5.510619757842505351e-06,1.256595423910766840e-04
