3.740356564521789551e-01
4.852652922272682190e-02
7.195484638214111328e-02
-3.816230893135070801e-01
-2.027098536491394043e-01
-1.329134851694107056e-01
-2.173170149326324463e-01
6.868113577365875244e-02
-1.811259239912033081e-01
-8.511636406183242798e-02
-6.209013052284717560e-03
-1.843849122524261475e-01
-1.638202667236328125e-01
8.951387554407119751e-02
-3.231378495693206787e-01
-1.007730215787887573e-01
-2.605279088020324707e-01
-1.642838865518569946e-01
6.207221001386642456e-02
9.779051691293716431e-02
5.598082542419433594e-01
-1.724855750799179077e-01
-1.263132989406585693e-01
2.793030440807342529e-01
2.366738915443420410e-01
5.040600150823593140e-02
3.428299725055694580e-01
5.122235417366027832e-02
1.120496243238449097e-01
3.495710790157318115e-01
5.394335985183715820e-01
1.315445005893707275e-01
3.630539774894714355e-01
-3.937628865242004395e-02
3.469232916831970215e-01
4.524997770786285400e-01
2.051305621862411499e-01
1.729950010776519775e-01
-3.654097393155097961e-02
3.912123292684555054e-02
-6.759166717529296875e-02
8.754028379917144775e-02
2.292259410023689270e-02
-1.865471899509429932e-01
7.526259124279022217e-02
-9.706492722034454346e-02
1.555139422416687012e-01
-8.843063563108444214e-02
2.107015103101730347e-01
-8.828684687614440918e-02
5.782339349389076233e-02
-6.072492152452468872e-02
6.580881029367446899e-02
9.739269316196441650e-02
4.403671324253082275e-01
4.086438715457916260e-01
3.593692183494567871e-01
-2.138447761535644531e-02
-1.126819550991058350e-01
2.117209881544113159e-01
1.291097104549407959e-01
-1.325106434524059296e-02
2.642155624926090240e-02
-9.015475958585739136e-02
3.845231533050537109e-01
1.217087432742118835e-01
2.326448857784271240e-01
9.065866470336914062e-02
1.768606305122375488e-01
-9.479580074548721313e-02
-4.878631979227066040e-02
8.568912744522094727e-02
