-2.303365245461463928e-02,-2.950390800833702087e-02,4.290699213743209839e-02,-4.149510338902473450e-02,-7.158049196004867554e-02,3.303202614188194275e-02,-1.918942085467278957e-03,1.010442990809679031e-02,3.328440338373184204e-02,-1.050032954663038254e-02,-3.134514763951301575e-02,5.695630796253681183e-03,5.711417645215988159e-03,-1.665046624839305878e-02,-1.144820917397737503e-02,5.445558205246925354e-02,8.740468765608966351e-04,-1.885331934317946434e-03,-1.677832752466201782e-02,1.997622475028038025e-02,8.571837679482996464e-04,2.222697250545024872e-03,1.744918292388319969e-03,4.495048522949218750e-02,1.084860786795616150e-02,2.658473141491413116e-02,-2.126473374664783478e-02,1.671220548450946808e-02,-6.473416835069656372e-02,-6.908365059643983841e-03,1.621610671281814575e-02,1.795157603919506073e-02,-7.784187793731689453e-02,2.283355779945850372e-02,-2.420845627784729004e-01,1.758390851318836212e-02,-5.196617450565099716e-03,-1.876933616586029530e-03,-1.916064880788326263e-02,-5.783047527074813843e-03,1.333131338469684124e-03,7.959445938467979431e-03,6.307323276996612549e-02,3.046287409961223602e-02,-1.392920613288879395e-01,-1.301420945674180984e-02,-3.662794455885887146e-02,-1.457412377931177616e-03,5.999750271439552307e-02,7.569301873445510864e-02,-6.138909980654716492e-02,1.367841377941658720e-06,-8.489787578582763672e-03,-8.753716945648193359e-02,1.475984789431095123e-02,-1.177701354026794434e-01,2.571083232760429382e-02,-6.024855002760887146e-02,-1.295151282101869583e-02,-2.236788161098957062e-02,-9.731695055961608887e-03,1.338162837782874703e-05,-2.200387651100754738e-03,-6.071959156543016434e-03,3.982735961471917108e-06,1.495488802902400494e-03,-4.663226008415222168e-02,4.506517201662063599e-02,-1.623441092669963837e-02,3.001753939315676689e-03,2.014079503715038300e-02,-4.494388122111558914e-03,-2.400752715766429901e-02,1.799353212118148804e-02,1.033899490721523762e-03,5.619432032108306885e-02,-8.535474538803100586e-03,8.023966103792190552e-03,-9.304884821176528931e-03,3.932803869247436523e-03
-4.270872175693511963e-01,-7.473386824131011963e-02,-2.713805995881557465e-02,-5.213608220219612122e-02,1.452018976211547852e+00,2.222436368465423584e-01,-1.301256241276860237e-03,1.318511068820953369e-01,2.155083417892456055e-01,-8.993319235742092133e-03,1.363234668970108032e-01,7.519314438104629517e-02,3.556298092007637024e-02,-1.069483626633882523e-02,-2.735883556306362152e-02,2.260514535009860992e-02,-1.346577852964401245e-01,-1.905917674303054810e-01,1.294355839490890503e-01,-5.297096446156501770e-02,-1.686983257532119751e-01,-9.969504922628402710e-02,-2.197295689256861806e-04,2.908707782626152039e-02,1.957194879651069641e-02,7.676222920417785645e-02,-5.452143773436546326e-02,3.421810269355773926e-01,-6.658204644918441772e-02,-1.800292581319808960e-01,1.802370548248291016e-01,4.881158098578453064e-02,-4.045312479138374329e-02,1.407526880502700806e-01,2.131192684173583984e-01,2.969701215624809265e-02,8.756237548368517309e-06,-1.657079719007015228e-02,-6.490314751863479614e-02,-9.583269804716110229e-02,-5.011091008782386780e-02,-1.394378989934921265e-01,-5.395607650279998779e-02,1.030072867870330811e-01,4.742517694830894470e-02,5.519945621490478516e-01,-1.803801767528057098e-02,9.724017232656478882e-02,-8.309753239154815674e-02,1.758091092109680176e+00,2.960946559906005859e-01,6.200348252605181187e-07,6.701621413230895996e-02,1.774011701345443726e-01,2.224294394254684448e-01,5.219239741563796997e-02,5.568117648363113403e-02,-6.987933814525604248e-02,-1.050258204340934753e-01,1.624703854322433472e-01,6.682200729846954346e-02,6.036457046866416931e-02,-2.096230089664459229e-01,1.416073064319789410e-03,1.072258278727531433e-01,-1.735278517007827759e-01,2.508262991905212402e-01,3.812202438712120056e-02,-1.517170816659927368e-01,-9.739372879266738892e-02,6.851306557655334473e-02,-1.311226189136505127e-01,4.370441287755966187e-02,1.505828648805618286e-01,-1.077463030815124512e-01,1.609308458864688873e-02,9.005902707576751709e-02,8.412188291549682617e-02,-6.116555631160736084e-02,8.367311954498291016e-02
5.930851772427558899e-02,-3.500983864068984985e-02,1.153692156076431274e-01,-1.565426960587501526e-02,1.609006710350513458e-02,-1.090389862656593323e-01,-3.394323214888572693e-02,8.794361352920532227e-02,-5.221538594923913479e-04,1.129775028675794601e-02,2.242865711450576782e-01,-9.888416389003396034e-04,-3.932386171072721481e-04,-8.787058293819427490e-02,2.242899537086486816e-01,-7.782513648271560669e-02,3.300354182720184326e-01,-2.214189916849136353e-01,6.778521928936243057e-03,-2.452505193650722504e-02,7.765964418649673462e-02,-2.053261399269104004e-01,3.586030215956270695e-04,-1.793393492698669434e-02,2.947751432657241821e-02,-1.231765095144510269e-02,-1.732273250818252563e-01,1.203164085745811462e-01,5.364781618118286133e-02,-1.878693699836730957e-01,3.632511571049690247e-02,8.944168686866760254e-02,1.898353993892669678e-01,-3.768934682011604309e-02,-6.296718120574951172e-02,7.547846995294094086e-03,2.752661239355802536e-03,1.038832962512969971e-01,6.813184591010212898e-04,-9.784307330846786499e-02,-4.550789296627044678e-01,2.224091887474060059e-01,-4.115758091211318970e-02,1.156753972172737122e-01,3.010246157646179199e-02,-3.581096827983856201e-01,2.168145477771759033e-01,1.154720336198806763e-01,-1.508592665195465088e-01,2.484281547367572784e-02,-1.614404618740081787e-01,-1.632577891541586723e-06,4.186965525150299072e-02,5.641656741499900818e-02,-1.628534793853759766e-01,4.948265850543975830e-02,1.612120419740676880e-01,6.091725081205368042e-02,4.358341172337532043e-02,1.131120473146438599e-01,5.236512422561645508e-02,3.450914025306701660e-01,2.142709493637084961e-01,2.474329434335231781e-03,1.381827145814895630e-01,8.111148327589035034e-02,2.350392639636993408e-01,2.242612838745117188e-01,1.042845919728279114e-01,-1.433360874652862549e-01,8.613904565572738647e-02,-1.299554109573364258e-01,6.363347172737121582e-02,-3.144526481628417969e-02,-1.349405348300933838e-01,1.323994547128677368e-01,1.020756438374519348e-01,7.765653729438781738e-02,-1.349188201129436493e-02,9.683524817228317261e-02
6.893185782246291637e-04,-2.811638405546545982e-03,1.518754474818706512e-02,-5.542824044823646545e-03,-9.799598157405853271e-02,-8.033229038119316101e-03,-4.447294864803552628e-03,-7.462924811989068985e-03,6.276592612266540527e-03,-8.005453273653984070e-03,-1.416164357215166092e-02,-3.782533342018723488e-03,6.988159846514463425e-03,1.161257177591323853e-02,-8.516467176377773285e-03,-3.503205720335245132e-03,-2.222273265942931175e-03,-1.794493291527032852e-03,2.727420069277286530e-02,1.691512577235698700e-02,8.131947368383407593e-03,-1.950209215283393860e-02,-2.229024976259097457e-04,1.828230731189250946e-02,-2.111773379147052765e-02,8.984228596091270447e-03,-3.410642035305500031e-03,-1.306542474776506424e-02,-2.762207202613353729e-02,-4.395520780235528946e-03,-2.865459397435188293e-02,5.703447852283716202e-03,3.315113252028822899e-03,2.670485712587833405e-02,-3.881705552339553833e-02,-1.584335230290889740e-02,-1.703686080873012543e-02,6.382661871612071991e-03,-6.273385137319564819e-02,9.606538340449333191e-03,-3.345893230289220810e-03,1.943710446357727051e-02,9.578564204275608063e-03,1.060934923589229584e-02,1.968215405941009521e-02,-2.757235988974571228e-02,1.760156638920307159e-02,1.712859026156365871e-03,3.853929415345191956e-02,1.132451347075402737e-03,-3.339462727308273315e-02,-9.822538231674116105e-07,9.036943811224773526e-05,5.635385401546955109e-03,-2.429748326539993286e-02,-1.339176855981349945e-02,-3.421874251216650009e-03,4.175665602087974548e-02,1.815421320497989655e-02,-3.486735280603170395e-03,3.911262319888919592e-04,4.765427205711603165e-03,-2.430719695985317230e-02,-1.945774629712104797e-02,6.017573177814483643e-03,6.193505600094795227e-03,4.023177176713943481e-02,-1.046375464648008347e-02,5.428805947303771973e-03,-1.115445699542760849e-02,2.769936341792345047e-03,-2.744027180597186089e-03,-1.165528595447540283e-01,-7.329111918807029724e-03,6.201470736414194107e-03,3.678730130195617676e-02,2.864146837964653969e-03,3.795070108026266098e-03,3.423309419304132462e-03,2.800581045448780060e-03
9.700196678750216961e-04,-8.102217316627502441e-02,-9.524872899055480957e-02,2.211164683103561401e-02,5.066143274307250977e-01,-6.636336445808410645e-02,-7.735508494079113007e-03,7.699153572320938110e-02,-1.327159255743026733e-01,1.006889492273330688e-01,2.868284583091735840e-01,-8.441579341888427734e-02,1.858969032764434814e-02,-3.114458173513412476e-02,1.092003807425498962e-01,-2.041642926633358002e-02,-1.532733440399169922e-01,-2.092406898736953735e-01,4.670500857173465192e-05,-1.371745318174362183e-01,-1.156399771571159363e-01,-1.373401880264282227e-01,1.593800407135859132e-04,4.610548540949821472e-02,1.061157323420047760e-02,5.844769254326820374e-02,-7.801688462495803833e-02,4.475741982460021973e-01,-1.872730627655982971e-02,-1.854386478662490845e-01,1.967359334230422974e-02,1.490378975868225098e-01,5.995588004589080811e-02,9.235032647848129272e-02,1.696964353322982788e-01,1.718134284019470215e-01,-3.257565898820757866e-03,4.355074837803840637e-02,-4.456569626927375793e-02,-5.257908627390861511e-02,-1.296854317188262939e-01,-4.698950052261352539e-02,-4.005976393818855286e-02,1.567218899726867676e-01,4.054490849375724792e-02,-1.952482163906097412e-01,-3.423623144626617432e-01,1.644651889801025391e-01,-1.201926823705434799e-02,5.370492339134216309e-01,1.845721751451492310e-01,3.554580416675889865e-07,1.101858615875244141e-01,-1.989499181509017944e-01,2.262282520532608032e-01,1.009957790374755859e-01,1.360464543104171753e-01,2.149193435907363892e-01,-5.209204182028770447e-02,2.640022039413452148e-01,1.120824217796325684e-01,1.494388133287429810e-01,3.049139082431793213e-01,-2.724890829995274544e-03,1.582968831062316895e-01,-1.222376897931098938e-01,1.075527667999267578e-01,-1.020258441567420959e-01,-1.483352482318878174e-01,-6.235720589756965637e-02,1.401322633028030396e-01,-1.470557153224945068e-01,7.549030780792236328e-01,9.449896961450576782e-02,-7.214154303073883057e-02,1.002752874046564102e-02,1.536957025527954102e-01,1.542890667915344238e-01,-9.986376762390136719e-02,1.423045247793197632e-01
4.643644988536834717e-01,-1.694325357675552368e-01,-4.182752966880798340e-02,-2.663981541991233826e-02,-8.758047223091125488e-01,-1.626860350370407104e-01,-9.792458266019821167e-02,-1.820160821080207825e-02,-2.188472896814346313e-01,7.105406373739242554e-02,-2.752088010311126709e-01,1.096079591661691666e-02,8.248586952686309814e-02,-4.191986098885536194e-02,-1.631154119968414307e-01,-5.586155503988265991e-02,-2.137273699045181274e-01,-3.034549951553344727e-01,6.912872195243835449e-02,-6.205664202570915222e-02,2.538887262344360352e-01,-1.702472120523452759e-01,-8.849842124618589878e-04,-5.240448284894227982e-03,8.182121813297271729e-02,1.691002547740936279e-01,-2.048992663621902466e-01,3.916767537593841553e-01,-1.578053385019302368e-01,-2.759406566619873047e-01,-1.241040378808975220e-01,1.132913306355476379e-02,4.045630991458892822e-02,1.896330714225769043e-01,-1.233431994915008545e-01,2.346569895744323730e-01,-7.161402027122676373e-04,7.917165756225585938e-03,-2.335143089294433594e-01,-1.176768541336059570e-01,-2.364865876734256744e-02,6.045182794332504272e-02,6.232512369751930237e-02,8.794923126697540283e-02,-4.599583521485328674e-02,4.015893042087554932e-01,-1.663552075624465942e-01,7.316912710666656494e-02,1.410271376371383667e-01,3.961792290210723877e-01,1.144919753074645996e+00,6.997266268626844976e-07,2.125136181712150574e-02,1.742258369922637939e-01,-1.811989247798919678e-01,-2.141988277435302734e-01,8.618216216564178467e-02,1.654675751924514771e-01,2.350270748138427734e-01,-4.843977279961109161e-03,4.937485232949256897e-02,-9.718438959680497646e-04,-9.379877150058746338e-02,-1.428435673005878925e-03,9.349577128887176514e-02,2.624065577983856201e-01,7.213042676448822021e-02,-7.055144757032394409e-02,-2.232969403266906738e-01,-1.089611351490020752e-01,2.827853150665760040e-02,-2.205360233783721924e-01,-8.843227028846740723e-01,1.907363086938858032e-01,-1.041960939764976501e-01,-1.626292988657951355e-02,5.462762713432312012e-02,5.059385672211647034e-02,-1.732218861579895020e-01,4.164937511086463928e-02
-1.053962334990501404e-01,-2.708946168422698975e-02,-5.278411135077476501e-02,-1.451633591204881668e-02,4.096610844135284424e-01,4.272965714335441589e-02,6.249395385384559631e-02,3.234764561057090759e-02,8.920363336801528931e-02,5.353786796331405640e-02,1.209808140993118286e-02,5.815433338284492493e-02,-6.051256880164146423e-02,4.091641306877136230e-02,-4.111807048320770264e-02,1.404141485691070557e-01,-1.373474299907684326e-02,-3.156915679574012756e-02,1.016179157886654139e-05,1.427544048056006432e-04,-1.895964741706848145e-01,1.041341871023178101e-01,-4.464090801775455475e-03,-2.757307514548301697e-02,1.283052414655685425e-01,-8.687239869686891325e-07,6.079461798071861267e-02,2.159213833510875702e-02,7.628133147954940796e-02,-1.183664705604314804e-02,6.684696674346923828e-02,-9.542712010443210602e-03,1.100957319140434265e-01,-8.794070780277252197e-02,1.542959809303283691e-01,1.222501695156097412e-02,-5.978290364146232605e-02,8.408730477094650269e-02,3.563582431524991989e-03,-3.559143096208572388e-02,-1.411388963460922241e-01,-3.775599896907806396e-01,-3.788887070754753950e-08,-3.960823640227317810e-03,3.743227943778038025e-02,-4.983765631914138794e-02,4.044798668473958969e-03,9.805480949580669403e-03,4.851862788200378418e-02,-2.006739526987075806e-01,-2.061726339161396027e-02,-8.853362487570848316e-07,2.596645988523960114e-02,-5.503317765942483675e-07,-3.067111223936080933e-02,5.997997894883155823e-02,7.238319516181945801e-02,-3.312941491603851318e-01,-1.024291217327117920e-01,4.772146418690681458e-02,2.705682627856731415e-02,-1.032805343470499793e-07,-4.843791481107473373e-03,-5.612391978502273560e-02,-9.379949420690536499e-02,-1.991187185049057007e-01,-2.699540555477142334e-01,-8.064982295036315918e-02,4.191369935870170593e-02,-6.779049057513475418e-03,2.630386501550674438e-02,-2.738735405728220940e-03,-2.397341132164001465e-01,5.703735630959272385e-03,-2.838890999555587769e-02,-1.659181862123659812e-06,4.628988914191722870e-03,7.343790028244256973e-03,-2.204865589737892151e-02,1.343096233904361725e-02
-1.674162894487380981e-01,9.036569297313690186e-02,-1.320956796407699585e-01,9.560202807188034058e-02,2.417270094156265259e-01,6.069132313132286072e-02,1.823783107101917267e-02,7.424033433198928833e-02,-8.423106372356414795e-02,4.711912944912910461e-02,1.452872604131698608e-01,-4.525477066636085510e-02,3.530940040946006775e-03,-9.441635012626647949e-02,1.610713750123977661e-01,1.249658465385437012e-01,-2.578803338110446930e-02,-2.283852994441986084e-01,-2.785191988152746490e-08,-1.675107628107070923e-01,-1.316983103752136230e-01,1.509466869720199611e-06,-2.704818616621196270e-04,-1.330560259521007538e-02,5.875051766633987427e-02,-2.464651316404342651e-02,-1.364031881093978882e-01,1.047639846801757812e-01,-7.123776981643459294e-07,-1.863126307725906372e-01,3.631407618522644043e-01,9.355886280536651611e-02,1.573797762393951416e-01,-4.154404103755950928e-01,-9.921386837959289551e-02,1.388562470674514771e-01,-4.829337412957102060e-04,2.982902228832244873e-01,-4.924425855278968811e-02,7.795691914225244545e-08,-3.312799632549285889e-01,-2.224260419607162476e-01,-1.090998412109911442e-03,1.021603122353553772e-01,-5.060900002717971802e-02,-1.105123087763786316e-01,-2.951156261588039342e-07,1.110167801380157471e-01,-5.936189368367195129e-02,-4.363568723201751709e-01,1.246942728757858276e-01,3.320373878068494378e-07,4.525312408804893494e-02,1.186153888702392578e-01,-8.606307208538055420e-02,8.034013211727142334e-02,1.547490805387496948e-01,1.142690256237983704e-01,-1.142430528998374939e-01,1.768951416015625000e-01,7.371738553047180176e-02,1.947725564241409302e-01,1.245112944161519408e-04,-9.560031321598216891e-05,1.172093302011489868e-01,-1.289533972740173340e-01,-2.529102861881256104e-01,1.717932373285293579e-01,-2.691682614386081696e-02,-1.610662341117858887e-01,9.079407155513763428e-02,-1.498437970876693726e-01,-3.584059886634349823e-03,5.164901725947856903e-03,-8.701061457395553589e-02,1.739891432225704193e-02,1.047743335366249084e-01,9.192816913127899170e-02,-7.084476947784423828e-02,9.411850571632385254e-02
4.115951061248779297e-01,4.745890572667121887e-02,-1.019303570501506329e-03,-1.394499372690916061e-02,-6.446505188941955566e-01,-5.967178381979465485e-03,-2.483596652746200562e-02,1.077696069842204452e-04,-3.160760551691055298e-02,2.617781981825828552e-02,-2.769253402948379517e-02,-4.318974539637565613e-02,-4.051187634468078613e-02,-1.181777752935886383e-02,1.657677697949111462e-03,6.411965470761060715e-03,-1.058387309312820435e-01,-7.952176779508590698e-02,-1.005933508276939392e-01,3.433088073506951332e-03,3.658090233802795410e-01,-2.697104401886463165e-02,-9.224022505804896355e-05,-5.490237846970558167e-03,-3.122323751449584961e-02,5.711144953966140747e-02,-3.557654330506920815e-03,2.185492515563964844e-01,-1.807870715856552124e-02,-6.564101576805114746e-02,-5.635656788945198059e-02,4.936501011252403259e-02,2.247386844828724861e-03,2.768230810761451721e-02,-2.369791567325592041e-01,5.842362716794013977e-02,4.316221165936440229e-04,3.705099970102310181e-02,-5.462843552231788635e-02,-1.642617955803871155e-02,-4.926946945488452911e-03,-6.979073584079742432e-02,3.616168349981307983e-02,4.453045502305030823e-02,-5.998405814170837402e-02,6.063802912831306458e-02,1.499191019684076309e-02,2.326352894306182861e-02,3.144409507513046265e-02,8.373382687568664551e-01,3.721886873245239258e-01,5.039452233290830918e-08,3.298921510577201843e-02,5.168359354138374329e-02,8.842707425355911255e-02,4.952588677406311035e-02,5.553404241800308228e-02,1.476256549358367920e-01,3.431255221366882324e-01,-3.014701046049594879e-02,3.480079025030136108e-02,6.141494959592819214e-03,-4.373707622289657593e-02,4.574362828861922026e-04,3.141064569354057312e-02,3.768468797206878662e-01,-2.432429417967796326e-02,-3.778760135173797607e-02,-3.891670331358909607e-02,-1.295746769756078720e-02,2.455592155456542969e-02,-5.442776530981063843e-02,-1.811854392290115356e-01,1.475701387971639633e-02,-1.461565494537353516e-02,-1.758420839905738831e-02,2.430459298193454742e-02,2.912312187254428864e-02,-4.058629274368286133e-02,2.600210532546043396e-02
2.025988139212131500e-02,8.610017597675323486e-03,-1.807937473058700562e-01,1.284780800342559814e-01,-4.195034503936767578e-01,-7.281056605279445648e-03,-2.760667204856872559e-01,2.196325510740280151e-01,-1.026463583111763000e-01,-3.048171475529670715e-02,1.894432753324508667e-01,-3.790809810161590576e-01,5.078157410025596619e-02,-2.326459735631942749e-01,1.183258667588233948e-01,9.779104590415954590e-02,2.331145196876605041e-06,-2.426228821277618408e-01,2.327705487914499827e-06,-3.196363449096679688e-01,2.735929936170578003e-02,-1.527515451016370207e-06,-3.586809907574206591e-04,3.068502061069011688e-02,1.379933804273605347e-01,-7.845627516508102417e-02,-1.963159590959548950e-01,1.936531364917755127e-01,-1.343740336778864730e-06,-2.031924277544021606e-01,-2.062622457742691040e-01,-3.551016561686992645e-04,1.606232970952987671e-01,4.828679561614990234e-01,-6.436669081449508667e-02,4.310668706893920898e-01,-1.095773279666900635e-02,-6.856246292591094971e-02,-2.790503685901057906e-07,2.456937863826169632e-06,-3.092883825302124023e-01,-1.615765541791915894e-01,-1.260583102703094482e-02,4.050254449248313904e-02,-8.167059160768985748e-03,8.312235027551651001e-02,1.465451532567385584e-06,9.931658953428268433e-02,-2.647975832223892212e-02,-7.964455485343933105e-01,1.186342211440205574e-03,1.759276528900954872e-06,-5.859382916241884232e-03,2.768614888191223145e-01,1.844364874159509782e-06,-6.872288882732391357e-02,5.834204331040382385e-02,1.528224647045135498e-01,4.154729098081588745e-02,1.732607930898666382e-01,1.277041528373956680e-02,1.870731860399246216e-01,5.332392660761797742e-08,-1.009092386811971664e-02,9.637401252985000610e-02,3.093521855771541595e-02,-1.326769869774580002e-02,2.345614284276962280e-01,-9.649404883384704590e-02,-8.501186221837997437e-02,6.519424915313720703e-02,-1.477927267551422119e-01,-1.436559390276670456e-02,-3.736053705215454102e-01,-5.674295127391815186e-02,4.528367519378662109e-01,9.082724899053573608e-02,8.204992115497589111e-02,-1.633335351943969727e-01,7.307260483503341675e-02
1.975654810667037964e-02,-3.049226664006710052e-02,1.044011488556861877e-02,1.618512906134128571e-02,-6.993103027343750000e-02,1.412738952785730362e-02,-4.300564061850309372e-03,-1.064873114228248596e-02,1.096193678677082062e-02,-5.232687108218669891e-04,-2.253698930144309998e-02,-9.972073137760162354e-03,9.548644535243511200e-03,4.033333156257867813e-03,1.060001901350915432e-03,-1.241733226925134659e-02,-5.819732323288917542e-03,-2.987312385812401772e-03,-7.998320274055004120e-03,1.267189392820000648e-03,2.665353938937187195e-02,-5.975093226879835129e-03,-1.599484588950872421e-03,4.717626143246889114e-03,1.648724544793367386e-03,2.500267513096332550e-02,-1.227583270519971848e-02,-3.857623413205146790e-02,-1.432257704436779022e-02,-2.943643601611256599e-03,-3.727825358510017395e-03,-5.563276354223489761e-03,-5.971348844468593597e-03,-4.580327949952334166e-04,-2.506085932254791260e-01,-1.192243490368127823e-02,-4.731741733849048615e-03,7.188085000962018967e-03,-2.150515280663967133e-02,-3.623354714363813400e-03,1.322192605584859848e-03,2.613617293536663055e-02,6.523800641298294067e-02,2.368406578898429871e-02,-2.501175180077552795e-02,3.689788654446601868e-02,1.565597718581557274e-03,8.448059670627117157e-04,3.025175444781780243e-02,7.704723626375198364e-02,1.531730312854051590e-02,5.975738872621150222e-07,-5.585344973951578140e-03,-1.519104838371276855e-02,-6.830919068306684494e-03,-4.995986446738243103e-02,1.240486279129981995e-02,-4.528759047389030457e-02,4.047924652695655823e-02,-9.774028323590755463e-03,-1.814136980101466179e-03,-1.541356593370437622e-01,-2.751954365521669388e-03,-4.536076448857784271e-03,-3.282959340140223503e-03,2.336488105356693268e-02,-2.530516870319843292e-02,-5.262682959437370300e-02,4.441458731889724731e-03,-5.650592502206563950e-03,-3.904704237356781960e-03,-2.447146456688642502e-03,2.924365550279617310e-02,-2.515691798180341721e-03,-4.845494404435157776e-03,-6.882787495851516724e-02,-9.655900648795068264e-04,2.541752182878553867e-04,-8.062143810093402863e-03,-7.994938059709966183e-04
-5.277992784976959229e-02,8.287286013364791870e-02,-3.148943185806274414e-02,-6.549242138862609863e-02,9.316775798797607422e-01,2.220755666494369507e-01,-2.427730709314346313e-02,1.175500825047492981e-01,-1.138495802879333496e-01,3.176657855510711670e-02,-8.322816342115402222e-02,-1.665394604206085205e-01,4.116274788975715637e-02,-9.582120180130004883e-02,-6.607433408498764038e-02,3.282978758215904236e-02,-4.717325866222381592e-01,-1.722570955753326416e-01,2.546479925513267517e-02,-2.669168114662170410e-01,-2.737845480442047119e-01,-8.845894783735275269e-02,2.308386756340041757e-04,9.055959060788154602e-03,4.965456575155258179e-02,1.231482774019241333e-01,1.453460287302732468e-02,5.595886707305908203e-01,-4.409952461719512939e-02,-1.485251188278198242e-01,1.268473714590072632e-01,1.581688225269317627e-01,3.052689693868160248e-02,1.072841212153434753e-01,1.786929517984390259e-01,2.042923569679260254e-01,2.150980988517403603e-03,1.631595194339752197e-02,-9.257405251264572144e-02,-4.469954222440719604e-02,-5.488462373614311218e-02,-1.813957393169403076e-01,-2.920083701610565186e-02,1.681007146835327148e-01,5.799259990453720093e-02,-5.404783412814140320e-02,1.857002452015876770e-02,1.834231317043304443e-01,1.638441532850265503e-01,2.056699275970458984e+00,2.129410654306411743e-01,-1.280633796341135167e-06,1.534062176942825317e-01,7.152074575424194336e-02,1.911085695028305054e-01,1.499491035938262939e-01,1.443327665328979492e-01,2.024262398481369019e-01,-2.493152916431427002e-01,2.640633285045623779e-01,1.497073173522949219e-01,9.805964305996894836e-03,-3.909005969762802124e-02,2.420848468318581581e-03,1.720655411481857300e-01,-2.725225985050201416e-01,1.239840090274810791e-01,-4.725172743201255798e-02,-1.802380830049514771e-01,-2.582282014191150665e-02,1.657900810241699219e-01,-1.097622960805892944e-01,4.809701144695281982e-01,1.444463580846786499e-01,-3.635004907846450806e-02,1.312631461769342422e-02,1.776376664638519287e-01,1.737819761037826538e-01,-1.249799430370330811e-01,1.698257029056549072e-01
-1.334912776947021484e-01,2.549295425415039062e-01,2.241533249616622925e-02,-6.343042105436325073e-02,3.113453090190887451e-01,8.032727986574172974e-02,4.216368198394775391e-01,-2.399924844503402710e-01,2.560838162899017334e-01,6.732573383487761021e-04,-2.181923985481262207e-01,3.943755328655242920e-01,-1.239992082118988037e-01,3.461926877498626709e-01,-7.204670310020446777e-01,-1.257768422365188599e-01,1.570635735988616943e-01,2.068812549114227295e-01,6.100565195083618164e-02,-1.235412508249282837e-01,-4.188009724020957947e-02,3.038506209850311279e-01,4.774153348989784718e-04,1.329378783702850342e-02,3.263396620750427246e-01,2.223662436008453369e-01,-2.683798670768737793e-01,2.370683848857879639e-02,1.531256437301635742e-01,1.579976230859756470e-01,1.231596022844314575e-01,1.251457631587982178e-01,3.741004765033721924e-01,4.005488753318786621e-01,-1.509742066264152527e-02,-1.590265631675720215e-01,3.554128576070070267e-03,3.478672504425048828e-01,4.921205714344978333e-02,2.104648649692535400e-01,1.505535244941711426e+00,2.379043996334075928e-01,2.868369780480861664e-02,7.278820872306823730e-02,-7.992216944694519043e-02,1.620321720838546753e-01,1.456413626670837402e+00,4.486351087689399719e-02,2.023816704750061035e-01,1.081235289573669434e+00,7.293327897787094116e-02,-1.188452870337641798e-06,1.771840304136276245e-01,2.262542098760604858e-01,1.900429576635360718e-01,5.337256006896495819e-04,1.105292886495590210e-01,1.399299949407577515e-01,3.223765641450881958e-02,-3.675823509693145752e-01,1.737661510705947876e-01,4.087026752586098155e-07,1.424810767173767090e+00,3.645547199994325638e-03,1.153517886996269226e-01,-4.547684639692306519e-02,1.058229804039001465e-01,-1.845214217901229858e-01,-4.924345314502716064e-01,2.469592988491058350e-01,1.379406601190567017e-01,1.141191646456718445e-01,7.528944313526153564e-02,3.571133911609649658e-01,2.270859181880950928e-01,7.630272884853184223e-04,2.895402722060680389e-02,8.657694607973098755e-02,-1.955462843179702759e-01,1.296042054891586304e-01
9.313095360994338989e-02,-4.866379126906394958e-02,1.245298013091087341e-01,-1.105395704507827759e-01,-1.270882319658994675e-02,-3.312679007649421692e-02,-2.636862359941005707e-02,1.464684009552001953e-01,-1.392107307910919189e-01,1.183162257075309753e-01,2.628988325595855713e-01,-3.481397032737731934e-02,2.515284717082977295e-02,1.325608137995004654e-02,4.762127697467803955e-01,-1.171211600303649902e-01,-3.756884038448333740e-01,-1.331117600202560425e-01,1.293922867625951767e-02,-1.150517612695693970e-01,7.491946220397949219e-02,1.360695660114288330e-01,4.338079597800970078e-04,-9.494310617446899414e-02,6.920224428176879883e-02,5.252244696021080017e-02,-1.576716005802154541e-01,2.401253283023834229e-01,6.509257853031158447e-02,-1.130492463707923889e-01,-1.662931293249130249e-01,1.644471734762191772e-01,2.971167266368865967e-01,2.175240069627761841e-01,4.169993847608566284e-02,7.117779552936553955e-02,1.074732933193445206e-02,-2.628093026578426361e-02,-5.053611099720001221e-02,-1.021937802433967590e-01,-3.539520502090454102e-01,-1.798269301652908325e-01,-3.021070733666419983e-02,1.700170636177062988e-01,2.203642576932907104e-02,-1.879790611565113068e-02,-4.095325246453285217e-03,2.031839638948440552e-01,-1.365718394517898560e-01,-2.426794320344924927e-01,3.537559211254119873e-01,9.819551678447169252e-07,1.141450405120849609e-01,2.326679229736328125e-01,-1.044970527291297913e-01,-9.597817808389663696e-02,2.378331869840621948e-01,-1.529070585966110229e-01,6.792698055505752563e-02,2.380801290273666382e-01,1.389223039150238037e-01,3.944886624813079834e-01,-1.270056515932083130e-02,1.089344359934329987e-02,1.948485672473907471e-01,7.616537064313888550e-02,-1.440108567476272583e-01,-1.352883428335189819e-01,7.875552028417587280e-02,-1.103068441152572632e-01,1.704131960868835449e-01,-4.839248955249786377e-02,-1.896325647830963135e-01,-4.543405771255493164e-02,-8.702495694160461426e-02,2.991804182529449463e-01,1.984626501798629761e-01,1.847875714302062988e-01,-1.804984807968139648e-01,1.855926364660263062e-01
9.252103418111801147e-02,-8.462183177471160889e-02,-1.007422357797622681e-01,-2.933484967797994614e-03,-2.854360044002532959e-01,-1.474296152591705322e-01,-9.736672788858413696e-02,3.556541167199611664e-03,-1.751390546560287476e-01,3.585529327392578125e-02,1.043407246470451355e-01,-2.033548653125762939e-01,-1.496231649070978165e-02,-4.938569664955139160e-02,1.855614185333251953e-01,4.472444951534271240e-02,1.944026052951812744e-01,-2.218131721019744873e-01,3.234452009201049805e-02,6.700898706912994385e-02,8.894654363393783569e-02,3.434186568483710289e-03,3.381023416295647621e-04,-1.509145600721240044e-03,-4.552363455295562744e-01,9.187195450067520142e-02,-1.689805835485458374e-01,3.644590675830841064e-01,-1.330599486827850342e-01,-2.075244486331939697e-01,-9.917700290679931641e-02,5.541848763823509216e-02,1.707970499992370605e-01,1.434006094932556152e-01,-8.906941115856170654e-02,2.054461240768432617e-01,-4.374985001049935818e-04,-4.158496856689453125e-02,-1.119063422083854675e-01,-1.700279116630554199e-01,-1.113567113876342773e+00,9.156377613544464111e-02,-4.905522218905389309e-04,1.248900815844535828e-01,-1.005465444177389145e-02,7.585472613573074341e-02,-5.328225437551736832e-03,1.279657185077667236e-01,-4.946224391460418701e-02,2.029657214879989624e-01,-1.367781162261962891e+00,4.974148737346695270e-07,5.039936676621437073e-02,2.183683514595031738e-01,-1.698187589645385742e-01,-1.746489107608795166e-01,1.552049964666366577e-01,3.141720592975616455e-02,6.014350056648254395e-02,1.180410310626029968e-01,5.083047226071357727e-02,1.653412282466888428e-01,1.503552794456481934e-01,-6.746996077708899975e-04,1.293518841266632080e-01,8.849064260721206665e-02,-1.109189316630363464e-01,-1.019882261753082275e-01,-1.613655686378479004e-01,-1.370988637208938599e-01,8.216527849435806274e-02,-1.463311612606048584e-01,-6.807077527046203613e-01,1.606187373399734497e-01,-1.248521581292152405e-01,-1.854271069169044495e-02,1.177600845694541931e-01,1.087113469839096069e-01,-2.173889279365539551e-01,7.584948092699050903e-02
1.480322033166885376e-01,5.166612099856138229e-03,2.780331112444400787e-02,2.600062452256679535e-02,-1.247852519154548645e-01,-7.130518555641174316e-02,-4.364860802888870239e-02,4.901062324643135071e-02,1.165643706917762756e-02,6.368619948625564575e-02,7.882538437843322754e-02,1.634023152291774750e-02,-3.593878448009490967e-02,-4.229469597339630127e-02,1.205327287316322327e-01,-3.901923820376396179e-02,3.037899434566497803e-01,-1.813399791717529297e-01,-7.746359705924987793e-02,-1.574557833373546600e-02,2.564634010195732117e-02,-1.626041233539581299e-01,1.062389812432229519e-03,-1.991859637200832367e-02,1.332909315824508667e-01,1.120870336890220642e-01,-8.420612663030624390e-02,5.317072570323944092e-02,-1.766419261693954468e-01,-1.415875554084777832e-01,8.855766616761684418e-03,3.721752390265464783e-02,5.712621659040451050e-02,-5.563251674175262451e-02,2.193929813802242279e-02,6.843596696853637695e-02,4.233277286402881145e-04,1.405277252197265625e-01,-7.223118096590042114e-02,-8.977674692869186401e-02,-2.341615110635757446e-01,3.720793128013610840e-01,1.020590402185916901e-02,8.485774695873260498e-02,3.509793803095817566e-02,-7.166103273630142212e-02,-1.672729551792144775e-01,1.013544648885726929e-01,1.869956403970718384e-01,4.595174454152584076e-03,2.066850364208221436e-01,-7.207490284599771257e-07,6.289309356361627579e-03,1.381620019674301147e-02,-9.426108747720718384e-02,-2.120978534221649170e-01,9.906186163425445557e-02,1.078923046588897705e-01,4.494723677635192871e-02,7.375155389308929443e-02,7.099387585185468197e-04,1.020299717783927917e-01,-1.340540498495101929e-01,1.013692453852854669e-04,9.576676040887832642e-02,2.384444326162338257e-02,-1.837859004735946655e-01,-1.395947188138961792e-01,7.917803525924682617e-02,-7.569061219692230225e-02,5.342613905668258667e-02,-8.259741961956024170e-02,-2.591292858123779297e-01,-1.199614536017179489e-02,-6.649877876043319702e-02,3.736197948455810547e-02,7.683048397302627563e-02,7.458036392927169800e-02,-5.161541327834129333e-02,6.582263857126235962e-02
